"V1","V2","V3"
3,-0.00527824383320793,-1.47051123486185e-07
3,-0.0022617963865261,-1.157072355635e-08
3,-0.00504902166727532,-1.28712789708724e-07
3,-0.000975245123817795,-9.27558613253234e-10
3,-0.00387583952201295,-5.82233729120362e-08
3,-0.00152374576655239,-3.53783468998175e-09
3,-0.0013159935655604,-2.27908906559496e-09
3,-0.0017053805107351,-4.95979682830697e-09
3,-0.001538297872788,-3.64016708561577e-09
3,-0.000134375358316252,-2.4263804939995e-12
3,-0.00257910044223357,-1.7155554813563e-08
3,-0.00187668599132631,-6.60959480900024e-09
3,-0.00233159690965099,-1.2675363217827e-08
3,-0.00215078232594637,-9.94922785315862e-09
3,-0.000368234435825573,-4.99313374006243e-11
3,-0.000256411887308817,-1.68583267019761e-11
3,0.0108091305067991,1.26290964876371e-06
3,-0.000561435567718848,-1.76970047304243e-10
3,-0.00191445422517242,-7.01673314882526e-09
3,-0.002464610822644,-1.49708015574406e-08
3,-0.00222314349311364,-1.09875910165625e-08
3,-0.00342638886136643,-4.0226287083095e-08
3,-0.00294939172136602,-2.56564976398639e-08
3,-0.00217540521448142,-1.0294861199732e-08
3,0.00463185352824228,9.93720964251238e-08
3,-0.000357058014244735,-4.55214781772407e-11
3,-0.00145896483510185,-3.10552101986072e-09
3,-0.00131602448144682,-2.2792496933879e-09
3,-0.000409616998560021,-6.87280327464627e-11
3,-0.00265876544158414,-1.87949024361297e-08
3,-0.00188687671835467,-6.71785425665318e-09
3,-0.00200211940220207,-8.02545978713908e-09
3,-0.000872812193824841,-6.64909311771139e-10
3,-0.00112914696052025,-1.43963172786701e-09
3,0.0103397144690199,1.10541572338081e-06
3,-0.00109539661801655,-1.314359556564e-09
3,-0.00206170267170753,-8.76351029429243e-09
3,-0.00211933234685516,-9.51912873385803e-09
3,-0.00328387526031493,-3.54127746335159e-08
3,-0.00345363802910107,-4.11936669571734e-08
3,-0.00412102658414377,-6.99868179766471e-08
3,-0.00216782580577275,-1.0187629573687e-08
3,-0.000799935882377445,-5.11876904030998e-10
3,-0.00123004694242438,-1.86108006571289e-09
3,0.00199717029992894,7.96609161970422e-09
3,0.00244912322638222,1.46903421485839e-08
3,0.00259381134354596,1.74507925459456e-08
3,0.0036232474870787,4.75657116747022e-08
3,-0.00574606614579706,-1.89719452722722e-07
3,-0.00561800773870744,-1.77315621778497e-07
3,-0.00442694723906365,-8.67587004414033e-08
3,-0.000937537216295282,-8.24072742174087e-10
3,-0.00727621072503182,-3.85226189006098e-07
3,-0.00691126443039954,-3.30120526592299e-07
3,-0.00769597229009028,-4.55816965911547e-07
3,-0.00474085697543445,-1.06554196987708e-07
3,-0.00150246123905095,-3.39164063814287e-09
3,-0.00104620558109857,-1.14512025733956e-09
3,0.00793719588194653,5.00036026185724e-07
3,-0.000961245255851117,-8.88183351215087e-10
3,-0.00356771633166987,-4.54120334687488e-08
3,-0.00304619471195074,-2.82665613626506e-08
3,-0.00570655965477192,-1.85833105629984e-07
3,-0.000864455364203514,-6.45992864232018e-10
3,0.00312042553741541,3.0383756749255e-08
3,0.00835133108464435,5.82461339032951e-07
3,0.00773680055641326,4.63110048697517e-07
3,-0.00443315236374725,-8.71240335692451e-08
3,-0.00338497709921191,-3.87853044231778e-08
3,-0.00411768544607831,-6.98167297098315e-08
3,-0.00317179382370173,-3.1909121472072e-08
3,-0.00213930880570582,-9.790850886653e-09
3,-0.00229859443580126,-1.21447073251031e-08
3,-0.00166352982512575,-4.60353845146381e-09
3,0.00269497708816625,1.95733531515803e-08
3,-0.000237466369037152,-1.33907941913347e-11
3,-0.000754993378756848,-4.30357552276916e-10
3,-0.000828458332356488,-5.68606749897429e-10
3,-0.000419770659059708,-7.39666990348909e-11
3,-0.00026170728948627,-1.79245168574509e-11
3,-0.00055967338990565,-1.75308904400972e-10
3,-0.000417261776813048,-7.26483590700727e-11
3,-0.00123472992209514,-1.88241735651336e-09
3,-0.000168719626338322,-4.80282557646723e-12
3,0.00349238896246368,4.25959021725187e-08
3,0.010751252604561,1.24273118794654e-06
3,0.0105985004905338,1.19051061684896e-06
3,0.00681950163210645,3.17145032221101e-07
3,0.00756437609590665,4.32831979315718e-07
3,0.00558542198047638,1.74248067138491e-07
3,-0.00316532595106142,-3.1714313509186e-08
3,-0.000929591658785037,-8.03297942193155e-10
3,-0.00807426272003994,-5.2639121064108e-07
3,-0.00605123735202524,-2.21581023322782e-07
3,-0.0032792686748694,-3.52639535975442e-08
3,-0.00429983582474915,-7.94978935465314e-08
3,-0.000475251348225101,-1.07342096371445e-10
3,-0.00112225616423856,-1.41343551207801e-09
3,0.00315022628562258,3.12626114411708e-08
3,0.00969791135016179,9.12083563748588e-07
3,0.00956012494378926,8.73757073635818e-07
3,0.0070101235239632,3.44490311260593e-07
3,0.00596067065594991,2.11780212359528e-07
3,0.00426480390070917,7.75706088463557e-08
3,0.00412398050802885,7.01374241068537e-08
3,-0.000905846477356561,-7.43299429319822e-10
3,-0.00307074881023893,-2.89556205494839e-08
3,-0.00326291526868714,-3.47390060714557e-08
3,-0.001892626320713,-6.77945256793994e-09
3,-0.00273732139983144,-2.05105533825735e-08
3,-0.00166510806141021,-4.61665339495799e-09
3,0.000275182585503157,2.08383265955251e-11
3,0.00297562069744216,2.63470934946291e-08
3,0.00126234858295132,2.01158269371726e-09
3,0.00223000695000647,1.10896706853846e-08
3,0.001140589272886,1.48384264490202e-09
3,0.0012111289454946,1.77652429523487e-09
3,0.00109735485863271,1.32142120767968e-09
3,-0.00225499993012832,-1.14667303091022e-08
3,-0.00243123530422653,-1.43708011700357e-08
3,-0.00137588635805807,-2.60463992853324e-09
3,-0.000609561501962012,-2.26491856429248e-10
3,-0.00143550573992148,-2.958113273101e-09
3,-0.00554190716842614,-1.70207126610123e-07
3,0.00528164938020734,1.47335941340012e-07
3,0.0193143290084004,7.20508112801515e-06
3,0.0108620864708898,1.28156243046803e-06
3,0.00979706633331793,9.4034700495848e-07
3,0.00827679738011384,5.67005107259811e-07
3,0.00518795857035983,1.39633459419664e-07
3,0.00362635497566096,4.76882012746768e-08
3,0.0105196439763125,1.16413440814854e-06
3,0.00371994726566663,5.14766587546382e-08
3,0.00347198218070978,4.18535656282233e-08
3,-0.00391070044715051,-5.98086022736343e-08
3,-0.00497169139368497,-1.22888852498374e-07
3,-0.0020929783380455,-9.16841367968843e-09
3,-0.00406825390291764,-6.73324084505176e-08
3,-0.00534009640908176,-1.52281551637338e-07
3,-0.00136188658211043,-2.52593879503266e-09
3,0.0038431994507156,5.67647554184727e-08
3,0.0149467704318872,3.33919739311536e-06
3,0.0137070225024736,2.57530918768286e-06
3,0.0114236114156332,1.49076869835444e-06
3,0.00930568377284442,8.05832670040693e-07
3,0.00706691173493316,3.52930345396781e-07
3,0.00399620980440835,6.3818242944144e-08
3,0.00397921899741095,6.30076851022716e-08
3,0.00788392262757017,4.90034955425382e-07
3,0.00395274035159855,6.17582330159213e-08
3,0.00374332856538346,5.24534242706302e-08
3,0.005572716071819,1.73061613860209e-07
3,-0.00453227599239304,-9.30998636468063e-08
3,-0.00198669641277783,-7.84141651139071e-09
3,-0.00688275382368537,-3.26051880320809e-07
3,-0.000709148667732884,-3.56625073348343e-10
3,0.004774795572555,1.08859001753102e-07
3,0.0128659888753508,2.12975435337921e-06
3,0.0145441911661048,3.07658361369324e-06
3,0.0136311350332815,2.53277178857335e-06
3,0.0103622550080916,1.1126609014046e-06
3,0.0132387313365725,2.32027310696543e-06
3,0.00269536019653422,1.9581701773306e-08
3,0.00201622618283637,8.19629820026868e-09
3,0.00427243206697753,7.79875896868763e-08
3,0.00229275350793582,1.20523601207821e-08
3,0.00211842708021169,9.50693573914632e-09
3,0.00708461947114869,3.55590037725611e-07
3,0.00800413211190066,5.12793775339849e-07
3,-0.000587237390682278,-2.02507494663369e-10
3,-0.00604856630490383,-2.21287731829772e-07
3,-0.000415468710899625,-7.17158198209697e-11
3,0.00440451172539745,8.54463097977149e-08
3,0.00948966496587812,8.545798325761e-07
3,0.00634045471270777,2.54894940283088e-07
3,0.00717052551925243,3.68682868040661e-07
3,0.00638333495555836,2.60101527005893e-07
3,0.00125702232376918,1.9862274128268e-09
3,0.005602089454024,1.75812649189444e-07
3,0.000938530704405991,8.26695275966752e-10
3,0.00298247697056258,2.65296363336744e-08
3,-0.000489453795926133,-1.17256007600808e-10
3,-0.00436021822819653,-8.28943019151005e-08
3,0.00820257234926647,5.5188705708878e-07
3,0.0026459509076231,1.85244510213992e-08
3,0.00200546266253072,8.06573115746978e-09
3,0.00268820156485509,1.94260941258846e-08
3,0.00221022195288068,1.07971134468187e-08
3,-0.00332911014184979,-3.68964422657264e-08
3,0.000754094391944197,4.28822074146538e-10
3,0.0020229914963268,8.27908176285135e-09
3,0.00289604751483723,2.42894146502061e-08
3,0.00200417561673272,8.05021208824838e-09
3,0.000619186563026007,2.37391174667618e-10
3,0.00331602872322254,3.64632060134639e-08
3,0.00579722845444443,1.94832429258729e-07
3,0.00350856403731865,4.31904990982898e-08
3,0.000752532336310431,4.2616276239921e-10
3,0.000799448763113316,5.10942354279119e-10
3,-0.00208370431940916,-9.04707677847549e-09
3,-0.00115798533702827,-1.55277732519526e-09
3,0.00406863086833142,6.73511272978105e-08
3,0.00593060697295098,2.08591895983719e-07
3,0.00853277318497675,6.21256012126952e-07
3,0.00760959359739157,4.40640477885106e-07
3,0.0121551447861805,1.79589279851862e-06
3,0.00775111020684398,4.6568444905407e-07
3,0.00712175714735271,3.61211426548123e-07
3,0.00413793744419303,7.08519426830727e-08
3,0.00398598296827531,6.33295374493285e-08
3,-0.00106907894548512,-1.22188217645232e-09
3,0.000525096914996286,1.44783276381677e-10
3,0.00140866528797038,2.79526791022376e-09
3,0.00209591624380388,9.20707690292764e-09
3,0.000810387579121642,5.32204237072057e-10
3,0.00146214406285176,3.12586699786482e-09
3,0.00201713476511953,8.20738381325865e-09
3,0.00194067721286384,7.30903294446608e-09
3,0.00125237731176105,1.9642898558576e-09
3,0.000532414394311512,1.50920892747367e-10
3,0.00221514626039458,1.08694412763668e-08
3,0.00129235674826172,2.15847610243234e-09
3,-0.000147549048137907,-3.21224925030001e-12
3,-0.00203033071132737,-8.36951615102624e-09
3,-0.00233647319594446,-1.27550571684677e-08
3,-0.00201580854291831,-8.19120592590831e-09
3,-0.00330056884169627,-3.59555872618519e-08
3,-0.0045024163804173,-9.12718739495334e-08
3,-0.00393347563873861,-6.08596421442098e-08
3,-0.00161287318455071,-4.19566364130549e-09
3,-8.51763586390632e-05,-6.17955510091106e-13
3,-0.00125545476917542,-1.97880597221407e-09
3,-0.00108315235687022,-1.27077495551279e-09
3,-0.000377463757748345,-5.37806166203675e-11
3,-0.00228073790404898,-1.18638634860227e-08
3,-0.0016498310252619,-4.49074504015644e-09
3,-0.00277425877075891,-2.13521151632468e-08
3,-0.00143252067645186,-2.93969786768907e-09
3,-0.000636854652234096,-2.58297960515794e-10
3,-0.000299880454502869,-2.69677355760794e-11
3,-0.00203600462630684,-8.43988018836448e-09
3,-0.00200180204116052,-8.02164398389219e-09
3,-0.00323279739320051,-3.37858976206661e-08
3,-0.00346552661539203,-4.16205404965821e-08
3,-0.00655328249756343,-2.81434068815141e-07
3,-0.00408320285388281,-6.80773855547417e-08
3,-0.00239041438505538,-1.3659021257892e-08
3,0.000643646077311045,2.66649872519461e-10
3,0.000618754926163092,2.36895062309632e-10
3,0.000991915700058443,9.7594263953522e-10
3,-0.00157603353591513,-3.91468086842085e-09
3,-0.00137742455658521,-2.61338541984231e-09
3,-0.00103814775342341,-1.1188645281038e-09
3,-0.000246158618721078,-1.49157514835703e-11
3,-0.000615067860118037,-2.32685382675963e-10
3,-0.00177840170015523,-5.62457347759571e-09
3,-0.00172179995410933,-5.10443967609023e-09
3,-0.00303843346336712,-2.8051054462134e-08
3,-0.00221700253312347,-1.08967896646245e-08
3,-0.00040721842470617,-6.75277467659968e-11
3,-0.000283557523868551,-2.27994056577234e-11
3,-0.00100620030267725,-1.01871647765452e-09
3,-0.00347647105311883,-4.2016111095309e-08
3,-0.00302556541000204,-2.76961650910533e-08
3,-0.00898223268193876,-7.24691059397333e-07
3,0.00885681347648271,6.94756303394666e-07
3,0.00212205304084656,9.55583637624783e-09
3,-0.00438614973302395,-8.43821059917538e-08
3,-0.00320328709882325,-3.28690834395467e-08
3,-0.00240185214103622,-1.38560297025298e-08
3,-0.00406128130046647,-6.69867973314929e-08
3,-0.00318871304593801,-3.24224863284975e-08
3,-0.00340835655794764,-3.95945183001991e-08
3,-0.00251403778798578,-1.58896892371992e-08
3,-0.00076915335679422,-4.55028730941898e-10
3,-0.00181944965004219,-6.02310071598505e-09
3,-0.000248624119636106,-1.53684396122458e-11
3,-0.00027579556225969,-2.09778908496239e-11
3,-0.000735838244967706,-3.98425447605483e-10
3,-0.000823020151900531,-5.5748271640257e-10
3,-0.000660865272662261,-2.88628221382494e-10
3,-0.000488022417575061,-1.16230288568727e-10
3,-0.00045096969929891,-9.17153626634979e-11
3,-0.00128728362891928,-2.13315659607058e-09
3,-0.000182349410810538,-6.06335635372493e-12
3,0.0101922840322661,1.05880151349796e-06
3,0.00912012247781131,7.5858108946583e-07
3,0.00673450011129705,3.05433095231754e-07
3,0.00185463564209066,6.37934081971762e-09
3,0.00552620237662766,1.68764211983508e-07
3,-0.00267762172420851,-1.91976322782273e-08
3,-0.000880429752101735,-6.82470887735453e-10
3,-0.00219989889582931,-1.06465320349061e-08
3,-0.00711874498131432,-3.60753294383781e-07
3,-0.00543807674378812,-1.60818496134074e-07
3,-0.0046702399839243,-1.01863265163101e-07
3,-0.00725332557398756,-3.81602767027814e-07
3,-0.000464647347713832,-1.00316041721684e-10
3,-0.000776533918222266,-4.68253778010296e-10
3,-0.00109721593029961,-1.32091938385364e-09
3,0.00879346412351496,6.79954712642586e-07
3,0.0078684492658183,4.87155316769228e-07
3,0.00662136809258826,2.90297432684547e-07
3,0.00139781581216227,2.73117700193541e-09
3,0.0040358888446641,6.57381668790936e-08
3,0.0034885695720555,4.2456302153772e-08
3,-0.000820590388905198,-5.52559790160636e-10
3,-0.00261871011490312,-1.79581782135729e-08
3,-0.00258948968512149,-1.73637112936307e-08
3,-0.00280463451751094,-2.20611843729224e-08
3,-0.00257808010258109,-1.71352017070728e-08
3,-0.00255973632667567,-1.67720325054281e-08
3,-0.00249228144445631,-1.5480723444462e-08
3,-0.0015570833563405,-3.77516195503132e-09
3,0.00274204677549702,2.0616957559702e-08
3,0.00033144069176443,3.64097318265613e-11
3,0.00233429882166973,1.27194798726055e-08
3,0.0011941817487145,1.70298682485979e-09
3,0.00114707780256839,1.50931061710726e-09
3,0.000994074462639847,9.82328515841132e-10
3,-0.00212906114062581,-9.65082409839791e-09
3,-0.00233974851074285,-1.28087732802476e-08
3,-0.00209838804622087,-9.23969021720204e-09
3,-0.00110114337474666,-1.33515476593431e-09
3,0.000828159168664259,5.67990985403888e-10
3,0.00302614407122661,2.77120594050595e-08
3,0.00132469057028345,2.32457377792537e-09
3,0.00286616301332002,2.35452150771962e-08
3,0.00317234138429885,3.19256501574628e-08
3,-0.00176849682296465,-5.53111708476511e-09
3,-0.00159546850037091,-4.06129655534324e-09
3,0.0165681867124334,4.54804696108295e-06
3,0.0106931360189496,1.22268694047219e-06
3,0.00239453200053246,1.37297280786439e-08
3,0.00806511612178197,5.24604334105195e-07
3,0.00511689380000213,1.33973594662986e-07
3,0.00353434977842322,4.41497839130231e-08
3,0.00927473694603997,7.97819785656438e-07
3,0.00313694335450711,3.08688200775657e-08
3,0.00327807652813267,3.52255079591524e-08
3,-0.00350344096602692,-4.30015798648269e-08
3,-0.00705838704026835,-3.51654683939478e-07
3,-0.00351956621388952,-4.35980856367277e-08
3,-0.00396503717282273,-6.23364103483669e-08
3,-0.00980989550270099,-9.44045972083812e-07
3,-0.00132733380268219,-2.33851663508711e-09
3,0.0143979118446586,2.98468518868508e-06
3,0.0119850283638368,1.72154031921762e-06
3,0.0114629353369373,1.50621693973989e-06
3,0.00231832048308896,1.24600681324049e-08
3,0.00701905351515069,3.45808497409503e-07
3,0.00401752668865169,6.48449726569949e-08
3,0.00395309853952366,6.17750236897266e-08
3,0.00708505943440896,3.55656289527279e-07
3,0.0033975727580913,3.92198833296397e-08
3,0.00360246802144209,4.67520224729035e-08
3,0.00499237465049849,1.24428970533329e-07
3,-0.00655870714556979,-2.82133540351196e-07
3,-0.00197365530596301,-7.6880096446316e-09
3,-0.00612360730858801,-2.29626495695994e-07
3,-0.000704493661832631,-3.49648178927464e-10
3,0.0196406732422158,7.57650843905793e-06
3,0.0201533184593194,8.1853961481694e-06
3,0.0216763170078135,1.01848932477006e-05
3,0.00409110391588479,6.8473343199876e-08
3,0.020838013176526,9.04834028510485e-06
3,0.00429426017290546,7.91890366003983e-08
3,0.00317424249959172,3.19830816074161e-08
3,0.00608467467783607,2.2527452872609e-07
3,0.0031231216295806,3.0462580812574e-08
3,0.00323084972524975,3.37248692927875e-08
3,0.010058143657892,1.01754471448159e-06
3,0.0115828688642346,1.55399071104495e-06
3,-0.000924516256519774,-7.90212065212513e-10
3,-0.00480431024624872,-1.10890191827196e-07
3,-0.000654092507385718,-2.79844981457804e-10
3,0.0171588105584141,5.05197901994e-06
3,0.0104063996107315,1.12694182374881e-06
3,0.0135060253393442,2.46367082484612e-06
3,0.0029850868396956,2.65993429762117e-08
3,0.00234405038772846,1.28795541431852e-08
3,0.00945007678450348,8.43929196311513e-07
3,0.00169541032992826,4.87331489566022e-09
3,0.00501535299648544,1.26155014072848e-07
3,-0.000912715978404926,-7.60338463136518e-10
3,-0.00252554912889047,-1.61089585289972e-08
3,0.000548299942066085,1.64836961336485e-10
3,0.00316748912931442,3.17793784743983e-08
3,0.00216608020538895,1.01630392020228e-08
3,0.000605371021722611,2.218527845768e-10
3,0.00310089972761524,2.98169466763166e-08
3,0.00360504948364212,4.68525994234324e-08
3,0.00565014546037374,1.80376055734985e-07
3,0.00348553306082771,4.23455345270537e-08
3,0.00118474809253455,1.66294564629297e-09
3,0.00149078353479497,3.31317032152867e-09
3,-0.00125153160018816,-1.96031317622157e-09
3,0.00703575869541336,3.48283426320097e-07
3,0.00462636533911429,9.90192828636139e-08
3,0.00790678259479328,4.94309995820303e-07
3,0.00096907250482234,9.10057461883798e-10
3,0.00618303090353559,2.36376474783837e-07
3,0.00101171594713588,1.03556123983046e-09
3,0.00301918395723666,2.75212861234879e-08
3,0.0139790206561589,2.73168262216817e-06
3,0.0108144698119894,1.26478206340583e-06
3,0.00615662229846972,2.33360600063776e-07
3,0.00412510260228547,7.01946907813167e-08
3,0.000381796511348209,5.56539338106477e-11
3,0.00229236291331201,1.20462014319701e-08
3,0.000875853632372852,6.71884475285025e-10
3,0.00142952011249805,2.921264021984e-09
3,0.00188627215437501,6.71139903116679e-09
3,0.0032523343094207,3.44021465702425e-08
3,0.00189143978549043,6.7667099300451e-09
3,0.00124415643503822,1.92586114189296e-09
3,0.000838205758959305,5.88914057427152e-10
3,0.00239409382422495,1.3722192233551e-08
3,-0.0013879101515859,-2.67352381484486e-09
3,-0.00139527014018764,-2.71628227909904e-09
3,-0.00105159774778921,-1.16291759620525e-09
3,-0.00220338887538607,-1.06972823070693e-08
3,-0.00269396618092915,-1.95513350537253e-08
3,-0.00157171326534743,-3.88257591345362e-09
3,0.00186875398935246,6.52614018392899e-09
3,-0.00969661767321315,-9.11718603487096e-07
3,-0.00708162105387377,-3.55138740603759e-07
3,-0.00890574465823835,-7.06334984456082e-07
3,-0.00659528808115336,-2.86880685943655e-07
3,-0.00201998618701586,-8.24223891365477e-09
3,0.00187866385855067,6.63051469154432e-09
3,0.0122169727192639,1.8234372069742e-06
3,-0.00680895748817241,-3.1567622030452e-07
3,-0.0174700727546496,-5.33192633763107e-06
3,-0.0103949529418742,-1.12322712520199e-06
3,-0.012908780672645,-2.15107555965976e-06
3,-0.00234579723967604,-1.29083702196186e-08
3,0.00141592558000217,2.8387116707369e-09
3,0.00892228343315429,7.10277481207521e-07
3,0.00887112682717688,6.98130102596535e-07
3,-0.00901001794928453,-7.31437072382848e-07
3,-0.00573825358845777,-1.88946656308083e-07
3,-0.00752882365561786,-4.26757708902567e-07
3,0.00296675670703005,2.61123404008461e-08
3,0.0112205351599033,1.41266996891216e-06
3,0.0227610807316264,1.1791760169761e-05
3,0.0109148594382881,1.30033257312506e-06
3,-0.018442489765765,-6.27275973898909e-06
3,-0.02336981934912,-1.27633907641142e-05
3,0.00362729535628761,4.77253101824268e-08
3,0.00830954228356589,5.73761371887309e-07
3,0.0135431813269629,2.48405998842747e-06
3,0.00695139917498636,3.35905166769924e-07
3,0.0325699769399121,3.45503422062893e-05
3,-0.0127031964973696,-2.04993007850525e-06
3,0.0021162360051766,9.47746735796882e-09
3,0.0168183500528772,4.75718633386293e-06
3,-0.00533952362641809,-1.52232555399802e-07
3,0.00254502311751817,1.64844778273096e-08
3,0.00305624831116299,2.85473572164643e-08
3,0.00912052033628329,7.5868037138234e-07
3,0.0412717852609951,7.03007188162775e-05
3,0.0162788785088587,4.3139334987736e-06
3,0.00872130443012947,6.63352452854321e-07
3,-0.00185294385019437,-6.3618991050924e-09
3,-0.00139654072965558,-2.72370970849477e-09
3,-0.00117989752701083,-1.6426039870011e-09
3,-0.00288278692152085,-2.39572866535221e-08
3,-0.00272210901939056,-2.01704944119346e-08
3,-0.00410258079528604,-6.90512314476673e-08
3,-0.00141469052332843,-2.83128985575246e-09
3,0.00249489940551281,1.55295588411486e-08
3,-0.00841670666764253,-5.96247505710757e-07
3,-0.00986103467095718,-9.58887058557563e-07
3,-0.0269640202438625,-1.96044170847208e-05
3,-0.0200893870377443,-8.10774456205039e-06
3,-0.0147348303853149,-3.19915603631096e-06
3,-0.0108151104169532,-1.26500683827065e-06
3,-0.0021308450823585,-9.67510372656956e-09
3,0.00188037464590555,6.6486452371462e-09
3,0.010965800924077,1.31862429147571e-06
3,-0.00919081875224199,-7.76359023345916e-07
3,-0.00980833735077801,-9.4359620172139e-07
3,-0.0103609034914881,-1.1122255955113e-06
3,-0.00813396595507873,-5.38154592696534e-07
3,-0.00683893585991824,-3.19864167938894e-07
3,0.00158867503642734,4.00963845032064e-09
3,0.0128475599040243,2.12061561027155e-06
3,0.0111338840131245,1.38019381928163e-06
3,-0.0287345334053552,-2.3725340182233e-05
3,-0.0307982003604166,-2.92129906689671e-05
3,-0.0235899246485539,-1.31274284828527e-05
3,-0.00585022356583225,-2.00224578822272e-07
3,-0.0198715168194149,-7.84680853796839e-06
3,0.00388153336430998,5.84803510106488e-08
3,0.0351303769731822,4.33559223989018e-05
3,0.0118819545210289,1.6775043586158e-06
3,0.0442420359404295,8.65974916651505e-05
3,-0.0155956829616554,-3.79326508876813e-06
3,-0.0268348796900567,-1.93240858222528e-05
3,-0.00632369865906975,-2.52879427384977e-07
3,-0.032437253000522,-3.41296790739871e-05
3,0.0036651883291046,4.92366940516968e-08
3,0.0261736837983853,1.79305889353037e-05
3,0.0125513407298196,1.97728994757564e-06
3,0.0474194262361733,0.00010662741594173
3,0.0222237203452229,1.09761564909735e-05
3,-0.0243193838557191,-1.43832723171724e-05
3,-0.0197481839583487,-7.70160946116116e-06
3,0.00552392690482968,1.68555826508152e-07
3,0.0191974394541496,7.07505661876464e-06
3,0.00985359802557941,9.56719275904951e-07
3,0.0363209758589238,4.79151139624121e-05
3,0.038239483528602,5.59159945499432e-05
3,0.0429487439837973,7.92230216495811e-05
3,-0.0132323038806951,-2.3168952424394e-06
3,0.00190481246653343,6.91125113506755e-09
3,0.0140905882178544,2.79761127694471e-06
3,0.00900748230736404,7.30819712701291e-07
3,0.0090112187386829,7.31729553134571e-07
3,-0.00328736619522048,-3.5525831750263e-08
3,0.0305958112809152,2.86408511635846e-05
3,-0.00389027642997825,-5.88764187899885e-08
3,0.00277619547596003,2.13968640106826e-08
3,0.00828478078941039,5.68647409669143e-07
3,0.0462228195599537,9.87573211300244e-05
3,0.0348758711159779,4.24204422765276e-05
3,0.0169569184662096,4.87574288718983e-06
3,0.00536941558231608,1.54803600119146e-07
3,0.00483544245217553,1.13059915626819e-07
3,-0.00188038091514078,-6.64871173781932e-09
3,-0.00161506896144464,-4.21282299893347e-09
3,-0.00255694588067735,-1.67172411786458e-08
3,-0.00357800689181898,-4.58061212414465e-08
3,-0.00606422003264885,-2.23010264209825e-07
3,-0.00252329128284188,-1.60657928173534e-08
3,-0.00244582592570012,-1.46310883426079e-08
3,0.00253184208837749,1.62296758318051e-08
3,-0.00448361440022023,-9.01331950004259e-08
3,-0.0110164644263423,-1.33698553677744e-06
3,-0.012163286684802,-1.79950405296408e-06
3,-0.0100325549701777,-1.00979832033842e-06
3,-0.0088855742386067,-7.01546559657272e-07
3,-0.00764574167933704,-4.46949918368906e-07
3,-0.00230536252638424,-1.2252301869082e-08
3,0.00217461235608825,1.02836089614991e-08
3,0.00584152743758518,1.99333027404788e-07
3,-0.00456674619476737,-9.52402719260188e-08
3,-0.00714884325076316,-3.65348495961447e-07
3,-0.00631135554291696,-2.51401543083309e-07
3,-0.00825259082719147,-5.6204480567609e-07
3,-0.00843198397538775,-5.99500179590851e-07
3,0.00344280413945686,4.0807214364284e-08
3,0.0143529245531236,2.95679493710395e-06
3,0.0055322190351664,1.69316038979589e-07
3,-0.00825304232761862,-5.62137059378779e-07
3,-0.0159695058140925,-4.07262507184462e-06
3,-0.00454099606737354,-9.36382691409034e-08
3,-0.0103262108262771,-1.10109036621534e-06
3,-0.0306730412266269,-2.88582847934777e-05
3,-0.01026930735988,-1.08298753349445e-06
3,0.00481761347834879,1.118139164663e-07
3,0.0158470748280663,3.97967242482439e-06
3,0.00866020685726053,6.49508437264795e-07
3,0.0117605176469178,1.62659455343283e-06
3,-0.0214472224982745,-9.86536531494464e-06
3,-0.0276736599166872,-2.1193359188929e-05
3,-0.0194994196619498,-7.41421299907137e-06
3,0.00816517939967116,5.44373773148084e-07
3,0.0130710270545335,2.23320782382535e-06
3,0.00764566275047978,4.46936076592549e-07
3,0.0227564148448252,1.1784509933142e-05
3,0.0378764229269447,5.43384031597431e-05
3,-0.0208524482083131,-9.06715737363724e-06
3,-0.026081927777149,-1.77426736305027e-05
3,0.00339748984883567,3.92170122105652e-08
3,0.0115766703111159,1.55149719924204e-06
3,0.00647088216259522,2.70950822466305e-07
3,-0.00625111955710186,-2.44271846600679e-07
3,-0.0126997317247407,-2.04825319239238e-06
3,0.00329318648666927,3.57148618004174e-08
3,0.00996134051990337,9.88446934854315e-07
3,0.00999730182420483,9.99190765646385e-07
3,0.0147147657587825,3.18610481668386e-06
3,-0.012934972049108,-2.16419547065982e-06
3,-0.00211004303906891,-9.39450585444163e-09
3,-0.00398920880405715,-6.3483418737028e-08
3,0.00300356749028033,2.70964368258544e-08
3,0.0102146211467384,1.0657780970504e-06
3,0.043708832247619,8.35040637924827e-05
3,0.0488724937238476,0.000116732960123914
3,0.0267219727779293,1.90811942041005e-05
3,0.0102102585363394,1.06441311571142e-06
3,0.0175554580001307,5.41048867664955e-06
3,0.00262269066753396,1.80401943781173e-08
3,-0.0421449339456434,-7.48576402217289e-05
3,0.0146336787857406,3.13372262872058e-06
3,0.0344365460844831,4.08374634080147e-05
3,0.0334234406000847,3.73382072564367e-05
3,0.0207430913882362,8.92525107833763e-06
3,0.00495841104068746,1.21906700740618e-07
3,0.0901107616718422,0.000731694822384551
3,-0.0286621425648087,-2.3546477970628e-05
3,-0.0182862196461601,-6.11465271469936e-06
3,-0.0237265737402209,-1.33568818394363e-05
3,-0.0227281582455998,-1.17406660050423e-05
3,-0.0232940764785236,-1.26396919907278e-05
3,-0.0223161466350684,-1.1113673126424e-05
3,-0.0485287652347048,-0.000114287234486139
3,-0.0203476771982683,-8.42450743099674e-06
3,-0.0147259418034532,-3.19336998867587e-06
3,-0.00320405261683213,-3.28926541231926e-08
3,-0.00631192813112623,-2.51469973368238e-07
3,0.0361120367524903,4.7092955941256e-05
3,-0.0133530421178118,-2.38089726719523e-06
3,-0.0106446327044421,-1.20612422901531e-06
3,-0.0189842921983546,-6.84200251083924e-06
3,-0.0348022671803479,-4.21524294749043e-05
3,-0.0347039028682216,-4.1796022799541e-05
3,-0.0267126092517926,-1.90611427658938e-05
3,-0.0277054147292307,-2.12663994393661e-05
3,-0.0147678755796045,-3.2207281875583e-06
3,-0.0354179833202764,-4.44295062837881e-05
3,-0.00328525760304833,-3.54575143363541e-08
3,-0.00775779092453264,-4.66889613927365e-07
3,-0.00120180968624122,-1.7358296403602e-09
3,-0.00808598930005781,-5.28688041263104e-07
3,0.0230391930551984,1.22293054293988e-05
3,0.017397161072236,5.26544587937408e-06
3,-0.00866692953198572,-6.51022197078094e-07
3,-0.0197415833895173,-7.69388955925497e-06
3,-0.0110591349073628,-1.35258157709361e-06
3,-0.0156355128435731,-3.82240228400763e-06
3,-0.0128817951822516,-2.13761342857766e-06
3,-0.0130305975571403,-2.21254950232548e-06
3,-0.0293051197971472,-2.5166945188156e-05
3,-0.0158104440397271,-3.95213892166719e-06
3,-0.00961746685158919,-8.89574027074405e-07
3,-0.00352294476204083,-4.3723759936652e-08
3,-0.00422365364267481,-7.53468136390699e-08
3,0.0138684794131629,2.66739012186079e-06
3,0.0104992374194642,1.1573727948055e-06
3,-0.0220444911441038,-1.07127318737928e-05
3,-0.0316235054773648,-3.1624963279127e-05
3,-0.0254197199007987,-1.64252611135023e-05
3,-0.00890797926601182,-7.06866813444336e-07
3,-0.0338952669062164,-3.8941903322074e-05
3,0.0298936096971872,2.67137636788725e-05
3,0.0247338985605845,1.51313517066637e-05
3,0.0239152251414699,1.36780258831199e-05
3,-0.0189022634381324,-6.75369485870013e-06
3,-0.0170528810171664,-4.95899060626069e-06
3,-0.00605035521150196,-2.21484132177127e-07
3,-0.00728231230128456,-3.86196113590303e-07
3,0.0286356849989729,2.34813320100847e-05
3,0.0453425251319977,9.32217190310383e-05
3,0.0133971878527184,2.40458947038864e-06
3,0.0339415001360055,3.91014713393438e-05
3,-0.0191471335045051,-7.01958272184902e-06
3,-0.0345747108765132,-4.1330976986834e-05
3,-0.0115131085271209,-1.52608173864288e-06
3,-0.0404581922548091,-6.62246118331147e-05
3,-0.0388962302892921,-5.88467575665163e-05
3,-0.0240087309298126,-1.38390925358795e-05
3,-0.00803715040581954,-5.19166052854243e-07
3,0.0293486972931529,2.52793839814555e-05
3,0.0452143700818808,9.24335119605232e-05
3,0.0189410749116987,6.79538183823578e-06
3,0.0486901334417074,0.000115431115968813
3,0.0272845082490444,2.031179911061e-05
3,-0.0419372755547484,-7.37565577178082e-05
3,-0.0360198841700616,-4.67333523621248e-05
3,-0.0155999114456641,-3.79635134861747e-06
3,-0.00556836784286317,-1.72656824974174e-07
3,-0.0020304918316885,-8.37150884089572e-09
3,0.0281165828980633,2.2227346252848e-05
3,0.0348028233351587,4.21544503476496e-05
3,0.0156051835322101,3.80020165080472e-06
3,0.0391382781680106,5.99522030642834e-05
3,0.0492686795073836,0.000119594929622922
3,0.0740624565928417,0.000406250903134206
3,-0.0226528540543438,-1.16243527608023e-05
3,-0.00654952049391724,-2.80949663488791e-07
3,-0.00463376630949361,-9.9495258084237e-08
3,-0.00147540193978812,-3.21167100070299e-09
3,0.0360963111150968,4.70314602985982e-05
3,0.0137154528762958,2.58006386907183e-06
3,0.0164060852506441,4.41585588915456e-06
3,-0.0108308019828897,-1.27052099897018e-06
3,-0.00431798348590007,-8.05087217132096e-08
3,0.0192404927571083,7.12276426094624e-06
3,0.0157854447719918,3.93342133746751e-06
3,0.0521879229956731,0.00014213794712557
3,0.0576525922304782,0.000191626919296141
3,0.0636121701406594,0.000257407167458119
3,0.0290291549143501,2.44626318244728e-05
3,0.0176904772642792,5.53628768075508e-06
3,-0.0198702370037447,-7.8452925255996e-06
3,-0.0101303051656405,-1.03960314528617e-06
3,-0.00396328616259359,-6.22538611879808e-08
3,0.0611424128446111,0.000228574468972279
3,0.0461447178283589,9.82575619737622e-05
3,0.0355006244392059,4.4741235890055e-05
3,0.0554268092367567,0.000170278428984308
3,-0.0174443016143003,-5.30836480662861e-06
3,-0.0098201709670114,-9.47015629138801e-07
3,0.0256364668185642,1.68490148619935e-05
3,0.00428023480939831,7.84156567053984e-08
3,0.0191529889642721,7.02602474963055e-06
3,0.0385319295813452,5.72087256504369e-05
3,0.0342122447179589,4.00446691207142e-05
3,0.0275499003932281,2.09102920704532e-05
3,0.00839307243919563,5.91238782972157e-07
3,0.00705277308231867,3.5081627503635e-07
3,0.0256173451819746,1.68113411262848e-05
3,0.0236755598055258,1.32709120165715e-05
3,-0.0109598756290775,-1.31648791760597e-06
3,-0.00379738169282047,-5.47586530681031e-08
3,-0.00452971512261096,-9.29421402816366e-08
3,0.0185535240576975,6.38673997735176e-06
3,0.0101073251389506,1.03254433849321e-06
3,0.0116507313779355,1.58146493702116e-06
3,0.0347619962372843,4.20062704981705e-05
3,0.0114528734285368,1.50225404963188e-06
3,0.0098339006575818,9.50993284507737e-07
3,0.00593807383884116,2.09380764407187e-07
3,0.0130603134818194,2.22772102561322e-06
3,0.0133280225354148,2.367539072847e-06
3,0.0209654878501694,9.21541542324176e-06
3,-0.00308436585042779,-2.93425368141161e-08
3,-0.00284497576942756,-2.30269127614338e-08
3,0.00403685333691756,6.57853082463853e-08
3,0.00156579126353705,3.83885401233507e-09
3,0.00426774364967635,7.77311287762706e-08
3,0.012333542049859,1.87613228295676e-06
3,0.00358590802948625,4.61102460912266e-08
3,0.00189069648214279,6.75873546237004e-09
3,0.00510959530391961,1.33401131117102e-07
3,0.00726412985308528,3.83310571476723e-07
3,0.00633075282076988,2.5372664186324e-07
3,-0.0013129296688148,-2.26320757013479e-09
3,0.00795253111782955,5.02939946736477e-07
3,0.0105349220829489,1.16921393740879e-06
3,0.00511659200739659,1.33949890913902e-07
3,0.014844864780394,3.27136300527278e-06
3,0.00866503330711816,6.50594981971456e-07
3,0.00583939754579614,1.99115069172399e-07
3,0.00251154410426286,1.58424529909434e-08
3,-0.0191550703538271,-7.02831559057702e-06
3,-0.0247006729150345,-1.50704546497541e-05
3,-0.0334025983779374,-3.72684006160002e-05
3,-0.00755774845590466,-4.31695279411908e-07
3,0.0294927117514125,2.56533519056061e-05
3,-0.00715223697702513,-3.65869061922316e-07
3,-0.0217273821733942,-1.02570438063201e-05
3,0.0380311746651187,5.50071594716024e-05
3,0.0101918790482579,1.05867530607231e-06
3,-0.0236899509416344,-1.32951268121371e-05
3,0.0514293702665458,0.000136029662248402
3,0.0309613414457381,2.96796863172834e-05
3,0.0418371470271318,7.32295194059801e-05
3,0.0116365271743909,1.57568776985347e-06
3,-0.0194715743257295,-7.38249565821646e-06
3,-0.0350349737258368,-4.30036569171861e-05
3,-0.0375599404621936,-5.29876532368751e-05
3,-0.0303735264462401,-2.80211305005511e-05
3,-0.01416105970848,-2.83979677615928e-06
3,-0.0581879782892072,-0.000197015231972725
3,-0.00958512900681358,-8.80630833532576e-07
3,-0.00201315423987023,-8.15889135873321e-09
3,-0.0235245372538931,-1.30185695565771e-05
3,-0.00439315640158653,-8.4787141703505e-08
3,-0.00609954586599172,-2.26930308794711e-07
3,-0.0478965258441782,-0.000109878327320805
3,0.0253687595595065,1.63266730902864e-05
3,-0.0353029041111285,-4.39978342446788e-05
3,-0.0115653712519022,-1.54695875586959e-06
3,-0.0132602005688844,-2.33157977423702e-06
3,-0.0066172401514854,-2.89754833132178e-07
3,-0.046652401451852,-0.00010153645871276
3,-0.0446985736433366,-8.93060733058661e-05
3,-0.00546937419314348,-1.63611155313352e-07
3,-0.0282595199660472,-2.25680658904451e-05
3,-0.0212309799476341,-9.56995995328228e-06
3,-0.0173256165798663,-5.20075143263004e-06
3,-0.0242426567230429,-1.42475646301376e-05
3,0.04564570947147,9.51042412591617e-05
3,0.0427664226980734,7.82183719905403e-05
3,-0.0676316444726589,-0.000309349802046194
3,-0.0634144722700742,-0.000255014660313473
3,-0.0353203681385311,-4.40631625434634e-05
3,-0.0376573952218665,-5.34011769827265e-05
3,-0.0528990354241359,-0.000148027791311423
3,0.0489353907760651,0.000117184233120012
3,0.0140104495103869,2.75014889932371e-06
3,-0.0120181671065365,-1.73586007759507e-06
3,-0.0131448481699042,-2.27125931990042e-06
3,-0.0458283821949993,-9.62506295878496e-05
3,-0.0502360301370071,-0.000126778595710681
3,-0.0156197669677353,-3.8108657618328e-06
3,-0.0174784408222227,-5.33959189729908e-06
3,0.0395724904673372,6.19698078377573e-05
3,0.0160635890125362,4.14503070975471e-06
3,0.0171257895851374,5.02286853469143e-06
3,-0.0129299477624933,-2.16167455713884e-06
3,-0.0264708435355192,-1.85482671765731e-05
3,-0.0103215739223279,-1.09960772421499e-06
3,-0.00982037449235218,-9.47074511720562e-07
3,-0.00644924708391472,-2.68242166394438e-07
3,-0.00599349521153998,-2.15298244191998e-07
3,0.018449895876038,6.28031979342918e-06
3,0.0080162155646532,5.15119703346096e-07
3,0.0187313008623354,6.57209478995443e-06
3,0.0228346663496824,1.19064971074139e-05
3,-0.00673159063371383,-3.05037401328269e-07
3,-0.00439618854558695,-8.49628224311588e-08
3,-0.00494990432348276,-1.21280342194345e-07
3,-0.00263786041180279,-1.83550440249816e-08
3,0.0758108618121396,0.000435706763016602
3,0.0565153595888215,0.000180509259933796
3,0.0653050688629506,0.000278509924296919
3,-0.0555637790460428,-0.000171543918762316
3,-0.014703278896793,-3.17864908458559e-06
3,-0.0325096072086004,-3.43585768422389e-05
3,0.0124880931070578,1.94754895877397e-06
3,0.054148465758354,0.000158766352543763
3,0.137865910652473,0.00262041864868676
3,0.0715859310402735,0.000366845362415261
3,0.0467482847751019,0.000102163801093961
3,0.00862639148503211,6.41929731051311e-07
3,0.0754116503435828,0.000428859796905791
3,-0.0644343413705375,-0.000267517489966541
3,-0.0572484245029114,-0.000187624962180783
3,-0.0373658445949426,-5.21704292086084e-05
3,-0.0520200170413072,-0.000140770440753488
3,0.00262286063844278,1.80437020433523e-08
3,0.00662567498417712,2.90864276112626e-07
3,0.0222580398564124,1.10270856344379e-05
3,0.0182282017722933,6.05663611315515e-06
3,0.00563362294289197,1.7879827691654e-07
3,0.0199554196295816,7.94662271146401e-06
3,0.0306492078842376,2.87910672885838e-05
3,0.0342339704492369,4.01210060274579e-05
3,0.129269279731829,0.00216016033355713
3,0.0249066348590592,1.54505933255832e-05
3,0.0173430689033621,5.21648362704118e-06
3,0.00634319803910264,2.55225939860547e-07
3,0.0441223252578028,8.58964421055969e-05
3,0.123258460849102,0.00187262242976577
3,-0.041555311152292,-7.17595349511034e-05
3,-0.0315435756636422,-3.13857683797248e-05
3,-0.0339572613455666,-3.91559685808022e-05
3,0.00572367321690514,1.87510024921213e-07
3,0.0257195005792348,1.70132621391685e-05
3,0.0719999455279804,0.000373247152851791
3,0.0113895591902575,1.4774770641188e-06
3,0.10951229639621,0.00131337473526548
3,0.0852935144703584,0.000620508919871308
3,-0.0107982005842675,-1.2590824533489e-06
3,-0.0240526823351779,-1.39152350522511e-05
3,0.00794686191819926,5.01865105988306e-07
3,0.0209884897805261,9.24578032467568e-06
3,0.0767639338883964,0.000452346951902891
3,0.0105846880387971,1.18586209623351e-06
3,0.00338036250765368,3.86268976298792e-08
3,0.0714782892962928,0.000365193004460258
3,0.0647441290345224,0.000271394585401151
3,0.0206562146154763,8.81357717344234e-06
3,-0.0262285529418408,-1.80435917477303e-05
3,0.0624025272713086,0.000243000146959473
3,0.0293678871709345,2.53290037869113e-05
3,0.107833747770753,0.0012539034526954
3,0.0995107127266675,0.00098539308527441
3,0.0696982908234602,0.000338583963610467
3,0.0460111260682804,9.74066453657576e-05
3,0.0501734168014436,0.000126305142234111
3,-0.00610748736993741,-2.27817841436827e-07
3,-0.0101215679455664,-1.03691554325573e-06
3,-0.00370206439673274,-5.07378320878574e-08
3,-0.00131299413999996,-2.26354098976004e-09
3,-0.00737242762555378,-4.00711266599952e-07
3,-0.0879769731186782,-0.00068093717946356
3,-0.0337241960751394,-3.8355249924891e-05
3,-0.00622271327024748,-2.40956901645752e-07
3,-0.00325992033069263,-3.4643435981482e-08
3,-0.00330094960322013,-3.59680324653462e-08
3,0.00940358668486791,8.3153512124442e-07
3,-0.00251053239543074,-1.58233155678505e-08
3,-0.00206279487992668,-8.7774453533689e-09
3,-0.000695185120868537,-3.35970700481319e-10
3,-0.00729328919332215,-3.87945129299076e-07
3,-0.0211576981816283,-9.47120534518446e-06
3,-0.0130722198832338,-2.23381927022743e-06
3,-0.00141774972570565,-2.84969720085236e-09
3,0.0155839931870197,3.78474173288343e-06
3,0.00357748807864666,4.57861983843546e-08
3,-0.0028905000858953,-2.41501014705883e-08
3,-0.00547459061919152,-1.64079735290849e-07
3,-0.0199166155462315,-7.90035525373628e-06
3,-0.025898060404278,-1.73700759916838e-05
3,-0.00681900865499817,-3.17076258600606e-07
3,-0.00113475127328946,-1.46117433773482e-09
3,-0.00118092632923165,-1.64690450088523e-09
3,0.0057000008938203,1.85193087120679e-07
3,0.0029394657902293,2.53983340301777e-08
3,0.00510470778827182,1.33018687921227e-07
3,-0.00104586214643555,-1.14399291225913e-09
3,-0.00637263144858408,-2.58795313423984e-07
3,-0.0147095047864203,-3.18268865278794e-06
3,-0.00370610920148308,-5.09043194109244e-08
3,-0.000429677203572945,-7.93280792030956e-11
3,-0.000390451712682924,-5.95253553212745e-11
3,0.00202159308146711,8.26192461262415e-09
3,0.000990633097141544,9.72161686190646e-10
3,-0.000697840705149689,-3.39835617866139e-10
3,-0.00226414549298351,-1.16068131461883e-08
3,-0.00848863158742806,-6.11664190746281e-07
3,-0.00151348715608252,-3.46685932212266e-09
3,0.0113511920787681,1.46259612308982e-06
3,-0.00442920602812354,-8.68915705213653e-08
3,-0.0154531830856057,-3.6902335261274e-06
3,-0.00678316577614982,-3.12102532875124e-07
3,0.0126848909030848,2.04108085547772e-06
3,0.0103928772999386,1.12255440878782e-06
3,0.00966828733469172,9.03750699740622e-07
3,0.00134025029230745,2.40745252645533e-09
3,0.00113981726819877,1.48083167944417e-09
3,-0.0218950126838088,-1.04962847338979e-05
3,-0.00700747379197392,-3.44099820846529e-07
3,-0.0051745257633506,-1.38551636804865e-07
3,-0.00511679451862572,-1.33965796479952e-07
3,0.0301495464285347,2.7405791473606e-05
3,0.0351733262320154,4.35151335179042e-05
3,0.00816639285668876,5.44616513320007e-07
3,0.00369813929106277,5.05766191083446e-08
3,0.00550530823279828,1.66857187202051e-07
3,-0.126926046466178,-0.00204480669369117
3,-0.0510490293671065,-0.000133033944062855
3,0.135456537669805,0.00248542070504199
3,0.0186278061493379,6.4637586113263e-06
3,0.0457367329936973,9.56743275103732e-05
3,0.0188499202852759,6.69774415205421e-06
3,0.0138648960935184,2.66532306568129e-06
3,0.0192076267222472,7.08632589552425e-06
3,0.0418836525100548,7.34739931372851e-05
3,0.271382623064835,0.0199869307410629
3,-0.0874844241383953,-0.000669564180609448
3,-0.0065232215949104,-2.77578864905132e-07
3,0.0519245283635035,0.000139996662225851
3,0.0120425689517599,1.74645510046369e-06
3,0.00474930081133509,1.07124555633225e-07
3,0.0024720524081923,1.5106818833798e-08
3,0.00843117663860263,5.99327995128983e-07
3,0.0134048151291272,2.4086987459257e-06
3,0.109148751420779,0.00130033818570641
3,0.105755600538688,0.00118279676284858
3,0.00664528991642574,2.9345519247142e-07
3,0.00202028173444315,8.24585724869609e-09
3,0.00200400397522144,8.04814395775376e-09
3,0.000550622278135939,1.66940356578959e-10
3,0.00989851168877246,9.69861457634057e-07
3,0.00788560048272543,4.90347889497515e-07
3,-0.00241336414752414,-1.40562207792208e-08
3,0.00672892736254314,3.04675491645183e-07
3,0.00208555047606473,9.07114515051281e-09
3,0.000500355638492823,1.25266918632704e-10
3,0.00978807579051799,9.37760575359667e-07
3,0.00495350182999991,1.21544967914439e-07
3,-0.0122647556095984,-1.84491642071331e-06
3,-0.0279367344686988,-2.18035354294635e-05
3,-0.0175149416878455,-5.37311439988073e-06
3,-0.0195383884797506,-7.45875292485725e-06
3,-0.00783393252165983,-4.80772346058815e-07
3,-0.0160122556936302,-4.10541958424606e-06
3,-0.0336747528600939,-3.81867986539144e-05
3,-0.00713763079663278,-3.63632121099891e-07
3,-0.00477082933597305,-1.08587952238346e-07
3,-0.0147239928108155,-3.19210221966315e-06
3,-0.00417945707922175,-7.300617730915e-08
3,-0.00642732979650534,-2.65516646629005e-07
3,-0.0307154692173872,-2.89782037910122e-05
3,0.0148576933228365,3.27985141460144e-06
3,-0.0484146980536318,-0.000113483228588682
3,-0.0547994537175194,-0.000164561670524639
3,-0.0214369900750241,-9.85125181754111e-06
3,-0.0159901949549906,-4.0884743391577e-06
3,-0.0577586258163812,-0.000192686175176492
3,0.0338429436663707,3.87618407634906e-05
3,-0.0118335066006328,-1.65706815814085e-06
3,-0.0362036446821713,-4.74522578545726e-05
3,-0.00761865216312537,-4.42215985508226e-07
3,-0.015307182389858,-3.58662334512674e-06
3,-0.0734391751205617,-0.000396080416936475
3,0.0212178408154921,9.55220337756575e-06
3,0.0745432257805386,0.000414213784348691
3,-0.0371333294866764,-5.12025597914191e-05
3,-0.0326321365589395,-3.47485373850983e-05
3,-0.0231292242202658,-1.23732332195022e-05
3,-0.077157504754324,-0.000459340271562203
3,-0.0693668454390532,-0.000333776559918697
3,-0.0168214230313528,-4.75979444983116e-06
3,-0.0285704972969985,-2.33213345626131e-05
3,-0.019096356349757,-6.96388404054171e-06
3,0.0236690720382061,1.32600051997463e-05
3,0.0843737173903288,0.000600650097414936
3,0.0529146900477463,0.000148159249579775
3,-0.0312303057282043,-3.0459916417742e-05
3,-0.0542004737131022,-0.000159224262832161
3,-0.00862392024172738,-6.41378199112584e-07
3,-0.0183687120674041,-6.19777947918904e-06
3,-0.0104391563275849,-1.13761734161121e-06
3,-0.00259021241573704,-1.73782540686123e-08
3,-0.00453626673816433,-9.33460082742746e-08
3,0.00949013340531034,8.5470639299345e-07
3,0.0330061418424527,3.59570691340252e-05
3,0.0465005270327716,0.000100548043768579
3,0.0551536343689455,0.00016777313010518
3,-0.0165886301428178,-4.56490320282271e-06
3,-0.00176205285147645,-5.47087499782318e-09
3,-0.00628598546510924,-2.48381998673859e-07
3,-0.00422764429014507,-7.55605859658288e-08
3,-0.00160411135853992,-4.12765643877338e-09
3,0.0246198109401465,1.49229313379257e-05
3,0.032958954868276,3.58030722710899e-05
3,-0.0168822267177236,-4.81159632853359e-06
3,-0.00247270278159044,-1.51187453506191e-08
3,-0.00469710246330201,-1.03631098598334e-07
3,-0.00125029482061818,-1.95450729762033e-09
3,0.0193974663723927,7.29852370532633e-06
3,0.088929900589996,0.000703304539394196
3,0.109948811630195,0.0013291427267242
3,0.0957196236185537,0.000877006771708728
3,0.0212579798147057,9.60651734017926e-06
3,0.0275745645052053,2.09665023246515e-05
3,-0.0108018270701007,-1.26035143653292e-06
3,-0.0169957368999493,-4.90930481905368e-06
3,-0.0186754720265528,-6.51350517510435e-06
3,-0.00731199847814374,-3.90938351228345e-07
3,-0.00870691576143771,-6.60074610584865e-07
3,0.0407940579204064,6.78876420514032e-05
3,0.098847185984613,0.000965812741517665
3,-0.00886789396616414,-6.97367132375578e-07
3,-0.0128185452292616,-2.10628056420513e-06
3,-0.0169293716666053,-4.8520192890625e-06
3,0.0086466239363962,6.46457104177584e-07
3,0.0241223938354452,1.40365769592085e-05
3,0.0239703898942168,1.3772896837848e-05
3,0.0152300956634448,3.53270923565846e-06
3,0.00225803358243831,1.15130711862726e-08
3,0.00403878608510713,6.58798427581677e-08
3,0.013926061002625,2.70075307828483e-06
3,0.0120355838019258,1.74341783093895e-06
3,-0.00742294962011706,-4.09005868088463e-07
3,-0.00249179133752256,-1.54715923914783e-08
3,-0.00306489070413174,-2.87902194849042e-08
3,-0.0145728916301031,-3.09483290672822e-06
3,0.00577944815418955,1.93045248423726e-07
3,0.040712724387483,6.74823962331406e-05
3,0.032439683364326,3.41373511556827e-05
3,0.00805535785549362,5.22702425710446e-07
3,0.00767200660360187,4.51571894504781e-07
3,0.0219114476946587,1.05199388979722e-05
3,0.0173974424947132,5.26570141051286e-06
3,0.0178368470301635,5.67484839051228e-06
3,0.0738004891344005,0.000401955264176463
3,0.0272121512198702,2.01506299257354e-05
3,0.0184358557429013,6.26599297406069e-06
3,0.00541763703271003,1.59011932359485e-07
3,0.0240770159535769,1.39575110895094e-05
3,0.022976692344858,1.21300482226562e-05
3,0.0141995917964704,2.86304107661924e-06
3,-0.00590167204775003,-2.05553661435873e-07
3,-0.00844211982036484,-6.01664705096272e-07
3,-0.0310390416506188,-2.99036988935382e-05
3,0.00506305168367461,1.29788759660711e-07
3,0.0155304876379035,3.74589221492409e-06
3,0.00457439097006489,9.57193723340592e-08
3,0.00204216752672,8.51675390059043e-09
3,0.00942686234438877,8.37725038346453e-07
3,0.00476662535050903,1.08301146740348e-07
3,0.0121133577452786,1.77743460182784e-06
3,-0.00109189529280232,-1.30179614522428e-09
3,-0.00830669329126678,-5.7317141832965e-07
3,0.00778615555343564,4.72029594007122e-07
3,0.0312034204721195,3.03813179682653e-05
3,0.00801117988578557,5.14149539224509e-07
3,0.00205563488888477,8.68636231516589e-09
3,0.0112252343285634,1.41444559411042e-06
3,0.00586292499972282,2.01531536394329e-07
3,0.0173277025028141,5.20263009700892e-06
3,0.00208872055392395,9.11257301656992e-09
3,-0.0170699027415966,-4.97385522459394e-06
3,0.037209141088944,5.15168067395774e-05
3,0.149704459125724,0.0033550902701563
3,0.0278769388223869,2.16638303470975e-05
3,0.0637085579378965,0.000258579043373536
3,0.0158901326225904,4.01219992830755e-06
3,0.032653549241292,3.48169865721576e-05
3,-0.017689906643545,-5.53575196564771e-06
3,-0.0283886496311543,-2.28788507144396e-05
3,-0.0118866254820107,-1.67948348706521e-06
3,-0.0586000320497018,-0.000201230386172362
3,-0.0836326345543648,-0.000584961567925522
3,-0.0659117136749298,-0.000286343816921925
3,-0.0558005062821827,-0.000173745841184274
3,-0.0658950926566378,-0.000286127248781417
3,-0.0563340022949861,-0.000178777072517255
3,0.0272368259635879,2.02054946746142e-05
3,-0.00750777815122182,-4.23188924731077e-07
3,-0.00706186346332879,-3.52174534716252e-07
3,-0.0305518990272132,-2.85177088060617e-05
3,-0.0257564109185918,-1.70866150693554e-05
3,-0.0363288039212335,-4.79461012914224e-05
3,-0.0359476952481245,-4.64529344466167e-05
3,-0.0106239707377459,-1.1991143422142e-06
3,0.0437094850145615,8.35078051077045e-05
3,0.0106985223062663,1.22453552662294e-06
3,-0.00958231040080309,-8.79854186229864e-07
3,-0.0304286938328905,-2.81740921896842e-05
3,-0.0264066488565083,-1.84136494626075e-05
3,-0.0327681671601231,-3.51849105520254e-05
3,-0.00823421019722249,-5.58297711326012e-07
3,-0.0082194283268835,-5.55296374945536e-07
3,-0.00846062874079277,-6.05630745986914e-07
3,0.0183016200182159,6.13011472778802e-06
3,0.0100630975322486,1.01904894984196e-06
3,0.0169226407469443,4.84623427180348e-06
3,-0.00996820634051403,-9.90492195119513e-07
3,-0.00577502350971986,-1.92602211576128e-07
3,-0.0120025378206277,-1.7290965703867e-06
3,-0.00356928522129171,-4.54719691219879e-08
3,-0.00320232079384841,-3.28393465059304e-08
3,0.0902253983901493,0.000734490909529122
3,0.0435362056067471,8.25185762909593e-05
3,0.0537379642898656,0.00015518281697523
3,0.0127740462805613,2.0844210764084e-06
3,-0.0647766188249232,-0.0002718033627935
3,-0.0593780510970808,-0.000209352338944737
3,-0.0288496554821787,-2.40116438854699e-05
3,-0.0454417261536219,-9.38349140430385e-05
3,-0.0318039376310041,-3.21693791491618e-05
3,0.036702674372054,4.94416700424109e-05
3,-0.0498671916867176,-0.000124006581015114
3,-0.0419950443714132,-7.4061777907737e-05
3,-0.0245235448985626,-1.47485642347643e-05
3,0.170483645828902,0.00495505150227375
3,0.0517682477136116,0.000138736391628675
3,0.0466349150922876,0.000101422327121089
3,0.00740057088150995,4.05317791649747e-07
3,0.083512089153568,0.000582435777414642
3,0.0676801918022707,0.000310016452537785
3,-0.0625423056580628,-0.000244636730087773
3,-0.0844614884276316,-0.000602526554155367
3,-0.0610604321014087,-0.00022765627209184
3,-0.051733947459018,-0.000138460805252215
3,0.0512251709792911,0.000134415777969417
3,0.0578695426877538,0.000193798383909739
3,0.0153809991855544,3.63876197330826e-06
3,0.0765520829419489,0.000448612154881581
3,0.0569960441257244,0.000185154444769343
3,0.134359862151996,0.00242554116031505
3,0.0151390711911749,3.4697460796203e-06
3,0.0145418563137699,3.07510215310916e-06
3,0.00457396376517548,9.56925569839815e-08
3,0.0371938987304852,5.14535226117212e-05
3,0.0332835711470072,3.68714105869106e-05
3,0.11963912673579,0.00171245711061441
3,-0.0515311838667785,-0.000136839147503297
3,-0.0433255796719977,-8.13266992265511e-05
3,-0.0283848219798398,-2.28695976724018e-05
3,0.113748344779228,0.00147175410929486
3,0.0145157510979241,3.05857080114663e-06
3,0.0585849270103176,0.000201074815806511
3,0.161569014956586,0.00421768587908757
3,0.105769290493529,0.00118325615782263
3,-0.0225436144317913,-1.14569929010067e-05
3,-0.0305601675156887,-2.85408689541124e-05
3,0.134325980500283,0.0024237066700702
3,0.0149417180914644,3.33581236890644e-06
3,0.00410370658756989,6.9108092249208e-08
3,0.0410026537824325,6.89343838910609e-05
3,0.116804404600341,0.00159359390464288
3,0.0889270433602897,0.00070323675213547
3,0.0431243830189711,8.01989503070468e-05
3,-0.0369110521082265,-5.02885685065019e-05
3,0.114835866962196,0.00151437231148408
3,0.098963481302264,0.000969225636765504
3,0.0582606929690257,0.00019775475634371
3,0.0584594973915087,0.000199786082678786
3,0.0706083025667631,0.000352019979545514
3,-0.0669215273477799,-0.000299707446058707
3,-0.0614144011551456,-0.000231638457541385
3,-0.0147077375150587,-3.18154163957937e-06
3,-0.350243004653945,-0.0429643662284994
3,-0.532942444312181,-0.151370389483357
3,0.0953626277546732,0.000867230671326134
3,-0.0845551563083796,-0.000604533385862871
3,-0.353943162670374,-0.04434049955019
3,-1.03741169117317,-1.11648634012758
3,-0.519371227426608,-0.140098556193596
3,-0.110395485651329,-0.00134540780593787
3,0.087515018085262,0.000670266880854255
3,0.149326881895675,0.00332976811256843
3,-0.113126337716177,-0.00144774203176318
3,-0.658106397481187,-0.285028533184856
3,-0.315274625748668,-0.0313376955116872
3,-0.164417406375215,-0.00444470947854364
3,0.0209584053644363,9.20607922234937e-06
3,-0.0388994108941243,-5.88611947177934e-05
3,-0.269877682166484,-0.0196562612069183
3,-0.0914915051575393,-0.000765847531973576
3,-0.0222926006199587,-1.10785317493229e-05
3,0.499093409851777,0.124321289502246
3,0.625073989066979,0.244227341202737
3,0.144969016909649,0.00304667115912546
3,0.0635363055389145,0.000256487305172274
3,-3.00191705046786,-27.05179344542
3,-2.71904791337808,-20.1025236429327
3,-0.658690688022682,-0.28578838317324
3,-0.541023089556091,-0.158360695488378
3,-0.451547068900459,-0.0920680791797645
3,-0.151578985234538,-0.00348270737751534
3,-0.0679252100640875,-0.000313395654671723
3,-0.0725962975329552,-0.000382598634540006
3,0.759438613340227,0.438003947572381
3,1.83209942300888,6.14960347999428
3,0.8433494744978,0.599822477022746
3,0.440804384388602,0.0856520410585673
3,3.87016749095633,57.9681288116142
3,0.672467898344518,0.304098775681053
3,-10.1910359337522,-1058.41259376963
3,-4.71331851199793,-104.708121249519
3,-6.82189946680554,-317.479688105542
3,0.917224795316937,0.771662435755254
3,0.404017786432825,0.0659479734746905
3,0.149437538828709,0.00333717605615231
3,3.50548355060925,43.076836377713
3,0.561253141111343,0.17679759533468
3,12.319440127769,1869.70424333245
3,-4.58219804159589,-96.2102993930714
3,-6.44898175567602,-268.209060532975
3,0.188406010023528,0.00668781509383755
3,5.6976980151109,184.96871613586
3,6.46755090872885,270.532575913045
3,-2.43579799985983,-14.4518620895165
3,-2.53334171077165,-16.2585316645161
3,0.0844280477823696,0.00060181116656202
3,3.65080918610345,48.659473315984
3,-1.84429464709322,-6.27322576165187
3,0.194961660144647,0.0074105022408618
3,0.210697440103206,0.0093535781112043
3,0.0364115921472897,4.82746360700409e-05
3,0.849205106111687,0.612403678228372
3,0.0902340040045896,0.000734701094751113
3,8.24665741395605,560.833387203621
3,9.10242583050201,754.173809736934
3,3.79700910738754,54.7425364832738
3,2.96774438443056,26.1384286427068
3,-0.217605863508529,-0.0103041407056087
3,-0.217864773726613,-0.0103409644764168
3,-0.205775920959888,-0.00871331996496536
3,-0.175031519214985,-0.00536227134947502
3,-0.452041155679469,-0.0923706351066639
3,0.416265041859577,0.0721289849392611
3,-0.197135902027495,-0.00766120658325759
3,-0.216544113460107,-0.0101540464804026
3,-0.142427594370362,-0.00288923200537082
3,-0.591159523553891,-0.206592271762225
3,0.416760319289289,0.0723867513349174
3,0.404627313475955,0.0662469039846391
3,-0.0835328169872133,-0.000582869569529775
3,-0.113682934054746,-0.00146921658258979
3,-0.610571454726206,-0.227619512703201
3,0.393635175867877,0.0609932397547575
3,0.444463245797688,0.0878026372128933
3,0.159792530399659,0.00408008698670842
3,-0.179391707513647,-0.00577307355591067
3,-0.547572079053101,-0.164181373848786
3,0.334823251074369,0.0375358994463252
3,0.29233688172581,0.0249833591052653
3,0.21746762950238,0.0102845160781285
3,0.343163991233639,0.0404115148913746
3,-0.533732687154791,-0.152044740868597
3,0.864723622595726,0.646594445746648
3,1.21337253839219,1.78641552641453
3,1.16798117505646,1.59333658892241
3,1.04746770483619,1.14926961694151
3,0.832884921655517,0.577770015300671
3,-0.0220607416876846,-1.07364406651007e-05
3,-0.0810388294535943,-0.000532205646571171
3,-0.0343958569933524,-4.06928777662662e-05
3,-0.10845766751776,-0.0012757946625407
3,-0.0721770958219909,-0.000376008974170763
3,-0.00590243283575473,-2.05633165813075e-07
3,0.0389599157798661,5.9136283628254e-05
3,-0.0581858523727703,-0.000196993638717721
3,-0.0164868289946812,-4.48137616615242e-06
3,-0.087070637778317,-0.000660108274695289
3,-0.102858081332495,-0.00108821637525159
3,-0.00560764989282984,-1.76336685515562e-07
3,-0.0190117590671216,-6.87174295303127e-06
3,-0.00742806708499546,-4.09852371133191e-07
3,-0.0208888285041046,-9.11469736034503e-06
3,-0.0400806616797909,-6.43879573445963e-05
3,0.143116945708743,0.00293138713712584
3,0.0745639431702761,0.000414559240834858
3,0.031052833581686,2.99435789625037e-05
3,-0.213925042205976,-0.00979004930536016
3,-0.498292735723973,-0.123723918943691
3,-0.411737680162606,-0.0698010313777709
3,-0.0524324610550517,-0.00014414538047856
3,-0.0704012114309562,-0.000348931676446896
3,-0.150653259094005,-0.00341928730397177
3,-0.0190530597609986,-6.91662434482214e-06
3,0.0607440905935369,0.000224136251137491
3,0.0211275237894903,9.43074057329171e-06
3,0.0121326243515712,1.78592926450812e-06
3,0.2757990077434,0.0209786770829146
3,0.0955491442689051,0.000872329191117237
3,-0.126035512304712,-0.00200206785679842
3,-0.0555925371187365,-0.000171810413931575
3,0.191539416579613,0.0070270732516279
3,0.111579186732691,0.0013891513807642
3,0.0341187426668008,3.97172394244491e-05
3,0.642414934975653,0.265122683450767
3,0.204467930241103,0.00854821825992943
3,-0.633269711871887,-0.253960486902117
3,0.127466864635376,0.00207105632461691
3,0.131810462824275,0.00229007473198056
3,0.0654657000750033,0.000280570140379269
3,0.53082538850257,0.149573638666652
3,0.241097261624377,0.0140144749975889
3,1.35400416463062,2.48233276932232
3,-0.0310874966298773,-3.0043965430183e-05
3,0.0104238692167678,1.13262687292872e-06
3,0.00718608511995338,3.7108813743685e-07
3,0.0675976060745812,0.000308882958168344
3,0.025858980532645,1.72915608620553e-05
3,0.106344697783863,0.00120267289752103
3,0.0375801396387567,5.30731871313816e-05
3,-0.0616167400008786,-0.000233935510603958
3,-0.0127419395446655,-2.06874337630381e-06
3,-0.0843896218320794,-0.000600989828991418
3,-0.209810155922579,-0.00923590632740247
3,-0.0690400067385183,-0.000329080747621889
3,-0.00462117260805639,-9.86862329054427e-08
3,-0.00412728031740206,-7.03059205623527e-08
3,-0.0264535640063795,-1.85119672962795e-05
3,0.0789605533374168,0.000492300808856362
3,-0.121354033343921,-0.00178715674921737
3,-0.354483522846592,-0.0445438918497677
3,-0.616457134006364,-0.234265668999417
3,-0.38353276214353,-0.056416664316425
3,-0.0317150736465545,-3.19004766816128e-05
3,-0.0436672276000863,-8.32658383969865e-05
3,-0.0348044023376219,-4.21601882442784e-05
3,-0.0682639985784861,-0.000318108424511093
3,0.0163285269072066,4.35352475920078e-06
3,0.156453501828398,0.00382962160546578
3,-0.13771850232216,-0.00261202225811376
3,-0.0575655596104642,-0.000190760386083857
3,-0.0245413848812357,-1.47807747798325e-05
3,-0.0289707418289908,-2.43152560850272e-05
3,-0.0238513654363457,-1.35687468311488e-05
3,-0.0440969229749676,-8.57481695654383e-05
3,0.108143521317443,0.00126474077476767
3,0.457011497365238,0.0954511968209307
3,-0.867774702576098,-0.653462930705898
3,-0.455824726792745,-0.0947095211916576
3,-0.151982902036809,-0.00351062303927747
3,0.268867291700604,0.0194363144943797
3,0.79475625724825,0.501997862141607
3,0.263446017536772,0.0182841558067963
3,1.85540306005799,6.38726309834907
3,-0.841393872999435,-0.59565944913582
3,-0.0362207971223857,-4.75197351238769e-05
3,-0.413819469238007,-0.0708651577211326
3,0.0884733131680556,0.000692527260248153
3,0.494462705934276,0.120892852106625
3,0.1101189540326,0.001335322702587
3,0.974606185719257,0.925736719474365
3,1.01711950675772,1.05224277015048
3,-0.268706495610327,-0.0194014636801678
3,0.00592193527594357,2.07678227888137e-07
3,0.0408880874909755,6.83581643177416e-05
3,0.0469459804077347,0.000103465423458827
3,0.043785533132254,8.39444380444369e-05
3,-0.0103719438827156,-1.11578488792569e-06
3,-0.00993086111322783,-9.79401409041554e-07
3,-0.0213789988538706,-9.77151925138368e-06
3,0.0562971867099745,0.000178426796564971
3,0.0554190354327248,0.00017020679259519
3,0.0212887238987106,9.64825756029862e-06
3,-0.00451691357224943,-9.21563662831045e-08
3,-0.019892591792648,-7.87180110344076e-06
3,0.00528902271746362,1.47953859039525e-07
3,0.0448709488652378,9.03432605234535e-05
3,0.0456260206948852,9.49812278180412e-05
3,0.0203833883702613,8.46894159582989e-06
3,0.00864054482224375,6.45094563981729e-07
3,-0.0269645056516916,-1.96054758632818e-05
3,0.033899684593192,3.89571316041437e-05
3,0.0880081306910099,0.000681660909666626
3,0.0843543790231276,0.000600237186958066
3,0.324957089298024,0.0343145294665275
3,0.500245922801465,0.125184532833008
3,0.379266222037982,0.0545547408020767
3,0.0438810322324781,8.44949017619645e-05
3,0.0380531591463185,5.51026077240853e-05
3,0.0515812436891633,0.000137238331042973
3,-0.0147002460313052,-3.17668249738368e-06
3,-0.0719195411368499,-0.000371998101543219
3,-0.222014473529098,-0.0109431880797429
3,-0.132174303580748,-0.00230909123323686
3,-0.00761473775000707,-4.4153471271136e-07
3,-0.00729669678792306,-3.88489154404717e-07
3,-0.0577193767074999,-0.000192293630034383
3,0.0189520274354517,6.80717678010787e-06
3,-0.0331113931119921,-3.63021511132059e-05
3,-0.0132438438270234,-2.32296225187608e-06
3,-0.0039336439763547,-6.08674561538544e-08
3,-0.00333819823349139,-3.71994371633131e-08
3,-0.0248911494514799,-1.54217925649589e-05
3,0.0927209730958265,0.000797138789021186
3,-0.349439998048099,-0.042669528389354
3,-0.175642523004178,-0.00541862380506607
3,-0.143685143434211,-0.00296644019771405
3,0.286228161381137,0.0234496887423063
3,0.0633398163889647,0.000254115057792442
3,0.747143284726306,0.417072631512345
3,-0.575517696051547,-0.190623327225748
3,-0.0172608430860402,-5.142638698022e-06
3,-0.694473378609689,-0.334939839196022
3,0.170403340351553,0.00494805264265042
3,0.0253345618364807,1.62607357631326e-05
3,0.375544105734839,0.0529642528254003
3,0.695714924868107,0.33673942079879
3,-0.431508153063606,-0.0803465100728205
3,0.00981716349811941,9.46145812952916e-07
3,0.00752479022429368,4.26072193076982e-07
3,0.0208657809015295,9.08456064508072e-06
3,-0.00275489228736332,-2.09080663460737e-08
3,-0.0239189917417516,-1.36844896864722e-05
3,0.00940713491586454,8.32476759438676e-07
3,0.00638574349512137,2.60396060143191e-07
3,0.00565449851441051,1.80793279580754e-07
3,-0.0263421282617487,-1.82790061978412e-05
3,0.0744136668589203,0.000412057778645105
3,0.0476150559607836,0.000107952547954711
3,0.307215518061645,0.0289954228740263
3,0.839514575723949,0.591677047582625
3,0.60905288731223,0.225925378808133
3,0.049094443325542,0.000118330587288906
3,0.0503906785724889,0.000127953043384888
3,-0.0121208870069241,-1.7807510456578e-06
3,-0.0315762376443934,-3.14833651019158e-05
3,-0.158324770353285,-0.00396868473107448
3,-0.0667014852234564,-0.00029676078622875
3,-0.00734252903401757,-3.95855804531735e-07
3,-0.0136091592189019,-2.52054169091731e-06
3,0.0156266352690997,3.81589509783814e-06
3,-0.0325595815786163,-3.45172704602927e-05
3,-0.00921586930531266,-7.82724488643326e-07
3,-0.00448425404743237,-9.01717766003438e-08
3,-0.00809260601835758,-5.29986970693523e-07
3,0.0407090956757106,6.74643537898196e-05
3,-0.18296905743051,-0.00612537881847738
3,-0.0650812068813605,-0.000275655583695495
3,-0.0248747649645085,-1.53913586303491e-05
3,0.20411735865217,0.00850432442373103
3,0.0622842388997566,0.000241620893222049
3,0.391209086926249,0.0598724185446995
3,-0.346368762417815,-0.0415543174881581
3,-0.195279577772741,-0.00744681358206094
3,0.0859936884898576,0.00063591597049018
3,0.0176293237704875,5.47907142050328e-06
3,0.139151176038522,0.00269439115037503
3,0.418708093904703,0.0734064241050625
3,-0.0858640017742567,-0.00063304324069534
3,0.00946622331367514,8.48262438282285e-07
3,0.00857806939880667,6.31202436202406e-07
3,-0.00614584138573272,-2.32136826439348e-07
3,0.0175453634137006,5.40116076625138e-06
3,0.0154805984024077,3.70990879485465e-06
3,0.0531851353771459,0.000150442591910895
3,0.236063839062683,0.0131549256269672
3,0.12119288552373,0.00178004662338662
3,0.0117565716311412,1.62495778507544e-06
3,-0.345720298923849,-0.0413213631015552
3,-0.261448854889209,-0.0178714681737217
3,-0.0959355642933589,-0.000882955677079814
3,-0.178704179230186,-0.0057069507870872
3,-0.100035324928459,-0.00100106012225302
3,-0.228256700212667,-0.0118924300006605
3,-1.60919390146178,-4.16701567392256
3,-1.52929298843107,-3.57661416388349
3,-0.581137345600804,-0.196262061437278
3,0.661339140328823,0.289249541710886
3,3.44064338374396,40.7304289097718
3,-3.50500850706906,-43.0593261544294
3,-0.129868639156295,-0.00219034673266924
3,-1.96468027995586,-7.58360419447722
3,0.500133667217701,0.125100277216052
3,3.26980595543624,34.9595586720239
3,4.23703171403304,76.0650480728267
3,-2.30807839696534,-12.2956549844731
3,0.183518132473631,0.00618068973955868
3,0.156991785227839,0.00386928557402672
3,-0.0913795360822767,-0.000763039194568381
3,-0.0594895585431003,-0.000210533998356282
3,-0.158057937269026,-0.003948652629235
3,0.34184879694117,0.0399486555096105
3,0.187559220879481,0.00659804480009132
3,-0.0426962904355777,-7.78341939275695e-05
3,-0.232067776909029,-0.0124981152705879
3,0.191360692434417,0.0070074208557711
3,0.122104091672799,0.00182049986813961
3,0.081675065362923,0.000544839357492985
3,-0.213885321709847,-0.00978459702057705
3,0.436639359513538,0.083247010004623
3,1.24253911313709,1.91836042064402
3,2.37500497853834,13.3965686213801
3,3.25774102258392,34.5740033704453
3,0.324418626302767,0.0341442315586791
3,0.443929686965948,0.087486806894115
3,0.40914790143607,0.0684921791440393
3,-0.0335126845450705,-3.76380968643741e-05
3,-0.145899924082047,-0.00310574073084943
3,-0.0552274898466279,-0.000168448021150121
3,-0.129177246959151,-0.00215554986368968
3,0.0641074592846796,0.000263466678050619
3,-0.119059290794103,-0.00168767910601149
3,-0.0422273726144527,-7.52977816169938e-05
3,0.279096514340673,0.021740185115946
3,0.24437274227021,0.0145934605049228
3,-0.300972651104414,-0.0272634681635224
3,0.10564638747386,0.00117913614805085
3,0.276195951076204,0.021069388107637
3,0.0866729406485839,0.000651104346923418
3,0.484309758524803,0.113597731728579
3,-0.0972472040592335,-0.000919668627052035
3,-0.0851585969696583,-0.000617569007321223
3,-0.0214764930964131,-9.90581242951786e-06
3,0.207925812377277,0.00898928647403654
3,-0.421764799691253,-0.0750258617857284
3,-0.187323100889358,-0.00657315714386739
3,-0.156898908246171,-0.00386242238045112
3,0.182078966969993,0.00603641851097169
3,0.509850640462201,0.132534488880979
3,-0.208535643185004,-0.00906861338805126
3,-0.169842997580449,-0.00489940045773233
3,0.226445647032942,0.0116115963437362
3,0.294337974120777,0.0254999241796947
3,-0.100176647591129,-0.00100530879455748
3,-0.0640711948100894,-0.000263019815377833
3,0.150146204767303,0.00338487844404349
3,-0.0438940432822686,-8.45700841348945e-05
3,0.0459192355943387,9.68242071847575e-05
3,0.189667342831099,0.00682303626844737
3,0.239725176295543,0.0137765648233222
3,0.0960308312063472,0.00088558869498462
3,0.070632043890718,0.000352375188372876
3,-0.562959244576133,-0.178414795187526
3,-0.107538815399527,-0.00124364304233069
3,-1.3581134949259,-2.50500267424863
3,0.680533632990168,0.315172836754823
3,-1.07192793535821,-1.2316768181014
3,0.129998363889381,0.00219691705023557
3,-0.224711084233972,-0.0113468022377339
3,-0.151109358645416,-0.00345043687829922
3,-0.0985002491914608,-0.0009556788781719
3,-0.565757030044529,-0.181088085576901
3,-0.378446438467407,-0.0542017448453936
3,0.461226196683238,0.0981164664086401
3,-0.0929846828416824,-0.000803959631147219
3,-0.12541450567581,-0.0019726194553801
3,-0.932118380338461,-0.809866091193881
3,-0.476402035543216,-0.108123681692023
3,0.310156461613175,0.0298361306535285
3,0.177873299328055,0.00562771741803053
3,-0.121154924046528,-0.00177837444514411
3,-0.511754982537525,-0.134025130623785
3,-0.453539187410628,-0.0932920105774408
3,0.202174696730249,0.00826381147595702
3,0.239909318679242,0.0138083361876607
3,0.231761032155024,0.0124486211160087
3,-0.494359399143843,-0.120817094461421
3,-0.488392925340777,-0.11649521652516
3,1.16123316348092,1.56587932822379
3,1.78307831578474,5.66906263835717
3,0.978952064035171,0.938175914366495
3,0.771443269889474,0.459104958953398
3,-1.72375181343846,-5.12181878013699
3,1.64175634314484,4.4251307639119
3,1.51297443486387,3.46333713121522
3,0.776772592494354,0.46868567601605
3,0.911324309326859,0.756865771844161
3,0.867589254207042,0.653044074042087
3,0.76213264270545,0.442681822795608
3,2.77377303705064,21.3409017612391
3,-7.93936377581713,-500.445864052945
3,-8.3367371396402,-579.413119704506
3,9.59750483901448,884.046317179046
3,-8.26886854896321,-565.377165107012
3,10.0778698770549,1023.54334683001
3,11.6711080168374,1589.77720476598
3,-6.81592462707893,-316.646241619227
3,-16.7762611808257,-4721.56025564054
3,-0.598075944916709,-0.213928676965551
3,9.62034794557651,890.373732737842
3,-8.71932456331602,-662.900782560015
3,23.6788812400026,13276.4981124161
3,1.22756869934574,1.84985385376095
3,13.0686494587003,2231.98939626769
3,-12.8370067500334,-2115.39419723979
3,19.2402909304428,7122.54011668474
3,-0.0812789212511612,-0.000536949933372497
3,-0.084769639448888,-0.000609145454656132
3,-1.01254066551877,-1.0380957736803
3,-0.484892583482374,-0.114008340635923
3,0.155480982963448,0.00375864953360748
3,-0.0952372297568642,-0.000863814048235804
3,-0.6465120166447,-0.270227662416634
3,-0.536858545009382,-0.154731811529929
3,0.16215848665415,0.00426401818259292
3,0.182182266562764,0.00604669833765061
3,-0.482929089188231,-0.112628966148612
3,-0.447033907022448,-0.0893349493265134
3,1.93692061289596,7.26667041576211
3,1.23673299667671,1.89159363691644
3,0.753606376926018,0.427990071364728
3,-2.53568133645096,-16.3036191697083
3,0.927566143238497,0.798058384451464
3,1.02697345148626,1.0831226807095
3,0.69759227716134,0.339472807440752
3,4.08028839579306,67.9317152732397
3,-12.4492453760655,-1929.43024047957
3,20.0326873547278,8039.28896838809
3,-0.0435433054908067,-8.25589542613529e-05
3,-0.382491609618857,-0.0559584580101782
3,-0.242679591193596,-0.0142922223487327
3,0.0832953468743483,0.000577912679829469
3,-0.591179093153686,-0.206612789381018
3,-0.418123174973331,-0.0730992158997706
3,0.731680127188714,0.391709206071247
3,0.922529506878201,0.785128599647867
3,-3.06894510134587,-28.9046263048411
3,0.464229357416685,0.100045556441129
3,0.652477347202498,0.277777020419128
3,4.938389104474,120.435887503314
3,-0.542262567490278,-0.159451598745927
3,-0.665035761901363,-0.294127071971969
3,0.846195721023689,0.605916075234522
3,-2.77413498224189,-21.3492570714609
3,1.03778215533705,1.11768287349348
3,4.46399577647562,88.9551968539775
3,-2.79257461117554,-21.7778175911928
3,4.49366788190904,90.7408648642968
4,-0.000717430458662309,-2.64922743070864e-13
4,-0.00180027399912882,-1.05039933112934e-11
4,-0.00217578577202566,-2.24111699973063e-11
4,-0.00201386563209101,-1.64483357279338e-11
4,-0.00278568724862092,-6.0218429502302e-11
4,-0.00248945460708572,-3.84075714273764e-11
4,-0.00198134449670021,-1.54113247417402e-11
4,-0.000475134760183952,-5.09644352205237e-14
4,-0.0013655145536711,-3.47684502305545e-12
4,-0.0012638941136186,-2.5517772708915e-12
4,-0.000526679231470661,-7.69457740168983e-14
4,-0.00214176952054683,-2.1042189885677e-11
4,-0.00165603823378247,-7.5211012865416e-12
4,-0.00173133136041532,-8.98505588601605e-12
4,-0.000928866539736642,-7.44411844785514e-13
4,-0.00112674481256934,-1.61176703556545e-12
4,-0.00122120513558239,-2.22410091077379e-12
4,-0.00196236414654599,-1.4829223198304e-11
4,-0.0020033617391442,-1.61078471876396e-11
4,-0.00278227506822455,-5.99239256275724e-11
4,-0.00288946666543975,-6.97060950635701e-11
4,-0.00329886191652782,-1.18428587388174e-10
4,-0.00203764424176228,-1.72390546409513e-11
4,-0.000964720392455155,-8.6617538007301e-13
4,-0.00133214451064381,-3.1492370930796e-12
4,0.000785357913136943,3.80426267177855e-13
4,0.000819904811769795,4.51911861575613e-13
4,0.00105349661859904,1.23177839937577e-12
4,-0.0014888042916816,-4.91304167597539e-12
4,-0.00146384938994123,-4.59182770715906e-12
4,-0.0012243001586321,-2.24673382146558e-12
4,-0.00038220910933638,-2.13404775748213e-14
4,-0.00177720938229331,-9.9759528825452e-12
4,-0.00170992782131954,-8.54891726687267e-12
4,-0.00185356264173832,-1.18039964695295e-11
4,-0.00128884973436214,-2.75936496251554e-12
4,-0.000544392462941914,-8.78311188757295e-14
4,-0.000414975465338031,-2.96544369466186e-14
4,-0.00109876060942419,-1.45751262820608e-12
4,-0.00293812427819559,-7.45213385982395e-11
4,-0.00260973054942753,-4.63855465041794e-11
4,-0.00417886359935251,-3.04952910706907e-10
4,-0.00101469227655269,-1.06007701682439e-12
4,0.00561100173266522,9.91200725511047e-10
4,0.00529839921722652,7.88095252849849e-10
4,-0.00348945916300902,-1.48262896601278e-10
4,-0.0028502990487827,-6.60027014792921e-11
4,-0.00330151672947311,-1.18810277186961e-10
4,-0.00271457808426954,-5.43011908842736e-11
4,-0.00202035988028686,-1.66615324518078e-11
4,-0.00213216293811758,-2.06671960953626e-11
4,-0.00167300242507351,-7.83404896981632e-12
4,-0.000385076656739379,-2.19881540173412e-14
4,-0.000916859873020221,-7.06662204405639e-13
4,-0.000982988894854241,-9.33672238808287e-13
4,-0.000590343340118499,-1.21455915705579e-13
4,-0.000414197500106486,-2.94326857478776e-14
4,-0.000732481402719993,-2.87863373561096e-13
4,-0.000587695088290437,-1.1929115521569e-13
4,-0.00132594218637307,-3.09099536356974e-12
4,-0.000298002434802182,-7.8864081536049e-15
4,0.00623427445042131,1.51057978635597e-09
4,0.00616772406833332,1.4471040002028e-09
4,0.00443104434172655,3.85500001660067e-10
4,0.00478929350512113,5.26121212040344e-10
4,0.00381490396939797,2.11804138001826e-10
4,-0.00249175562073277,-3.8549769563837e-11
4,-0.000994055840754079,-9.76434522338977e-13
4,-0.00502943008233801,-6.39845471186542e-10
4,-0.00405111674407506,-2.69338870801611e-10
4,-0.00255872945259354,-4.28644714223883e-11
4,-0.00313531025641458,-9.66322501712536e-11
4,-0.000601013373710301,-1.30477775545096e-13
4,-0.00114488171026009,-1.71807639059155e-12
4,0.00558087475045661,9.70083468394425e-10
4,0.00552129935800609,9.29319775310017e-10
4,0.00437509886698442,3.66396643090992e-10
4,0.00387404769668275,2.25247434674384e-10
4,0.00301382421925726,8.25033673075621e-11
4,0.00293887470880932,7.45975021874006e-11
4,-0.000942941105659145,-7.90566256327065e-13
4,-0.00235573718736702,-3.07969246772864e-11
4,-0.00246546002721837,-3.69480789236785e-11
4,-0.00163867291378814,-7.21056175367665e-12
4,-0.00216116518646697,-2.18148309594365e-11
4,-0.00148859116159043,-4.91022896997433e-12
4,0.00250426669208695,3.9329851707304e-11
4,0.00131638180766114,3.00280746553721e-12
4,0.00201709829139341,1.65542018374028e-11
4,0.00121995654455065,2.21501894290035e-12
4,0.00127611609686613,2.6519220080292e-12
4,0.00118510741990683,1.97256293759776e-12
4,-0.00203402974048686,-1.71170608521419e-11
4,-0.00215212575211848,-2.14521377490034e-11
4,-0.00140421731069999,-3.8880987825476e-12
4,-0.000762536342418887,-3.38097677760554e-13
4,-0.0014496097424364,-4.41574917507264e-12
4,-0.00399247158715434,-2.54078160479716e-10
4,0.00261615133315694,4.68437279201381e-11
4,0.00242845869747834,3.47794641148066e-11
4,0.00131864342236544,3.02349664548819e-12
4,0.00253612815595355,4.13699296481926e-11
4,0.00282962228392268,6.41082420430398e-11
4,-0.001637739229959,-7.19414204461812e-12
4,-0.00151602971870385,-5.2823948321279e-12
4,0.00965118561237523,8.67606250918782e-09
4,0.00626766666375141,1.54320479653368e-09
4,0.00580086803433233,1.1323272077569e-09
4,0.0051117274754627,6.82764241819169e-10
4,0.00360096021999862,1.68140871806238e-10
4,0.00275279382065262,5.74241716170383e-11
4,0.00611887710578664,1.4018027992664e-09
4,0.00280590870727486,6.1986076379185e-11
4,0.002664428466405,5.03983432207229e-11
4,-0.00291314339439664,-7.20190602567373e-11
4,-0.00348777990792105,-1.47977704485885e-10
4,-0.00182282299835972,-1.10402268595944e-11
4,-0.00300073045879834,-8.10789183676807e-11
4,-0.0036798725091045,-1.83371184519281e-10
4,-0.00132061630520421,-3.04163166114454e-12
4,0.00807805696638235,4.25821559299499e-09
4,0.00757013688571445,3.28408909350019e-09
4,0.00660311642345214,1.90105997625951e-09
4,0.00566184017784214,1.02761497358222e-09
4,0.00460594384288769,4.5006428883426e-10
4,0.00300353432179479,8.13823818210283e-11
4,0.0029939515587505,8.03487412077475e-11
4,0.00499980600054174,6.24903005916093e-10
4,0.0029789972599803,7.87554133117189e-11
4,0.00285982757634111,6.68897231399651e-11
4,0.003854309413081,2.20691853739406e-10
4,-0.00330090974298532,-1.18722927822088e-10
4,-0.00177825901485466,-9.99954124569442e-12
4,-0.00451562704645693,-4.15788298041307e-10
4,-0.000821200786827058,-4.54775884563119e-13
4,0.0101964632126499,1.08093163386079e-08
4,0.0111785213004741,1.56148362696485e-08
4,0.0106479546568385,1.28547836668356e-08
4,0.008668778073673,5.64717881280528e-09
4,0.010417222844027,1.17762717401466e-08
4,0.00315740131894918,9.938461146005e-11
4,0.00253963682465947,4.15993421549737e-11
4,0.00446039738534384,3.95816788012876e-10
4,0.00279663122918875,6.11703283834816e-11
4,0.00263558676274186,4.82513279769557e-11
4,0.00651785319413459,1.80475518152363e-09
4,0.00714254300990619,2.60262415959974e-09
4,-0.00100687939450973,-1.02780283899039e-12
4,-0.0057890394934373,-1.12311971162579e-09
4,-0.000776731503161353,-3.63985161808677e-13
4,0.00921398844881488,7.20759962214625e-09
4,0.00680925827458826,2.14980579372352e-09
4,0.00746745721329707,3.10950293826999e-09
4,0.00684376721612372,2.19371859281549e-09
4,0.00202309718799368,1.67520123977558e-11
4,0.00620543217369519,1.48281896618889e-09
4,0.00162497194582571,6.97241887949356e-12
4,0.00386760691234986,2.23753228809365e-10
4,-0.000997225279605571,-9.88947227470062e-13
4,-0.00514210183463376,-6.99137653834291e-10
4,0.00192017650615171,1.35945428122208e-11
4,0.0025130427178811,3.98840713021639e-11
4,0.0019067661757756,1.32187307742518e-11
4,0.000790154014847167,3.89804640140532e-13
4,0.00278169379383284,5.98738639646118e-11
4,0.00422922626008088,3.19921686563288e-10
4,0.00290196830257003,7.0920315306883e-11
4,0.000914617450980198,6.99774212208651e-13
4,0.000957058720859724,8.38985277448462e-13
4,-0.00196323676229386,-1.48556175809616e-11
4,-0.00126363865879732,-2.54971486329934e-12
4,0.00472134222149595,4.96891907515155e-10
4,0.00370727136898744,1.88893715278415e-10
4,0.00499777753921171,6.23889510286126e-10
4,0.00103378618678226,1.14214935726577e-12
4,0.00418738219457712,3.07447105085687e-10
4,0.00116142047164611,1.81952449776828e-12
4,0.00272653270073851,5.52640670883218e-11
4,0.0083430291046658,4.84501397970287e-09
4,0.00678413816465219,2.11825742036447e-09
4,0.00314794295028733,9.81990785051774e-11
4,0.00205330616293594,1.77752141922482e-11
4,0.00144222243200816,4.32642306052285e-12
4,-0.00650924986388438,-1.7952451855166e-09
4,0.00146369796316685,4.58992800961012e-12
4,0.00197185988282879,1.51183434005791e-11
4,0.000966863556121404,8.73898035188574e-13
4,0.00150517928461797,5.13278331402126e-12
4,0.00191600569067088,1.34768122627219e-11
4,0.00186127519087377,1.20016886081887e-11
4,0.00134013022484942,3.22543288084043e-12
4,0.000705558373119123,2.47817402519049e-13
4,0.00205540502485495,1.78480040430953e-11
4,0.00137208943389671,3.54429351275857e-12
4,0.00531275841951327,7.96673319422582e-10
4,0.00970253827446672,8.86219819616337e-09
4,0.00282693146302116,6.38647354921828e-11
4,0.00795709016007336,4.00882516464191e-09
4,0.00395061149279221,2.43588786155843e-10
4,0.00353932352846884,1.5692099481115e-10
4,0.00429878683747477,3.41494443595139e-10
4,0.00397887475089783,2.50634628096254e-10
4,0.000639322023397353,1.6706237884976e-13
4,0.00586247671470079,1.18120295012637e-09
4,0.00461874140897139,4.55087169862829e-10
4,0.00543525647479199,8.72730528947022e-10
4,0.0051159616826151,6.850292759019e-10
4,0.00136167429288556,3.43789773530054e-12
4,0.00103796702157743,1.16073804962724e-12
4,0.00044541062390641,3.93588396469467e-14
4,0.000541879892845541,8.62208192319924e-14
4,0.000696262086286997,2.35012514024665e-13
4,-0.000983959477323959,-9.37365256903402e-13
4,-0.000967466636585712,-8.76080449189919e-13
4,-0.000809147146408761,-4.28657105851547e-13
4,-0.000252604239222269,-4.07157593272243e-15
4,-0.00117456809109638,-1.90332430565974e-12
4,-0.0011301013133344,-1.6310584274694e-12
4,-0.00122503040751719,-2.25209898732453e-12
4,-0.00085180833912004,-5.26462631006508e-13
4,-0.000359792167639711,-1.67574070685481e-14
4,-0.000274259715838863,-5.65780645475073e-15
4,0.00318224307755918,1.02549465636892e-10
4,0.00628773216378634,1.5630617509525e-09
4,-0.00414102141305913,-2.9405590494914e-10
4,-0.00338251541091348,-1.30905874345462e-10
4,-0.00391798580629665,-2.35641312670596e-10
4,-0.00322145222203655,-1.07697786778256e-10
4,-0.0023976075189655,-3.304550305753e-11
4,-0.00253028677809838,-4.09901006246142e-11
4,-0.00198539044095165,-1.55375917511607e-11
4,0.00353572813887438,1.56284338687127e-10
4,0.00812961965940104,4.36798271581817e-09
4,0.00584051828406652,1.16360492678002e-09
4,0.00631272317024969,1.58806026401383e-09
4,0.00502838939692151,6.39316050402107e-10
4,-0.0032843598799656,-1.16359796621401e-10
4,-0.00131025574685292,-2.94729965234503e-12
4,-0.00662924495647985,-1.93132902579612e-09
4,-0.00533973925556319,-8.12980637324303e-10
4,-0.00337263746406769,-1.29383423906945e-10
4,-0.00413262325234946,-2.91677722181337e-10
4,-0.000792190131131877,-3.93838085099283e-13
4,-0.0015090579209284,-5.18589401833418e-12
4,0.00316515675587389,1.0036467765471e-10
4,0.00727757326835376,2.80508706731051e-09
4,0.00576677707478427,1.1059427684057e-09
4,0.00510634619309746,6.79893705844368e-10
4,0.00397249363807446,2.49030672533367e-10
4,0.00387370338629773,2.25167368863682e-10
4,-0.00124288189051483,-2.38626922658065e-12
4,-0.00310507524957682,-9.29583738776821e-11
4,-0.00324969990302405,-1.11525204891076e-10
4,-0.00215991950801716,-2.17645788464307e-11
4,-0.00284861170708351,-6.58465490842124e-11
4,-0.00196209814803638,-1.48211844266561e-11
4,0.00458141738074076,4.40554291768878e-10
4,0.0118901548508222,1.99871118425764e-08
4,0.0103712889156619,1.15699353102651e-08
4,0.00889285854027148,6.2541102946155e-09
4,0.00723439831444439,2.73911121811027e-09
4,0.00471754853644618,4.9529678433252e-10
4,0.00470249721858818,4.89006001727517e-10
4,0.00785302412202034,3.80318740278e-09
4,0.00467900901345432,4.7930893750266e-10
4,0.00449183327100937,4.0709382098174e-10
4,0.00605383184695077,1.34314040753802e-09
4,-0.00518462593017948,-7.22553003009158e-10
4,-0.00279305055782977,-6.08576514101621e-11
4,-0.00709254081418987,-2.53050601831536e-09
4,-0.0012898319629354,-2.76778619863259e-12
4,0.00578285768210401,1.11833010801404e-09
4,0.0133334825873355,3.16063534444247e-08
4,0.0127006349222302,2.60196667457447e-08
4,0.0103399187058751,1.14305860426039e-08
4,0.0124254233333471,2.38366256583901e-08
4,0.00376607552786554,2.01166704696665e-10
4,0.00302922027605897,8.42021964560276e-11
4,0.00532025920705244,8.01181971116079e-10
4,0.00333575727909607,1.23816285090216e-10
4,0.00314366715094422,9.76666357473655e-11
4,0.00777434507971256,3.65304695885719e-09
4,0.00851946069538198,5.2680321234748e-09
4,-0.00120098253725858,-2.0803996429637e-12
4,-0.00690503289373975,-2.27333274285072e-09
4,-0.000926467436439704,-7.3675083580688e-13
4,0.005225653520521,7.45697083095528e-10
4,0.00686764103452316,2.22448943570399e-09
4,0.00753148338828225,3.21752618616382e-09
4,0.00690244585663298,2.26992775294989e-09
4,0.00204044327661134,1.73339725450487e-11
4,0.00625863771272448,1.53433167543734e-09
4,0.00163890449812265,7.21463872877217e-12
4,0.00390076787596449,2.31526352354367e-10
4,-0.00100577551543926,-1.02330297294697e-12
4,-0.0051861903513071,-7.23425497129936e-10
4,0.00267767848184335,5.14083558289396e-11
4,0.00556030545015697,9.55860684888782e-10
4,0.00749585528656377,3.15707409173484e-09
4,0.00155051152088507,5.77962938191038e-12
4,0.00628039377779801,1.55577754400736e-09
4,0.00174194223612542,9.2073573228481e-12
4,0.00408935659870193,2.79653290417435e-10
4,0.0125131897787568,2.45172708584218e-08
4,0.010175106340229,1.07190384053593e-08
4,0.0047214035880105,4.96917741794938e-10
4,0.00307962604089916,8.99480874035659e-11
4,0.00216309960908631,2.18930402404052e-11
4,-0.00976281849701101,-9.08449648545437e-09
4,0.00531275841951327,7.96673319422585e-10
4,0.00513876085653027,6.97322420926785e-10
4,0.00149722931621885,5.02519927669159e-12
4,0.00421431818043661,3.15434569054269e-10
4,0.00209236460854209,1.91667934199831e-11
4,0.00187453393042059,1.23473347778797e-11
4,0.00227676891408058,2.68705040069968e-11
4,0.00210733369398372,1.97211957759901e-11
4,0.000338604486332997,1.31453099881851e-14
4,0.00310494687179994,9.29430015619116e-11
4,0.00244622663548958,3.58085522346873e-11
4,0.00287867797351193,6.86708367147009e-11
4,0.00270956969139874,5.39015560816994e-11
4,0.000721184329057281,2.70511121350946e-13
4,0.000549739063115893,9.13327200443692e-14
4,0.000317204776876333,1.01241570952953e-14
4,0.000369646307561443,1.86700503579475e-14
4,0.00049585180028064,6.04515690169891e-14
4,-0.000700739115117023,-2.41115673167415e-13
4,-0.000688993531186964,-2.2535156461107e-13
4,-0.000576244315381761,-1.1026219061802e-13
4,-0.00017989528547337,-1.04731935031787e-15
4,-0.000836483436328126,-4.89586442248888e-13
4,-0.000804815861372926,-4.19552301323664e-13
4,-0.000872420809533414,-5.79300714816624e-13
4,-0.000606626020237778,-1.35420414547863e-13
4,-0.000256230516589535,-4.31045790967454e-15
4,-0.000195317505464604,-1.45534070304118e-15
4,0.00238616911237223,3.241939297677e-11
4,0.00554566413822092,9.45832549416445e-10
4,0.00394161083157303,2.413764917706e-10
4,0.00426028938090297,3.29424881612261e-10
4,0.0033935265927244,1.3261877964519e-10
4,-0.00221652734363889,-2.41375047881041e-11
4,-0.000884256840358768,-6.11383497875346e-13
4,-0.00447390153659765,-4.00632047847569e-10
4,-0.00360364835170917,-1.68643505710994e-10
4,-0.0022761035430031,-2.68391068456096e-11
4,-0.00278899778786921,-6.0505196985197e-11
4,-0.000534628101422635,-8.16971921646803e-14
4,-0.0010184231531009,-1.07575421522454e-12
4,0.00213608031783999,2.08195008739087e-11
4,0.00496443607185409,6.07406856854385e-10
4,0.00389184484590132,2.29415138586209e-10
4,0.00344613756614436,1.41036148710507e-10
4,0.00268093055969122,5.16585558345106e-11
4,0.00261425963983137,4.67083872770566e-11
4,-0.00083878801225296,-4.9500417287342e-13
4,-0.00209553290329909,-1.92831481294824e-11
4,-0.00219313624478596,-2.31346242019603e-11
4,-0.0014576723698224,-4.5148121719918e-12
4,-0.00192245246286061,-1.36591111358817e-11
4,-0.00132416798249021,-3.07448466266904e-12
4,0.000968850707910356,8.81104549526839e-13
4,0.00303686595901205,8.50555180167083e-11
4,0.00465340458327791,4.68903260962667e-10
4,0.00281441484534213,6.27411466660604e-11
4,0.0029439737861507,7.51165709828419e-11
4,0.00273401862616297,5.58734998508877e-11
4,-0.00469246509071534,-4.84846429353734e-10
4,-0.00496491017885916,-6.07638921159014e-10
4,-0.00323950067153918,-1.10131688376682e-10
4,-0.00175915577632897,-9.57672892858128e-12
4,-0.00334422008496075,-1.25077560858689e-10
4,-0.00921055045336278,-7.19684821766233e-09
4,0.00373385072854665,1.9436936110809e-10
4,0.00641231307325768,1.69067010102684e-09
4,0.00593474157582722,1.24052994070124e-09
4,0.00522969689939146,7.4800771244799e-10
4,0.00368406386838026,1.8420804896532e-10
4,0.00281632332271937,6.29115009538798e-11
4,0.0062600897214289,1.53575603547814e-09
4,0.00287066400484947,6.79093314443093e-11
4,0.0027259186559329,5.52142996288989e-11
4,-0.00298037347458157,-7.89010455084199e-11
4,-0.00356827155942297,-1.62118133092136e-10
4,-0.00186489045599959,-1.2095207001686e-11
4,-0.00306998189000025,-8.88266440175242e-11
4,-0.00376479731038042,-2.00893737339973e-10
4,-0.00135109374076854,-3.33228338804054e-12
4,0.00292873458880316,7.35732710834785e-11
4,0.00811093361272408,4.32796148232803e-09
4,0.00662999025267996,1.93219769482355e-09
4,0.00568488313457604,1.04444641827054e-09
4,0.00462468943819888,4.57435952714649e-10
4,0.00301575831774875,8.27153548638883e-11
4,0.00300613655409912,8.16647841111513e-11
4,0.00502015456385853,6.35138376799194e-10
4,0.00299112139326841,8.00453588819368e-11
4,0.00287146670444048,6.79853189654354e-11
4,0.00386999595354399,2.2430659547135e-10
4,-0.00331434401841538,-1.20667506720064e-10
4,-0.00178549629889198,-1.01633250846928e-11
4,-0.00453400506409599,-4.22598550830966e-10
4,-0.000824542967744625,-4.62224720307427e-13
4,0.00432474636570347,3.49818335947321e-10
4,0.00909550745546533,6.8439643196935e-09
4,0.00949824943678313,8.13906060265527e-09
4,0.00773277301692693,3.57553513016587e-09
4,0.00929243072495406,7.45619621850741e-09
4,0.00281648319005066,6.29257867428444e-11
4,0.00226542137122676,2.63387992832142e-11
4,0.00397878919647371,2.50613072042324e-10
4,0.00249466699038508,3.87302519202985e-11
4,0.00235101118398626,3.05505322175299e-11
4,0.00581409269905785,1.14268837003251e-09
4,0.00637133208277424,1.647862485276e-09
4,-0.000898162318494517,-6.50757710976184e-13
4,-0.00516397213175041,-7.11107991692036e-10
4,-0.000692864479629978,-2.30458743391469e-13
4,0.00263436586866932,4.81619834101019e-11
4,0.00468479857545212,4.81685631791187e-10
4,0.00379678497639135,2.07808835936856e-10
4,0.00347967344249777,1.46606745899926e-10
4,0.00102863194120164,1.11954105369466e-12
4,0.00315511572093746,9.9097151340929e-11
4,0.000826207488672628,4.65968445689214e-13
4,0.00196646213027496,1.49534825787483e-11
4,-0.000507033365111492,-6.60915831962112e-14
4,-0.00261447162469804,-4.67235390630505e-11
4,0.00236587864539568,3.1330682620236e-11
4,0.00192183926980746,1.36416924152253e-11
4,0.00239415630236418,3.28556451635643e-11
4,0.00206720260625771,1.82613203611907e-11
4,-0.00281062076522752,-6.24035077265149e-11
4,0.00143426916214983,4.23177572972973e-12
4,0.00379299251679404,2.06979790739845e-10
4,0.00401507281563356,2.59880505862068e-10
4,0.000830514520336498,4.75761088850712e-13
4,0.00336402416598287,1.28066761627157e-10
4,0.000933052287069606,7.57920976570971e-13
4,0.00219041908964156,2.30201878283250e-11
4,0.00670255310392764,2.018185372882e-09
4,0.00545018430866242,8.82357854835439e-10
4,0.00252896813947776,4.090472075001e-11
4,0.00164956797142221,7.40424639287418e-12
4,0.00115864062284097,1.80216688212365e-12
4,-0.00522934683938951,-7.4780745511257e-10
4,0.00970253827446672,8.86219819616337e-09
4,0.00513876085653026,6.97322420926783e-10
4,0.00273434694355966,5.59003431890193e-11
4,0.0076964883809291,3.50889580550583e-09
4,0.00382122545304424,2.13211510830966e-10
4,0.00342340753531921,1.3735181702239e-10
4,0.00415799774554904,2.98907627926339e-10
4,0.00384856306431182,2.19378685555626e-10
4,0.000618383658569032,1.46228497459582e-13
4,0.00567047538867475,1.03389843830213e-09
4,0.00446747352028705,3.98334523429844e-10
4,0.0052572469915586,7.63894748857833e-10
4,0.00494840938778085,5.99601193402403e-10
4,0.00131707824882896,3.0091671369339e-12
4,0.00100397267853562,1.01598565823009e-12
4,0.000735299340828546,2.92318772658169e-13
4,0.000856861895228019,5.390677124753e-13
4,0.000894554163353971,6.40363493475933e-13
4,-0.00162435450850479,-6.96182773395527e-12
4,-0.00159712755370774,-6.50666442288984e-12
4,-0.00133576823599222,-3.18364362866697e-12
4,-0.000417007858864315,-3.02396638242939e-14
4,-0.00193901783385142,-1.41360220471865e-11
4,-0.00186561053141576,-1.21138987309705e-11
4,-0.00202232277991551,-1.67263775503728e-11
4,-0.00140619481586238,-3.91004693041431e-12
4,-0.000593957417047021,-1.24457547812676e-13
4,-0.000452757472427317,-4.20206249377705e-14
4,0.00309269524565379,9.14847081277772e-11
4,0.0071876921989061,2.66905721470841e-09
4,0.00711096415846255,2.55690126867917e-09
4,0.00552172796350093,9.29608372554048e-10
4,0.00439832344861954,3.74238665011272e-10
4,-0.00287282386734049,-6.81139397660783e-11
4,-0.00114607841998074,-1.72527107146465e-12
4,-0.00579858901869832,-1.13054880423675e-09
4,-0.00467066062776212,-4.75897309634098e-10
4,-0.00295004011642045,-7.57376258691892e-11
4,-0.0036147983619262,-1.7074040499064e-10
4,-0.00069292732811335,-2.3054237275202e-13
4,-0.00131997033543344,-3.03568485898431e-12
4,0.00305364749744656,8.69512057271902e-11
4,0.00709694184270194,2.53679273534554e-09
4,0.00702118255506645,2.43019464986993e-09
4,0.0049264483487936,5.89027722411272e-10
4,0.00383254170082305,2.15748386243267e-10
4,0.00373723185414632,1.95074349568215e-10
4,-0.0011990948529007,-2.06735069836733e-12
4,-0.00299568267753476,-8.05347347291965e-11
4,-0.0031352121685303,-9.66201582155523e-11
4,-0.00208382500743524,-1.88558008361504e-11
4,-0.00274825440932414,-5.70463331287168e-11
4,-0.00189297294308621,-1.2840372592402e-11
4,0.00437458562754392,3.6622474652221e-10
4,0.0115682979333043,1.79092690200413e-08
4,0.00695315294805758,2.3373681968007e-09
4,0.00612712145067292,1.40937302734449e-09
4,0.00431625526064969,3.47079116045246e-10
4,0.00329960901647516,1.18535906887885e-10
4,0.00733433136818451,2.89362408564056e-09
4,0.00336327464863872,1.27952664725046e-10
4,0.00319369076083539,1.04033077902385e-10
4,-0.00349181044302017,-1.48662912852759e-10
4,-0.00418059280187168,-3.05457978869954e-10
4,-0.0021849087119064,-2.27894154360203e-11
4,-0.00359679580925363,-1.67364418981888e-10
4,-0.00441084269349372,-3.78517774693496e-10
4,-0.00158294363902737,-6.27858543223107e-12
4,0.00460871640958388,4.51148939851006e-10
4,0.0127635303591244,2.65389210743784e-08
4,0.0119610040342182,2.04677709125403e-08
4,0.0089458479061409,6.40451195651336e-09
4,0.0072775055085365,2.80498259867762e-09
4,0.00474565872219494,5.07207904537805e-10
4,0.00473051771891294,5.00765838358662e-10
4,0.00789981748621236,3.89464816681218e-09
4,0.00470688955595901,4.90835574764712e-10
4,0.00451859850015859,4.16883796588136e-10
4,0.00608990446737954,1.37544085315533e-09
4,-0.00521551926319116,-7.39929283142149e-10
4,-0.00280969334791019,-6.2321183628193e-11
4,-0.00713480273013567,-2.59136076705953e-09
4,-0.00129751761063626,-2.83434716804988e-12
4,0.00743185493158713,3.05062549089993e-09
4,0.0156301633025807,5.96834695812246e-08
4,0.0171355606119408,8.62170720442987e-08
4,0.0132883740273042,3.11808086964737e-08
4,0.0159685658463923,6.5022498571246e-08
4,0.00483998198176541,5.48750563782801e-10
4,0.00389301049499486,2.29690111227245e-10
4,0.00683734527094027,2.18549614860721e-09
4,0.00428695733978499,3.37751002837172e-10
4,0.00404009220066312,2.66418945967975e-10
4,0.0099912202576461,9.96492725384474e-09
4,0.0109488075730062,1.4370348225079e-08
4,-0.00154344590216991,-5.67499715567393e-12
4,-0.00887402138961858,-6.20128776372961e-09
4,-0.00119065209018842,-2.00973832685732e-12
4,0.00521199239718919,7.37929876796581e-10
4,0.00926869530463242,7.38030690920005e-09
4,0.00684968735833648,2.20131907772804e-09
4,0.00688440119221574,2.24628410790882e-09
4,0.00203510906393462,1.71534212946955e-11
4,0.00624227611864886,1.5183500242759e-09
4,0.00163462000501763,7.13949080523984e-12
4,0.00389057032443662,2.29114765956692e-10
4,-0.0010031461747632,-1.01264421421319e-12
4,-0.00517263239425288,-7.15890272431455e-10
4,0.00672527099249848,2.04568685772611e-09
4,0.00572142471034156,1.0715606309731e-09
4,0.00557690910157329,9.67329124580234e-10
4,0.00524203494384042,7.55091613314472e-10
4,0.0072045302009888,2.69415553989983e-09
4,-0.00212422193745695,-2.03610213099685e-11
4,-0.00138053997279969,-3.63241904205424e-12
4,0.00426822407628877,3.31885932853811e-10
4,0.0014840399580149,4.85045386544422e-12
4,0.0018487621073523,1.16821862152096e-11
4,0.0015962891992036,6.49301342076845e-12
4,-0.00217035502809865,-2.218825392453e-11
4,0.00348825280054245,1.48057975374116e-10
4,0.00922484922517021,7.24164292190806e-09
4,0.00724349513576746,2.75291429695327e-09
4,0.00201987512379655,1.66455474192911e-11
4,0.00818156523737376,4.48069714706912e-09
4,0.0022692548507036,2.65175312803823e-11
4,0.00532726752093804,8.05411869690778e-10
4,0.0163011241213019,7.06106512543493e-08
4,0.0132552669888458,3.08712289795015e-08
4,0.0061506448216408,1.43114156427115e-09
4,0.00401187604659491,2.59053834634585e-10
4,0.00281790301576955,6.30527695451744e-11
4,-0.0127181732961241,-2.61636875025768e-08
4,0.00595126172854237,1.25440045105813e-09
4,0.00781812020710002,3.73602156574409e-09
4,0.0071747337593404,2.64986140332456e-09
4,0.0101942386119769,1.07998861887215e-08
4,0.00727457500962419,2.8004672961493e-09
4,0.006826923912101,2.17220220494416e-09
4,0.00454331274546637,4.26079395083154e-10
4,0.00441759880153417,3.80842218088573e-10
4,-0.00164642527655443,-7.34798226965305e-12
4,0.00282693146302116,6.38647354921826e-11
4,0.00149722931621884,5.02519927669156e-12
4,0.00273434694355966,5.59003431890191e-11
4,0.00224244878436422,2.52865821242041e-11
4,0.00111335221309413,1.53649201267054e-12
4,0.000997443988219619,9.89815085302781e-13
4,0.0012114741851621,2.15405435215562e-12
4,0.00112131729926334,1.58093527311297e-12
4,0.000180172257112071,1.05378418592788e-15
4,0.00165214965744754,7.45070791990769e-12
4,0.00130164304406287,2.87056646817772e-12
4,0.00153175143543839,5.5049475310531e-12
4,0.00144176851402277,4.32097892304186e-12
4,0.000383743906548006,2.16853267099409e-14
4,0.000292517470447389,7.32162087672626e-15
4,-0.00370713865928273,-1.88866669313156e-10
4,0.00101211415821661,1.04934428252657e-12
4,0.00122322690111565,2.23886596311138e-12
4,0.00113219538801954,1.64318145886743e-12
4,0.00156611355052457,6.0157944534324e-12
4,0.00139957154038124,3.83689938565713e-12
4,0.00111391200360903,1.53958452034791e-12
4,-0.00359908818144349,-1.67791497413475e-10
4,0.00151324759621778,5.2437257632386e-12
4,0.00140063298788378,3.84855238835506e-12
4,0.000583659894988398,1.16048467765804e-13
4,0.00237348446408475,3.17355166787149e-11
4,0.00183520261265531,1.1343212689275e-11
4,0.0019186415936479,1.35511271630497e-11
4,0.00102935926584211,1.12271083211278e-12
4,0.00124864570252107,2.43084298342005e-12
4,-0.00512754592162979,-6.91254918024587e-10
4,0.00153002199606255,5.48012793916255e-12
