"V1","V2","V3"
3,-0.00476176904621258,-1.07970467719545e-07
3,-0.0155019442240306,-3.72527647524771e-06
3,-0.0237532484751916,-1.34019821560196e-05
3,-0.00825045033155359,-5.61607582093453e-07
3,-0.0245164411985425,-1.47357513607258e-05
3,-0.0048852583017783,-1.16590346843156e-07
3,-0.0106699972903498,-1.21476683752815e-06
3,-0.00626991903682905,-2.46482334432169e-07
3,-0.00395133583280484,-6.169242314212e-08
3,-0.00973380258754665,-9.22247745104447e-07
3,-0.00461627984601223,-9.83731064002885e-08
3,-0.0177805854349187,-5.6213181880941e-06
3,-0.00977294844408087,-9.33419400440933e-07
3,-0.0137630580537546,-2.60702277574217e-06
3,0.00987709184747866,9.63578889960852e-07
3,-0.0108226866429879,-1.26766719754491e-06
3,-0.0187299791736781,-6.57070369859727e-06
3,-0.0114653370393086,-1.50716388116653e-06
3,-0.0148064392210347,-3.24602518217569e-06
3,-0.0159963871866251,-4.09322598579709e-06
3,-0.0356695877929545,-4.53831118676396e-05
3,-0.025460177773186,-1.65038130423379e-05
3,-0.0143737570807544,-2.96968853816545e-06
3,-0.0107342049048003,-1.23682895488461e-06
3,-0.00494745284596054,-1.21100236404625e-07
3,-0.0122182524342774,-1.82401027637402e-06
3,-0.0137734703581659,-2.61294420458167e-06
3,-0.0163307718183045,-4.35532062599877e-06
3,-0.00507212467467225,-1.30487755321167e-07
3,-0.0198342227058975,-7.80271161784132e-06
3,-0.0131098951773647,-2.25318918317276e-06
3,-0.0144378901059624,-3.00961675203204e-06
3,-0.0159884480735461,-4.08713452439805e-06
3,-0.00632711157727262,-2.53289087644939e-07
3,-0.00852480999137588,-6.19518277061794e-07
3,-0.00878775030501179,-6.78630110474931e-07
3,0.0180691753059296,5.89949713042219e-06
3,-0.0550294942969399,-0.000166642804306123
3,-0.035614644301045,-4.51737177111108e-05
3,-0.0466900396300022,-0.000101782409484215
3,-0.0483811662280815,-0.000113247597775115
3,-0.0197552978618935,-7.70993552990317e-06
3,-0.0468792868204733,-0.000103025086605995
3,-0.0600029281830681,-0.000216031625920527
3,-0.0602856971008452,-0.000219100244118553
3,-0.0829291524136936,-0.000570324042403935
3,-0.0247872613213763,-1.52294996804112e-05
3,-0.0223833975494855,-1.12144511818128e-05
3,-0.0350424694443482,-4.30312646682187e-05
3,-0.0383589932851707,-5.64418970614251e-05
3,-0.0190162365670383,-6.87659923307105e-06
3,-0.0248901157128396,-1.54198712265125e-05
3,-0.0385729441379158,-5.73916042912597e-05
3,-0.039924350498567,-6.3637568701839e-05
3,-0.0358148471431533,-4.59398217559306e-05
3,-0.0153382074400848,-3.60847599993302e-06
3,-0.018059903418639,-5.89042011253221e-06
3,0.0312709115887484,3.05788835506694e-05
3,0.105576937428942,0.00117681224739082
3,-0.0546194371502566,-0.00016294523365602
3,-0.0568214784068651,-0.000183458394105264
3,-0.0888314818515627,-0.00070097208081686
3,-0.0952943929468625,-0.000865370414704558
3,-0.103078722987187,-0.00109523443196947
3,-0.106334178780079,-0.00120231604843382
3,-0.0269040834203763,-1.94739747571413e-05
3,-0.0423393271708921,-7.58982664685272e-05
3,-0.0296344230214939,-2.60249214873892e-05
3,-0.0402910293594172,-6.5407129345398e-05
3,-0.0237331012789555,-1.33679089122894e-05
3,-0.0442418979323477,-8.65966812741155e-05
3,-0.046419932161722,-0.000100026138751539
3,-0.0372084487559826,-5.15139311462127e-05
3,-0.0387899173363075,-5.83655472965239e-05
3,-0.0216095261549016,-1.00910354498034e-05
3,-0.0136317439831495,-2.5331112467208e-06
3,-0.0147065618375001,-3.18077874152382e-06
3,0.0191421217058948,7.01407199715995e-06
3,0.0683285412843515,0.000319011579791672
3,-0.018647123860401,-6.48388892960763e-06
3,-0.0166896716253804,-4.64882690213884e-06
3,-0.0270411042632854,-1.97730319476505e-05
3,-0.00766199678174987,-4.49806674734106e-07
3,-0.0237889636774189,-1.34625264515169e-05
3,-0.0147775509422889,-3.22706263971599e-06
3,-0.0161866607188297,-4.24103436248556e-06
3,-0.0229490842653448,-1.20863754735381e-05
3,-0.00810075543730353,-5.31589706592543e-07
3,0.0247203078835153,1.51064224779275e-05
3,0.0895772613495682,0.000718775626398716
3,0.0825158493048731,0.000561839310169974
3,0.0339864583024798,3.9257056095029e-05
3,-0.0202757944675113,-8.33553809395315e-06
3,-0.0283349827947553,-2.27493430545609e-05
3,-0.0205459798671336,-8.67322423481014e-06
3,-0.0423631073291691,-7.60262245740447e-05
3,-0.0188675473875919,-6.7165514876423e-06
3,-0.0152511389896648,-3.5473728432046e-06
3,-0.0106699702653307,-1.21475760725011e-06
3,-0.00845917573112996,-6.05318770517521e-07
3,-0.013740497378334,-2.59422333078326e-06
3,-0.036721343600523,-4.95171556120244e-05
3,0.0321548830758655,3.3246107446163e-05
3,0.0267070029717555,1.9049143974181e-05
3,0.0928217753926448,0.000799741462610803
3,0.0858425643714082,0.000632569209152713
3,0.0391980488567875,6.0227293833573e-05
3,-0.0499449075595194,-0.00012458726180573
3,-0.0652815347683565,-0.000278208931559908
3,-0.0297285898052852,-2.62738021956884e-05
3,-0.016497657927732,-4.49021238398471e-06
3,-0.0270552737811512,-1.9804131398711e-05
3,-0.0158272374228675,-3.96474583592022e-06
3,-0.019330071464478,-7.22271334516689e-06
3,-0.0133437762475542,-2.37594428793863e-06
3,-0.0308504004739783,-2.93617825601307e-05
3,-0.040473702014533,-6.63008031972868e-05
3,-0.0492486412819179,-0.000119449066430877
3,-0.0250889721062989,-1.57924171062942e-05
3,-0.0288783235266426,-2.40832965055618e-05
3,0.0379015630236534,5.44466747061957e-05
3,-0.0203078985446623,-8.37519553367117e-06
3,-0.0209411946030612,-9.18341811520315e-06
3,-0.0271207791146694,-1.99483272808164e-05
3,-0.0158766739292641,-4.00201374931594e-06
3,-0.00846784373497465,-6.07181463952561e-07
3,-0.0182536904167549,-6.08207878899139e-06
3,0.0492701377552227,0.00011960554920181
3,0.0595526837450047,0.000211204911471479
3,0.0899403418946873,0.000727551268782746
3,0.134201404343063,0.00241696956393302
3,0.0304187837773,2.81465738316386e-05
3,0.0547784227012527,0.000164372276057586
3,0.0891622665843761,0.000708831975345736
3,-0.0510942323653703,-0.000133387654583762
3,-0.100073078434944,-0.00100219395557588
3,-0.0630682475701485,-0.000250860504446764
3,-0.00733132448791104,-3.94046365414252e-07
3,-0.0289169721292802,-2.41801198553873e-05
3,-0.0360272984092048,-4.67622167172706e-05
3,-0.0300875538276219,-2.72370859162839e-05
3,-0.0174764101847716,-5.33773105929921e-06
3,-0.0215258755362238,-9.97430110273081e-06
3,-0.0156599770575309,-3.84037261709422e-06
3,-0.0333933301626588,-3.72373866460405e-05
3,-0.0691444733539363,-0.000330576836547649
3,-0.0612399178352653,-0.000229669750188759
3,-0.0216954091339652,-1.02118289932327e-05
3,-0.0149389013528178,-3.33392617207898e-06
3,0.0425074134251036,7.68058035049438e-05
3,0.115118728152465,0.0015255904043718
3,0.143965192214833,0.00298381920066153
3,0.039720383037663,6.2667198996225e-05
3,0.116541403127375,0.00158285352497703
3,0.0974708786772004,0.00092602911930576
3,-0.0542276940101342,-0.000159464277824435
3,-0.0614860635681773,-0.000232450277623862
3,-0.0293926000621789,-2.53930001985804e-05
3,-0.0217088318714233,-1.02307945984195e-05
3,-0.0199017643103269,-7.88269523943673e-06
3,-0.0381338375292578,-5.54538285973105e-05
3,-0.0347322260804876,-4.18984404471897e-05
3,-0.0641797733617459,-0.000264359266023758
3,-0.0705450186811905,-0.000351074316034969
3,-0.0534635718906663,-0.000152817788868486
3,-0.0504187922425901,-0.000128167323311485
3,0.0171134834379738,5.01204840524413e-06
3,0.0239979170666717,1.38204010035797e-05
3,0.115661234979403,0.0015472606318565
3,0.155725302499012,0.00377639617879914
3,0.0492854216756081,0.000119716891014771
3,0.0818982039630985,0.000549317118447318
3,0.190906300680571,0.00695762129525041
3,0.0923042172051336,0.00078643825470526
3,-0.0310748235479435,-3.00072373740148e-05
3,-0.0266514360911778,-1.8930489622688e-05
3,-0.0320229679172255,-3.28386080962543e-05
3,-0.0387928914915756,-5.83789735826692e-05
3,-0.00666933776341998,-2.96652585244286e-07
3,-0.0179783822870385,-5.81101280847669e-06
3,0.0508531890440835,0.000131508728625587
3,0.0179214493214838,5.75598144709929e-06
3,0.159103877789089,0.00402756255139264
3,0.160643454600909,0.00414561631599702
3,0.0364755642740228,4.85295268805748e-05
3,0.0530718461384196,0.000149483268516271
3,0.0311566329020649,3.02448581490026e-05
3,0.120313335237814,0.00174157145746617
3,0.104659124277441,0.00114638709768923
3,0.0606095324636366,0.000222650052435125
3,-0.0504635414847844,-0.000128508891343588
3,-0.0486804446134788,-0.000115362220919106
3,-0.0782643923361698,-0.000479394064775607
3,-0.0630156334330263,-0.000250233193483264
3,-0.0449428024646753,-9.07779664461139e-05
3,-0.0341359083754658,-3.97772168073161e-05
3,-0.0834474207064639,-0.000581083779444388
3,0.0101332392388288,1.04050671784709e-06
3,0.00826009250202237,5.63578909784977e-07
3,0.0475556457677151,0.00010754896870686
3,0.0406451147984976,6.7146760284605e-05
3,0.0294518229394524,2.55468020384359e-05
3,0.0139857398109907,2.73562354678826e-06
3,-0.0136615399637582,-2.54975804457154e-06
3,0.0203991626524733,8.48861863126971e-06
3,0.042943708509794,7.91951596918661e-05
3,0.0639637777828445,0.000261699153261478
3,0.0139648417678863,2.72337883231197e-06
3,0.0482994093144236,0.000112674453037134
3,0.055164008766582,0.000167867822282843
3,0.0500309111402738,0.000125231976906378
3,0.0641049744229631,0.00026343604263501
3,-0.018111504126349,-5.9410547883514e-06
3,-0.014786955048678,-3.23322745494894e-06
3,-0.0198952682015659,-7.87497881807841e-06
3,-0.0230767472320415,-1.22892047287978e-05
3,-0.0288700952944212,-2.40627163808828e-05
3,0.0221322248572633,1.08411467097381e-05
3,0.0229956995598661,1.21601764774992e-05
3,0.0672307941613647,0.000303881823719497
3,0.0447699520877793,8.97345912343126e-05
3,0.0433580335570537,8.15095942922015e-05
3,0.0294841660678915,2.56310587459145e-05
3,0.0282549799638773,2.25571906941923e-05
3,0.0687281571665403,0.000324641545715813
3,0.0369519074876225,5.04557406711949e-05
3,0.0130053695595069,2.19972349127941e-06
3,0.0272652797406149,2.02688857019496e-05
3,0.0735937170720259,0.000398586161607317
3,0.0608693293161164,0.000225525445618083
3,0.0345082826103324,4.10932072316817e-05
3,0.0573970910817228,0.00018909047289435
3,0.00819605204748197,5.50572002380224e-07
3,0.00846824018318637,6.07266749162046e-07
3,0.0364836356179962,4.85617499751772e-05
3,0.0358545805458265,4.60928899433213e-05
3,0.0269337310500426,1.95384252328901e-05
3,0.0206276511843256,8.77706544242104e-06
3,0.0238214743637047,1.35177967516218e-05
3,0.0333392044067069,3.70566107287682e-05
3,0.0338759891822521,3.8875497202585e-05
3,0.0201903244885202,8.23056968508228e-06
3,0.0331145175825557,3.63124287574194e-05
3,0.0477529772495059,0.000108893350589651
3,0.0668380703503831,0.000298587559626114
3,0.0410642435687874,6.92454882325873e-05
3,-0.0210015981058538,-9.26311445494697e-06
3,-0.0328001555618428,-3.52880540813402e-05
3,-0.037004837860568,-5.06728716914094e-05
3,-0.0242728286070031,-1.43008274933347e-05
3,-0.019243585802679,-7.12619991769807e-06
3,0.0218878178789039,1.04859407470431e-05
3,0.074004192873807,0.000405292884433777
3,0.0701285170050694,0.000344892670587511
3,0.029874051398742,2.66613644531887e-05
3,0.0649098968049071,0.000273484524394911
3,0.0618398662683328,0.00023648610326317
3,-0.0122616320210274,-1.84350718945893e-06
3,-0.0184016571498591,-6.23118728556068e-06
3,-0.00947020694666588,-8.49333801706465e-07
3,0.00957531110606743,8.77927554351345e-07
3,0.0241049913000493,1.40062197922847e-05
3,0.0562123469337568,0.000177621344852773
3,0.0163536469127408,4.37364823290565e-06
3,0.0550745164162655,0.000167052153086265
3,0.032128243665555,3.31635455077609e-05
3,0.0637034178268278,0.000258516460677605
3,0.0591198095119442,0.000206632713167507
3,0.0519819872340893,0.000140461931052807
3,0.0994210220155013,0.000982731031034601
3,0.02886928778268,2.4060697296881e-05
3,0.0340565118976751,3.95003091882602e-05
3,-0.0174199604313169,-5.28617446597145e-06
3,-0.0246496699983428,-1.49772930837573e-05
3,-0.027591672174954,-2.10055503298025e-05
3,-0.0296275205771972,-2.60067405631315e-05
3,0.0368813509723489,5.01672693858299e-05
3,0.0266937481090093,1.90207953988504e-05
3,0.0765969360309521,0.000449401164090631
3,0.0586015371170152,0.000201245891610408
3,0.0295019904246543,2.56775718517924e-05
3,0.0265637279178145,1.87442069188475e-05
3,0.0722541533263599,0.00037721456123358
3,0.0416090398046547,7.20382379721833e-05
3,0.131904762269181,0.00229499332428003
3,0.109244249616289,0.00130375431176995
3,0.0624588297522134,0.000243658478899462
3,0.0800501798053348,0.000512964056711869
3,0.0235700391172256,1.30942584872338e-05
3,0.0531892326720668,0.000150477364135405
3,0.0203119071406641,8.38015607687893e-06
3,0.0220843929116731,1.07710091716032e-05
3,-0.0551789899340991,-0.000168004625556745
3,-0.030142069926786,-2.7385408217611e-05
3,-0.0398959628044545,-6.35019191838771e-05
3,0.0105635219831472,1.17876225607363e-06
3,0.0687126408150562,0.000324421718120018
3,0.0326464075204993,3.47941468971519e-05
3,0.0418272598660941,7.31776137903371e-05
3,0.0709913006292601,0.00035777945553528
3,0.087919283415707,0.000679598511791905
3,0.0243581924654575,1.445224026971e-05
3,0.116825487441289,0.00159445697701294
3,0.120078916242905,0.00173141142418341
3,0.0756631493848846,0.000433164885100216
3,0.057091855183469,0.000186089756039368
3,0.027202407689209,2.01289923873997e-05
3,0.0317125634192367,3.189290257559e-05
3,0.0600076096360829,0.000216082194493317
3,0.0304831160013036,2.8325532059676e-05
3,0.0312499560221636,3.05174492838637e-05
3,0.0734984079084474,0.000397039572929139
3,-0.0242704142920986,-1.42965605905258e-05
3,-0.0327126022017814,-3.50062248068293e-05
3,0.0202715227189855,8.33027075589842e-06
3,0.0142327216212726,2.88312761018706e-06
3,0.0294271460761726,2.54826409626196e-05
3,0.0205940410770214,8.73423200856438e-06
3,0.044789143249569,8.98500380431626e-05
3,0.0129914721674636,2.19267922451707e-06
3,0.0413876575427756,7.0894499484329e-05
3,0.0910035590197895,0.000753659420186664
3,0.0130081331937189,2.20112610955824e-06
3,0.043363613986023,8.15410706076177e-05
3,0.0367837619825709,4.97700905870712e-05
3,0.0393611891856086,6.09824169162689e-05
3,0.0156877945589687,3.86087445732074e-06
3,0.0349797194892766,4.28005123011574e-05
3,0.040149233491402,6.47189965584488e-05
3,0.0473743150551472,0.000106323394074633
3,-0.022954106871277,-1.20943128344266e-05
3,0.0285480012112805,2.32662890641305e-05
3,0.0146717174805089,3.15822354409635e-06
3,0.0346488608983712,4.15974668667433e-05
3,0.022217812992792,1.09674060041156e-05
3,0.0147645282430479,3.21853862054148e-06
3,0.0515539402635575,0.000137020513874792
3,0.028005041002741,2.19638585731584e-05
3,0.0284984776935031,2.31454157177794e-05
3,0.0858208565813405,0.000632089439907674
3,0.0350657291163298,4.31170084197396e-05
3,0.106005139803021,0.00119118926088115
3,0.0460182149176396,9.74516740893045e-05
3,0.031205692325871,3.03879544461528e-05
3,0.0375606941247249,5.29908429871539e-05
3,0.0531414176229777,0.000150071908969146
3,0.0638529323945418,0.000260340982828292
3,0.0451921024588697,9.22970114797438e-05
3,-0.00673966102926017,-3.0613583044172e-07
3,-0.00976920922884224,-9.32348407126873e-07
3,-0.0188461108061918,-6.69368422610607e-06
3,-0.00323201113267603,-3.3761252039125e-08
3,-0.00710426521183122,-3.58556415553109e-07
3,-0.00519777736527321,-1.40427776925622e-07
3,-0.0207532762513483,-8.93840443612911e-06
3,-0.0130722646405943,-2.23384221511308e-06
3,-0.00501455165257447,-1.26094553283296e-07
3,-0.0107912964731586,-1.25666891557306e-06
3,-0.00918760292047161,-7.75544373438105e-07
3,-0.0271240378091423,-1.99555188125886e-05
3,-0.0231532269994077,-1.24117948630231e-05
3,-0.0116798656759994,-1.59335865822462e-06
3,-0.0103846003877741,-1.11987452919234e-06
3,0.0112522999748077,1.42470157523057e-06
3,-0.0272094211581127,-2.01445656923612e-05
3,-0.0108761460215266,-1.28654531958136e-06
3,-0.0479900244125912,-0.000110523063068615
3,-0.0287797930510262,-2.38376259153947e-05
3,-0.0570260593836983,-0.000185447116955246
3,-0.0339082835063276,-3.89867844437842e-05
3,-0.0241558002670794,-1.40949743514377e-05
3,-0.0158616628189929,-3.99067298203479e-06
3,-0.00799377781294323,-5.10806269018886e-07
3,-0.0427902518748003,-7.83491931834074e-05
3,-0.0734009566979837,-0.00039546236700491
3,-0.0281765728769934,-2.2369923862269e-05
3,-0.0204807128583878,-8.59083160665842e-06
3,0.0163103266295367,4.33898326236674e-06
3,-0.0212718864769623,-9.62538300963328e-06
3,-0.0158604219297392,-3.98973646058397e-06
3,-0.0139717062963897,-2.72739690204099e-06
3,-0.0192238136931934,-7.1042567175792e-06
3,-0.0124729368507667,-1.9404665945022e-06
3,-0.010634377754178,-1.20264167620043e-06
3,-0.0158252447185847,-3.96324849855251e-06
3,-0.0553492962659982,-0.000169565037531269
3,-0.0565944057438212,-0.000181267736707863
3,-0.0277094019353613,-2.12755823795211e-05
3,-0.0275090252160484,-2.08173576796432e-05
3,0.0314648008600241,3.11512130000242e-05
3,0.0590023152839844,0.000205403179459477
3,0.0379748347827304,5.47630564577016e-05
3,-0.0156926791826111,-3.86448199906778e-06
3,-0.02910967373082,-2.46667546065197e-05
3,-0.00537150199471591,-1.54984127961626e-07
3,-0.0378575299466111,-5.42571307765395e-05
3,-0.016796093760119,-4.73832527754733e-06
3,-0.0120495744065655,-1.74950473985575e-06
3,-0.0081676393560968,-5.44865938420752e-07
3,-0.00611051798348751,-2.28157148152267e-07
3,-0.0148195667109305,-3.25466668339211e-06
3,-0.0818055545154437,-0.000547454939359163
3,-0.0979107679736557,-0.000938623387078701
3,-0.0207299509410599,-8.90829977042791e-06
3,-0.0123114166583345,-1.86605348975554e-06
3,0.00539605161578593,1.57118847841153e-07
3,0.0235843972169702,1.31182028541289e-05
3,0.029936436226121,2.68287411855081e-05
3,-0.00610399462779251,-2.27427212378257e-07
3,-0.00503356043981941,-1.27533965332497e-07
3,-0.0161237404072215,-4.19176948846291e-06
3,-0.0482997630765871,-0.000112676928859351
3,-0.00271201470303176,-1.99469325496846e-08
3,-0.00630549053842415,-2.50701328335311e-07
3,0.0118610302383251,1.66865763249751e-06
3,0.104064049522552,0.00112694355910102
3,0.0283142213558979,2.26993733988186e-05
3,0.0555316196211746,0.000171246230512756
3,0.0119054661720046,1.68748226069764e-06
3,-0.0435076501073343,-8.23563103846581e-05
3,-0.0933897603132751,-0.00081451255381365
3,-0.0800661280224771,-0.000513270707820417
3,-0.0408570991836531,-6.82028600041635e-05
3,-0.086144572968987,-0.000639269180604239
3,0.00867802547671158,6.53525837545332e-07
3,0.0624075908685099,0.000243059305847649
3,0.0249424628517481,1.55173659458068e-05
3,0.0102470473672513,1.07596026011951e-06
3,-0.0211534454967949,-9.46549537300439e-06
3,0.0346489369163213,4.15977406559253e-05
3,0.123658254823145,0.00189090338436262
3,0.034318589923072,4.04192551429305e-05
3,0.0722196329726163,0.00037667416213174
3,0.0218249912640171,1.03959034069814e-05
3,0.0735284746615256,0.000397527035526567
3,0.0222668411039272,1.1040171758636e-05
3,0.032041385912924,3.28953020235918e-05
3,0.00837211829926848,5.86821570122957e-07
3,0.0523806859033539,0.00014371878701177
3,0.0189846226694288,6.84235982570612e-06
3,0.0229865985008959,1.21457442109271e-05
3,0.0180167673872458,5.84831308696179e-06
3,0.034395249540082,4.06907218160481e-05
3,0.0155811516858566,3.78267184223284e-06
3,-0.00959760577787588,-8.84074210543625e-07
3,-0.0399609691490881,-6.38128346650416e-05
3,-0.0461289086952873,-9.81566077481553e-05
3,-0.0238828201562922,-1.36225002613984e-05
3,-0.0163309015180672,-4.35542439731056e-06
3,0.011656845194665,1.58395590376081e-06
3,-0.0611297151534156,-0.000228432091602016
3,0.0153392972824205,3.60924524549835e-06
3,0.0173341210049509,5.20841369065097e-06
3,0.0282514225635502,2.25486716803803e-05
3,0.0282708267070237,2.25951654361145e-05
3,0.00981765011196987,9.4628651463694e-07
3,0.0552687487891598,0.000168825831947678
3,0.015563623954518,3.76992045512193e-06
3,-0.02482260288771,-1.52947350619747e-05
3,-0.016832074651116,-4.76884213226628e-06
3,-0.0317528920402341,-3.20147312436107e-05
3,-0.0294075953642524,-2.54318844757929e-05
3,0.0452853353650041,9.28694267698616e-05
3,0.0927885939773218,0.000798884107690596
3,0.0988102481328134,0.000964730412730966
3,0.156057913196092,0.00380064569645766
3,0.0314483641761955,3.1102419885225e-05
3,0.118635117950536,0.00166970519790349
3,0.0648013172335306,0.000272114385686159
3,0.0314691940560957,3.11642630583317e-05
3,-0.145829278079314,-0.00310123143557683
3,-0.0924757545142946,-0.000790830936801139
3,-0.10557052977743,-0.00117659799192984
3,0.0386558099066225,5.7762280446797e-05
3,0.159166428571718,0.00403231465894453
3,0.101033032969408,0.00103131223862547
3,0.186781328235003,0.00651628961622133
3,0.0942057178107484,0.00083604911062184
3,0.101709807477031,0.00105217625531581
3,0.0421200428327836,7.47250840964365e-05
3,0.0748033421023297,0.000418565092095163
3,0.0829663825874973,0.00057109251030029
3,0.0213390926793143,9.71690258715826e-06
3,0.194244580737501,0.00732903395162751
3,0.0195002911394541,7.41520712229092e-06
3,0.0610995370629135,0.000228093946315201
3,0.0494671669841425,0.00012104618775732
3,0.0395458829621214,6.1844891243221e-05
3,0.00528961790987037,1.48003813971661e-07
3,0.051901694195487,0.000139812049952627
3,0.0387287455318026,5.8089854644409e-05
3,0.0402551628439867,6.52326112335325e-05
3,0.12317769381155,0.00186894364584398
3,-0.0490545459305589,-0.000118042331863109
3,0.0173377619696946,5.21169640123078e-06
3,0.044411436402463,8.75960372219754e-05
3,0.0491094519870051,0.00011843914499501
3,0.0234861068245014,1.29548710867439e-05
3,0.012298471555217,1.86017337096648e-06
3,0.109431393128028,0.00131046608025468
3,0.0264824390528068,1.85726529858411e-05
3,0.0372818809303433,5.181952708963e-05
3,0.140619932875891,0.00278061370439662
3,0.0965787115220405,0.000900832863199343
3,-0.006519070982834,-2.77049346206903e-07
3,-0.0183501804968555,-6.17904020885077e-06
3,-0.00649734493473972,-2.74288607922288e-07
3,-0.00677479049685583,-3.10947886291316e-07
3,-0.00326420770981846,-3.4780302798255e-08
3,-0.00802232763179313,-5.16298880990517e-07
3,-0.00819712500160978,-5.50788258635108e-07
3,-0.0123826550957612,-1.89863432881473e-06
3,-0.0153301920749369,-3.60282185665562e-06
3,-0.00467331735664105,-1.02064760912274e-07
3,-0.00732593202218035,-3.93177496912532e-07
3,-0.00378988574375186,-5.44350155839063e-08
3,0.012507175616327,1.95649050137788e-06
3,-0.0279230518135097,-2.17715147757287e-05
3,-0.0164444194883248,-4.44688236045762e-06
3,-0.0115806311140123,-1.5530902161885e-06
3,-0.0180671541265126,-5.89751763635582e-06
3,-0.0217277746493042,-1.02575996554263e-05
3,-0.0334109217858694,-3.7296267676034e-05
3,-0.012101937189419,-1.77241200793891e-06
3,-0.0147687445349802,-3.22129675283437e-06
3,-0.00543900866003388,-1.60901188082322e-07
3,0.0352057725203198,4.36356686697258e-05
3,0.0421845126165842,7.5068736706794e-05
3,-0.0386343412612869,-5.76660939230142e-05
3,-0.0388888687044249,-5.88133514950894e-05
3,-0.0144153302139681,-2.99553077577601e-06
3,-0.0487991345170786,-0.000116208088822717
3,-0.0470192753131164,-0.000103950789893999
3,-0.0736101597430369,-0.000398853383557032
3,-0.0931817138632911,-0.000809081148170936
3,-0.033049778809239,-3.60998728081871e-05
3,-0.0254747805218424,-1.65322267426328e-05
3,-0.0200056215929153,-8.00674780781438e-06
3,0.0124654930668228,1.93699448630118e-06
3,0.0837767025855248,0.000587989794353691
3,-0.00864570287488256,-6.4625053916248e-07
3,-0.00467847965505609,-1.02403366839928e-07
3,-0.0133835777871461,-2.39726851945176e-06
3,-0.0268603346806127,-1.93791292406489e-05
3,-0.0116043278811879,-1.56264373098234e-06
3,-0.00949071893563311,-8.54864605960651e-07
3,-0.0119941811285194,-1.7254874662569e-06
3,0.0129977867599723,2.19587807833395e-06
3,0.0248432666318378,1.53329634856382e-05
3,0.0843286330496532,0.000599687755807016
3,0.0157577555902236,3.91275883081476e-06
3,-0.00582951528654994,-1.98105866478163e-07
3,-0.00702849010458987,-3.47205113906982e-07
3,-0.0136962757242044,-2.56925654204255e-06
3,-0.00666415439427499,-2.95961452858467e-07
3,-0.00640779511184658,-2.63103030481727e-07
3,-0.0120037149335811,-1.72960534818463e-06
3,0.00626255170136529,2.4561448345384e-07
3,0.017495339785915,5.35509456838193e-06
3,0.0312589471589585,3.054379801032e-05
3,0.00852704979630808,6.20006721274629e-07
3,0.0112698728219857,1.43138692380163e-06
3,-0.00557262238842547,-1.73052885947369e-07
3,-0.00764229045655119,-4.46344943352849e-07
3,0.0153912514232098,3.64604309795266e-06
3,0.0272947991604161,2.03347908139501e-05
3,0.105818565695719,0.00118491067455212
3,-0.00428188049720571,-7.85061405123927e-08
3,0.0157266092383534,3.88960310155463e-06
3,0.101959026997595,0.00105992966428896
3,0.024393059852344,1.45143918664659e-05
3,0.0135877831544708,2.50868320438299e-06
3,-0.0100740598729913,-1.02238291404941e-06
3,0.0237567656935936,1.34079364588785e-05
3,0.0328250504259143,3.53684645147124e-05
3,0.159620075268237,0.00406689101030609
3,0.0489559489950031,0.00011733198577771
3,0.0264782366902387,1.85638127913636e-05
3,0.0294117681826357,2.54427120554877e-05
3,0.0504752654194415,0.00012859847958028
3,0.202060044868859,0.0082497603975673
3,0.00896600160425456,7.20769559590079e-07
3,0.0182828984976908,6.11132168480326e-06
3,0.0716668487005741,0.000368090767809211
3,0.0211501789023788,9.46111095820876e-06
3,0.0128834334928051,2.13842911924892e-06
3,0.0140551803463952,2.77657409626378e-06
3,0.0223117549731995,1.1107113137693e-05
3,0.0552408308653745,0.000168570123989788
3,0.0172978913950065,5.17582397758364e-06
3,0.0123878285638036,1.90101506905974e-06
3,0.0108690572944931,1.28403137049854e-06
3,-0.0103642840662145,-1.11331464783634e-06
3,0.00727109225957723,3.84413796279936e-07
3,0.0082169359915703,5.54791389041412e-07
3,0.0433812239451236,8.16404524163507e-05
3,0.0218607298288224,1.0447057158059e-05
3,0.0232061044603405,1.24970275880333e-05
3,0.0149058175924392,3.31182520413303e-06
3,0.00852593918917331,6.1976449416542e-07
3,0.0225141382703966,1.14121109936125e-05
3,0.013805225120783,2.63105834644653e-06
3,-0.0136096986205684,-2.52084140927351e-06
3,-0.0279019926696942,-2.17222926744082e-05
3,-0.0115634079146268,-1.54617105450922e-06
3,-0.0108626157891123,-1.28174979430651e-06
3,-0.005921676029048,-2.07650954247134e-07
3,-0.0103650351906408,-1.1135567190956e-06
3,-0.00859720468521948,-6.35435977130303e-07
3,-0.0131246129559188,-2.26078631085179e-06
3,-0.0239230981588612,-1.36915389640311e-05
3,-0.0185680653455411,-6.40176853433877e-06
3,-0.00457821942391385,-9.59599053277136e-08
3,-0.0131722289812701,-2.28548205235911e-06
3,-0.0219699693796132,-1.06044550334343e-05
3,-0.0230583362420651,-1.22598146297649e-05
3,-0.0122184385039753,-1.82409361027424e-06
3,-0.00868359590340383,-6.54785140735108e-07
3,-0.00441364753975311,-8.59791102212929e-08
3,0.0261109123034483,1.78018910358315e-05
3,-0.019206249395763,-7.08480158157127e-06
3,-0.0119272932708014,-1.69678061430385e-06
3,-0.00652777747457749,-2.78160862303296e-07
3,-0.0184349172683113,-6.2650361143527e-06
3,-0.0128155329317492,-2.10479601520465e-06
3,-0.0210632677576489,-9.34495567359514e-06
3,-0.0287917178787544,-2.38672693579752e-05
3,-0.0189165012123496,-6.76896763752687e-06
3,-0.00812828735866685,-5.37028267685469e-07
3,-0.0174387650091076,-5.30331198301902e-06
3,-0.0227328366485974,-1.17479176538911e-05
3,-0.0143129821483106,-2.93217839091398e-06
3,-0.00980857279157004,-9.43664154024203e-07
3,-0.00402497460379181,-6.52062813294518e-08
3,0.0535314193209823,0.000153400323326845
3,0.0290156776330886,2.44285760557076e-05
3,-0.0226537611894691,-1.16257493107842e-05
3,-0.020543798285095,-8.67046174677257e-06
3,-0.0206486153968505,-8.8038534659537e-06
3,-0.0190963425982587,-6.96386899624178e-06
3,-0.0379330164134129,-5.45823382976621e-05
3,-0.0372130498194612,-5.1533043593945e-05
3,-0.0248937617429331,-1.54266485614791e-05
3,-0.0430298982392935,-7.96729608737951e-05
3,-0.0461772376062993,-9.84654449097166e-05
3,-0.0284692400215008,-2.30742514913594e-05
3,-0.00803784419750435,-5.19300512519496e-07
3,-0.0050566407343548,-1.29296359381697e-07
3,0.022184997508432,1.09188815027687e-05
3,0.0491235867276294,0.000118541442317588
3,-0.0053457763059909,-1.52767983204761e-07
3,-0.0045470143692498,-9.4011066587545e-08
3,-0.00725413093858117,-3.81729893604226e-07
3,-0.00193108464482656,-7.20118439349041e-09
3,-0.00829357674435387,-5.70460532820108e-07
3,-0.0183780327641311,-6.20721894455388e-06
3,-0.0116999054185078,-1.6015741585326e-06
3,-0.00220498582988186,-1.07205584399222e-08
3,0.0208404914879532,9.05156908701366e-06
3,0.0180190566856446,5.85054271585957e-06
3,0.0445482341025967,8.84079824487946e-05
3,0.00974327219994328,9.24942014168139e-07
3,-0.00219122958175261,-1.05211605259843e-08
3,-0.00553164663428161,-1.69263488661572e-07
3,-0.00259928183243702,-1.75614395844166e-08
3,-0.00814332404745209,-5.40014164024096e-07
3,-0.0048058181822496,-1.10994640411968e-07
3,-0.00392392144460812,-6.04172443616608e-08
3,-0.00844264869768241,-6.01777790467248e-07
3,-0.00605335349803508,-2.21813568387175e-07
3,-0.00134123208450095,-2.4127470971496e-09
3,0.0113610424297145,1.46640706844754e-06
3,0.00986178420158713,9.59105728263782e-07
3,0.00423618045347643,7.60192106767916e-08
3,-0.00512956838875897,-1.34971623857289e-07
3,-0.00434485216372871,-8.20209908958994e-08
3,-0.0039836789434434,-6.32197814603766e-08
3,-0.00574063891567737,-1.89182383244208e-07
3,-0.00257052809113162,-1.69850591176596e-08
3,-0.00460935005168241,-9.79307485420502e-08
3,-0.00539751741910892,-1.57246923652315e-07
3,-0.00398262772421109,-6.31697470708426e-08
3,-0.0020784163248514,-8.97837280962775e-09
3,0.0198858573161904,7.86380900545064e-06
3,0.0278503941934641,2.1602003873943e-05
3,0.0447755249456843,8.97681052556988e-05
3,0.00828743968336368,5.6919508564193e-07
3,0.0106940201715148,1.22299025593937e-06
3,0.00915736891886875,7.67913198891602e-07
3,-0.00614296442738857,-2.31810979078209e-07
3,-0.0182814558197419,-6.10987509141851e-06
3,-0.0152665976192867,-3.55817068433261e-06
3,-0.00460831176068607,-9.78645845206192e-08
3,-0.00496300498622481,-1.222458528e-07
3,-0.0189534269089721,-6.80868487740737e-06
3,-0.0151764063770538,-3.49548015858235e-06
3,-0.00942246786505056,-8.36554028509361e-07
3,-0.00295821161538882,-2.58873570635295e-08
3,-0.00641414187699471,-2.63885596532932e-07
3,0.016494182850699,4.48737551815322e-06
3,0.0193609571854201,7.25739019606726e-06
3,0.00502504483479963,1.26887786975441e-07
3,0.0077564838102948,4.66653654265327e-07
3,0.0117187422670072,1.60932222304277e-06
3,-0.00641962546991876,-2.6456298035668e-07
3,-0.00964502199057164,-8.97242148225394e-07
3,-0.00326907540029947,-3.49361314292142e-08
3,-0.00740095119548828,-4.05380282481632e-07
3,-0.00695342943096361,-3.36199570524474e-07
3,-0.00466813777763,-1.01725772514096e-07
3,-0.00385810732902092,-5.74278973535761e-08
3,0.0251802503099356,1.59654119505606e-05
3,0.031821152301094,3.22216448521918e-05
3,0.0414094963728216,7.10067844108323e-05
3,0.0132214608810732,2.31120428018768e-06
3,0.0157430286828046,3.90179870386101e-06
3,0.0348749649374589,4.24171357359131e-05
3,0.0109272303491321,1.30475898031784e-06
3,-0.00740666325032487,-4.063196247149e-07
3,-0.00292499482553817,-2.50250703129701e-08
3,0.0458977039439188,9.66880676641877e-05
3,0.0434968424734227,8.22949518120523e-05
3,0.0822559135341778,0.000556546415538952
3,0.00929081699888526,8.01976638663893e-07
3,0.00711171291124288,3.59685267369954e-07
3,0.0291236136736966,2.47022085772039e-05
3,0.0164173716219546,4.42497566680888e-06
3,0.0144462412159859,3.01484220691818e-06
3,-0.0113003015151649,-1.44301250449613e-06
3,-0.0119981161915958,-1.72718632251711e-06
3,-0.00762693079648715,-4.4365912405316e-07
3,0.0356237958972431,4.52085503934011e-05
3,0.0285779430337165,2.33395725833829e-05
3,0.0806947007570508,0.000525454415998354
3,0.0102482595799041,1.07634215947941e-06
3,0.00879113308368211,6.79414112930103e-07
3,0.00878355129062847,6.77657774173497e-07
3,0.0122797408722713,1.85168712633303e-06
3,0.0035196166578445,4.35999602638179e-08
3,0.0045889385349442,9.66355053577479e-08
3,0.00946777032341768,8.48678386020194e-07
3,0.00556448971908726,1.72296332458822e-07
3,0.0143550277742563,2.95809495890001e-06
3,-0.00126893872756756,-2.04325211108572e-09
3,0.0252716041228926,1.61398104263016e-05
3,0.0539809197125458,0.000157297144615698
3,0.0151159665324568,3.45388413960298e-06
3,0.00758589581988521,4.36536560420038e-07
3,0.0421505251345946,7.48874373076794e-05
3,0.0263454656553131,1.82859546075804e-05
3,0.0933082555413193,0.000812381846814082
3,0.0334960098348548,3.75819427115364e-05
3,0.0163216961319429,4.34806336441329e-06
3,0.00822866871059974,5.57171294481048e-07
3,0.0361568632942944,4.72685458060641e-05
3,0.0125976038469435,1.99923497723907e-06
3,0.0442386133789963,8.65773956884761e-05
3,0.0343434392779924,4.05071188797673e-05
3,0.100133108909521,0.0010039985850386
3,0.00963571484125567,8.94647220703143e-07
3,0.0289515586447345,2.42669864981406e-05
3,0.0234417076495887,1.2881538509246e-05
3,0.0216232158307364,1.01102256720447e-05
3,0.0617341716269178,0.00023527559205558
3,0.0213243796000893,9.69681733670105e-06
3,0.011702606600377,1.60268369107675e-06
3,0.00710983626167018,3.59400599622589e-07
3,0.017974949022556,5.80768432198311e-06
3,0.0118358501542825,1.65805286979082e-06
3,0.0166599288811357,4.62401707793562e-06
3,0.0148182177736203,3.25377800524269e-06
3,0.017429676831008,5.29502487149115e-06
3,0.00564328833444758,1.79720128804276e-07
3,0.00794591787895911,5.01686271596251e-07
3,0.0152414774896029,3.54063539837647e-06
3,-0.00115812756733201,-1.55334955813534e-09
3,0.00846781159978475,6.07174551277429e-07
3,0.00608069608899047,2.24832916550517e-07
3,0.0109650811442302,1.31836465055219e-06
3,0.00401883204755132,6.49082007133536e-08
3,0.00259292827518055,1.74329751394865e-08
3,0.00371041452442129,5.1081929579306e-08
3,0.0122360590573161,1.83199672651426e-06
3,0.00656711636736963,2.83220141728937e-07
3,0.00570502254215236,1.85682978673687e-07
3,0.00968866213604799,9.09476400407142e-07
3,0.00202265681796361,8.2749734344208e-09
3,0.00191848683473376,7.06116678771709e-09
3,-0.0100237696938044,-1.00714787152146e-06
3,-0.0101733999676977,-1.05292723048522e-06
3,-0.0108409270424101,-1.2740875299726e-06
3,-0.00933112142050016,-8.12459127464112e-07
3,-0.0111033798342991,-1.36888066858581e-06
3,-0.0135451976759168,-2.48516965624996e-06
3,-0.0143440173808144,-2.95129354792222e-06
3,-0.00860032976645369,-6.36129171386425e-07
3,-0.0121436082978109,-1.79078418669274e-06
3,-0.00875134060560406,-6.70229842529205e-07
3,-0.00960426888851568,-8.85916787208793e-07
3,-0.0128765172420826,-2.13498703054043e-06
3,-0.0128705845314327,-2.13203737611573e-06
3,-0.0248211948677155,-1.52921325059883e-05
3,-0.0291247175402672,-2.47050175324506e-05
3,-0.00878857292264304,-6.78820707158062e-07
3,-0.0100490181059344,-1.01477763280105e-06
3,-0.0141492440882107,-2.83269434761092e-06
3,-0.0221795008112573,-1.09107675172809e-05
3,-0.0065237696194737,-2.77648830096796e-07
3,-0.023901280677844,-1.36541137255737e-05
3,-0.00667563326999048,-2.97493452126556e-07
3,-0.00496244713857946,-1.22204635696774e-07
3,0.0192311217699807,7.11236200731952e-06
3,-0.0108870294062993,-1.29041139043217e-06
3,-0.0159285870380574,-4.04139927196986e-06
3,-0.0190288186664896,-6.89025797912821e-06
3,-0.0374534382695794,-5.25381864982505e-05
3,-0.033241923080085,-3.67331710125069e-05
3,-0.021458051373318,-9.88031616796188e-06
3,-0.0193197275928002,-7.21112453420544e-06
3,-0.0163742220738255,-4.39017698327156e-06
3,-0.0152115826098959,-3.51984225767739e-06
3,-0.0355415850427358,-4.48962818943676e-05
3,-0.0306298514975416,-2.87365530753881e-05
3,-0.0446399108571773,-8.89549164324396e-05
3,-0.016005480479101,-4.1002104498254e-06
3,-0.0260645899499158,-1.77073140930968e-05
3,-0.0248470815950577,-1.53400282177761e-05
3,-0.039352987737409,-6.09443052682931e-05
3,-0.0314451156405128,-3.10927824792494e-05
3,-0.00574382490448946,-1.8949754025221e-07
3,-0.024123234583669,-1.40380446790225e-05
3,-0.00865744455371369,-6.48887123958126e-07
3,-0.00589674106807941,-2.05038857690201e-07
3,0.0195181952069827,7.43565055572445e-06
3,0.0164474869156299,4.44937129591882e-06
3,-0.0163457613477366,-4.36732449480556e-06
3,-0.0135820218383997,-2.50549345902361e-06
3,-0.0207677650562956,-8.95713842768774e-06
3,-0.00963081536326364,-8.93283208991443e-07
3,-0.010679693875228,-1.21808168302395e-06
3,-0.0148141650610711,-3.25110905658686e-06
3,-0.0187203424318777,-6.56056685842332e-06
3,-0.0374151776777054,-5.23773396355031e-05
3,-0.0448896235979737,-9.04561067112468e-05
3,-0.0157602385792002,-3.91460875187867e-06
3,-0.016427699320769,-4.4333317980111e-06
3,-0.0100799291068217,-1.02417090255009e-06
3,-0.0127074689313445,-2.05199911763235e-06
3,-0.0195569208359574,-7.47999716696246e-06
3,-0.00582225806087224,-1.97366914860508e-07
3,-0.0319925051466547,-3.27449812026936e-05
3,-0.0124923070175842,-1.94952113336151e-06
3,-0.00664665620606862,-2.9363623524133e-07
3,0.0207988805031032,8.99745906079056e-06
3,0.0354449938126804,4.45312324258488e-05
3,-0.00908749407315569,-7.50468420309193e-07
3,-0.0117591202122812,-1.62601478571692e-06
3,-0.00940693030478794,-8.32422439947352e-07
3,-0.0107482326322674,-1.24168425142942e-06
3,-0.0160366925933997,-4.12424458575959e-06
3,-0.0410890585825527,-6.93710987042036e-05
3,-0.0166540146056435,-4.61909424715079e-06
3,-0.0219277392598905,-1.05434216546042e-05
3,-0.0101935054994252,-1.05918222686993e-06
3,-0.0577260074624341,-0.000192359909254194
3,-0.00542786050713921,-1.59913833357383e-07
3,0.0179022401521285,5.73749257092343e-06
3,0.0240639771526046,1.39348474830402e-05
3,0.0294519582039798,2.55471540294126e-05
3,0.0165629692119552,4.54375162706691e-06
3,-0.00744991330292472,-4.13479189454727e-07
3,-0.0131075577301657,-2.25198419144081e-06
3,-0.00786356879903267,-4.8624939329819e-07
3,-0.00967571570721919,-9.05835419407746e-07
3,-0.00318769884028633,-3.23915591700934e-08
3,-0.00695203720050401,-3.35997667171866e-07
3,-0.0172951659862545,-5.17337789674845e-06
3,-0.00789498797456742,-4.92101193705808e-07
3,-0.00981608325354874,-9.45833516101447e-07
3,-0.0122211151431472,-1.82529266121555e-06
3,-0.010708990957237,-1.22813371968671e-06
3,-0.0476896422056846,-0.000108460647393732
3,0.0213024097893765,9.66687726311342e-06
3,0.0287476256705884,2.37577847662531e-05
3,0.0144024968340843,2.9875374998793e-06
3,-0.0265313473463686,-1.86757441739276e-05
3,-0.0286914471941746,-2.36187747157404e-05
3,-0.0293439720739028,-2.52671758006511e-05
3,-0.00576773647550241,-1.91874043792697e-07
3,-0.0117522710656354,-1.62317520381988e-06
3,-0.0286146263295472,-2.34295656158307e-05
3,-0.0206108944138132,-8.75569279656439e-06
3,-0.0269830924543764,-1.9646046347961e-05
3,-0.0113379955058579,-1.4575009333035e-06
3,-0.0411093166750307,-6.94737551651879e-05
3,-0.0413381063317087,-7.06401697363932e-05
3,-0.0164927663976522,-4.48621954499155e-06
3,-0.0403090786678043,-6.54950706863764e-05
3,-0.0200754122569378,-8.09083635770524e-06
3,-0.0145886863771331,-3.10490676931609e-06
3,0.0259871638975327,1.75499812337923e-05
3,0.0565824627540575,0.00018115300335861
3,0.0450338952260263,9.13310686367084e-05
3,0.0214323051512111,9.84479443544369e-06
3,0.0253401014260362,1.62714046865022e-05
3,0.0473640893642763,0.000106254559591323
3,-0.0282721908945588,-2.25984365322283e-05
3,-0.0330451177882917,-3.60846014320586e-05
3,-0.0350599493801256,-4.3095691549874e-05
3,-0.0154052003891942,-3.65596522247952e-06
3,-0.00657517679598988,-2.84264288994966e-07
3,-0.0385047625598035,-5.70878055326825e-05
3,-0.0590675428980203,-0.000206085158273783
3,-0.0528774653565692,-0.000147846786063459
3,-0.0186954208639975,-6.53440034202988e-06
3,-0.0201162380220269,-8.14029787362233e-06
3,-0.0132962998218869,-2.35067397271366e-06
3,-0.0560227819035443,-0.00017583041935491
3,-0.0889120469191589,-0.000702881035703352
3,-0.0258201844939433,-1.72138503616964e-05
3,-0.101484371365766,-0.00104519541908048
3,-0.0218562140675334,-1.04405843634003e-05
3,-0.00950141652830396,-8.57758582227883e-07
3,0.027519740910614,2.08416943491917e-05
3,0.0502199520645847,0.000126656907962033
3,0.0152021936534765,3.51332868454063e-06
3,0.0512203263239589,0.000134377644185725
3,0.0539339796499206,0.000156887159796976
3,-0.0148151204944685,-3.25173813392542e-06
3,-0.0301702009911578,-2.74621547605378e-05
3,-0.0124258837033995,-1.91858857478431e-06
3,-0.0323812526594142,-3.39532175308332e-05
3,-0.0294474484701489,-2.55354203555129e-05
3,-0.0176144303355971,-5.46519682005467e-06
3,-0.0267882409576894,-1.92235056720427e-05
3,-0.0482093821066589,-0.000112045571385508
3,-0.0682802843953279,-0.000318336153256769
3,-0.0246084976772107,-1.49023686927724e-05
3,-0.0285982058672326,-2.33892536896616e-05
3,-0.0445614247917067,-8.84865382592601e-05
3,-0.0265311541380262,-1.86753361716593e-05
3,0.0165001784810448,4.4922707759702e-06
3,0.0324175682848211,3.40675814537019e-05
3,0.0208839578469201,9.10832301309843e-06
3,0.0171451772912251,5.03994667005373e-06
3,0.0187055149737132,6.54499029991895e-06
3,0.0630391439053971,0.000250513376135909
3,0.0252177070222844,1.60367657113673e-05
3,-0.00374767330228965,-5.26362783298743e-08
3,-0.0220760831042414,-1.07588551579337e-05
3,-0.0203311142646983,-8.40395161927601e-06
3,-0.00807557321457093,-5.26647560277986e-07
3,-0.0580806244890494,-0.000195926793921203
3,-0.00331731161307167,-3.65055425374793e-08
3,-0.00564568670453993,-1.79949366743357e-07
3,0.0232981420200123,1.2646311205028e-05
3,0.0291871138524028,2.48641408094238e-05
3,0.0523852218082469,0.000143756126225095
3,0.0668827754964988,0.000299187098058928
3,0.0513545124173992,0.000135436533843027
3,-0.00654139023166835,-2.79904689221603e-07
3,-0.0354582430873336,-4.45811881772614e-05
3,-0.0504030179471859,-0.000128047063583329
3,-0.0538293897581546,-0.000155976212110687
3,-0.0297701828461147,-2.63842349796841e-05
3,-0.0439558524734761,-8.49278483484464e-05
3,-0.0216120377167568,-1.00945543430838e-05
3,-0.00985428474717222,-9.56919318236386e-07
3,0.0167899006040584,4.73308577912721e-06
3,0.0247372164859807,1.51374419027951e-05
3,0.023158400228399,1.24201163904638e-05
3,0.00616259821939325,2.34040793752714e-07
3,0.010296634478787,1.09165620552146e-06
3,0.0293880218689968,2.53811364008895e-05
3,0.0211508434806387,9.46200284374667e-06
3,0.00730960632255179,3.90554784636221e-07
3,0.0110515157671375,1.34978793803797e-06
3,-0.0245415714432836,-1.4781111869926e-05
3,-0.0150958378871397,-3.4401047746083e-06
3,-0.047954809042454,-0.000110279934089212
3,-0.0295947346738465,-2.59204986572269e-05
3,-0.00692066616946289,-3.31469598585307e-07
3,-0.0241966314544129,-1.41665705586484e-05
3,-0.0125597664696108,-1.98127469727612e-06
3,-0.0193840992370719,-7.28344547752688e-06
3,0.0184262877289414,6.25624208436419e-06
3,0.0229807688217985,1.21365056319186e-05
3,0.0321238012570398,3.31497907272167e-05
3,0.0209802996326962,9.23496085699304e-06
3,0.0125432603660652,1.97347355727576e-06
3,-0.00772424094401997,-4.60858325057154e-07
3,-0.0147866188436712,-3.23300692221457e-06
3,0.0247042658221491,1.50770319547978e-05
3,0.0536941467810227,0.000154803521912015
3,0.0195898500442552,7.51784443562771e-06
3,0.0510831847664739,0.000133301150023332
3,0.0734543385077788,0.000396325810252038
3,0.0551180763520997,0.000167448844975641
3,0.0599058179800284,0.000214984429994407
3,0.0311757114816322,3.03004529573585e-05
3,-0.0604961187524094,-0.000221402508724592
3,-0.0378573266425012,-5.4256256659412e-05
3,-0.0167010045378533,-4.65830351724244e-06
3,-0.0244811149673688,-1.46721439841218e-05
3,-0.0462860093127622,-9.91628990964799e-05
3,-0.0365582980686928,-4.88605001579807e-05
3,0.0246928836092273,1.50562018357476e-05
3,0.040594158176734,6.68945318730606e-05
3,0.0292286568274848,2.49704618340187e-05
3,0.0134399810708384,2.42770532628661e-06
3,-0.0193663108564856,-7.26341227818336e-06
3,-0.0456259227686256,-9.49806162501505e-05
3,-0.00614718337025439,-2.32288925413282e-07
3,0.0476207490354149,0.000107991274490987
3,0.046273787176694,9.90843659202817e-05
3,0.0811330052527804,0.000534063243509927
3,0.0748893816900965,0.000420011067859166
3,0.0334357680731939,3.73795365323338e-05
3,0.0367948235778961,4.98150046044573e-05
3,0.112681315307819,0.00143072354194833
3,0.0501242719120167,0.000125934357785537
3,0.055877280368818,0.000174463981959792
3,0.0674393649854098,0.0003067188144339
3,0.0973409801375849,0.00092233171981768
3,0.0481705503172849,0.000111775037341085
3,0.100872696817757,0.00102641004909909
3,0.0168613327343474,4.79375347343908e-06
3,0.0241801432635118,1.41376299201527e-05
3,0.0341753159759348,3.99151362335241e-05
3,0.0303537948908878,2.7966555864429e-05
3,0.0152629345718964,3.55561007041309e-06
3,0.0202407297805296,8.29236673675944e-06
3,0.0356646731831312,4.53643555905048e-05
3,0.0299825805489313,2.69529947861836e-05
3,0.0192795621574798,7.16624250072505e-06
3,0.0393768571906725,6.10552693798354e-05
3,0.0356226723487468,4.52042729943582e-05
3,0.0383751219054538,5.65131225548567e-05
3,-0.0492322454839005,-0.000119329805628209
3,-0.0589347439082677,-0.000204698284085435
3,-0.0218009595545398,-1.03616001163161e-05
3,-0.0648783000239376,-0.000273085339123339
3,-0.0341680223279705,-3.98895857901994e-05
3,-0.0171020456072262,-5.00200568270087e-06
3,0.0271460582520911,2.00041604872392e-05
3,0.0375375168170153,5.28928074696392e-05
3,0.0218578393029717,1.04429136327045e-05
3,0.02536493781778,1.63192954814275e-05
3,0.0455978749795247,9.48055605700131e-05
3,0.0191765831960104,7.05202246006174e-06
3,-0.0200169319645686,-8.02033556382197e-06
3,-0.0098498082428445,-9.55615811810712e-07
3,-0.0561447066591616,-0.000176980921202442
3,-0.0121119106857244,-1.77679768185938e-06
3,0.0594521909279928,0.000210137514687967
3,0.027555532475011,2.09231188920372e-05
3,0.018976879627155,6.83399109329338e-06
3,0.0733888604781691,0.000395266886796297
3,0.106872919413515,0.00122068334502534
3,0.0820600867974711,0.000552580959259641
3,0.043058042582675,7.98293969950811e-05
3,0.0851546426412434,0.000617482981105482
3,0.0609180750433756,0.000226067699400175
3,0.0964293108852114,0.0008966587471365
3,0.0798357603845575,0.000508853068869505
3,-0.0561903399822741,-0.000177412811973007
3,-0.0260703709907227,-1.77190989796222e-05
3,-0.036336482352413,-4.79765092831756e-05
3,-0.0697262763265271,-0.000338991975667677
3,-0.0472689947504452,-0.000105615850177953
3,0.0425525220478992,7.70505807090427e-05
3,0.0475054405344541,0.000107208704835664
3,0.0424082380305631,7.62694626384809e-05
3,0.0399657449375622,6.38357164692196e-05
3,0.0236263920130529,1.31884032200683e-05
3,0.0737972986024396,0.00040190313461647
3,0.169614747829593,0.0048796742734566
3,0.116223975898308,0.00156995492778934
3,0.0396545881635324,6.23562990945111e-05
3,0.0909434124213545,0.000752166068790564
3,0.0375948586544077,5.31355730953216e-05
3,0.060343638490814,0.000219732592014397
3,0.0955694798549123,0.000872886279340195
3,0.0331588864033812,3.64585851349448e-05
3,0.0712360714538791,0.000361492992185987
3,-0.0447309420346739,-8.95002263284239e-05
3,-0.0905104263176512,-0.000741473836959811
3,-0.0583834454016454,-0.000199007370656959
3,-0.0487874595927256,-0.000116124702338659
3,0.0125161901942883,1.96072398740614e-06
3,0.00867743453577869,6.53392338673509e-07
3,0.0126252853295219,2.01244308026103e-06
3,0.0185787981141701,6.41287606041807e-06
3,0.0207030876852341,8.87371271881634e-06
3,0.0294430905194662,2.55240850133586e-05
3,0.0492563632668999,0.000119505262612537
3,0.0418876029333792,7.34947850741927e-05
3,0.015750908968344,3.9076608569193e-06
3,0.0502959819644471,0.000127233031461441
3,0.00879147825796277,6.79494145441368e-07
3,0.015380253749308,3.63823294390433e-06
3,0.0266209864680259,1.88656787116532e-05
3,0.0432810411996224,8.10761466882166e-05
3,0.0353527686182592,4.41845353709323e-05
3,0.0163166200093845,4.34400782285941e-06
3,0.0330510691216696,3.61041011511492e-05
3,0.0595816093719739,0.00021151281710691
3,-0.0154140031558599,-3.66223602735992e-06
3,-0.0131164392784005,-2.25656505896169e-06
3,0.0458558459756124,9.64237749504306e-05
3,0.036443971111899,4.84035351119695e-05
3,0.069374201840549,0.000333882762879546
3,0.105212072396695,0.00116465347108954
3,0.0921956931520716,0.000783667617655126
3,0.0719602656920793,0.000372630393004573
3,0.193598580330738,0.00725615422547013
3,0.0486787250358247,0.000115349996259396
3,0.113282686546752,0.00145375298619718
3,0.074262317254339,0.000409548641800329
3,0.0307375264372735,2.90406776267484e-05
3,0.0294426276391637,2.55228812256198e-05
3,0.0390222892755577,5.94207641024246e-05
3,0.101967662181687,0.00106019899197577
3,0.105207641129477,0.00116450632048404
3,0.0930060587485453,0.00080451421659038
3,0.0460660721051993,9.77560284544304e-05
3,0.120559876891679,0.00175229970358893
3,0.0128075484801164,2.10086441739171e-06
3,0.0130791605961501,2.23737930789938e-06
3,0.0270889642595749,1.98782066256083e-05
3,0.0358388742097725,4.60323425887149e-05
3,0.0416944201154754,7.24826084786259e-05
3,0.0758506793996298,0.000436393652941743
3,0.00647021231172114,2.70866686554122e-07
3,0.0365129990915999,4.86790976244623e-05
3,0.0159549544998849,4.06150236116982e-06
3,0.073778749342963,0.000401600150686985
3,0.0554073862887706,0.000170099482173949
3,0.0200638874761989,8.07691012877929e-06
3,0.0883964397470509,0.000690723641930613
3,0.0777667422030667,0.000470307297751763
3,0.0300871601522051,2.7236016793392e-05
3,-0.021990930664883,-1.06348367533515e-05
3,0.00952071207882005,8.62995030446765e-07
3,0.00890845132704212,7.06979196494252e-07
3,0.0144129528803954,2.99404897798075e-06
3,0.00989287979093182,9.68206950278808e-07
3,0.0260439033213482,1.76651863654446e-05
3,0.0181255569331059,5.95489460367302e-06
3,0.0451602720521655,9.21021245964796e-05
3,0.0110115647501715,1.33520241939271e-06
3,0.0166485684847241,4.6145641826257e-06
3,0.0246240582654973,1.49306560292202e-05
3,0.0582730192052165,0.000197880300040392
3,0.013738109373604,2.59287099087342e-06
3,0.0277329380726859,2.13298423536806e-05
3,0.0599259141101119,0.000215200859952007
3,0.0649848902679371,0.000274433528661934
3,0.0256024606460446,1.67820542919973e-05
3,0.0432957987582118,8.1159108694068e-05
3,-0.0480290329120767,-0.000110792796891784
3,-0.0337579269635657,-3.84704536585289e-05
3,-0.0386804176585933,-5.78726626824325e-05
3,-0.0330825898055188,-3.62074967445028e-05
3,-0.0526528707909484,-0.000145970859618065
3,-0.0604865994054983,-0.000221298009012551
3,-0.0241771962395544,-1.4132461358174e-05
3,-0.0850203568580647,-0.000614566340579414
3,-0.0512207795614,-0.000134381211452252
3,-0.043760130519554,-8.37984191886411e-05
3,-0.05237464807392,-0.000143669094105654
3,-0.0704707203279505,-0.000349966224423666
3,-0.0403300043979783,-6.5597125397055e-05
3,-0.0219830288161704,-1.06233768455827e-05
3,-0.0491341963695857,-0.000118618266140668
3,-0.0527727404056152,-0.000146970083521656
3,-0.0218516231948033,-1.04340066468759e-05
3,-0.0535936472917493,-0.000153935909259046
3,-0.0104689836121829,-1.14739660340508e-06
3,-0.00814469217316204,-5.40286386296509e-07
3,0.0725594522537677,0.000382016381705816
3,-0.0762400474269653,-0.000443148693637571
3,-0.0643093703502715,-0.000265963948796593
3,-0.0409834850675692,-6.88377487386353e-05
3,-0.0606517396116781,-0.000223115522255845
3,-0.123888891831149,-0.00190150339336496
3,-0.111444920750307,-0.0013841426126075
3,-0.0856418850703597,-0.000628143187560356
3,-0.142933936700809,-0.00292015608680645
3,-0.158322512262104,-0.00396851492459078
3,-0.0887224768919601,-0.000698394761102233
3,-0.0309545642121595,-2.96602005200637e-05
3,-0.044532519368932,-8.83144556528715e-05
3,-0.0733277307674774,-0.000394279989213243
3,-0.0494863335719897,-0.000121186944237282
3,-0.158795188406804,-0.00400416547484108
3,-0.0337496106553372,-3.84420289266333e-05
3,-0.0205105425938444,-8.62842341185756e-06
3,0.165322859659972,0.00451854619437078
3,-0.0203622710795268,-8.44264726011372e-06
3,-0.0109816145370354,-1.32433722556228e-06
3,-0.028034987868415,-2.2034394338021e-05
3,-0.0139914405721789,-2.7389701328939e-06
3,-0.0347183818116947,-4.18483582475947e-05
3,-0.0742824082980505,-0.000409881131530882
3,-0.0443672031742493,-8.733456418764e-05
3,-0.0389075484700948,-5.88981429112226e-05
3,-0.0410005450523267,-6.89237487354249e-05
3,-0.135591621006694,-0.00249286384186076
3,-0.0079263793408305,-4.97994514450333e-07
3,0.0509995005350841,0.000132647102713429
3,0.139451762794664,0.00271188972443983
3,0.0371125049722947,5.1116464313167e-05
3,-0.0162534639743852,-4.29376032720686e-06
3,-0.0124263898257717,-1.91882302414247e-06
3,-0.0133681402353338,-2.38898255442363e-06
3,-0.0292730095591946,-2.50843079434912e-05
3,-0.0177645789630846,-5.60615054985252e-06
3,-0.0152787768176204,-3.56669326058817e-06
3,-0.0317406888643395,-3.19778340120304e-05
3,-0.0213514027725698,-9.73372874693759e-06
3,-0.0220131743678097,-1.06671406395681e-05
3,-0.0437266744858628,-8.36063662970478e-05
3,-0.113714860986213,-0.00147045478300341
3,0.0584361114118702,0.000199546412924464
3,0.0314219043786839,3.10239797314613e-05
3,-0.0241247771816306,-1.40407379054006e-05
3,-0.04678262293513,-0.000102389094562589
3,-0.0378024576566122,-5.40206874791807e-05
3,-0.0308293135526077,-2.93016154487016e-05
3,-0.0407370692697235,-6.76035254561165e-05
3,-0.0362682076442977,-4.77065796314075e-05
3,-0.0362801657910698,-4.7753783816709e-05
3,-0.043850374972268,-8.43179296588381e-05
3,-0.0294097973368888,-2.54375977454048e-05
3,-0.0714172670366442,-0.000364258487855389
3,-0.0645910309322553,-0.000269473863525111
3,-0.0921885201092094,-0.000783484718306534
3,-0.0249905302781598,-1.56072509963728e-05
3,-0.0207431640978189,-8.925344934197e-06
3,-0.0134286585003706,-2.42157480116482e-06
3,-0.0305148020387632,-2.84139538406036e-05
3,-0.0132774778895111,-2.3407054192965e-06
3,-0.0498457128833625,-0.000123846413629642
3,-0.00537828158360601,-1.55571704061195e-07
3,-0.00836049139985679,-5.84380093274575e-07
3,0.049979240677589,0.000124844369715391
3,0.0888707074414262,0.000701901082092325
3,0.0200152145366203,8.01827133639377e-06
3,0.0240232379690261,1.38641941032563e-05
3,0.0430678505470021,7.9883961173462e-05
3,-0.020031803792134,-8.03822527160142e-06
3,-0.0416678287530509,-7.23440156650214e-05
3,-0.0196264114815568,-7.56001573959018e-06
3,-0.0357811485905068,-4.58102679992559e-05
3,-0.00990384641114921,-9.71430399735007e-07
3,-0.0212070834071317,-9.53768189096733e-06
3,-0.0451803728027563,-9.22251627820326e-05
3,-0.0373405490662688,-5.20645475868754e-05
3,-0.0210726657147153,-9.35746978354957e-06
3,-0.00758941106500258,-4.37143704618768e-07
3,-0.0117615334708553,-1.62701608498257e-06
3,-0.0667485349078829,-0.000297389213876344
3,-0.043940655361782,-8.48397910079938e-05
3,-0.100855971650039,-0.00102589958290057
3,-0.0118226386263376,-1.65250676135825e-06
3,-0.00587050757216771,-2.02314475627263e-07
3,0.0795448759331355,0.000503311236742647
3,0.0258438708731555,1.72612676766396e-05
3,0.0835169169687125,0.000582536794699207
3,0.0382140493499599,5.58044947433129e-05
3,-0.0334986158013101,-3.75907149416167e-05
3,-0.0302855821474824,-2.77784352341388e-05
3,-0.0517538088754811,-0.000138620337847129
3,-0.0319807207760016,-3.27088098988048e-05
3,-0.0403902631540808,-6.58915992182781e-05
3,-0.035602536579644,-4.51276609659257e-05
3,-0.0424918317750244,-7.67213719371556e-05
3,-0.0919188448292271,-0.000776629125149873
3,-0.0750966212493177,-0.00042350758500907
3,-0.050964685376144,-0.000132375630755776
3,-0.0432241692647435,-8.07569606662987e-05
3,-0.0293948701074642,-2.53988840991817e-05
3,0.0913796146924388,0.000763041163806429
3,0.131520367239542,0.00227498762485062
3,0.0510968851461215,0.000133408431874546
3,0.0565918568924693,0.000181243246458249
3,0.0794884215519334,0.000502240370912689
3,0.0570200073124555,0.000185388079732538
3,-0.0277785601500133,-2.14352816053955e-05
3,-0.0487083469511857,-0.000115560702321574
3,-0.0438572734285458,-8.43577301209235e-05
3,-0.184202198732001,-0.00625006349722728
3,-0.00572646788061363,-1.87784822248292e-07
3,-0.011131793724444,-1.37941660750708e-06
3,0.0365254932237625,4.87290862231789e-05
3,0.0674854148665057,0.000307347557530486
3,0.0374406950418184,5.24845776703733e-05
3,0.0515509096182978,0.000136996350668775
3,-0.0215255428705402,-9.97383867465298e-06
3,-0.0276681956034083,-2.1180807438729e-05
3,-0.057252929694335,-0.000187669261368041
3,-0.0717770855875427,-0.000369791957201081
3,-0.0618894022955355,-0.000237054861043815
3,-0.0165627453860104,-4.54356742173305e-06
3,-0.00862600155470678,-6.4184268542335e-07
3,0.128443779730777,0.00211904037385794
3,0.268647076816826,0.0193885958483708
3,0.0343432576825051,4.05064763228845e-05
3,0.0550368717834779,0.000166709835807379
3,0.0206024164609199,8.7448927089497e-06
3,0.0682585848096614,0.000318032746455354
3,0.0880932686302799,0.000683641114175882
3,0.0541803734012429,0.000159047182981791
3,0.0363668682046043,4.80969689233208e-05
3,-0.0794553788284726,-0.000501614298898293
3,-0.0784955094453298,-0.000483653613987236
3,-0.130602057722038,-0.00222766590940257
3,-0.0692324227093614,-0.000331839888318734
3,-0.141355203902654,-0.00282445984101268
3,-0.0399370041697143,-6.36980959815872e-05
3,-0.0704023830101878,-0.00034894909693868
3,0.0773813563098343,0.000463349835083372
3,0.24166292670095,0.0141133493666104
3,0.0727243198070749,0.000384626323709692
3,0.0188932599099585,6.74404869281632e-06
3,-0.0501102970748848,-0.000125829054220158
3,-0.0560189941038314,-0.000175794757146063
3,0.0661102443362717,0.000288939080781396
3,0.0255009574215247,1.65832427601643e-05
3,0.0647464527722813,0.000271423808397432
3,0.0404560937346577,6.62143073830328e-05
3,0.054436306960298,0.000161311735275426
3,0.0467447269051435,0.000102140476739447
3,0.100933959006858,0.0010282812687069
3,-0.0396154944109476,-6.21720576712548e-05
3,-0.0396172012848145,-6.21800942565165e-05
3,-0.0339131127987398,-3.90034445674305e-05
3,-0.0348998232011713,-4.25079029750486e-05
3,-0.03148525925827,-3.12120160277067e-05
3,0.185710290383355,0.00640483442785925
3,0.0632781143411872,0.000253373147665889
3,0.0295375967204973,2.57706557871171e-05
3,-0.0764024688870717,-0.000445986977782328
3,-0.10511565917444,-0.00116145464251083
3,-0.00880474471877045,-6.82574887497769e-07
3,0.079124553333905,0.000495374690710283
3,0.309945336543395,0.0297752433042245
3,0.13538795532917,0.00248164747229492
3,0.0613624819903389,0.000231051479040197
3,0.064767800603771,0.000271692373862528
3,0.0861891926383624,0.000640263047846356
3,0.0687506944781766,0.000324961019457994
3,0.10646304030908,0.00120669244322949
3,0.343314719220182,0.0404647881563629
3,0.078282231645797,0.000479721953680406
3,0.0712334046189748,0.000361452394521648
3,0.0609282105235464,0.000226180556836759
3,0.192390404923945,0.00712115151247152
3,0.0808641650030228,0.000528771840876763
3,0.0412774616738788,7.03297297343503e-05
3,0.0525027338817118,0.000144725731961597
3,0.0401996692815826,6.49632046506167e-05
3,0.0606012173205637,0.000222558427587442
3,0.0332106734836845,3.66296735699413e-05
3,0.0671234770674136,0.000302428932113284
3,0.0144780835507696,3.03482208350828e-06
3,-0.0422455875321617,-7.53952635001085e-05
3,-0.0354251438804942,-4.44564590729407e-05
3,-0.0615645541056029,-0.000233341623421167
3,-0.0176477013782306,-5.49622418755731e-06
3,-0.0100893730511645,-1.02705225548861e-06
3,0.0742290685309585,0.000408998798717356
3,0.0965666168687478,0.000900494468848808
3,0.0224371117623945,1.12953801982221e-05
3,0.0723279007378198,0.000378370771611172
3,0.0997146152896848,0.000991462868777413
3,-0.0336418062737108,-3.80748250800369e-05
3,-0.0375262897994024,-5.2845362864174e-05
3,-0.124914234976406,-0.00194910752225291
3,-0.0146673887407462,-3.1554289643772e-06
3,0.0797259679321773,0.000506756586177564
3,0.159007641678987,0.00402025859571436
3,0.0709133367499469,0.000356601990759089
3,0.0425568273413407,7.70739700811123e-05
3,0.127494988246007,0.00207242746762984
3,0.0468161923849485,0.000102609664443818
3,0.12733410498005,0.00206459190452299
3,0.156460590354005,0.00383014216142237
3,0.0950026355333346,0.000857446359044672
3,0.0967273978195886,0.000904999862773017
3,0.16590673828118,0.00456659057089605
3,0.0631461142500563,0.000251790820526567
3,0.0685060892586227,0.000321504849591291
3,0.0557290615069828,0.000173079323256787
3,-0.144631828474338,-0.00302546149548156
3,-0.1709030076162,-0.00499170736226248
3,-0.0600036740531842,-0.000216039682204199
3,-0.05727223654301,-0.000187859183038658
3,0.0330121535608097,3.59767203081553e-05
3,0.107308723647449,0.00123567735514671
3,0.0747280559314029,0.000417302563285887
3,0.0845343113725138,0.000604086398811186
3,0.115308707140529,0.00153315586375434
3,0.0203704732697472,8.45285379793305e-06
3,0.0838242222162777,0.000588990916695986
3,0.12782647253769,0.0020886343358709
3,0.0855409149317582,0.000625924099597265
3,0.121265597219628,0.001783252452117
3,0.0879475073774114,0.000680253218692892
3,0.0997779704246031,0.000993353890932377
3,0.0631488349646103,0.000251823367919609
3,0.170749009873855,0.0049782256943231
3,0.0574459537775189,0.00018957380774439
3,0.0621638712067015,0.000240222761957906
3,0.192649578008718,0.00714996944934607
3,-0.0359111758943594,-4.63115032664201e-05
3,-0.0349042211352977,-4.25239750206299e-05
3,0.0809661460160933,0.000530774930496376
3,0.344339694604802,0.040828297426442
3,0.247130818029035,0.0150931789146363
3,0.219838521436122,0.0106245705180298
3,0.164576086084472,0.00445759070775947
3,0.0764739184920168,0.000447239374583215
3,0.192399801728597,0.00712219500533307
3,0.0867500540936102,0.000652843768130295
3,0.35927506158468,0.0463747111417051
3,0.104560602725788,0.00114315266735986
3,0.179566702298621,0.00578998476540058
3,0.111543173024004,0.00138780671204138
3,0.0540566595774325,0.000157960178235124
3,0.234919041069238,0.0129644667494311
3,0.0998340201924024,0.000995028865988404
3,0.206925663487271,0.00886019069548203
3,0.227642785443478,0.0117967309098316
3,0.0158159277940126,3.95625267265782e-06
3,0.0731844002496982,0.000391972459818177
3,0.0446134036806624,8.87965462370154e-05
3,0.00825142712702752,5.61807076910954e-07
3,0.0225536801678846,1.14723464149859e-05
3,0.0735744563945266,0.00039827329398267
3,0.0111691234666719,1.39334054644794e-06
3,0.0279823455409252,2.19105028878673e-05
3,0.0507328767562071,0.000130577535556739
3,0.0556294514541998,0.000172152895848255
3,0.0286177817957009,2.34373175277528e-05
3,0.0242971439354202,1.43438481619085e-05
3,0.07992488657066,0.000510559175819424
3,0.070096346125169,0.00034441823827525
3,-0.0186010687601921,-6.43596530856682e-06
3,0.0123045243059972,1.86292120217437e-06
3,0.0444761207427147,8.79793404128928e-05
3,0.0144467084025139,3.01513471329258e-06
3,0.0370309530534044,5.07802305681457e-05
3,0.0128267708671745,2.11033795630596e-06
3,0.0111989847943809,1.40454599244995e-06
3,0.0500347751207899,0.000125260994844332
3,0.0217118791384045,1.0235103490643e-05
3,0.0145734146432173,3.09516613427092e-06
3,0.0894337343237104,0.000715326139829571
3,0.050186721329065,0.000126405646206209
3,0.0196773934772219,7.61908309551487e-06
3,0.0163610812674914,4.37961571581729e-06
3,0.0762866121379641,0.000443961168076849
3,0.0681308340647671,0.000316250424366719
3,0.0366218302445463,4.91156771037984e-05
3,-0.0516942157301221,-0.000138142036037766
3,-0.017665746418465,-5.5131013487794e-06
3,-0.0144739218016855,-3.03220574182867e-06
3,-0.0299267603020302,-2.6802735187422e-05
3,-0.0940698583173817,-0.000832437180830105
3,-0.0745201542160221,-0.000413829298604622
3,-0.108850781718804,-0.00128971769049405
3,-0.160233875702117,-0.00411398792168019
3,-0.054284864638472,-0.000159969164927194
3,-0.0259227831533892,-1.74198688451016e-05
3,-0.0195847470777402,-7.51197098852164e-06
3,-0.0204483276425855,-8.55014314442281e-06
3,-0.0230865090638917,-1.23048069152656e-05
3,-0.0355775318332569,-4.50326441358646e-05
3,0.11209640944374,0.0014085592041293
3,-0.0052576219618515,-1.45334281398652e-07
3,-0.00364543146352324,-4.84447604662172e-08
3,-0.0283956888246034,-2.28958739185832e-05
3,-0.0531725610931148,-0.000150335912065693
3,-0.0255159980588719,-1.66126027966873e-05
3,-0.0152195176679699,-3.52535346429328e-06
3,-0.0101983244241833,-1.06068510518255e-06
3,-0.0179791032319379,-5.811711912764e-06
3,-0.0285546430883297,-2.32825320002816e-05
3,0.038307317669579,5.62140958020765e-05
3,0.0095826010978631,8.79934264657873e-07
3,-0.00167119319004271,-4.66745319757847e-09
3,-0.00163413000228257,-4.36374948797198e-09
3,-0.0050626798183658,-1.2976016402583e-07
3,-0.00920485375579651,-7.7992111601309e-07
3,-0.00497480271509052,-1.23119711181455e-07
3,-0.00361327615475196,-4.717408280464e-08
3,-0.00233763430254926,-1.27740824354779e-08
3,-0.00776826061099598,-4.68782467643337e-07
3,-0.00970197273318563,-9.13229956651762e-07
3,0.0313860001863421,3.0917752691142e-05
3,0.00664420450880815,2.93311421552625e-07
3,0.00323082345391644,3.37240466082127e-08
3,-0.00423160930433351,-7.57733852340242e-08
3,-0.00409277675142259,-6.85573729538021e-08
3,-0.0168449589182164,-4.77980157984594e-06
3,-0.0185018993216995,-6.33357532877375e-06
3,-0.00631231304146738,-2.51515981162027e-07
3,-0.00311163722078538,-3.01277621028528e-08
3,-0.00253237839482736,-1.62399915506287e-08
3,-0.0022613834375038,-1.15643871150685e-08
3,-0.00911287129240168,-7.56773140099326e-07
3,-0.0100360650700816,-1.01085858861233e-06
3,-0.0110627740862919,-1.35391728002566e-06
3,0.064894733941892,0.000273292912330917
3,0.00315917128527081,3.15296768685932e-08
3,0.00807250951854114,5.26048391914837e-07
3,-0.011560043398202,-1.54482181443921e-06
3,-0.0121958905911708,-1.81401368477321e-06
3,-0.0108157457405724,-1.26522978632331e-06
3,-0.0106053310221775,-1.19281388485666e-06
3,0.203985943210961,0.00848790915892638
3,0.00780766297334873,4.75952020420746e-07
3,-0.0273550044900862,-2.04696478436177e-05
3,-0.0146862395136332,-3.16761083727586e-06
3,0.16159335432073,0.00421959227044081
3,0.0517543027778665,0.000138624306573513
3,0.00978739309991304,9.37564370600816e-07
3,-0.0429946603478213,-7.94773846272456e-05
3,-0.0284079591866108,-2.29255680824678e-05
3,0.23603766153497,0.0131505497948295
3,0.0969129096774467,0.000910216907959498
3,0.0177952241436181,5.63521367087313e-06
3,0.0321346044559172,3.31832466899067e-05
3,0.347459418501162,0.0419480971829256
3,0.0352954981530444,4.39701500267256e-05
3,0.117714106446273,0.00163111856534007
3,0.046505745903023,0.000100581901842272
3,0.00961750525689426,8.89584684090077e-07
3,0.012041803353413,1.74612203245945e-06
3,0.056212302928708,0.00017762092770795
3,0.00593597359220126,2.09158674345224e-07
3,-0.0136764836403503,-2.55813435945497e-06
3,-0.0191861642593235,-7.06259780125919e-06
3,-0.0160130021272462,-4.10599375057818e-06
3,0.0424685778915727,7.65954823059197e-05
3,0.00483093953779166,1.12744354941169e-07
3,0.0146849837440268,3.16679835237258e-06
3,-0.00571947506081578,-1.87097727217869e-07
3,-0.0106732315854471,-1.21587183466403e-06
3,-0.0170623059311556,-4.96721746766727e-06
3,0.0277392645900079,2.13444431582732e-05
3,0.00698534281721871,3.40849902475453e-07
3,0.00431397088233692,8.02844854637803e-08
3,-0.0206136894468865,-8.75925534498675e-06
3,0.0443412106265375,8.71811591035713e-05
3,0.0185875811407955,6.42197531841945e-06
3,0.00451921643551141,9.22973907172137e-08
3,0.0173843412655837,5.25381428009416e-06
3,0.0154927147681062,3.71862663669497e-06
3,0.0221779945253844,1.09085447054602e-05
3,0.00947455005413711,8.50502870116415e-07
3,-0.0260839301990853,-1.77467604886815e-05
3,-0.0148021344907528,-3.24319481886187e-06
3,0.0500619795871021,0.000125465423361741
3,0.0327689163692345,3.51873240033017e-05
3,0.01501793971378,3.38712379507497e-06
3,0.0191454893352193,7.01777455699637e-06
3,0.0137394856497283,2.5936503260448e-06
3,0.0544683825142337,0.000161597052902395
3,0.0960871525644565,0.000887147782288079
3,0.0311125766751185,3.01167386173317e-05
3,0.017680655273509,5.52707133567311e-06
3,0.0347437918656628,4.19403107619911e-05
3,0.0771481590164564,0.000459173378380713
3,0.0520440146120657,0.000140965348834973
3,0.0187562761997809,6.59841852042954e-06
3,0.0211041102073404,9.39942178567733e-06
3,0.0134721910892586,2.44520177663497e-06
3,0.0292427556286504,2.50066136924318e-05
3,0.0634878816654508,0.000255901310510455
3,0.0259669285506445,1.75090163747556e-05
3,0.028264424595756,2.25798184486974e-05
3,0.0279772814399361,2.18986092901736e-05
3,0.0197164413487158,7.66453114930449e-06
3,-0.00770480208865966,-4.57387680307911e-07
3,-0.0285210983593538,-2.32005744960828e-05
3,-0.0236179277994288,-1.3174233962816e-05
3,-0.0383667406712548,-5.64761027681012e-05
3,-0.0201383509672964,-8.16717226833925e-06
3,0.016707491107368,4.66373339666811e-06
3,-0.00407105254508584,-6.74714624403059e-08
3,-0.00468251534314305,-1.02668597001277e-07
3,0.0618466239272563,0.000236563639025929
3,0.0512143354420751,0.000134330498072318
3,0.00787033607075279,4.87505851208461e-07
3,0.0831964236339257,0.000575856101799553
3,0.043669041181263,8.32762133832589e-05
3,0.00905244258059929,7.41817947369501e-07
3,-0.036631518115361,-4.91546663255461e-05
3,-0.0378139877494669,-5.40701329581007e-05
3,-0.0504958499090151,-0.000128755876300649
3,-0.0773491784127896,-0.000462772043807337
3,-0.0588989587790237,-0.000204325632548897
3,-0.0588565511663802,-0.000203884603108193
3,-0.080973239953273,-0.000530914455993434
3,-0.0539164464516253,-0.000156734203929176
3,-0.0267910176339991,-1.92294840025109e-05
3,-0.0260949615156716,-1.77692861898933e-05
3,-0.0239436739484092,-1.3726896833084e-05
3,-0.0346902094417271,-4.17465668376376e-05
3,-0.0145386841726101,-3.073090196e-06
3,-0.0534796990666687,-0.000152956122098878
3,-0.0136070987234879,-2.51939699603521e-06
3,-0.0146050572320655,-3.1153711191017e-06
3,-0.00813262152372348,-5.37887788409722e-07
3,0.079433677350725,0.000501203396624499
3,-0.0148265445518882,-3.25926625946802e-06
3,-0.0182889470274755,-6.11738911577777e-06
3,-0.0164901161015575,-4.4840571607082e-06
3,-0.0388758532913789,-5.87543199065782e-05
3,-0.0176920594901304,-5.53777330053327e-06
3,-0.0208485539682569,-9.06207838818619e-06
3,-0.0206973217844055,-8.86630067961384e-06
3,-0.0141734041855105,-2.84722977365784e-06
3,-0.0166119832941372,-4.58420950256516e-06
3,-0.0204920972885097,-8.60516549684526e-06
3,-0.06108983837584,-0.000227985343495462
3,-0.0266496264721384,-1.89266337724798e-05
3,0.0286633216100846,2.35493839123872e-05
3,-0.0356467760506831,-4.52960960674116e-05
3,-0.0579362666889443,-0.000194469509942624
3,-0.032138372904876,-3.31949223310507e-05
3,-0.0308248197389514,-2.92888039269625e-05
3,-0.0344786674865351,-4.09874990182168e-05
3,-0.0534952317776195,-0.000153089435115484
3,-0.0239244560138684,-1.36938704571995e-05
3,-0.0359157971176084,-4.63293843297959e-05
3,-0.0286215394299347,-2.34465509929776e-05
3,-0.0571571053551041,-0.000186728530411723
3,-0.0541072245604265,-0.000158403864218614
3,-0.0303896287335746,-2.80657196799062e-05
3,-0.0497212242237644,-0.000122920817402925
3,-0.00712570270554752,-3.6181210853915e-07
3,-0.0173190203145362,-5.1948135526794e-06
3,-0.0131716981316771,-2.2852057441523e-06
3,0.0819978056267303,0.000551323736286951
3,0.0353569888603324,4.42003608666276e-05
3,0.063637065406857,0.000257709502444791
3,-0.0400254028047294,-6.41220109153922e-05
3,-0.0896347400871455,-0.000720160157383619
3,-0.0269212030909407,-1.95111735958241e-05
3,-0.0577219085834382,-0.000192318936179362
3,-0.0135242846424915,-2.47367652723029e-06
3,-0.0504684118973686,-0.00012854610346022
3,-0.0480698020019817,-0.000111075173391801
3,-0.0493449385260648,-0.000120151123685177
3,-0.0330879719813923,-3.62251713119115e-05
3,-0.0169721030673852,-4.88885302789382e-06
3,-0.0178076418474294,-5.64701884770912e-06
3,-0.0546100826451269,-0.000162861526587929
3,-0.0815912304351039,-0.00054316333680363
3,-0.0333556511007608,-3.71114794145191e-05
3,-0.0877639784271312,-0.000676003440103526
3,-0.0164896460128516,-4.48367368653654e-06
3,-0.0132194071710649,-2.31012743864474e-06
3,-0.00601439757094467,-2.17558671867382e-07
3,0.0318794105769158,3.23989435523571e-05
3,0.103428539721835,0.00110642295913118
3,0.0763552166296957,0.000445160007358909
3,-0.0603964409239367,-0.000220309914058426
3,-0.0348175720307093,-4.22080655378783e-05
3,-0.0699741634432711,-0.000342620342779648
3,-0.0637875518352423,-0.000259542093133535
3,-0.0360170549220844,-4.67223409560247e-05
3,-0.0468533453438267,-0.000102854149009285
3,-0.0539208722925173,-0.00015677280463295
3,-0.0706279869495266,-0.000352314473013595
3,-0.0941705907808726,-0.000835114231926264
3,-0.047778474846648,-0.000109067873837714
3,-0.0371700396190101,-5.13545670271058e-05
3,-0.0405072921214649,-6.64660141678531e-05
3,-0.0252404456184833,-1.60801854929607e-05
3,0.109497811054174,0.00131285363855091
3,0.0751564925905377,0.000424521326532267
3,0.170993407119235,0.00499963267501845
3,0.102804412085423,0.00108651383664201
3,-0.0404357001998576,-6.61142238300161e-05
3,-0.0619669464216525,-0.000237947029310646
3,-0.0537246960836957,-0.000155067898818174
3,-0.0300409285610765,-2.71106579467079e-05
3,-0.144636640468223,-0.00302576348267372
3,-0.0427136656763581,-7.7929256398459e-05
3,-0.00577767654994818,-1.92867777349929e-07
3,-0.0102908313797662,-1.08981150003258e-06
3,0.0573738207267235,0.000188860578732816
3,0.0513567422161689,0.000135454176459913
3,0.0592650819833381,0.000208159707295948
3,-0.0199796290846297,-7.97557979155382e-06
3,-0.037884925268726,-5.43750043503699e-05
3,-0.0400505732841213,-6.42430588119795e-05
3,-0.040266730031193,-6.52888605153554e-05
3,-0.031349860744403,-3.08110747862218e-05
3,-0.0309868818253389,-2.97531963042396e-05
3,-0.0109138568633967,-1.29997428329525e-06
3,-0.0106555726204866,-1.20984679899295e-06
3,-0.00508478876151429,-1.31467603682534e-07
3,0.167727956620196,0.00471863482264261
3,0.0342030598792336,4.00124258320986e-05
3,0.0550288493717691,0.000166636945400047
3,0.110114290558673,0.00133515305934224
3,0.119107229232505,0.00168971852554212
3,0.0788673467500778,0.000490559501329101
3,0.0337550853916917,3.84607397305005e-05
3,-0.127950427413119,-0.00209471635174528
3,-0.0804205464794609,-0.000520117013025155
3,-0.185940721950788,-0.00642870561036905
3,-0.108026799235778,-0.00126064999157409
3,-0.0355624903500598,-4.49755515221862e-05
3,-0.083235047087804,-0.000576658487685561
3,-0.0302171007077209,-2.75904240879491e-05
3,-0.0488071652028924,-0.000116265470018891
3,0.127719546681433,0.00208339733958756
3,0.0615517435535341,0.000233195990284039
3,0.0257998573725056,1.71732271858783e-05
3,-0.0217888151581796,-1.03442937275054e-05
3,-0.0279224637121092,-2.17701391823213e-05
3,-0.0477848102209957,-0.000109111266439108
3,0.0955003492811547,0.000870993431629306
3,0.0962770204257622,0.000892417183201199
3,0.108576625782457,0.00127999721022918
3,0.0640056370459596,0.000262213274121977
3,0.162538312520105,0.00429405141058481
3,-0.0820543704833876,-0.00055246548876439
3,-0.0483391331950513,-0.000112952689279006
3,-0.0300205550499837,-2.70555366695478e-05
3,-0.0294587538664358,-2.55648421466803e-05
3,-0.0125470985292623,-1.97528572524874e-06
3,-0.0389540685788676,-5.9109661662839e-05
3,-0.0321999937438986,-3.33862285402753e-05
3,0.127627587822144,0.00207890040226266
3,0.0403053324667783,6.54768116558774e-05
3,0.0427102347211799,7.79104790138257e-05
3,0.0917012668957875,0.0007711271730035
3,0.0613067939049005,0.000230422993654129
3,-0.0462691839910987,-9.90547989634788e-05
3,0.175586558990956,0.00541344593611177
3,0.0641173251421946,0.000263588335878576
3,0.0941338052016179,0.000834135959560731
3,-0.0663831597442262,-0.000292532256444902
3,0.116915209406517,0.00159813342758294
3,0.0400129638229344,6.40622465195483e-05
3,0.0510955261187719,0.000133397787338099
3,0.0631208955173336,0.000251489267064101
3,0.0797518951219923,0.000507251144517219
3,-0.0393874584014867,-6.11045953623012e-05
3,0.0580950274551759,0.000196072589193553
3,0.0323771533966573,3.39403243723197e-05
3,-0.0429840720328216,-7.94186802893382e-05
3,-0.0484399875039907,-0.000113661155620854
3,-0.0252252476337713,-1.6051155978836e-05
3,-0.0502535036169709,-0.000126910933031032
3,-0.00761571921302947,-4.41705462853273e-07
3,-0.0185100091678804,-6.34190747430498e-06
3,-0.00969620041817437,-9.11600912094746e-07
3,0.056585663389316,0.000181183746319906
3,0.0339710847523025,3.92038071781472e-05
3,0.0917819575187661,0.000773164576686737
3,0.102160033233121,0.00106621079822525
3,-0.0261166129515064,-1.78135533407014e-05
3,-0.0180914894355475,-5.92138049425585e-06
3,-0.0690339015899927,-0.000328993454357614
3,-0.0415741057133253,-7.18569448125518e-05
3,-0.0104156450020432,-1.12994813079433e-06
3,0.0519207002292199,0.000139965700759528
3,0.0274006422101413,2.05722704709593e-05
3,0.102037571273705,0.0010623811065977
3,0.104177956955915,0.00113064823356877
3,0.120220141519057,0.00173752757071565
3,0.120862718496889,0.00176553802312623
3,0.0676644453941213,0.000309800118491123
3,0.236204691032962,0.0131784870879724
3,0.130792628750547,0.00223743179716106
3,0.0697036269915232,0.000338661736504519
3,-0.0533597209746379,-0.000151928989670428
3,-0.0348518879355731,-4.23329883183505e-05
3,-0.0325183899230616,-3.43864310483744e-05
3,-0.0436417877411697,-8.31203949512949e-05
3,-0.0309634367183741,-2.96857123394333e-05
3,0.0752240432773028,0.000425667035513198
3,0.0321150095408149,3.3122580641307e-05
3,0.096592886364807,0.000901229566723756
3,0.155649053810887,0.00377085171779215
3,0.160293422474298,0.00411857619772806
3,0.104786716048763,0.00115058495297435
3,0.0680296368310837,0.000314843301328543
3,0.137228878478379,0.00258426200285407
3,0.0770513778225085,0.000457447467230809
3,0.0785510227573144,0.000484680483173885
3,0.0432632635027663,8.09762815856986e-05
3,0.0676475155214841,0.000309567637562234
3,-0.056293966823499,-0.000178396183249938
3,-0.0762534457791935,-0.000443382370267856
3,-0.0196190840366015,-7.55155139243958e-06
3,-0.0344009543855446,-4.07109722390348e-05
3,-0.0300853942604442,-2.72312214220842e-05
3,0.0315264342589975,3.13346292327118e-05
3,0.0396162148901305,6.21754498657966e-05
3,0.0542519410074821,0.000159678278757168
3,0.0636315386518034,0.000257642363572562
3,0.0813266136515196,0.000537895693728852
3,0.0585929838684747,0.000201157785308565
3,0.0529648084037281,0.000148580637287937
3,0.0451758332299137,9.21973661468592e-05
3,0.0433851699420399,8.1662732719791e-05
3,0.047852019196623,0.000109572306804343
3,0.0409056464099216,6.84462690250373e-05
3,0.029969310188152,2.69172222469144e-05
3,0.0441839572436164,8.62568968113934e-05
3,0.074983556990072,0.000421597585036849
3,-0.0209687181782789,-9.21967576805137e-06
3,-0.0127856679613507,-2.09011540106073e-06
3,-0.0113865108171484,-1.47629105790079e-06
3,0.115968143801669,0.00155961038210989
3,0.118101535954431,0.00164727701051598
3,0.0887629443273611,0.000699350836899289
3,0.167424613258251,0.00469307952254032
3,0.0632693584550237,0.000253267983368703
3,0.282104873173777,0.0224507971085995
3,0.0523515645663929,0.000143479216447649
3,0.105735356807382,0.00118211766018285
3,0.0555982885969609,0.000171863744799838
3,0.046956522062241,0.000103535138160964
3,0.0814918481538884,0.000541180951447613
3,0.114357550140882,0.00149552793260196
3,0.041225633246837,7.00651419254048e-05
3,0.101569580541387,0.00104783035795643
3,-0.0683076932689277,-0.000318719663887611
3,0.02950633621782,2.56889208339955e-05
3,0.0515202184626525,0.000136751811418448
3,0.0127208925850128,2.05850893488387e-06
3,0.031456785072242,3.11274113646744e-05
3,0.0833103783343439,0.000578225606278989
3,0.0184386891676614,6.26888249793582e-06
3,0.0951475377176607,0.00086137579061994
3,0.0199997634515591,7.99971614522826e-06
3,0.0813610205294652,0.000538578685740287
3,0.103474168129446,0.00110788792980889
3,0.0886277966554671,0.000696161269293576
3,0.0123497664644672,1.88354601875075e-06
3,0.0688692478502925,0.000326645003708176
3,0.0261326175603144,1.78463225632676e-05
3,0.0409296128745433,6.85666467623332e-05
3,0.0929928433090074,0.000804171319628333
3,0.0316703610319191,3.17657448084061e-05
3,0.0309181292291847,2.95555893815237e-05
3,0.0252182520982286,1.60378056287729e-05
3,0.0689498965173172,0.000327793891475372
3,0.0112690028272631,1.43105545521475e-06
3,0.0180023243764119,5.83425958563212e-06
3,0.0383854642581637,5.65588268668359e-05
3,0.0620918179000677,0.000239388412875634
3,0.0300161132631277,2.70435291819807e-05
3,0.0172539523065787,5.13648210811336e-06
3,0.055327472851841,0.000169364545595479
3,0.0458220670745943,9.62108452535258e-05
3,0.0249568159365423,1.55441696652347e-05
3,-0.00893810149185663,-7.1406187384503e-07
3,0.0176351968841859,5.48454921386956e-06
3,0.023514278383356,1.30015450875284e-05
3,0.0114734792718272,1.51037714798539e-06
3,0.0429632795059928,7.93034853131422e-05
3,0.0200716337979344,8.08626880916341e-06
3,0.00859062388578925,6.33977895071806e-07
3,0.0620008422899161,0.000238337713419271
3,0.0513259903489032,0.00013521099660065
3,0.0157235065274274,3.88730141025217e-06
3,0.0392543200703818,6.04870463379326e-05
3,0.0400737415106998,6.43546121895996e-05
3,0.0222257496035428,1.09791634795059e-05
3,0.0175973563542658,5.44931968188556e-06
3,-0.0440276369247969,-8.53446161018783e-05
3,-0.0250114683127136,-1.5646512952011e-05
3,-0.0466355285523919,-0.000101426329661013
3,-0.0750142152020519,-0.000422114927003691
3,-0.166333482769725,-0.00460191977365187
3,-0.118188455491233,-0.00165091674195
3,-0.0509625505696061,-0.00013235899661847
3,-0.0543564446803268,-0.000160602805906039
3,-0.269605350712466,-0.0195968162952793
3,-0.133574592244272,-0.00238326080867462
3,-0.0157706921047694,-3.92240342028888e-06
3,0.0802452677261914,0.000516723592599065
3,-0.0273218320710224,-2.03952697198036e-05
3,-0.0470084311060517,-0.000103878882963184
3,-0.0310884854811588,-3.00468324952687e-05
3,-0.0318687136365955,-3.23663406952399e-05
3,-0.0686122885183853,-0.000323002374907178
3,-0.0549074493408476,-0.000165536515303482
3,-0.0123304397302637,-1.87471689927745e-06
3,-0.0278350376803681,-2.15662899907971e-05
3,-0.0559628358619942,-0.000175266591775401
3,-0.21827536884989,-0.0103995415000615
3,-0.130227164073325,-0.00220853735561134
3,0.0455861842961746,9.47326586431621e-05
3,0.0528197556003503,0.000147363240187297
3,-0.0704827895082256,-0.000350146066301195
3,-0.06595880137199,-0.000286957952329973
3,-0.023075494994407,-1.22872042515057e-05
3,-0.10287484602926,-0.00108874856263948
3,-0.0869359094364388,-0.000657048767393646
3,-0.0570818664393274,-0.000185992098794278
3,-0.0187411161818004,-6.58243166166669e-06
3,-0.0126567571774147,-2.02753025935303e-06
3,-0.0308949946488233,-2.94892938442667e-05
3,-0.0889046974489523,-0.000702706749661715
3,-0.0592370776368002,-0.000207864763513883
3,-0.203921470680085,-0.00847986354509773
3,-0.05240016897923,-0.000143879215933721
3,-0.0334194158200214,-3.73247203166698e-05
3,-0.0118772865697438,-1.67552805933334e-06
3,0.0849984404257552,0.00061409119684847
3,0.0908787461881448,0.000750562703548268
3,0.134457826391441,0.00243085054922875
3,-0.0374000124604779,-5.23136762876714e-05
3,-0.0283759292753939,-2.28481099000001e-05
3,-0.0473838014644624,-0.000106387278642857
3,-0.0431829454837875,-8.05261222290356e-05
3,-0.272019278946846,-0.0201279273041065
3,-0.109865896955266,-0.00132613799166129
3,-0.0118226492832779,-1.65251123007688e-06
3,-0.0164494079356264,-4.45093050000001e-06
3,0.0601016140071165,0.000217099290899224
3,0.125827554864689,0.00199217401867608
3,0.0729464244862546,0.000388161116711484
3,-0.0672330965906365,-0.000303913045589311
3,-0.123734230555351,-0.00189439084390899
3,-0.138456322678226,-0.00265422892965272
3,-0.0742876169863837,-0.000409967360268854
3,-0.227485091926123,-0.011772232268687
3,-0.0898544779162772,-0.000725469527986611
3,-0.113372766558918,-0.00145722372608384
3,0.0440204044349359,8.53025639236102e-05
3,-0.0679614328912627,-0.000313897300444293
3,-0.113947577701116,-0.00147950109911637
3,-0.26669564869471,-0.0189691464676029
3,0.136721754847772,0.00255571764844155
3,0.0616099850554251,0.000233858581101543
3,-0.0977114798000053,-0.00093290360568851
3,-0.201622900271371,-0.00819633259014231
3,-0.162709021396221,-0.00430759534671173
3,-0.016899328724089,-4.82623385350686e-06
3,0.303161282071194,0.0278625720860409
3,0.132644264165782,0.00233380961411342
3,0.196251145619516,0.00755851713378265
3,-0.323905294120345,-0.0339824071839484
3,0.165844931787533,0.00456148879226596
3,-0.382563780914242,-0.055990139932448
3,0.21541161223889,0.0099955646758551
3,0.106149472234629,0.00119606151816413
3,0.108893302057842,0.0012912296867484
3,-0.222267167214995,-0.010980596764103
3,0.035751844720338,4.56978077436381e-05
3,-0.0276408010348627,-2.11179556960575e-05
3,-0.0599947194974841,-0.000215942975591748
3,-0.050919885681709,-0.000132026849460689
3,-0.132721345911595,-0.00233788062344595
3,-0.0275080659736575,-2.08151800457045e-05
3,-0.0531889341140769,-0.000150474830203351
3,-0.0217647891731962,-1.03101122594268e-05
3,0.0241449021968808,1.40759057972299e-05
3,0.0854077183350062,0.000623004752419385
3,-0.0208200659457609,-9.02498112527331e-06
3,-0.0235062065351528,-1.29881603930894e-05
3,-0.117352702081876,-0.00161614112423634
3,-0.0966558830685408,-0.000902994029817183
3,-0.0192644700316691,-7.14942637316076e-06
3,0.0238377430658518,1.35455113125157e-05
3,0.0589374208347868,0.000204726178691499
3,0.0553455051466145,0.000169530197127836
3,0.157182382599672,0.003883395319232
3,0.044822744657831,9.00524098536607e-05
3,-0.0338593060268747,-3.88180895851886e-05
3,-0.0360440670196131,-4.68275423832689e-05
3,-0.0440006369991677,-8.51876997447276e-05
3,-0.0642499337487056,-0.000265227195157394
3,-0.0356088163048454,-4.515154459828e-05
3,0.0928849195666086,0.000801374701408941
3,0.0538119070339696,0.000155824287470779
3,0.169600727473758,0.004878464311784
3,0.0924191910110109,0.00078938067083692
3,0.175884188125429,0.00544102091430859
3,0.0972883524418194,0.000920836544165949
3,0.0344893114903121,4.10254708270895e-05
3,0.0429255979634595,7.90950055919778e-05
3,-0.112133471548083,-0.00140995678939899
3,-0.198726296195281,-0.00784812686990613
3,-0.0699277081213484,-0.000341938406490317
3,-0.0975453515162277,-0.000928153345249004
3,-0.0666392378529672,-0.000295930729227632
3,0.0990706692586557,0.000972378371825989
3,0.108189791418421,0.00126636485888337
3,0.113004731458531,0.00144307825557114
3,0.0842256797415757,0.000597494034962978
3,0.0943692346342932,0.000840410168273832
3,0.135322563163105,0.00247805331353715
3,0.218371718508475,0.0104133190687731
3,0.0825724634766732,0.000562996538606296
3,0.0389390159117897,5.90411645085975e-05
3,0.0456953585706645,9.54149152171682e-05
3,0.149361770519437,0.00333210255167905
3,-0.121810696570721,-0.00180740833239054
3,-0.0590884347126471,-0.000206303908659411
3,-0.0411062589939433,-6.9458254096e-05
3,0.491385753573132,0.118649983819867
3,0.4219794487521,0.0751404689893984
3,0.389014650150735,0.0588705198768511
3,0.530556876457468,0.14934677304051
3,0.288979440809293,0.024132417993954
3,0.226888657651074,0.011679879361364
3,0.450599451702498,0.0914896522368396
3,0.215222959382973,0.00996932596703904
3,0.19439966745906,0.00734660268254132
3,0.055782408902984,0.000173576846765994
3,0.264703402460609,0.0185472092235268
3,-0.519165247454142,-0.139931935179563
3,0.243454558652943,0.0144295814241972
3,0.251760824859734,0.0159574854987849
3,0.0999621733567915,0.0009988656299061
3,0.214286676089508,0.00983978263974698
3,0.531035577539376,0.149751387452142
3,0.363632284475165,0.0480825290962042
3,0.569564081562313,0.184768435158504
3,0.596317938752526,0.212047727567961
3,0.500135070872552,0.125101330523089
3,0.0446074994575186,8.87612963883363e-05
3,0.160114519675709,0.00410480140767927
3,0.0931436987473667,0.000808091315528275
3,0.237766782510465,0.0134416797076273
3,0.70678206505835,0.353066540039952
3,0.0637531806244332,0.000259122765079245
3,0.0230593504235182,1.22614323818049e-05
3,0.114144169020488,0.00148717197313692
3,0.086251987032159,0.00064166348661589
3,0.0319124016873394,3.24996339639046e-05
3,0.0814537316000157,0.000540421919478565
3,0.12993039640405,0.00219347298676576
3,0.115336890771731,0.00153428033551425
3,-0.0459330458547261,-9.69115934199998e-05
3,0.0287438413362084,2.3748403584534e-05
3,0.0226579303506374,1.16321692438351e-05
3,0.0320835586642593,3.30253630768512e-05
3,0.144019981291074,0.00298722716864
3,0.0377676754325313,5.38717105504059e-05
3,0.0352941141760418,4.39649778693535e-05
3,0.0451435635285394,9.19999338104992e-05
3,0.088763456748212,0.000699362948846086
3,0.0802368200592081,0.000516560418516256
3,0.0904330944416859,0.0007395749202836
3,-0.00386358831155561,-5.76729983706112e-08
3,-0.0114671787991139,-1.50789031766977e-06
3,-0.00681807080819957,-3.16945450118364e-07
3,-0.0188181203598557,-6.66390390470766e-06
3,-0.0144905003230998,-3.04263700354588e-06
3,-0.0168324996124905,-4.76920333994536e-06
3,-0.00779437240354091,-4.73525591990362e-07
3,-0.0244696513961215,-1.46515424198887e-05
3,-0.098361232325794,-0.000951638236612748
3,-0.0835535449013118,-0.000583303578665673
3,0.00746925717961565,4.16708385227072e-07
3,-0.0145502100532702,-3.08040478333325e-06
3,-0.00565138843210711,-1.8049512434975e-07
3,-0.0238775018235337,-1.36134017307158e-05
3,-0.0127483984349793,-2.07189090986649e-06
3,-0.00730434448305185,-3.89711965939772e-07
3,-0.0210678102721737,-9.35100299057294e-06
3,-0.0219193184146871,-1.05312794411293e-05
3,-0.0777656017542536,-0.000470286606894003
3,-0.028451249004233,-2.3030534099595e-05
3,-0.00204995348627064,-8.61453859146264e-09
3,0.0221688494395336,1.0895055868916e-05
3,0.0277569833849055,2.1385371363765e-05
3,-0.0193697667781099,-7.26730144377024e-06
3,-0.0275642057970271,-2.09428822633969e-05
3,-0.178946854484693,-0.00573023201020943
3,-0.102903786639059,-0.00108966767688703
3,-0.00489752706019949,-1.17470964027885e-07
3,0.0107809780228147,1.25306754633447e-06
3,-0.0120224201866645,-1.73770362784064e-06
3,-0.0190017442615059,-6.86088920863569e-06
3,-0.0251421686235846,-1.58930849365365e-05
3,-0.0208521307961529,-9.06674332409674e-06
3,-0.010571212167751,-1.18133852755716e-06
3,0.0131809914071223,2.29004612999613e-06
3,-0.0547009612953645,-0.000163675951998385
3,-0.116326962371577,-0.00157413205469812
3,-0.133658391322687,-0.0023877490958943
3,-0.00441277895613131,-8.59283594416333e-08
3,0.0363800097915015,4.81491289492963e-05
3,0.0455503679302496,9.4509544041304e-05
3,-0.341098654644039,-0.0396862459395425
3,0.0280136662725739,2.19841587640748e-05
3,0.0243197233750137,1.4383874733748e-05
3,-0.225224197981855,-0.0114247090084596
3,0.0325413212907383,3.44592283868652e-05
3,0.0139342708944692,2.70553245522062e-06
3,-0.291986312911471,-0.024893587116355
3,-0.446070536747584,-0.0887586353205272
3,0.0150684201682724,3.42139459325473e-06
3,0.0401904067047908,6.49183096517238e-05
3,0.0377795390065415,5.39224930089196e-05
3,0.0191634392037149,7.03753162875101e-06
3,-0.0821631347801625,-0.000554665305914236
3,-0.150068047890602,-0.00337959531666265
3,-0.075184143412644,-0.000424990055811644
3,-0.0227753524197258,-1.18139551438571e-05
3,0.0473057957097875,0.000105862721817303
3,0.0418148023167667,7.31122490793016e-05
3,0.0537622884169148,0.000155393639739921
3,0.0302883084492268,2.77859377361892e-05
3,0.122249125144594,0.00182699466659954
3,0.109441285574843,0.00131082150535443
3,-0.204503675741057,-0.00855270229451887
3,-0.021937228996027,-1.0557116308031e-05
3,0.190156217873397,0.00687593230979494
3,0.14835102090673,0.00326491303683487
3,0.34902483579423,0.0425176247195415
3,0.0400759923864618,6.43654568749966e-05
3,0.259974761757223,0.0175708821811844
3,0.396289236528075,0.0622353061557863
3,0.199890621612698,0.00798688177039413
3,-0.898281523878411,-0.72483207148209
3,0.161529351683225,0.00421458046625173
3,0.0542755632392271,0.000159886949627688
3,0.200707508034875,0.00808520165891226
3,0.0332377786315629,3.67194335620906e-05
3,0.298708121767815,0.0266526927756607
3,0.599797365097375,0.215781228206471
3,0.506788841695686,0.130161076715777
3,0.605415201427492,0.221901360270959
3,0.100145269918666,0.00100436443163045
3,0.399178252496767,0.0636063709662986
3,1.22290402441975,1.82884594041939
3,0.00391063253725706,5.98054865719845e-08
3,0.00955232537004524,8.71620268617685e-07
3,0.0168502496619585,4.78430678209308e-06
3,0.00986195405105691,9.59155285139632e-07
3,0.0303367666643205,2.7919515247732e-05
3,0.0428200847907666,7.8513180173864e-05
3,-0.00720607499466511,-3.74193580554619e-07
3,-0.00791648677336421,-4.96132265042906e-07
3,-0.00346629553020037,-4.16482503553668e-08
3,-0.00780315705713483,-4.75128459327743e-07
3,-0.0081550040111775,-5.4234112415374e-07
3,-0.00823529541333395,-5.58518480596136e-07
3,-0.0121467846033519,-1.79218975714008e-06
3,-0.0327281296711152,-3.50560969747495e-05
3,-0.0567778274352586,-0.000183035913715781
3,-0.0190802880901398,-6.94631995128554e-06
3,0.0128643741894138,2.12895259934211e-06
3,-0.00488886889031564,-1.16849046143834e-07
3,-0.0208693206008673,-9.08918478095916e-06
3,-0.00580224976515926,-1.95339134380372e-07
3,-0.0140149420115815,-2.75279528322178e-06
3,-0.00842736947507829,-5.98516468008507e-07
3,-0.00587969254584338,-2.03265583538468e-07
3,-0.00703351609126676,-3.47950492961639e-07
3,-0.0163734519981511,-4.38955760554025e-06
3,-0.0321111537994212,-3.31106519411897e-05
3,-0.0895867856946897,-0.000719004923263014
3,-0.0394692847907995,-6.14862165513102e-05
3,0.0141326100815628,2.82271564818148e-06
3,0.00932634319797832,8.11211649458492e-07
3,-0.00950488263046734,-8.58697651757721e-07
3,-0.00475441312389442,-1.07470865937743e-07
3,-0.00709791238175142,-3.57595382311763e-07
3,-0.0080661436965407,-5.24804878839942e-07
3,-0.0061486524257514,-2.32455502620895e-07
3,-0.0127736651514761,-2.08423450832073e-06
3,-0.0310901082788613,-3.005153801327e-05
3,-0.0256462659016825,-1.68683429559986e-05
3,0.0398117541294428,6.3100665531483e-05
3,0.016178831994368,4.23488377322565e-06
3,-0.00523701040771156,-1.4363170338567e-07
3,-0.0102830625945152,-1.0873451915567e-06
3,-0.0138909986114096,-2.68040490314435e-06
3,-0.0372616920971826,-5.17353889501882e-05
3,-0.190225489597888,-0.0068834495168849
3,-0.131727818694071,-0.0022857698553472
3,0.00618807364405763,2.36955296562514e-07
3,0.0110687714979345,1.35612045313095e-06
3,0.00809277233121648,5.30019646988236e-07
3,0.0102144667637092,1.06572977350654e-06
3,-0.013321731805663,-2.36418827120243e-06
3,-0.0120590972771323,-1.75365595969162e-06
3,-0.0190443070861177,-6.90709655896463e-06
3,-0.047262904137832,-0.000105575029613557
3,-0.0311655042219252,-3.02707006284588e-05
3,-0.0521179277354315,-0.000141566800914158
3,-0.0721114924438677,-0.000374984616874992
3,0.0139302924707366,2.70321571793924e-06
3,0.0267358691820707,1.9110978446286e-05
3,0.012081783268633,1.76357170516612e-06
3,-0.178685586117249,-0.00570516964898671
3,0.0145584140039654,3.08561826284107e-06
3,0.016076630759405,4.15513474233758e-06
3,0.013729867982846,2.58820745690823e-06
3,-0.13287967335497,-0.00234625740110814
3,0.0112165066831215,1.41114895450163e-06
3,-0.174197315539444,-0.00528596610674509
3,-0.320467509422115,-0.0329118288191124
3,0.0147017512079631,3.17765839083438e-06
3,0.013417619990914,2.41560802283195e-06
3,0.010465990844445,1.14641286607826e-06
3,0.0200564812600239,8.06796910017543e-06
3,0.0169228962443924,4.8464537799528e-06
3,-0.00763204205224049,-4.44551688312536e-07
3,-0.0239135048987152,-1.36750744788585e-05
3,-0.0236584955006922,-1.32422374203829e-05
3,0.0216845900787063,1.01965593218421e-05
3,0.0312351253626118,3.04740208251266e-05
3,0.0217428231860117,1.02789274907378e-05
3,0.0270935386001984,1.98882784440948e-05
3,0.0153189431373475,3.59489667473122e-06
3,0.00967562561721327,9.05810117106314e-07
3,-0.0601832856771025,-0.000217985538325037
3,-0.0864399843174158,-0.000645868402449202
3,-0.0521499870244492,-0.000141828207509226
3,0.0584266617986325,0.000199449623551969
3,0.0612574498386952,0.000229867058929996
3,0.0529203419007054,0.000148206729612414
3,0.0726766391233035,0.0003838702949871
3,0.0241924126356992,1.41591617869197e-05
3,0.0696506155577082,0.000337889640641719
3,0.0303166726560999,2.78640732693021e-05
3,0.0801641292319629,0.000515157750892216
3,-0.267385024418155,-0.0191166258176008
3,0.101360479641119,0.00104137217880811
3,0.170901926015543,0.00499161258921194
3,0.0436540506009183,8.31904823768155e-05
3,0.371023120031759,0.0510743583878249
3,0.0600391326443906,0.000216422908264839
3,0.116476400398207,0.00158020642055148
3,0.236423825802056,0.0132151994585889
3,0.0299933810065973,2.69821326605193e-05
3,0.115138048640414,0.00152635865725164
3,-0.923583107871094,-0.787821708215756
3,0.0340623662416908,3.95206831026667e-05
3,0.0752943275829957,0.000426861294923651
3,0.256927010098202,0.0169601343770618
3,0.161159267686962,0.00418567838905399
3,0.314205706398492,0.0310200293537471
3,0.298999558430625,0.0267307805699439
3,0.434944444397464,0.0822813415009434
3,0.0694637763996936,0.000335177741399441
3,0.521918671653568,0.142170176338008
3,1.25734913774597,1.98777701695592
3,-0.0268745655424522,-1.94099473058363e-05
3,-0.0318091301401382,-3.21851382419934e-05
3,-0.0158170265109383,-3.95707724086629e-06
3,-0.00812832628837388,-5.37035983869335e-07
3,-0.0316089705844886,-3.15813766299501e-05
3,-0.0251630747124634,-1.59327639247122e-05
3,-0.0232033366735102,-1.24925565683714e-05
3,-0.0182337980457839,-6.06221620267542e-06
3,-0.0443787236948384,-8.7402614516669e-05
3,-0.0834411519110236,-0.000580952831537049
3,-0.0745077012247148,-0.000413621869423407
3,-0.114083558742338,-0.00148480417669537
3,-0.0165120919333415,-4.50200832595987e-06
3,-0.0238465831282833,-1.35605866797711e-05
3,-0.0115753915308414,-1.55098311233878e-06
3,0.0512677732147752,0.000134751424076565
3,-0.0501250146917947,-0.000125939956443249
3,-0.0233625678950092,-1.27515133389317e-05
3,-0.0486771731403633,-0.000115338964411583
3,-0.0229719717467902,-1.21225733453631e-05
3,-0.0314591002704456,-3.11342847400869e-05
3,-0.0699322503931361,-0.000342005044370068
3,-0.11734127556088,-0.00161566908382866
3,-0.130035737709898,-0.00219881240003922
3,-0.0588706029322065,-0.000204030667871864
3,-0.0890319926764625,-0.000705729515286394
3,-0.0591887647332698,-0.000207356583721667
3,0.0606812886931258,0.000223441781879832
3,0.0853208001553094,0.000621104619129364
3,-0.0117387504607138,-1.61757941598598e-06
3,-0.0508753532363556,-0.000131680756499469
3,-0.0697848260847253,-0.000339846656443851
