"V1","V2","V3"
3,-0.00891983677877087,-7.09693327936096e-07
3,-0.0118555112252496,-1.66632940503186e-06
3,-0.0105076309288001,-1.16015076442383e-06
3,-0.0133342779251936,-2.37087418838681e-06
3,-0.017231402954929,-5.11636966663835e-06
3,-0.0285475631461342,-2.32652180265627e-05
3,-0.0154278042373875,-3.67208189640476e-06
3,-0.00991241181197696,-9.73953022364037e-07
3,-0.0453151606829817,-9.30530414974179e-05
3,-0.0143576820567422,-2.95973614099435e-06
3,-0.0201565145686727,-8.18929112512735e-06
3,-0.0185887169979716,-6.42315270010065e-06
3,-0.0296703124201482,-2.61195901503989e-05
3,-0.0203461316622013,-8.42258789133647e-06
3,-0.0128942703964267,-2.14382988027745e-06
3,-0.0355338870267628,-4.48671157125539e-05
3,-0.00965018439754622,-8.98683640665869e-07
3,-0.00306013697142051,-2.86564638090094e-08
3,-0.00730876198085598,-3.90419459865679e-07
3,-0.0103029184418366,-1.09365611569283e-06
3,-0.00136748604620752,-2.55722363954327e-09
3,-0.0098306033178711,-9.5003699156106e-07
3,0.0176809771223877,5.52737317642495e-06
3,-0.00478687929647826,-1.09687573715007e-07
3,-0.00697372639367921,-3.39152258084282e-07
3,-0.0241642837200169,-1.41098299201933e-05
3,-0.00704859160821568,-3.50192665171676e-07
3,-0.0177692723311021,-5.61059512687296e-06
3,-0.0118798634781788,-1.67661886888829e-06
3,-0.00649474002782645,-2.73958837893965e-07
3,-0.00948489494775633,-8.5329180629281e-07
3,-0.0124790059985593,-1.94330058062524e-06
3,-0.0105601298658375,-1.17762706195547e-06
3,-0.0221388012950467,-1.08508136972932e-05
3,-0.00294161662918448,-2.54541275432631e-08
3,-0.00298321690439214,-2.65493867419384e-08
3,-0.00604743120678729,-2.21163171988723e-07
3,-0.0102574661222713,-1.07924556792625e-06
3,-0.00230890269021552,-1.2308833278791e-08
3,-0.00372558029301669,-5.17108626731339e-08
3,-0.00106602918033004,-1.21145497645245e-09
3,-0.00600385141777747,-2.16416220178637e-07
3,-0.00117380027269559,-1.61727032643749e-09
3,-0.00448253118513056,-9.00678838190613e-08
3,0.0235000962401841,1.2978034446578e-05
3,-0.0102606227331389,-1.08024224880553e-06
3,-0.0102489992487529,-1.07657523151151e-06
3,-0.00509130189044269,-1.3197344340695e-07
3,-0.0104418166979035,-1.13848731270808e-06
3,-0.0146014591116557,-3.1130691659752e-06
3,-0.00897934109302847,-7.239914001307e-07
3,-0.0178976536672129,-5.7330839301555e-06
3,-0.00760749841752557,-4.40276608169289e-07
3,-0.00878837059155692,-6.7877382467662e-07
3,-0.0145805768797943,-3.09973181964617e-06
3,-0.00054472037810677,-1.61629588737666e-10
3,-0.0073521043930401,-3.9740652637611e-07
3,-0.00135560590408672,-2.49115273271671e-09
3,-0.0010634423191875,-1.20265709191243e-09
3,0.0208283163325112,9.03571439023388e-06
3,0.0117223789529224,1.61082095449984e-06
3,0.0233603789062642,1.27479293616846e-05
3,-0.00556164340179235,-1.72032071450217e-07
3,-0.00612015467164448,-2.29238307840159e-07
3,-0.0205046367336951,-8.62097208431272e-06
3,-0.0101299371237482,-1.03948984062202e-06
3,-0.00911193891513671,-7.56540877668222e-07
3,-0.0148473787330205,-3.27302528604436e-06
3,-0.0261585276508001,-1.78994582790368e-05
3,-0.0154448962152209,-3.68429997366182e-06
3,-0.0400640128250157,-6.43077535393891e-05
3,-0.00965213801191073,-8.9922954838544e-07
3,-0.00599971338091304,-2.15969046617294e-07
3,-0.00392135125754055,-6.02986013666287e-08
3,-0.0011942426015284,-1.70324717925229e-09
3,-0.00997339780255111,-9.92040552246844e-07
3,0.026431320301737,1.84653087153548e-05
3,0.0170776529838234,4.98063313450203e-06
3,0.0136983514077673,2.57042483887094e-06
3,-0.00922780350507669,-7.85769223265241e-07
3,-0.0204147041455746,-8.50803506701425e-06
3,-0.0156133542279503,-3.80617400322041e-06
3,-0.0145743749244983,-3.09577802092049e-06
3,-0.0244495281617556,-1.46154249430836e-05
3,-0.00928442246356391,-8.00321863044883e-07
3,-0.0225023873856696,-1.1394251226723e-05
3,-0.0109697438217308,-1.32004718898936e-06
3,-0.00192552144749512,-7.13912656202982e-09
3,-0.00577616126204481,-1.9271606918479e-07
3,-0.00213325002644694,-9.70789966476384e-09
3,-0.0015086630364244,-3.43381386291039e-09
3,-0.00482427442539843,-1.12278347754479e-07
3,0.0341562350286332,3.98483166500863e-05
3,0.0150739670463333,3.42517436153528e-06
3,0.0206729435586138,8.83500819685298e-06
3,-0.0149925918224245,-3.37000194937924e-06
3,-0.0283868497791832,-2.28744994049118e-05
3,-0.0201232141056139,-8.14876970028754e-06
3,-0.0427475705826716,-7.81149778959071e-05
3,-0.0151190547026636,-3.4560014427821e-06
3,-0.0334424153787669,-3.7401835042368e-05
3,-0.0155741055614243,-3.77754235134905e-06
3,-0.0259146097535164,-1.74033966940558e-05
3,-0.0195069354275657,-7.42278940318831e-06
3,-0.00328124567505058,-3.53277716821156e-08
3,-0.0186999246930412,-6.53912399804688e-06
3,0.0565872250138044,0.000181198747404991
3,0.0591748555474063,0.000207210433507533
3,0.0233339156976919,1.27046549225633e-05
3,0.0505030076858668,0.000128810637423168
3,0.0457348302155633,9.56623870349905e-05
3,-0.0181966263670534,-6.02521617485428e-06
3,-0.0419358686483217,-7.37491348397708e-05
3,-0.0387370993297585,-5.81274527320471e-05
3,-0.0391182049070407,-5.98600054132385e-05
3,-0.0234348994432245,-1.28703181614764e-05
3,-0.0143363093757778,-2.9465383187336e-06
3,0.0305811261501035,2.85996305402083e-05
3,0.0172609871271836,5.14276744452688e-06
3,0.0340019661140556,3.93108188778442e-05
3,0.0263981098152319,1.83957921334309e-05
3,-0.0402357538158797,-6.51383010027912e-05
3,-0.00315356836938778,-3.13622168104956e-08
3,-0.00994405576273451,-9.83310446458942e-07
3,-0.0220734588818469,-1.07550188425244e-05
3,-0.0103274489966606,-1.10148649437376e-06
3,-0.0214746907165146,-9.90331865102352e-06
3,-0.0020599989469931,-8.74180259438665e-09
3,-0.00396621818752549,-6.23921289793012e-08
3,-0.0112818206038578,-1.43594421633775e-06
3,-0.016437597599755,-4.44135035254923e-06
3,-0.0018038390663608,-5.86939536913365e-09
3,-0.00475416509767336,-1.07454047330572e-07
3,-0.00503365872348072,-1.27541436038342e-07
3,-0.0191341210197378,-7.00528081853731e-06
3,0.0196484678836691,7.58553250961059e-06
3,-0.010393804935865,-1.12285502277089e-06
3,-0.0077088343835053,-4.58106175353846e-07
3,-0.0140983812016749,-2.80225561095819e-06
3,-0.0105948478411101,-1.1892801542674e-06
3,-0.00797327832525713,-5.06886556518439e-07
3,-0.00430929463632057,-8.00236887140781e-08
3,-0.0016821973689563,-4.7602619083255e-09
3,0.0898241009566464,0.000724734001731941
3,0.0435143923800426,8.23946039782367e-05
3,0.0115913765061057,1.5574174552332e-06
3,0.0249500783194714,1.55315836376594e-05
3,0.034978420437484,4.2795743993844e-05
3,0.0643790423769764,0.000266829312426208
3,0.0608369729336153,0.000225165988266903
3,0.0868509281474346,0.000655123822181958
3,-0.0370221344653415,-5.07439606427375e-05
3,-0.037726941495941,-5.36975901488326e-05
3,-0.0396023459669375,-6.2110173208374e-05
3,-0.0447264478019801,-8.94732520855786e-05
3,-0.0678798616209863,-0.00031276838305128
3,-0.0206490478363588,-8.8044066091631e-06
3,-0.0568850936121459,-0.000184075263715155
3,-0.0465711668540337,-0.000101006973479438
3,-0.010929091253208,-1.30542569404401e-06
3,-0.00173211494347563,-5.19672966724158e-09
3,-0.0307963300036242,-2.92076687283887e-05
3,-0.00498027775006386,-1.23526658090621e-07
3,-0.013843824075101,-2.65318916550474e-06
3,0.0284599207667067,2.30515992063839e-05
3,0.0290920771080752,2.46220489271846e-05
3,0.0224427443919593,1.13038891364066e-05
3,0.0456377958013614,9.50547847084405e-05
3,0.0467620400584333,0.000102254010108436
3,0.0399544164086022,6.37814480102307e-05
3,0.0159046842611861,4.02323273096198e-06
3,0.0969479769492685,0.000911205332767968
3,0.00680713827584923,3.1542326147117e-07
3,0.0476522700539299,0.000108205860487226
3,-0.00523814306524612,-1.43724917284311e-07
3,-0.0133371613194654,-2.37241254916936e-06
3,-0.00475442904571261,-1.07471945652909e-07
3,0.0368467145898788,5.00260613212566e-05
3,0.0232271436190293,1.25310486441311e-05
3,0.0237729035436586,1.34352788530766e-05
3,0.0365691571134497,4.89040527302823e-05
3,0.0342887735333135,4.03139964900617e-05
3,0.0214647518844915,9.88957476873747e-06
3,0.0500210621364233,0.000125158032574557
3,-0.0117323178421527,-1.61492166193752e-06
3,-0.0134939953463276,-2.45709341565065e-06
3,-0.0240583713489753,-1.39251112093485e-05
3,-0.0249882597719106,-1.56029974081858e-05
3,-0.00665397715046438,-2.94607579235772e-07
3,-0.00647038686390449,-2.70888609318688e-07
3,-0.00411272116169149,-6.95645207265849e-08
3,-0.00717576273039925,-3.69491294410757e-07
3,0.0588127482739684,0.000203429729847381
3,0.0332431691822135,3.67373020910561e-05
3,0.064428565117098,0.000267445551140066
3,0.0476466875725844,0.000108167835870506
3,-0.00994302773016031,-9.83005509311167e-07
3,-0.0372258967235988,-5.15864336267791e-05
3,-0.0301666201921774,-2.74523777505965e-05
3,-0.012354012426839,-1.8854894276713e-06
3,0.0403302770410156,6.55984557753187e-05
3,0.0305592909724141,2.85384131505733e-05
3,0.0758446496742629,0.00043628958829545
3,-0.0115892899456086,-1.55657655575799e-06
3,-0.00911379261015781,-7.57002694210749e-07
3,-0.00729495705416943,-3.88211341067346e-07
3,-0.00554538500674694,-1.70527769527086e-07
3,0.0255591335966708,1.66969975743253e-05
3,0.0258602392942087,1.72940861369826e-05
3,0.0204432826074256,8.54381620191091e-06
3,0.038040845219312,5.5049131748044e-05
3,0.0326508068849183,3.48082151612055e-05
3,0.035320791483446,4.40647469668741e-05
3,0.0561964718845903,0.000177470900076117
3,0.0222923257473872,1.10781219523214e-05
3,0.0178087187341762,5.64804339114371e-06
3,0.0564932296311979,0.000180297294639787
3,0.0176272486699058,5.47713686767457e-06
3,-0.0281438757352935,-2.2292137526756e-05
3,-0.0083848529845575,-5.89503457984256e-07
3,-0.0141323382244074,-2.82255275668138e-06
3,-0.0345842420826765,-4.13651675259595e-05
3,-0.00962757190507378,-8.92380995321777e-07
3,-0.00246253614370948,-1.49330266664733e-08
3,0.0704355762523578,0.000349442896151132
3,0.054214740391494,0.000159350029223797
3,0.0407476214722184,6.76560734844848e-05
3,0.0986778343799417,0.000960857156669598
3,0.0547740007082554,0.000164332472371529
3,0.0587722051753655,0.000203009311441296
3,0.0463542159280311,9.96019218656994e-05
3,0.0857379201421524,0.000630258675062687
3,0.0350919616412023,4.32138477881952e-05
3,-0.0182353273066713,-6.06374163708993e-06
3,-0.0308885361172423,-2.94708036914962e-05
3,-0.0445805057023443,-8.86002550089153e-05
3,-0.021500638056079,-9.93925985052672e-06
3,-0.0146670911800124,-3.15523692350477e-06
3,-0.0560109714905551,-0.000175719240007229
3,0.0191286784491307,6.99930470525113e-06
3,0.0072035960645358,3.73807539327401e-07
3,0.0442401264073034,8.65862792307488e-05
3,0.00444661286446381,8.79200568671472e-08
3,0.0260814676419119,1.77417346026771e-05
3,-0.00338667566316127,-3.88437205199695e-08
3,-0.00796204229739536,-5.04746645303426e-07
3,-0.00250924558660588,-1.57989966457187e-08
3,0.00606582980440081,2.23187908289555e-07
3,0.00730546915560973,3.89892009136341e-07
3,0.0173200058304685,5.19570041511553e-06
3,0.0207997863693119,8.99863472730515e-06
3,0.00856128438398672,6.27504392680399e-07
3,0.0132082970722759,2.30430777231101e-06
3,0.0202740851995725,8.33343019130383e-06
3,0.0139161899633443,2.69501412288874e-06
3,0.0104548834022964,1.1427667119571e-06
3,0.0230403579332308,1.22311604904022e-05
3,-0.00687157793018177,-3.24466174559007e-07
3,-0.006185799577503,-2.36694155141285e-07
3,-0.00329595392466402,-3.58049767227199e-08
3,-0.00426829159910622,-7.77610730747417e-08
3,-0.00110054649232611,-1.33298475286475e-09
3,-0.00434241999749184,-8.1883326578614e-08
3,-0.00866885208797955,-6.51455535420295e-07
3,0.0144874908119449,3.04074163454752e-06
3,0.0148092892899647,3.2479000103395e-06
3,0.0200084997106832,8.0102039881388e-06
3,0.0237732570701695,1.3435878249513e-05
3,0.0504118433061656,0.000128114336887332
3,0.0567493472735419,0.000182760615508474
3,0.024352385570348,1.44419066657411e-05
3,0.0241561302118981,1.40955519303913e-05
3,0.0718506121982007,0.000370929537983082
3,0.03614655689242,4.72281360692664e-05
3,0.0521010968107884,0.000141429692770546
3,0.0341776105361038,3.99231765832801e-05
3,0.0176212926583343,5.47158678951186e-06
3,0.039027702448446,5.94454960823197e-05
3,0.0111883879476302,1.40056268150237e-06
3,-0.0189582787669407,-6.81391504966764e-06
3,-0.00765258649390716,-4.48151382820718e-07
3,-0.00817327019998337,-5.45993621905018e-07
3,-0.00695721684282526,-3.3674923595438e-07
3,0.0204225334814972,8.51782768719784e-06
3,0.0251190593150093,1.58493010373593e-05
3,0.0331956265660022,3.65799081832888e-05
3,0.0147773196338234,3.22691110542731e-06
3,0.0245753926982009,1.48423066081541e-05
3,0.0339973485486989,3.92948054839488e-05
3,0.0354813933544183,4.46685647893482e-05
3,0.0181531851326803,5.98216669054252e-06
3,0.0588232634732347,0.000203538863667064
3,0.0113680460298322,1.46912067360655e-06
3,0.0375436699511419,5.29188222344323e-05
3,0.0422209842453722,7.52636125066868e-05
3,0.0268771991898282,1.94156542594705e-05
3,0.0431223086674378,8.01873777718498e-05
3,0.056327522448729,0.000178715387851631
3,0.0075989839640971,4.38799964834797e-07
3,0.0100717951746433,1.02169355887767e-06
3,0.0323700052645922,3.39178496019886e-05
3,-0.0126303986583092,-2.01488923123477e-06
3,-0.0130242334273567,-2.20930926500221e-06
3,-0.00911383201436909,-7.57012513138285e-07
3,0.00565417062428142,1.80761830163527e-07
3,0.0012401659004029,1.90738936776842e-09
3,0.00431372386538871,8.02706950417336e-08
3,0.00389367868833633,5.9031025816273e-08
3,0.00999728369561339,9.99185330013259e-07
3,0.00536651283611067,1.54552671871141e-07
3,0.0130662845578304,2.23077791411234e-06
3,0.0224712453638406,1.1347009683522e-05
3,-0.00453204449040584,-9.30855981634518e-08
3,0.00271064259334029,1.99166721666066e-08
3,0.00912341032839738,7.59401802300523e-07
3,0.0167385497787702,4.68979095357263e-06
3,0.00965830486394895,9.00954231355704e-07
3,0.0129402685796257,2.16685510261856e-06
3,0.0207978919615638,8.99617621203827e-06
3,0.0102621080044513,1.08071142649405e-06
3,0.0136613946442117,2.54967667913057e-06
3,0.0138043527302085,2.63055958628039e-06
3,0.0289448878922242,2.42502162336521e-05
3,0.00972144803567728,9.18740533427733e-07
3,0.0172905867716649,5.1692697426409e-06
3,0.021513328447657,9.95686968542094e-06
3,0.0120044014963827,1.72990214395673e-06
3,0.0271660819832759,2.00484601197398e-05
3,0.0178651390794517,5.70189485571447e-06
3,0.0069496850315351,3.35656735775568e-07
3,0.0139553174976912,2.7178104535252e-06
3,0.0231719324892036,1.2441901636703e-05
3,-0.00636365803363726,-2.57703609354679e-07
3,0.00261055214738663,1.77908672369122e-08
3,0.00308631048920235,2.93980716834169e-08
3,0.00294142461859207,2.54491434032049e-08
3,0.00477909584538586,1.0915338826329e-07
3,0.0074415955277384,4.12095795436942e-07
3,0.00738353438365162,4.02525042868969e-07
3,0.0021878054721141,1.04719151046595e-08
3,0.0103182688147317,1.09855173462425e-06
3,0.00617916762931971,2.35933674142785e-07
3,0.0163537205405032,4.3737073065883e-06
3,0.00307048058014125,2.89480333865473e-08
3,0.00563021643377592,1.78474128630454e-07
3,0.0017919233741736,5.75384692229146e-09
3,0.0082410769952901,5.5969562886067e-07
3,0.019486306383568,7.39926497412261e-06
3,0.014702568654281,3.17818847249881e-06
3,0.0245645213040396,1.48226179872539e-05
3,0.0424098923841279,7.62783888461357e-05
3,0.0388983303658617,5.8856289804094e-05
3,0.00287446805306006,2.37504836936683e-08
3,0.00242114111075759,1.41925458580993e-08
3,0.00337984069381301,3.86090123245257e-08
3,0.0108654092604372,1.28273890748906e-06
3,0.00288227265991314,2.39444676883428e-08
3,0.00629050569379326,2.48918215785101e-07
3,0.0107812416733659,1.2531594804877e-06
3,0.0185318873055372,6.36442175579741e-06
3,0.00707038180416892,3.5345049942154e-07
3,0.0118789869374573,1.67624777465377e-06
3,0.0162147815710459,4.26317644859488e-06
3,0.0141067655345851,2.80725810427727e-06
3,0.0109770741992703,1.32269526683268e-06
3,0.0108077672929054,1.26243188632126e-06
3,0.0413019767805047,7.0455112808384e-05
3,0.017485903103934,5.34643390686813e-06
3,0.070769929687977,0.000354442909083339
3,0.0141147319009411,2.81201673119822e-06
3,-0.00352584668292128,-4.38318973999493e-08
3,-0.00688323767840528,-3.26120649088127e-07
3,-0.0286658182372643,-2.35555380302481e-05
3,-0.0136555095446755,-2.54638302462126e-06
3,-0.0262746714916424,-1.81389391728935e-05
3,-0.019779700878387,-7.73854226475182e-06
3,-0.00647240894071932,-2.71142656929792e-07
3,-0.0191172092867642,-6.98672233475233e-06
3,-0.0118316458312862,-1.65628657997263e-06
3,-0.0477356652523225,-0.0001087749614459
3,-0.0374962493675334,-5.27185536017937e-05
3,-0.00374916612843079,-5.26992038651891e-08
3,-0.00510823117890102,-1.33294316057611e-07
3,-0.00914814323273066,-7.65594610036674e-07
3,-0.0196730308804935,-7.61401662902093e-06
3,-0.0133174051221122,-2.36188546866115e-06
3,-0.00357700355211508,-4.57675973803163e-08
3,-0.0112469328888898,-1.42266389871349e-06
3,0.00863429144276008,6.43694963941619e-07
3,-0.00265561783864056,-1.8728229895742e-08
3,-0.00852104722134675,-6.18698290681445e-07
3,-0.00176937393088527,-5.53935084528707e-09
3,-0.00604282542147116,-2.2065823636246e-07
3,-0.00695666728050152,-3.36669441082973e-07
3,-0.00715955340961414,-3.6699301611169e-07
3,-0.00599048752263984,-2.14974280354405e-07
3,-0.00651120492373427,-2.76047673721261e-07
3,-0.00367073006457416,-4.94603683688847e-08
3,-0.000764988399503906,-4.4767675860786e-10
3,-0.0108704005571196,-1.28450749399478e-06
3,-0.00440705475658474,-8.55943975721481e-08
3,-0.000659002290640543,-2.8619416335537e-10
3,-0.000822725058034012,-5.568832751179e-10
3,-0.00372061198377421,-5.15042588087017e-08
3,-0.00697001743282264,-3.38611413712994e-07
3,0.0168560591341133,4.78925695458584e-06
3,0.00603975301198091,2.20321833551009e-07
3,-0.010337575572396,-1.10472985892081e-06
3,-0.00985482813728275,-9.57077627798473e-07
3,-0.0281221712348613,-2.22406023359913e-05
3,-0.0176762200457948,-5.52291294831233e-06
3,-0.00678618658697364,-3.12519693240981e-07
3,-0.0145303410002797,-3.06780265892656e-06
3,-0.00898075520041797,-7.24333506356414e-07
3,-0.00881353602192832,-6.84621528205195e-07
3,-0.00305546440610446,-2.85253962930927e-08
3,0.0701984661739909,0.00034592573222768
3,0.0231591533373543,1.24213281328517e-05
3,-0.0180860690574572,-5.9160597871011e-06
3,-0.0318127373636419,-3.21960890746315e-05
3,-0.0898356186380338,-0.000725012824195118
3,-0.0303590852483766,-2.79811812712685e-05
3,-0.0230590824448886,-1.22610049070147e-05
3,-0.0262912232838895,-1.81732407767504e-05
3,0.019379678759315,7.27846371902999e-06
3,-0.0205368670533142,-8.66168877712143e-06
3,-0.019494625543732,-7.40874577861668e-06
3,-0.0216989895794506,-1.02168856756653e-05
3,-0.00986476118396587,-9.59974567855251e-07
3,-0.0202665263213381,-8.32411269544203e-06
3,-0.0209641587090171,-9.21366285567074e-06
3,-0.0217550588722888,-1.02962905333361e-05
3,0.033440378953299,3.7395002873342e-05
3,0.0262377227225519,1.80625230587836e-05
3,-0.0498474198956689,-0.000123859137768583
3,-0.00263311191791273,-1.82560979121887e-08
3,-0.0167926180882618,-4.73538433371885e-06
3,-0.022998762895222,-1.21650368203149e-05
3,-0.0391137692724111,-5.98396450459179e-05
3,-0.0304735840036721,-2.82989683889595e-05
3,-0.00219977621348754,-1.06447509503586e-08
3,-0.00569016951281973,-1.84236473982512e-07
3,-0.014298948405139,-2.92356192554051e-06
3,-0.026413893190364,-1.84288082837924e-05
3,-0.0142384539039399,-2.88661258516946e-06
3,0.00402414134025225,6.51657920534954e-08
3,-0.0243963219340844,-1.45202156702417e-05
3,-0.00685410101995157,-3.21996761012398e-07
3,-0.0110740719685503,-1.35806959065653e-06
3,-0.0105512030237975,-1.17464311947638e-06
3,-0.0147992150663885,-3.24127623178046e-06
3,-0.00750814309119704,-4.23250639152988e-07
3,0.0643428916862763,0.000266380067700389
3,0.0137433829932731,2.59585809732945e-06
3,0.02207765973233,1.07611604479574e-05
3,0.0461511995415302,9.82989730058394e-05
3,0.0478287769149968,0.000109412722714308
3,0.107598199936921,0.00124570445495099
3,-0.0394180107777338,-6.12468999812862e-05
3,-0.0240425626393548,-1.3897678751546e-05
3,-0.0510431964606283,-0.000132988347550818
3,-0.129289456016125,-0.00216117196165693
3,-0.0735190108081258,-0.000397373558112551
3,-0.0168295933926129,-4.76673348206204e-06
3,-0.0550282214598029,-0.000166631241184569
3,-0.0571180381358204,-0.000186345901897724
3,-0.0249824321243975,-1.55920833750923e-05
3,-0.00371665258676325,-5.13400044822425e-08
3,-0.0368916528111477,-5.02093198650636e-05
3,0.0484376427545371,0.0001136446510316
3,0.0158217615311196,3.96063210313637e-06
3,0.0497882314359192,0.000123418453161147
3,0.0158499986404951,3.98187560038546e-06
3,0.0162831916704895,4.31736339527346e-06
3,0.0454014769512805,9.3585796995812e-05
3,0.00568370646249796,1.83609404271208e-07
3,0.0303677595439939,2.80051727445866e-05
3,-0.0043298220158616,-8.11727263910585e-08
3,-0.0205471028170689,-8.67464642966111e-06
3,-0.00687559291354093,-3.25035252413104e-07
3,0.0468152961255256,0.000102603771411085
3,0.0136243493064573,2.52899114746342e-06
3,0.03624772319825,4.76257906093303e-05
3,0.0644718094208447,0.000267984439182948
3,-0.0462281845774814,-9.87917129908058e-05
3,-0.0201407466561504,-8.17008735279144e-06
3,-0.0317232403387473,-3.19251263293429e-05
3,-0.0417750032982439,-7.29036846271737e-05
3,-0.020160682489009,-8.1943722671863e-06
3,-0.0120289811078018,-1.74055009947768e-06
3,0.0148086328452593,3.24746812487531e-06
3,0.0496440035107402,0.000122348991238925
3,-0.0091565713797267,-7.67712577675493e-07
3,-0.0302855670531071,-2.77783936997299e-05
3,-0.0311161860965194,-3.01272215111252e-05
3,-0.0237499248633303,-1.33963572300689e-05
3,0.0289739990254486,2.43234583400377e-05
3,0.00834845384794894,5.81859530121346e-07
3,-0.00718855076046546,-3.71470244204619e-07
3,-0.00716725440891777,-3.68178531675337e-07
3,-0.0106922946846884,-1.22239836072993e-06
3,-0.00762964759588118,-4.44133402216599e-07
3,0.116897778907702,0.00159741875298674
3,0.00173983655434374,5.26653959523857e-09
3,0.0630017813409356,0.000250068211026256
3,0.130325835036098,0.00221356127662716
3,0.0505352705055808,0.000129057659331747
3,0.0844290672469719,0.000601832967347636
3,0.041800595465607,7.30377533084461e-05
3,0.163303353755007,0.00435497144515783
3,0.0694556451733543,0.000335060050401132
3,-0.0931855730188076,-0.000809181677528983
3,-0.0280680482012367,-2.2112438651256e-05
3,-0.0417933410391791,-7.2999733152047e-05
3,-0.129670293543518,-0.00218032624229066
3,-0.0672780667987815,-0.000304523288629695
3,-0.0161533997710182,-4.214944145375e-06
3,0.0918229220283201,0.000774200285014362
3,0.0247228850292372,1.51111476024376e-05
3,0.0395998353384224,6.20983613561226e-05
3,0.0657787863701759,0.000284614858683329
3,0.0928606353500331,0.000800746321599578
3,0.116190981819489,0.00156861825402629
3,-0.0228712726108546,-1.19638508814275e-05
3,-0.0342255472380386,-4.00913981942286e-05
3,-0.062627810426765,-0.000245641468433723
3,-0.0562947749545318,-0.000178403866287903
3,0.00918116864723542,7.73916123735821e-07
3,0.0100230996541555,1.00694591639316e-06
3,0.0229742667546501,1.21262070143833e-05
3,0.0047483292280867,1.07058824400027e-07
3,0.0212571784895128,9.60543102046465e-06
3,-0.00358022838067305,-4.58914936143603e-08
3,-0.0156875854980608,-3.860720105383e-06
3,-0.0046408698516674,-9.99535372084889e-08
3,0.0125093234964721,1.95749864956625e-06
3,0.0152030168624145,3.5138994627307e-06
3,0.0122825213059532,1.85294521291826e-06
3,0.0117437991181417,1.61966740240235e-06
3,0.0302605124138366,2.77095092020799e-05
3,0.0128154713223498,2.10476565955831e-06
3,0.0349974140052799,4.28654971715599e-05
3,0.0288978803879107,2.4132258425873e-05
3,-0.00769770983410546,-4.56125769336588e-07
3,-0.0087855725214216,-6.78125700390001e-07
3,-0.011298552462203,-1.44234256272595e-06
3,-0.00273464977053861,-2.04505569958693e-08
3,0.0224024871002235,1.12431681979166e-05
3,0.0325521581837906,3.44936666332047e-05
3,0.0440423653324925,8.54302948435792e-05
3,0.0471991742337722,0.000105148529071456
3,0.0308650099163415,2.94035158049896e-05
3,0.0189742865242183,6.83118997614881e-06
3,0.0695052279780515,0.000335778138021764
3,0.0476626574211259,0.000108276636907467
3,0.0423874614148184,7.61574198952306e-05
3,0.021199528992999,9.52749294594983e-06
3,0.0521111709843635,0.000141511748401208
3,0.0432440200037766,8.0868274894635e-05
3,0.0125335061040313,1.96887312359336e-06
3,-0.0237875347210747,-1.34601005946387e-05
3,-0.0191135293645367,-6.98268843331069e-06
3,0.0481764232708674,0.000111815925163993
3,0.00149878909980363,3.36683302015574e-09
3,0.0201194840429608,8.14423914355066e-06
3,0.0334521453779362,3.74344904930941e-05
3,0.0488239061732815,0.00011638514903391
3,0.05701573655282,0.000185346426530518
3,0.0180784042145737,5.90854132846026e-06
3,0.0721448405376731,0.000375505094497242
3,0.00939676816081441,8.29727598577851e-07
3,0.06276495243579,0.000247258717417751
3,0.0435499898426769,8.25969810818e-05
3,0.0211367245923453,9.44306688924114e-06
3,0.161682954040556,0.00422661515746838
3,0.079130313623671,0.000495482888837732
3,0.00803327532910092,5.18415473972044e-07
3,0.0143047775504314,2.92713886316421e-06
3,0.0406156399332824,6.70007865182969e-05
3,-0.038615918232977,-5.7583637937831e-05
3,0.0326124098482787,3.46855571346049e-05
3,0.00187114880574714,6.55126218179124e-09
3,0.0197448648134841,7.69772680622433e-06
3,0.0381410589757184,5.54853386199002e-05
3,0.0307344294480099,2.90319004463092e-05
3,0.0253569371592176,1.63038579589755e-05
3,0.0315548930019637,3.14195626603387e-05
3,0.044592216687224,8.86700973418021e-05
3,0.030290465053031,2.77918734449377e-05
3,0.0332402237007467,3.67275377282445e-05
3,0.0315323100194767,3.13521525362874e-05
3,0.0838874987085166,0.00059032576068623
3,0.0711285157052579,0.000359858063102241
3,0.0351996242013594,4.36128111262701e-05
3,0.0183964424879098,6.2258914046804e-06
3,0.0326350853767318,3.47579584383179e-05
3,0.0687031183289189,0.000324286857641587
3,0.00875956725808636,6.72121758193641e-07
3,0.00846190182504422,6.05904177788781e-07
3,0.00684512226316917,3.20732986996719e-07
3,0.0506658515573049,0.000130060685635054
3,0.0128644331264764,2.1289818603351e-06
3,0.00469444184284417,1.03455096346439e-07
3,0.0149217109479328,3.32243022291261e-06
3,0.0180729710945093,5.90321583057237e-06
3,0.0225003537993763,1.13911623412521e-05
3,0.0201413085557621,8.17077117505496e-06
3,0.0104131304824636,1.12912996039218e-06
3,0.00445259048861204,8.82751090565306e-08
3,0.0275421211223455,2.08925837416403e-05
3,0.0158521241915591,3.98347777370609e-06
3,0.0465972308590606,0.00010117665700489
3,-0.00557279232521913,-1.73068718143054e-07
3,-0.0027325323869856,-2.04030904194727e-08
3,-0.00795450351562425,-5.03314259147487e-07
3,-0.00778951248539992,-4.72640391400016e-07
3,-0.0187758922978353,-6.61914288585528e-06
3,-0.0384543473921396,-5.6863859891399e-05
3,-0.00578000713221033,-1.93101266828089e-07
3,-0.00869786306750888,-6.58017885914623e-07
3,-0.0164633472474345,-4.46225531460332e-06
3,-0.00477572301411044,-1.08922447384568e-07
3,-0.016165401391115,-4.22434595913354e-06
3,-0.0181018291240745,-5.93153889969147e-06
3,-0.00710029655118013,-3.57955849308174e-07
3,-0.00335708461263557,-3.78344009784457e-08
3,-0.0133544208859976,-2.38163486189703e-06
3,-0.00897998035634493,-7.24146039793788e-07
3,-0.00828249802783641,-5.68177489395601e-07
3,0.0123600755328152,1.88826687356544e-06
3,-0.00397918364953339,-6.30060060028133e-08
3,-0.00574399678290147,-1.8951455235381e-07
3,-0.00921028160570787,-7.81301624043305e-07
3,-0.0492494108361485,-0.000119454666015052
3,-0.0166012889099955,-4.57536159884944e-06
3,-0.0397778254234222,-6.29394744506442e-05
3,-0.0161516032176292,-4.21353796522578e-06
3,-0.0117427357819295,-1.61922748639708e-06
3,-0.0196782735705604,-7.62010545717091e-06
3,-0.0167875796397667,-4.73112320564077e-06
3,-0.0361418264760231,-4.72095965845063e-05
3,-0.0303712294265015,-2.80147736269981e-05
3,-0.00760468344256986,-4.39788047140897e-07
3,-0.00476800540248622,-1.0839524128993e-07
3,-0.00848736111203832,-6.11389592423319e-07
3,-0.0180860859608513,-5.91607637471606e-06
3,-0.00275265209405123,-2.08571024296646e-08
3,-0.0114361102856554,-1.4956673204408e-06
3,0.00606057156412656,2.22607991616404e-07
3,0.00974444847552779,9.25277050911636e-07
3,-0.00412575981838913,-7.02282466241557e-08
3,-0.00657439075933081,-2.84162353131472e-07
3,-0.00913595148002062,-7.62537758142528e-07
3,-0.00258680826693423,-1.73098267279828e-08
3,-0.0106218951892902,-1.19841168580068e-06
3,-0.0065956161349623,-2.86923496954422e-07
3,-0.0150816026645368,-3.43038199672277e-06
3,-0.00715950322048145,-3.66985298200665e-07
3,-0.0099485560893076,-9.84646084925626e-07
3,-0.00604718973871202,-2.21136680552294e-07
3,-0.000672481262689006,-3.04116906635295e-10
3,-0.0102229988690898,-1.06840260499368e-06
3,-0.0103789429293499,-1.11804522646573e-06
3,-0.00070342607466726,-3.48061019750108e-10
3,-0.000197444326897382,-7.6972214144009e-12
3,-0.00822879640226993,-5.57197233271289e-07
3,0.0176425494691826,5.49141203990291e-06
3,-0.00830960621355573,-5.73774614797555e-07
3,-0.0140978727732214,-2.80195244953429e-06
3,-0.00769210592130257,-4.5513031924081e-07
3,-0.0146209484640496,-3.12555135409419e-06
3,-0.0161269756428433,-4.19429323597433e-06
3,-0.0207410299674605,-8.92259040409975e-06
3,-0.0165710253828782,-4.55038504770887e-06
3,-0.00820613751984452,-5.52606987395317e-07
3,-0.0083244417445119,-5.76853265171726e-07
3,-0.0173509883819891,-5.22363300150052e-06
3,-0.00366618245273782,-4.92767689134803e-08
3,0.0140662220255012,2.78312302638168e-06
3,0.0189184959586879,6.77110922763387e-06
3,-0.00392155080867779,-6.03078073260175e-08
3,-0.00573219397459978,-1.88348703400959e-07
3,-0.0223113523456672,-1.11065118471813e-05
3,-0.00269661203180324,-1.96089980711094e-08
3,-0.0121066739295135,-1.77449400720795e-06
3,-0.0066139619013024,-2.89324403690679e-07
3,-0.0164456467545924,-4.44787806286556e-06
3,-0.022854496538934,-1.19375437435427e-05
3,-0.0282210087649747,-2.24759263797983e-05
3,-0.0293433313881505,-2.52655208134479e-05
3,-0.00723222566484156,-3.7828220032135e-07
3,-0.00564783115833109,-1.80154500175938e-07
3,-0.00154682023656759,-3.70100383857466e-09
3,-0.0101423418106917,-1.04331326295425e-06
3,0.0172766105508093,5.15674469520228e-06
3,0.0225546550389666,1.14738341378912e-05
3,0.00938334195803627,8.26176106842017e-07
3,0.00965879635925064,9.01091782606927e-07
3,-0.00951268491105757,-8.6081402755853e-07
3,-0.0244491181304574,-1.46146896305915e-05
3,-0.0205381159888084,-8.66326913722528e-06
3,-0.0293105366593,-2.51809036098597e-05
3,-0.0197093248594985,-7.65623479390171e-06
3,-0.00871966492749531,-6.62978415805617e-07
3,-0.0185576652314311,-6.39101752110467e-06
3,-0.0113656422069348,-1.46818891474349e-06
3,-0.00250778154422554,-1.57713585686492e-08
3,0.0149523383270141,3.34293048604285e-06
3,0.014118418195645,2.81422052010262e-06
3,0.0213111601421704,9.67879469476042e-06
3,-0.0369551458575124,-5.04690072668067e-05
3,-0.0275621407031049,-2.09381755311495e-05
3,-0.0496004209739468,-0.000122027043016165
3,-0.0213549374788967,-9.73856377849919e-06
3,-0.0603275550176468,-0.000219556941946839
3,-0.0244836338543398,-1.46766733458469e-05
3,-0.0351157944541788,-4.33019540490602e-05
3,-0.0416045395926504,-7.20148666843307e-05
3,-0.0277491517778723,-2.13672748827396e-05
3,-0.0393623377859915,-6.0987755662851e-05
3,-0.0278025752941164,-2.14909234240524e-05
3,0.0416436560801002,7.22181823316321e-05
3,0.120604724137129,0.00175425595272785
3,0.0320966532266225,3.30658164323408e-05
3,0.0549529559401394,0.000165948440221338
3,0.0547730821197876,0.000164324204687198
3,-0.0388635474832988,-5.86985430824931e-05
3,-0.0851273552993576,-0.000616889564119129
3,-0.120220917585206,-0.00173756122011131
3,-0.0497843412495053,-0.000123389525645782
3,-0.0374696552730018,-5.26064617453112e-05
3,-0.00960521001986671,-8.86177248190211e-07
3,0.0207781743539622,8.97061377188851e-06
3,0.00664176692992393,2.92988715897303e-07
3,0.0838112337126192,0.000588717167945704
3,-0.029537122681838,-2.57694150540424e-05
3,-0.0336007127705411,-3.79354701195013e-05
3,-0.015607627122991,-3.80198713289357e-06
3,-0.0190091756726545,-6.86894205325652e-06
3,-0.0178627900758051,-5.69964600490934e-06
3,-0.0183096907198052,-6.13822813203853e-06
3,0.0406541689599504,6.71916433942619e-05
3,0.0625086699696634,0.000244242240301715
3,0.0563799120550789,0.000179214515420585
3,-0.0943860879167805,-0.000840860512063794
3,-0.005974949211353,-2.13305794861915e-07
3,-0.0216193418887948,-1.01047927043855e-05
3,-0.0378535401991704,-5.42399783551256e-05
3,-0.0370389226534945,-5.08130235588667e-05
3,-0.0308716354824008,-2.94224553834337e-05
3,-0.00558067224096459,-1.73803913055952e-07
3,-0.00664282725634643,-2.93129061054933e-07
3,-0.0165922538352367,-4.56789538820152e-06
3,-0.0303715735726395,-2.8015725970935e-05
3,-0.00368091768926358,-4.98733244433976e-08
3,0.00588325729489416,2.03635516244197e-07
3,-0.0239279520031356,-1.36998744332207e-05
3,-0.0082876376066381,-5.6923586771093e-07
3,-0.0133094810571702,-2.35767190008954e-06
3,-0.0125657771337201,-1.9841205646992e-06
3,-0.00396263846500331,-6.22233447793465e-08
3,0.0852891352475208,0.000620413348455282
3,0.0974101736552245,0.000924299999321017
3,0.0241577016575932,1.40983030128539e-05
3,0.0175126318920583,5.37098892999078e-06
3,0.029818789498853,2.65136810485647e-05
3,0.0460113083685966,9.7407803172627e-05
3,0.112489678447492,0.0014234362645075
3,0.123495489116678,0.00188344647917844
3,0.0687896770132005,0.000325514104277812
3,0.203737188006714,0.0084568947010378
3,-0.0501328074376782,-0.000125998703797345
3,-0.0679384290779974,-0.000313578661296167
3,-0.0818336207126254,-0.000548018602197905
3,-0.152462005995391,-0.00354392799115765
3,-0.0927482241891544,-0.000797841843181093
3,-0.0531681419685041,-0.000150298432325977
3,-0.079516380926888,-0.000502770533661729
3,-0.0817858183218565,-0.000547058802315812
3,-0.00804262526391168,-5.20227734032409e-07
3,-0.058425676322462,-0.000199439531436659
3,0.0128196639252156,2.10683206825171e-06
3,0.0395529533726881,6.1878068928766e-05
3,0.0150006118491059,3.37541301499285e-06
3,0.0162902163580691,4.32295343228054e-06
3,0.0484312431849961,0.000113599612871866
3,0.0633219122424472,0.000253899628025734
3,0.0192912705542578,7.1793065177678e-06
3,0.0287562711015278,2.37792256392454e-05
3,0.0343005510029505,4.03555517796249e-05
3,0.136817936868379,0.00256111518862338
3,0.0782534644215731,0.000479193282052017
3,0.0128972328197064,2.14530783689784e-06
3,0.0858118957194771,0.000631891464438872
3,-0.0074297527798896,-4.10131465077883e-07
3,-0.0079270812422442,-4.98126822276844e-07
3,0.0365145879526839,4.86854527055095e-05
3,0.048189261864843,0.000111905342876867
3,0.0162830775238073,4.3172726005578e-06
3,0.0332875406271442,3.68846042842411e-05
3,0.0405056980639597,6.64581676932683e-05
3,0.0555268694382146,0.000171202288988038
3,0.0466664528660449,0.0001016282328053
3,0.103362680330407,0.00110431071952157
3,-0.0370650095862202,-5.0920463758692e-05
3,-0.0199081966956632,-7.89034093189284e-06
3,-0.0311678917829897,-3.02776581943581e-05
3,-0.0406705430104126,-6.72728632963031e-05
3,-0.00441293066817432,-8.59372224383688e-08
3,0.0226263059130585,1.1583530960337e-05
3,0.0367163155129148,4.9496817916088e-05
3,0.0562907224035663,0.000178365340223146
3,0.0817087984733285,0.000545514718499548
3,-0.0115709018497642,-1.54917909931703e-06
3,-0.0380402676098887,-5.50466242000974e-05
3,-0.0387282440448374,-5.80875981090652e-05
3,-0.00664602671059839,-2.93552813516807e-07
3,0.0105922298433914,1.18839875507687e-06
3,0.041110368165015,6.94790862797974e-05
3,0.0137533088936858,2.60148658981072e-06
3,0.0796397358936465,0.00050511403205357
3,-0.00973535191923575,-9.2268819838746e-07
3,-0.00961826468394048,-8.89795433550906e-07
3,-0.00322606578841845,-3.35752812131001e-08
3,0.0358537642445882,4.6089741824508e-05
3,0.0885061351587458,0.000693298291284956
3,0.0015294447388958,3.57767898283772e-09
3,0.0472211415961336,0.00010529541158058
3,0.0695084648936178,0.000335825052597747
3,0.0656640629264629,0.00028312828144731
3,0.0943556766018473,0.000840047995005255
3,0.174406228961667,0.00530500717263498
3,0.0363489578960644,4.80259421272925e-05
3,0.0799504049248719,0.000511048364756707
3,0.0409980916265143,6.89113765204569e-05
3,0.192572214830559,0.00714135916947325
3,0.0556884112516395,0.000172700853512119
3,-0.0587919686416418,-0.000203214179558835
3,-0.0204067191661738,-8.4980555078963e-06
3,-0.0302024096975645,-2.75502017477959e-05
3,-0.0928557046087921,-0.00080061877358355
3,-0.0108317841209176,-1.27086666316388e-06
3,0.0401486296632948,6.47160765603772e-05
3,0.0743747729059153,0.000411412002887288
3,0.023250479535365,1.25688557975466e-05
3,0.0377272843839308,5.36990542823159e-05
3,0.0722727502989341,0.000377505901768384
3,0.0441545769992434,8.60849409195038e-05
3,0.062932795718067,0.000249247651914033
3,0.0666380008025994,0.000295914249098196
3,0.117148733791727,0.00160772881864611
3,0.0733063749921274,0.000393935602331464
3,-0.0177892947599812,-5.62958257378604e-06
3,-0.0264601517855477,-1.8525800947404e-05
3,-0.0479780674659086,-0.000110440471583001
3,-0.00969620984901425,-9.1160357205542e-07
3,0.0157479763386881,3.90547858503761e-06
3,0.0186227760529502,6.45852376782217e-06
3,0.0236051478893546,1.31528593817555e-05
3,0.0892705471756691,0.000711417575610063
3,0.0442709017020517,8.67671041470248e-05
3,0.0120461658561771,1.74802047456713e-06
3,0.0671557926216052,0.000302865941555984
3,-0.00686844089674624,-3.24021998573986e-07
3,-0.00676646650868787,-3.09803136075744e-07
3,0.00744578605494611,4.12792368345501e-07
3,0.0116761595009603,1.5918423584749e-06
3,0.0186829285908104,6.52131024117823e-06
3,0.0195345664650276,7.45437663445115e-06
3,0.0143388816667098,2.94812465039098e-06
3,0.0142000170311178,2.86329830247612e-06
3,0.0299111171760979,2.67607266873508e-05
3,0.0161945508509544,4.24723921890235e-06
3,0.0254446762392476,1.64736861493473e-05
3,0.0224767952752767,1.13554191578311e-05
3,-0.00685796269119184,-3.22541316598685e-07
3,-0.00775599002918227,-4.66564537818658e-07
3,-0.00224258223155341,-1.12783386407663e-08
3,0.0296192000733571,2.59848357513779e-05
3,0.0207843267196662,8.97858466080606e-06
3,0.0189522720396749,6.80744035386287e-06
3,0.0178130026433097,5.65212030298742e-06
3,0.0415745269931207,7.18591292626013e-05
3,0.0722228659793178,0.000376724751336799
3,0.0416010582041154,7.19967899968937e-05
3,0.035815226731987,4.59412824709333e-05
3,0.0228044307265292,1.18592631495073e-05
3,0.100435813437114,0.00101313146589451
3,0.0468282726710264,0.000102689116055453
3,0.05324088443502,0.000150916173135762
3,0.0287102202023713,2.36651668299046e-05
3,0.03765870104556,5.34067324604637e-05
3,0.0334324335315658,3.73683540893223e-05
3,0.0111662194475612,1.39225400578268e-06
3,-0.0208732530780442,-9.09432386737091e-06
3,-0.00377085634606842,-5.36191547776819e-08
3,0.0199169875728782,7.90079797919331e-06
3,0.0442902233954817,8.68807602361093e-05
3,0.00159982347285043,4.09464442106261e-09
3,0.0395030275981563,6.16440475163102e-05
3,0.0139106322195386,2.6917864685517e-06
3,0.0254623193614924,1.65079780579658e-05
3,0.0543577724070045,0.00016061457498916
3,0.0426418552813697,7.75368718328732e-05
3,0.0655585916484257,0.000281766168240937
3,0.0215301703304614,9.98027244427997e-06
3,0.103302301928559,0.00110237662952145
3,0.0161243728054019,4.19226273096788e-06
3,0.0611055534660749,0.00022816133341858
3,0.0542037712959315,0.000159253326442
3,0.0283649219187447,2.28215310613815e-05
3,0.115779676365337,0.00155201885761225
3,0.0606203458138541,0.000222769242723817
3,0.0154113288144056,3.66033015572932e-06
3,0.0126283986365483,2.01393221055891e-06
3,0.0356396970596127,4.52691157604478e-05
3,-0.00754916744274534,-4.3022651716458e-07
3,0.00674084909468334,3.06297755579369e-07
3,0.000449053681868423,9.05513198369302e-11
3,0.00834680442531512,5.81514720402493e-07
3,0.00380982483672363,5.52987132877833e-08
3,0.0056181545578627,1.77329523865162e-07
3,0.0139344175007021,2.70561785303531e-06
3,0.00794544869743886,5.01597407842728e-07
3,0.00678957458831688,3.12988003018046e-07
3,0.0101585057208974,1.04830942048375e-06
3,0.0172036966767759,5.0917295797583e-06
3,0.00663021811184496,2.91463010507905e-07
3,0.00930173109400107,8.04806250573196e-07
3,0.0095138891681793,8.61140992870181e-07
3,0.01350590645198,2.46360576571623e-06
3,0.0122511727790745,1.83879364602757e-06
3,0.0151825198534433,3.49970608880936e-06
3,0.00365140005192636,4.86831030417032e-08
3,0.00643848744259988,2.66901834595644e-07
3,0.0134310245058692,2.42285500398589e-06
3,0.0183700190586997,6.19910254748918e-06
3,0.0280053893597221,2.19646782140195e-05
3,0.0187150037676465,6.55495563474424e-06
3,0.024980631116294,1.55887114723091e-05
3,0.0630539558623929,0.000250690002834022
3,0.0737964965037254,0.000401890029970779
3,-0.00171143555398136,-5.01281468513127e-09
3,-0.00420952627095791,-7.45932745715634e-08
3,-0.0164222634303384,-4.42893231419476e-06
3,-0.0155811356811227,-3.78266018572724e-06
3,-0.0049417757879147,-1.2068383759319e-07
3,-0.00289591923912242,-2.42861872128045e-08
3,-0.00868018123545934,-6.54012996998739e-07
3,-0.00302666823088313,-2.77264619509905e-08
3,-0.0136800134239085,-2.56011556855476e-06
3,-0.0116536344487879,-1.58264741613701e-06
3,-0.00223642579514887,-1.11857080111555e-08
3,-0.00338169003558229,-3.86724238944197e-08
3,-0.0114177287824225,-1.48846685265584e-06
3,-0.0092381021678228,-7.88403026764667e-07
3,-0.00242477154568976,-1.42564856422959e-08
3,-0.00522683330933164,-1.42795969786915e-07
3,0.00419105953476496,7.36158770073077e-08
3,-0.00282359455941418,-2.25116334797543e-08
3,-0.00623014512331994,-2.41821265364343e-07
3,-0.00302176614521571,-2.75919601185615e-08
3,-0.00556932716912108,-1.72746077032129e-07
3,-0.00472892871286246,-1.05751929884013e-07
3,-0.00163255720152854,-4.35116168002331e-09
3,-0.000381148920921611,-5.53712188818235e-11
3,-0.00587374935859005,-2.0264982443063e-07
3,-0.00457050886361494,-9.54758792473638e-08
3,-0.000538015406737284,-1.55734250546114e-10
3,-0.000298364419220436,-2.65607964261733e-11
3,-0.00563163775273962,-1.78609327361763e-07
3,-0.00748027199637183,-4.18554648577584e-07
3,-0.00479440983920979,-1.10206057910015e-07
3,-0.0102624055573053,-1.0808054358613e-06
3,-0.0124921898015664,-1.9494662564778e-06
3,-0.0101176634494619,-1.0357160044724e-06
3,-0.00926120884116401,-7.94333782282382e-07
3,-0.0178194374077503,-5.65824782736313e-06
3,-0.0141024385928947,-2.8046757015216e-06
3,-0.000614349713892026,-2.31871291534328e-10
3,0.0103085244277529,1.09544231561569e-06
3,0.00642178761442752,2.64830386646172e-07
3,-0.0129725992445212,-2.18313707765433e-06
3,-0.0128011946771139,-2.09773926250327e-06
3,-0.0176535489176855,-5.50168949506928e-06
3,-0.0120337945985261,-1.74264041985525e-06
3,-0.00984076098203597,-9.5298496872195e-07
3,-0.0397248445210737,-6.26883181334943e-05
3,-0.00923770264629355,-7.88300742652012e-07
3,-0.00189076859835232,-6.75950888049223e-09
3,0.0402157613075339,6.50412506735056e-05
3,0.017030349200229,4.9393597593241e-06
3,0.0290623669915556,2.45466905611024e-05
3,-0.0387106711410933,-5.80085624058116e-05
3,-0.052827487173896,-0.000147427961227676
3,-0.0777505186301754,-0.000470013014893213
3,-0.0222188386706659,-1.09689249940799e-05
3,0.0381559604198494,5.55503972287066e-05
3,0.0141694099302,2.84482328940281e-06
3,0.0109154418195434,1.30054072873011e-06
3,0.0286783712827448,2.35864971932357e-05
3,0.0561581321279491,0.000177107911983302
3,-0.0209179447106501,-9.15286448314816e-06
3,-0.0228487392999105,-1.19285245143016e-05
3,-0.049226975186826,-0.000119291487071064
3,-0.0786987150692942,-0.000487419528002421
3,-0.0485326724610654,-0.000114314841744254
3,-0.0213233001769956,-9.69534487575113e-06
3,-0.145879152787097,-0.00310441445723779
3,-0.0569699395474253,-0.00018490015526246
3,-0.0364161180681536,-4.82926397602293e-05
3,0.012101698183393,1.77230699777954e-06
3,0.00687249532350304,3.24596145948097e-07
3,0.0264211067953208,1.84439110689505e-05
3,0.00709168972842636,3.56655708047075e-07
3,0.0126664914111382,2.03221194113576e-06
3,0.0288598612116045,2.40371356672705e-05
3,-0.00325837603808319,-3.45942253350433e-08
3,0.0212565154707285,9.60453225830327e-06
3,0.0107551474543397,1.244082287718e-06
3,0.0233644378653677,1.27545755272205e-05
3,0.0621777706468235,0.000240383934764082
3,-0.0215453649966076,-1.00014177423041e-05
3,-0.0216841445598044,-1.01959308571264e-05
3,-0.0643913871881575,-0.000266982837037069
3,-0.0319029948025911,-3.24709024815392e-05
3,-0.00990602167139477,-9.72070629196185e-07
3,0.0074118752050602,4.07177991016931e-07
3,0.00371297486095013,5.1187748375386e-08
3,-0.00822066484375987,-5.55547026187752e-07
3,-0.00308377824008246,-2.9325769645996e-08
3,0.0335003854294176,3.75966726594215e-05
3,0.000866858668312009,6.51395702525588e-10
3,0.028440991811448,2.30056342992014e-05
3,0.0395490454671864,6.1859729735265e-05
3,0.0766376019130783,0.00045011731541158
3,0.0994030333411147,0.00098219769825046
3,0.032370884559108,3.39206136969312e-05
3,-0.0297279499523415,-2.62721057471227e-05
3,-0.0190729638994056,-6.93832374414158e-06
3,-0.0535422449331002,-0.000153493408188507
3,-0.0625021130548108,-0.000244165388198261
3,0.0285380747511277,2.32420276532175e-05
3,0.0133588481233903,2.38400431519144e-06
3,0.0230349032385859,1.22224755404446e-05
3,0.0269591735882128,1.959384757984e-05
3,0.0613008084634277,0.000230355510985013
3,0.0370671079282418,5.09291124491256e-05
3,-0.0168549054860895,-4.78827367516555e-06
3,-0.0475521222751077,-0.000107525064925485
3,-0.0327379478422715,-3.50876560672334e-05
3,0.00547668513181714,1.64268132159631e-07
3,0.0103948483376038,1.12319321648527e-06
3,0.026933104518545,1.95370617581408e-05
3,-0.00359204030321948,-4.63472107380191e-08
3,0.00828127254589054,5.67925323357832e-07
3,0.0210850114351151,9.37392604050848e-06
3,0.0220461452439377,1.0715143531772e-05
3,0.0325793942418224,3.45803205901814e-05
3,0.0237816469855515,1.34501083991916e-05
3,0.0212961933065059,9.65841674960026e-06
3,-0.0227808923575485,-1.18225782154447e-05
3,-0.00978236772603484,-9.36120924117639e-07
3,-0.00607787549206636,-2.24520188087036e-07
3,0.0279603757019139,2.18589354758278e-05
3,0.0405695463684749,6.67729332877779e-05
3,0.0889951187416447,0.000704853013019311
3,0.112793805158674,0.00143501269847663
3,0.184257522826152,0.00625569670302429
3,0.0967449918623735,0.00090549379219898
3,0.0242433041796774,1.42487062038586e-05
3,0.066760613323061,0.000297550684405575
3,0.0600821635541694,0.000216888582092638
3,0.0370921299415016,5.10323206115385e-05
3,-0.0499352080775572,-0.000124514690008665
3,-0.0235038352059721,-1.29842300145214e-05
3,0.0226227835944608,1.15781220523968e-05
3,0.00122362492300364,1.83208214647199e-09
3,0.0321070482367851,3.30979535053043e-05
3,0.0206951204924359,8.86347201787115e-06
3,0.0322331915468207,3.34895974289534e-05
3,0.0719577796827781,0.000372591774583225
3,0.00707146947344622,3.53613643252819e-07
3,0.0479327299401567,0.000110127680679526
3,0.00909427343382556,7.52149244241681e-07
3,0.077932470084886,0.00047332051078911
3,0.0413644363821987,7.07752371844672e-05
3,0.00805977878527529,5.23563504468589e-07
3,0.0159277717981668,4.04077877601458e-06
3,0.0852610602592099,0.000619800877787302
3,-0.0185046735951868,-6.33642482621845e-06
3,0.0059379167871959,2.09364151583876e-07
3,0.0006785793397807,3.12465374558439e-10
3,0.00139869113900092,2.73631109017505e-09
3,0.0042358674515157,7.60023612501432e-08
3,0.0148833256719128,3.29685582071289e-06
3,0.00989607184747935,9.69144463536091e-07
3,0.0401312418025066,6.46320298418812e-05
3,0.0329224018959741,3.56840826520021e-05
3,0.0127997630566579,2.09703553976432e-06
3,0.012808206280504,2.10118813751868e-06
3,0.0459965908629555,9.73143604018675e-05
3,-0.00206313676148278,-8.78181032065312e-09
3,-0.0132946267476288,-2.3497867279955e-06
3,-0.0131816934290166,-2.29041205424991e-06
3,-0.00907093064398725,-7.46372344570979e-07
3,-0.00475327792785117,-1.07393902890204e-07
3,-0.0120532860752471,-1.7511219544169e-06
3,0.00505232521062296,1.28965602974365e-07
3,-0.00478144584840928,-1.09314487948855e-07
3,-0.00937896732624884,-8.25021124466644e-07
3,-0.00157195544711546,-3.88437096223466e-09
3,-0.00350006401835835,-4.28773527177023e-08
3,-0.00530700878185643,-1.49468411447401e-07
3,-0.0114860027733713,-1.51532835691388e-06
3,-0.00639593522402361,-2.61644837491013e-07
3,-0.0085507126354154,-6.25182674318056e-07
3,0.0108745887847089,1.28599277949152e-06
3,-0.0539767819170279,-0.000157260975528503
3,-0.0232535984115829,-1.2573914527293e-05
3,-0.0244468871662247,-1.4610689256273e-05
3,-0.0653684181560766,-0.000279321217862238
3,-0.0345114054496627,-4.11043644745901e-05
3,-0.0411037881938459,-6.94457299342393e-05
3,0.0213308727384434,9.70567789228885e-06
3,0.122414905403045,0.00183443743309787
3,-0.019546567458445,-7.46812378810284e-06
3,-0.0513923233525482,-0.000135735908900189
3,-0.0235257001111916,-1.30205002411394e-05
3,0.00357514643420063,4.56963491667952e-08
3,0.0325566288851317,3.45078806273467e-05
3,0.0079603028302549,5.04415901618407e-07
3,0.0527372501422933,0.000146673765770064
3,0.0455224456581867,9.43358481526251e-05
3,-0.0260026456485305,-1.7581365921196e-05
3,-0.0333532378031719,-3.710342489651e-05
3,-0.0211204658797134,-9.42129236484015e-06
3,-0.0391354939762696,-5.993940945946e-05
3,0.0322800714298064,3.36359316417261e-05
3,0.0120698926661958,1.75836983267358e-06
3,0.05544353096953,0.000170432589553727
3,0.0328435076745815,3.54281602353281e-05
3,0.0222134045750275,1.09608789015416e-05
3,0.0261229680101874,1.78265604323348e-05
3,0.148250200192064,0.00325826096514392
3,0.119688751083176,0.00171458889196046
3,0.0421279179267868,7.47670054991717e-05
3,0.0116400940336696,1.57713716606161e-06
3,0.0145464714356289,3.07803090073569e-06
3,0.0782690313020278,0.000479479315211421
3,0.054789538222468,0.000164472358583037
3,0.0266769079034196,1.89848193264112e-05
3,0.0295167641068326,2.57161667682465e-05
3,0.0194471477194063,7.35474702504555e-06
3,0.0932200135827119,0.000810079208348063
3,0.0494313891798462,0.000120783732746302
3,-0.00546752470218938,-1.63445234115747e-07
3,-0.00612438290717412,-2.29713758252893e-07
3,-0.0173642788450043,-5.23564575100796e-06
3,-0.0250644531450254,-1.57461614802671e-05
3,-0.015307264814745,-3.58668128432317e-06
3,-0.00482685842019287,-1.12458861174905e-07
3,-0.0117835115406218,-1.63615406043877e-06
3,-0.0134052513079619,-2.40893388328239e-06
3,-0.00223711993799157,-1.11961267194782e-08
3,-0.00992063538402683,-9.76379077578843e-07
3,-0.00955381121520941,-8.7202706827237e-07
3,-0.00585439603796052,-2.00653294468643e-07
3,-0.00883449270053526,-6.8951679453062e-07
3,0.0133891816617731,2.40028108116275e-06
3,0.021751179805627,1.02907838312241e-05
3,-0.00218386858387101,-1.0415485109118e-08
3,-0.000762563707947211,-4.4343339550559e-10
3,-0.00638882908180742,-2.60773712135218e-07
3,-0.00524955965289928,-1.44666716853037e-07
3,-0.0108467900437124,-1.27615580811904e-06
3,-0.00736849212855225,-4.00069894559633e-07
3,0.0149977329370961,3.37346996380908e-06
3,0.00537887763185382,1.55623433512598e-07
3,-0.00757129010533933,-4.34019918872409e-07
3,-0.00508951529848259,-1.31834559501203e-07
3,0.00187819766346482,6.62557978046727e-09
3,-0.00552925324771626,-1.69043877180073e-07
3,-0.00410322054021174,-6.9083539450396e-08
3,-0.0016613170059483,-4.58519206489097e-09
3,0.0425226215783437,7.68882709355416e-05
3,-0.0547321852155005,-0.000163956396206918
3,-0.00226020116827173,-1.15462587355798e-08
3,-0.0125397775104321,-1.97183010534065e-06
3,-0.00151081834748181,-3.44855177653537e-09
3,0.0613792410077932,0.00023124084165864
3,0.013328714374459,2.36790777893011e-06
3,0.0157357132639172,3.89636200591188e-06
3,0.0169618753723419,4.88002002025572e-06
3,0.01287720368472,2.13532849498218e-06
3,0.118142215186421,0.00164897977534987
3,-0.0263404895598076,-1.82755950862601e-05
3,-0.0154821271587448,-3.71100799784419e-06
3,-0.022695410842893,-1.16899901938171e-05
3,-0.00867120531901751,-6.51986208303007e-07
3,-0.0280986050463704,-2.21847367560299e-05
3,0.0374852900559222,5.26723417632649e-05
3,0.0129296878038381,2.16154417732838e-06
3,0.0332702326795222,3.6827099442337e-05
3,0.0118202820771422,1.65151879984505e-06
3,0.00955608366852379,8.72649472926586e-07
3,0.00487875957693236,1.16125674730612e-07
3,0.0195552163818306,7.47804161357582e-06
3,0.0288561250702365,2.40278014735974e-05
3,0.0328275325234747,3.53764883821571e-05
3,0.0201135060021835,8.13698168173942e-06
3,0.02671569011727,1.90677387059648e-05
3,0.0114019834133169,1.48231742773215e-06
3,0.027067749756276,1.98315408203365e-05
3,0.0286661945969511,2.35564658395891e-05
3,0.00547838498780799,1.64421136489261e-07
3,0.00386907897179812,5.79192304060697e-08
3,0.00326117851156507,3.46835638335029e-08
3,0.010952454696052,1.31381554553365e-06
3,0.0242942092797057,1.43386513570411e-05
3,0.0181486275243298,5.97766210446492e-06
3,0.0354908790036007,4.4704399652114e-05
3,-0.00413707684260199,-7.08077448564321e-08
3,-0.00798587255525223,-5.09292317821489e-07
3,-0.010463494104947,-1.14559260599231e-06
3,-0.00931725698232129,-8.08842983058036e-07
3,-0.00700422748192543,-3.43621815222262e-07
3,-0.00711125058663134,-3.59615123702709e-07
3,-0.00105595866485769,-1.17744533849699e-09
3,-0.0122119197610118,-1.82117561353427e-06
3,-0.0060659360595457,-2.23199637243242e-07
3,-0.00134274188499651,-2.42090422880452e-09
3,-0.000743327552120798,-4.1071512064763e-10
3,-0.00103135915557967,-1.0970584951432e-09
3,-0.0069136258681619,-3.30459028530062e-07
3,-0.00963563466407596,-8.94624888257034e-07
3,-0.00121851575972465,-1.80922862992002e-09
3,-0.00221478078531866,-1.08640621446656e-08
3,-0.00295547623536447,-2.58156113830163e-08
3,-0.0272147909491029,-2.01564946623982e-05
3,-0.00684108818380795,-3.20166262297018e-07
3,-0.00788611363465226,-4.90443623236297e-07
3,-0.0120922826772996,-1.76817348181231e-06
3,-0.0333057519581278,-3.69451751719292e-05
3,-0.0263448073633327,-1.82845839129055e-05
3,-0.00862329633516002,-6.41239005644856e-07
3,-0.00810281191875385,-5.3199466212791e-07
3,-0.00607274567332505,-2.23952172478109e-07
3,-0.00257337330501933,-1.70415217988819e-08
3,-0.00892610991987083,-7.11191720194115e-07
3,0.0094090806129292,8.32993414926416e-07
3,0.00727935056682715,3.85725104453836e-07
3,-0.0342365537221479,-4.01300892270757e-05
3,-0.0133232040756742,-2.36497220265397e-06
3,-0.0397116758528768,-6.26259958228452e-05
3,-0.0203144510837596,-8.38330516231713e-06
3,-0.0140626031418358,-2.78097549719222e-06
3,-0.0254022632764726,-1.63914449166872e-05
3,-0.0187195656864373,-6.55975025814325e-06
3,-0.00382477195675901,-5.59521319763025e-08
3,-0.0113027126063068,-1.443936367562e-06
3,-0.00580825961540346,-1.9594674799969e-07
3,-0.00276462641509262,-2.11304798606245e-08
3,-0.00840223018185062,-5.9317621024275e-07
3,0.067030146123643,0.00030116916054104
3,0.0766997630963894,0.000451213481979268
3,-0.0475414158065835,-0.000107452452737689
3,-0.0893771910706871,-0.000713970231995598
3,-0.263623405288218,-0.0183211148357659
3,-0.110293856963136,-0.00134169552926881
3,-0.0998828597718054,-0.000996489908096701
3,-0.0700663236433573,-0.000343975881602489
3,0.0689690215053318,0.000328066732782022
3,-0.0534883118712344,-0.000153030033885008
3,-0.00278230886445662,-2.15385279558392e-08
3,-0.015942277537716,-4.05182888700875e-06
3,-0.0438384931832257,-8.4249407343004e-05
3,-0.0277968644404053,-2.14776829623042e-05
3,-0.00245845216817854,-1.48588531000206e-08
3,-0.00935883328048407,-8.19719246731566e-07
3,-0.0198407135694003,-7.81037457185686e-06
3,-0.0436990413120383,-8.34479607300498e-05
3,-0.00558199259932196,-1.73927305581864e-07
3,-0.0144927872412213,-3.04407781506425e-06
3,-0.0143701814798629,-2.96747287950712e-06
3,-0.051916495534471,-0.000139931698980692
3,0.0181625146197885,5.99139469669715e-06
3,0.0168496293601142,4.78377843293527e-06
3,0.0298478230192892,2.65912028330029e-05
3,0.129660787514594,0.00217984676335137
3,0.115457251088526,0.00153908866464117
3,-0.0514519477836551,-0.000136208892159538
3,-0.0271527932056002,-2.00190533145795e-05
3,-0.051792580876874,-0.000138932118689524
3,-0.154876951602448,-0.00371501332540565
3,-0.071675323978062,-0.000368221373817405
3,-0.0201027105755045,-8.12388674188598e-06
3,-0.0816086887709504,-0.000543512078589867
3,-0.100997473367683,-0.00103022367940551
3,-0.0271782528307341,-2.00754183044384e-05
3,-0.00599342501022915,-2.15290678969336e-07
3,-0.044259467943431,-8.66998940007712e-05
3,-0.0115982342066531,-1.56018329304352e-06
3,-0.0306416924523938,-2.87698930789644e-05
3,0.0237974452184541,1.3476931074628e-05
3,0.0194235315004622,7.32798518674613e-06
3,0.0649880963939583,0.000274474149422423
3,0.0211905230125967,9.51535569961853e-06
3,0.00600575568626536,2.16622210609971e-07
3,0.0342962398553029,4.03403371369139e-05
3,-0.00753923160195332,-4.28530023380026e-07
3,-0.0220118845202339,-1.06652656470184e-05
3,-0.0109182510727983,-1.30154512838119e-06
3,0.0159299291543449,4.04242092281811e-06
3,0.0297833437833007,2.64192426375482e-05
3,0.0344122197205656,4.07509803973964e-05
3,0.0654183443680519,0.000279961715422352
3,-0.0489943803697979,-0.000117608526445773
3,-0.0313246015382877,-3.07366594896558e-05
3,-0.0416240382673639,-7.21161671200173e-05
3,-0.0653535926990704,-0.000279131212090016
3,-0.0202568850375711,-8.31223839226067e-06
3,-0.0194047385376056,-7.30673549495366e-06
3,-0.0171619921226076,-5.05478973504575e-06
3,-0.0201533128008883,-8.18538925354991e-06
3,0.0161733350803007,4.2305687119351e-06
3,-0.0156280025546239,-3.81689682493328e-06
3,-0.0185780981882561,-6.41215130378735e-06
3,-0.017051749505111,-4.95800353809222e-06
3,-0.0180359404821881,-5.86700394789785e-06
3,0.00240159914344694,1.38516516151228e-08
3,0.0820322090544924,0.00055201797628674
3,0.0889656171236023,0.000704152275310159
3,0.382442297945071,0.0559368179316185
3,0.0946276249469812,0.000847332412811139
3,0.195622492315825,0.00748611273770114
3,0.0736117225791009,0.000398878788569955
3,-0.0948917445418953,-0.000854447322187742
3,-0.0515366513599293,-0.000136882708300629
3,-0.0647392636909341,-0.000271333406324302
3,-0.239490043249482,-0.0137360665811321
3,-0.0764486927091399,-0.000446796939730671
3,-0.0272080107761264,-2.0141433314821e-05
3,0.0277739432554788,2.14245955237595e-05
3,0.0648873728431718,0.00027319992290945
3,0.045510234417946,9.42599527097919e-05
3,0.060000950579552,0.000216010266421811
3,0.0905319052903614,0.000742001838318387
3,0.118318368473859,0.00165636680106313
3,-0.0341775273160232,-3.99228849535995e-05
3,-0.0431476742731929,-8.03289656059703e-05
3,-0.0941370365652884,-0.000834221863529781
3,-0.052060816212136,-0.000141101918321202
3,-0.0332586367878379,-3.67886060926684e-05
3,-0.120712411256337,-0.00175895923857104
3,0.0137959442254988,2.62575553584655e-06
3,0.00530669447848423,1.49441856576957e-07
3,0.0253913981673547,1.63704209624695e-05
3,-0.00659348484284567,-2.86645439442521e-07
3,-0.0177750150905842,-5.61603666302562e-06
3,-0.00779452315797674,-4.73553068531318e-07
3,0.0315042903631855,3.12686480781734e-05
3,0.0202015192882095,8.24426793096564e-06
3,0.0470637216132391,0.000104245855912277
3,0.0642598840916107,0.000265350440900502
3,0.0431833467746893,8.05283671917269e-05
3,-0.0174981751308036,-5.35769857625252e-06
3,-0.0238115460373559,-1.35009019321428e-05
3,-0.0147683094802075,-3.22101208424106e-06
3,-0.0188403915293644,-6.68759202753978e-06
3,-0.00675935289828985,-3.0882707150646e-07
3,-0.0179501671113362,-5.78369640757475e-06
3,-0.0340578030941138,-3.95048021256823e-05
3,-0.0106089494046308,-1.19403521295034e-06
3,0.0212392156344051,9.58110109276585e-06
3,0.0569084023827188,0.000184301631966962
3,0.160004898123861,0.00409637618742859
3,0.0428271928617313,7.85522858812111e-05
3,0.10307857254951,0.00109522963667479
3,0.0625381346683559,0.000244587788372678
3,0.0460880508880152,9.78960176281008e-05
3,0.080721922577031,0.000525986371054712
3,0.0545171382186883,0.000162031387410191
3,0.0284907445899878,2.31265792030135e-05
3,-0.0543905741673042,-0.000160905515202142
3,-0.0255558828471985,-1.66906275399734e-05
3,-0.0268883831107714,-1.94399015974238e-05
3,-0.0214340973379472,-9.8472643310483e-06
3,-0.0283852847260821,-2.28707161919672e-05
3,0.00305383900733703,2.847989700633e-08
3,0.0199572602979841,7.94882188043671e-06
3,0.0419372307466864,7.37563213015292e-05
3,0.144901513485464,0.00304241718146353
3,0.094326610965736,0.000839271920592734
3,0.127568222730148,0.00207600079287383
3,0.0163619685092629,4.38032825834448e-06
3,0.098190659806305,0.000946695984511515
3,0.0547880851510072,0.000164459273032771
3,0.298614714270556,0.0266276973095608
3,0.118942258658795,0.00168270716466938
3,0.0147943855779601,3.2381040503772e-06
3,0.0387702529761963,5.82768278957955e-05
3,0.092868302749614,0.000800944688182301
3,-0.0637610069654667,-0.000259218206533675
3,-0.0647703836001774,-0.000271724881145782
3,-0.0424449616313662,-7.64677718990499e-05
3,-0.0435996626125921,-8.28799319349881e-05
3,0.00169057262550557,4.83171708975995e-09
3,0.00856859324574345,6.29112887099124e-07
3,0.0120490159170794,1.74926148610658e-06
3,0.0304350047994816,2.81916259000012e-05
3,0.0240459436644787,1.390354272826e-05
3,0.043634977229455,8.30814870066862e-05
3,0.113439747305519,0.00145980804010765
3,-0.0365037306026784,-4.86420368102616e-05
3,-0.0200392197349218,-8.04715603348995e-06
3,0.00234565172582782,1.29059681832298e-08
3,0.0149571984813691,3.34619133516289e-06
3,0.0253213388907625,1.6235288002414e-05
3,0.101646232031,0.00105020444632031
3,0.0312834209370919,3.06155957788757e-05
3,0.0343283974828298,4.04539180669358e-05
3,0.0477711496827191,0.00010901771625685
3,0.0291546952766596,2.47813818496573e-05
3,0.0502867782478524,0.000127163196708558
3,0.0953221445866798,0.000866126674598996
3,0.0657789037537553,0.000284616382389025
3,0.0398833747512896,6.3441829393754e-05
3,0.0306761578865188,2.88670824797535e-05
3,0.0459101331693569,9.67666391278294e-05
3,0.115235569483165,0.00153024037739562
3,-0.0339841218406491,-3.92489602551944e-05
3,-0.0216363138165146,-1.01286092219098e-05
3,0.0157238711283532,3.88757183591502e-06
3,0.00633822942049143,2.54626655104149e-07
3,0.0130121781566928,2.20318011124185e-06
3,0.00757019508634552,4.33831632074885e-07
3,0.0236952636105604,1.33040734471545e-05
3,0.0257850756249766,1.71437264535455e-05
3,0.0531892249089989,0.000150477298248057
3,0.033925052806139,3.90446556530561e-05
3,0.017489261558032,5.3495151091957e-06
3,0.011005661766395,1.33305627921764e-06
3,0.0663784424775275,0.000292469897800714
3,-0.0248050987409632,-1.52624017232471e-05
3,0.0219146191285159,1.05245074851398e-05
3,0.0219850467844349,1.06263026851672e-05
3,0.0559033951668344,0.000174708708686971
3,-0.00628090300659748,-2.47780006769448e-07
3,0.00277130772465009,2.1284049334934e-08
3,0.0061935612097093,2.37586249555916e-07
3,0.0310187701436973,2.98451470964938e-05
3,0.0146495360251672,3.14392089614544e-06
3,0.0302793924476966,2.77614068307791e-05
3,0.0420223274897161,7.42062198998245e-05
3,0.0292266835080643,2.49654046699878e-05
3,0.0365973014850385,4.90170523314367e-05
3,0.075515521962544,0.000430634366775658
3,0.0753349781164779,0.000427553040629739
3,0.00503714379545421,1.27806530828043e-07
3,0.0188234210037436,6.66953670938552e-06
3,0.112064405303907,0.00140735309440628
3,0.0387030102561596,5.79741293437268e-05
3,0.152520276469721,0.00354799297704958
3,0.0554533351047748,0.000170523018840302
3,0.0172736222832373,5.15406933228367e-06
3,0.048465993527982,0.0001138443180513
3,0.0775698964738286,0.000466744958311995
3,0.0364393494173838,4.83851223558282e-05
3,0.0479627290512691,0.000110334583184399
3,0.0336547951127636,3.8118943288481e-05
3,0.0133721929003761,2.39115593411173e-06
3,-0.00394520546391072,-6.14057270445656e-08
3,-0.032330947289035,-3.37952208256637e-05
3,-0.0227391135333668,-1.17576516817087e-05
3,-0.00843335271744471,-5.9979217290516e-07
3,-0.00639494558559701,-2.6152340393345e-07
3,-0.0167367748025821,-4.68829917835394e-06
3,-0.0116850423131878,-1.59547817641736e-06
3,-0.0150323722124512,-3.39689843553558e-06
3,-0.0166515080009987,-4.61700889401368e-06
3,0.00947753037110474,8.51305725832393e-07
3,-0.00814563124990586,-5.4047329165938e-07
3,-0.0109539904159002,-1.31436828067529e-06
3,-0.00248057478225253,-1.5263599880475e-08
3,-0.00514799291243362,-1.36431238290765e-07
3,-0.0125797706256402,-1.99075661410428e-06
3,-0.00481933274450795,-1.11933668598247e-07
3,-0.0102065513374519,-1.06325411707936e-06
3,-0.00926316295043436,-7.94836700175855e-07
3,0.0776683337943765,0.000468524132509294
3,0.0185258587136504,6.35821256288706e-06
3,-0.074743581707467,-0.000417562718280583
3,-0.0195396188335854,-7.46016207124088e-06
3,-0.0281165017771812,-2.2227153864953e-05
3,-0.0848831258979567,-0.000611595235428474
3,-0.0472080680831217,-0.000105207980412736
3,-0.0652960931225215,-0.000278395102158536
3,-0.0527944688372054,-0.000147151696855227
3,0.0546259608266019,0.000163003626546382
3,0.0249129960060485,1.54624345798695e-05
3,0.169512300645657,0.00487083765381559
3,-0.0112602556755925,-1.42772562769246e-06
3,-0.0457513032939319,-9.57657932350976e-05
3,-0.030515390855852,-2.84155987089924e-05
3,0.0202593647506998,8.31529135275998e-06
3,0.0056416472259514,1.79563382710279e-07
3,0.044314249686129,8.7022228588305e-05
3,0.0262242656251128,1.80347449826915e-05
3,-0.0124413092985166,-1.92574270395527e-06
3,-0.0180178190435571,-5.84933726198433e-06
3,-0.0166241280987609,-4.59427122255467e-06
3,-0.0209116464564427,-9.14459937212063e-06
3,0.0153625182676745,3.62566134989565e-06
3,0.0117082380025147,1.60499848310224e-06
3,0.0637659153265003,0.000259278075467017
3,0.0157144101008339,3.88055862061827e-06
3,0.0402065983525673,6.49968028560494e-05
3,0.0286105577469436,2.34195730090315e-05
3,0.192507953569479,0.00713421234990975
3,0.106551251129743,0.00120969437373733
3,0.0227580064749962,1.17869828042324e-05
3,0.0280708684056986,2.21191047219255e-05
3,0.0109607561132669,1.31680523140436e-06
3,0.107064018702322,0.00122724316621558
3,0.0361121278717972,4.70933124225336e-05
3,0.0232130724102493,1.25082881783101e-05
3,0.148086172959864,0.00324745789522439
3,0.0710679880202541,0.000358940167709569
3,0.0209976587065376,9.25790281408071e-06
3,0.040001762708633,6.40084613743007e-05
3,0.021067495298569,9.35058359125508e-06
3,0.119733516504282,0.00171651345890432
3,0.0264131515755638,1.84272560673335e-05
3,-0.0030480840895721,-2.83191903097225e-08
3,-0.0143930315642218,-2.98165117288568e-06
3,-0.0192686539668208,-7.15408560852629e-06
3,-0.0095899651625488,-8.8196446723233e-07
3,-0.00702103473160443,-3.46101406511485e-07
3,-0.021059646143715,-9.34013619307074e-06
3,-0.00565607766540715,-1.80944794145761e-07
3,-0.002839258261505,-2.28883609890756e-08
3,-0.00821562501293994,-5.54525887294274e-07
3,-0.00724164984243814,-3.79762925468854e-07
3,-0.0161288739382196,-4.19577453256811e-06
3,-0.0083580252853122,-5.83863117732779e-07
3,-0.0164861145732687,-4.48079361889125e-06
3,-0.00329499895217277,-3.57738632461514e-08
3,0.0069323510306695,3.331513959649e-07
3,-0.00741461123337571,-4.07629075975011e-07
3,-0.00660182683467404,-2.87734796840333e-07
3,-0.00497072188950059,-1.22816974731437e-07
3,-0.00289737441533933,-2.4322816456056e-08
3,0.0327345126533889,3.50766119957256e-05
3,0.0166108694720593,4.5832874600882e-06
3,-0.0822308509952057,-0.000556037848454612
3,-0.0135110622098227,-2.46642822065998e-06
3,-0.0472457395066067,-0.000105460045244597
3,-0.0239831555803327,-1.37949132669176e-05
3,-0.0888754003475126,-0.000702012281718119
3,-0.0204065986238302,-8.49790491492723e-06
3,-0.0503328801339535,-0.000127513259268364
3,-0.0207382063680976,-8.91894684478883e-06
3,-0.0645348163279758,-0.000268770893483778
3,-0.0175420015604066,-5.39805662460131e-06
3,-0.0587664278966978,-0.000202949450181629
3,0.0438232900606283,8.41617850392661e-05
3,0.186492812062484,0.006486139615988
3,-0.0271048060683032,-1.99131017518698e-05
3,-0.0476886649728783,-0.000108453979962859
3,-0.0300246053413649,-2.7066488924636e-05
3,-0.0406429004684216,-6.71357864941717e-05
3,-0.0165849459402488,-4.56186239238408e-06
3,0.0306419787095224,2.8770699398387e-05
3,-0.0190810727614759,-6.94717698273405e-06
3,-0.00186817508905496,-6.5200770836541e-09
3,-0.0038243244397085,-5.59324942538021e-08
3,-0.0024189736173287,-1.41544629246199e-08
3,-0.00489664512172862,-1.17407513531914e-07
3,-0.00194185690715158,-7.32237004163608e-09
3,0.0218107515819921,1.03755683067328e-05
3,0.0147899977997878,3.23522379514989e-06
3,0.107149454394828,0.00123018348349123
3,0.0631249995142718,0.000251538324271586
3,0.0411874694075911,6.9870737618843e-05
3,-0.0232192559961496,-1.25182868564624e-05
3,-0.0412761896959917,-7.03232282368679e-05
3,-0.0281283829876922,-2.22553434071734e-05
3,-0.0285854699233633,-2.33580190468395e-05
3,-0.0359486786210114,-4.64567468027832e-05
3,-0.00487298387872669,-1.15713738167292e-07
3,-0.0509291313992908,-0.0001320987803736
3,-0.00762298656854342,-4.42971171860101e-07
3,0.0159681543972224,4.07159122360679e-06
3,0.0543918258436735,0.000160916624090161
3,0.0293278546658466,2.52255640779236e-05
3,-0.0130070243268545,-2.20056325836737e-06
3,0.0478965984401081,0.000109878826943563
3,0.201562103923174,0.00818892038377798
3,0.111063216820783,0.00136996901438925
3,0.00403255127687713,6.55752108084833e-08
3,0.0521352662102825,0.000141708136296603
3,-0.0167086482730297,-4.66470249835318e-06
3,-0.0331668019838517,-3.64847011894387e-05
3,0.0128637907226622,2.12866293502558e-06
3,0.0462804885992289,9.91274206869173e-05
3,0.00825499948740898,5.62537076583423e-07
3,0.0355284910242218,4.48466789131e-05
3,-0.00938313715185125,-8.26122010246948e-07
3,0.00645741205198974,2.69262268146176e-07
3,0.0052214780115848,1.42357502565386e-07
3,0.0186850476733546,6.5235295017364e-06
3,0.114150835626548,0.00148743256381368
3,-0.0141077795189694,-2.80786349900445e-06
3,-0.0174631893648354,-5.32562631776352e-06
3,0.0164699061028927,4.46759061159411e-06
3,0.0111358518861697,1.38092578118022e-06
3,0.0470325477106411,0.000104038843081737
3,0.0105696584082115,1.18081770377479e-06
3,0.0361058299028338,4.70686774440893e-05
3,-0.00747890566804202,-4.18325333939645e-07
3,0.0366823921464881,4.935974960411e-05
3,0.146359659753999,0.0031351922260233
3,0.0699249864696972,0.000341898482358688
3,0.00419159724178101,7.36442150817185e-08
3,0.0454061758999116,9.36148577487259e-05
3,-0.0140320465086778,-2.76288651311982e-06
3,-0.0240203237979179,-1.38591492712839e-05
3,0.0190089129756029,6.8686572814306e-06
3,0.00649095504943609,2.73480147093095e-07
3,0.0397838178811434,6.29679238913014e-05
3,0.0946541755680722,0.000848045846590091
3,0.00615498459588924,2.3317442317023e-07
3,0.0362618355967247,4.76814390019677e-05
3,0.0140977165897482,2.8018593261622e-06
3,0.041604808939245,7.20162653599225e-05
3,0.0314849448273932,3.12110809307322e-05
3,-0.0404457358127779,-6.61634621100853e-05
3,-0.00715915608405537,-3.66931919725575e-07
3,0.0374948754677495,5.27127588337772e-05
3,0.133277428856492,0.00236739004822168
3,0.0643277357458781,0.000266191874905754
3,-0.0260826583354812,-1.77441645963438e-05
3,-0.00256556569193767,-1.68868800312535e-08
3,0.00749391706754271,4.20849337469264e-07
3,0.0386250579245696,5.76245346423806e-05
3,0.00962846708951464,8.9262994278337e-07
3,0.0408291068271702,6.80627728891857e-05
3,0.0719800369937091,0.000372937621398878
3,0.0515001425998263,0.00013659200963431
3,0.00944960628578986,8.43803150404743e-07
3,0.0538965267144646,0.000156560549079049
3,0.0548755304777774,0.00016524799344669
3,0.0555306041583981,0.000171236836351697
3,-0.0119479559740135,-1.70561434871146e-06
3,0.00971332280130334,9.16438794652357e-07
3,0.00546215079187515,1.6296376742348e-07
3,0.013905482617783,2.68879814337473e-06
3,-0.00434825637246211,-8.22139332935342e-08
3,-0.00451998120826336,-9.23442562366997e-08
3,-0.000938761523960801,-8.27305371196263e-10
3,-0.00868736375881318,-6.55637854202854e-07
3,-0.000924989100397655,-7.91425147412902e-10
3,-0.000399310422446068,-6.36695730668501e-11
3,-0.00103001368490841,-1.09277055553668e-09
3,-0.00891181629468218,-7.07780635737867e-07
3,-0.00100882742254474,-1.02671672566326e-09
3,-0.00153541972818223,-3.61977310845335e-09
3,0.00974134944646775,9.24394533455417e-07
3,-0.0288853046551898,-2.41007666231485e-05
3,-0.0101334668677003,-1.04057683995265e-06
3,-0.0140783174161288,-2.7903087329949e-06
3,-0.0487108671569968,-0.000115578640837711
3,-0.00886830204809112,-6.97463410935198e-07
3,-0.0151374160137496,-3.4686081463672e-06
3,-0.0012369977047608,-1.89280851670792e-09
3,-0.0113543593154727,-1.46382075590894e-06
3,-0.0319513287077204,-3.26187090887103e-05
3,-0.016902994498775,-4.8293752310403e-06
3,-0.0238384694285666,-1.35467495909236e-05
3,0.0655094970711415,0.000281133627152442
3,-0.0111156334067847,-1.37341771860416e-06
3,-0.0499749036964045,-0.000124811872180896
3,-0.000854787954372329,-6.24561458356548e-10
3,-0.0284226562472478,-2.29611686136022e-05
3,-0.0025480834372091,-1.65440157443954e-08
3,-0.0748792884403798,-0.000419841269210628
3,-0.00908750073095255,-7.50470069763898e-07
3,-0.025753062064726,-1.70799511202205e-05
3,-0.00056466435124081,-1.8004087349558e-10
3,-0.000753503576942674,-4.27814947962983e-10
3,-0.00119919849350776,-1.72453980412418e-09
3,-0.0151838225381335,-3.50060700738567e-06
3,-0.000948750555349153,-8.53996575826325e-10
3,0.0101260626489301,1.03829755178402e-06
3,0.0229818700551892,1.21382504515741e-05
3,0.0258874515329832,1.73487383215002e-05
3,-0.0159125019935383,-4.02916834441576e-06
3,-0.0264112912229165,-1.84233626909549e-05
3,-0.0142711957772861,-2.90657204300459e-06
3,-0.00218249772594302,-1.03958833945693e-08
3,-0.018271849993161,-6.10024901433873e-06
3,-0.0207789462478663,-8.97161356415225e-06
3,-0.00297496114269255,-2.63295776541054e-08
3,-0.00147642634421311,-3.21836545076358e-09
3,-0.00548182570180281,-1.64731126469938e-07
3,-0.0241190993963014,-1.40308267421604e-05
3,-0.00252291280813275,-1.60585646574635e-08
3,-0.00333791468514462,-3.71899587480812e-08
3,-0.00722758489974801,-3.7755446061549e-07
3,0.0319284668985752,3.25487411769108e-05
3,0.0200988156517105,8.11916561892264e-06
3,-0.0337516514179297,-3.84490028558381e-05
3,0.110472243497031,0.00134821613885285
3,0.11638769019825,0.00157659864187828
3,0.033359661078352,3.7124865520364e-05
3,-0.00106810784415047,-1.21855549814378e-09
3,-0.00575128260613859,-1.90236621876086e-07
3,-0.0480308702259021,-0.000110805512258656
3,-0.0803564117416439,-0.000518873637753406
3,0.0201125802196115,8.13585814876084e-06
3,0.0180257091671455,5.85702501936701e-06
3,-0.000940693618737678,-8.32424001605149e-10
3,-0.00262286039896466,-1.80436971009569e-08
3,-0.00171768144731468,-5.06789810728605e-09
3,-0.00143625967517736,-2.96277657194469e-09
3,-0.0213871426316674,-9.78269012969496e-06
3,-0.00597298925396001,-2.13095952168399e-07
3,-0.0027565779607795,-2.09464697437465e-08
3,-0.002387345160725,-1.36064753944102e-08
3,0.0343304154778651,4.0461052737721e-05
3,-0.000738204311338698,-4.02281195262064e-10
3,-0.00124957903625757,-1.95115239692201e-09
3,-0.022253251463775,-1.10199703640719e-05
3,-0.0232164693139047,-1.25137802132009e-05
3,0.00210309679753835,9.30203107910755e-09
3,0.00280540913396517,2.20794687624594e-08
3,0.00199073511422975,7.88933560412675e-09
3,0.000967494451984996,9.05618842201981e-10
3,0.00275667644672214,2.09487149258727e-08
3,0.00141334735069197,2.82323303735904e-09
3,-0.00168558401804909,-4.78907032528008e-09
3,-0.000491549623828294,-1.18768727725678e-10
3,-0.000289380612810125,-2.42330621415997e-11
3,-0.00173402779760428,-5.21396564985998e-09
3,0.0194622025230911,7.37184105019852e-06
3,0.0257507537898863,1.70753588483132e-05
3,0.0230788687270789,1.22925943595111e-05
3,0.00210171656031814,9.28372866151667e-09
3,-0.00349531464655158,-4.27030436595531e-08
3,-0.00356497254868758,-4.53073404783412e-08
3,-0.00911947374678729,-7.58419223191354e-07
3,-0.0165756044313834,-4.55415829497684e-06
3,-0.0181009823023866,-5.93070648865062e-06
3,0.0724629876466067,0.000380494784358086
3,0.066194170778443,0.000290040896107034
3,0.0262455401571832,1.80786728599415e-05
3,-0.000992651514450118,-9.78116147250002e-10
3,-0.00493527365192406,-1.20208095225289e-07
3,-0.0364376791753164,-4.83784692873269e-05
3,-0.0525710133915493,-0.000145291111596517
3,0.00207224259319496,8.89860210550433e-09
3,0.00593428948839618,2.08980702701287e-07
3,0.00129105109724199,2.15194066951941e-09
3,0.00375762376037787,5.30566567034233e-08
3,0.00231805412450239,1.245577390536e-08
3,0.00394072280524881,6.11966517943876e-08
3,0.00385808665046911,5.74269739582804e-08
3,0.00217701512063446,1.03177342194773e-08
3,0.000612902100136068,2.30236051422833e-10
3,0.00441633425007677,8.61362194645403e-08
3,0.00222730006959157,1.10493362961202e-08
3,-0.000577967084539139,-1.93067564292149e-10
3,-0.000512483182512932,-1.3459807690558e-10
3,-0.00134477432974032,-2.43191410105467e-09
3,-0.00302212861362929,-2.76018904837021e-08
3,0.000894570611636057,7.15886017523324e-10
3,0.00258073455005751,1.71881845536285e-08
3,0.00102828426245742,1.08727541327644e-09
3,-0.010274591119644,-1.08466004863096e-06
3,-0.00299082832259105,-2.67531210154383e-08
3,0.00230752797900354,1.22868604796286e-08
3,0.00205470362481362,8.67456211703236e-09
3,0.00186484947041755,6.48531902450384e-09
3,0.012481683791904,1.94455185194069e-06
3,0.00215791174340229,1.00484953390319e-08
3,0.00334131108414238,3.73035990168248e-08
3,0.00368509424095251,5.00432833804794e-08
3,0.000360822136224324,4.69763771003146e-11
3,0.00450434709301072,9.13893410949872e-08
3,0.0110737103488661,1.3579365532351e-06
3,0.00091177924392069,7.57999823690116e-10
3,-0.00198572352130269,-7.82990225289508e-09
3,0.0199650409941372,7.95812247816563e-06
3,0.0383346023810094,5.63342982740833e-05
3,0.17438807842848,0.0053033510616889
3,0.0260159226154228,1.76083108434296e-05
3,0.00692400253964363,3.31949222289212e-07
3,0.104238684736133,0.00113262663068183
3,0.0321331629929635,3.31787813844196e-05
3,0.0656263641051693,0.000282640915514185
3,0.00216212001256099,1.01073985253991e-08
3,0.0817584461228519,0.000546509714771705
3,0.0186833330280321,6.52173375899201e-06
3,-0.172278028085013,-0.00511316345669444
3,0.0540636895422392,0.000158021813503818
3,0.0304644318441184,2.8273478880051e-05
3,-0.0467706680977369,-0.000102310621052539
3,0.00226006463566066,1.15441664276267e-08
3,0.0211640872021645,9.47978803687213e-06
3,0.00162558676955778,4.29566561874784e-09
3,0.00318664905472381,3.23595677596414e-08
3,0.00897413182107502,7.22732082603592e-07
3,0.0115224660218635,1.52980581842723e-06
3,0.00239254157688119,1.36955185557523e-08
3,0.00440189211668197,8.52939414010559e-08
3,0.00343978340696469,4.06998952580992e-08
3,0.00421606432131805,7.49413796162334e-08
3,0.020943296088741,9.18618310909612e-06
3,0.0599768921507956,0.000215750531331338
3,0.00912904184182421,7.60808914859246e-07
3,0.105946582916042,0.0011892163241579
3,0.1743929816526,0.00530379841308266
3,0.0684669595771661,0.000320954247529894
3,0.0228706128591115,1.19628155725593e-05
3,0.117958236179552,0.00164128805907212
3,0.00537678939795545,1.55442251488013e-07
3,0.00543852703528072,1.60858448418935e-07
3,0.233741530246653,0.0127704925715322
3,0.0995758723268702,0.000987330058797137
3,-0.0116804156470887,-1.59358374877385e-06
3,-0.00198349063565478,-7.80351848274619e-09
3,-0.0134709303503441,-2.44451536878899e-06
3,-0.0164008282092522,-4.41161229922978e-06
3,-0.0286576261735072,-2.35353488285793e-05
3,-0.0215517621107345,-1.0010329061637e-05
3,-0.0126810874020247,-2.03924538230333e-06
3,-0.0116551034829614,-1.58324600782319e-06
3,-0.0121268663242398,-1.78338771630538e-06
3,-0.00331140965047567,-3.63110435495772e-08
3,0.0287689135321118,2.38106023844207e-05
3,-0.00512764510973293,-1.34819862097303e-07
3,-0.044883966295568,-9.04219112990946e-05
3,-0.0320937748479088,-3.30569213547273e-05
3,-0.0284287415971106,-2.29759198734046e-05
3,-0.0276859302225239,-2.12215626488986e-05
3,0.00488534589119084,1.16596618116314e-07
3,0.00743874913788131,4.11623099757046e-07
3,-0.00771249358346705,-4.58758841311806e-07
3,-0.0178133550796447,-5.6524557970112e-06
3,-0.00783782179945419,-4.81488762371255e-07
3,-0.016041964402926,-4.12831326388034e-06
3,-0.0194190888149915,-7.32295801326852e-06
3,-0.00222802618442601,-1.1060146293798e-08
3,-0.00725475907858738,-3.81829064924566e-07
3,-0.00103091570939392,-1.09564402009408e-09
3,-0.00142133133276539,-2.87134905114807e-09
3,0.0331789588791512,3.65248349913365e-05
3,0.00974152190598635,9.24443630387878e-07
3,-0.0216515771285413,-1.01500599934544e-05
3,-0.0415155361994831,-7.15536767134293e-05
3,-0.0314376224789171,-3.10705601666688e-05
3,-0.0482805423278567,-0.000112542464025619
3,-0.00248375476350425,-1.53223768362776e-08
3,-0.0199018564539731,-7.88280472877144e-06
3,-0.0113422734637419,-1.45915135215069e-06
3,-0.00948930127510741,-8.54481581198085e-07
3,0.0403953097957264,6.59163011746348e-05
3,-0.0211394374540584,-9.44670335940068e-06
3,-0.033615015698448,-3.79839350996419e-05
3,-0.04027795970354,-6.53434994442174e-05
3,-0.0130183135102178,-2.20629803582412e-06
3,-0.0262588713480646,-1.81062355632148e-05
3,0.0705838554321228,0.000351654460185808
3,0.0651138209530339,0.000276070208320102
3,0.0224997514551531,1.13902475266836e-05
3,0.0325304632277518,3.44247458620124e-05
3,-0.0307942871768941,-2.92018567778786e-05
3,-0.0527561340115714,-0.00014683138264128
3,-0.0377663408156746,-5.38659996705459e-05
3,-0.13665382907024,-0.00255191036387732
3,-0.0605602316228611,-0.000222107172065727
3,-0.0138886769626826,-2.67906117283393e-06
3,0.0530820819533851,0.000149569776428283
3,0.00989982188358297,9.7024662937214e-07
3,0.0383966996778835,5.66085056857964e-05
3,-0.0332632127020356,-3.68037929448949e-05
3,-0.0239310267048855,-1.3705156344626e-05
3,-0.0510695055292796,-0.000133194091126597
3,-0.0223856139459385,-1.12177828651797e-05
3,-0.0392098539362232,-6.0281725277598e-05
3,-0.0114998107023058,-1.5207998973761e-06
3,0.0623751154800366,0.000242680056860836
3,0.0295866043334637,2.58991416906356e-05
3,0.0657804294079713,0.000284636186744085
3,0.0420281091627956,7.42368532674782e-05
3,-0.0306134122963906,-2.86903087298316e-05
3,-0.0407477625133526,-6.76567760277518e-05
3,-0.018297590294785,-6.12606636023429e-06
3,-0.00419450130474552,-7.37973898500597e-08
3,-0.0447599113137532,-8.96742291396507e-05
3,-0.0103478717191011,-1.10803405532203e-06
3,-0.0195780658601777,-7.50428562104657e-06
3,-0.0103220756592737,-1.09976808947851e-06
3,0.0312335723303591,3.04694754823214e-05
3,0.0465589046964431,0.000100927209276013
3,0.0202623374599821,8.31895226286452e-06
3,0.0472335301925996,0.000105378306947713
3,0.0470473337473896,0.000104136996758195
3,0.0470899955534645,0.000104420543248851
3,0.0302368809573573,2.76446420097844e-05
3,0.0498451355209632,0.000123842110144139
3,-0.0530420379069304,-0.000149231534498505
3,-0.0203643400312462,-8.44522102082613e-06
3,-0.00413638375394481,-7.07721633393121e-08
3,-0.0364036027908915,-4.82428660789327e-05
3,-0.0133225351177076,-2.36461598483601e-06
3,-0.0157386798339704,-3.8985661023982e-06
3,0.0287065695639612,2.36561405687058e-05
3,0.041241987797703,7.01485612797516e-05
3,0.0245279269328733,1.47564717698002e-05
3,0.0725392149259136,0.00038169682989707
3,0.0563727421648607,0.00017914615144379
3,0.170390566422328,0.0049469399648801
3,0.0645263815164555,0.000268665520802846
3,0.0663460095526023,0.000292041399335451
3,0.0905657664073426,0.000742834729534987
3,-0.0100944414356348,-1.028600848574e-06
3,-0.0857735409443433,-0.000631044546055034
3,-0.0258050681787077,-1.71836347356852e-05
3,-0.0236458736647838,-1.32210544765831e-05
3,0.00281418268265712,2.22872691962143e-08
3,0.0182203377811199,6.04880065221025e-06
3,0.0282842500820291,2.26273662009689e-05
3,0.0297923622208606,2.64432492546025e-05
3,0.0347707617408222,4.20380551198542e-05
3,-0.00620723621419446,-2.39163454547816e-07
3,0.00373172321449138,5.19670749661575e-08
3,0.00682953876404518,3.18547442909118e-07
3,0.00706260128029404,3.52284930858836e-07
3,0.0179594228533588,5.79264785791506e-06
3,-0.00517004257245973,-1.38191826773167e-07
3,-0.00180379185174163,-5.86893449540238e-09
3,0.0298685234531436,2.6646566798187e-05
3,0.0401643805620097,6.47922736556686e-05
3,0.00916336509351654,7.69422657789307e-07
3,0.0299015912649862,2.67351670475666e-05
3,0.0367517271217339,4.96401699614154e-05
3,0.0755111820802532,0.000430560125281604
3,0.049541697497789,0.000121594141148547
3,0.072878639719734,0.000387080036913514
3,0.0621567405183501,0.000240140105080107
3,0.152603123339877,0.00355377777786434
3,-0.0286838893867802,-2.36001148902243e-05
3,-0.0162906581241273,-4.32330513771738e-06
3,0.00815601608558166,5.42543070477222e-07
3,0.00130213242417658,2.20782913448009e-09
3,0.0170412255717382,4.94882931769784e-06
3,0.0173174769461589,5.19342488351121e-06
3,0.0168485323752345,4.78284415880013e-06
3,0.00940121373449996,8.30905778285908e-07
3,-0.0120349125671604,-1.74312615151224e-06
3,0.00179525988112065,5.78604726911404e-09
3,0.0142572231276409,2.89804309486683e-06
3,0.0145300246214166,3.06760227131333e-06
3,0.0318772483312473,3.23923515493023e-05
3,0.0227473462754394,1.17704269506615e-05
3,0.0459108246985455,9.67710118855696e-05
3,0.0635855823899458,0.000257084539690224
3,0.0168065309124261,4.74716400414998e-06
3,0.0268727533414977,1.94060210261944e-05
3,0.0420693157309151,7.44554245695313e-05
3,0.0089523833822778,7.17490272171984e-07
3,0.00328001800625494,3.52881331586698e-08
3,0.0361126404571738,4.70953178168993e-05
3,0.0163285992479819,4.35358262212133e-06
3,-0.00203191599015667,-8.38913617504481e-09
3,-0.0105610503450149,-1.17793503421289e-06
3,-0.00276111632868689,-2.1050097556058e-08
3,-0.0211141142856462,-9.41279507633601e-06
3,-0.0133642426838227,-2.38689360234633e-06
3,-0.0147388607946101,-3.20178194412384e-06
3,-0.00398038516245847,-6.30630971535789e-08
3,-0.00432477403882451,-8.0889148552432e-08
3,-0.00236542076276321,-1.32350386436013e-08
3,0.0045520783529086,9.43255152741172e-08
3,-0.00419158557900621,-7.36436003565028e-08
3,-0.00567829024113127,-1.83084999034035e-07
3,-0.00694054815009605,-3.34334592901817e-07
3,-0.0100148683994504,-1.00446715520113e-06
3,-0.0255210148881402,-1.66224035866727e-05
3,-0.0160225059221506,-4.11330887240483e-06
3,-0.00411544962040655,-6.97030639412639e-08
3,-0.0144449816645388,-3.01405369361619e-06
3,0.0236598013364783,1.32444302659054e-05
3,-0.019708004093852,-7.65469571313394e-06
3,-0.149134642249761,-0.00331692468365706
3,-0.0680899078576977,-0.000315680851547013
3,-0.0225974907118436,-1.15393314948325e-05
3,-0.0285252845438251,-2.32107917891778e-05
3,0.00950617161526149,8.59047050598913e-07
3,-0.00210859450077189,-9.37517123234282e-09
3,-0.00597017084519294,-2.12794440752074e-07
3,-0.0075333935521911,-4.27535289580255e-07
3,-0.00340496700205083,-3.94765073989799e-08
3,-0.00617184011599827,-2.35095329257367e-07
3,0.00618569760293532,2.36682449434073e-07
3,0.0128778956068115,2.13567272197067e-06
3,0.0285906874062387,2.3370811452567e-05
3,0.00491075370550897,1.18425290591471e-07
3,-0.010255077786543,-1.07849187283238e-06
3,-0.0210679657412642,-9.3512100081946e-06
3,-0.0588627185693817,-0.000203948703208662
3,-0.0337060450914759,-3.82933527445462e-05
3,-0.0338475138978097,-3.87775463571544e-05
3,-0.0153510720680839,-3.61756323801418e-06
3,-0.00743363344155943,-4.10774452652097e-07
3,-0.00174476255201132,-5.31139981495879e-09
3,-0.0191054461445402,-6.97383312367677e-06
3,0.0157405928079468,3.89998784083257e-06
3,0.012953017571302,2.17326589153918e-06
3,0.0227128984760002,1.17170336990839e-05
3,0.0266105958548927,1.88435965697701e-05
3,-0.0511304893304877,-0.0001336718156699
3,-0.0474039730777005,-0.000106523205900902
3,-0.0272758205070985,-2.0292402665731e-05
3,-0.0145736239223266,-3.09529947904898e-06
3,-0.0137185783907181,-2.58182812681045e-06
3,-0.0638618777704104,-0.0002604504143358
3,-0.028669258762021,-2.35640205865576e-05
3,-0.0242266486835484,-1.4219359181084e-05
3,0.0473017108217735,0.00010583530022867
3,0.0578795643675787,0.000193899085675747
3,0.216351788730057,0.0101270154019457
3,0.0139040667088056,2.68797687613184e-06
3,0.0743485172705676,0.000410976449125196
3,0.0768211245355337,0.000453358727565903
3,-0.114484104842969,-0.00150049854333591
3,-0.0688869187909188,-0.000326896506628171
3,-0.093388691982263,-0.000814484601314452
3,-0.0536448826567036,-0.000154377818246645
3,-0.0203206069412676,-8.39092861297462e-06
3,0.0299397613477886,2.68376820030114e-05
3,0.036337726650596,4.79814381417558e-05
3,0.0425735429234771,7.71648257059563e-05
3,0.142747639076546,0.0029087527196663
3,-0.0568081968259374,-0.000183329778232515
3,-0.0454205053064266,-9.37035154284902e-05
3,-0.045201601035757,-9.23552212878686e-05
3,0.0330193027146289,3.6000098862769e-05
3,0.0987790169825633,0.000963815929094652
3,0.017544691636034,5.40054039034315e-06
3,0.0427522298113169,7.81405228713122e-05
3,0.0712222113843474,0.000361282031230375
3,0.0893806239494995,0.000714052503570474
3,0.0858935398424906,0.000633696784929992
3,0.0717772248558529,0.000369794109715377
3,-0.023145540381922,-1.23994372271382e-05
3,-0.020590162537208,-8.72929810265336e-06
3,0.00891721174597812,7.09066942015789e-07
3,0.0327825075553568,3.52311248886976e-05
3,0.0079299051175254,4.98659357189392e-07
3,0.0193896828844284,7.28974134502743e-06
3,0.0409806209841077,6.88233178077671e-05
3,0.0401252879774603,6.46032679077401e-05
3,0.116444246257594,0.00157889810004925
3,0.057388862956434,0.000189009163700249
3,0.0395194771226349,6.17210875031213e-05
3,-0.0181764632497157,-6.00520929470098e-06
3,0.00968874224068499,9.09498958902288e-07
3,0.0413820440508704,7.08656567025807e-05
3,0.00938929831556121,8.27750425897949e-07
3,0.0218961757051584,1.04979574506748e-05
3,0.0339074429243323,3.89838850835153e-05
3,0.0668885899775029,0.000299265134695004
3,0.0571122771477715,0.000186289522427715
3,0.0351563387120604,4.34521149762738e-05
3,0.0323384697966353,3.38188159240845e-05
3,0.00529922531337761,1.48811726700082e-07
3,0.00933350151825435,8.13080990155079e-07
3,0.0143737388617643,2.9696772457823e-06
3,0.0022037804553378,1.07029865916954e-08
3,0.020611510525393,8.75647800920997e-06
3,0.0253373048550903,1.62660180724025e-05
3,0.032760031280327,3.51587092878887e-05
3,0.0241317701112452,1.40529512022836e-05
3,-0.0104103039220033,-1.12821073023484e-06
3,-0.0286456869956174,-2.35059455906427e-05
3,-0.0116306191557138,-1.57328899562284e-06
3,-0.00874425568311064,-6.68603343200812e-07
3,-0.0238585219702692,-1.35809642871648e-05
3,-0.110533751124284,-0.00135046933165868
3,-0.124680704933428,-0.00193819624220482
3,-0.0324517130508227,-3.41753429510797e-05
3,-0.0330023584773509,-3.59447056961976e-05
3,0.0236097137429928,1.316049318027e-05
3,0.0346119038933851,4.14645033054396e-05
3,-0.0675390799810861,-0.000308081358818253
3,-0.0250111530994764,-1.56459213922776e-05
3,-0.0959492822163306,-0.000883334495407198
3,-0.0341282935380242,-3.97506029431345e-05
3,-0.0040612097656753,-6.69832577080585e-08
3,-0.0133141849746127,-2.36017257175079e-06
3,-0.00378961780938035,-5.4423471187917e-08
3,-0.00471018091164706,-1.04499151548675e-07
3,-0.0104200332306175,-1.13137691221697e-06
3,0.0649660639117779,0.000274195084616028
3,0.160352916063136,0.0041231637814833
3,0.0853074845412252,0.000620813865922207
3,-0.052009968405622,-0.000140688879208978
3,-0.0796027438417894,-0.000504410494059644
3,-0.119554848877878,-0.00170884072074113
3,-0.127111731775391,-0.00205379412321075
3,-0.0588243618036332,-0.000203550265130474
3,-0.0270216109470755,-1.97303009810228e-05
3,0.0263772884036348,1.83522976183523e-05
3,0.0315911699861667,3.15280514949461e-05
3,0.0648500524027487,0.00027272879526835
3,-0.0422423608321564,-7.53779888451428e-05
3,-0.0637606201216106,-0.000259213488460657
3,-0.0399810685759879,-6.39091721658149e-05
3,-0.0181765376397814,-6.00528302682413e-06
3,-0.0320548563618726,-3.29368077939094e-05
3,-0.0169761798882706,-4.89237688689901e-06
3,-0.0515938682532534,-0.000137339123389136
3,0.0992548595546658,0.000977811943197435
3,0.053373273599619,0.000152044782609035
3,-0.072868794013541,-0.000386923177723151
3,-0.028499362889106,-2.31475725547341e-05
3,-0.0132731710113278,-2.33842836107584e-06
3,-0.0137836640099482,-2.61874996599735e-06
3,-0.0326908692479841,-3.49365009124287e-05
3,-0.0151380156841968,-3.46902039060983e-06
3,-0.025820087088988,-1.72136555480613e-05
3,-0.0410219667112977,-6.90318374876517e-05
3,0.180876107157555,0.00591757277260828
3,0.121191936752817,0.00178000481788219
3,0.149070235041615,0.00331262906985676
3,0.0805616200324089,0.000522858981861384
3,0.118645869257846,0.00167015919013402
3,-0.0778321089636385,-0.000471494243923539
3,-0.0309926236592904,-2.97697390695002e-05
3,-0.0285175610483654,-2.31919432574009e-05
3,-0.055781325515111,-0.000173566733502569
3,-0.036862263831855,-5.00894207533745e-05
3,0.0470781708393529,0.000104341900235966
3,0.0431068778880125,8.01013264175588e-05
3,0.158492741282788,0.00398132958412779
3,0.0505161281205411,0.00012891105663004
3,0.0464030141989786,9.99168136142131e-05
3,0.132893170729225,0.00234697244345333
3,-0.0204491562125127,-8.55118254656926e-06
3,-0.0386188507740983,-5.75967578545503e-05
3,-0.0209798164304001,-9.23432279391543e-06
3,0.00512964626407466,1.34977771226772e-07
3,0.0229660771185715,1.21132437507059e-05
3,0.021611540766743,1.00938580125984e-05
3,0.0529178520554398,0.000148185811694116
3,0.0224427317640869,1.13038700553191e-05
3,0.0486918465867605,0.000115443300605977
3,0.0363819083756772,4.81566677003004e-05
3,-0.0219065379737135,-1.05128688413508e-05
3,0.0478770001468042,0.00010974400172465
3,0.0168169247970043,4.75597700598479e-06
3,0.0733467652926222,0.000394587112341178
3,0.0405013494770475,6.64367656604464e-05
3,0.0532276765552195,0.00015080388415441
3,0.0952429185574977,0.000863968851965025
3,0.0687083357296408,0.000324360743500796
3,-0.0243523332547423,-1.44418135904074e-05
3,0.0198312532583633,7.79920763266315e-06
3,0.00478660299757412,1.09668581295139e-07
3,0.0336926350782999,3.82476656796971e-05
3,0.024647903866183,1.49740739756999e-05
3,0.0398348839080909,6.32107098560795e-05
3,0.00594935088572765,2.10575941716731e-07
3,0.0214494236591834,9.86840311882321e-06
3,0.0420405842920496,7.43029796730524e-05
3,0.0629398738656951,0.000249331761165199
3,0.0373260271072845,5.20038265821267e-05
3,0.0539835191691434,0.000157319869689272
3,0.013161370039226,2.27983438330295e-06
3,0.0651889144473989,0.000277026456653231
3,0.066792472210037,0.000297976870939311
3,-0.0454680462570319,-9.39980576304256e-05
3,-0.175109183313627,-0.00536941247676396
3,-0.0463241706472912,-9.94083712869802e-05
3,-0.0944237294331102,-0.000841866928042438
3,-0.130485913297732,-0.00222172800250069
3,-0.0680108005702131,-0.000314581849308328
3,-0.0145756001266372,-3.0965588309527e-06
3,-0.0202261823423495,-8.27449988907732e-06
3,-0.0514589490764671,-0.000136264503355052
3,-0.0258974986717938,-1.73689457382034e-05
3,-0.012975860768206,-2.18478412081238e-06
3,0.105891567372122,0.00118736469063245
3,0.146804784138078,0.00316388454005133
3,-0.0520993548114879,-0.000141415507146615
3,-0.106833831701413,-0.00121934447628123
3,-0.0493519472296578,-0.000120202327917133
3,-0.136541689915957,-0.00254563316761334
3,-0.0501539176215741,-0.000126157939403346
3,-0.0796897053692463,-0.000506065421075397
3,-0.011027812110293,-1.34112134349421e-06
3,-0.0824063611532795,-0.000559605806115297
3,0.0658058254040986,0.000284965984406837
3,0.407815760930448,0.0678253460238229
3,0.0314621767768321,3.11434198576672e-05
3,0.134940029519212,0.00245709757031294
3,-0.082769335667257,-0.00056703309626503
3,0.0436592468815388,8.32201931969985e-05
3,0.062335620748053,0.000242219367550593
3,-0.0430992098624656,-8.0058587778568e-05
3,-0.0315084136013109,-3.12809268778288e-05
3,-0.0556702488923786,-0.00017253193333697
3,0.107885414942294,0.00125570669219058
3,0.111076767922237,0.0013704705356356
3,0.172463529337389,0.00512969812282004
3,0.0647545097178125,0.00027152514764702
3,-0.0612985113150235,-0.000230329615357605
3,-0.0462165339451727,-9.87170380355914e-05
3,0.0559010726289551,0.000174686934478001
3,0.0633485761633484,0.000254220503240428
3,0.0764317263180659,0.000446499530483811
3,0.219905571712285,0.0106342948968048
3,0.0280090577248188,2.19733106610767e-05
3,0.100654736647072,0.00101977098410782
3,-0.0595332034354956,-0.000210997717214707
3,0.303891612165825,0.0280644244025827
3,0.013929045396914,2.70248978749991e-06
3,0.179629614159803,0.00579607252578338
3,0.0473398904817468,0.000106091782589649
3,0.164175380374589,0.00442511023013089
3,0.0576263501035675,0.000191365365957003
3,0.133579918253932,0.00238354590277822
3,0.104086099220639,0.00112766006102921
3,-0.054699337063294,-0.000163661372373253
3,-0.0696820033007914,-0.000338346651964351
3,-0.0556125026566122,-0.000171995592713168
3,-0.0432615508318121,-8.09666650965034e-05
3,-0.0241658750107487,-1.41126176279267e-05
3,0.118071310773393,0.00164601259415894
3,-0.225050132119114,-0.0113982405121463
3,-0.209112032225843,-0.00914401790999194
3,-0.0914046214687147,-0.000763667772550806
3,-0.0414285385604055,-7.11047870308405e-05
3,0.15041216052619,0.0034028973498688
3,0.284257065274334,0.0229685618896246
3,-0.257841142328221,-0.0171418089222763
3,-0.336889089276375,-0.0382349773752233
3,-0.181129830372641,-0.00594251027347029
3,0.12004242531234,0.00172983342153603
3,0.264125917342758,0.0184260843646593
3,0.321496284350026,0.0332298112144912
3,-0.134919048355786,-0.00245595162235545
3,-0.112340084694769,-0.00141776496752039
3,0.0933822654357087,0.000814316466514453
3,0.115451651623365,0.0015388647465592
3,0.420059380215382,0.0741194284529621
3,0.230365338502474,0.012225071364938
3,-0.0955787950680612,-0.000873141546429546
3,0.052163274578693,0.000141936646474763
3,0.0523276955178701,0.000143283053189312
3,0.225846685769127,0.0115196998999899
3,0.191813253602727,0.00705725542346912
3,0.170048041527311,0.00491716637760279
3,-0.0482333286251045,-0.000112212619843267
3,-0.0415209323825637,-7.15815819482806e-05
3,-0.0311953803131783,-3.03578390336471e-05
3,-0.106626839061652,-0.00121227068824481
3,-0.0634746694539225,-0.000255741579932249
3,-0.0214980832708601,-9.93571721282163e-06
3,-0.0286466612656858,-2.35083440583201e-05
3,-0.0293390121034013,-2.52543653402175e-05
3,0.0609227122609638,0.000226119329638681
