"V1","V2","V3"
3,-0.00268907646066095,-1.94450674132825e-08
3,-0.00329785735003259,-3.58670450661218e-08
3,-0.000801538921645868,-5.14960417076261e-10
3,-0.00125957698862326,-1.99836195772715e-09
3,-0.00106940411266067,-1.22299744535634e-09
3,-0.00334979483895297,-3.75884681634557e-08
3,-0.00230428575791066,-1.22351417940357e-08
3,-0.000918146401839365,-7.73990820062024e-10
3,-0.00171004548170199,-5.00060998974632e-09
3,0.00488637621236718,1.16670404479695e-07
3,-0.00683705693455622,-3.19600602463362e-07
3,-0.00101418023756799,-1.04314680146638e-09
3,-0.00165996855415724,-4.57403604843149e-09
3,0.00599260450296705,2.15202270396731e-07
3,-0.0042012210742273,-7.41526380368098e-08
3,-0.0038647162235794,-5.77235232106497e-08
3,0.00145649288047918,3.08976250245758e-09
3,-0.00133464361993473,-2.37736543523131e-09
3,-0.00292787264694506,-2.5099007430945e-08
3,-0.00226670415917905,-1.16462075237792e-08
3,-0.000824963073463625,-5.61440229003322e-10
3,-0.000368931671976162,-5.02155033317913e-11
3,0.00228880328428481,1.19901717463629e-08
3,-0.0019520027338948,-7.43774465895461e-09
3,-0.00181083010103628,-5.93790322422462e-09
3,-0.00495974799116318,-1.2200533748319e-07
3,-0.000949819276846898,-8.56885785140517e-10
3,0.00194323623517509,7.33798467213806e-09
3,0.00322939528231285,3.36793436657769e-08
3,-0.00212653259093862,-9.61647992029449e-09
3,-0.00321627576735491,-3.32705389303921e-08
3,-0.00224710400036136,-1.13466985921938e-08
3,0.00608698118362427,2.25530808980734e-07
3,-0.00263741680480148,-1.83457853203435e-08
3,-0.00157634521522689,-3.91700385137985e-09
3,0.00418716510246927,7.34108507642143e-08
3,0.031734807122211,3.19600602463362e-05
3,0.0195003408256721,7.41526380368099e-06
3,0.00708448155899445,3.55569271938388e-07
3,0.011713823534458,1.60729662080009e-06
3,0.00948765659098877,8.54037362382332e-07
3,0.00440795349140948,8.56467742901228e-08
3,0.0073526315427785,3.97492015274111e-07
3,-0.00261743390772051,-1.79319356883333e-08
3,-0.0101079159619048,-1.03272542099008e-06
3,-0.0151887723666954,-3.50403164971313e-06
3,-0.00914589642263498,-7.6503065190315e-07
3,0.00166838273401704,4.64394492037214e-09
3,0.00548467291846021,1.64987939920205e-07
3,0.010866657042073,1.28318088675494e-06
3,0.0040249901905123,6.52070388666666e-08
3,-0.00462822237870625,-9.91385708161782e-08
3,0.00310735885948024,3.00036599384779e-08
3,0.0155435682533129,3.75536516723664e-06
3,-0.00391575765340804,-6.00409307902902e-08
3,-0.00227024651053406,-1.17008941462341e-08
3,0.00470740766596635,1.04314680146637e-07
3,0.0179384236684483,5.77235232106496e-06
3,0.00199613725921532,7.95373657754703e-09
3,0.0066668124713716,2.96315737348804e-07
3,0.0233567157518466,1.27419332716841e-05
3,0.00762762793401944,4.43780792797797e-07
3,-0.00249063575854143,-1.54500773191463e-08
3,0.00770489150512461,4.57403604843149e-07
3,0.000892692388574766,7.11386297200378e-10
3,0.00181693891267875,5.9982004959836e-09
3,0.00465787825973599,1.01056534336726e-07
3,0.00439455968077733,8.48684167798967e-08
3,0.0140642112398576,2.78192964328418e-06
3,0.00886243191809348,6.96079327007211e-07
3,0.00442228483823264,8.64848697765133e-08
3,0.00564529678374766,1.79912084571638e-07
3,-5.17597218777302e-05,-1.38667856437895e-13
3,-0.00107225396678019,-1.23280101912655e-09
3,-0.00114736723742135,-1.51045340968421e-09
3,-0.000427488617411773,-7.81220563237444e-11
3,-0.000609386415312099,-2.26296744151579e-10
3,-0.00123495602956321,-1.88345168773478e-09
3,-0.000802127669594334,-5.16096e-10
3,0.000106809364716147,1.21850690869895e-12
3,0.00230425630372381,1.22346726184421e-08
3,0.00123714905411984,1.89350336943158e-09
3,0.00181810958819918,6.00980210526316e-09
3,-0.00322039066349627,-3.33984011405333e-08
3,0.00221266190874639,1.08329110829631e-08
3,0.000858524898841533,6.32788656222329e-10
3,0.00250715251515942,1.57594937136992e-08
3,0.0068535016827546,3.21912300149717e-07
3,-0.00494735588107073,-1.21093116231089e-07
3,-0.000678703597520067,-3.12637056846181e-10
3,-0.00340704149011467,-3.95487049686591e-08
3,-0.0035751246944011,-4.56955155589016e-08
3,-0.000974122898552071,-9.24360240856253e-10
3,-0.00285801303677223,-2.3344932172938e-08
3,-0.00376849357826458,-5.35184267979872e-08
3,-0.0027707856320795,-2.12720223587129e-08
3,-0.000903546167023594,-7.3765118377296e-10
3,-0.00102999172198364,-1.09270065376906e-09
3,-0.00232333391612478,-1.25410788078837e-08
3,-0.00163463226242581,-4.36777440242768e-09
3,-0.00251244184924259,-1.58594475963864e-08
3,-0.00221353192730082,-1.08456946084532e-08
3,-0.0016846371086034,-4.78100379966950e-09
3,-0.000833797802912366,-5.79671888090196e-10
3,-0.00287250979845468,-2.37019761276337e-08
3,-0.00699230657036462,-3.41870308354285e-07
3,-0.00257526823575708,-1.70791956429867e-08
3,-0.00339973922767116,-3.92949571092406e-08
3,-0.00212897596658816,-9.64966588820554e-09
3,-0.00255503577931625,-1.66798045896254e-08
3,-0.000608518286524318,-2.25330977712959e-10
3,0.00542211348988855,1.59406420813337e-07
3,0.00362944062689018,4.7810037996695e-08
3,-0.00206018980760889,-8.74423262536056e-09
3,-0.000722814991571177,-3.77643013421486e-10
3,-6.65512411531474e-05,-2.94759952521387e-13
3,0.00618090388080322,2.36132611279495e-07
3,0.00179636291106677,5.79671888090197e-09
3,-0.00105907376279102,-1.1878965669922e-09
3,-0.00172068132096076,-5.09449725537016e-09
3,-0.000380178423560824,-5.49493293840915e-11
3,-0.00017496696357721,-5.35634035160783e-12
3,0.0158140857361717,3.95487049686591e-06
3,0.0139421543999608,2.71012713038368e-06
3,-0.00339214783746109,-3.90323154148706e-08
3,-0.000565982975144261,-1.81305134448097e-10
3,-0.000786437744822449,-4.86399418926079e-10
3,0.00691544445264888,3.30719872449957e-07
3,0.00618863475724727,2.37019761276337e-07
3,-0.0018322918798928,-6.15154167915434e-09
3,-0.00580311764589727,-1.95426801977312e-07
3,-0.00253260544136034,-1.6244360049881e-08
3,0.00980930688943378,9.4387604836462e-07
3,-0.00189956837557669,-6.85432656932313e-09
3,-0.000454346534627067,-9.37911065926608e-11
3,0.0229635918134864,1.21093116231089e-05
3,0.0165942588603054,4.56955155589016e-06
3,0.0091185056454764,7.58177712971489e-07
3,0.0150769770715911,3.4272266255791e-06
3,0.0150644678385314,3.41870308354285e-06
3,0.00457733792113831,9.59044868587933e-08
3,0.00222983024207704,1.10870346252605e-08
3,0.00694212626284395,3.34562703556034e-07
3,0.00379804072774157,5.47871680799683e-08
3,0.0132573734544379,2.33008879280641e-06
3,0.00529564622872757,1.48510409002001e-07
3,-0.00128738229702182,-2.13364714215215e-09
3,-0.0035263927068494,-4.38522643984501e-08
3,-0.00522067491925478,-1.42291826543154e-07
3,0.00554824722325227,1.70791956429867e-07
3,-0.00346196104396584,-4.14922064276636e-08
3,-0.00210798005759582,-9.36697786248447e-09
3,0.00670438303895338,3.01353650081767e-07
3,0.0132832408141945,2.34375460488674e-06
3,0.00732451612915695,3.92949571092406e-07
3,0.00362281399205284,4.75486410501213e-08
3,0.00197968747240105,7.75871688055327e-09
3,-0.000851403997936621,-6.17173194881226e-10
3,-0.000691305841926455,-3.30377666062201e-10
3,0.0045867396766617,9.64966588820555e-08
3,0.00578580311439889,1.93682754440889e-07
3,0.00542275241835008,1.59462779630728e-07
3,-0.000930891876121449,-8.06673370967774e-10
3,0.0045214779684858,9.24360240856252e-08
3,0.00550465771723158,1.66798045896254e-07
3,0.00160595322754558,4.14189111494532e-09
3,0.000800447878160094,5.12860407584853e-10
3,0.00115830012851455,1.55404400955511e-09
3,0.00802815508573973,5.17424823793285e-07
3,0.00745856896865899,4.14922064276635e-07
3,0.00163032571667724,4.33334370874051e-09
3,-0.00339351823993585,-3.90796408234337e-08
3,0.00315026303958196,3.12637056846181e-08
3,0.00131101290600675,2.25330977712959e-09
3,0.000147863812695336,3.23285109217005e-12
3,0.000368384753221234,4.99925099483397e-11
3,0.00160946703505411,4.16913787650925e-09
3,0.00126663432786556,2.03214064284098e-09
3,0.00454150536197985,9.36697786248449e-08
3,0.00132375898505683,2.31967297447929e-09
3,0.00181331366911226,5.96236839410964e-09
3,0.00450528366252872,9.14463595268352e-08
3,-0.0159627281655467,-4.06744186046512e-06
3,-0.0185275945633911,-6.36000000000001e-06
3,-0.0116716531971671,-1.59e-06
3,-0.0114635517691343,-1.50645994832042e-06
3,-0.0262743471006324,-1.81382673430491e-05
3,-0.0474631756971336,-0.000106922813684211
3,0.0245468755068181,1.47906976744186e-05
3,-0.00444156248731687,-8.76208232727271e-08
3,-0.00345301235709717,-4.11712826873384e-08
3,-0.00262638530829762,-1.81165426603711e-08
3,-0.000282864774484956,-2.26327122934672e-11
3,0.0284910293824317,2.31272727272727e-05
3,0.00862591126339439,6.41822530472727e-07
3,-0.00602043695366208,-2.18214717574737e-07
3,-0.00909924631660053,-7.53383777940095e-07
3,0.0179482238260495,5.78181818181819e-06
3,0.0176282133745943,5.47803617571059e-06
3,0.00670605857032933,3.01579645684755e-07
3,-0.00319060480464988,-3.24802261586117e-08
3,0.0404036904352096,6.59573357929061e-05
3,-0.00396231269867356,-6.22080000000002e-08
3,-0.00127179504984075,-2.05708099004542e-09
3,0.0729870641730539,0.000388810231578948
3,0.0122224219238569,1.82587824909474e-06
3,0.00898101260182813,7.24395789473685e-07
3,0.00510067497137562,1.32703674987219e-07
3,0.0067442214211504,3.06757691498001e-07
3,0.00288266177815448,2.39541667919762e-08
3,0.000549348669801396,1.65784617549648e-10
3,0.0184728830359968,6.30382344807019e-06
3,-0.0171170072007992,-5.01514506993865e-06
3,-0.000718973795025155,-3.71654319631193e-10
3,-0.00402483795530241,-6.519964026593e-08
3,-0.00205397111842171,-8.66528792228171e-09
3,-0.0137757237737857,-2.61422689060803e-06
3,0.0350304382131224,4.29869577423313e-05
3,-0.0255209220691995,-1.66222222222222e-05
3,-0.0589961575187589,-0.000205338875581687
3,-0.035078623921214,-4.31645924771964e-05
3,-0.0290252663465301,-2.44528025482044e-05
3,-0.0105513928195752,-1.1747065093043e-06
3,0.0392451021125556,6.04444444444445e-05
3,-0.00721823034735996,-3.76090368344397e-07
3,-0.00159138615291259,-4.03020116737124e-09
3,0.0907220444384488,0.000746686820297048
3,0.00147140015821848,3.18560845398163e-09
3,0.0539425720600211,0.000156962154462532
3,0.0145538354452959,3.08270793724914e-06
3,0.00823694444110928,5.58854059422255e-07
3,0.0292001215663027,2.48973989581717e-05
3,0.0446339492956033,8.89192819934702e-05
3,0.00320864963915751,3.30344357981249e-08
3,0.00420350984908449,7.42738964767005e-08
3,0.0162255300772877,4.27166003383384e-06
3,-0.0111868953381829,-1.40000222161511e-06
3,-0.0227787685982062,-1.18192720275376e-05
3,-0.00985224500578074,-9.56325222164906e-07
3,-0.00564225961949616,-1.79621863180006e-07
3,0.0231886003412769,1.24687697862596e-05
3,-0.0414688567212425,-7.13125861872981e-05
3,-0.0155482634581691,-3.75876931520323e-06
3,-0.0284717188552519,-2.30802792827942e-05
3,-0.0140528774793744,-2.77520953888767e-06
3,-0.0109706683216525,-1.32038096698712e-06
3,0.0472166535327601,0.000105265391495257
3,0.0637692287176496,0.000259318495226538
3,-0.0069934927593718,-3.42044324579902e-07
3,-0.0104729102873466,-1.14868817401477e-06
3,0.0239095274627709,1.36682520552845e-05
3,-0.0131223840955659,-2.25963470631167e-06
3,-0.00997383618264648,-9.92171373243778e-07
3,0.0204220889707993,8.51727150990623e-06
3,0.043782725042794,8.39282883010707e-05
3,-0.00222840227448091,-1.10657480859624e-08
3,0.0116954793428391,1.59975721894693e-06
3,0.021609979849391,1.00916710505006e-05
3,0.0141978763143573,2.86200353219918e-06
3,0.0251276248490321,1.58655202783586e-05
3,0.0050509160762994,1.28857724422061e-07
3,-0.00682754358986151,-3.18268344128101e-07
3,0.0168702759782274,4.80138533449863e-06
3,0.0212616342115815,9.61147247645011e-06
3,0.0190985732530057,6.96630964192439e-06
3,0.0145300947529748,3.06764669039133e-06
3,-0.0140511000952554,-2.7741566606726e-06
3,-0.0107119462388717,-1.22915075744533e-06
3,-0.00693158246155606,-3.3304060173991e-07
3,-0.00895804362851368,-7.18852056973389e-07
3,-0.00414986181915771,-7.14662357790477e-08
3,-0.00362445423158409,-4.76132536498284e-08
3,-0.00382415879929227,-5.59252268680149e-08
3,-0.00588219784566467,-2.03525524806533e-07
3,-0.0111630419593118,-1.39106579377889e-06
3,-0.021231006549634,-9.56999592624169e-06
3,-0.0222502833207326,-1.10155614147687e-05
3,-0.00330802690733568,-3.61998774491297e-08
3,-0.0158852792007681,-4.00852463773057e-06
3,-0.00619477776673712,-2.37726279171701e-07
3,-0.00661108219533391,-2.88946654385353e-07
3,-0.0134687399574568,-2.44332311739801e-06
3,-0.0126295788767669,-2.01449692490155e-06
3,-0.0112725987638345,-1.43242584094896e-06
3,-0.0157572388692377,-3.91237392733815e-06
3,-0.0208932812566016,-9.12052738715804e-06
3,-0.00762319636080065,-4.43007745903149e-07
3,-0.0183580127382517,-6.18695561771113e-06
3,-0.00497364668028255,-1.23033900180779e-07
3,0.0124822858433145,1.94483325067064e-06
3,-0.00639522191893176,-2.61557307626377e-07
3,-0.00860026337278805,-6.36114438943853e-07
3,-0.00361626228512523,-4.7291138135133e-08
3,-0.00535719243413381,-1.53748801994353e-07
3,-0.00348212592460478,-4.22214765857682e-08
3,-0.0146147174561175,-3.1215570092598e-06
3,0.0312187901630141,3.04262343428608e-05
3,0.00980299410866904,9.42054926178355e-07
3,0.0123846922725926,1.89957156486097e-06
3,0.037570191061964,5.30310481518096e-05
3,0.0137780879525988,2.61557307626377e-06
3,-0.0216150333528648,-1.00987525316454e-05
3,-0.0252763800809262,-1.61489627094763e-05
3,-0.0367150728683132,-4.9491792504e-05
3,-0.010614206260837,-1.19581106707755e-06
3,-0.0130693881292492,-2.2323678894e-06
3,-0.0068762994919925,-3.25135470609832e-07
3,-0.0164294151166119,-4.43472106499822e-06
3,0.0235032624062467,1.29832807419363e-05
3,0.0254301273423747,1.64454440594096e-05
3,0.033238775182157,3.67227364787104e-05
3,-0.0158932626149787,-4.0145713299879e-06
3,-0.0297814480376754,-2.6414198109019e-05
3,-0.0242385978324996,-1.42404095203261e-05
3,-0.00431734347599544,-8.04729281007771e-08
3,-0.0287115660149185,-2.36684949518614e-05
3,-0.00579782879649822,-1.94892964158133e-07
3,0.0237998448236622,1.3481008307465e-05
3,0.00994059450668452,9.82284012741701e-07
3,0.0388690547552315,5.87235007617322e-05
3,0.0308661362739147,2.94067349921614e-05
3,-0.0182521123424564,-6.08050149548153e-06
3,-0.0292761837914208,-2.50924689136981e-05
3,-0.0111568175973789,-1.38874017231105e-06
3,0.0447008906625621,8.93199619782557e-05
3,0.0564590409343334,0.00017997015456
3,0.0578382334599477,0.000193484001148564
3,0.0238457198023885,1.35591139176066e-05
3,0.0163221221953028,4.348403880282e-06
3,-0.0195662086805171,-7.49065928251003e-06
3,-0.00630159606139305,-2.50237091180223e-07
3,0.0468469302011611,0.000102811906537841
3,0.0212836258587871,9.64132777561802e-06
3,0.0200976073783801,8.117701416e-06
3,0.0470735230336813,0.000104310999736389
3,-0.0102136748237594,-1.06548191077361e-06
3,-0.00745386475031629,-4.14137468797208e-07
3,0.00696489583515175,3.37865522858544e-07
3,0.0297510080582618,2.63332860493913e-05
3,0.0105741115069446,1.18231080221757e-06
3,0.00838466684277779,5.89464198338191e-07
3,0.0366694044217715,4.93073393997229e-05
3,-0.00649982282196384,-2.74602543296056e-07
3,0.0154006175244612,3.65270337392161e-06
3,0.00856185218392911,6.27629252656829e-07
3,0.0334457119137409,3.74128966188186e-05
3,0.0394482932058743,6.13881651058715e-05
3,0.0185287057537452,6.36114438943855e-06
3,0.00646129521447867,2.69748322631297e-07
3,0.0252645289285671,1.61262584181754e-05
3,0.0557604269634828,0.000173371725522385
3,0.0588173140309108,0.000203477111554715
3,0.0433946511494249,8.17162830819276e-05
3,0.0195578324359634,7.4810432033041e-06
3,0.0118109618995508,1.64761525977634e-06
3,-0.00192911503008995,-7.17917226061744e-09
3,0.0199030170174453,7.88418385067589e-06
3,0.00903360348217232,7.37196172351104e-07
3,0.0130428146674261,2.21877860560254e-06
3,0.0143932435271171,2.98178290511735e-06
3,0.0101787082685461,1.05457628726382e-06
3,0.00779100091532777,4.72911381351329e-07
3,0.0246062800805247,1.48983402714672e-05
3,0.0112599016363627,1.42759096245832e-06
3,0.0224146032449395,1.12614203063768e-05
3,0.0139759095506853,2.72985917651151e-06
3,0.0142731622361717,2.90777371708677e-06
3,0.00372242508348461,5.15795914724358e-08
3,-0.00390049781160789,-5.93417180432433e-08
3,-0.00280452095399523,-2.20585046181818e-08
3,-0.00511837254453847,-1.34089780373006e-07
3,-0.00326975230582552,-3.49578378947368e-08
3,-0.00102113020547009,-1.064739507492e-09
3,-0.00277476230330217,-2.13637436059455e-08
3,0.00860593608835903,6.37374008612613e-07
3,-0.000650302060868718,-2.75008040098159e-10
3,-0.000120952138856876,-1.76945962642105e-12
3,-0.00197993491225898,-7.76162651522435e-09
3,-0.00387268178657658,-5.80811810663029e-08
3,0.006187807109318,2.36924679232323e-07
3,-0.00384530768468262,-5.68582236711657e-08
3,-0.00235978835222784,-1.31407199368421e-08
3,-0.00163730123115784,-4.38920398840834e-09
3,-0.0007454412162539,-4.14228718331289e-10
3,-0.00337806027980222,-3.85480297263158e-08
3,-0.00103932230357446,-1.1226664432572e-09
3,-0.000231725831341628,-1.244294973503e-11
3,0.0112930167179229,1.44022356696932e-06
3,0.00134193823836742,2.41656001192638e-09
3,0.00882038979316976,6.86219940858895e-07
3,0.00149706873752907,3.35525261848343e-09
3,-0.0128779837572876,-2.13571657894737e-06
3,-0.0154687038378892,-3.70136380491958e-06
3,0.00721427897868739,3.75473073684212e-07
3,0.000249592166335046,1.55486558662106e-11
3,0.00541289665296298,1.58594895789474e-07
3,0.00678415457599021,3.12239040783159e-07
3,0.0198032730239215,7.76624210526318e-06
3,0.00225298967224544,1.14360910063956e-08
3,0.00408571728142709,6.8203228740163e-08
3,0.0037556513683354,5.29731515842387e-08
3,0.00208726978730415,9.09359819038334e-09
3,0.0237871837083621,1.34595047451622e-05
3,0.00612214855538211,2.29462431323118e-07
3,0.00799151669224884,5.10372931497512e-07
3,0.000465374720655808,1.00787892853743e-10
3,-0.00518721299106882,-1.39573266463249e-07
3,-0.00420993872954811,-7.46152031565645e-08
3,-0.00658472239457592,-2.85504140380812e-07
3,-0.00382506007396245,-5.59647774252629e-08
3,-0.0265295573196975,-1.86719643630892e-05
3,-0.00272384031527668,-2.02090049661207e-08
3,-0.00568083977953968,-1.83331723927969e-07
3,-0.0176851909286926,-5.53132604018888e-06
3,-0.00134728073909818,-2.44553736815047e-09
3,-0.00865077339971218,-6.47388243622272e-07
3,-0.0175912158345943,-5.4436171242245e-06
3,-0.000929547345451945,-8.03183068811645e-10
3,-0.000323776378226436,-3.39418478374226e-11
3,-0.000890419539298114,-7.05966421263256e-10
3,-0.000943732621125396,-8.40517773622308e-10
3,-0.00496032125842545,-1.22047647949592e-07
3,-0.00652948079116808,-2.78378663685247e-07
3,-0.0042881632404301,-7.88522206927375e-08
3,-0.00188632130282947,-6.71192365877727e-09
3,-0.00162570134292607,-4.29657397426173e-09
3,-0.00413190659739199,-7.05426039691545e-08
3,-4.00087924601138e-05,-6.40422130861085e-14
3,-0.00241123449978586,-1.40190423149458e-08
3,-0.00654590899358899,-2.80485160592838e-07
3,-0.00274567884531729,-2.06989927695665e-08
3,-0.00101616716306029,-1.04928984639231e-09
3,-6.52988424502648e-05,-2.78430269573738e-13
3,-0.000287851660938573,-2.38509795032711e-11
3,-0.00102425546337903,-1.07454564280452e-09
3,-0.00176317416407865,-5.48132610160771e-09
3,-0.00366041817132197,-4.90447028873973e-08
3,-0.00482203435842051,-1.12122016938486e-07
3,-0.0028770571384119,-2.38147189871972e-08
3,-0.0034726447157425,-4.18775301048175e-08
3,-0.0100661081360641,-1.01996383830029e-06
3,-0.00108058215349859,-1.26175016976429e-09
3,-0.00295016923689369,-2.56767936056809e-08
3,-0.00565257060912064,-1.80608417832077e-07
3,-0.00530998516284085,-1.49720035953437e-07
3,-0.00239946962566874,-1.38148371567446e-08
3,-0.00327142895813102,-3.50116421533636e-08
3,-0.000300972197270481,-2.72633448326986e-11
3,-0.000122922066045985,-1.85733205235152e-12
3,-0.000475642040858169,-1.07607044078993e-10
3,-0.000671576447876733,-3.02891001501061e-10
3,-0.00245814674354762,-1.48533158404421e-08
3,-0.00774495318811568,-4.64575594639762e-07
3,-0.0100071293582155,-1.00214033265947e-06
3,-0.00427975143694245,-7.83890929607457e-08
3,-0.00346456799902654,-4.15860114622218e-08
3,-0.00349613149918941,-4.27329896729519e-08
3,-0.0062874673619967,-2.48557705391072e-07
3,-0.00634591899898209,-2.55554523710944e-07
3,-0.00720590301073413,-3.74166789098636e-07
3,-0.00916607576462063,-7.70105682674029e-07
3,-0.00421628092917514,-7.4952930952563e-08
3,-0.00805620171380928,-5.22866713755192e-07
3,-0.000864267830618385,-6.45572533407675e-10
3,-0.0135234330145809,-2.47320925238931e-06
3,-0.00100384199950916,-1.01157033811976e-09
3,-0.00118848467538418,-1.67872964042015e-09
3,-0.00222109517918074,-1.09572484326567e-08
3,-0.000177412895365466,-5.58413039335696e-12
3,-0.00215731751076836,-1.00401963438702e-08
3,-0.00375712077631335,-5.30353535481539e-08
3,0.0046411902607156,9.99742412337446e-08
3,-0.0028179305386361,-2.23764326688773e-08
3,-0.00367966316894504,-4.98223487498708e-08
3,-0.00307186447182019,-2.89871924041658e-08
3,-0.00663074993761979,-2.91533152985563e-07
3,-0.00128006669066154,-2.09747981501886e-09
3,-0.00457248436445902,-9.55997347442394e-08
3,-0.0038706085579714,-5.79879502355508e-08
3,-0.00392052164865847,-6.02603387860784e-08
3,-0.00238705181328938,-1.36014602826867e-08
3,-0.00716129667912415,-3.67261157218073e-07
3,-0.00072804724790208,-3.85903478771996e-10
3,-0.00084321126443295,-5.99527624459462e-10
3,-0.00230865914123123,-1.23049385876237e-08
3,-4.77816093693264e-05,-1.09089341548089e-13
3,-0.000860177886815883,-6.36450776913506e-10
3,-0.00146214655418898,-3.12588297632194e-09
3,-0.00307388416837499,-2.9044405703248e-08
3,-0.00212713144152005,-9.62460646842403e-09
3,-0.00375223806272141,-5.28288496326732e-08
3,-0.000658446375035548,-2.85470498372441e-10
3,-0.00124998164317113,-1.95303895362831e-09
3,-0.0119801167407288,-1.71942465651808e-06
3,-0.00614305503172917,-2.31821236368935e-07
3,-0.012059466809139,-1.7538171786906e-06
3,-0.00389952506106,-5.92973311751946e-08
3,-0.0018989175984966,-6.84728426853019e-09
3,-0.0021381200169174,-9.77453797221987e-09
3,-0.00369258992586245,-5.03492773403955e-08
3,0.0115249704863835,1.53080356766144e-06
3,-0.0159367254830936,-4.04759709358143e-06
3,-0.00202234393125297,-8.27113383785453e-09
3,-0.00931813843732538,-8.09072565481565e-07
3,-0.0211515062605209,-9.46289237162571e-06
3,-0.00263191805252993,-1.82312769664114e-08
3,-0.00099274903458167,-9.78404452013124e-10
3,-0.00612214354200121,-2.29461867608459e-07
3,-0.00107031146410865,-1.22611309720594e-09
3,0.00935365863924693,8.18360292684899e-07
3,0.00770683914928845,4.57750560282375e-07
3,0.0146231307796147,3.12695111776762e-06
3,0.00607104730653784,2.23764326688773e-07
3,-0.0030402494220602,-2.81013797441179e-08
3,-0.0149054351408025,-3.31157028746099e-06
3,-0.00248993272833648,-1.54369977606821e-08
3,-0.00452981102853293,-9.2948043891559e-08
3,-0.00417682757020778,-7.28684682876241e-08
3,-0.0181956771288636,-6.02427329673548e-06
3,-0.00325125336384033,-3.43678562851384e-08
3,-0.00337947194393721,-3.85963766562716e-08
3,-0.00326887983824596,-3.49298619749538e-08
3,-0.00110040482653158,-1.33247006119491e-09
3,-0.00356620990301485,-4.53545335717423e-08
3,-0.00452758887077328,-9.2811320366802e-08
3,0.0146299624459568,3.1313357332089e-06
3,0.0188943119189219,6.74517531597715e-06
3,0.00792759397880785,4.98223487498708e-07
3,-0.00721463586036424,-3.75528799040596e-07
3,-0.000893003279614798,-7.12129803005437e-10
3,-0.0260987836539665,-1.77770953545984e-05
3,-0.00122590600954496,-1.84234738409978e-09
3,-0.00419632563254782,-7.38937225371229e-08
3,-0.000753000811036074,-4.26959156595745e-10
3,0.00849853370913495,6.13807236277075e-07
3,0.00661813138116589,2.89871924041659e-07
3,0.00570377794974122,1.85561480881862e-07
3,0.00633296934807601,2.53993239994911e-07
3,-0.00194016318430154,-7.30322663629763e-09
3,-0.00181805166086964,-6.00922768329633e-09
3,-0.00371456257602924,-5.12534420474748e-08
3,-0.0163799963124194,-4.39482310381839e-06
3,-0.00390757993000751,-5.96655448692156e-08
3,-0.00209035212091794,-9.13394407560054e-09
3,-6.29925694359749e-05,-2.49958534709052e-13
3,-0.000282117953341176,-2.24539201365423e-11
3,-0.00182755199088076,-6.10392547230147e-09
3,-0.00386058454808692,-5.75385885550722e-08
3,0.0589434761311648,0.000204789286562914
3,0.0101296960753936,1.03941563640427e-06
3,0.0101525676666794,1.04647215809254e-06
3,0.0142855176865348,2.91533152985563e-06
3,0.0248328182882351,1.53136258471141e-05
3,0.0365557563436511,4.88503097501205e-05
3,0.0310486577783708,2.99315006751281e-05
3,0.0135268349183367,2.47507617549484e-06
3,0.00389642749232339,5.91561357540108e-08
3,-0.0232408401165018,-1.25532295079277e-05
3,-0.0191522265488359,-7.02518573648692e-06
3,-0.0183161203060814,-6.14469685864826e-06
3,-0.0206457941909862,-8.80024536596604e-06
3,-0.00819328750028189,-5.50015062672663e-07
3,-0.0203272548537168,-8.39916661641749e-06
3,-0.00772219868379522,-4.60492874079846e-07
3,-0.026393322118524,-1.83857848827344e-05
3,-0.0188915761274563,-6.74224574839252e-06
3,-0.0200988253753836,-8.11917740292306e-06
3,-0.0208039387927386,-9.00402520601146e-06
3,-0.00873119488470928,-6.65611851281043e-07
3,-0.0696463467277077,-0.000337827517499434
3,-0.121251391583615,-0.00178262582918989
3,-0.00384175242339091,-5.67006609862194e-08
3,-0.0122876623407066,-1.85527292153666e-06
3,0.0357388789119992,4.56481073015552e-05
3,-0.00728656293310538,-3.86872767838822e-07
3,-0.00905813445445625,-7.43218118504395e-07
3,-0.00543900034908687,-1.6090045049982e-07
3,-0.0109140147439559,-1.30003070064757e-06
3,-0.00117463274982638,-1.62071374606384e-09
3,-0.00418972424024193,-7.35455361581791e-08
3,-0.00194350204920529,-7.34099635862652e-09
3,-0.00234675509987925,-1.29241893151891e-08
3,-0.000696172358118235,-3.37404077124615e-10
3,-0.000100459928357927,-1.01386140825665e-12
3,-0.00025024130852002,-1.56702890339065e-11
3,0.0060575091564046,2.22270710547173e-07
3,0.00808053495567733,5.27618894928094e-07
3,0.0294515646634485,2.55461299508615e-05
3,0.0146916117645089,3.17108826097395e-06
3,-0.00367698782833992,-4.97137560400878e-08
3,-0.00526511991255752,-1.45956956861343e-07
3,-0.00343032503992498,-4.03650802738227e-08
3,-0.0118523980018146,-1.6650170296704e-06
3,-0.00152432666226915,-3.54188240574421e-09
3,-0.00605350720481358,-2.21830465689521e-07
3,-0.0110428382787292,-1.34661093269011e-06
3,-0.00537162456319703,-1.54994737621258e-07
3,-0.00720185865932188,-3.73537133323831e-07
3,-0.0164296066990302,-4.43487620585147e-06
3,-0.000580190010549405,-1.95303821474295e-10
3,-0.00199901828111045,-7.98822515501112e-09
3,-0.000202160207508722,-8.26203487953576e-12
3,-0.00213754251024673,-9.76661979695915e-09
3,-0.000462740195868051,-9.90858588815597e-11
3,0.00654139924594679,2.79905846380339e-07
3,0.00275782008391554,2.09747981501887e-08
3,0.0281658323225531,2.23443522132664e-05
3,0.00714103895068732,3.64153262993644e-07
3,-0.00351683960034364,-4.34968375953375e-08
3,-0.00560223822746888,-1.75826656613809e-07
3,-0.00921085725276779,-7.81448128388928e-07
3,-0.00481037550254868,-1.11310706028263e-07
3,-0.00427147499887678,-7.79351913939843e-08
3,-0.00407113142573568,-6.74753844942714e-08
3,-0.00357818598567247,-4.58129999359081e-08
3,-0.00996417837094541,-9.8929196099094e-07
3,-0.00102586911259623,-1.0796322826426e-09
3,-0.00788968508662631,-4.91110259290842e-07
3,-0.00598545328185213,-2.14432760288002e-07
3,-0.000192242677158138,-7.10476008847359e-12
3,-0.000394222411450127,-6.12666212724379e-11
3,-0.000508642883392771,-1.31594857313081e-10
3,-0.000145804976264795,-3.09968127376824e-12
3,-0.00075963098343426,-4.38336878519589e-10
3,-0.0013050773695715,-2.22284293537936e-09
3,0.00731149092651028,3.90856947644963e-07
3,0.0127335461447497,2.06465788641083e-06
3,0.0317483161079796,3.20008922398765e-05
3,0.0102253333790848,1.06913470900934e-06
3,0.00713867496678739,3.6379173261555e-07
3,-0.00109422148964754,-1.31013400536953e-09
3,-0.00603980102559061,-2.20327088002937e-07
3,-0.00092356264760503,-7.87769351201409e-10
3,-0.00303253075339312,-2.78878890165282e-08
3,-0.00682419471963693,-3.17800247514197e-07
3,0.00666199777296564,2.95674213005752e-07
3,0.0113717321052981,1.47055021895186e-06
3,-0.00318061380038115,-3.21760565793579e-08
3,-0.00501984040964677,-1.26493943161347e-07
3,-0.0087107253111935,-6.60941399989501e-07
3,-0.0220011511234511,-1.06496715187082e-05
3,-0.00443928810908076,-8.7486288951588e-08
3,-0.00267799659937681,-1.92056965875081e-08
3,-3.65302225163084e-05,-4.87480168870148e-14
3,-0.00195407412457117,-7.46144774484236e-09
3,-0.00438536777467993,-8.43369833672563e-08
3,0.00660099382057279,2.87625892029484e-07
3,0.0125993255147373,2.00005477335514e-06
3,-0.00655598307261875,-2.81782144947409e-07
3,-0.00508625507779679,-1.31581371643914e-07
3,-0.00207503319460914,-8.93460065247613e-09
3,-0.00694392963947209,-3.34823502315537e-07
3,-0.000207512238344211,-8.9357527798618e-12
3,-0.000786744179675126,-4.86968215960242e-10
3,-0.000725505946655196,-3.81876496522314e-10
3,0.0211937195787585,9.51966249080271e-06
3,0.0118712734956383,1.67298455551683e-06
3,0.0312584784452138,3.05424240597e-05
3,0.0230184160898404,1.21962497423357e-05
3,0.0186967060102942,6.53574798288922e-06
3,-0.00689550335872302,-3.2786716318499e-07
3,-0.0121222123820962,-1.78133526560153e-06
3,-0.00539151931497221,-1.56723274200521e-07
3,-0.0254069668684149,-1.64005519333568e-05
3,-0.00157995280037114,-3.94395852309925e-09
3,-0.00412389556701032,-7.01330903655638e-08
3,-0.00521959644345969,-1.4220366174019e-07
3,-0.00230966246878022,-1.23209884884523e-08
3,-0.0129880390208536,-2.19094136139745e-06
3,-0.0180566968555858,-5.88728311068878e-06
3,0.00227511515210234,1.17763349178e-08
3,0.0119816351609911,1.7200785249775e-06
3,0.0118749030719677,1.67451954210853e-06
3,0.00296037859710557,2.59442886220764e-08
3,0.0097643654767582,9.30962268600022e-07
3,0.00685242470713529,3.21760565793579e-07
3,-0.00375222631138478,-5.28283532827817e-08
3,-0.00316845962103719,-3.18085982188843e-08
3,-0.00741597146883928,-4.07853459924578e-07
3,-0.00600292443798984,-2.1631599326999e-07
3,-0.00447669215216428,-8.97163695347622e-08
3,-0.000367898226240473,-4.97946956052349e-11
3,-0.000905409579338106,-7.42224447676345e-10
3,-0.00161318175184239,-4.19807218578394e-09
3,0.0405866456871138,6.68573995735797e-05
3,-0.00220048124427668,-1.06549891955428e-08
3,-0.000889199872923175,-7.0306936685801e-10
3,-0.00263226043581734,-1.82383929515726e-08
3,-0.00249851571028823,-1.55971860880038e-08
3,-0.000972655862495376,-9.20190247791382e-10
3,-0.0034802340256696,-4.21526950051983e-08
3,-0.00466204409466082,-1.01327920647546e-07
3,0.00605183926267058,2.21647151241324e-07
3,0.00445595478223595,8.84753573202457e-08
3,0.00621144325805469,2.39650073653021e-07
3,0.0136053581670287,2.51843031124081e-06
3,0.0098511189344189,9.55997347442395e-07
3,0.00518663617955421,1.39526710529242e-07
3,0.0290507463711084,2.45172572668819e-05
3,0.018263562112525,6.09195179101963e-06
3,0.0117564519535972,1.62490816117574e-06
3,0.00867047551522121,6.51821600749687e-07
3,0.00681824769938386,3.1697011969669e-07
3,-0.00928539547345314,-8.00573511234113e-07
3,-0.00104309864515512,-1.1349484705489e-09
3,-0.0340534229562034,-3.94895620738325e-05
3,-0.00358737119629027,-4.61667125538175e-08
3,-0.00333555559867742,-3.71111619441138e-08
3,-0.0035212672065927,-4.36613285491139e-08
3,-0.00256398240369612,-1.68556351070088e-08
3,-0.00571868800092861,-1.8702049800471e-07
3,0.0126217124513289,2.01073503662934e-06
3,0.00384030634793385,5.66366569334501e-08
3,0.0119012228727832,1.68567856643272e-06
3,0.0173063311535024,5.18340363338289e-06
3,0.00833897334882788,5.79879502355511e-07
3,0.0039470210156804,6.14905413260426e-08
3,0.0249972979734197,1.56199342477132e-05
3,0.00943578977044458,8.40107319789092e-07
3,0.0309072082921059,2.95242814651748e-05
3,0.0109664436098897,1.31885615163787e-06
3,0.0214461787626174,9.86392508195507e-06
3,0.00826380708194966,5.64339579406636e-07
3,0.0108149183169669,1.26493943161347e-06
3,0.0145400983411318,3.07398703578991e-06
3,0.0132039742383231,2.30204603938398e-06
3,0.0057574732249438,1.90851589313307e-07
3,0.019627239000158,7.56097205054442e-06
3,-0.00246765023362451,-1.50262568315742e-08
3,-0.0125668908272607,-1.98464816392753e-06
3,-0.0384318592441251,-5.67641560627064e-05
3,-0.00822654642893704,-5.56740300289867e-07
3,-0.00693746517146642,-3.33889258356938e-07
3,-0.00206543501503234,-8.81119080334104e-09
3,-0.00074508323890008,-4.13632239497803e-10
3,-0.0049604521176872,-1.22057307497199e-07
3,-0.0121348613741625,-1.7869173196903e-06
3,0.00796069723514029,5.04490881411482e-07
3,0.00808307626273024,5.28116855779078e-07
3,0.0319915048543538,3.27419098400419e-05
3,0.0072631992428468,3.83163272191232e-07
3,0.00428638687394827,7.87542679670554e-08
3,-0.000511713709542906,-1.3399270589376e-10
3,-0.000638817695598446,-2.60693866558593e-10
3,-0.00251985177014043,-1.6000184209405e-08
3,-0.00624713895886675,-2.43805500197959e-07
3,0.0392930276528403,6.06661565698135e-05
3,0.00976057945949287,9.298797795934e-07
3,0.0111799252489076,1.39738700223208e-06
3,0.0152107944859834,3.51929518873686e-06
3,0.00844650784289081,6.02603387860784e-07
3,0.0220055009312862,1.06559893495702e-05
3,0.010432174928242,1.13533645307572e-06
3,0.0202258387599826,8.27407821919693e-06
3,0.0112804819963798,1.43543314520633e-06
3,0.0232124286912567,1.25072476095427e-05
3,0.0047615839302658,1.0795787600531e-07
3,-0.00493970784203998,-1.20532396146975e-07
3,-0.0101599654395923,-1.04876139347994e-06
3,-0.0173272179551121,-5.20219365392649e-06
3,-0.00136300079556599,-2.53214358093611e-09
3,-0.00125524702684339,-1.97782382512593e-09
3,-0.0052583141955401,-1.45391694350546e-07
3,-0.00324301010859976,-3.41071088459111e-08
3,0.00299339371290789,2.68220227474568e-08
3,9.45106063461804e-05,8.44192808862337e-13
3,0.00163181122064617,4.34519974409012e-09
3,0.00393614492148339,6.0983625516597e-08
3,0.00463886461948357,9.98240290775545e-08
3,0.00167430597727669,4.69358279253584e-09
3,0.00365119106021325,4.86747442347004e-08
3,0.0134264990068122,2.42040673193107e-06
3,0.00236836605746187,1.32845389021626e-08
3,0.00208236569918501,9.02965181846536e-09
3,0.0022214395445979,1.09623457592144e-08
3,0.0103240442991384,1.1003974571526e-06
3,0.00173210050007367,5.19659966808094e-09
3,0.00115985476751281,1.56030979889444e-09
3,0.0100060886528603,1.0018277082346e-06
3,-0.000751384702397053,-4.24216002101695e-10
3,-0.00263208180863306,-1.823468019011e-08
3,0.019220322799109,7.10038718811525e-06
3,0.00569592883476251,1.84796466878831e-07
3,0.00505197099979258,1.28938480129616e-07
3,0.00514274723345415,1.36014602826867e-07
3,0.0213740017453796,9.76466889374303e-06
3,0.00870051015630154,6.58618847984294e-07
3,0.00745995175060823,4.15152880584547e-07
3,0.107099499841115,0.00122846369999794
3,0.0084475770679652,6.02832263591632e-07
3,0.0139866530988168,2.73615950159707e-06
3,0.0160149178877057,4.10746762315977e-06
3,0.0187666887857741,6.60941399989502e-06
3,0.00460208429102579,9.7468370754285e-08
3,0.00220487608392481,1.07189577774063e-08
3,0.0242491032971873,1.42589337316024e-05
3,0.0205804711836101,8.71697781593715e-06
3,-0.0142267796597329,-2.87951812156812e-06
3,0.0390842334144309,5.97041878140751e-05
3,0.0154630467462314,3.69730438963288e-06
3,0.00688784056591396,3.26775326764728e-07
3,0.0255333924890628,1.66466007372357e-05
3,0.0154285459911152,3.67261157218074e-06
3,0.00696250462021939,3.37517650430967e-07
3,0.0485174517174856,0.000114207321726517
3,0.0379023723147341,5.44501624897246e-05
3,0.0489330223852441,0.000117167219382581
3,0.032895927761274,3.5598067140929e-05
3,0.186455772682734,0.00648227574250869
3,0.00391860714476568,6.01721013002174e-08
3,0.0319077644146614,3.24854682078621e-05
3,0.0121496031561571,1.79343763149965e-06
3,0.0474000432009971,0.000106496715187082
3,0.0154005003846805,3.65262002526041e-06
3,0.0486509713000277,0.000115152811446973
3,0.0134757144718835,2.44712075954747e-06
3,0.0719812821161733,0.000372956975141751
3,0.0741582096577262,0.000407828628942828
3,0.0350987719335812,4.323901218848e-05
3,-0.0187412185826699,-6.58253956085503e-06
3,-0.0297766955444198,-2.64015546740729e-05
3,-0.0437634285246743,-8.38173671516422e-05
3,0.00206527199489882,8.80910462567609e-09
3,0.00648596862206022,2.72850359235195e-07
3,0.00189533913044395,6.80864650657526e-09
3,0.00156853024686248,3.85903478771996e-09
3,0.00603710938905276,2.20032653042894e-07
3,0.00677249956751152,3.10632547192597e-07
3,0.00229847057252233,1.21427441224758e-08
3,0.00784758828068042,4.83290913440646e-07
3,0.00473167049407662,1.05935977993353e-07
3,0.00112678084822585,1.43060049229921e-09
3,0.000390224787858648,5.94216298308699e-11
3,0.00956415630124963,8.74862889515877e-07
3,0.00302540003080069,2.76916236728244e-08
3,0.0109080376134866,1.29789595961994e-06
3,0.00758289639393106,4.36018951897164e-07
3,0.0158739641233826,3.99996492669795e-06
3,0.00276095413544136,2.10463882051832e-08
3,0.0248811115563587,1.54031425724007e-05
3,-0.0028851726610668,-2.40168156737499e-08
3,-0.00456783053948758,-9.53081306191441e-08
3,0.000719367646879475,3.72265427894312e-10
3,0.00240043672464372,1.38315479751713e-08
3,0.000633682875619044,2.54457885105187e-10
3,0.00224396021713582,1.12991418105202e-08
3,0.00181664359912,5.99527624459464e-09
3,0.00122178706460505,1.82383929515726e-09
3,0.00227717368019304,1.18083295932618e-08
3,0.0070395843440813,3.48851865931686e-07
3,0.00786775731910513,4.87026807631039e-07
3,0.00419805176104986,7.39849470123646e-08
3,0.00388227214094169,5.85137492604565e-08
3,0.000800214391264984,5.12411741551299e-10
3,0.00576956877348482,1.92056965875082e-07
3,0.00789671297302113,4.9242382597098e-07
3,0.00813468949746775,5.38298217208573e-07
3,0.00512746319026662,1.34805513120319e-07
3,0.007050614819878,3.50494307249965e-07
3,0.0133865497739984,2.39886590234906e-06
3,0.00144794977346464,3.03571147242573e-09
3,0.0395319696183221,6.17796379373307e-05
3,0.00641656655606747,2.6418497241125e-07
3,-0.00373238052628146,-5.19945404984655e-08
3,-0.0102322603012946,-1.07130896506165e-06
3,0.00197833767932391,7.74285752353249e-09
3,0.000154251923494836,3.67021718983563e-12
3,0.0041936167321153,7.37507106044203e-08
3,0.00497385534132778,1.23049385876237e-07
3,0.00231941652429599,1.24777488704031e-08
3,0.00680921626625192,3.1571221400439e-07
3,0.000126507904772342,2.02466413114332e-12
3,0.00140366508881531,2.76560718954603e-09
3,0.000392613188700867,6.05194054925994e-11
3,0.00103247137525286,1.10061153389123e-09
3,0.0122617339969001,1.8435531853307e-06
3,0.00999483480588827,9.98451242005584e-07
3,0.00486693761775431,1.15283549346115e-07
3,0.00398546846006653,6.33050170024654e-08
3,-0.00907892977163539,-7.48348633771644e-07
3,0.00209678889689595,9.21858203327692e-09
3,0.000679976408690199,3.14399275270392e-10
3,0.000258806657211103,1.73350991552808e-11
3,0.000334970645774877,3.75854930322102e-11
3,0.000102942356770829,1.09089341548089e-12
3,0.00229219023489758,1.20434793992617e-08
3,0.000566577161328983,1.81876753105993e-10
3,0.00590770058144153,2.06184221768071e-07
3,0.000295962981647733,2.59246070169708e-11
3,0.0018749755938025,6.59153946923629e-09
3,7.87019786237187e-05,4.87480168870148e-13
3,0.000460228209727207,9.74809394166741e-11
3,0.0044226972492757,8.65090681104094e-08
3,0.000668515442967982,2.98768173631409e-10
3,0.00189466705645085,6.8014061793276e-09
3,0.00143771444133961,2.97178855146882e-09
3,0.00254268337996427,1.64390551698778e-08
3,0.00159906572225728,4.08882893591995e-09
3,-0.00381434878426615,-5.54959394073996e-08
3,0.0110208615309923,1.33858710654391e-06
3,0.00241954327898916,1.41644652915141e-08
3,0.00100144205660779,1.00433241140394e-09
3,0.00407319906613842,6.7578244622203e-08
3,0.00185319707895446,6.36450776913508e-09
3,0.00443197232611591,8.70544788150832e-08
3,0.014043009516583,2.76936736768829e-06
3,0.00742856748552355,4.09935207283056e-07
3,0.00141181313394026,2.81404898665378e-09
3,0.00367027056205154,4.9441796325642e-08
3,0.0188954992291452,6.74644698740604e-06
3,0.000202553423181103,8.31033941193977e-12
3,0.00415129857291731,7.15404900127257e-08
3,0.00154194086216169,3.66609025670929e-09
3,0.00615650834820167,2.33347642791359e-07
3,0.0042099250808698,7.46144774484235e-08
3,0.00174486993256071,5.31238053774809e-09
3,0.0248703718519317,1.53832053034289e-05
3,0.00164523839156276,4.45334668605807e-09
3,0.00677925771223825,3.11563397864508e-07
3,0.00744316741756517,4.12356991852743e-07
3,0.00957170054677465,8.76934809249105e-07
3,0.00571151805104784,1.8631793454373e-07
3,0.0106514716431972,1.20845044654999e-06
3,0.00579868704792547,1.94979526869246e-07
3,-0.00812383979633646,-5.36147211224029e-07
3,0.014507226431455,3.05318534364464e-06
3,0.00416505095741445,7.2253844066647e-08
3,0.00141397278070206,2.82698268067657e-09
3,0.00709376378815848,3.56968725804881e-07
3,0.00315009925825532,3.12588297632194e-08
3,0.0076541336471427,4.48423251312895e-07
3,0.00245508684549276,1.47979166904166e-08
3,0.00943116092095733,8.38871549469171e-07
3,0.00775320750920239,4.66062567296085e-07
3,0.000504551759995846,1.284449920812e-10
3,0.000898682812402541,7.25803916307425e-10
3,0.00264911801691793,1.8591050004991e-08
3,0.0138541750035641,2.65914492818001e-06
3,0.00944798846231836,8.43369833672562e-07
3,0.00160905354614175,4.16592541660704e-09
3,0.0345761792442252,4.1336243117602e-05
3,0.00293134578125384,2.51884331147036e-08
3,0.00908134284947785,7.48945500438379e-07
3,0.00541968250823768,1.59192109343972e-07
3,0.0234154582071163,1.28383136660825e-05
3,0.0141598197774082,2.83905089046307e-06
3,0.0065691833781348,2.8348765794004e-07
3,0.00560148720746513,1.75755953639615e-07
3,0.0262059521953361,1.79969882598007e-05
3,0.0581009576516039,0.000196132639134843
3,0.0101587641769149,1.04838943681059e-06
3,0.0158970059087819,4.01740861898116e-06
3,0.013562119657422,2.49449544590548e-06
3,0.00708185548982169,3.55174012207356e-07
3,0.0150830096338938,3.43134215183378e-06
3,0.0120880210737884,1.76630470337782e-06
3,-0.00510857736024428,-1.33321417688871e-07
3,-0.0021723952011695,-1.02521866498985e-08
3,-0.00205676780309998,-8.70073207699633e-09
3,-0.00243252085783701,-1.43936095822843e-08
3,-0.00249332568954468,-1.55001904797966e-08
3,-0.00327282195800434,-3.50563858881213e-08
3,-0.00719390792425969,-3.72301361803925e-07
3,-0.000602163143354122,-2.18344627484716e-10
3,-0.000372962570531309,-5.18794959939791e-11
3,-0.00277654808684809,-2.14050180390331e-08
3,-0.00123613817904592,-1.88886561352834e-09
3,-0.00671931467549855,-3.03371612994319e-07
3,-0.00103414360635648,-1.10596798076784e-09
3,0.0116706780765554,1.58960151859808e-06
3,-0.00800225862741082,-5.12433778907946e-07
3,-0.00868175107931323,-6.54367903405414e-07
3,-0.00735261781910233,-3.97489789523446e-07
3,-0.0101976049611461,-1.06046063598723e-06
3,-0.00125310724370052,-1.96772644095932e-09
3,-0.000185032798604226,-6.33499319376455e-12
3,-0.0278711652648848,-2.16503728292335e-05
3,-0.00149912976057632,-3.36912929115608e-09
3,0.00496289343589207,1.22237610056483e-07
3,-0.00275434491991511,-2.08956061988136e-08
3,-0.0145576342392702,-3.08512248205446e-06
3,-0.00744292231148999,-4.123162560195e-07
3,-0.00147363736809655,-3.20016136055332e-09
3,-0.00500233183357022,-1.25174969092163e-07
3,-0.00641050190805059,-2.63436593188909e-07
3,-0.0170630930332691,-4.96790492827388e-06
3,-0.00301092089043983,-2.72959387369965e-08
3,-0.00122515416935414,-1.83895976351293e-09
3,-0.00496278354771967,-1.222294904966e-07
3,-0.0141275257750943,-2.81967026826375e-06
3,-0.0315784764511405,-3.14900622425285e-05
3,-0.0123347026699503,-1.87666198036055e-06
3,-0.00868733966590758,-6.55632399322333e-07
3,-0.00919314821653463,-7.76949490556254e-07
3,-0.0301742195395025,-2.74731297649612e-05
3,-0.00139969027824428,-2.74217923894242e-09
3,-0.00187558746076013,-6.59799469165175e-09
3,-0.00822064619297285,-5.55543244973232e-07
3,0.00573741806355842,1.88864132950815e-07
3,-0.000939313191434537,-8.28764737741634e-10
3,-0.00752518539489732,-4.26139323206736e-07
3,-0.00282604571951581,-2.25703113797369e-08
3,-0.00761428895966737,-4.414566490242e-07
3,-0.00179383469030281,-5.77227821502926e-09
3,-0.000375653434747801,-5.3010523412321e-11
3,-4.74069175996301e-05,-1.06543057363488e-13
3,-0.00179543779865863,-5.78776770188349e-09
3,-0.00802195146107651,-5.16226255903808e-07
3,-0.00521363696649224,-1.41717134340814e-07
3,0.00469873963248667,1.0373949784111e-07
3,0.0183556287577921,6.18454560750968e-06
3,0.030324173651294,2.78847608954921e-05
3,0.016288030583198,4.3212135409881e-06
3,0.00188642160237936,6.7129943757072e-09
3,-0.0222351711288582,-1.09931316456996e-05
3,-0.00597494974010967,-2.13305851491788e-07
3,-0.0118611320654653,-1.66870060922635e-06
3,-0.0389602468804326,-5.91377913489218e-05
3,-0.0571224569811154,-0.000186389154298052
3,-0.0607630157226208,-0.000224345808765446
3,-0.026357611196726,-1.83112563302488e-05
3,-0.0581455645768756,-0.000196584727688215
3,0.0155039249466696,3.7267046217147e-06
3,0.0341923994390207,3.99750241661802e-05
3,-0.00257116854910237,-1.69977579795534e-08
3,-0.0126399921201938,-2.01948396714192e-06
3,-0.0321870650479645,-3.33460297332645e-05
3,-0.0165071221898678,-4.4979445598524e-06
3,-0.00111891824997122,-1.40086108884115e-09
3,-0.00462544392782733,-9.89601310405044e-08
3,-0.00367883894377517,-4.97888764174664e-08
3,-0.0312720673040987,-3.05822740937766e-05
3,-0.0124610841906467,-1.93493994693812e-06
3,0.00306964955395362,2.89245353742319e-08
3,0.00918805018220669,7.7565764178832e-07
3,0.00516560590876167,1.37836364706924e-07
3,-0.00332057074697593,-3.66132442490792e-08
3,-0.000518430790998099,-1.39338895163962e-10
3,-0.0103411831199071,-1.10588682934682e-06
3,-0.0010758327642512,-1.24518620166646e-09
3,-0.000391588564254835,-6.0046818415859e-11
3,-0.0100972514801898,-1.02946009935887e-06
3,-0.00226202114942059,-1.15741733732032e-08
3,0.00555715727577132,1.71616114250312e-07
3,0.0104200707813761,1.13138914371762e-06
3,0.0182395972142981,6.06800221536853e-06
3,0.0253943748672443,1.63761790790053e-05
3,0.0070189402114493,3.45791751241303e-07
3,-0.00456749004090953,-9.52868186219173e-08
3,-0.0116542048961987,-1.5828798401036e-06
3,-0.0217766089305458,-1.03269186547548e-05
3,-0.00460336491787617,-9.7549761277757e-08
3,-0.00151967959783055,-3.50958769656863e-09
3,-0.00189472956898093,-6.80207941709017e-09
3,-0.00577999863235099,-1.93100414927137e-07
3,-0.0265408515775091,-1.86958218027776e-05
3,-0.0199758763488931,-7.97108652166552e-06
3,0.0056960674979952,1.84809963412959e-07
3,0.0646654197195695,0.00027040598656429
3,0.00881343996166731,6.84599143022082e-07
3,-0.0691333852728662,-0.00033041782709311
3,-0.0261360114227298,-1.78532766117406e-05
3,-0.027234535265592,-2.02003970769373e-05
3,-0.00211566174568543,-9.469754065843e-09
3,-0.027011233476651,-1.9707577836324e-05
3,-0.0780427200588577,-0.000475332153643037
3,-0.0148085180013747,-3.24739257118317e-06
3,0.00747684703201285,4.17979985589138e-07
3,0.0199142526128271,7.89754366178947e-06
3,0.0172363790372348,5.1208034604844e-06
3,0.0151128211764641,3.45172851797455e-06
3,0.0599115840331747,0.000215046513996079
3,0.140039614494076,0.00274632999142325
3,-0.0440735308527361,-8.56117812860492e-05
3,-0.0327614382166524,-3.51632393375639e-05
3,0.0168654787815871,4.79729056321401e-06
3,0.0133533491676339,2.38106151536128e-06
3,0.00567554436924766,1.82819522175869e-07
3,0.0878407391028192,0.000677778742902006
3,0.00109584616713977,1.31597845432631e-09
3,0.022487982290852,1.13723828512058e-05
3,0.0529422499651317,0.000148390870539143
3,-0.0325484791798557,-3.44819726626157e-05
3,0.0164346700805175,4.43897777535449e-06
3,0.0233913273240433,1.27986628481218e-05
3,0.0355431512885006,4.49022176209369e-05
3,0.0565741216050635,0.000181072900723608
3,0.0152917677631447,3.57579885709602e-06
3,0.0934390517017816,0.000815802940965258
3,0.0331636321354352,3.64742413398941e-05
3,0.0218589367807867,1.04444867216088e-05
3,0.0420201978896609,7.41949386426231e-05
3,0.0551674679963304,0.000167899404275843
3,-0.00890538706464763,-7.0624990317498e-07
3,-0.00553891679842167,-1.69931747930717e-07
3,-0.0611757755578689,-0.00022894884214299
3,0.00137565738953919,2.60333978924083e-09
3,0.002874384899318,2.3748422563302e-08
3,0.00627187676454382,2.46713292430545e-07
3,0.00262430144737134,1.80734540748478e-08
3,0.00360255614606744,4.6755453541737e-08
3,0.00227406865421384,1.17600919046276e-08
3,0.00888266421206431,7.00857515641732e-07
3,0.00428557713608645,7.87096441836302e-08
3,0.0118229200534988,1.65262477342945e-06
3,-0.000530003994801196,-1.48880366444342e-10
3,-0.00630575543659025,-2.50732926088902e-07
3,0.000852042709414382,6.18563221466674e-10
3,0.000424429341431246,7.64568144075032e-11
3,0.00255204844210761,1.66213670932899e-08
3,0.00351656860410466,4.34867831949775e-08
3,0.000754424361095161,4.293852396398e-10
3,0.0022479625948639,1.1359709920421e-08
3,0.00082773020948133,5.67108840594226e-10
3,0.0029323774713219,2.52150377584239e-08
3,0.00735354567020294,3.97640290157876e-07
3,0.00117871833236006,1.63768403088776e-09
3,-0.00655584973283359,-2.81764952099557e-07
3,-0.00552957923500969,-1.69073777820795e-07
3,0.00634309644361153,2.55213676619241e-07
3,0.0103376900134552,1.10476654871927e-06
3,9.52072581090679e-05,8.62998764644252e-13
3,0.00929274764681298,8.02476698983e-07
3,0.00365607481357176,4.88703244274017e-08
3,-0.0205465847022002,-8.67399022766438e-06
3,0.00282398987593965,2.25210900074533e-08
3,0.0294282393571504,2.54854812708453e-05
3,0.00360577566673525,4.68809183852563e-08
3,0.0405317307914571,6.65863866554501e-05
3,0.00739097100109671,4.03742525130728e-07
3,0.0111530995072735,1.38735221186112e-06
3,0.0547151381080179,0.000163803244353862
3,0.0937954581995435,0.000825173795528186
3,-0.0729982809552689,-0.00038898951827905
3,0.0153504494388371,3.61712307800919e-06
3,0.0639310457796117,0.000261297603111439
3,0.0657793146749433,0.000284621716422854
3,0.0154130196071715,3.66153502368721e-06
3,0.0161104758960132,4.18143267282084e-06
3,0.0894140350032914,0.000714853555229871
3,0.0628271435964943,0.000247994440833171
3,0.0213433201216882,9.72267871616711e-06
3,0.0512132921615128,0.000134322288952264
3,0.158086753425642,0.00395081270560447
3,0.0101852746970047,1.05661857037334e-06
3,-0.107231956660834,-0.00123302729895934
3,0.00236252801193508,1.3186541309155e-08
3,0.00343871282173246,4.06619052380907e-08
3,0.025693712285452,1.69621371301818e-05
3,0.010470541125409,1.14790878816059e-06
3,0.0250349399098138,1.56906039333528e-05
3,0.00478140428698176,1.09311637413586e-07
3,0.0385454998928911,5.72691908556584e-05
3,0.029996782942944,2.69913148773666e-05
3,0.0697215323880996,0.000338922788795797
3,0.0599548112657146,0.000215512329141348
3,0.0812178402107542,0.000535740290614596
3,0.0140238745469759,2.75806218697792e-06
3,0.00859084417163478,6.3402666682798e-07
3,0.0306925207366595,2.89133007588813e-05
3,0.135531202301962,0.00248953291698591
3,0.199090661057351,0.00789137471333978
3,-0.00475798650604515,-1.07713371063318e-07
3,-0.00390309650036781,-5.94604055247534e-08
3,-0.00133037466742131,-2.3546258077562e-09
3,-0.0183082281454595,-6.13675728831638e-06
3,-0.0259997007731375,-1.75753931749066e-05
3,-0.00924444288642997,-7.90027540200816e-07
3,-0.0138060677371381,-2.63154014404691e-06
3,0.00731665046323932,3.91684985684791e-07
3,-0.0046815385571978,-1.02604359524051e-07
3,-0.000711906475851645,-3.60801912164684e-10
3,-0.0189579763772412,-6.81358900347672e-06
3,-0.0156556330130707,-3.83717756987296e-06
3,-0.00605476985081815,-2.21969303441539e-07
3,-0.0102718649416742,-1.08379689258401e-06
3,-0.0030092680163827,-2.72510103035685e-08
3,0.00600203316701313,2.16219656453649e-07
3,0.00989572026450313,9.69041173282703e-07
3,-0.00217250204054937,-1.0253699345839e-08
3,-0.00661315958720747,-2.89219125994942e-07
3,-0.0164970465198726,-4.48971317687088e-06
3,-0.0276818727172419,-2.12122336522064e-05
3,-0.00970988016692124,-9.15464716356361e-07
3,-0.000282878457327194,-2.2635996846793e-11
3,-0.00358913132542054,-4.62347004317956e-08
3,-0.0111571989899373,-1.38888259821404e-06
3,-0.0109815652670295,-1.3243194003664e-06
3,0.00419206525454597,7.36688860693357e-08
3,-0.00341223966079981,-3.97300013249765e-08
3,-0.0121081609208974,-1.77514793943217e-06
3,-0.0168441241969459,-4.77909105196115e-06
3,-0.0103867293757023,-1.12056344010623e-06
3,-0.0136936287553543,-2.5677672113811e-06
3,-0.0267846047645445,-1.92156786304777e-05
3,-0.00664633951742183,-2.93594265191211e-07
3,0.00204579950243718,8.56227566456802e-09
3,0.00691198217436852,3.30223387636169e-07
3,-0.00283993615725301,-2.29047592445459e-08
3,-0.0018689190198961,-6.52786931614678e-09
3,0.0281536960584848,2.23154810484232e-05
3,0.00150481027838269,3.40757361488868e-09
3,0.0127607689248888,2.07792818214827e-06
3,0.0245268213165343,1.47544763796959e-05
3,-0.0174279135132563,-5.29341797994207e-06
3,0.0399813497714141,6.39105206360237e-05
3,0.0400729009743604,6.43505628106133e-05
3,0.0318327413405321,3.22568623630568e-05
3,0.0341201960488467,3.97223152370796e-05
3,-0.0696335836375697,-0.000337641825076504
3,-0.046018510854013,-9.74535541935543e-05
3,-0.0437304324434898,-8.36279240433258e-05
3,0.0330924893532864,3.62400103821333e-05
3,0.0534150093453394,0.000152401740239697
3,0.0210398141489323,9.31377404763612e-06
3,0.0924465479612686,0.000790081870679017
3,-0.0349535249207405,-4.27044307763026e-05
3,-0.0357804277271147,-4.58074993111735e-05
3,0.0127984225650611,2.09637675472565e-06
3,0.0187362085345901,6.57726188520645e-06
3,0.0610948374122794,0.000228041316812918
3,0.0777359435189455,0.000469748738539331
3,-0.0302246366318503,-2.76110717869966e-05
3,-0.0333382089262314,-3.70532913906205e-05
3,0.000545842963590969,1.62630931191574e-10
3,-0.00289454713601408,-2.42516827629144e-08
3,0.0142157522391984,2.87282741891206e-06
3,0.0069255965897704,3.32178540025361e-07
3,0.0277384144340095,2.13424807179727e-05
3,0.00604383420100909,2.20768763802851e-07
3,-0.0427722983838191,-7.82506157245208e-05
3,0.0212304452263797,9.56923688744333e-06
3,0.0217124137322938,1.02358595410712e-05
3,0.0215289584777302,9.97858728255316e-06
3,0.0542560690583624,0.000159714731474101
3,0.0469574867115645,0.000103541519201237
3,-0.0425356327162229,-7.69588717118097e-05
3,0.00636091620889351,2.57370652867036e-07
3,0.0211900552161517,9.51472553801704e-06
3,0.013463116555668,2.44026402236851e-06
3,0.0039773558509464,6.29192223243064e-08
3,0.0321024911692084,3.3083862374638e-05
3,0.0580571515792692,0.000195689342261383
3,0.0795749588971575,0.00050388249242291
3,0.0517947832329337,0.000138949842714827
3,0.00432387909148898,8.0838942543048e-08
3,0.0794125690265155,0.000500803940636932
3,0.0789731671385099,0.000492536778955582
3,-0.0124580529786603,-1.93352824316152e-06
3,-0.00751475774779762,-4.24370273455156e-07
3,-0.02343500365129,-1.28704898537329e-05
3,-0.00837165701194722,-5.86724577309645e-07
3,-0.0149402707457092,-3.33484308153643e-06
3,-0.00536205214502941,-1.54167595643845e-07
3,-0.00866375305417182,-6.50306649640304e-07
3,-0.0142567546184803,-2.89775740491686e-06
3,-0.00597316575169235,-2.13114843243932e-07
3,0.0259506562448746,1.74761206593445e-05
3,-0.00853183378943611,-6.21050847569146e-07
3,-0.0139700249388461,-2.72641237428903e-06
3,-0.00634222664890936,-2.55108702778244e-07
3,-0.00293264438672299,-2.52219238717723e-08
3,-0.00636948010552856,-2.58411571047171e-07
3,-0.0116161988892985,-1.56744430354236e-06
3,-0.0155945067352359,-3.79240688933009e-06
3,-0.0111220642380313,-1.37580282650403e-06
3,-0.00337902475834298,-3.85810569908293e-08
3,-0.0054877139237014,-1.65262527357916e-07
3,0.0131199291062399,2.25836671843326e-06
3,-0.0169974211172061,-4.91076444778301e-06
3,-0.0176432436857555,-5.49206031002892e-06
3,-0.00276188542498961,-2.10676926808757e-08
3,-0.00973760237149521,-9.2332822017514e-07
3,-0.030449716561995,-2.82325277190582e-05
3,-0.0123979695836223,-1.9056875628853e-06
3,-0.00769355522510329,-4.5538762708279e-07
3,-0.0071901013922186,-3.71710683968564e-07
3,-0.00169050537218564,-4.83114047551057e-09
3,-0.00455455693335435,-9.44796782839405e-08
3,-0.000325381165426724,-3.4449048504877e-11
3,0.0214825723676198,9.91422681559646e-06
3,0.0330105107565733,3.59713495800105e-05
3,-0.0058868099030559,-2.04004635303568e-07
3,-0.009814745898046,-9.45446984131752e-07
3,-0.00728868306838197,-3.87210565490247e-07
3,0.00975283462652828,9.27668010102706e-07
3,0.0342647558975821,4.02293417709618e-05
3,-0.0133170621538542,-2.36170299372494e-06
3,-0.0195959676595464,-7.52488976428296e-06
3,-0.00778754517042112,-4.72282372446282e-07
3,-0.00244257190901165,-1.45727687892086e-08
3,-0.0067882778063604,-3.12808698847973e-07
3,-0.01938272657956,-7.28189828649103e-06
3,-0.00889269508160309,-7.03234556612472e-07
3,0.00450970886179922,9.17160868064446e-08
3,0.00536382830673953,1.54320848887414e-07
3,-0.00514552050800222,-1.36234762947942e-07
3,-0.00744810919984113,-4.13178872489836e-07
3,-0.00276675825233471,-2.11793994781407e-08
3,-0.00322739659139644,-3.36168493537598e-08
3,-0.00131611606450169,-2.27972557019584e-09
3,-0.00164464351159104,-4.44851775247358e-09
3,-0.000967016314494609,-9.04276830285489e-10
3,0.0156535612274764,3.83565439469084e-06
3,0.00979474395429632,9.39678440171534e-07
3,0.0189112939904799,6.76337921278291e-06
3,0.00935003127593093,8.17408577687652e-07
3,-0.0193782977521202,-7.27690782721855e-06
3,-0.000843374643957594,-5.99876183079666e-10
3,-0.0112792778963508,-1.43497353170606e-06
3,-0.00213491530346041,-9.73065222329309e-09
3,-0.00567862295579655,-1.83117184056773e-07
3,-0.00136452941273444,-2.54067260186961e-09
3,0.0488161131513671,0.000116329427524124
3,0.0178629483031281,5.69979746742676e-06
3,0.0591360706529088,0.000206803265542102
3,0.0255004075064654,1.65821699559411e-05
3,0.0135341126046938,2.47907323493902e-06
3,0.0409613658873747,6.87263517015083e-05
3,-0.00738922284711321,-4.03456106535964e-07
3,-0.0174172894935513,-5.28374331033891e-06
3,-0.0218207407251062,-1.03898306091407e-05
3,-0.00761151051473405,-4.40973564334613e-07
3,-0.00405645086851254,-6.67480619872858e-08
3,-0.0137126971000934,-2.5785089841886e-06
3,-0.0110703219180749,-1.35669039469653e-06
3,0.0240779648558301,1.39591613981348e-05
3,0.0375236786483967,5.28343323875186e-05
3,0.0142582624905832,2.89867695003531e-06
3,-0.0117865670689545,-1.63742718132453e-06
3,-0.00823472888467524,-5.58403222450636e-07
3,-0.0057202235398825,-1.87171190459372e-07
3,-0.012167196635524,-1.80123999021816e-06
3,-0.0024763732616254,-1.51861721372396e-08
3,0.0174385189795844,5.30308752568332e-06
3,0.0239806386132844,1.37905705066549e-05
3,0.0149415717692301,3.33571436838144e-06
3,0.00178270443633274,5.66549728464128e-09
3,0.0336084444347962,3.79616634758195e-05
3,0.0238753867184454,1.36097843642558e-05
3,-0.00502819341914659,-1.27126451879313e-07
3,0.0311212218306803,3.01418509292715e-05
3,0.0171030868532263,5.00291936910554e-06
3,0.0139638194354331,2.72278076006972e-06
3,0.0149121159777174,3.31602516823984e-06
3,0.00502753339570565,1.27076396868844e-07
3,0.0238418582874367,1.3552527799446e-05
3,0.0421053547084552,7.46469368379802e-05
3,0.0166806276579915,4.64127353725203e-06
3,-0.0051850367801481,-1.39397673063373e-07
3,-0.00633639254067962,-2.54405339499246e-07
3,0.0111693835482239,1.39343788370398e-06
3,0.00328311250205417,3.53881039831149e-08
3,0.00467720119678313,1.02319440434869e-07
3,0.00586456880746272,2.01701096122559e-07
3,0.00451273109755109,9.19006043311015e-08
3,0.0146871893180635,3.16822545452714e-06
3,0.00688372946410133,3.26190554968294e-07
3,-0.0031643519632582,-3.16850465226158e-08
3,-0.00286282141648996,-2.34629584975783e-08
3,0.0180469675064323,5.87777164097966e-06
3,0.0051961355989589,1.40294752693925e-07
3,0.0119511382603089,1.70697756070333e-06
3,0.0129986515290976,2.19631639616662e-06
3,0.00239154160336321,1.3678353421175e-08
3,0.00782733752386448,4.79559153047114e-07
3,0.011587135451032,1.55570859602595e-06
3,-0.00529559143078241,-1.48505798810523e-07
3,0.0296974285552841,2.61912688521332e-05
3,0.00843879749784094,6.00954644937877e-07
3,0.00884535657516451,6.92063643429863e-07
3,0.01992545829558,7.91088292844939e-06
3,0.03711535026681,5.11282220115328e-05
3,0.00298851559277984,2.66911065148415e-08
3,0.012003332573594,1.7294400716473e-06
3,0.0264600538855552,1.85255953171704e-05
3,0.0246464066469077,1.49713453732419e-05
3,0.0049161886402574,1.18818924459809e-07
3,-0.0057268474344359,-1.8782216420467e-07
3,0.0124423592820918,1.92623031393554e-06
3,0.0006319193004186,2.52339280298224e-10
3,0.01479715848147,3.23992513981635e-06
3,0.017028331458676,4.93760433366203e-06
3,0.00175718525867279,5.42566098171293e-09
3,0.00288430848024225,2.39952412398796e-08
3,0.0213613202672368,9.74729868189657e-06
3,0.00501625018842478,1.26222729452381e-07
3,0.00926201146869616,7.94540324245707e-07
3,0.0084122859446992,5.95308494428238e-07
3,0.00444772588202924,8.79860943659186e-08
3,0.00983198322099804,9.50437112387345e-07
3,0.0106326684413927,1.20206185090988e-06
3,-0.0113247940852426,-1.45241572538785e-06
3,-0.0150613312306453,-3.41656807977755e-06
3,-0.00207284318627772,-8.90634152945568e-09
3,-0.00855728360977016,-6.26625086393486e-07
3,-0.00824359188788033,-5.60208184674972e-07
3,-0.00653917616727266,-2.79620567383899e-07
3,-0.00617086742013088,-2.34984192118565e-07
3,-0.000870313776034743,-6.59215748241577e-10
3,-0.00134122190586747,-2.41269216642814e-09
3,-0.0104503924004787,-1.14129468316709e-06
3,-0.000137842940041516,-2.61910905905942e-12
3,-0.00395959461365054,-6.20800666325369e-08
3,-0.00273970012828291,-2.05640707884307e-08
3,0.0243985292347146,1.45241572538785e-05
3,-0.00989238792646739,-9.68062542504941e-07
3,-0.020480810712184,-8.59095474438903e-06
3,-0.0332853095250361,-3.6877188193906e-05
3,-0.00825081664813948,-5.61682390848651e-07
3,-0.0114115046614195,-1.48603396553439e-06
3,-0.031412432324455,-3.09959318855861e-05
3,-0.00673916467890851,-3.06068198210904e-07
3,-0.0348497110094418,-4.23250561771259e-05
3,-0.0180098019473273,-5.84153268196518e-06
3,0.0324486544813627,3.41656807977755e-05
3,-0.0123619583209794,-1.88912991394818e-06
3,-0.0486250329517617,-0.000114968727873292
3,-0.0031685353671928,-3.18108795513787e-08
3,-0.0144317338796823,-3.00576854792e-06
3,-0.00749450557092952,-4.2094849417538e-07
3,-0.00473647706415011,-1.06259144701288e-07
3,-0.00417560319401163,-7.28044060782102e-08
3,-0.006145667054076,-2.32117072765076e-07
3,-0.00901197867021847,-7.31914692772475e-07
3,-0.0187088605313384,-6.54850272266259e-06
3,-0.00712712255934867,-3.62028433590261e-07
3,-0.0112618856059048,-1.42834571045347e-06
3,-0.000551716452710592,-1.67937547138239e-10
3,-0.00252935855991782,-1.61819627411404e-08
3,-0.000727943798663482,-3.85739001470783e-10
3,-0.00782720316087336,-4.79534457333169e-07
3,-0.000689729411810284,-3.28122670430012e-10
3,0.00446580526751295,8.90634152945569e-08
3,0.0091986617261672,7.78348234936938e-07
3,-0.00348937223375903,-4.24856143591047e-08
3,-0.0208547129305248,-9.07011196526755e-06
3,-0.00683793888445276,-3.19724299581612e-07
3,-0.00741679034505697,-4.07988581147675e-07
3,-0.0253378267654155,-1.62670232595407e-05
3,-0.0142162261619461,-2.87311475023949e-06
3,-0.00561829750877194,-1.77343060371547e-07
3,-0.00441179418984724,-8.58708443454005e-08
3,-0.000196575662760454,-7.59607502850124e-12
3,-0.000536375828008421,-1.54314804828287e-10
3,-0.00196947015081938,-7.63920578397033e-09
3,-0.000359798832682928,-4.65778298447342e-11
3,-0.00299108510898818,-2.6760012511703e-08
3,-0.00209176086403309,-9.15242333703486e-09
3,-0.0267100315446199,-1.90556252251559e-05
3,-0.0162284358951293,-4.27395546991283e-06
3,-0.0114461440701279,-1.49960756952701e-06
3,-0.00114516170304974,-1.50175970504453e-09
3,-0.00692779992098506,-3.32495681896125e-07
3,-0.00260047359380075,-1.75856062318559e-08
3,0.00810939454877491,5.33292274522889e-07
3,0.00708292019132878,3.5533422918524e-07
3,-0.00343571081958839,-4.05555044428833e-08
3,-0.00473014514538512,-1.05833559268506e-07
3,-0.00807557941642308,-5.26648773638101e-07
3,-0.00512177821354797,-1.34357620978305e-07
3,-0.000441848926247218,-8.62623751423041e-11
3,-0.00153456502111683,-3.61373152185726e-09
3,-0.00552742814055838,-1.68876537387701e-07
3,-0.00155878302921302,-3.78753806903979e-09
3,-0.0139868344131049,-2.73626591259612e-06
3,-0.00791523529220608,-4.95897008400919e-07
3,0.0119354346165803,1.70025755800418e-06
3,0.0423320463981717,7.58591182549651e-05
3,-0.018800270871615,-6.64495921472894e-06
3,-0.018066615125611,-5.89698982675133e-06
3,-0.0171085808035325,-5.00774211614329e-06
3,-0.0192119105289677,-7.09106826506191e-06
3,-0.0190639484114397,-6.92848948686137e-06
3,-0.00284146841816215,-2.29418533950182e-08
3,-0.0111583228139872,-1.38930233175811e-06
3,-0.00809257645204736,-5.29981161797637e-07
3,0.0184361086613301,6.26625086393485e-06
3,0.0206062664013738,8.7497960572562e-06
3,0.0175020679184158,5.36127512455837e-06
3,0.0138800254450318,2.67405777831894e-06
3,0.0341623593516338,3.98697552883736e-05
3,-0.019550196671318,-7.47228438207685e-06
3,-0.0290087367383607,-2.44110494323129e-05
3,-0.00423941668486945,-7.61935685095919e-08
3,-0.00524500512650164,-1.44290504215978e-07
3,-0.0160241472751518,-4.11457310975971e-06
3,-0.00474942090853553,-1.07132682524998e-07
3,0.0177602803337148,5.60208184674971e-06
3,0.0426624031314229,7.76490140358237e-05
3,0.0363342790388246,4.79677824435034e-05
3,0.0150550100621578,3.41226813323511e-06
3,0.0592384820173697,0.000207879547910791
3,0.00657893046992498,2.84751414173436e-07
3,0.0328292183875203,3.53819389605079e-05
3,0.0413247215657204,7.05715747196146e-05
3,-0.00463052051052241,-9.92863251594289e-08
3,-0.0372574367863812,-5.17176663235428e-05
3,-0.0110637123282652,-1.35426178939071e-06
3,-0.0124145814652607,-1.91335805082736e-06
3,-0.0105184402654865,-1.16373483544697e-06
3,-0.0024182187062731,-1.41412151246345e-08
3,-0.0256892095549214,-1.69532210325724e-05
3,-0.0255807911997829,-1.67394782924923e-05
3,0.0514321180941528,0.000136051467261614
3,-0.0143267862857189,-2.94067038288819e-06
3,-0.0044433832828747,-8.77286265633149e-08
3,-0.050723597291218,-0.000130505897510619
3,-0.051187732511427,-0.000134121275657879
3,0.0140882279790019,2.79620567383898e-06
3,0.0138415089139985,2.65185827604865e-06
3,0.0288568798572889,2.40296870020029e-05
3,0.0359920169445585,4.66249687626854e-05
3,0.00905760049615294,7.4308669273632e-07
3,0.00893506371009658,7.13334059222357e-07
3,-0.0278650208213486,-2.16360569403834e-05
3,-0.0131550458769687,-2.2765495165403e-06
3,-0.00143556010890381,-2.95844939652117e-09
3,-0.00319052340217351,-3.24777402004168e-08
3,-0.0213264202358271,-9.69960141286349e-06
3,-0.00535388953556179,-1.53464602565909e-07
3,0.023177631236236,1.24510835237494e-05
3,0.0114043301201213,1.48323286856202e-06
3,0.0154636633508549,3.69774670852284e-06
3,0.0324732190417011,3.42433327481058e-05
3,0.056444607164675,0.000179832161582407
3,-0.00733103056651804,-3.93998973972128e-07
3,-0.0166797845192575,-4.64056977961543e-06
3,0.0132947308375175,2.34984192118564e-06
3,0.0693347208402503,0.000333313047137227
3,0.0911678435845483,0.000757748433710337
3,0.0218715882468014,1.04626323290716e-05
3,0.00895530314734944,7.1819251634335e-07
3,0.0253856757351181,1.63593553039311e-05
3,0.00980752587126804,9.4336201963491e-07
3,0.0310883544922315,3.00464526968597e-05
3,0.0613179493199043,0.000230548800194066
3,0.0718920412089171,0.000371571541124531
3,0.0266474373559372,1.89219700076077e-05
3,-0.0101976116000605,-1.06046270715357e-06
3,-0.0215588249548393,-1.00201739038874e-05
3,-0.0373256870656386,-5.20024053240616e-05
3,0.00187503419030189,6.59215748241575e-09
3,0.0171868033425542,5.07674468651666e-06
3,0.00594073708978076,2.09662615224996e-07
3,0.00107148265440958,1.2301425327876e-09
3,0.000399020120988906,6.35308093292831e-11
3,0.000846082082175855,6.05671995680007e-10
3,0.0349103582498358,4.25464095903714e-05
3,0.0089611739998669,7.19605924812811e-07
3,0.0213485663865632,9.72985008685326e-06
3,0.00290793345994104,2.45897092697864e-08
3,0.0135384959473312,2.48148273473935e-06
3,-0.00289789161272363,-2.4335844053728e-08
3,-0.00540465778073512,-1.57871814217485e-07
3,0.00288957500103156,2.41269216642813e-08
3,0.0237706514182063,1.343146084233e-05
3,0.02705828617745,1.98107472476545e-05
3,0.00491224035538411,1.18532877078853e-07
3,0.00108876523564493,1.2906329131093e-09
3,0.00293848845425126,2.53730085577211e-08
3,0.0346414932391166,4.1570936921168e-05
3,0.0110867619445203,1.36274365092869e-06
3,0.0239552067795018,1.37467416882519e-05
3,0.0100714113935554,1.02157676984913e-06
3,0.0286218063334145,2.34472069350965e-05
3,0.00644485325132517,2.67694284591008e-07
3,-0.0144358513764709,-3.00834199623115e-06
3,-0.0161093397463985,-4.18054808105728e-06
3,0.0225146879120367,1.14129468316708e-05
3,0.0654334376698867,0.000280155538196642
3,0.00141373190852092,2.82553818577347e-09
3,0.00399773912410321,6.38915392841153e-08
3,0.0105842916717295,1.18572887953066e-06
3,0.0202964080796964,8.36098720236512e-06
3,-0.0406770416950424,-6.73051167370893e-05
3,0.000296973611801428,2.61910905905942e-11
3,0.0140379677514232,2.76638563767547e-06
3,0.000730339512698269,3.89560031428687e-10
3,0.00253978138662126,1.63828331459403e-08
3,0.00298486272721872,2.65933523996411e-08
3,0.0051632907765246,1.37651120370109e-07
3,0.00466620073410706,1.01599191741605e-07
3,0.00646286400573629,2.69944853613855e-07
3,0.0156015948293085,3.79758047202052e-06
3,-0.0108914594595202,-1.29198727969904e-06
3,0.00853068799411212,6.20800666325368e-07
3,0.0725934359236042,0.000382553392370176
3,0.0140515670665324,2.774433257065e-06
3,0.0152011280037265,3.51258989996545e-06
3,0.0060714695060241,2.23811013734243e-07
3,0.0153647273068037,3.62722562068501e-06
3,0.0267829325371438,1.92120798118451e-05
3,0.0202760181667648,8.33581399054864e-06
3,0.033871445674265,3.88598571477306e-05
3,0.0495699616303717,0.000121802372649405
3,0.114970549052069,0.00151970683285392
3,0.0431997313103668,8.06200636913331e-05
3,0.0224277733240445,1.12812824858668e-05
3,-0.0370139747465192,-5.07104159642664e-05
3,0.00590250499665749,2.05640707884307e-07
3,0.0375151863757464,5.27984684716083e-05
3,0.00133951615428534,2.40349856089983e-09
3,0.00424597155784969,7.65475406370188e-08
3,0.00576742517004027,1.91842977074791e-07
3,0.0151566256227463,3.48183005898517e-06
3,0.0147051873200837,3.17988697078582e-06
3,0.0100392082976631,1.01180866829165e-06
3,0.0493607573069473,0.000120266713270676
3,0.116022561999721,0.00156180695996346
3,0.0108450732398636,1.27554994340496e-06
3,0.0354972247828491,4.47283834179802e-05
3,0.0495541194240523,0.000121685628458304
3,0.0120198513006954,1.73658995639233e-06
3,0.025027732054732,1.56770553039648e-05
3,0.060763429242689,0.000224350389123632
3,0.0202214706436221,8.26871859007382e-06
3,0.0687214607484275,0.000324546662171305
3,-0.0166157717442332,-4.58734657709213e-06
3,-0.0128695246430302,-2.13151070175976e-06
3,-0.0104272966099607,-1.13374447161225e-06
3,-0.00438731355820984,-8.4449293903628e-08
3,-0.0029518771269952,-2.57214132835525e-08
3,-0.00300490343568829,-2.71326092746145e-08
3,0.0377209369340121,5.36719549519778e-05
3,-0.000853111543460974,-6.20893988918608e-10
3,-0.00072966894109338,-3.88487976113702e-10
3,-0.00470901842052342,-1.04421798241485e-07
3,-0.00631483831465502,-2.51817962711503e-07
3,-0.00224804917533662,-1.13610225315895e-08
3,-0.00139152810379909,-2.69448608899106e-09
3,-0.00182960189439879,-6.12448822249275e-09
3,-0.00136227377902494,-2.52809385069908e-09
3,0.0292162491699455,2.49386752105893e-05
3,-0.00947707909190528,-8.51184125080238e-07
3,-0.0267447216472412,-1.91299681368108e-05
3,-0.00731578249732862,-3.91545606789305e-07
3,-0.0074100750682909,-4.06881386696943e-07
3,-0.000776455122448715,-4.68111249754945e-10
3,-0.0124462391330207,-1.92803282187784e-06
3,-0.000407679693850513,-6.77574792160734e-11
3,-0.0137014631685042,-2.5721769542822e-06
3,0.0236719307337065,1.32648103178633e-05
3,0.00176044806044994,5.45594079624225e-09
3,0.0217385807706057,1.02729118544166e-05
3,-0.00461808502560026,-9.84885568806237e-08
3,-0.0338823543646278,-3.88974150387985e-05
3,-0.0160452615041056,-4.13085926085614e-06
3,-0.0124647872772236,-1.93666549013122e-06
3,-0.0073302828650495,-3.93878432843374e-07
3,0.0071015152941075,3.58140206838632e-07
3,-0.000816489341598696,-5.44316575422129e-10
3,-0.00381219672083421,-5.54020596249119e-08
3,-0.0052022178751351,-1.40787990777802e-07
3,-0.00209649357742136,-9.21468744466876e-09
3,-0.00124452105075066,-1.92755483174004e-09
3,-0.00389647352019226,-5.91582321844171e-08
3,-0.00178590994975199,-5.69611397368484e-09
3,0.0230686663118543,1.22762990999832e-05
3,0.00157549983187011,3.91070524187898e-09
3,-0.0276043058926121,-2.10344177055194e-05
3,-0.00337067095864604,-3.82956175824192e-08
3,-0.00256509023618033,-1.68774932400584e-08
3,-0.00451724522306244,-9.21766672989324e-08
3,-0.000521975005072028,-1.42216216824477e-10
3,0.00996002957830756,9.88056738672446e-07
3,0.00150571666971842,3.41373476882891e-09
3,0.0613472026642162,0.000230878925789096
3,0.0521029942902575,0.000141445145595631
3,0.0559164915810246,0.000174831523786135
3,-0.00654233489780761,-2.80025972921224e-07
3,0.00670131804037235,3.00940535417565e-07
3,0.0097173486967507,9.17578780292201e-07
3,0.0167809856999293,4.72555042676748e-06
3,0.0246737921319561,1.50213064031133e-05
3,0.00735602412270324,3.98042489920522e-07
3,0.00682777878982925,3.1830123704868e-07
3,-0.0020993679077293,-9.25263993611216e-09
3,0.00682169776614401,3.1745152851299e-07
3,0.0130310566634572,2.21278337446491e-06
3,0.0169972745638349,4.91063742565276e-06
3,0.0191678752115427,7.04241996411353e-06
3,0.010038212344057,1.01150756451129e-06
3,0.00519595917948197,1.40280463293993e-07
3,-0.00402602171359977,-6.52571854278047e-08
3,-0.00288166152248118,-2.39292398528668e-08
3,0.0046389875284796,9.98319639477975e-08
3,0.00178103740935527,5.64961853152519e-09
3,0.00404539913806684,6.62039851793892e-08
3,0.0053450043785855,1.52701813901063e-07
3,-0.00292845700844354,-2.5114038639121e-08
3,-0.00150417645962173,-3.40326966796328e-09
3,0.00287150369746082,2.36770798883682e-08
3,0.00240143086543827,1.38487400988092e-08
3,-0.00266109179487777,-1.88442808251009e-08
3,0.00377549586695661,5.38173114019043e-08
3,0.028549257852511,2.32693616433531e-05
3,0.0112722298501892,1.43228521033954e-06
3,0.00751864484100823,4.25029145078811e-07
3,0.00915032986040036,7.6614372819892e-07
3,0.00454969840446208,9.41776448967036e-08
3,-0.00310417577448178,-2.99115498160835e-08
3,0.00281113560174909,2.22149523476323e-08
3,0.000935138122976612,8.17762680193989e-10
3,0.00344609620997643,4.09243880878586e-08
3,0.00105733544216472,1.18205686711253e-09
3,0.0139231254578877,2.69904552213229e-06
3,0.00386706874965476,5.78289996007008e-08
3,0.00382573531663631,5.59944212557082e-08
3,0.00233691299501362,1.27622612548623e-08
3,0.00397514313352985,6.28142694170029e-08
3,0.00576332304496237,1.91433918822934e-07
3,-0.000145815645705962,-3.10036179142879e-12
3,-0.000175721754937685,-5.42596009923356e-12
3,-0.00966425551676252,-9.02620539188154e-07
3,-0.00412767314542234,-7.03259972924496e-08
3,-0.00434077692729971,-8.17904135350889e-08
3,-0.00364792651152113,-4.85442999182373e-08
3,-0.000817499371140901,-5.4633909856457e-10
3,-0.00159829007307354,-4.08288179068563e-09
3,-0.000742636268690116,-4.09570309331946e-10
3,-0.00321309491451773,-3.31719241966063e-08
3,-0.0127758115272847,-2.0852853348957e-06
3,-0.0224946644362774,-1.13825235340506e-05
3,-0.00443388290016322,-8.71671120129644e-08
3,-0.0029739164498556,-2.63018495644096e-08
3,-0.0215669079397805,-1.00314486303857e-05
3,-0.000440840596030067,-8.56731514824548e-11
3,-0.00157458564580398,-3.90390161402873e-09
3,-0.0026429593522623,-1.84616898920045e-08
3,-0.0101391980597525,-1.04234339803642e-06
3,-0.00286985422150435,-2.36363008942988e-08
3,-0.00530438820936209,-1.49247100663909e-07
3,-0.0138891555365657,-2.6793381264038e-06
3,-0.00196397930224617,-7.57548983443488e-09
3,-0.00658246326539555,-2.85210383362495e-07
3,-0.00097709221576533,-9.3283892579206e-10
3,-0.00753422504643224,-4.27676872135653e-07
3,0.000300899539613437,2.72436046778744e-11
3,0.0073702163552192,4.00350809269387e-07
3,0.00327992912635429,3.52852645883367e-08
3,-0.00128600084135499,-2.12678583029126e-09
3,-0.00176186763770481,-5.46915000719048e-09
3,-0.00434206710065529,-8.18633648853652e-08
3,-0.0101511283451812,-1.04602714859354e-06
3,-0.0010301631159335,-1.09324623130093e-09
3,-0.00340755609200998,-3.95666280664876e-08
3,0.00197756312248289,7.73376665560456e-09
3,-0.0024094463751981,-1.39878766911926e-08
3,-0.00139462808303335,-2.71253417468203e-09
3,-0.0106876618157195,-1.22081008857534e-06
3,-0.00847869665406564,-6.09519062830548e-07
3,-0.00083520680995625,-5.82615561363831e-10
3,-0.0038764573140615,-5.82512190112188e-08
3,-0.0132817317013172,-2.34295587169771e-06
3,-0.00246873133158261,-1.5046014867055e-08
3,-0.0143570766434231,-2.95936175156615e-06
3,-0.00233371473454618,-1.27099342751705e-08
3,0.00550539717058667,1.66865274023887e-07
3,0.00270933296073895,1.98878182079653e-08
3,0.0046137701936568,9.82127512360333e-08
3,-0.000393369062783936,-6.08696217724693e-11
3,-0.0177708316420168,-5.61207229990547e-06
3,-0.00602570058365896,-2.18787569370924e-07
3,-0.00903583400742094,-7.37742379871251e-07
3,-0.00728231386129891,-3.86196361782738e-07
3,-0.00110349453419191,-1.34372550062949e-09
3,-0.00759772861580906,-4.38582532165119e-07
3,-0.00217312326695533,-1.02624979894898e-08
3,0.0126851067931262,2.04118507155654e-06
3,0.00267052778055995,1.90454527158526e-08
3,0.00075904590630113,4.37324821042203e-10
3,-0.00446722790036764,-8.91485588916975e-08
3,-0.00263797346352836,-1.83574040721517e-08
3,-0.000328708799971362,-3.55168133234973e-11
3,-0.000612096393741819,-2.29329256153463e-10
3,-0.00265176036130404,-1.86467360532598e-08
3,-0.000191215490335483,-6.99148152666933e-12
3,0.00036261263258016,4.76791812975204e-11
3,0.0293052329839826,2.51672368004653e-05
3,0.00667706543998429,2.97684963219509e-07
3,0.0204654546508413,8.57164530276302e-06
3,0.00904901257989167,7.40975034943979e-07
3,-0.00631317733346744,-2.51619309220125e-07
3,-0.00267404784135169,-1.91208642789672e-08
3,0.0199427847514004,7.93153792946188e-06
3,0.0515983959839866,0.000137375284031645
3,0.0211203824464416,9.42118071302149e-06
3,0.0156100186107731,3.80373508579469e-06
3,0.0162355793871401,4.27960193051236e-06
3,0.0342906402297539,4.03205809854747e-05
3,0.005343594638394,1.52581020859443e-07
3,-0.0131103053327152,-2.25340066919155e-06
3,-0.0370398239993949,-5.08167332692268e-05
3,-0.00748489765128875,-4.19331607031492e-07
3,0.00851770702052686,6.17970997484717e-07
3,0.01017046714688,1.05201686912198e-06
3,0.00597802887038054,2.13635796544624e-07
3,0.00159931025026382,4.09070500532052e-09
3,0.0116272065938619,1.57190453686495e-06
3,0.000665846948577923,2.95204682169328e-10
3,0.0174054300728795,5.27295756590822e-06
3,-0.00568509674542428,-1.83744174496035e-07
3,-0.00123753687661181,-1.89528465864504e-09
3,0.00895745976136846,7.18711506170037e-07
3,0.00682158736075526,3.1743611543253e-07
3,0.0110492671082961,1.34896417907764e-06
3,0.00742290154149181,4.08997920717068e-07
3,0.0174355674155204,5.30039525230574e-06
3,0.0491746035025193,0.00011891115584999
3,0.012643541974784,2.02118591945639e-06
3,-0.0153788721496175,-3.63725257061473e-06
3,-0.00492943538920217,-1.19781993287715e-07
3,0.00752772037970326,4.26570124813448e-07
3,0.0289317039731976,2.42170946040343e-05
3,0.0254327543764678,1.64505412268137e-05
3,0.0140519706499009,2.77467232234675e-06
3,-0.011839972255672,-1.65978583596152e-06
3,0.00168696015588479,4.80080952568442e-09
3,0.00409105273769028,6.84707735035461e-08
3,0.001584145610718,3.97544084109428e-09
3,0.00472729302093973,1.0564223204528e-07
3,0.00212930575393039,9.65415090452266e-09
3,0.00123988927599154,1.90611329789891e-09
3,0.0134354418452677,2.42524635392891e-06
3,-0.00208950765044255,-9.12287862347371e-09
3,0.00329816971853858,3.58772378628333e-08
3,0.0494703025768334,0.000121069207608103
3,0.0137115520167874,2.57786308039178e-06
3,0.00524000999738905,1.438786475145e-07
3,0.027491897295297,2.07784974046134e-05
3,0.0146605957321673,3.15104680801709e-06
3,0.00537152198264244,1.54985858105017e-07
3,0.0238928657241,1.36396971398053e-05
3,-0.00460237536172333,-9.74868658399371e-08
3,0.00153247554655214,3.59899016498071e-09
3,0.00101120279896651,1.03398631099515e-09
3,0.00203532480190139,8.43142875235133e-09
3,0.00446875414766662,8.92399640597075e-08
3,0.00419326397453934,7.37321009398728e-08
3,0.000387334475900266,5.81110152866022e-11
3,0.00569079757564991,1.84297487026191e-07
3,0.00993705786142709,9.81235960453694e-07
3,0.00275225737493,2.08481312450953e-08
3,0.00765845093866415,4.4918247482893e-07
3,0.0176865692885578,5.53261945320507e-06
3,0.00387945415121705,5.83864231902315e-08
3,0.00854493363482783,6.23915941375597e-07
3,-0.00974054611215439,-9.24165857762945e-07
3,-0.000463073890366212,-9.93003739957897e-11
3,-0.000269471301616648,-1.95675999285823e-11
3,-0.00217564622045277,-1.02982831800036e-08
3,-0.00266425559710657,-1.89115733043828e-08
3,-0.00032637605924158,-3.4766012578358e-11
3,-0.0115103621672159,-1.52498989537609e-06
3,-0.0237113808727526,-1.33312397778985e-05
3,-0.01697052156821,-4.88748649189692e-06
3,-0.00685932108271422,-3.22733016757894e-07
3,-0.0102534496018534,-1.07797826234262e-06
3,-0.0159539356304979,-4.06072431893178e-06
3,-0.00152701802149088,-3.56067624818650e-09
3,-0.00455766228039579,-9.46730619284206e-08
3,-0.00302105287616705,-2.7572425999996e-08
3,-0.00913166855529483,-7.61465830051074e-07
3,0.0199343024596006,7.9214216379681e-06
3,0.00549785503949603,1.66180420738513e-07
3,0.0389270839941542,5.89869059366871e-05
3,0.00306670853686583,2.88414776103107e-08
3,-0.019710539165619,-7.65764999999999e-06
3,-0.0166185056868892,-4.58961134210526e-06
3,-0.0430062281923838,-7.95415527873536e-05
3,-0.0513222205360652,-0.000135181205687111
3,0.0303101165448019,2.7846e-05
3,-0.00317306380106328,-3.19474657894737e-08
3,-0.00367178180284188,-4.95028947333312e-08
3,-0.00116751406481399,-1.59142568596572e-09
3,-0.00545108724122607,-1.61975525676065e-07
3,-0.00943756402063281,-8.40581315363488e-07
3,0.000947693782814227,8.51146062821053e-10
3,0.000673497041357778,3.05497089252379e-10
3,0.0157339517737553,3.89505365052632e-06
3,0.00915314791753075,7.66851801620211e-07
3,0.0255553052069057,1.66894957894737e-05
3,0.00639772439999651,2.61864473684211e-07
3,0.000551480622211275,1.67722285102133e-10
3,0.0237523391960508,1.34004431231984e-05
3,0.0235194240953005,1.30100824765489e-05
3,0.0060671770177402,2.23336650599968e-07
3,0.0661333400223382,0.000289242010135831
3,0.00740326999527489,4.05761432240419e-07
3,0.0117440114508876,1.61975525676065e-06
3,0.00445252137859854,8.82709986857452e-08
3,0.0489298905729044,0.000117144724005789
3,0.0365952330828231,4.90087417802112e-05
3,0.0183391194604308,6.16787322341372e-06
3,0.0789213563726127,0.000491568020680402
3,0.0023540129313809,1.30444728357846e-08
3,0.0203326153154481,8.40581315363487e-06
3,-0.00882397278920435,-6.87056544103015e-07
3,-0.00361409865342418,-4.72063051854566e-08
3,-0.02226801919614,-1.10419241888708e-05
3,-0.00800848195158531,-5.13630261958665e-07
3,-0.00332253450876271,-3.66782411048365e-08
3,-0.00665390661566037,-2.9459821046258e-07
3,-0.00070271439993202,-3.47005660630358e-10
3,-0.00424139435037991,-7.63002499532695e-08
3,-0.000443502206966347,-8.72343151610097e-11
3,-0.00348766681041029,-4.24233505360439e-08
3,-0.00189509822186723,-6.80605058138951e-09
3,-0.00129726185435569,-2.18314682107639e-09
3,0.0135691693353303,2.49838743310188e-06
3,0.0134784448014349,2.44860850254612e-06
3,-0.00393578050566302,-6.09666891428528e-08
3,-0.00198491294203283,-7.82031758619674e-09
3,0.00555762328312029,1.71659291583479e-07
3,0.00142344908002848,2.88420289355103e-09
3,-0.000550883633169582,-1.67178186123848e-10
3,0.0342429119460209,4.01524515958937e-05
3,0.00859155424546636,6.34183895715489e-07
3,-0.00208912590059939,-9.11787932914869e-09
3,-0.0145682625917145,-3.09188464830474e-06
3,-0.0059973279141733,-2.15711543232405e-07
3,0.000898377503802284,7.25064437701898e-10
3,0.00277355361706083,2.13358376302079e-08
3,-0.00187638922157375,-6.60645967986006e-09
3,-0.000832101493610269,-5.76141162650847e-10
3,0.0193410351161454,7.23501007703308e-06
3,0.00417305227093889,7.26710564784608e-08
3,-0.002688577449583,-1.94342441767569e-08
3,-0.00818092423516328,-5.47528981341936e-07
3,-0.0464490416302031,-0.000100214432909779
3,0.0123151385794103,1.86774640712241e-06
3,0.0070647707136849,3.52609666793092e-07
3,0.00837596463816277,5.87630738726289e-07
3,-0.00593325250605331,-2.08871167381524e-07
3,0.00510926704432242,1.33375422199405e-07
3,0.00383879399759203,5.65697710660947e-08
3,0.00417701762305941,7.28784156628383e-08
3,-0.00163912918777706,-4.40392132057971e-09
3,0.0026277904555781,1.81456359154401e-08
3,0.00422420929936942,7.53765550476793e-08
3,0.0010147363283411,1.04486366327404e-09
3,0.0079621388659644,5.04765011163827e-07
3,0.00185057715512223,6.3375527891593e-09
3,0.0127100168561225,2.05323368003226e-06
3,0.0693856518782078,0.000334048109699263
3,0.0110158874316408,1.33677547124175e-06
3,0.00304326549393391,2.81850964517101e-08
3,-0.000134463548793224,-2.43116092674803e-12
3,-0.0033377121610724,-3.71831897869563e-08
3,-0.00524713896649273,-1.44466682190274e-07
3,-0.0011204853217366,-1.40675515427842e-09
3,-0.000889051524081856,-7.02717537771993e-10
3,0.000206772924916196,8.84058518817468e-12
3,-0.00141893421235704,-2.85684567512761e-09
3,-0.00114530794046843,-1.50233510371897e-09
3,0.00513260666007407,1.35211599225296e-07
3,-0.0192641187567176,-7.14903528501694e-06
3,0.00806885048982227,5.25333389782815e-07
3,-0.0743546812520273,-0.000411078675558276
3,-0.0785220168721279,-0.000484143759578379
3,-0.053510520323339,-0.000153220728151287
3,0.0987143451109374,0.000961924100806366
3,-0.0383383438696237,-5.63507947051058e-05
3,-0.0281439087440019,-2.22922159632377e-05
3,0.104246959865903,0.00113289639741341
3,0.0852637134714433,0.000619858741756163
3,-0.0164559397257305,-4.45623478019038e-06
3,-0.041903516043222,-7.35785789559403e-05
3,-0.0175766734967049,-5.43012786416526e-06
3,0.00172303965930145,5.11547328828519e-09
3,0.00301971686924135,2.75358619289408e-08
3,-0.0314332438195903,-3.10575793711044e-05
3,0.00136714957834633,2.55533650098907e-09
3,0.0255662154159036,1.67108804257139e-05
3,-0.0166077582198738,-4.58071256313299e-06
3,0.0024373967997879,1.44803383490986e-08
3,0.0354848101466483,4.4681470531356e-05
3,0.0710413370257022,0.000358536503874013
3,0.0625914927174599,0.000245214375595614
3,0.0651019835816293,0.000275919671084777
3,0.0262560626789396,1.81004262138843e-05
3,0.0583600774068953,0.000198768507975068
3,0.0308345540418828,2.93165604040512e-05
3,-0.00634353124629393,-2.55266162908332e-07
3,-0.0104345186063698,-1.13610181439157e-06
3,-0.00709431027814427,-3.57051232723076e-07
3,-0.00977435654599219,-9.33822924218438e-07
3,-0.00507280199762011,-1.30540037644484e-07
3,-0.019920605514842,-7.90510432640488e-06
3,-0.00676295288945009,-3.09320772741149e-07
3,-0.00915020763064679,-7.66113026253868e-07
3,-0.0369011105672552,-5.02479456149753e-05
3,-0.00205128914723952,-8.63138814665341e-09
3,-0.0157043009606237,-3.87307430270009e-06
3,-0.007921180495186,-4.97015265752547e-07
3,-0.00519857727218971,-1.40492619893958e-07
3,-0.0294101276557818,-2.54384548693155e-05
3,-0.00262473251055201,-1.80823616800091e-08
3,-0.0116948219542623,-1.59948747292481e-06
3,-0.00341310367805719,-3.97601892100703e-08
3,0.013213846419916,2.30721339551761e-06
3,-0.000807795292863535,-5.27113275809346e-10
3,-0.00268314623750514,-1.93167042263507e-08
3,-0.0106655538575046,-1.21324983039463e-06
3,-0.00483424568258297,-1.12975989583902e-07
3,-0.0033661762622715,-3.81426233410759e-08
3,-0.000422926700057693,-7.56476273616618e-11
3,-0.000312781040720842,-3.05999883432756e-11
3,-0.00478648551296552,-1.09660506223454e-07
3,-0.00401708752094268,-6.48237097949843e-08
3,0.0217355477536081,1.02686125531546e-05
3,0.00974689477502983,9.25974085664723e-07
3,0.00162229435789238,4.26961753405571e-09
3,-0.00524646871920703,-1.44411328577015e-07
3,-0.0107406842087164,-1.23907000458386e-06
3,-0.00865406114074914,-6.48126647167913e-07
3,-0.0168787738723661,-4.80864465030466e-06
3,-0.0264887969929391,-1.85860330413041e-05
3,-0.00142904188996572,-2.91833321960526e-09
3,-0.0107974739897951,-1.25882830522856e-06
3,0.00806781980906956,5.25132103916417e-07
3,-0.00497973549947421,-1.23486313888672e-07
3,-0.00359442194075085,-4.64394609220788e-08
3,-0.00793990109531842,-5.00547478311457e-07
3,-0.00392072945030636,-6.02699213334206e-08
3,-0.00268124932613059,-1.92757640309099e-08
3,-0.000163621810950502,-4.38049899714578e-12
3,-0.000436746321122741,-8.33082029458882e-11
3,-0.00234941260480424,-1.29681457623751e-08
3,-0.000111212238888997,-1.3754909957146e-12
3,-0.0013687376695323,-2.56425174301945e-09
3,-0.000934254129839908,-8.15445760046974e-10
3,0.0147777511973946,3.2271938342278e-06
3,0.0165166151672282,4.50570910757766e-06
3,0.010108141738351,1.03279462525072e-06
3,-0.0162721333340081,-4.30857326824544e-06
3,-0.0010288753018892,-1.08915133058271e-09
3,-0.0302782717413197,-2.77583244141621e-05
3,-0.00606035215506172,-2.22583815459477e-07
3,-0.00733476635469013,-3.94601609663647e-07
3,-0.0125935069617231,-1.99728508908657e-06
3,-0.00364312407619589,-4.83528288879704e-08
3,0.0203604019965533,8.44032258428201e-06
3,0.0133078856726297,2.35682417151968e-06
3,0.00729615587984229,3.8840276407557e-07
3,0.0343956324641325,4.06920808667624e-05
3,-0.00295578529126795,-2.58237108913257e-08
3,-0.00938751686142976,-8.27279362053279e-07
3,-0.0258789845907367,-1.73317212666599e-05
3,-0.0105250610654028,-1.16593374691723e-06
3,-0.011553257230986,-1.5421028109254e-06
3,-0.0143408052830902,-2.94931131651246e-06
3,-0.000854280932448037,-6.23450731810819e-10
3,-0.0134355204178552,-2.42528890384976e-06
3,-0.0130580783060178,-2.22657744754993e-06
3,0.0161168491114519,4.1863970913322e-06
3,0.00570349053218339,1.85533430557679e-07
3,-0.00684975099027313,-3.21384073797478e-07
3,-0.0105303872033782,-1.16770468211341e-06
3,-0.00157384821490494,-3.89841920099483e-09
3,-0.00129892712457972,-2.19156500952474e-09
3,-0.0128540335570978,-2.12382284535369e-06
3,-0.00314957835341733,-3.12433253153516e-08
3,0.0105668631417803,1.17988110947899e-06
3,0.00538855950382483,1.56465304233441e-07
3,0.0259555357114304,1.74859805465624e-05
3,0.00795851285788334,5.04075705697702e-07
3,0.00217481113316857,1.02864292332812e-08
3,0.018114175511344,5.9436840319828e-06
3,0.0138751557481556,2.67124424974526e-06
3,-0.00861676654313326,-6.39783418121559e-07
3,0.0414954717876795,7.14499814117363e-05
3,0.0551415136434735,0.000167662543456852
3,0.0214196195492688,9.82732362619652e-06
3,0.0407334633132735,6.75855746956512e-05
3,0.00544254774721422,1.61215480985793e-07
3,0.0640014609692876,0.00026216195280042
3,0.0499361520039468,0.00012452175125431
3,0.0213308137394687,9.70559735782577e-06
3,-0.012165532357657,-1.80050094886511e-06
3,-0.0251597515777652,-1.59264523277555e-05
3,-0.0238936230866886,-1.3640994245465e-05
3,0.014087519609607,2.79578390746808e-06
3,0.00492115251028565,1.19179201981878e-07
3,0.00970861004614053,9.15105515629607e-07
3,0.000332128575252234,3.66369007034012e-11
3,0.0128102223015261,2.1021804793395e-06
3,0.0203091835914191,8.37678553554381e-06
3,0.00318805590696253,3.24024453069699e-08
3,0.0161511358718828,4.21317222034435e-06
3,-0.00463183298082851,-9.93707739542083e-08
3,-0.00473840184098808,-1.06388739923145e-07
3,0.0190602731581639,6.92448312190994e-06
3,0.0219268067074226,1.05420765260954e-05
3,0.00676028791724696,3.08955249062715e-07
3,0.000886531768219043,6.96759515547431e-10
3,0.0155040474759965,3.72679298015667e-06
3,0.0222931934289926,1.10794155800333e-05
3,0.0334024483506915,3.72678984469478e-05
3,0.0103011043322049,1.09307851349629e-06
3,-0.0126850784552695,-2.04117139188906e-06
3,-0.0138162454595435,-2.63736428631298e-06
3,0.076866588786005,0.00045416412382766
3,0.000849363205464416,6.12745781629461e-10
3,0.0047689672701968,1.08460855467137e-07
3,0.0276720529727326,2.11896674586357e-05
3,-0.0511106605702668,-0.000133516359386472
3,0.00427292287246149,7.80144697870595e-08
3,0.000628157804458573,2.47859905580533e-10
3,0.00219752619998433,1.06121207985646e-08
3,0.000225744735608554,1.15041065096131e-11
3,0.00164842257806623,4.47925371931772e-09
3,0.00263116369991267,1.82156052739718e-08
3,-0.00354593814155371,-4.4585481930868e-08
3,0.032712729388234,3.50066331205584e-05
3,0.00639928208516907,2.62055792520917e-07
3,0.00961269335241023,8.88250100409976e-07
3,0.0166039443299966,4.5775574735584e-06
3,0.00277833920450463,2.14464691234354e-08
3,0.0266198431391065,1.88632480635954e-05
3,0.0259252130811307,1.74247679707359e-05
3,0.0260376936110547,1.76525535198228e-05
3,0.0197077440583941,7.65439271958396e-06
3,-0.017840598325068,-5.67842960202026e-06
3,0.0165001571623018,4.49225336353264e-06
3,0.00806751224964879,5.25072049339374e-07
3,0.00189640055482036,6.82009181130199e-09
3,0.00770074545076266,4.56665606164166e-07
3,0.0251968998583566,1.59971025847049e-05
3,0.0063799239208464,2.59684781841884e-07
3,0.0158722196806668,3.99864636325974e-06
3,0.0317215179409532,3.19199265343881e-05
3,0.0105381113554745,1.1702761391546e-06
3,0.0214651435010655,9.89011607367369e-06
3,0.0763491856264219,0.000445054531288239
3,0.00658351475300694,2.85347084357555e-07
3,0.0331234887882426,3.63419494529297e-05
3,-0.00687059955718246,-3.24327602130022e-07
3,-0.00323171735116465,-3.37520464426307e-08
3,-0.000281527891368442,-2.23133245563551e-11
3,-0.00928728295783095,-8.01061819087962e-07
3,-0.00690917163680831,-3.29820726918518e-07
3,-0.00446512576527331,-8.9022766691227e-08
3,-0.0127415558492785,-2.0685564950087e-06
3,0.0186586148699048,6.495883114786e-06
3,-0.00915562683451767,-7.6747502223864e-07
3,-0.00609158890829203,-2.2604336389787e-07
3,-0.00524275412025814,-1.44104807857094e-07
3,0.0137982171911937,2.62705357725318e-06
3,0.0138808705653332,2.67454625828472e-06
3,0.0176667199478739,5.51401285208378e-06
3,-0.0126478334180044,-2.0232446975279e-06
3,0.00649025424066566,2.73391576185309e-07
3,0.0089706604588455,7.21893708077953e-07
3,0.0117543448663326,1.62403462985085e-06
3,0.0167914457019677,4.73439259221527e-06
3,0.000565392140547566,1.80737928906476e-10
3,0.0255984214667014,1.67741126686161e-05
3,0.0101164311818571,1.03533761952712e-06
3,-0.00956423221155282,-8.74883720930234e-07
3,-0.0122182294885792,-1.824e-06
3,-0.0122527393136393,-1.83949910554562e-06
3,-0.034653824212284,-4.1615345451222e-05
3,-0.0267215228553458,-1.90802304e-05
3,-0.0121963633069955,-1.81422462784614e-06
3,0.0147075120856852,3.1813953488372e-06
3,-0.0255588293214296,-1.66964012603936e-05
3,-0.012839776246677,-2.11676363825098e-06
3,-0.00671253944846599,-3.02454849975723e-07
3,0.0187887280331705,6.63272727272728e-06
3,-0.0172797604493541,-5.15956576665602e-06
3,-0.015531423174677,-3.74656919901584e-06
3,-0.0141079865461385,-2.80798711432488e-06
3,0.0188417959280019,6.68908765652951e-06
3,0.0513489634158366,0.000135392635675191
3,-0.0261705670791495,-1.79241842628672e-05
3,-0.0258424853266146,-1.72584915823399e-05
3,0.0532893312441471,0.000151328528913535
3,-0.022745131220705,-1.17669888e-05
3,-0.0363253618889069,-4.79324743857415e-05
3,-0.0363516149231939,-4.80364746624597e-05
3,0.0410913402822018,6.9382656e-05
3,0.035080597069738,4.317187682304e-05
3,0.0515543132655254,0.000137023488
3,-0.0281399841634334,-2.22828915230093e-05
3,0.0187551030518027,6.59718046489506e-06
3,0.025795751145979,1.71650287756353e-05
3,0.0315312009045127,3.13488443182959e-05
3,0.0504987902872232,0.000128778370011677
3,0.0823353828180833,0.000558161050412912
3,-0.0281682182299009,-2.2350031016182e-05
3,0.0134858266875958,2.4526338743486e-06
3,0.0286414035044606,2.34954023851674e-05
3,0.0498657229345666,0.000123995624137735
3,0.0823948881751055,0.000559372106266802
3,0.0598863457787449,0.000214774858053103
3,0.0522981148794704,0.000143040198503565
3,-0.0450540036486422,-9.14534660361964e-05
3,-0.0474019137929933,-0.000106509324021466
3,-0.0562858900240822,-0.000178319407875031
3,-0.0552872603198468,-0.000168995526657972
3,0.0692823311389812,0.000332558058313441
3,-0.0103380133494181,-1.10487021460443e-06
3,0.0728928579497412,0.00038730663280533
3,-0.00737024861782439,-4.00356066815169e-07
3,0.0865542982930498,0.000648434210454655
3,-0.0388816581425008,-5.87806430079204e-05
3,-0.0261884794553394,-1.79610139424644e-05
3,-0.0154632985736619,-3.69748503278353e-06
3,0.0516198490227496,0.000137546704638534
3,-0.00590092357258237,-2.05475463783423e-07
3,-0.00375331647982326,-5.2874412768204e-08
3,0.0347682022887373,4.20287726253666e-05
3,0.0131235365413943,2.26023010161764e-06
3,-0.0318172538219947,-3.22098036700413e-05
3,-0.00356421269696025,-4.52783757193396e-08
3,0.0850186435620382,0.00061452918784717
3,0.0494318026629433,0.000120786763762655
3,-0.0278224357767444,-2.15370117889549e-05
3,0.0220009307223787,1.06493514660668e-05
3,0.0135761140304379,2.5022254175948e-06
3,0.0205292977691611,8.65211497671345e-06
3,0.00834730112473261,5.81618540450239e-07
3,0.00553741877506417,1.69793908947523e-07
3,0.0516561228900981,0.000137836875449311
3,-0.00117077695508423,-1.60480584075723e-09
3,-0.00302705200613193,-2.77370102618406e-08
3,-0.0174723293306909,-5.33399274884762e-06
3,-0.0139190888187343,-2.69669865372974e-06
3,-0.00869841525841439,-6.58143218271868e-07
3,-0.000386095803671395,-5.75552897208704e-11
3,-0.00464432893974885,-1.00177205961667e-07
3,-0.0127945853246051,-2.09449170442961e-06
3,-0.00802007095456957,-5.15863299600021e-07
3,0.00235127001279077,1.29989273101335e-08
3,-0.0219692002559837,-1.06033413516702e-05
3,-0.00856511140812869,-6.28346280885859e-07
3,-0.0148315477807078,-3.26256689871062e-06
3,-0.0432505146534177,-8.09047162335177e-05
3,-0.0985608577866042,-0.00095744409204018
3,-0.0481950412683522,-0.00011194561058431
3,-0.0655550991095351,-0.000281721138588008
3,0.0337833995589762,3.85576049151642e-05
3,-0.0041332876726377,-7.06133634667026e-08
3,-0.0177244783686501,-5.56827131602758e-06
3,-0.0300263709966729,-2.70712642980078e-05
3,-0.020538142250137,-8.66330236947237e-06
3,-0.029861856973336,-2.66287287063788e-05
3,-0.00754350895402941,-4.29259811510494e-07
