"V1","V2","V3"
3,-0.0142253776563083,-2.87866690368163e-06
3,-0.00557168364803446,-1.72965445407833e-07
3,-0.0076835339901348,-4.53610449451865e-07
3,-0.00739185440533657,-4.03887314154042e-07
3,-0.00494831179414576,-1.21163321526437e-07
3,-0.00761632689917377,-4.41811207183169e-07
3,-0.0113535630597275,-1.46351281410864e-06
3,-0.0318201041395985,-3.22184608969398e-05
3,-0.0148868167994388,-3.29917635935498e-06
3,-0.012641991573272,-2.02044247300753e-06
3,-0.0111254140666501,-1.37704632550047e-06
3,-0.00339113441639509,-3.89973425692005e-08
3,-0.0104557887546342,-1.14306361515627e-06
3,-0.0044121643727973,-8.58924618019988e-08
3,-0.000661964133878663,-2.90070376217263e-10
3,-0.00840106917358393,-5.92930351472399e-07
3,-0.0123259822223492,-1.87268447909751e-06
3,-0.00588134771421459,-2.03437293273595e-07
3,0.0278069560446383,2.15010837643901e-05
3,-0.00511262250587228,-1.33638373857442e-07
3,-0.00438922384773347,-8.45596526810155e-08
3,-0.0108592194387739,-1.28054789861338e-06
3,-0.00796582307214058,-5.05466023427756e-07
3,-0.0118257071483243,-1.65379380134139e-06
3,-0.00661706071358394,-2.89731262162346e-07
3,-0.0116466415265329,-1.57980005792978e-06
3,-0.00810899740633572,-5.33213927383124e-07
3,-0.00559359089404564,-1.75013721136086e-07
3,-0.00129946108561874,-2.19426883660248e-09
3,-0.0026260432928201,-1.81094660165228e-08
3,-0.0118575894052443,-1.6672058428579e-06
3,0.00962232396018765,8.90922492382946e-07
3,-0.00538393782849803,-1.56063056585398e-07
3,-0.00360235532548978,-4.67476349817371e-08
3,-0.00674374235924055,-3.0669232643453e-07
3,-0.00575926690871815,-1.91030018658334e-07
3,-0.00314867070387858,-3.12163218737731e-08
3,-0.00249410381142724,-1.55147069970771e-08
3,-0.0394609662019027,-6.14473480411138e-05
3,-0.00988948574817624,-9.67210776693809e-07
3,-0.00787778088710516,-4.88890604952141e-07
3,-0.0076198242880621,-4.42420120881049e-07
3,-0.00387024075093888,-5.79714207811508e-08
3,-0.0133253890358705,-2.36613593569661e-06
3,-0.0139265963471064,-2.70106455663546e-06
3,-0.00464612335904887,-1.00293366580257e-07
3,-0.00211577041357815,-9.47121334128434e-09
3,-0.00657324333573849,-2.8401359515653e-07
3,-0.00187017428188354,-6.5410315093601e-09
3,-0.00141034605365629,-2.80528547441939e-09
3,-0.000459665502176522,-9.71238151507654e-11
3,-0.0160510851135867,-4.13535876561472e-06
3,-0.00579201850510351,-1.94307615480729e-07
3,0.0119880838025365,1.72285731285114e-06
3,-0.00255433931427904,-1.66661683018165e-08
3,-0.00344370960653957,-4.0839420066273e-08
3,-0.00477488689405293,-1.08865247899404e-07
3,-0.00364936973089953,-4.86019390692449e-08
3,-0.00531106162444265,-1.49811109961889e-07
3,-0.00883403725047734,-6.89410158772912e-07
3,-0.0100695501953264,-1.02101051191829e-06
3,-0.0259319514866735,-1.74383584866814e-05
3,-0.00638222933692073,-2.59966398601059e-07
3,-0.00511604178849244,-1.33906682170606e-07
3,-0.0112767318001096,-1.43400199183975e-06
3,-0.0037905948460226,-5.44655763066513e-08
3,-0.00943293897034778,-8.39346094314419e-07
3,-0.00561827496714495,-1.77340925782694e-07
3,-0.00301410864605474,-2.73827277369004e-08
3,-0.00107192240391854,-1.23165775083772e-09
3,-0.00126538450781158,-2.02613108317174e-09
3,-0.00307246263105209,-2.90041290236645e-08
3,-0.004695587606481,-1.03530865111543e-07
3,-0.00891507797006487,-7.08558051570757e-07
3,-0.00354298653013168,-4.44742367532593e-08
3,-0.00246114314069732,-1.49076991361929e-08
3,-0.00364996777037493,-4.86258368738342e-08
3,-0.00235873850682976,-1.31231892277738e-08
3,-0.0029366051010823,-2.53242531695045e-08
3,-0.00290025199284406,-2.4395358331925e-08
3,-0.00105380586102703,-1.17025856689437e-09
3,-0.00199324098682737,-7.91916563870234e-09
3,-0.000193552370368615,-7.25095956055798e-12
3,-0.000637244505900449,-2.58772606004347e-10
3,-0.000196060839316646,-7.53654978622636e-12
3,-0.00308592454207184,-2.93870442615201e-08
3,-0.00655174759773644,-2.81236363954022e-07
3,-0.00208685382870545,-9.08816265929202e-09
3,0.0108912090799093,1.29189817873772e-06
3,0.0080211434277525,5.16070276649425e-07
3,0.00991388565991672,9.74387529765701e-07
3,-0.00307894684139086,-2.91881501958245e-08
3,-0.00212773407649849,-9.63278899223939e-09
3,-0.000457482381453336,-9.57465467852385e-11
3,-0.00342952258184925,-4.0336759014866e-08
3,-0.00279492086856987,-2.18327553973732e-08
3,-0.00207268216851343,-8.90426616579864e-09
3,-0.00801145112153994,-5.14201763913661e-07
3,-0.0138256203593615,-2.64273661560415e-06
3,-0.00384198957386521,-5.67111619898522e-08
3,-0.00581733690965084,-1.96866876023681e-07
3,-0.0014755883239895,-3.21288832394621e-09
3,-0.00584795986624809,-1.99992242605191e-07
3,-0.00611474347234681,-2.28630794893439e-07
3,-0.00153893736044517,-3.64470874781243e-09
3,-0.00228071864876558,-1.18635630041595e-08
3,-0.00263365902672383,-1.82674800499071e-08
3,-0.000169433635091686,-4.86405957307348e-12
3,-0.00021533369363576,-9.98472182377673e-12
3,-0.00205960852285278,-8.73683312978605e-09
3,-0.00227172205262538,-1.17237238948449e-08
3,0.0150193335525553,3.38806697558289e-06
3,0.0150158770625782,3.38572836489284e-06
3,0.0133657040371812,2.38767669417465e-06
3,0.00727473689209479,3.84992147934857e-07
3,-0.00213880230948296,-9.78389837705611e-09
3,-0.00344080925046025,-4.07363197976958e-08
3,-0.00623495680840178,-2.42381990660597e-07
3,-0.00453756898147899,-9.34264229337611e-08
3,-0.0040703012082733,-6.74341125625762e-08
3,-0.00697838528591741,-3.39832438044716e-07
3,-0.00261203751996975,-1.78212528839647e-08
3,-0.000350707443562367,-4.31355113634424e-11
3,-0.00757922989698256,-4.35386783444664e-07
3,0.0144491749536371,3.0166793392783e-06
3,0.0128238060212054,2.10887491133756e-06
3,0.0185322609420184,6.36480671843868e-06
3,0.00502727275923953,1.27056634279483e-07
3,-0.00207275690056197,-8.90522934971719e-09
3,-0.00496378439328757,-1.22303455549801e-07
3,-0.00330750997198411,-3.61829095651049e-08
3,-0.00534560822688693,-1.52753573904627e-07
3,-0.0110321098458842,-1.34268993155526e-06
3,-0.00989459812994576,-9.68711554642265e-07
3,-0.00475680012281452,-1.07632817571258e-07
3,-0.00406252580307726,-6.70483967034435e-08
3,-0.00824761900542836,-5.610295959685e-07
3,-0.00433792129968753,-8.16290995475559e-08
3,-0.0107156458507224,-1.23042474202151e-06
3,-0.0111873727060583,-1.40018145220182e-06
3,-0.00375755083288962,-5.30535676126621e-08
3,-0.00339870838451233,-3.92592237890925e-08
3,-0.00393140076181432,-6.07633840147421e-08
3,-0.00157896843093694,-3.93659141587381e-09
3,-0.000702793419052781,-3.47122734504177e-10
3,-0.00122243295254491,-1.8267332985894e-09
3,-0.0151748940146776,-3.49443526578755e-06
3,-0.00419601711593166,-7.38774255903266e-08
3,0.00967267737134258,9.04982345119485e-07
3,0.00701095173590038,3.44612425241816e-07
3,0.00730685412427915,3.90113798011037e-07
3,0.00108090984654304,1.26289841791576e-09
3,0.00421214991699282,7.47328354189213e-08
3,0.00421311353228306,7.47841371390692e-08
3,-0.00296638502809184,-2.61025274717204e-08
3,-0.00672715968972486,-3.04435442189352e-07
3,-0.00310826288945721,-3.00298546278852e-08
3,-0.00325066778755815,-3.43492898664638e-08
3,-0.00469695426396068,-1.03621289843184e-07
3,-0.00639157251939404,-2.61109794215244e-07
3,-0.00603710295353012,-2.20031949383152e-07
3,-0.0026783377045142,-1.92130363984544e-08
3,-0.00113735706210243,-1.47126358437663e-09
3,-0.000598688837262088,-2.14587036454878e-10
3,-0.000575216185370022,-1.90323884493791e-10
3,-0.00157384728158218,-3.89841226548249e-09
3,-0.0101199913070389,-1.0364310571491e-06
3,-0.00245420598630402,-1.47819943966327e-08
3,0.00826083555908201,5.63731017873434e-07
3,0.00677631791140992,3.11158248551817e-07
3,0.0100894548671025,1.02707724116155e-06
3,-0.00332185342168035,-3.66556896860675e-08
3,-0.0109391016776041,-1.30901606710957e-06
3,-0.00967196968424373,-9.04783724577398e-07
3,-0.00907918018793529,-7.48410558646995e-07
3,-0.00732346509639195,-3.9278043625571e-07
3,-0.00656963430118535,-2.83546039577587e-07
3,-0.0035854969108998,-4.60943885128195e-08
3,-0.00762401941589324,-4.43151252300907e-07
3,-0.0114037363381602,-1.48300120101366e-06
3,-0.00832696405819607,-5.77377785316699e-07
3,-0.00383218409235885,-5.62780565179078e-08
3,-0.00291728929166079,-2.48278145972832e-08
3,-0.00190224141637343,-6.88330318708493e-09
3,-0.000854178574173521,-6.23226656710442e-10
3,-0.0040483141894997,-6.63472050047934e-08
3,-0.0173361793231767,-5.21026931042117e-06
3,-0.00264710929940821,-1.85487915725191e-08
3,0.0148879609683334,3.29993712073546e-06
3,0.00555346782523239,1.71274528331633e-07
3,0.0141639108166452,2.84151236768341e-06
3,0.00862560571166553,6.41754327926518e-07
3,0.00810305462668551,5.32042468936093e-07
3,0.0067228892193529,3.03856033881179e-07
3,0.00830664631083668,5.73161693273056e-07
3,-0.00338641074328209,-3.88346056800844e-08
3,-0.00827456250856263,-5.66545929127572e-07
3,-0.0176960848602122,-5.54155409144136e-06
3,-0.00717759638308857,-3.6977461976936e-07
3,-0.00652938382934681,-2.78366262223812e-07
3,-0.00877734995854265,-6.76223474592185e-07
3,-0.003388935712477,-3.89215378225048e-08
3,-0.00737648034689756,-4.0137245884249e-07
3,-0.00973861545278567,-9.23616433997306e-07
3,-0.00531359626497104,-1.5002569901139e-07
3,-0.0039846820524586,-6.32675505980193e-08
3,-0.00475340470853038,-1.0740249643469e-07
3,-0.00149327163231062,-3.32978693269012e-09
3,-0.00118910215679833,-1.68134756985961e-09
3,-0.00116781510140738,-1.59265702249377e-09
3,-0.00557444965255498,-1.73223174012865e-07
3,-0.0118113731907398,-1.6477873896781e-06
3,-0.00250032949322026,-1.56311788121591e-08
3,-0.00196551472102234,-7.59327104798273e-09
3,-0.00541315903692756,-1.58617960025141e-07
3,-0.00282704723759115,-2.25943158603482e-08
3,-0.00252839315334529,-1.61634407986421e-08
3,-0.00180904663588552,-5.92037598595119e-09
3,-0.00412434874202345,-7.01562136888967e-08
3,-0.00539394603803737,-1.56934992923006e-07
3,-0.00213592037365639,-9.74440161200589e-09
3,0.0221932968374915,1.09311402323637e-05
3,0.0206132589288973,8.75870654392182e-06
3,0.0209437139902364,9.18673302200064e-06
3,0.00660365865358238,2.8797437793689e-07
3,0.0108655551226846,1.28279056841241e-06
3,0.00661697785495435,2.89720378280924e-07
3,0.00743269466708124,4.10618845352657e-07
3,0.00587368119906574,2.02642769811249e-07
3,-0.00520108434251528,-1.40695980208574e-07
3,-0.0218231106372897,-1.03932162403818e-05
3,-0.01134402627242,-1.45982793831188e-06
3,-0.00581111375366154,-1.962357505623e-07
3,-0.0083661334608927,-5.85563995109066e-07
3,-0.00797674372205863,-5.07547762564124e-07
3,-0.00502066099788104,-1.26555986813281e-07
3,-0.00334189691849394,-3.73232238536422e-08
3,-0.0058554392358176,-2.00760577125998e-07
3,-0.00210404755487076,-9.31465242826271e-09
3,-0.000594101568716528,-2.09692113683519e-10
3,-0.00118789416383275,-1.67622859820134e-09
3,-0.00748513625373076,-4.1937171047965e-07
3,-0.00309305886201578,-2.95913347258827e-08
3,0.0342866097417432,4.03063649326581e-05
3,0.0320078893238033,3.27922419783921e-05
3,0.00489719966391507,1.17447407045511e-07
3,0.0122791025082221,1.85139836070121e-06
3,0.0224240147355082,1.12756116696607e-05
3,0.0150059639163851,3.37902724434548e-06
3,0.0273543823460377,2.04682512311678e-05
3,0.0181614993845124,5.99039004474595e-06
3,0.0119142321869379,1.69121249407829e-06
3,-0.0120960499682016,-1.76982659385144e-06
3,-0.0135382127527643,-2.48132701705888e-06
3,-0.0056084128536009,-1.76408670900778e-07
3,-0.0114992594836874,-1.52058121907113e-06
3,-0.00918709724085781,-7.75416324131488e-07
3,-0.0131803388501696,-2.2897060239686e-06
3,-0.00855144561709988,-6.25343463278747e-07
3,-0.00517089578247769,-1.38260255287154e-07
3,-0.00260732687864996,-1.77250082209269e-08
3,-0.00195518534068504,-7.47418420667117e-09
3,-0.0101327083602545,-1.04034319053726e-06
3,-0.00390099314901802,-5.93643289309079e-08
3,0.0390818748023046,5.96933795793029e-05
3,0.0189289396782029,6.7823291381217e-06
3,0.00693345823692513,3.33311050124856e-07
3,0.0241857845899494,1.41475273297556e-05
3,-0.0279984315365689,-2.19483111806527e-05
3,-0.017047262756208,-4.95409083738075e-06
3,-0.0114457917078293,-1.49946908038154e-06
3,-0.00678348424518765,-3.12146494498629e-07
3,-0.00288206240179966,-2.3939227915484e-08
3,-0.00283219802487311,-2.27180393126883e-08
3,-0.000492367291706584,-1.19362411465656e-10
3,-0.0102324643352987,-1.0713730529005e-06
3,0.062200122803295,0.000240643273321713
3,0.0204378334748229,8.53698599075584e-06
3,0.0878653106381505,0.000678347683585269
3,0.100646926796392,0.00101953362892383
3,0.0607704195711439,0.00022442782698486
3,0.0326662835266455,3.48577364184279e-05
3,0.0201118931344408,8.13502436665135e-06
3,0.0227034516698767,1.17024196442985e-05
3,0.0388404140961466,5.85937851727402e-05
3,0.0161765109783641,4.23306142480502e-06
3,0.0499906538812564,0.000124929917211097
3,0.024864443980141,1.53722081294525e-05
3,0.0657899399496846,0.00028475966278803
3,-0.0285518274498563,-2.32756453378801e-05
3,-0.0327441850759363,-3.51077145884909e-05
3,-0.0248898469146638,-1.54193716560955e-05
3,-0.0139169477121478,-2.69545438454031e-06
3,-0.0320335026814305,-3.28710280282066e-05
3,-0.0344396896686729,-4.08486481293274e-05
3,-0.0111113793894006,-1.3718414772114e-06
3,-0.0139947390645761,-2.74090773227769e-06
3,-0.0252921854350468,-1.61792755598977e-05
3,-0.0120088108031036,-1.73180906231381e-06
3,-0.0103707456074611,-1.11539821124038e-06
3,-0.007456856700863,-4.14636368211958e-07
3,-0.0471756385281476,-0.00010499131163814
3,-0.0581083843017055,-0.000196207859651313
3,-0.0110649160287305,-1.35470385698714e-06
3,0.0149922530211521,3.36977348951836e-06
3,0.022020310726025,1.0677518409256e-05
3,0.0247706683085903,1.51989354942109e-05
3,0.0241510818743234,1.40867163801432e-05
3,0.00893627275599227,7.13623672263462e-07
3,0.00966873585723537,9.03876483559521e-07
3,0.00725111425536085,3.81253856147636e-07
3,0.018313100129118,6.14165773054382e-06
3,0.015753813226844,3.90982281785543e-06
3,0.00844825736012441,6.02977915446279e-07
3,0.0278289303919256,2.15520975195971e-05
3,0.0420743326676064,7.44820650812163e-05
3,-0.0123379790738347,-1.87815784195357e-06
3,-0.0107834001437735,-1.2539123017244e-06
3,-0.0117833276593786,-1.63607746527099e-06
3,-0.00665126723339527,-2.94247777725818e-07
3,-0.0040465543600872,-6.6260717883161e-08
3,-0.00264837498465576,-1.85754109783092e-08
3,-0.00213099592457976,-9.67715856968782e-09
3,-0.0118717105676764,-1.67316934824988e-06
3,-0.0198040143660121,-7.76711433345783e-06
3,0.029099899516763,2.46419157302516e-05
3,0.0175409710254739,5.39710532623786e-06
3,0.0198563491697991,7.82885417310449e-06
3,0.0167766004724836,4.72184673515877e-06
3,0.00907760501620584,7.48021094857809e-07
3,0.00801603720949263,5.15085320957348e-07
3,0.00825754454444388,5.63057535871805e-07
3,0.0104772785919681,1.15012614482829e-06
3,0.0164280663846638,4.4336289824859e-06
3,0.0143310779603412,2.94331386086649e-06
3,0.0482522436868239,0.000112344686683171
3,0.0238114389359448,1.35007197567634e-05
3,-0.00808424481280567,-5.28345934483635e-07
3,-0.00358728052775728,-4.6163212139104e-08
3,-0.0134633790995456,-2.44040678772378e-06
3,-0.0120827422658246,-1.76399169148511e-06
3,-0.0152350347861057,-3.536147325041e-06
3,-0.00454561877405515,-9.39245299392035e-08
3,-0.0064608501006038,-2.69692578181051e-07
3,-0.00510111173749659,-1.32737767788425e-07
3,-0.00280770286503189,-2.21336702492824e-08
3,-0.00189024680247039,-6.75391415469639e-09
3,-0.019781604064704,-7.74077626793418e-06
3,0.0169665949042682,4.88409465564521e-06
3,0.0437671804442268,8.38389264529107e-05
3,0.0248803289855269,1.5401689220414e-05
3,0.0137448282190103,2.59667710865845e-06
3,0.0167642212318599,4.71140187369991e-06
3,0.0192650470287417,7.15006879752619e-06
3,0.0259859971582335,1.75476175283588e-05
3,0.0366779920119835,4.93419892995057e-05
3,0.0164094920372698,4.41860736874707e-06
3,-0.00758487156020683,-4.36359758719143e-07
3,-0.0136874189060114,-2.5642754668858e-06
3,-0.0148978311560755,-3.30650469513436e-06
3,-0.00762870006686742,-4.43967951446366e-07
3,-0.000999780453271814,-9.99341504407157e-10
3,-0.0193359733013895,-7.22933105879608e-06
3,-0.0047869531480426,-1.09692650544847e-07
3,0.0247118433329445,1.50909098922516e-05
3,0.00861762745711171,6.39975202424177e-07
3,0.0147120328440564,3.18432991876837e-06
3,0.016078550204493,4.15662320817801e-06
3,0.00348642486247719,4.23780461801181e-08
3,0.0088173171319499,6.85503038200472e-07
3,0.00896591477909831,7.20748620382267e-07
3,0.00743823661886803,4.11538024917367e-07
3,0.00755576906639815,4.31356182654267e-07
3,0.0133116392595067,2.35881901276643e-06
3,0.0115285624300868,1.53223531296676e-06
3,0.0205081894945935,8.62545403052901e-06
3,0.00728150280189953,3.86067339615721e-07
3,0.0127317585905941,2.06378848923046e-06
3,-0.0138111843772595,-2.63446703855315e-06
3,-0.00421546545763692,-7.49094493899668e-08
3,-0.00305363266327636,-2.84741243439412e-08
3,0.0217473242119902,1.02853123972643e-05
3,0.0222568329871381,1.10252920089425e-05
3,0.0296708256209527,2.61209455280923e-05
3,0.036611063325154,4.90723694040925e-05
3,0.0200176290893656,8.02117355980502e-06
3,0.0138171821645569,2.63790074171593e-06
3,0.0217807657659184,1.03328335557762e-05
3,0.0142573851400439,2.8981418920008e-06
3,0.0190646680378635,6.92927412688692e-06
3,0.0161903355182121,4.24392349864338e-06
3,0.019164476096879,7.03867404841822e-06
3,0.0236376911468528,1.3207334017075e-05
3,0.0400571864739128,6.42748876969339e-05
3,0.0472049731560685,0.000105187289690261
3,0.027328119972169,2.0409354385428e-05
3,0.022975328172191,1.21278877944865e-05
3,0.0292839013473621,2.51123181796639e-05
3,-0.00563792809206252,-1.79208496937139e-07
3,-0.0088860511694746,-7.01659531703835e-07
3,-0.00637775926942196,-2.59420545307046e-07
3,-0.00463701419601753,-9.97046185742722e-08
3,-0.00341819358935601,-3.99383359693415e-08
3,-0.00339489685915487,-3.91272885714689e-08
3,-0.0113202731935586,-1.45067699356939e-06
3,0.0124537850735514,1.93154174774897e-06
3,0.0310094970282718,2.9818388321364e-05
3,0.0197698249032697,7.72695652362391e-06
3,0.0144475212517416,3.01564368483585e-06
3,0.0137432079965945,2.59575893817166e-06
3,0.0227396041117072,1.17584126841571e-05
3,0.0134666862775008,2.44220563231818e-06
3,0.0285162505259534,2.31887460522135e-05
3,0.0213748894118262,9.76588553005973e-06
3,0.0182724929152649,6.10089297588631e-06
3,0.0188848479698681,6.7350446438849e-06
3,0.0507507606171163,0.000130715674013847
3,0.0208112100457241,9.0134695854587e-06
3,0.0245256876295192,1.47524305150986e-05
3,0.025007093171847,1.56383034710515e-05
3,0.0113818441810987,1.47447667681657e-06
3,-0.0145501795051731,-3.08038538148825e-06
3,-0.00522892311192436,-1.42967317158722e-07
3,-0.00420666996701384,-7.44415355057046e-08
3,-0.00422245188345904,-7.52825164874491e-08
3,-0.00248741314436979,-1.53901826798213e-08
3,-0.0150668194055656,-3.42030431457745e-06
3,0.00662879594035533,2.91275495645789e-07
3,0.0219198185838588,1.05320003861985e-05
3,0.0103452376233584,1.10718810603779e-06
3,0.00718336110308601,3.70666294167845e-07
3,0.00363610187748359,4.80737641818084e-08
3,0.00763764832141995,4.45532071129444e-07
3,0.020822455567439,9.0280890067702e-06
3,0.0116625954781242,1.58630114101749e-06
3,0.0115009326750756,1.521245068848e-06
3,0.027093290606507,1.98877323224701e-05
3,0.0268950047487899,1.94542671723605e-05
3,0.0163738686655581,4.38989272707649e-06
3,0.0227410003975893,1.17605788318645e-05
3,0.0309242468281175,2.95731368552536e-05
3,0.0179391521397056,5.77305558746045e-06
3,0.0262470834259019,1.80818621893361e-05
3,-0.00587559541387973,-2.02840956370163e-07
3,-0.00420660058191024,-7.44378520350495e-08
3,-0.00318044954689752,-3.21710719221918e-08
3,-0.00282409103971257,-2.2523510412787e-08
3,0.0204383788843176,8.53766946987478e-06
3,0.00471105607695658,1.04557411110784e-07
3,0.0218056134198319,1.03682372258852e-05
3,0.0135871039471143,2.50830702140381e-06
3,0.0053887348334889,1.56480577648434e-07
3,0.00690826033829174,3.29690237108845e-07
3,0.00958278220389907,8.7998415646183e-07
3,0.00874581593508021,6.68961307058468e-07
3,0.00540609698812485,1.57997966954687e-07
3,0.00765535284753594,4.48637568798956e-07
3,0.0206228238116606,8.77090474328862e-06
3,0.00922674867034798,7.85499789074886e-07
3,0.0128053279268392,2.09977187280456e-06
3,0.00893806578948495,7.14053317128389e-07
3,0.00862464700342675,6.41540364942029e-07
3,0.0152617174349295,3.5547595158875e-06
3,0.0146362373551554,3.13536662725054e-06
3,0.00622263958095863,2.40948341521723e-07
3,0.00799101802335678,5.10277395981578e-07
3,0.00597444401553629,2.13251692937246e-07
3,0.00729499085482204,3.88216737339338e-07
3,0.0104330539045392,1.13562345494915e-06
3,0.0134131765643122,2.41320893354966e-06
3,0.0175782128095172,5.43155465247826e-06
3,0.0159396436388814,4.04982095352504e-06
3,0.0372708831248664,5.17736817916726e-05
3,0.0128364817792983,2.1151346800515e-06
3,0.0131143069927712,2.25546471633557e-06
3,0.0128754146991191,2.13443865709363e-06
3,0.00943245965436438,8.39218151721701e-07
3,0.0087769737255367,6.76136521233875e-07
3,-0.00292856394112376,-2.51167898588087e-08
3,-0.00234874650317712,-1.295711876676e-08
3,-0.00203211801381627,-8.39163869854135e-09
3,0.0105275411242356,1.16675814090724e-06
3,0.0041642022494942,7.22096838038295e-08
3,0.00131936689682195,2.29666023005966e-09
3,0.000400326858324846,6.41570202344837e-11
3,0.00514413771396313,1.36124958315138e-07
3,0.00320943245279973,3.30586199124157e-08
3,0.00253704978343585,1.63300294455528e-08
3,0.00475675613514761,1.07629831652601e-07
3,0.00327752093274477,3.52076000677087e-08
3,0.00481978553898359,1.11965221332703e-07
3,0.0106292094401524,1.20088907449413e-06
3,0.00677219050995739,3.1059002273615e-07
3,0.0176963349039387,5.54178899940418e-06
3,0.00780956763417905,4.76300427493374e-07
3,0.0103542946033846,1.11009859370677e-06
3,0.0093612001045062,8.2034131847121e-07
3,0.00758841617934626,4.36971813418487e-07
3,0.00628382660488089,2.48126173450165e-07
3,0.00551183171588971,1.67451039700071e-07
3,-0.000783107346169339,-4.80246152336075e-10
3,-0.000680682974331627,-3.15380373877441e-10
3,0.0012939696940649,2.16656795151917e-09
3,0.00244567939939218,1.46284589106832e-08
3,0.00314033096599202,3.09689346087735e-08
3,0.0043438336852476,8.19633246986896e-08
3,0.00142850734855012,2.91505958598063e-09
3,0.0013354674934831,2.38177078611429e-09
3,0.00260991177073925,1.77777779813096e-08
3,0.0013609208323066,2.5205689746468e-09
3,0.00535957881147428,1.53954357118908e-07
3,0.00665502057637231,2.94746195305855e-07
3,0.0152824613929093,3.5692742759692e-06
3,0.0051111789742252,1.33525208788633e-07
3,0.00569910719845838,1.85105992263344e-07
3,0.00690064615574899,3.28601299068506e-07
3,0.00761688519427561,4.41908371781326e-07
3,0.00475096056521737,1.07236906407306e-07
3,0.00442056097427364,8.63837704263928e-08
3,0.00167222228642253,4.67608095695651e-09
3,-0.000696348804737741,-3.37660689865938e-10
3,0.00494240270389017,1.20729773443485e-07
3,0.00102350895139598,1.07219785928603e-09
3,0.00133646609785696,2.38711773542959e-09
3,0.000508776554419323,1.31698633715327e-10
3,0.000690682033930991,3.29484112283381e-10
3,0.00248473364786741,1.53405003008207e-08
3,0.00128310813477006,2.11246623037465e-09
3,0.00213596399396968,9.74499863219962e-09
3,0.00256318968205107,1.68400058701915e-08
3,0.00272113389235434,2.01488254604497e-08
3,0.00401904725113199,6.49186285379439e-08
3,0.00115695104249881,1.54862029058928e-09
3,0.0109885179867308,1.32683637827827e-06
3,0.00411267347976685,6.95621012104193e-08
3,0.0038368444513802,5.64836273056454e-08
3,0.001678204208682,4.72644292328798e-09
3,0.00685361473769105,3.21928231148208e-07
3,0.00448704706988299,9.03403723305512e-08
3,0.00421863166335915,7.50783680426232e-08
3,0.00382463649220694,5.59461871026202e-08
3,0.00145350857099428,3.07080890354351e-09
3,0.0015248364591935,3.54543724359235e-09
3,-0.00497967214675641,-1.23481600931085e-07
3,0.0164219303614916,4.42866284291267e-06
3,0.0223168376920257,1.11147056190526e-05
3,0.0210354783005034,9.30801713494075e-06
3,0.00486631009767665,1.15238962737212e-07
3,0.00351070832366234,4.32697361385495e-08
3,0.010123238402947,1.03742902371131e-06
3,0.012235131927411,1.83158032522426e-06
3,0.0123250715984529,1.87226945693777e-06
3,0.0171463574525859,5.04098749214263e-06
3,0.0208286308384117,9.03612371209499e-06
3,0.0240439616511136,1.39001049672132e-05
3,0.0695186153224675,0.000335972197242049
3,0.0229115732451618,1.20272055797143e-05
3,0.0324568375658495,3.4191535598457e-05
3,0.0228533573810474,1.19357587902918e-05
3,0.0271790506612153,2.00771863265697e-05
3,0.00851511959328938,6.17408004655425e-07
3,0.024094126296314,1.39872889766624e-05
3,0.0357399657263509,4.56522718860357e-05
3,0.044660568508273,8.90784684351602e-05
3,0.014926509308456,3.32563642597173e-06
3,0.0308446935127152,2.93454908209136e-05
3,0.0225741964501762,1.15036828623073e-05
3,0.0433509525372208,8.14696655811309e-05
3,0.0259243007363697,1.74229284290963e-05
3,0.0161190954682426,4.188147827895e-06
3,0.0856292472410334,0.000627865150884199
3,0.0382203662318507,5.58321732031224e-05
3,0.0401529248433942,6.47368491455209e-05
3,0.0114965227162088,1.51949580477065e-06
3,0.0128967319900114,2.1450579246502e-06
3,0.0116983394948792,1.60093117713788e-06
3,0.0142252241853534,2.87857373490897e-06
3,0.00536747825673851,1.54636097655728e-07
3,0.00852888078096859,6.20406202901875e-07
3,0.00547448376022727,1.6407012742267e-07
3,0.00661937716842058,2.90035650043026e-07
3,0.00548787111163973,1.65276728910917e-07
3,0.00638291599002705,2.60050315645544e-07
3,0.00708533433089844,3.55697688950861e-07
3,0.00801881819897053,5.1562159985703e-07
3,0.0163053996718616,4.33505234235884e-06
3,0.00803524903244388,5.18797677888863e-07
3,0.00647462775239637,2.71421604426326e-07
3,-0.0146357340306512,-3.13504317268783e-06
3,-0.0247181895403683,-1.5102539292748e-05
3,-0.0102415150454849,-1.07421848661734e-06
3,-0.0195753375210947,-7.50114873569708e-06
3,-0.00167206258916706,-4.67474138747196e-09
3,-0.0157349430426843,-3.8957898843043e-06
3,-0.00955211709883525,-8.71563257541434e-07
3,-0.00379821125482424,-5.47945480288086e-08
3,-0.00144144467826395,-2.99498007381122e-09
3,-0.0088304972061295,-6.8858169339379e-07
3,-0.00896648148352222,-7.20885297093714e-07
3,-0.0200408853051788,-8.04916273104953e-06
3,-0.0137659315104367,-2.60865600240672e-06
3,-0.00597608478582788,-2.13427438065844e-07
3,-0.0131465045935819,-2.27211805370311e-06
3,-0.00145546182127661,-3.08320536762517e-09
3,-0.0123514368428357,-1.88431040407755e-06
3,-0.0068378256115022,-3.1970841079606e-07
3,-0.00293947535597492,-2.5398581988287e-08
3,-0.00552804761148915,-1.68933322837232e-07
3,0.0225691258200209,1.14959327100482e-05
3,-0.00700780727965043,-3.44148950610421e-07
3,-0.015165749244627,-3.48812157026535e-06
3,-0.00897220767846944,-7.22267299555593e-07
3,0.00897416842927945,7.22740927369511e-07
3,-0.00390772681857416,-5.96722737264447e-08
3,-0.00509571197913798,-1.32316686976272e-07
3,-0.0102612882161268,-1.08045244934141e-06
3,-0.00858188429939376,-6.32044949412399e-07
3,-0.00870959127399319,-6.60683292473169e-07
3,-0.0105120018537854,-1.16159915226988e-06
3,-0.0144137334264727,-2.99453544035285e-06
3,-0.00212636080880143,-9.61414963948059e-09
3,-0.0110131585392624,-1.33578226588676e-06
3,-0.00610742314662736,-2.27810654653888e-07
3,-0.000581949813718392,-1.97086374503304e-10
3,-0.0103362790115078,-1.10431423829209e-06
3,-0.00610950538339911,-2.28043740255014e-07
3,0.0034057524598715,3.95038330248015e-08
3,0.0138011515699256,2.62872996983251e-06
3,0.00794289804816791,5.01114494249409e-07
3,-0.0100506492827133,-1.01527187524229e-06
3,-0.0177737804927267,-5.6148665264224e-06
3,-0.0151749648349154,-3.49448419091832e-06
3,-0.0073440879129646,-3.96107988336393e-07
3,-0.000875025776514748,-6.69981082176453e-10
3,-0.00237225729009652,-1.33501261577307e-08
3,-0.0121669167202934,-1.80111567655993e-06
3,-0.00630727331005967,-2.50914033243211e-07
3,0.0208641289084261,9.0824030776099e-06
3,0.0103576126511037,1.11116613351851e-06
3,-0.00937635660042027,-8.24332358514192e-07
3,-0.0221386640856829,-1.08506119486985e-05
3,-0.0201912666884338,-8.23172199998583e-06
3,-0.011845593196566,-1.66215087222682e-06
3,-0.0143118918877945,-2.93150838487611e-06
3,-0.00433720920602453,-8.15889065479244e-08
3,-0.0186243611783879,-6.46017310974204e-06
3,-0.0106513635593547,-1.2084136593397e-06
3,-0.00142025634298732,-2.86483894994771e-09
3,-0.00686639975029979,-3.23733208220761e-07
3,-0.0116045598394942,-1.56273743966818e-06
3,-0.00525116624657485,-1.44799580437309e-07
3,0.0211854237830875,9.50848810495945e-06
3,0.0208572323316349,9.07339956902487e-06
3,0.0224195184043275,1.12688302721588e-05
3,0.0205797822484614,8.71610243781919e-06
3,-0.0340166797836341,-3.93618738722323e-05
3,-0.0253077717772376,-1.6209205495545e-05
3,-0.0202243091161517,-8.2722011001762e-06
3,-0.00510603473742298,-1.33122447977142e-07
3,-0.0194617464558051,-7.37132281850011e-06
3,-0.0163478612846011,-4.36900791910834e-06
3,-0.000884116139736825,-6.91079414055445e-10
3,-0.0114875613994147,-1.51594532109135e-06
3,-0.00809371220768473,-5.30204334322861e-07
3,0.0275455060639259,2.09002878179189e-05
3,0.0473513104285898,0.000106168579650082
3,0.0174436533606332,5.30777303073211e-06
3,0.0485912498394916,0.000114729264575209
3,0.0779227165877751,0.000473142820316317
3,-0.0570041319469973,-0.000185233277006934
3,-0.027385347971974,-2.05378411740263e-05
3,-0.0349891241024209,-4.28350434950507e-05
3,-0.00510587971054074,-1.33110322953001e-07
3,-0.0368241983768324,-4.99344078896771e-05
3,-0.0319056471838589,-3.24790019444187e-05
3,-0.00697329979209721,-3.39090021326826e-07
3,-0.0327133980504444,-3.50087798161949e-05
3,-0.0321401474891228,-3.32004214058626e-05
3,-0.0130824002225021,-2.23904227435938e-06
3,0.0325252545665212,3.44082126086015e-05
3,0.0298673744359909,2.66434917029734e-05
3,0.0177032322734839,5.54827147168023e-06
3,0.039647149916626,6.23212160506071e-05
3,0.0443169868080696,8.7038354676321e-05
3,0.0840020070581563,0.000592746486422187
3,-0.0174484460727416,-5.31214922720028e-06
3,-0.0363496190619014,-4.80285628645821e-05
3,-0.0173046651506567,-5.18190682845411e-06
3,-0.0295650524302501,-2.58425854235187e-05
3,-0.0201459621386596,-8.17643597286232e-06
3,-0.00466655778266575,-1.01622516040882e-07
3,-0.027045045575672,-1.97816791228117e-05
3,0.0141199074557941,2.81511117552621e-06
3,0.0213668362409312,9.75485154761745e-06
3,0.0259994088298921,1.75748011342806e-05
3,0.0579730397031446,0.000194840043137762
3,0.040355393811992,6.57210917568843e-05
3,0.035417054223772,4.442600990605e-05
3,-0.0421481803794302,-7.48749404571349e-05
3,-0.0309908363134036,-2.97645889002763e-05
3,-0.0100873099666516,-1.02642234647029e-06
3,0.0465214138523936,0.000100683595284987
3,0.0310617126230804,2.99692719130199e-05
3,0.0292975482717382,2.51474431757632e-05
3,0.0338500920519201,3.87864080513442e-05
3,0.0314125871237801,3.09963901283225e-05
3,0.0463282459506717,9.94346095276268e-05
3,0.0515604141212625,0.000137072139184163
3,0.0737828700597023,0.000401667445385346
3,0.0893669306329952,0.000713724370404582
3,-0.00633264366436198,-2.53954055907712e-07
3,-0.0124773673818669,-1.9425351574845e-06
3,-0.00356450024973913,-4.52893354804272e-08
3,-0.0121741435298747,-1.80432702086105e-06
3,0.0192752692962568,7.1614565774489e-06
3,0.00343887126076311,4.06675260008804e-08
3,0.00432206955656439,8.07374921946602e-08
3,0.00951956339011319,8.62682703058202e-07
3,0.0116965000776757,1.60017611681211e-06
3,0.00752408867276037,4.25953033449601e-07
3,0.0351252060733639,4.33367803212977e-05
3,0.0127843353560442,2.08946193299213e-06
3,-0.00483593754955566,-1.13094647546441e-07
3,-0.00139528994761825,-2.71639796279714e-09
3,0.0291831778525821,2.48540830773713e-05
3,0.0223854940549784,1.12176026284135e-05
3,0.0408778498836894,6.83068303809489e-05
3,0.0445814277885065,8.86057528441889e-05
3,0.054264602692973,0.000159790105246967
3,0.0600114795716189,0.000216124003095499
3,0.0657099759502332,0.000283722595884568
3,0.0368421957697136,5.00076582379807e-05
3,0.0161559730648792,4.21695883293155e-06
3,0.0124140303667344,1.91310325319342e-06
3,0.0163821171644007,4.3965304258466e-06
3,0.0233782429617588,1.27771973686065e-05
3,0.0374483861975591,5.25169288317219e-05
3,0.0470165636839372,0.00010393280622214
3,0.0408925030045872,6.83803127492353e-05
3,0.0251892980917354,1.59826282378327e-05
3,0.00722393116287759,3.76982158488137e-07
3,-0.00282872481255421,-2.26345622573373e-08
3,0.0031469422779006,3.11649425831463e-08
3,0.0011828790123057,1.65508757610663e-09
3,0.00195187952031865,7.43633630036482e-09
3,0.00311726265555697,3.02914588972412e-08
3,0.00202526324807677,8.3070044909474e-09
3,0.0102759424334194,1.08508806824584e-06
3,0.00947223204507798,8.49878779984757e-07
3,0.00719600991065072,3.72627805130436e-07
3,0.00208428633135997,9.05465987599048e-09
3,0.00532392512194139,1.50902285063227e-07
3,0.0296142966311136,2.59719325620287e-05
3,0.0069452026673687,3.3500768526157e-07
3,0.00529168459460574,1.48177359633322e-07
3,0.015070780444264,3.42300259868715e-06
3,0.0263147960619578,1.82221671405861e-05
3,0.0482068755381593,0.000112028095411824
3,0.0245771500509991,1.4845490895126e-05
3,0.0176698349634957,5.51693007694526e-06
3,0.0210096596301428,9.27378557001293e-06
3,0.0271401782772086,1.99911642926528e-05
3,0.0254703745562884,1.65236502811974e-05
3,0.0473621262883504,0.00010624134849876
3,0.0548963410062255,0.000165436066473514
3,0.01306131413506,2.22823311448434e-06
3,0.0124182627491803,1.91506065427489e-06
3,0.0140693427935267,2.78497584978978e-06
3,0.0115255703798784,1.53104262256508e-06
3,0.0185404350605041,6.37323250665725e-06
3,0.0192783897990071,7.16493527795002e-06
3,0.0213881577317919,9.78408314625767e-06
3,-0.00893457050482194,-7.13215940075489e-07
3,-0.00791315394682655,-4.95505916464029e-07
3,-0.0145738208049259,-3.09542492873326e-06
3,-0.00618632779483777,-2.36754795627966e-07
3,-0.00213231497807508,-9.6951397292918e-09
3,-0.00690721529473944,-3.29540638575164e-07
3,-0.0143558971699593,-2.95863245228113e-06
3,-0.00944774293588702,-8.43304085009147e-07
3,-0.00175362533779414,-5.39275183977091e-09
3,-0.00265616026089918,-1.8739708223342e-08
3,-0.00220085717550939,-1.06604510383751e-08
3,-0.00627381605148632,-2.46942217122902e-07
3,-0.00892723116809456,-7.11459761692187e-07
3,-0.00542343409283596,-1.59522923648933e-07
3,-0.00123944470527415,-1.90406368338767e-09
3,-0.0132537326415768,-2.32816961453383e-06
3,-0.00682133511793157,-3.17400903090987e-07
3,-0.0102884719952189,-1.08906208683852e-06
3,-0.00528445612324814,-1.47570955382993e-07
3,-0.00399610727157177,-6.38133308164724e-08
3,0.0198940595830313,7.87354371294572e-06
3,0.00550347646837942,1.66690688963683e-07
3,-0.0177342842190301,-5.57751816338522e-06
3,-0.027195797904765,-2.01143228063703e-05
3,-0.011875475767993,-1.67476182710165e-06
3,-0.0128228358022766,-2.10839629003972e-06
3,-0.0428786234478521,-7.88356229395798e-05
3,-0.0470922931085036,-0.000104435828256728
3,-0.010009789708317,-1.00293978858499e-06
3,-0.033448142835247,-3.74210550122517e-05
3,-0.0337633323233846,-3.84889364234587e-05
3,0.017619734045739,5.47013502374868e-06
3,0.0156883415200737,3.86127830410355e-06
3,0.0261334646674992,1.78480581228327e-05
3,-0.0131406682056265,-2.26909327794986e-06
3,-0.0196400792206203,-7.57582101758428e-06
3,-0.0480567060043902,-0.000110984415126901
3,-0.0398500448749487,-6.32829104125255e-05
3,-0.0560796319995476,-0.00017636624368761
3,-0.00903367349653794,-7.37213313259208e-07
3,-0.0337807098460894,-3.85483961944788e-05
3,-0.0300269179058944,-2.7072743577048e-05
3,0.0324506319905521,3.41719276267769e-05
3,0.0223234870522757,1.11246435464596e-05
3,0.040076070444725,6.4365832980385e-05
3,-0.00939071982421214,-8.28126438833816e-07
3,-0.0358636641062987,-4.61279309585476e-05
3,-0.049535035314987,-0.00012154509316443
3,-0.0522288138065481,-0.000142472317076697
3,-0.0878366621329802,-0.000677684373639986
3,-0.0159367290994062,-4.0475998489868e-06
3,-0.0735580756018914,-0.000398007335653835
3,-0.0391355991203703,-5.99398925727364e-05
3,0.0137747162758685,2.61365335220777e-06
3,0.0135618713653335,2.49435844251058e-06
3,0.0174998507162507,5.3592378467253e-06
3,0.0253605729660666,1.63108721552882e-05
3,0.0189579767677448,6.81358942452338e-06
3,-0.00681117918780624,-3.15985327804089e-07
3,-0.0329432491225214,-3.57519135460493e-05
3,-0.0173919672022701,-5.26073133820836e-06
3,-0.0323646005590766,-3.39008630076334e-05
3,-0.00799579509993117,-5.11193083460866e-07
3,-0.0218900176345997,-1.04891026190449e-05
3,-0.0211558789640583,-9.46876244687586e-06
3,0.00474789484292745,1.07029445322852e-07
3,0.00309936275976427,2.97726321402436e-08
3,0.037903982837083,5.44571037647283e-05
3,0.0724015329666653,0.000379527530840463
3,0.012286692979118,1.85483387421001e-06
3,-0.0671690933408001,-0.000303045931959504
3,-0.011140147810249,-1.38252457430849e-06
3,-0.047266355542258,-0.000105598160358971
3,0.0153798722112284,3.63796218959854e-06
3,0.033142362222677,3.64041066999835e-05
3,0.0188958923989923,6.74686812812711e-06
3,0.0927460902339281,0.000797786774107364
3,0.100001284914251,0.00100003854792282
3,0.0594263601855679,0.000209863732515309
3,0.129988256477494,0.00219640465719236
3,-0.0654052562209147,-0.000279793714514273
3,-0.108314700767848,-0.00127075612828517
3,-0.0201562517410275,-8.18897078045224e-06
3,-0.0831766060908171,-0.000575444689825327
3,0.0319653948125325,3.26618077844834e-05
3,0.017057470935513,4.96299593924085e-06
3,0.0631864797600909,0.000252273993406655
3,0.0769078067369087,0.000454895121052871
3,0.105439482519593,0.00117222180985811
3,0.0313733871074396,3.0880492955283e-05
3,0.0977024752260647,0.000932645715047573
3,-0.110776900617105,-0.0013594011409261
3,-0.0218673311854255,-1.04565242130798e-05
3,-0.0879244784914324,-0.000679718989605761
3,0.0210367091277932,9.30965112182215e-06
3,0.0257274139146092,1.70289708123841e-05
3,0.0693957964619732,0.000334194650421531
3,0.108229777738832,0.00126776950125916
3,0.177324574819055,0.00557579478793185
3,0.0583825354606829,0.000198998065854808
3,0.161800671380985,0.00423585376095057
3,0.208492505707431,0.00906298677885009
3,-0.0168646096147553,-4.79654891258902e-06
3,-0.0681241539645405,-0.00031615741020805
3,0.00390468987150104,5.95332562800135e-08
3,0.0147505522320825,3.20940732347197e-06
3,0.0174343596745314,5.29929387240162e-06
3,0.0321730544277773,3.33025033768947e-05
3,0.0144236228130172,3.00070339991529e-06
3,0.0215588497437145,1.00202084682655e-05
3,0.0301094407416806,2.72965692681742e-05
3,0.0411563660527222,6.97125652192024e-05
3,0.0360121459561832,4.67032394120511e-05
3,-0.0171533206089611,-5.04713143977464e-06
3,0.005914308971415,2.06876912830517e-07
3,0.0132143422327024,2.30747312053406e-06
3,0.0492896047104291,0.000119747376039206
3,0.0651944135177584,0.000277096569025858
3,0.148498977122626,0.00327469145522342
3,0.039487424800878,6.15710323737935e-05
3,0.0914716998755647,0.000765350287673163
3,0.124249345779301,0.00191814896608442
3,0.165482106211476,0.00453161618794408
3,0.145470131343335,0.0030783747836047
3,0.0375616479597893,5.29948801176337e-05
3,-0.0909566936246081,-0.000752495651630627
3,0.00999268947523821,9.97808445493928e-07
3,0.0497540719113647,0.000123164596555068
3,0.0579498569313599,0.000194606393518163
3,0.0790069124416667,0.000493168432969954
3,0.0381631113156025,5.55816355631613e-05
3,0.155533758287322,0.00376247825815314
3,-0.0019005927984762,-6.86542201074279e-09
3,-0.00361713541852379,-4.73254012272848e-08
3,-0.00256176627362741,-1.6811966317513e-08
3,-0.00118696838624839,-1.67231257817095e-09
3,-0.0179818528633149,-5.81437876036869e-06
3,-0.00534337350704134,-1.52562079086964e-07
3,-0.00374185026741122,-5.23913048192098e-08
3,-0.00542754186345382,-1.59885671685666e-07
3,-0.00181293502320879,-5.95863408986785e-09
3,-0.00979755021894057,-9.40486345508416e-07
3,-0.00237498758739451,-1.33962743315393e-08
3,-0.00278630987426339,-2.16315800010363e-08
3,0.00737656879993346,4.01386897858077e-07
3,-0.00878347374050954,-6.77639825177042e-07
3,-0.00310041360900165,-2.98029259385618e-08
3,-0.000960936925100987,-8.87328939488163e-10
3,-0.00302956882923032,-2.78062530826677e-08
3,-0.0260381267619114,-1.76534345132771e-05
3,-0.00763192992437789,-4.44532094907013e-07
3,-0.00760448867295607,-4.39754256718882e-07
3,-0.00191675211724594,-7.04202974154135e-09
3,-0.0164968386748133,-4.48954348232398e-06
3,-0.0130856737841372,-2.24072349729716e-06
3,-0.000409069121677833,-6.84526230928674e-11
3,-0.00208916752406473,-9.11842433023597e-09
3,-0.00261852025579111,-1.79542725389107e-08
3,-0.0106726621845928,-1.21567725024345e-06
3,-0.000655068981542581,-2.81100168769606e-10
3,-0.000498556544829052,-1.23920530958505e-10
3,-0.00570363303251367,-1.85547337428681e-07
3,0.014038803206457,2.76687958275321e-06
3,0.0207530248985936,8.93807966831798e-06
3,-0.00634189296018478,-2.55068438172326e-07
3,-0.0145653187126078,-3.0900106509003e-06
3,-0.0114138587947879,-1.48695383823751e-06
3,-0.0210814532470485,-9.36918116803902e-06
3,-0.0047850733227208,-1.09563473142715e-07
3,-0.0142558977730274,-2.89723496181561e-06
3,-0.0011462389711445,-1.50600186623107e-09
3,-0.0166168519098511,-4.58824128416734e-06
3,-0.00526651300174316,-1.46072843032209e-07
3,0.00994271112776624,9.82911610753395e-07
3,0.0073254571852135,3.93101049393386e-07
3,-0.00313931432626622,-3.09388670222395e-08
3,-0.00210675601553044,-9.35066994943636e-09
3,-0.0134365939505338,-2.42587031078921e-06
3,-0.00779919580639751,-4.74405233716573e-07
3,-0.00581889134826791,-1.97024731374084e-07
3,-0.00777392443774101,-4.69808581124565e-07
3,-0.00406301413929615,-6.70725782826244e-08
3,-0.0217961917189748,-1.03548034060179e-05
3,-0.0172628253868024,-5.14441070197659e-06
3,-0.00177190225834819,-5.56313097711662e-09
3,-0.00367809643014488,-4.97587352841875e-08
3,-0.00281361098252194,-2.22736890047707e-08
3,-0.0114875246665738,-1.51593077889262e-06
3,-0.00440176423662669,-8.52865079541766e-08
3,-0.00156537063183493,-3.8357610522612e-09
3,-0.0020407669103753,-8.49924232259197e-09
3,-0.0169936826801076,-4.90752491873623e-06
3,-0.00759625536665817,-4.38327449589976e-07
3,-0.0028548557282359,-2.32676486650039e-08
3,0.00227043975103202,1.1703882296288e-08
3,0.012489702197992,1.94830188089395e-06
3,0.00638101248945131,2.59817729948985e-07
3,-0.00768290975175578,-4.53499899522253e-07
3,-0.00969792163000081,-9.12086464192346e-07
3,-0.0187408036947785,-6.5821024032356e-06
3,-0.0134285950125471,-2.42154045526494e-06
3,-0.00147655027296361,-3.21917595138242e-09
3,-0.0112813922021795,-1.43578064232567e-06
3,-0.00457054913780454,-9.54784031988503e-08
3,-0.00192224561794418,-7.10275179582024e-09
3,-0.00138426002170918,-2.65248556516856e-09
3,-0.0163365445225804,-4.35994089747259e-06
3,-0.00640459304681882,-2.62708798734709e-07
3,-0.00144313984231782,-3.00555895123943e-09
3,0.00460685422544332,9.77717548827647e-08
3,0.00715806971165061,3.66764903856356e-07
3,0.00428222059028897,7.85248483087107e-08
3,-0.0145684415817057,-3.09199861313798e-06
3,-0.00713442251012347,-3.63141995559549e-07
3,-0.00566971444683877,-1.82256723726907e-07
3,-0.00501556669647358,-1.26171140838258e-07
3,-0.00192430924750786,-7.12565187103714e-09
3,-0.00909612308742581,-7.52608268882237e-07
3,-0.0091101569601966,-7.56097111042315e-07
3,-0.00315320111172727,-3.13512609613926e-08
3,-0.00199980980199145,-7.99771784094218e-09
3,-0.00842032400313199,-5.97016602618718e-07
3,-0.0025236958689114,-1.60735220537079e-08
3,-0.00160565979821888,-4.13962119153934e-09
3,-0.00118191791024005,-1.65105652317364e-09
3,-0.00801875788972686,-5.15609966029926e-07
3,-0.00274412834809399,-2.06639461243923e-08
3,-0.00178189655656525,-5.65779836387488e-09
3,0.0697910540873724,0.000339937654224955
3,0.0615212055010179,0.00023284907149293
3,0.0273114014409691,2.03719197877165e-05
3,0.0319756775715522,3.26933382771501e-05
3,-0.0605050543334222,-0.000221500630008505
3,-0.060617933383538,-0.000222742647994891
3,-0.0303219253272523,-2.78785589790767e-05
3,-0.0168474231790325,-4.78189960828177e-06
3,-0.0842150130874798,-0.000597267057094164
3,-0.068685620258743,-0.000324039141850718
3,-0.0140575309139796,-2.77796737969083e-06
3,-0.0149739982176536,-3.35747920350741e-06
3,-0.0955186819089478,-0.000871495126039195
3,-0.043268930164326,-8.10081047943626e-05
3,-0.0298553592173166,-2.66113497467728e-05
3,-0.0160896640745903,-4.16524863317382e-06
3,-0.0841053189633002,-0.00059493618818852
3,-0.0258900716121672,-1.73540064726082e-05
3,-0.0283282669390087,-2.27331709857183e-05
3,0.0207386676041463,8.91954195381932e-06
3,0.0286848886099792,2.36025813552992e-05
3,0.0158527502110594,3.98394972936652e-06
3,0.0171379113660382,5.03354177415557e-06
3,0.0156590526559412,3.83969257069582e-06
3,0.0891610103965101,0.000708802016027216
3,-0.0275774976792534,-2.09731938111976e-05
3,-0.0259660688146326,-1.75072773203856e-05
3,-0.00596940898008923,-2.12712985811225e-07
3,-0.0179991879807278,-5.83121075287315e-06
3,-0.0303284523113914,-2.78965659573717e-05
3,-0.0176037592800865,-5.45527017003138e-06
3,-0.00920525204969887,-7.80022361923528e-07
3,-0.00555159385476255,-1.71101201435229e-07
3,-0.0346084207829618,-4.14519864346036e-05
3,-0.0121342918297496,-1.78666572694972e-06
3,0.0145228456925324,3.0630576362551e-06
3,0.0180322314865539,5.86338513732587e-06
3,0.0224784142797452,1.13578731284793e-05
3,0.0118275567557515,1.65456991080592e-06
3,0.0216327051468692,1.01235420867579e-05
3,0.0124442247345486,1.92709682881833e-06
3,0.0893273503869754,0.000712776473583651
3,0.0532226467613557,0.000150761137176171
3,-0.0103878839102815,-1.12093714957795e-06
3,-0.00458044752195138,-9.61000769502631e-08
3,-0.0373329448555247,-5.20327460320624e-05
3,-0.0254170526908215,-1.6420091305513e-05
3,-0.00572066212929773,-1.8721424695714e-07
3,-0.0203300105214731,-8.40258298286219e-06
3,-0.00513002007130884,-1.35007281650083e-07
3,-0.0257362170782971,-1.70464572319167e-05
3,-0.019386261819746,-7.28588347737402e-06
3,-0.00852543499544173,-6.1965454866121e-07
3,-0.00430192440079241,-7.96137942918892e-08
3,-0.03019946502607,-2.75421442730599e-05
3,0.0210653412989808,9.34771579510248e-06
3,0.0179673950686594,5.80036537847877e-06
3,0.0158013832875012,3.94534806237718e-06
3,0.0110084625473219,1.33407426856923e-06
3,0.0446827712020076,8.92113887330455e-05
3,0.0210854448692392,9.37450413783941e-06
3,-0.00637321267690016,-2.58866131680996e-07
3,-0.0249762562696119,-1.55805227744913e-05
3,-0.0206229284043397,-8.7710381940351e-06
3,-0.00566557774165987,-1.81858083343898e-07
3,-0.00149732650480074,-3.35698605239058e-09
3,-0.00777436626618668,-4.69888689927201e-07
3,-0.0159326772580029,-4.04451338189217e-06
3,0.00703635199461484,3.48371542064123e-07
3,0.00452877820197472,9.28844800999068e-08
3,0.00825853714320525,5.63260607400082e-07
3,0.00422358779428647,7.53432896364074e-08
3,0.024826575064992,1.53020787465017e-05
3,0.00929744445882361,8.03694095923332e-07
3,0.0106979010263681,1.22432220694007e-06
3,-0.025043305220098,-1.57063380195525e-05
3,-0.00311095793377901,-3.01080352563452e-08
3,-0.00492807777907898,-1.19683053479171e-07
3,-0.0077432376378783,-4.64266944777795e-07
3,0.0380261902069515,5.49855341901496e-05
3,0.038977665771062,5.92171472638957e-05
3,0.0443032322114337,8.69573379363151e-05
3,0.0418042438382198,7.30568792702245e-05
3,0.0199647091532371,7.95772566656366e-06
3,0.124100304349075,0.00191125458270132
3,0.0757788359358153,0.000435154810565759
3,0.0419244627674143,7.36889754742125e-05
3,0.0530994054850745,0.000149716262155617
3,-0.0168421434386528,-4.77740528112457e-06
3,-0.00989355749809269,-9.68405943619967e-07
3,-0.0168391868053199,-4.77488970650376e-06
3,-0.036077905820428,-4.69595537888796e-05
3,-0.0250256758178874,-1.56731916190374e-05
3,-0.0147394137250463,-3.20214230354264e-06
3,-0.0109720808293749,-1.32089104214358e-06
3,-0.0156831795865538,-3.85746812993915e-06
3,0.0309179855123378,2.95551772333948e-05
3,0.041517741565423,7.15650804267448e-05
3,0.0350886508798297,4.32016178728212e-05
3,0.029954545677549,2.6877459184058e-05
3,0.019995511527553,7.99461504175626e-06
3,0.101215995414745,0.0010369252539223
3,0.0501127014631902,0.000125847167648388
3,0.0515918225386045,0.000137322787406225
3,0.0346170853113298,4.14831278589582e-05
3,0.0340009040846655,3.93071354489925e-05
3,-0.00350951595334469,-4.32256629574834e-08
3,-0.0209171330906983,-9.15179912620643e-06
3,-0.0224391786993997,-1.12985021227872e-05
3,-0.0172229417718997,-5.10883645183601e-06
3,-0.0138124197176956,-2.63517402095423e-06
3,-0.00609862377178405,-2.26827406301922e-07
3,-0.00969882757858322,-9.12342100605118e-07
3,0.00096652212077239,9.02891146560848e-10
3,0.00942370695493377,8.36884101893506e-07
3,0.00360159234327271,4.67179376944971e-08
3,0.00329367238756995,3.57306730314839e-08
3,0.0115205429156963,1.52903996986465e-06
3,0.0116118650328259,1.56569057723084e-06
3,0.0199731050132703,7.9677693968888e-06
3,0.00633081935375583,2.53734641560428e-07
3,-0.00656001089678777,-2.82301822786355e-07
3,-0.00296004565110575,-2.59355359486907e-08
3,-0.00202552306836108,-8.3102020088606e-09
3,0.00493615019810297,1.20272156513063e-07
3,0.00747614823459714,4.17862801419876e-07
3,0.00692083236915766,3.31493479871196e-07
3,0.0207153546720847,8.88949561501062e-06
3,0.0347371772098885,4.1916361052636e-05
3,0.0412660865046151,7.02716017316747e-05
3,0.033994935235942,3.92864380146041e-05
3,0.0377324373948139,5.37210608708316e-05
3,0.0126951896554608,2.04605630008819e-06
3,-0.0159948827273561,-4.09207119142647e-06
3,-0.0109253320620071,-1.30407910714416e-06
3,-0.00659975849540494,-2.87464441334328e-07
3,-0.00439235148431324,-8.47405459587333e-08
3,-0.011522594365765,-1.52985693858689e-06
3,0.00921778686704993,7.83213178793445e-07
3,0.00618687067000351,2.36817129656674e-07
3,0.00571898349576332,1.87049490553397e-07
3,0.00438930087849667,8.45641048181975e-08
3,0.0220658724377684,1.07439334512237e-05
3,0.0104129730680387,1.12907875427599e-06
3,0.00951008431856557,8.60108228541344e-07
3,0.0065961747189892,2.86996401950476e-07
3,-0.00587582978858646,-2.02865231026287e-07
3,0.025216677432485,1.60348015419531e-05
3,0.023349697020454,1.27304498076338e-05
3,0.0251648796996845,1.59361928178676e-05
3,0.0184814253372341,6.31257260710086e-06
3,0.14075753314447,0.00278878440332542
3,0.0585317972994389,0.000200528257398641
3,0.0522396660411373,0.000142561145302637
3,0.0728340439472052,0.000386369887582416
3,0.0404780569973357,6.6322207460761e-05
3,0.0238931811249996,1.36402373047549e-05
3,-0.0227048674913672,-1.17046091224524e-05
3,-0.0145491148624056,-3.07970925167299e-06
3,-0.00943470252698775,-8.39816947928662e-07
3,0.00154775471366763,3.70771552953509e-09
3,0.028075516075084,2.21300932641595e-05
3,0.00894708514357063,7.16217141241851e-07
3,0.0101953125246481,1.05974561744638e-06
3,0.00553915701555233,1.69953858185529e-07
3,0.0637616406551392,0.00025922593534196
3,0.0339740274020883,3.92139958196577e-05
3,0.0393504546596166,6.09325374149433e-05
3,0.0505218119200384,0.000128954574635229
3,0.0310684819637985,2.99888699722774e-05
3,0.0163202783201306,4.34693035714721e-06
3,0.0427326878497212,7.8033418197757e-05
3,-0.00462802733176484,-9.91260373690759e-08
3,-0.00301507670182797,-2.74091201388363e-08
3,-0.00532156682131031,-1.50701841594872e-07
3,0.00318179338360141,3.22118689255447e-08
3,0.00428786437541509,7.88357349436751e-08
3,0.00352419712908231,4.37704064223057e-08
3,0.0439952335039272,8.51563191896728e-05
3,0.0177654943131023,5.60701719371175e-06
3,0.0173050248862281,5.18223000517261e-06
3,0.0297559152227236,2.63463185234875e-05
3,0.0249162378041475,1.54684715030013e-05
3,0.0057283961140995,1.87974580540141e-07
3,0.00985872968247957,9.58214804447764e-07
3,0.0273827972852654,2.05321029902916e-05
3,0.00988254098777952,9.65174574383106e-07
3,-0.00246442994079285,-1.49675056039316e-08
3,-0.00599389033339834,-2.15340827683426e-07
3,0.00117795722898056,1.63451370048684e-09
3,0.00225739909002035,1.15033686238572e-08
3,0.00414809024830967,7.13747483046112e-08
3,0.00308780479351336,2.94407935077513e-08
3,0.00259414336131441,1.74574947082625e-08
3,0.0237099317013332,1.33287956261562e-05
3,0.0107141888698924,1.22992291649983e-06
3,0.00873209506074329,6.65817743929193e-07
3,0.00251337144460509,1.58770579435811e-08
3,0.0221504269481876,1.08679167982744e-05
3,0.0110013135483513,1.33147687499228e-06
3,0.00391987146194319,6.02303626927082e-08
3,0.00656130159678292,2.82468486529111e-07
3,0.0177569940980292,5.59897271422509e-06
3,0.00643829799418049,2.66878275036037e-07
3,0.00539650904730754,1.57158808841282e-07
3,-0.0102789762184425,-1.08604940953238e-06
3,0.0327251710372809,3.5046590585618e-05
3,0.0345415877971383,4.12123037064538e-05
3,0.0364411741256413,4.83923914060333e-05
3,0.0176000442716005,5.45181714081641e-06
3,0.123938657705598,0.00190379580220326
3,0.0667918378862068,0.000297968381418166
3,0.0612992174717578,0.000230337575616959
3,-0.0205982880372817,-8.73963671562202e-06
3,0.0108142083364288,1.26469032476059e-06
3,0.0134761760361716,2.44737222129549e-06
3,0.0154402507458875,3.68097651555671e-06
3,0.0142864294282309,2.91588975931956e-06
3,0.0060229752634486,2.18490842109384e-07
3,0.0381519357285117,5.55328207123461e-05
3,0.0130498392372577,2.22236549112107e-06
3,0.0104490201254783,1.14084514085752e-06
3,-0.0131484167291671,-2.27310962443538e-06
3,0.0103718526040384,1.11575542966592e-06
3,0.00580281812019802,1.9539654290011e-07
3,0.00321914528552013,3.33596689915221e-08
3,0.00391101199390734,5.98228974062653e-08
3,0.0417448910820804,7.27461471542984e-05
3,0.0234183367637383,1.28430490450538e-05
3,0.0267441576222564,1.91287578547317e-05
3,0.0164180131770714,4.42549444230795e-06
3,0.0316611888983922,3.17381535271377e-05
3,0.017495724812055,5.35544813055203e-06
3,0.0172124696944641,5.09952312862297e-06
3,0.0133376249074925,2.37265994670532e-06
3,0.0113635029486207,1.46736003658165e-06
3,0.0131251787187535,2.26107869067598e-06
3,0.0175768020899985,5.43024704766188e-06
3,0.0374145600485217,5.23747458293377e-05
3,0.0277719361040037,2.14199509581125e-05
3,-0.00586680306172832,-2.01931713201821e-07
3,-0.00336221257147061,-3.80080424978184e-08
3,-0.00579820830711511,-1.94931238205148e-07
3,-0.00574787860099819,-1.89899036357718e-07
3,-0.0029799065138434,-2.64611014947366e-08
3,-0.0153328527521609,-3.60469807774069e-06
3,-0.0223813806343396,-1.1211419931752e-05
3,-0.00648297296705222,-2.72472472074489e-07
3,-0.0147203441213645,-3.18972974422941e-06
3,-0.00245552855330802,-1.48059052447012e-08
3,-0.0152748693901535,-3.56395749878452e-06
3,-0.00909494420242405,-7.52315685896708e-07
3,-0.00388230979961955,-5.85154520559296e-08
3,0.0138617036507619,2.66348238857754e-06
3,-0.00911306870902781,-7.56822324214348e-07
3,-0.00885445534838115,-6.94201514180116e-07
3,-0.00698241800631974,-3.40421933150479e-07
3,0.00794401887812169,5.01326662425072e-07
3,-0.0047144504512587,-1.04783578721529e-07
3,-0.00926840416506402,-7.96186649647451e-07
3,-0.0133720586353352,-2.39108390880634e-06
3,-0.0135042407659134,-2.4626943671953e-06
3,-0.00769771830791215,-4.56127275677799e-07
3,-0.00577941562258885,-1.93041988578449e-07
3,-0.017595114742591,-5.44723748798946e-06
3,-0.0060859897070379,-2.25420620322636e-07
3,-0.0235972416661594,-1.31396476938065e-05
3,-0.0114264676573705,-1.49188718715871e-06
3,-0.00604563622848782,-2.20966295697987e-07
3,-0.00640152773467868,-2.62331772853169e-07
3,-0.00956870578183317,-8.7611194856294e-07
3,-0.00736498446008882,-3.9949882332564e-07
3,-0.0318169304548558,-3.2208821609843e-05
3,-0.0148162248055622,-3.25246533654972e-06
3,-0.00343181490169778,-4.0417697310834e-08
3,-0.00955977507524783,-8.73661147402452e-07
3,-0.0126769373437756,-2.03724392512688e-06
3,-0.00641525919489967,-2.64023524008425e-07
3,0.0136996323914337,2.57114601619862e-06
3,0.00958265534568518,8.79949208863682e-07
3,0.0174040634847258,5.27171564389545e-06
3,-0.0062820269996356,-2.47913054284041e-07
3,-0.010730922646595,-1.23569472533785e-06
3,-0.0258405369010144,-1.72545882017882e-05
3,-0.012427348364865,-1.91926709730955e-06
3,-0.00993830504579853,-9.81605466933286e-07
3,-0.0200345344605671,-8.04151295160535e-06
3,-0.0050870405988866,-1.31642345329622e-07
3,-0.0173797852730279,-5.24968469028208e-06
3,-0.0143332307900494,-2.94464050331184e-06
3,-0.00385437825699626,-5.726153663041e-08
3,0.0135807166099285,2.50477119679123e-06
3,0.0188390828658744,6.68619855337271e-06
3,0.0260147842508795,1.76059995127928e-05
3,0.0137881645548401,2.62131597103273e-06
3,-0.00820472148626555,-5.5232096670858e-07
3,-0.0387631372319092,-5.82447460648559e-05
3,-0.0314964051420566,-3.12451752277943e-05
3,-0.010610581212676,-1.19458627674707e-06
3,-0.0239771703476919,-1.37845878748107e-05
3,-0.0146224920389648,-3.1265413785173e-06
3,-0.00579993594865032,-1.95105536009175e-07
3,0.00704073079789112,3.49022333818136e-07
3,0.0179472461929223,5.78087343277322e-06
3,0.0271802260919932,2.0079791314176e-05
3,0.0200234479049459,8.02817048708159e-06
3,0.0235528639537995,1.30656545223224e-05
3,0.0187947263260976,6.6390817865174e-06
3,-0.0150202684377737,-3.38869969025438e-06
3,-0.0199329031124949,-7.91975355246301e-06
3,-0.00715898793716677,-3.66906065975158e-07
3,-0.0230395966782395,-1.22299481753375e-05
3,-0.00511378020865572,-1.33729177678691e-07
3,0.0362274749527064,4.75460228310245e-05
3,-0.0462817395816628,-9.91354592805709e-05
3,-0.0454675447145389,-9.39949470833039e-05
3,0.0528812817447332,0.000147878800539486
3,0.0274489012670289,2.06811600302912e-05
3,0.086501832136983,0.000647255751391899
3,0.0567163393276203,0.000182441895839496
3,0.0887955254830105,0.000700121226727836
3,0.0308754200023555,2.94332773096379e-05
3,0.108751551452717,0.00128619371771785
3,-0.0473342444081658,-0.000106053827459213
3,-0.0477217552211021,-0.000108679899049109
3,-0.0543976533753914,-0.000160968351377667
3,-0.0200026698900572,-8.00320429578647e-06
3,-0.0722672859193795,-0.000377420281134309
3,-0.0482011416195474,-0.00011198812495705
3,-0.0163322985599272,-4.35654225918695e-06
3,0.0174379339293478,5.30255379884668e-06
3,0.0156464856838614,3.83045549952535e-06
3,0.0272762794946634,2.02934271024349e-05
3,0.0409737521013145,6.87887165699643e-05
3,0.0697523389456102,0.000339372247869483
3,-0.0213206946665518,-9.69179126506989e-06
3,0.015317550137554,3.59391607804197e-06
3,0.0137511500222939,2.6002617078266e-06
3,0.011747317865214,1.62112372186213e-06
3,0.0218131799458386,1.03790342753682e-05
3,0.0703233797619785,0.000347775676957148
3,0.0411474534108392,6.96672850853983e-05
3,-0.0184167579113805,-6.24654018182024e-06
3,-0.00537433946931015,-1.55229866976678e-07
3,-0.0316597275549353,-3.17337590425411e-05
3,-0.0163192919490418,-4.34614224057051e-06
3,0.0347802790890817,4.20725841591104e-05
3,0.0357640666901097,4.57446899269159e-05
3,0.0402814027850051,6.53602581549041e-05
3,0.0439729816407886,8.5027173708886e-05
3,0.0721494709956673,0.000375577402045002
3,0.0801610673948253,0.000515098724408532
3,0.037382544603352,5.22404104491514e-05
3,-0.0170405537466239,-4.94824403994253e-06
3,-0.0482670076323509,-0.000112447841993511
3,-0.0410709321384603,-6.92793299894377e-05
3,-0.0110445967786476,-1.34725435214434e-06
3,0.00580176439430586,1.95290116846559e-07
3,0.0123704644693765,1.89303227599832e-06
3,0.00933019849205949,8.122180736491e-07
3,0.011165337697318,1.39192421017645e-06
3,0.0243058792899802,1.43593245058895e-05
3,0.014715899404031,3.18684125875565e-06
3,0.0294761863727506,2.56102537465167e-05
3,0.0109088953599642,1.29820216132281e-06
3,0.0286038088885112,2.340300380015e-05
3,-0.032029176399774,-3.28577116461237e-05
3,-0.0149250428465745,-3.32465633615367e-06
3,-0.00463333298526446,-9.94673479535763e-08
3,0.036090475607004,4.70086539708801e-05
3,0.0479640705387571,0.000110343841410877
3,0.0259905040179699,1.75567491811334e-05
3,0.0381461810473269,5.55076954751884e-05
3,0.0549250033061396,0.000165695332624572
3,0.0473598209694149,0.000106225835580074
3,0.106838378875693,0.00121950017998717
3,0.106493983059298,0.00120774489962979
3,0.0642632749557397,0.000265392449135536
3,0.0810196829554089,0.000531828513761691
3,0.0679115719773159,0.000313206920958962
3,0.0214889472047623,9.92305541445008e-06
3,0.02322559172299,1.25285370672728e-05
3,0.0344652450895046,4.09396488794118e-05
3,0.0314594230090329,3.11352429688414e-05
3,0.0334960469454,3.7582067623841e-05
3,0.0710298095987354,0.000358361999862559
3,0.033125084345231,3.63472014761998e-05
3,0.0689405468407551,0.000327660561994733
3,0.0316456192594082,3.16913540878383e-05
3,0.00917287104348814,7.71819708451898e-07
3,0.012288441446557,1.85562584765043e-06
3,0.0174413956990548,5.30571240659689e-06
3,0.00845981745496239,6.05456541724482e-07
3,0.0132860340288521,2.34523345779605e-06
3,0.0105118035936634,1.16153342898062e-06
3,0.0240674809359884,1.39409352293982e-05
3,0.0185391590088257,6.37191667761174e-06
3,0.00982407173372961,9.48144597652425e-07
3,-0.00738609833090652,-4.02944521406896e-07
3,-0.0107591165497283,-1.24546014993682e-06
3,-0.00724921954855791,-3.80955070810772e-07
3,-0.00797960465617086,-5.0809406878215e-07
3,-0.0108773622511705,-1.28697697327646e-06
3,-0.00736531034574493,-3.99551856715308e-07
3,-0.000847383569388401,-6.08471325296355e-10
3,-0.00124581778145353,-1.93358636848231e-09
3,-0.00228748903310108,-1.19695290146639e-08
3,-0.00155502133346803,-3.76018363170021e-09
3,-0.00236635046243671,-1.32506503877482e-08
3,-0.017562352511725,-5.41686572393887e-06
3,-0.00607747747890387,-2.2447608247558e-07
3,-0.00528476558647411,-1.4759688262541e-07
3,-0.00829446629169526,-5.70644110821202e-07
3,-0.0129185014740427,-2.15593874440523e-06
3,-0.0100322010901322,-1.00969146773548e-06
3,-0.00695241637088724,-3.36052647018437e-07
3,-0.00942986975070003,-8.38527060262007e-07
3,-0.00460318356262683,-9.75382324517968e-08
3,-0.00786798623512559,-4.87069319675311e-07
3,-0.00744660326839968,-4.12928301543376e-07
3,-0.00280713407089001,-2.2120221228148e-08
3,-0.00739471725835497,-4.04356770598502e-07
3,-0.0010251680011497,-1.07742023041843e-09
3,-0.00284757752954257,-2.30901456114173e-08
3,-0.00197869051182312,-7.74700103107877e-09
3,-0.00525311616485513,-1.44960945851832e-07
3,-0.0128469925629256,-2.12033468706018e-06
3,-0.00388068258110259,-5.84419049704441e-08
3,0.0164758278602701,4.47241131322282e-06
3,0.0115993161991007,1.56061997952456e-06
3,-0.0105807352315156,-1.18453402666501e-06
3,-0.03233181954866,-3.37979561926494e-05
3,-0.0247336407478564,-1.51308785486142e-05
3,-0.0160189071905591,-4.1105378882374e-06
3,-0.0181099701778761,-5.9395453885745e-06
3,-0.0123784191250972,-1.89668648928468e-06
3,-0.00224493156996902,-1.13138214893367e-08
3,-0.00538287191011355,-1.55970382289544e-07
3,-0.0125863410118674,-1.99387754685266e-06
3,-0.00293150286797991,-2.51924827705574e-08
3,-0.00288732475571887,-2.40705993081722e-08
3,-0.00408469917731481,-6.81522555464814e-08
3,-0.0143150629655016,-2.93345741457062e-06
3,-0.00974266135861302,-9.24768061092201e-07
3,0.0239998635626275,1.38237642375606e-05
3,0.0182051853854023,6.03372228941831e-06
3,0.0242375104795602,1.42384931153467e-05
3,-0.0115110349996802,-1.5252573385739e-06
3,-0.024666889358051,-1.50087027859729e-05
3,-0.00993049265765857,-9.79292399607969e-07
3,-0.0159889568766653,-4.0875247335597e-06
3,-0.00915746290083604,-7.67936842386081e-07
3,-0.00132814882180663,-2.34282701951171e-09
3,-0.00907688918314131,-7.47844148623146e-07
3,-0.00462762189541875,-9.90999879695052e-08
3,-0.0081393125831827,-5.39216511649105e-07
3,-0.0043184467825389,-8.05346389654135e-08
3,-0.0124473357914306,-1.92854251312532e-06
3,-0.00789263320846038,-4.91661001410181e-07
3,0.028354291399317,2.27958817239317e-05
3,0.0740631721697137,0.000406262678596671
3,0.0236618967063959,1.32479494550418e-05
3,-0.0378859780074164,-5.43795373614125e-05
3,-0.0330997838190173,-3.62639804545013e-05
3,-0.0253858612525413,-1.63597139669407e-05
3,-0.0179459459589583,-5.77961709349533e-06
3,-0.0324374142751762,-3.41301881441807e-05
3,-0.0250004384669626,-1.5625822139974e-05
3,-0.00557275532651108,-1.7306527106872e-07
3,-0.0246558569433166,-1.49885735935871e-05
3,-0.0078267890094567,-4.79458342265244e-07
3,-0.0235772836505324,-1.31063362293826e-05
3,-0.0119946333855713,-1.72568265923204e-06
3,-0.042204639131787,-7.51762353790819e-05
3,-0.0600022143265748,-0.000216023915609602
3,-0.016303708307907,-4.33370345348512e-06
3,0.0161704986926009,4.22834330288164e-06
3,0.0220192685395993,1.0676002430909e-05
3,0.0507048573889761,0.000130361304198164
3,0.0558292545344476,0.00017401451955652
3,-0.0238790612306599,-1.36160691230942e-05
3,-0.0149874023348012,-3.36650371554414e-06
3,-0.003605145713347,-4.68563514375325e-08
3,-0.0113149386182271,-1.44862710502045e-06
3,-0.00504953342896992,-1.28751932114796e-07
3,-0.0115277755789955,-1.53192159855106e-06
3,-0.00656290396219709,-2.82675485828674e-07
3,-0.020334708584933,-8.40840958947743e-06
3,-0.0391529021855111,-6.00194315993643e-05
3,0.0177997349639868,5.63950008171972e-06
3,0.0152595748125753,3.55326254715084e-06
3,0.0487762584749789,0.000116044737454404
3,0.0460849224122427,9.78760833159831e-05
3,-0.0120264586001369,-1.73945533585245e-06
3,-0.00674708727010021,-3.07148913008018e-07
3,-0.0198849498796505,-7.86273252452778e-06
3,-0.0127932985602398,-2.09385983254503e-06
3,-0.00301283238081964,-2.73479584252159e-08
3,-0.0111448461268275,-1.3842745361832e-06
3,-0.0116809168823425,-1.59378891132699e-06
3,-0.0048492780642704,-1.14033187383357e-07
3,-0.00931029752322577,-8.07031857930999e-07
3,-0.00443484372233009,-8.72237916179847e-08
3,-0.02979330003797,-2.64457465099765e-05
3,0.0206972360769706,8.86619053424093e-06
3,0.0566578658010684,0.000181878194457742
3,0.0374089249897907,5.23510846942105e-05
3,0.0244114424049723,1.45472306361469e-05
3,-0.0143938815354682,-2.98217944257331e-06
3,-0.0203972064047761,-8.48617672982852e-06
3,-0.0159154446664028,-4.0314040802733e-06
3,-0.0197794025590035,-7.73819212967839e-06
3,-0.00236669969949245,-1.32565180322928e-08
3,-0.0254575013119384,-1.64986087770995e-05
3,-0.0103801775994309,-1.11844427901457e-06
3,0.0101033396451998,1.03132336960062e-06
3,0.036694844205705,4.94100330632309e-05
3,0.0204129595223772,8.50585398516636e-06
3,0.0264453720742803,1.84947746991851e-05
3,0.0136953144538741,2.56871561176349e-06
3,0.0241611770794698,1.41043886000584e-05
3,-0.0260215245900492,-1.76196880166145e-05
3,-0.0138184982420607,-2.63865458844126e-06
3,-0.00837172749146687,-5.86739396029926e-07
3,0.0242636287786992,1.42845728614004e-05
3,0.0172691217231988,5.15004177715514e-06
3,0.041484885725462,7.13953117595194e-05
3,0.032866640234278,3.550307197149e-05
3,0.0478001823696786,0.000109216602061379
3,0.0403626973535937,6.57567809342948e-05
3,0.034238194517436,4.01358592368915e-05
3,0.0551735273520518,0.000167954734382496
3,-0.00597980997798258,-2.13826806857722e-07
3,-0.00367547801821072,-4.96525421984286e-08
3,-0.00651163822398088,-2.76102787706973e-07
3,-0.00441571976832275,-8.61002698954473e-08
3,-0.0113542877802799,-1.46379308881543e-06
3,-0.00797879341305911,-5.07939119034249e-07
3,-0.0147971735302177,-3.23993502486262e-06
3,0.016429457063438,4.43475503266177e-06
3,0.0163442454553699,4.36610954131894e-06
3,0.0283555024013161,2.27988026614015e-05
3,0.018823932101523,6.67008000243909e-06
3,0.0368409611168445,5.0002630847917e-05
3,0.0289246410103239,2.41993629121124e-05
3,0.0259679828748052,1.75111491947962e-05
3,0.0267152314638633,1.90667566613533e-05
3,0.0120720350260938,1.75930631068494e-06
3,-0.00123206511976287,-1.87025570469037e-09
3,-0.00764357274019064,-4.46569654854807e-07
3,-0.00287175983633772,-2.36834164586169e-08
3,-0.010054825756948,-1.0165380677919e-06
3,-0.00419087935294002,-7.36063827450288e-08
3,-0.014118548152632,-2.81429823369224e-06
3,0.00189021932763127,6.75361965345862e-09
3,0.00514251148549207,1.35995898604726e-07
3,0.00273012116053707,2.03491261123302e-08
3,0.0069576797378912,3.36816456770507e-07
3,0.00611548142188566,2.28713580877549e-07
3,0.00742005173021348,4.08527032297543e-07
3,0.00222252350722288,1.09784009865324e-08
3,-0.00250824600872872,-1.57801231993141e-08
3,-0.0022546260320238,-1.14610274115223e-08
3,-0.00145640390869468,-3.08919631041884e-09
3,0.00616126395177462,2.33888809750565e-07
3,0.0123306567527462,1.87481588914769e-06
3,0.0186583060752451,6.49556060518389e-06
3,0.00821208246283312,5.53808867419905e-07
3,0.0218370422221943,1.04131336249086e-05
3,0.0226219353828924,1.15768197817702e-05
3,0.0131456894126372,2.27169541531709e-06
3,0.013788248544453,2.62136387399771e-06
3,0.00485405577587622,1.14370570368436e-07
3,-0.00198405888275355,-7.81022725741274e-09
3,-0.00523253272582422,-1.43263599851483e-07
3,-0.00328737713001951,-3.55261862612298e-08
3,0.0162303629705235,4.27547820676946e-06
3,0.028831793396153,2.39670715105043e-05
3,0.03633318144206,4.79634354994787e-05
3,0.0237100578974534,1.33290084548478e-05
3,0.0332011658270644,3.65982231990436e-05
3,0.0292994089598489,2.51522348245278e-05
3,0.0027789880926176,2.1461499263719e-08
3,0.00225009938623767,1.13921344951596e-08
3,0.00671525465185902,3.02822024874186e-07
3,0.00951246445595001,8.60754181220845e-07
3,0.0115336548976204,1.53426669524878e-06
3,0.00974524727099894,9.25504616702316e-07
3,0.00984311975017192,9.53670406390574e-07
3,0.00891445111213903,7.08408596680434e-07
3,0.00518037045362305,1.39021654612081e-07
3,0.00296379029820689,2.60340908580425e-08
3,-0.00167427335361639,-4.6933084361115e-09
3,-0.0010296683159063,-1.09167168894279e-09
3,0.00510259596516956,1.32853666286913e-07
3,0.00625003164779068,2.4414433374425e-07
3,0.00661405493034016,2.89336612386402e-07
3,0.0167310388344478,4.68348055832364e-06
3,0.0347437822483762,4.19402759340242e-05
3,0.0222478027093309,1.10118775586286e-05
3,0.0188981477688532,6.74928428805388e-06
3,0.0229220259982459,1.20436743013402e-05
3,0.0181379102836285,5.96707845793843e-06
3,0.00436324047764873,8.30667939348569e-08
3,0.00781636566467479,4.77545332838277e-07
3,0.00357518956906234,4.56980031937171e-08
3,-0.00367434100179862,-4.96064761148852e-08
3,0.00346871415210667,4.17354919121217e-08
3,0.00434294701084547,8.19131432550829e-08
3,0.00935690544652607,8.1921278709569e-07
3,0.00887692911222508,6.99500864156734e-07
3,0.0176754428828353,5.52218450954256e-06
3,0.0126659468299582,2.03194983458383e-06
3,0.00900189621086641,7.29460876328978e-07
3,0.00397267758474052,6.26974618434762e-08
3,0.0161075809938883,4.17917898458497e-06
3,0.00755993147475587,4.32069466713319e-07
3,0.00281848980538843,2.2389758276287e-08
3,0.0049106891580643,1.18420620870766e-07
3,0.002198720665697,1.06294348660219e-08
3,0.00804592337192596,5.20867999206295e-07
3,-0.0103397965155286,-1.10544203829134e-06
3,0.0052785085073993,1.47073245951598e-07
3,0.011529850175893,1.53274882452157e-06
3,0.0327918127663241,3.52611341348479e-05
3,0.0255865414165483,1.67507692568599e-05
3,0.0621932879801017,0.000240563953213063
3,0.0392445690540368,6.0441981462825e-05
3,0.0427322675737564,7.80311158445077e-05
3,0.0298725206656551,2.66572663138663e-05
3,0.0254684631954535,1.65199306317735e-05
3,0.0176808033350854,5.52721019145672e-06
3,0.0391755273002235,6.01235412293621e-05
3,0.0281973394101459,2.24194211764157e-05
3,0.0884200190269092,0.000691276529950727
3,0.0755623699777893,0.0004314363297285
3,0.0604747791608983,0.000221168296705458
3,0.013556747863496,2.4915325000732e-06
3,0.00851755174188968,6.17937201084548e-07
3,0.0223177172106937,1.11160197805593e-05
3,0.0162239687156931,4.270426983677e-06
3,0.0240253499803898,1.38678510511524e-05
3,0.0174238830907564,5.28974632228083e-06
3,0.0177506023575192,5.59292873511884e-06
3,-0.00191767059755234,-7.05215791423804e-09
3,-0.00472392439916796,-1.05416554140579e-07
3,-0.0115849123497299,-1.55481333567868e-06
3,-0.0192637916185886,-7.14867108216791e-06
3,-0.00257817656948085,-1.71371252799314e-08
3,-0.00268794323305051,-1.94204942157723e-08
3,-0.00111751463867272,-1.39559582769137e-09
3,-0.000768137249549573,-4.53227734639026e-10
3,-0.00487854457762311,-1.16110322976203e-07
3,-0.00537076982543393,-1.54920760684911e-07
3,-0.00345473832571633,-4.12330512473112e-08
3,-0.00792798828909575,-4.98297834552403e-07
3,-0.00477913641436227,-1.09156168043588e-07
3,-0.00999485433595134,-9.9845709498491e-07
3,-0.00260874996697887,-1.77540471832385e-08
3,-0.0161087558727539,-4.18009353293523e-06
3,-0.0127644476338819,-2.07972579254477e-06
3,-0.000772525358230002,-4.61039602661989e-10
3,-0.00205168277285445,-8.63635797863323e-09
3,-0.00510768515253367,-1.33251576548112e-07
3,-0.00775109729993083,-4.65682122727168e-07
3,-0.000671585359282701,-3.02903059192349e-10
3,-0.00160997961371558,-4.17312247214381e-09
3,-0.00501743440680486,-1.26312145187811e-07
3,0.00377665388357111,5.38668469808425e-08
3,0.00156132609658691,3.80610579822418e-09
3,-0.00168959316583057,-4.82332396187488e-09
3,-0.00119427276295454,-1.70337623258213e-09
3,-0.00249091561079913,-1.54552858987379e-08
3,-0.00313245496636638,-3.07365067869941e-08
3,-0.00544711543530174,-1.61621724670813e-07
3,-0.00390497008706262,-5.95460742060924e-08
3,-0.00025317347780252,-1.62276122689671e-11
3,-0.00299361824094282,-2.68280587871852e-08
3,-0.000274245690320484,-2.06262099733217e-11
3,-0.000429478706229438,-7.92181887576907e-11
3,-0.000397157341796617,-6.26451979384855e-11
3,-0.00166368336360867,-4.60481324474701e-09
3,0.00991619527222776,9.75068690060158e-07
3,-0.00767702431375864,-4.5245849663765e-07
3,-0.00584676301165872,-1.99869475356095e-07
3,-0.0319930689100044,-3.27467123030413e-05
3,-0.0173316281713188,-5.20616693553036e-06
3,-0.0240007692717636,-1.3825329344216e-05
3,-0.00459862491129643,-9.72487354604888e-08
3,-0.0250211177599975,-1.5664629256397e-05
3,-0.0250717706108195,-1.57599565915217e-05
3,-0.00654647885647838,-2.8055842100611e-07
3,-0.0135119415743575,-2.46690983283135e-06
3,-0.0211463069732878,-9.45591581848463e-06
3,-0.00143311307038512,-2.94334635833997e-09
3,-0.00347042996502092,-4.17974564220364e-08
3,-0.00559887360605867,-1.75510050171794e-07
3,-0.00674614335295321,-3.0702002069239e-07
3,0.0109166989260431,1.30099012139618e-06
3,0.00376889731316326,5.3535629617469e-08
3,0.0168499871993152,4.78408322180103e-06
3,-0.00250331005816384,-1.56871458004765e-08
3,-0.0268748260382559,-1.94105117345513e-05
3,-0.0211290158742502,-9.43273879015056e-06
3,-0.00537123720601091,-1.54961209219176e-07
3,-0.0193300333684115,-7.22267064127536e-06
3,-0.0139882609588546,-2.73710323000245e-06
3,-0.0014295954517871,-2.92172592011034e-09
3,-0.00421337789914717,-7.47982158162249e-08
3,-0.00771911361062512,-4.59941184030234e-07
3,-0.0177435092392006,-5.58622663217468e-06
3,-0.00137545849999429,-2.60221079691823e-09
3,-0.00240456900284945,-1.39031027702866e-08
3,-0.00512092805699512,-1.34290726602089e-07
3,-0.00568455934561747,-1.83692072612182e-07
3,0.0093032804750645,8.05208485146603e-07
3,0.00702214754978076,3.46266001474641e-07
3,0.00266400900436336,1.89063226537388e-08
3,0.0128328214002549,2.11332577619165e-06
3,0.00573438446768917,1.88564711904803e-07
3,-0.00464290445392731,-1.0008505664539e-07
3,-0.00161574231220734,-4.21809439690784e-09
3,-0.00828123018221518,-5.67916607566576e-07
3,-0.00502150115165202,-1.26619530806709e-07
3,-0.000410408784840157,-6.91273558024072e-11
3,-0.00344757130399815,-4.09769633733283e-08
3,-0.00807675191999429,-5.26878201346853e-07
3,-0.00105359788920032,-1.16956584124512e-09
3,-0.00123357226117105,-1.87712755563687e-09
3,-0.00216068608037014,-1.00873019802243e-08
3,-0.00223460607161338,-1.11584256326428e-08
3,0.00555637022137358,1.71543207142425e-07
3,-0.0485120198963593,-0.000114168967426906
3,-0.0554177791965175,-0.000170195218137763
3,-0.013514562791271,-2.46834579824885e-06
3,-0.0289214129573797,-2.41912617114458e-05
3,-0.00265083055224575,-1.86271281440557e-08
3,-0.00140228193067554,-2.75743963452664e-09
3,-0.00984953780104025,-9.55537100216887e-07
3,0.0161145355422602,4.18459448171896e-06
3,0.0702202806150098,0.000346248325674804
3,0.0615627235240136,0.000233320809260237
3,0.00954387903516457,8.69310206291392e-07
3,0.113992202443584,0.00148124000966422
3,-0.0472146826270378,-0.000105252210160688
3,-0.0369708723054644,-5.05334667087372e-05
3,-0.0102585121516556,-1.07957577746104e-06
3,-0.0590252276313173,-0.000205642564818611
3,-0.0481640215826465,-0.000111729595635397
3,-0.00743640300285736,-4.11233752515186e-07
3,-0.0257789138309308,-1.713143901198e-05
3,-0.0611211929557607,-0.000228336566600259
3,-0.00626062035886719,-2.45387314353062e-07
3,-0.0120376224907165,-1.74430392550741e-06
3,-0.0257390300978059,-1.70520474775279e-05
3,-0.0162174351045382,-4.26526978537249e-06
3,0.0228152865629177,1.18762076878175e-05
3,0.0097141369036173,9.1666924230382e-07
3,0.00698742238374268,3.41154410545485e-07
3,0.0380404829911283,5.50475592153873e-05
3,0.0695761511985266,0.0003368070725142
3,-0.0176305306272047,-5.48019674560062e-06
3,-0.00388234545310552,-5.85170642139868e-08
3,-0.0364230048095875,-4.83200431606698e-05
3,-0.0248094695847991,-1.52704711928275e-05
3,-0.0032924669387441,-3.56914562567085e-08
3,-0.0149701739218656,-3.35490740249829e-06
3,-0.0122936621625982,-1.85799192768979e-06
3,-0.0229236402664871,-1.20462189834902e-05
3,-0.00390454702678373,-5.95267228289487e-08
3,-0.00448014312978291,-8.99240102913211e-08
3,0.0203156752461313,8.38482080432884e-06
3,0.0526783084792571,0.000146182526448401
3,0.0484006765569143,0.000113384658691958
3,0.054480743242217,0.000161707093467959
3,0.035786651522686,4.58314073069576e-05
3,-0.00845613000297739,-6.04665170418466e-07
3,-0.0381450193278363,-5.55026242670521e-05
3,-0.0315115379073955,-3.12902330475279e-05
3,-0.0212536433351879,-9.60063955189629e-06
3,-0.00244102710677095,-1.45451366719197e-08
3,-0.015955979394646,-4.06228510484182e-06
3,-0.0106114873731419,-1.19489236157434e-06
3,0.0053025802424017,1.49094542901018e-07
3,0.0100933340475328,1.0282623646484e-06
3,0.0123040048938306,1.86268529307265e-06
3,0.00332129367139146,3.6637162761714e-08
3,0.0151170727583538,3.45464248787533e-06
3,0.00788042894220021,4.89383781075306e-07
3,0.0141942292567512,2.85979858044472e-06
3,-0.0191007364730428,-6.96867704927174e-06
3,-0.00582815767212672,-1.97967490264258e-07
3,-0.00335920715546834,-3.79062096429403e-08
3,0.0327428736758002,3.51034965799161e-05
3,0.0121506284138566,1.79389169346815e-06
3,0.0549178297133856,0.000165630418166904
3,0.0442797098770246,8.68189042148131e-05
3,0.0170227623475133,4.93276139143542e-06
3,0.13021916462434,0.00220813038990289
3,0.0869803191232767,0.000658056207419555
3,0.0739318292847367,0.000404105122861554
3,0.0640291893752668,0.000262502842655917
3,0.0404993566995979,6.64269595298272e-05
3,-0.0147931906172553,-3.23731947682064e-06
3,-0.00512389011938694,-1.34523891939163e-07
3,-0.0111579024158614,-1.38914530867279e-06
3,-0.0289169441065872,-2.41800495584609e-05
3,-0.00453559846908754,-9.33047599977823e-08
3,-0.010282301035579,-1.08710362457772e-06
3,-0.0115880432249977,-1.55607426252117e-06
3,0.0379380450018406,5.46040482902487e-05
3,0.0259451878046316,1.74650750445038e-05
3,0.00871063612634729,6.60921099032407e-07
3,0.0550290055874061,0.00016663836454859
3,0.032043200605871,3.2900891505926e-05
3,0.0103221162618947,1.09978106757827e-06
3,0.0709751090446661,0.000357534706033271
3,0.0503585434419025,0.000127708404916207
3,0.0528944083325222,0.000147988950627298
3,0.0298644799645351,2.66357463265282e-05
3,-0.00181845816578323,-6.01325946115576e-09
3,-0.0138666761054325,-2.66634974108356e-06
3,-0.0179939620392682,-5.82613307062489e-06
3,-0.00312294896196302,-3.04575285497291e-08
3,-0.00571797070863528,-1.86950133157163e-07
3,-0.0117059065452436,-1.60403986568466e-06
3,0.00507745207445416,1.30899352562971e-07
3,0.00157024542526343,3.87170812991035e-09
3,0.000564742364937928,1.80115506831853e-10
3,0.00327480406475102,3.51201176681656e-08
3,0.000843629636653442,6.00420461826624e-10
3,0.00668308682694939,2.98491047861164e-07
3,0.0103441047824004,1.10682442255215e-06
3,0.00328031851200566,3.52978330369843e-08
3,-0.0025642337187672,-1.68605920330218e-08
3,-0.00111977331001051,-1.40407509288476e-09
3,0.00417027797708529,7.25262151139001e-08
3,0.014368599137371,2.96649271622637e-06
3,0.0096516724736433,8.99099440763239e-07
3,0.00708677161396914,3.5591419615691e-07
3,0.031756145815621,3.20245740717028e-05
3,0.0109583771596442,1.31594800804859e-06
3,0.0303866292344681,2.80574101220839e-05
3,0.0225255634005045,1.14294935416241e-05
3,0.02501411095649,1.56514729801605e-05
3,0.004962405382073,1.22201550850378e-07
3,-0.00967604446509017,-9.05927756962391e-07
3,-0.0014944767104346,-3.33785490721036e-09
3,-0.00310673437203532,-2.99855740226244e-08
3,0.0103819494842577,1.11901712838959e-06
3,0.0296568088442525,2.60839436736138e-05
3,0.0176823342552957,5.52864606238192e-06
3,0.0379881322215542,5.4820604838336e-05
3,0.0249538152341069,1.55385634428819e-05
3,0.0356757861970735,4.54067750303416e-05
3,0.0123574625930304,1.88706957877745e-06
3,0.0157549845404097,3.9106949817466e-06
3,0.00667772572303206,2.97773284552122e-07
3,0.0464131657332527,9.99824040219183e-05
3,0.0406454260237354,6.71483027523698e-05
3,0.016602440150638,4.57631352026982e-06
3,0.0679587361613763,0.000313859935312045
3,0.0900689600333997,0.000730677013120828
3,0.0465306656500928,0.000100743676617879
3,0.0583775008549834,0.000198946588624787
3,0.0324593261986401,3.41994011245681e-05
3,0.0144540905312511,3.01975918987463e-06
3,-0.00375684353897671,-5.30236140038799e-08
3,-0.0080720692488034,-5.25962325535199e-07
3,0.00529362616440795,1.4834052256562e-07
3,0.00136507342685001,2.54371257930642e-09
3,0.000611747174585297,2.28936962615853e-10
3,0.00314548136155868,3.11215592889182e-08
3,0.00315079142217949,3.12794395792224e-08
3,0.00216575871978734,1.01585147353862e-08
3,0.00622884830606512,2.41670290044293e-07
3,0.0092257290412384,7.85239405929798e-07
3,0.00792549394887969,4.97827652230196e-07
3,0.00915646212584076,7.67685097548443e-07
3,0.00563349076967291,1.7878569258691e-07
3,0.00223245167458692,1.11261830240345e-08
3,0.0070707315209998,3.53502949362418e-07
3,-0.000583301029353181,-1.98462395216805e-10
3,0.00220082948837917,1.06600487129727e-08
3,0.00327246619968118,3.50449551605143e-08
3,0.000958018281976931,8.79268248581411e-10
3,0.00761710502621719,4.41946634815356e-07
3,0.00550819627654938,1.67119921100137e-07
3,0.00253571111759416,1.63041936261031e-08
3,0.00329504329166353,3.57753074495458e-08
3,0.0177387921698166,5.58177256162373e-06
3,0.00909384546315929,7.52043062257775e-07
3,0.00409744154397476,6.8792057557976e-08
3,0.0207579001184628,8.94438024489903e-06
3,0.0103146531053486,1.09739728163254e-06
3,0.00216702910488571,1.0176401488445e-08
3,0.00464084472037713,9.99519134087479e-08
3,0.0151923906026583,3.50653641444743e-06
3,0.00124556229200111,1.93239700605836e-09
3,-0.00446586540098185,-8.90670131434844e-08
3,0.000885920509547349,6.95319273732579e-10
3,0.0122887390656815,1.85576067755176e-06
3,0.0117306165148898,1.61421921459036e-06
3,0.00444147123608658,8.76154229139483e-08
3,0.0231441714731852,1.23972373181526e-05
3,0.0379293590499079,5.45665519280892e-05
3,0.0267832719534658,1.92128102370251e-05
3,0.023393931280615,1.28029376212379e-05
3,0.0211162965762437,9.41571401156895e-06
3,0.00763652241677465,4.45335065717423e-07
3,0.0101985046055912,1.06074132592164e-06
3,0.00371110151595389,5.11103086330046e-08
3,0.0148068345880168,3.24628521879159e-06
3,0.0130217384422112,2.20803983030873e-06
3,0.00459341997026939,9.69188969235262e-08
3,0.02389821670091,1.36488633131919e-05
3,0.017812153369977,5.65131191044071e-06
3,0.00712253839055669,3.61330312206659e-07
3,-0.0105567915311827,-1.17651057836459e-06
3,-0.00686051666755989,-3.22901803999977e-07
3,-0.00975175726459012,-9.273606152241e-07
3,-0.013095500233549,-2.24577518088932e-06
3,-0.00616467280784612,-2.34277237107509e-07
3,-0.0124235946653222,-1.91752846990136e-06
3,-0.00205542819405602,-8.68374232804247e-09
3,-0.0150128257594452,-3.38366479224011e-06
3,-0.00315984741733911,-3.15499253324489e-08
3,-0.00674189896176782,-3.06440892748108e-07
3,-0.00607017517704751,-2.23667906701209e-07
3,-0.00535683313877548,-1.53717869266013e-07
3,-0.00971496074941847,-9.16902487366e-07
3,-0.00146205416412426,-3.12529045921485e-09
3,-0.00816049400876627,-5.43437183584656e-07
3,-0.0011987269173922,-1.72250611573253e-09
3,-0.0101003417253949,-1.03040558176097e-06
3,-0.00208707220521114,-9.09101601998047e-09
3,0.0235485465034658,1.30584706858209e-05
3,0.0168588324136451,4.79162123206133e-06
3,-0.0155351754359112,-3.749285273931e-06
3,-0.0108353367895864,-1.27211755105055e-06
3,-0.00643002910971351,-2.65851317630928e-07
3,-0.0307104953084876,-2.89641283159987e-05
3,-0.00379865397859933,-5.48137110047033e-08
3,-0.00917882236288878,-7.73322943274568e-07
3,0.0153034371576472,3.58399135500652e-06
3,0.0151791159451725,3.49735272296435e-06
3,0.031933854470122,3.25652206650007e-05
3,-0.0187311826807266,-6.57197039456294e-06
3,-0.0171042427062119,-5.00393375267519e-06
3,-0.0168344626333056,-4.77087210052677e-06
3,-0.0323214207560448,-3.37653556539984e-05
3,-0.00556811824993248,-1.72633608840159e-07
3,-0.0214827639420805,-9.91449205332876e-06
3,-0.0179464379196572,-5.78009242465108e-06
3,0.0217527938064705,1.02930748195415e-05
3,0.013395328625749,2.40358850125038e-06
3,0.0361498759181738,4.72411469179029e-05
3,-0.0188536723872375,-6.70174453314965e-06
3,-0.0181671725926568,-5.99600555247034e-06
3,-0.0400822613666165,-6.43956671483087e-05
3,-0.00485877354077572,-1.14704372500542e-07
3,-0.0211096359550675,-9.40680694906964e-06
3,0.0292115265632538,2.49265836668911e-05
3,0.0242932883017635,1.43370207115411e-05
3,0.0222729424331806,1.10492495862676e-05
3,0.0330099952599419,3.59696644058457e-05
3,0.0382693985740762,5.60473277921146e-05
3,-0.010808752405071,-1.26277712424179e-06
3,-0.0345344687200785,-4.11868271907629e-05
3,-0.00668010101718075,-2.98091155091637e-07
3,-0.0156654721349393,-3.84441678983055e-06
3,0.0137512504500458,2.60031867913685e-06
3,0.00365602128901968,4.88681780895415e-08
3,0.0132174634702602,2.30910858742293e-06
3,0.0324893385386343,3.42943525755945e-05
3,0.0368759334856717,5.01451654834575e-05
3,0.0194979193215418,7.41250171929936e-06
3,-0.00949857941342336,-8.56990433696394e-07
3,0.0277127378950689,2.12832674638939e-05
3,0.0204061795773739,8.49738141605099e-06
3,0.0631279956851732,0.000251574143087532
3,0.0623780873715115,0.000242714746327135
3,0.0813594298492049,0.000538547097281985
3,0.0622967628160758,0.000241766675609778
3,-0.00920527839476505,-7.80029059121862e-07
3,-0.0239580322071241,-1.37516063932787e-05
3,0.00458494858682129,9.63836592031259e-08
3,0.00299754361859218,2.69337319914541e-08
3,0.00780845146135462,4.76096232726566e-07
3,0.0107460797998565,1.24093828616952e-06
3,0.00986239377634409,9.59283591447986e-07
3,0.0120502409354508,1.74979508038791e-06
3,0.0183820223789433,6.21126232439108e-06
3,0.0196566559613416,7.59501978618655e-06
3,-0.0252794271141244,-1.61548036199241e-05
3,0.0334884159169447,3.75563877730127e-05
3,0.0252569742493337,1.61117963693534e-05
3,0.0414602358069311,7.12681201508721e-05
3,0.0428485790739093,7.86700224014456e-05
3,-0.0313520615942708,-3.0817564318443e-05
3,0.00704852545693209,3.5018280555226e-07
3,0.00521894509875672,1.42150432312422e-07
3,0.018867838265027,6.71686213587054e-06
3,0.0346353732717774,4.15489083240399e-05
3,0.0282589609211147,2.25667265563054e-05
3,0.0511592128353221,0.000133897220145082
3,0.0432272123109195,8.07740180996207e-05
3,0.0569476254065722,0.000184682973763955
3,-0.00568078966265788,-1.83326871863677e-07
3,-0.0111745064080664,-1.3953560723352e-06
3,-0.00430248893222965,-7.9645140998906e-08
3,-0.00582269097243709,-1.97410943537488e-07
3,-0.0175460556406008,-5.40180007639826e-06
3,-0.0125593317124341,-1.98106895851982e-06
3,-0.00267358688532973,-1.91109777412577e-08
3,-0.00785566837554242,-4.84785280270549e-07
3,-0.0044927534357249,-9.06854797611172e-08
3,-0.00111522812643081,-1.38704688653707e-09
3,-0.00428601463408114,-7.87337521340089e-08
3,-0.0179818473064301,-5.81437336996366e-06
3,-0.00540196400222367,-1.57635873410439e-07
3,-0.00200613531617792,-8.07384987770891e-09
3,-0.0027531267110062,-2.0867892941175e-08
3,-0.0106231479474356,-1.19883576183844e-06
3,-0.00303329138730234,-2.79088792027727e-08
3,-0.00566681127425501,-1.8197689384947e-07
3,-0.00476127827086853,-1.07937086985364e-07
3,-0.00369322462997672,-5.03752447947087e-08
3,-0.0122357539202964,-1.83185967354359e-06
3,-0.0138694767061263,-2.66796560543456e-06
3,-0.000943892031884108,-8.40943774186917e-10
3,-0.00646792660318917,-2.70579723664503e-07
3,-0.00500020595277581,-1.25015447094443e-07
3,-0.005002329134833,-1.25174766498146e-07
3,-0.00439295089315362,-8.47752434308696e-08
3,-0.00372088445896843,-5.15155752217652e-08
3,-0.018008706317007,-5.84046663398834e-06
3,-0.00340633618076797,-3.95241485047177e-08
3,-0.00197245077029604,-7.67394209513117e-09
3,0.0068844849348221,3.26297962352919e-07
3,-0.00549430773043123,-1.65858960984085e-07
3,-0.0116448476475444,-1.57907018220319e-06
3,-0.00856765337824145,-6.28905892361446e-07
3,-0.00804856332305631,-5.21380874070686e-07
3,-0.00685759396983347,-3.22489294671629e-07
3,-0.0127327434864705,-2.06426747428199e-06
3,-0.00505867641351757,-1.29452576854652e-07
3,-0.0171558851066271,-5.04939548396964e-06
3,-0.0171643485167923,-5.05687213536743e-06
3,-0.00598114243509729,-2.13969777224184e-07
3,-0.0075344646867517,-4.27717682656248e-07
3,-0.011811763873005,-1.64795090561991e-06
3,-0.00499743011188637,-1.24807357439379e-07
3,-0.00187660936009786,-6.60878516792502e-09
3,-0.0073720589078799,-4.0065114721553e-07
3,-0.017780612436185,-5.62134379742073e-06
3,-0.00466262058233387,-1.0136551457816e-07
3,-0.00498999148964208,-1.24250863274795e-07
3,0.0126718747028739,2.03480412856365e-06
3,0.0120592316948829,1.75371460216996e-06
3,-0.00988764987062266,-9.66672219588627e-07
3,-0.0142728848845026,-2.90760421150504e-06
3,-0.0222298336203913,-1.09852169079649e-05
3,-0.0117177265642105,-1.60890380320543e-06
3,-0.026284464945541,-1.81592297123563e-05
3,-0.018991801354185,-6.85012469744549e-06
3,-0.00637298456074854,-2.58838335919988e-07
3,-0.00763425923364349,-4.44939240463687e-07
3,-0.0085361530040802,-6.21994540400248e-07
3,-0.0196553081035687,-7.59345752078317e-06
3,-0.00951204461829615,-8.60640216726682e-07
3,-0.00126656016112325,-2.03178369271779e-09
3,-0.0101298466656318,-1.03946199362193e-06
3,-0.00779168578745535,-4.73036106903069e-07
3,-0.00834503413240678,-5.81144794496753e-07
3,0.024926454503374,1.54875074665286e-05
3,0.0265643065799094,1.8745431912383e-05
3,0.0255588006211529,1.6696345014766e-05
3,0.0226498454137304,1.16197217079202e-05
3,-0.00686205356455362,-3.23118862576545e-07
3,-0.0177879746920391,-5.62832942460688e-06
3,-0.00980933082083668,-9.43882956599839e-07
3,-0.031337161038709,-3.07736456158845e-05
3,-0.018972923517933,-6.82971793881588e-06
3,-0.00509148669107193,-1.31987814776691e-07
3,-0.0173839315536764,-5.25344282520166e-06
3,-0.0248986235223199,-1.54356888517515e-05
3,-0.0202768054923769,-8.33678507688024e-06
3,-0.00482143181148713,-1.12079990898733e-07
3,-0.0144620040301479,-3.02472178783826e-06
3,-0.00852381187915423,-6.19300696950664e-07
3,-0.010639677869603,-1.20444074255206e-06
3,0.00758506638118974,4.36393383897901e-07
3,0.0188047925669338,6.64975495011585e-06
3,0.0326951945580568,3.49503700321947e-05
3,0.0141055259273153,2.80651812066484e-06
3,-0.0129060993610436,-2.14973542396605e-06
3,-0.0138629455121221,-2.66419831187674e-06
3,-0.0145546766945154,-3.08324253355398e-06
3,-0.00837412283135576,-5.87243178235311e-07
3,-0.0300324062531845,-2.70875914325021e-05
3,-0.0244687113705925,-1.46498539248709e-05
3,-0.00504179670515372,-1.28161030372317e-07
3,-0.0106670736865752,-1.2137685643931e-06
3,-0.0253348351924686,-1.62612621212531e-05
3,-0.0162005470145764,-4.25195869005881e-06
3,-0.0065976071818501,-2.87183419876929e-07
3,-0.0189754580854103,-6.83245542313518e-06
3,-0.0352619955229098,-4.38450589041719e-05
3,-0.00831768974588365,-5.754507372024e-07
3,-0.0149996502127427,-3.37476389910706e-06
3,0.0095973630247396,8.84007129326457e-07
3,0.0141704617844597,2.84545688564624e-06
3,0.0176654630002049,5.51283600671795e-06
3,0.0365646720551806,4.88860612880141e-05
3,0.0190185906282669,6.87915335669136e-06
3,-0.0120981787185842,-1.77076115896718e-06
3,-0.0177444370723662,-5.58710301304824e-06
3,-0.00789764242083362,-4.9259772216843e-07
3,-0.0123834012269698,-1.89897756272003e-06
3,-0.0154308823452438,-3.67428026227636e-06
3,-0.0126435692531387,-2.02119900156868e-06
3,-0.00390220954340451,-5.94198785966951e-08
3,-0.0125595398253403,-1.98116744135143e-06
3,-0.0278340212919784,-2.15639276164445e-05
3,-0.0123249824579716,-1.87222883393801e-06
3,0.0129884073901367,2.1911277863969e-06
3,0.0119060806011033,1.68774354195296e-06
3,0.0150514529962746,3.40985004218972e-06
3,0.0204286111722373,8.52543459800554e-06
3,0.0233486409783786,1.27287225968777e-05
3,-0.0102549764289512,-1.07845989484228e-06
3,-0.00468247582543946,-1.02665997633643e-07
3,-0.027381336874189,-2.05288180397659e-05
3,-0.0186222542981571,-6.45798093715411e-06
3,-0.00811453189088213,-5.34306446724332e-07
3,-0.0149960084436942,-3.37230641639344e-06
3,-0.00751602770613126,-4.24585459492651e-07
3,-0.0140390028981774,-2.76699765495532e-06
3,-0.0149282666998157,-3.32681120824597e-06
3,-0.00387473932744072,-5.81738051807091e-08
3,-0.0104344570615745,-1.13608171166988e-06
3,-0.0260402088704991,-1.76576697611348e-05
3,0.0279465787772335,2.18265928530698e-05
3,0.0509223426863821,0.000132045962204244
3,0.0214479549580488,9.86637610737274e-06
3,0.0208156677525037,9.01926281103217e-06
3,-0.0136746884997379,-2.55712716895213e-06
3,-0.0384486539553793,-5.68386063467959e-05
3,-0.0317138374957876,-3.18967466954708e-05
3,-0.0174222768257767,-5.28828351098513e-06
3,-0.00762280821259134,-4.42940079834996e-07
3,-0.0107817101249442,-1.25332283923492e-06
3,-0.0364169083445996,-4.82957838650353e-05
3,0.00923529935049597,7.876856458809e-07
3,0.0111030823050131,1.3687706288014e-06
3,0.0268420401968599,1.93395590244823e-05
3,0.0201639012172191,8.19829768018148e-06
3,0.0123402129136793,1.879178170353e-06
3,0.009504542669285,8.58605515924215e-07
3,0.0229539592593298,1.20940795096979e-05
3,-0.0399213756411968,-6.36233444064809e-05
3,-0.00990637807228981,-9.72175553045074e-07
3,-0.00707718031335974,-3.54471058627809e-07
3,-0.0183272352773937,-6.15589020898352e-06
3,0.0391391746237124,5.99563227441315e-05
3,0.0305967986121803,2.86436239863181e-05
3,0.0376547517143474,5.33899316613847e-05
3,0.0602103710779586,0.000218279983030412
3,0.0644161595886231,0.000267291093349396
3,0.0442561322466784,8.66802925840066e-05
3,0.0555789489075196,0.00017168446039209
3,0.0645388621821082,0.00026882144647513
3,0.0846454289505155,0.000606471686685957
3,-0.0192420192544095,-7.12445970760837e-06
3,-0.0218834542048162,-1.04796703952373e-05
3,-0.019368920078699,-7.26634847139523e-06
3,-0.0306887424596113,-2.89026243128874e-05
3,-0.0300501985208283,-2.71357629229656e-05
3,-0.0104460565409859,-1.13987470570944e-06
3,-0.0414994460765876,-7.14705130544093e-05
3,-0.0266319673932378,-1.88890341277016e-05
3,0.0280155202467632,2.19885238578825e-05
3,0.034682095471841,4.17172803758858e-05
3,0.0376733277077425,5.34689862548408e-05
3,0.0435049147602429,8.23407780175379e-05
3,0.0390004336284401,5.93209786685721e-05
3,0.0360574013681612,4.68795325595867e-05
3,0.0342455257277433,4.01616468788769e-05
3,0.0377996635056837,5.40087096232234e-05
3,0.053233982905663,0.000150857491688141
3,0.038845771231408,5.86180334823783e-05
3,-0.00775452637390265,-4.66300447437731e-07
3,-0.0240342799831672,-1.38833204596377e-05
3,-0.0190673084996543,-6.9321536448075e-06
3,-0.0206592013471801,-8.81740085516651e-06
3,-0.00977882318735255,-9.351037118905e-07
3,-0.0230425112339678,-1.22345901022794e-05
3,-0.016452543116813,-4.45347596548695e-06
3,0.00596384658295797,2.12118910956578e-07
3,0.00236030199686299,1.31493026509227e-08
3,0.0145987284151229,3.11132291772216e-06
3,0.0104659774007707,1.14640844834611e-06
3,0.0152418989460289,3.54092912281459e-06
3,0.0164709690927074,4.46845570028385e-06
3,0.044178297742763,8.62237552492978e-05
3,0.0139883979157656,2.73718362645948e-06
3,-0.0145929678762378,-3.10764126309231e-06
3,-0.00405718998848361,-6.67845548356032e-08
3,-0.014816487828202,-3.25263855622275e-06
3,0.0161737355135815,4.23088295184495e-06
3,0.0131277653098024,2.26241573270865e-06
3,0.0174879565673253,5.3483177093075e-06
3,0.0357341275381036,4.56299033960373e-05
3,0.00742965514861104,4.10115297191413e-07
3,0.0238991005229229,1.36503776871052e-05
3,0.030439068440609,2.82029197323379e-05
3,0.0391019585017901,5.97854539813039e-05
3,0.0433554618054979,8.1495091098073e-05
3,0.0282408821783516,2.25234428952876e-05
3,-0.0136834152151072,-2.56202590537289e-06
3,-0.0131938593463304,-2.29675965050434e-06
3,-0.00470409279035217,-1.04094465473349e-07
3,-0.0167080613299553,-4.66421092920809e-06
3,-0.0196786400369648,-7.62053119034955e-06
3,0.0125035445754372,1.95478699093128e-06
3,0.0165370888949682,4.52248549749766e-06
3,0.0195539434041662,7.47658132388691e-06
3,0.0157191341838645,3.88405940605793e-06
3,0.015256118493628,3.55084863444747e-06
3,0.0292445588410521,2.50112399681267e-05
3,0.0210045272189878,9.26699080204342e-06
3,-0.0199317416780782,-7.91836924757544e-06
3,0.0175232760361748,5.38078831397357e-06
3,0.0125088538170454,1.95727816706192e-06
3,0.0259251582289213,1.74246573697164e-05
3,0.045024823484879,9.12758858736654e-05
3,0.051181206375703,0.000134069983169499
3,0.037333732344767,5.20360387880098e-05
3,0.0297805264940624,2.64117461380153e-05
3,0.0284965277033586,2.31406649119775e-05
3,0.0619544057826712,0.000237802594053855
3,0.034395536956771,4.069174189502e-05
3,0.0204403072980314,8.54008635124297e-06
3,-0.0202772780138934,-8.33736792048378e-06
3,-0.00766898500115926,-4.5103855290847e-07
3,-0.0265405956893919,-1.86952810523232e-05
3,0.0100217772509069,1.00654741305962e-06
3,0.0109850389821964,1.32557653364632e-06
3,0.0109686552983614,1.3196542646899e-06
3,0.0217894386423441,1.03451817548496e-05
3,0.0416806722514208,7.24109332391884e-05
3,0.0238733301987616,1.36062678081882e-05
3,0.0244012066645474,1.45289393059986e-05
3,0.0303015654786746,2.78224389737237e-05
3,0.0606653138511432,0.000223265359742241
3,0.0372671540635737,5.17581430198274e-05
3,0.0197090079666843,7.65586550168115e-06
3,0.0381637370109814,5.55843694395287e-05
3,-0.00344366573920814,-4.08378594002248e-08
