"V1","V2","V3"
3,-0.00212480520121359,-9.59306445209232e-09
3,-0.000492754179215021,-1.19644006870043e-10
3,-0.000330151991860889,-3.59866786149741e-11
3,0.00786033036424972,4.85648887887175e-07
3,0.0035215019875917,4.36700625075657e-08
3,0.00320752734111746,3.29997842899313e-08
3,-0.00859386098381065,-6.34694847194552e-07
3,-0.0270673028285461,-1.98305584942192e-05
3,-0.016902252873413,-4.82873958686259e-06
3,-0.031537461209005,-3.13675203223125e-05
3,-0.0128047579616841,-2.09949150274155e-06
3,-0.00500921964944099,-1.25692749520799e-07
3,-0.0143743029034305,-2.97002685991856e-06
3,-0.00741079366712997,-4.06999771265761e-07
3,-0.0225733633696637,-1.15024093099524e-05
3,-0.0137908816009022,-2.62286591768065e-06
3,-0.0161642733946204,-4.22346171602159e-06
3,-0.01251781269531,-1.96148660503267e-06
3,-0.00936756043261162,-8.22014560919714e-07
3,-0.0438733343416302,-8.44504416568897e-05
3,-0.0129160902872425,-2.154731777593e-06
3,0.012499535389957,1.95290722213708e-06
3,-0.0159766962268489,-4.0781287567249e-06
3,-0.0119462023548838,-1.70486345232769e-06
3,-0.00731972352614053,-3.92178727279769e-07
3,-0.0108434201544391,-1.27496674633967e-06
3,-0.0522592232433143,-0.00014272131905233
3,-0.0114036381351408,-1.48296288884898e-06
3,0.0393686505115045,6.10171030591361e-05
3,-0.00627571498192408,-2.47166515079063e-07
3,-0.0459706868252573,-9.71500385197313e-05
3,-0.0271267935680108,-1.99616017769703e-05
3,-0.0114420162901527,-1.4979857609864e-06
3,-0.00284670277254459,-2.30688727272448e-08
3,0.0245838638022216,1.48576602672695e-05
3,0.0355643576087967,4.49826364085639e-05
3,0.0216614502920624,1.01639516706067e-05
3,0.0135206180618101,2.47166515079062e-06
3,-0.0121592164583359,-1.79769814182109e-06
3,-0.00745024235531479,-4.13533980290343e-07
3,-0.0110367704220753,-1.3443923310393e-06
3,-0.00825923956733962,-5.63404342842651e-07
3,-0.0142507448760047,-2.89409441787092e-06
3,-0.00954175584170984,-8.68730158130382e-07
3,0.0217275483924648,1.02572792137868e-05
3,0.0161968447553235,4.24904429657054e-06
3,0.0256641866665147,1.69037287962282e-05
3,-0.00193609820878467,-7.25741819987789e-09
3,0.0458703734251654,9.65154471455768e-05
3,0.025466829646893,1.6516752068013e-05
3,0.00992419365442273,9.77430058758812e-07
3,0.0157250601774171,3.88845384452114e-06
3,-0.0278937067039045,-2.17029460208963e-05
3,-0.0577462802051767,-0.000192562644527518
3,-0.0244424070624757,-1.46026581222846e-05
3,-0.00368884914844655,-5.01964133307292e-08
3,-0.00357496424617517,-4.56893635200277e-08
3,0.0186241696954858,6.45997385458939e-06
3,0.0197218269996144,7.67081368753848e-06
3,0.0147016756991729,3.17760942933887e-06
3,0.0232950648817032,1.26413010232053e-05
3,-0.00128286150815985,-2.11124835113714e-09
3,0.00728577276293013,3.86746921602459e-07
3,0.0147586012634314,3.21466408645389e-06
3,0.0990408424209261,0.000971500385197314
3,0.0174325925281437,5.29768262672942e-06
3,0.0470780484763649,0.000104341086638925
3,-0.0393032220878497,-6.07133876714425e-05
3,0.0209070298188279,9.13854418436477e-06
3,0.0691224841625932,0.00033026154862248
3,0.0708538580513599,0.000355705441330422
3,0.0584429050922562,0.000199616017769702
3,0.0300787289944105,2.72131266158011e-05
3,0.097462205639687,0.000925781944843835
3,0.0603983533127848,0.000220330842356041
3,-0.00277929221375039,-2.14685460119088e-08
3,0.0107787963855201,1.25230698851003e-06
3,0.0203493137624463,8.42654034451548e-06
3,0.0154612278474635,3.69599981528516e-06
3,0.0246510768194149,1.4979857609864e-05
3,0.020139570990207,8.16865671077823e-06
3,0.0412530624481399,7.02050871263683e-05
3,0.00613303520538001,2.30688727272448e-07
3,0.00280520490302264,2.20746470246286e-08
3,0.00622591399830897,2.41328910243891e-07
3,0.0018587328763906,6.4217137347088e-09
3,0.0057811607733563,1.93216914107179e-07
3,-0.00036808078056898,-4.9868858088e-11
3,0.00603370293770054,2.19660401538595e-07
3,0.000689439886315291,3.27709638864001e-10
3,-0.00115923750921484,-1.55782e-09
3,-0.00179713917494515,-5.80423695238095e-09
3,-0.00441754468598545,-8.62070639338539e-08
3,-0.00023101595462653,-1.23289452408861e-11
3,-0.000218986373581391,-1.0501498512e-11
3,-0.00174198878227979,-5.28610836598786e-09
3,-0.00423347301811545,-7.58735472043426e-08
3,-0.00277950064795753,-2.14733765025e-08
3,-0.00460450536523208,-9.76222807931427e-08
3,-0.0032789871497605,-3.52548721494287e-08
3,-0.000771112391761493,-4.58514471032303e-10
3,-0.00248428492831037,-1.53321907508571e-08
3,-0.00505815302994881,-1.29412400530001e-07
3,-0.0032157771750138,-3.32550683684801e-08
3,-0.0136372584479216,-2.53618665753581e-06
3,-0.00183129175388306,-6.14147402666061e-09
3,0.000318509681696667,3.23123031138461e-11
3,-0.000513677431075038,-1.35541240153535e-10
3,-0.000878785556431151,-6.78654496574899e-10
3,-0.000208897350636436,-9.115884125e-12
3,-0.0010604905965036,-1.19267046819048e-09
3,-0.000140933116818133,-2.79923377831601e-12
3,-0.000454042749068486,-9.36031002901099e-11
3,0.00253367496565663,1.62649488184243e-08
3,0.00150200192018303,3.38853100383839e-09
3,-0.00403196361976605,-6.5546546481e-08
3,-0.00164005485394412,-4.41138662030857e-09
3,-0.0182946167062648,-6.1230801571209e-06
3,-0.0018209743586743,-6.03825558152982e-09
3,0.006157470537637,2.33457068321055e-07
3,0.00256958455508995,1.69663624143725e-08
3,-0.0012220461944227,-1.825e-09
3,-0.00732746261938955,-3.93423986554646e-07
3,-0.00140980078826204,-2.80203300929229e-09
3,-0.00305614491674109,-2.854446e-08
3,0.0018190215325787,6.01885e-09
3,0.00404270755379944,6.60719277e-08
3,0.00796912539133942,5.0609492350125e-07
3,0.000610819558726611,2.27897103125e-10
3,0.00546659824339618,1.633621619988e-07
3,0.00263281871408572,1.825e-08
3,-0.00135425127056235,-2.48369209550476e-09
3,-0.00404727845161734,-6.62962943807331e-08
3,-0.0012361007138303,-1.88869387395937e-09
3,0.00281998712971261,2.2425460952381e-08
3,0.00669712692285661,3.00376248594286e-07
3,0.00506646030409871,1.3005107094102e-07
3,0.00310089331538446,2.98167617047619e-08
3,0.00222361157717106,1.09945328075383e-08
3,0.00285838791670244,2.3354119704e-08
3,-0.014560745217522,-3.08710078429389e-06
3,-0.00281127674141407,-2.22182985771987e-08
3,-0.0103677461129384,-1.11443068294491e-06
3,-0.00369681020840732,-5.05221081667848e-08
3,0.00693180546787062,3.33072747017163e-07
3,0.00476919698827522,1.0847652969055e-07
3,0.0214855149541986,9.91830139286323e-06
3,0.0248041225024437,1.5260599776209e-05
3,0.0157865396571247,3.93423986554646e-06
3,0.0085425002531689,6.23383066565102e-07
3,0.0245751300276828,1.48418306937207e-05
3,-0.00435178206809504,-8.241408e-08
3,0.000362499481335366,4.7634561157969e-11
3,0.00112156185079262,1.41081375702248e-09
3,0.00288520207443539,2.40175502114048e-08
3,0.000412090933477847,6.99808444579002e-11
3,0.00246890502225712,1.50491908339666e-08
3,0.00303732372426604,2.80203300929229e-08
3,0.00260901017487887,1.77593603073792e-08
3,0.00474477716847301,1.06818743159609e-07
3,0.00361332437639491,4.71759715410988e-08
3,0.00132762905218319,2.34007750725274e-09
3,0.0174983288982255,5.35783982185053e-06
3,-0.00546100425314707,-1.628611677e-07
3,0.0065842646263916,2.854446e-07
3,0.00623935040426014,2.4289475080185e-07
3,0.00905207148129186,7.4172672e-07
3,0.00954125326678225,8.685928944e-07
3,-0.00177137852995029,-5.55819948289453e-09
3,-0.00176135220375002,-5.46435141572291e-09
3,-0.00699196553134509,-3.41820288195499e-07
3,-0.00210940845617431,-9.38603237801345e-09
3,-0.00898933793148407,-7.26412185490605e-07
3,0.00373880910875095,5.2263666779456e-08
3,-0.0166530782842923,-4.61831520734878e-06
3,-0.00317603406617954,-3.20372666612636e-08
3,-0.00799568826856896,-5.1117259366975e-07
3,0.00371764676592525,5.13812148045587e-08
3,-0.00145237389950734,-3.06362289850547e-09
3,-0.00034777354037819,-4.20619700307217e-11
3,-0.00330021098538804,-3.59438933333334e-08
3,0.0147577855182648,3.21413106810693e-06
3,0.0281064985400048,2.22034384968691e-05
3,0.0030691699735279,2.89109805951113e-08
3,-0.0243336352671751,-1.44085733788396e-05
3,0.00445228132591293,8.8256722360425e-08
3,0.00536040216230053,1.54025320486844e-07
3,0.000734918265935723,3.9693292537524e-10
3,-0.00416655593183147,-7.23321956769057e-08
3,0.0189735948424396,6.83044293819522e-06
3,0.0134948504300757,2.45756054648919e-06
3,0.00697403641451817,3.39197491695108e-07
3,0.0506160010752962,0.000129677160409556
3,0.00866678559164358,6.5098976109215e-07
3,-0.00158111365187744,-3.95265824166688e-09
3,-0.00837390408648345,-5.87197160372482e-07
3,-0.00419569371156119,-7.38603447918752e-08
3,-0.0150681283673506,-3.42119583052742e-06
3,-0.00186983305055588,-6.53745173982452e-09
3,-0.00254697756952706,-1.65224847933465e-08
3,-0.00340356996425815,-3.94279364013475e-08
3,-0.00330562905111398,-3.61212149717998e-08
3,-0.0143762881210224,-2.97125759033195e-06
3,0.00462320436422015,9.88164560416717e-08
3,-0.0156709179015162,-3.84842747173158e-06
3,-0.00450939053568709,-9.16966663302351e-08
3,-0.0030504674411104,-2.83856721121764e-08
3,-0.0119548704729707,-1.70857727268074e-06
3,-0.0192470577965678,-7.1300578141129e-06
3,-0.00851005646981142,-6.1630731972958e-07
3,-0.020323598094675,-8.3946345430323e-06
3,-0.00762034102351803,-4.4251013463647e-07
3,0.0244854440869708,1.46799290093121e-05
3,-0.0147040821992682,-3.1791701022855e-06
3,-0.0153664626668996,-3.62845478409978e-06
3,-0.00750923068972798,-4.23434596804842e-07
3,-0.0238653119472527,-1.35925627442459e-05
3,-0.0203966493076143,-8.48548141463363e-06
3,-0.0936455294211639,-0.000821223082485534
3,-0.0241357115744436,-1.40598381695878e-05
3,0.0122682828367131,1.84650861979688e-06
3,0.0212468713390338,9.59146539108488e-06
3,0.0316789847751838,3.1791701022855e-05
3,-0.0242972413779874,-1.4344020738611e-05
3,-0.01643635501201,-4.44034320713594e-06
3,-0.00611827677725838,-2.29027355693279e-07
3,-0.0237305240479126,-1.33635544309701e-05
3,-0.0277844856567171,-2.14490017550277e-05
3,-0.0376947363428843,-5.35601925837464e-05
3,-0.0872192443149719,-0.000663493936964895
3,-0.0697881397107936,-0.000339895070043612
3,0.0440594746278016,8.55298957631855e-05
3,0.00611390099363168,2.28536306853817e-07
3,0.0512836448255297,0.000134876612915297
3,-0.0129780965300329,-2.18591364093611e-06
3,-0.0707138566974727,-0.000353601071418822
3,-0.0606473874041993,-0.00022306749517338
3,-0.0674261864633521,-0.000306539039127509
3,-0.0828986358256221,-0.000569694663965912
3,-0.0333104148907166,-3.69606947417779e-05
3,0.00546742500732207,1.63436293495613e-07
3,0.00413587063964603,7.07458289565011e-08
3,0.0346918475043793,4.17524809029198e-05
3,-0.00479562654422267,-1.10289982083482e-07
3,-0.0134437962144783,-2.42977333677881e-06
3,-0.0592955810855091,-0.000208481243267878
3,-0.0261446775722185,-1.78710418095847e-05
3,0.00744740759212742,4.13062119833664e-07
3,0.0331060402326484,3.62845478409979e-05
3,0.0129137101742533,2.15354080726516e-06
3,0.021903989457461,1.05092001968082e-05
3,-0.00433393922594053,-8.14045070931741e-08
3,-0.0109322902640696,-1.30657234750984e-06
3,-0.0171589646400156,-5.05211511748688e-06
3,-0.0209462902355212,-9.19012356520035e-06
3,0.0162085971230471,4.25830027960434e-06
3,0.016178147093402,4.23434596804843e-06
3,0.0500874872115892,0.000125657302858376
3,0.00694836400027636,3.35465362170591e-07
3,0.00666008481491433,2.95419582192971e-07
3,-0.00605764706158123,-2.2228589152931e-07
3,-0.00652287433184418,-2.77534536613519e-07
3,-0.0336084718535097,-3.79617563864709e-05
3,-0.0308262077394235,-2.92927606123148e-05
3,0.0260954567708544,1.77702979367122e-05
3,0.0514162559475937,0.000135925627442459
3,0.0586440934553999,0.000201684643368171
3,0.119348439735632,0.00170000515105204
3,0.0167999541719842,4.74159319660831e-06
3,0.0128010758647903,2.09768085351039e-06
3,-0.0730896724488393,-0.000390452355172092
3,-0.0431276858811835,-8.02173788399436e-05
3,0.00995209894873935,9.85698410033684e-07
3,0.011538065353817,1.53602747378757e-06
3,0.0439432488287391,8.48548141463363e-05
3,0.0795614382854103,0.000503625691459108
3,0.102358595596049,0.00107243988064125
3,0.0137841984403486,2.61905458613099e-06
3,-0.0562785866095161,-0.000178250003007405
3,-0.038013723228675,-5.49314704984833e-05
3,0.00966571798140905,9.03030374294997e-07
3,0.113799621849963,0.00147374538042072
3,0.0194786622315841,7.39056056603558e-06
3,0.0420365214755283,7.42814397582989e-05
3,0.027555046652501,2.09220122457113e-05
3,0.201753177151357,0.00821223082485538
3,0.184091711392901,0.00623882358638633
3,0.139913495092313,0.00273891665368228
3,0.0859131288040701,0.000634130448273134
3,0.0263686576762783,1.83342887328153e-05
3,0.071021733937755,0.000358239782964478
3,0.152032645292993,0.00351407119654883
3,0.11706417759068,0.00160425002706665
3,-0.118739160754789,-0.00167410203784788
3,0.0103317754775924,1.10287141247859e-06
3,0.0519988142845853,0.000140598381695878
3,0.147300268136828,0.00319602827055935
3,0.0562201841311205,0.000177695647797009
3,0.037880918117047,5.43577521708203e-05
3,0.0321887461391683,3.3351254873711e-05
3,0.0651422276478981,0.000276431682911436
3,0.0897092017271136,0.000721956409559491
3,0.0790717307419394,0.00049438323448635
3,0.177372746202909,0.0055803401261596
3,-0.00534448685214368,-1.52657462445405e-07
3,-0.00470870188654833,-1.04400742372385e-07
3,-0.0060754347060865,-2.24249804618489e-07
3,-0.00432613748432061,-8.09656769798766e-08
3,-0.0573850201001647,-0.000188971197113526
3,-0.0320649805285534,-3.2968025815127e-05
3,-0.0248405856094394,-1.53279999376031e-05
3,-0.105103843863213,-0.00116106303371318
3,-0.0262190279721107,-1.8023941148625e-05
3,0.0112804890578386,1.43543584090456e-06
3,-0.0145154987723466,-3.0584113036002e-06
3,-0.049376456501575,-0.000120381502298215
3,-0.00777041026572067,-4.69171743717542e-07
3,0.009938551927867,9.81678622307504e-07
3,-0.00352176179531857,-4.36797288290382e-08
3,-0.0313192189722658,-3.07208175956553e-05
3,-0.0153380799459815,-3.60838601766041e-06
3,-0.0383381757470187,-5.63500533741119e-05
3,-0.00480278103738133,-1.10784336697338e-07
3,0.012823284371283,2.10861756581564e-06
3,-0.00848871517786973,-6.11682260720041e-07
3,-0.0523038920211977,-0.000143087606796739
3,-0.00718991328871729,-3.71681511256754e-07
3,0.00913108178664709,7.6131905219884e-07
3,0.00594390965253139,2.09998696293453e-07
3,-0.0146750225211302,-3.16035834705354e-06
3,-0.017666256159998,-5.51357860081678e-06
3,-0.0289535692763559,-2.42720427398026e-05
3,-0.0110191179609616,-1.33795188819883e-06
3,0.121121280533062,0.00177689334599286
3,0.0210314477546911,9.30266771511728e-06
3,0.0122992652590028,1.86053354302346e-06
3,0.0225515148127844,1.14690423885008e-05
3,-0.0334778336558324,-3.75207958302372e-05
3,-0.0205847166589116,-8.72237351583306e-06
3,-0.193945544768537,-0.00729523729441115
3,-0.0554599952118938,-0.000170584467154066
3,0.0676788383990638,0.000309997854679551
3,0.0528595114543104,0.00014769623844065
3,0.0271482266487149,2.00089545997383e-05
3,0.070745668088704,0.000354078499899677
3,-0.201291050839055,-0.00815592833998741
3,-0.0370299642199277,-5.07761627399935e-05
3,0.0524304693621222,0.000144128954637164
3,0.0258870891164207,1.73480097002904e-05
3,0.0434998138596004,8.23118183320083e-05
3,-0.0885042517078317,-0.000693254031115519
3,-0.018637602554222,-6.47396189067039e-06
3,0.221840336300986,0.010917458376706
3,0.0715413491131983,0.000366160402823735
3,0.0647058677239515,0.000270913718144769
3,0.0757828986563299,0.000435224804006749
3,0.0444937543011302,8.80840260718642e-05
3,0.409847521154865,0.0688441335121051
3,0.418702258575437,0.0734033550598868
3,0.184096262248774,0.00623928628003966
3,-0.10645566387989,-0.00120644163887634
3,0.0553399168767583,0.000169478849606474
3,0.0112585161625555,1.42706405380752e-06
3,0.00810597031435603,5.32617003352588e-07
3,0.0104174364287429,1.13053126340596e-06
3,0.0169333847060635,4.85547056201189e-06
3,0.117198575445404,0.00160978174635152
3,0.0770254295420626,0.000456985464659943
3,0.038767775573508,5.82656570160335e-05
3,0.159023639136411,0.00402147212958781
3,-0.00340764854714333,-3.95698487651613e-08
3,-0.00536351139602065,-1.54293497317464e-07
3,-0.00300494063494077,-2.71336169528636e-08
3,-0.00136052454449995,-2.51836771526512e-09
3,-0.0045000985565416,-9.11309874410338e-08
3,-0.0336367655902932,-3.80577129443785e-05
3,-0.00225081223088905,-1.14029652102666e-08
3,-0.0337716990230415,-3.85175566888362e-05
3,-0.0075925803296483,-4.37691574287378e-07
3,-0.109104248709331,-0.00129874829164809
3,0.00462014227276339,9.86202384608635e-08
3,0.00484922795097542,1.14029652102666e-07
3,-0.00736562065968678,-3.99602360385756e-07
3,-0.00412663480835958,-7.02729380607543e-08
3,-0.00186838564385539,-6.52228189026424e-09
3,-0.0048684214006736,-1.1538902095674e-07
3,-0.00508032288076639,-1.31121510759463e-07
3,-0.036791455704538,-4.9801326979067e-05
3,0.00727193118315465,3.8454687023737e-07
3,0.0155464510540352,3.75745503049292e-06
3,-0.0269767274874195,-1.9632146872779e-05
3,-0.217038456179062,-0.0102237465518538
3,0.00407414469613448,6.76253222517524e-08
3,0.00870999594333825,6.60775387735451e-07
3,-0.031646648945495,-3.16944477111204e-05
3,-0.0250484229513283,-1.57159690059479e-05
3,-0.0278481823313787,-2.15968574269957e-05
3,-0.107161731475287,-0.00123060639163161
3,-0.0163078859447026,-4.33703569143374e-06
3,0.00184462008749284,6.2765472288146e-09
3,0.00394355985792719,6.13289192666636e-08
3,-0.00371631156370695,-5.13258736063423e-08
3,-0.0513022729776274,-0.000135023643112602
3,0.0727589199165565,0.000385175566888362
3,0.0102756683398366,1.08500124183203e-06
3,0.0534121366151012,0.000152377152457309
3,-0.103921017848081,-0.0011223031329541
3,0.00610130278549671,2.27126461006884e-07
3,0.016357718449048,4.3769157428738e-06
3,0.0107229240621643,1.23293360863376e-06
3,0.0422758754322909,7.55575432978267e-05
3,-0.057730730918151,-0.000192407132918287
3,0.0390864718906577,5.97144467380361e-05
3,0.0470012139903865,0.000103831045322095
3,0.00538454886863124,1.56116198885958e-07
3,-0.0117956509007074,-1.64121596374034e-06
3,0.0456052437546783,9.48515307229125e-05
3,0.23505797824925,0.0129874829164809
3,0.0776549040120711,0.000468281134280779
3,0.314466145702468,0.0310972290952219
3,0.180863921842936,0.00591637688284432
3,0.0743316568550434,0.000410696914467499
3,0.159698315282732,0.0040728742728173
3,0.120084759475808,0.00173166419626458
3,0.0275238946620267,2.08511331318929e-05
3,0.0206089003914141,8.75315180661514e-06
3,-0.00301671789238251,-2.74539031581083e-08
3,-0.00138941036719241,-2.68220276092312e-09
3,-0.00342930445689121,-4.03290629924002e-08
3,-0.0266278666341372,-1.88803099372242e-05
3,-0.0248876641919475,-1.54153153923312e-05
3,-0.0142910794801728,-2.91873794178816e-06
3,-0.0585162870772058,-0.000200368886908912
3,-0.0347984361823552,-4.21385107181473e-05
3,0.0063673190929373,2.58148641635944e-07
3,-0.00824360037214105,-5.6020991436656e-07
3,-0.0336453626599734,-3.80869014024655e-05
3,-0.0126221757183235,-2.01095645065019e-06
3,0.00293259743686616,2.5220712528083e-08
3,-0.0155529174190175,-3.76214558971445e-06
3,-0.0056457544664674,-1.799558463071e-07
3,-0.0136564365586215,-2.54690164887721e-06
3,-0.00407834266769283,-6.78345797661182e-08
3,0.0072381563416967,3.79213577391224e-07
3,-0.00482088674297572,-1.12041982873312e-07
3,-0.0356401317604708,-4.52707722361011e-05
3,-0.011679222309542,-1.5930953699956e-06
3,0.0562028435114381,0.000177531272544048
3,0.0119441194034291,1.70397182286495e-06
3,0.00698496340059182,3.4079436457299e-07
3,-0.0261436839966736,-1.78690044287133e-05
3,-0.0119152834660741,-1.69166021742301e-06
3,-0.108641124160971,-0.00128227965718999
3,-0.0740592396659263,-0.000406197968512769
3,0.0525298370749696,0.000144949980554756
3,0.0262496844888281,1.80872384120887e-05
3,0.055247075114205,0.000168627294352875
3,-0.188605447772344,-0.0067090758039252
3,-0.0827119074498451,-0.000565853633687086
3,0.0301638623427671,2.74448493033812e-05
3,0.00952871216720727,8.65172338014902e-07
3,0.0251794873569081,1.59639607548623e-05
3,-0.0614672731732977,-0.0002322372294519
3,-0.0308570807506962,-2.93808604948006e-05
3,0.123509020480609,0.00188406565302409
3,0.0487486305547371,0.000115847658432499
3,0.0230488686622345,1.22447194657559e-05
3,0.0516388434766457,0.000137698598884808
3,0.229581429601756,0.0121006936932776
3,0.392315140850714,0.0603816822353269
3,0.127857080574889,0.0020901350650671
3,-0.170564451270671,-0.0049621005936752
3,0.0734482822102,0.000396227787349745
3,0.0182882196012571,6.11665920406098e-06
3,0.00688328789898671,3.26127787337107e-07
3,0.0169219782021204,4.84566508373662e-06
3,0.156502671056036,0.00383323338886626
3,0.172047700660189,0.00509268270318378
3,0.0641853144961295,0.000264427744453205
3,0.254789447172768,0.0165403353122507
3,-0.00240903999916658,-1.39808003197731e-08
3,-0.00403322771987526,-6.56082162165364e-08
3,-0.00682050129930523,-3.17284523043157e-07
3,-0.00355893933841585,-4.50777008118802e-08
3,-0.0104046699877672,-1.12637999816665e-06
3,0.00508470693301344,1.31461256738165e-07
3,-0.02637122762393,-1.83396499561938e-05
3,-0.0086988904460981,-6.58251085726097e-07
3,-0.013974187318357,-2.7288501103655e-06
3,-0.00901304293096573,-7.32174027630811e-07
3,-0.00754464168824068,-4.29453213663559e-07
3,0.00851284368743004,6.16913077856983e-07
3,-0.00387247088464885,-5.80716924741734e-08
3,-0.00160379608008242,-4.12522311881052e-09
3,-0.00433794227529368,-8.16302836825394e-08
3,-0.0119684262886517,-1.71439601359464e-06
3,-0.00252370131655244,-1.60736261426773e-08
3,0.0143958797924494,2.98342163458491e-06
3,0.0445084601211085,8.81713940201627e-05
3,0.00818334133280484,5.48014435805765e-07
3,-0.0155838584924239,-3.78464359760209e-06
3,-0.0241847512162665,-1.41457139846816e-05
3,0.00751177379141806,4.23864947932604e-07
3,0.0146816911233482,3.16466868137545e-06
3,0.00338915672769969,3.89291533225634e-08
3,-0.00819882880306364,-5.51131779896266e-07
3,-0.00178782513752932,-5.71445895942969e-09
3,0.0235851575760394,1.31194716844495e-05
3,0.032415731950821,3.40617923784188e-05
3,-0.01139402924907,-1.47921734264e-06
3,-0.020231844148914,-8.2814505432793e-06
3,0.0152119069913418,3.52006744053274e-06
3,0.00916697978581478,7.70333564444445e-07
3,0.021341777796735,9.72057110877715e-06
3,-0.0119894225600654,-1.72343457252531e-06
3,-0.00905112354641339,-7.41493723054765e-07
3,0.021960904609645,1.05913343111192e-05
3,0.012733589368604,2.06467891184402e-06
3,0.0252917892616854,1.61785152818744e-05
3,0.0503063097694908,0.000127311425862134
3,0.0170542511612247,4.96018601906639e-06
3,0.0268248688797728,1.93024672122834e-05
3,-0.0212849645066224,-9.64314708325082e-06
3,0.00533310899179822,1.51684560697962e-07
3,0.00371882614702029,5.14301306348673e-08
3,0.0378955953864642,5.44209607129784e-05
3,0.0202507836495705,8.3047296982134e-06
3,0.0413504667175246,7.07035544143952e-05
3,-0.00654885334027559,-2.80863817128393e-07
3,-0.00331466239420819,-3.6418151930447e-08
3,-0.00611560264590498,-2.28727182159555e-07
3,-0.00678803039244568,-3.12774497063863e-07
3,-0.0534337396090094,-0.000152562117962275
3,-0.0218422706518025,-1.04206150464608e-05
3,0.0138225185111527,2.64095828046101e-06
3,-0.014962600809763,-3.34981843575419e-06
3,-0.0594758082707764,-0.000210388045142988
3,-0.259828406468139,-0.0175412237932716
3,-0.162037517006683,-0.00425448247308053
3,0.00699618389991865,3.42439339047486e-07
3,0.022993444358487,1.21565991620112e-05
3,-0.0043005994204267,-7.95402544863169e-08
3,-0.00378869990609028,-5.43839341790931e-08
3,-0.0664110189325174,-0.000292900714285714
3,-0.0311189110094169,-3.01351371255492e-05
3,0.0129080659449184,2.15071828000776e-06
3,0.0913981269391225,0.00076350500253504
3,0.00908806651911228,7.50610251381115e-07
3,-0.227589551190098,-0.0117884568503169
3,-0.0234303126405893,-1.28627625e-05
3,-0.0686065169898888,-0.000322920870822053
3,0.0143273441744077,2.94101392761543e-06
3,0.00800631572518945,5.1321357680953e-07
3,-0.143372433140266,-0.00294711421257923
3,-0.0494738598244775,-0.000121095326558269
3,0.112781401031431,0.00143453931815273
3,0.399285530827052,0.0636576669917113
3,0.14034038017911,0.0027640630546075
3,0.473405343726167,0.106096111652852
3,0.298226678846658,0.026524027913213
3,-0.525738210930203,-0.145314391869923
3,0.0487370142927384,0.0001157648625
3,0.0461019929326197,9.79848877503033e-05
3,0.249007554144564,0.0154396541361794
3,0.065760770908502,0.000284381072191617
3,0.142707306146603,0.00290628783739847
3,0.102909775484833,0.00108985793902443
3,0.785348571303028,0.484381306233078
3,-0.0131831805280655,-2.29118732349984e-06
3,-0.116326256043507,-0.00157410338085803
3,-0.0931284236005107,-0.000807693810721798
3,-0.00552098266326242,-1.68286450419747e-07
3,-0.0180880059559872,-5.91796070343756e-06
3,-0.0201470317103437,-8.17773833042237e-06
3,-0.0472160800231175,-0.000105261555773371
3,-0.0300906620237878,-2.72455279736631e-05
3,-0.0077095707420252,-4.5823746469997e-07
3,-0.123223016927829,-0.00187100743318247
3,-0.0861711631053118,-0.000639861330571816
3,0.00931812656586998,8.09069473171861e-07
3,-0.0133280622446162,-2.36756023428317e-06
3,-0.0195174753337571,-7.43482785747663e-06
3,-0.0682118675913362,-0.000317380193864059
3,-0.13206420897742,-0.00230332596455837
3,0.0191010572123694,6.96902810897869e-06
3,0.0111703660215174,1.39380562179574e-06
3,0.0204816035343315,8.59195246312442e-06
3,-0.0112013133510342,-1.40542229821978e-06
3,-0.0156645093654989,-3.84370802226197e-06
3,-0.138378979109602,-0.00264978334973923
3,-0.201303169829927,-0.00815740154366487
3,0.0305283206092342,2.84517341511422e-05
3,0.0299930465839911,2.69812301279394e-05
3,0.0236707190983899,1.32627735651115e-05
3,-0.174705131583903,-0.00533232958600898
3,-0.163498946306978,-0.00437063837278876
3,0.03400347417368,3.93160496654921e-05
3,0.0331023862456798,3.62725347493323e-05
3,-0.174705120006775,-0.00533232852594185
3,-0.187159560077619,-0.00655595625585875
3,0.168544644234938,0.00478789778344319
3,0.0796896922946817,0.000506065171987364
3,0.178537333324724,0.00569098094259671
3,0.104823072004065,0.00115178296160344
3,0.292423740053923,0.0250056346826928
3,0.36340131801183,0.047990966274081
3,0.363401293930434,0.0479909567334767
3,-1.00232636372511,-1.00699533967009
3,0.134933398166258,0.00245673534094546
3,0.0507859948654116,0.000130988115257995
3,0.12485305143375,0.00194624488048926
3,0.202946738971244,0.00835884422621988
3,0.425395722566743,0.0769802568881684
3,0.340091513299177,0.0393357453550987
3,0.389307573246965,0.0590036063027286
3,1.49727670799903,3.35665113223361
3,-0.110220221362192,-0.00133901005028571
3,-0.101150448455895,-0.00103491203582669
3,-0.0310769730205787,-3.001346468505e-05
3,0.232918392429932,0.0126360504745392
3,-0.935393284225153,-0.818432265622346
3,0.0542964730678291,0.0001600718116536
3,0.213752064337581,0.00976632006505397
3,1.39729196794143,2.72810755207449
3,-0.0318689586576473,-3.23670872420795e-05
3,-0.0769518999123766,-0.000455677978076015
3,-0.0746586963282204,-0.000416141670625053
3,-0.019666644509945,-7.60660392047592e-06
3,-0.179001309880966,-0.00573546491060946
3,-0.396420350392067,-0.0622970989885296
3,-0.0755682851809898,-0.000431537659266352
3,0.0537873433782816,0.000155610996356151
3,0.0415597352929887,7.17824567922043e-05
3,-0.225991299584274,-0.0115418429040212
3,-0.368567760000391,-0.0500670530498627
3,-0.0726563013107889,-0.000383548118659655
3,0.129876796686765,0.00219075950998085
3,0.378267225605737,0.0541247797878333
3,0.470080846415725,0.103876586136191
3,-2.03370097515074,-8.41126451224108
3,-0.525336059313018,-0.144981181956388
3,0.126006405754247,0.0020006811087743
3,0.837719155330084,0.58788900581326
3,0.766651835275292,0.450603477448767
3,3.03794573437283,28.037548374137
3,-2.33646321681831,-12.7548937378136
3,0.15969160001234,0.00407236050468076
3,0.151131196999357,0.0034519330679369
3,0.784747836580999,0.483270606521292
3,4.53906533194859,93.5188808856494
3,-0.0718952403535221,-0.000371621147338324
3,-0.0938359689706343,-0.00082624344860249
3,-0.0912342471870091,-0.000759405395706699
3,0.110483413259953,0.00134862513146972
3,-0.288360218728302,-0.0239776181038499
3,-0.0604869107479543,-0.000221301426289482
3,-0.135521437169731,-0.0024889948372045
3,-0.182290712278142,-0.00605750282951388
3,-0.0980695721410213,-0.000943197935907
3,-0.0955276653775721,-0.000871741039779977
3,-0.0885882550364608,-0.000695229900181987
3,0.144200340487809,0.0029984641279929
3,0.59981342618845,0.215798562934648
3,0.37917996170237,0.0545175254656245
3,-0.31026664949641,-0.0298679411935916
3,0.125817844553204,0.00199171283660534
3,0.166902204631426,0.00464928554549321
3,-0.0398852585183732,-6.34508192504628e-05
3,0.154777938009858,0.0037078928009706
3,0.0747077531623793,0.000416962526503042
3,-0.0605917246572592,-0.000222453858336331
3,0.14020220234133,0.00275590667796788
3,0.281895949133503,0.0224009535348406
3,0.20399293054416,0.00848878142316301
3,0.463476811917201,0.0995598039786392
3,0.135566584711433,0.00249148321336691
3,-0.0600639680270246,-0.000216691591497143
3,-0.048148877812824,-0.000111624238444911
3,-0.0140052771153729,-2.7471041136e-06
3,0.126927733431465,0.00204488822692696
3,-0.806522881519015,-0.524626325211909
3,0.0244694729824163,1.46512219392e-05
3,0.101748654456206,0.00105338231843065
3,1.20478515648209,1.74875441737303
3,-0.0138606810954587,-2.66289298978441e-06
3,-0.0856161539041233,-0.000627577179428572
3,-0.190012836431717,-0.00686039027947825
3,0.0292905196418484,2.51293485213443e-05
3,-0.232875906378762,-0.0126291370063384
3,-0.332491532798396,-0.0367571448903417
3,0.180924849242068,0.00592235802430034
3,0.484401405637012,0.113662233057045
3,-1.01916559109761,-1.05860577284184
3,0.401536885480329,0.0647405430810832
3,0.691610258675675,0.330814304013075
3,1.52243117249085,3.5286859094728
3,-0.0928100283124857,-0.000799437866666667
3,-0.0995648936631413,-0.000987003522778297
3,-0.0736633682882191,-0.000399718933333334
3,-0.0904607092992181,-0.000740252642083722
3,-0.0190748395527299,-6.9403709094229e-06
3,0.193052638509791,0.0071949408
3,0.153225980727839,0.0035974704
3,-1.07878592451722,-1.25546848097399
3,-0.298078291931263,-0.0264844553903577
3,-0.145903619236662,-0.00310597671074294
3,-0.106511861468742,-0.00120835327718506
3,0.207103324652583,0.00888303170500465
3,0.188165858035104,0.00666227377875349
3,1.61149212088351,4.18489493657997
3,0.326441530899417,0.034786939160321
3,-0.99823979034422,-0.994728660593033
3,0.039677265180944,6.2463338184806e-05
3,0.445269824102139,0.0882815179678591
3,0.238307283251175,0.0135335567044728
3,1.93928823390307,7.29335053946813
3,-1.60195445419745,-4.11102855118006
3,2.39300209826962,13.7034285039335
3,-1.04077305450075,-1.1273742722594
3,-0.297387995596713,-0.0263008813008399
3,1.55470843550949,3.75791424086466
3,-0.733421865501549,-0.394513219512597
3,0.44423865834541,0.087669604336133
3,1.42482438389272,2.89257092546637
3,-0.103041644642486,-0.00109405296
3,0.193003882621204,0.00718949087999999
3,-4.98975474336443,-124.233179156189
3,9.69363549466601,910.877669573177
3,-0.0211919227115289,-9.51724137931031e-06
3,-0.673517502280788,-0.305524933215782
3,0.047414339197662,0.000106593103448276
3,1.5069131641996,3.42187925201677
3,-2.3815585711248,-13.5077744587117
3,4.62667242881666,99.039002331274
4,0.00372023766731373,1.91550258608306e-10
4,-0.00219144770699062,-2.30634592722603e-11
4,0.0128355167948415,2.71427244134633e-08
4,-0.00506047750781732,-6.5579182059366e-10
4,0.01333982386407,3.16665230686297e-08
4,-0.0057698328279627,-1.10828874097688e-09
4,0.0135133565967869,3.33467066549354e-08
4,-0.00352849790941311,-1.55009907757149e-10
4,0.00542648513087899,8.6711054819772e-10
4,0.00499170544439373,6.20863030736255e-10
4,-0.00217730460697539,-2.24738131622392e-11
4,0.0112310144178101,1.591021099335e-08
4,0.0109048442645782,1.41409266860206e-08
4,-0.00621847693770654,-1.49532678284967e-09
4,-0.00465974481932341,-4.71464000120072e-10
4,0.0128056863875494,2.68912782721052e-08
4,0.011939459963847,2.03207032759856e-08
4,0.00254636482748985,4.20419166887813e-11
4,0.00354782824191927,1.58434714692008e-10
4,0.00115651621014778,1.78898581697976e-12
4,0.00187239745442593,1.22911400744388e-11
4,0.00110675706508899,1.50040745064e-12
4,0.00160115709991835,6.57257850017921e-12
4,-0.000607880112134058,-1.36543722840436e-13
4,0.00227032864436663,2.65677584713575e-11
4,-0.000486112744753547,-5.58403368805164e-14
4,0.00783305908130847,3.76465869433311e-09
4,-0.0014157205129361,-4.01707646955586e-12
4,0.00814081973727024,4.39210337082022e-09
4,-0.00176471552994789,-9.6983718242069e-12
4,0.00824672058798303,4.62514253261947e-09
4,-0.000888479537587456,-6.23145869114808e-13
4,0.00331159074569556,1.20267045212355e-10
4,0.00130507146368504,2.9009295e-12
4,-0.000569251960470734,-1.05006973120168e-13
4,0.00685388838516338,2.20672446996806e-09
4,0.00260768640646345,4.6240386165384e-11
4,-0.00148703066141321,-4.88967161895865e-12
4,0.00781485464540823,3.7297834589735e-09
4,0.0039899557594533,2.53438343346672e-10
4,0.00155395582858884,5.83115625306727e-12
4,0.000658068362258805,1.8753574041828e-13
4,0.000705780682412361,2.4812988214959e-13
4,0.00176132273712449,9.62400336032268e-12
4,0.00104110181233507,1.174824e-12
4,0.00241962395376676,3.42761078855212e-11
4,0.00103660947900173,1.1546775e-12
4,-0.00041592569404115,-2.99269873392479e-14
4,0.00528589330612519,7.8068093073042e-10
4,0.00207126775998247,1.84053881683372e-11
4,-0.00114683592399639,-1.72983688829535e-12
4,-0.00027204744336404,-5.47745218951916e-15
4,0.00578740144934013,1.12184907671404e-09
4,0.00316919500283012,1.00877857493495e-10
4,0.00171973492699561,8.74673656628448e-12
4,0.000522699270599672,7.46461780290864e-14
4,0.000907605182671417,6.78559396148819e-13
4,0.00139900679440888,3.8307101706846e-12
4,0.00133881448459911,3.2127845994e-12
4,0.000776127140486089,3.62853638573143e-13
4,0.00186153143130425,1.20082990288166e-11
4,-0.00372511952561181,-1.92557681869298e-10
4,-0.00774197082985215,-3.59257730971746e-09
4,-0.00281409907415792,-6.27129937273493e-11
4,-0.0189822102723612,-1.29833606088292e-07
4,-0.00870191351810402,-5.73401799274906e-09
4,-0.0193377038041791,-1.39836200568257e-07
4,-0.00969166375485101,-8.82253424562085e-09
4,-0.0167371351693319,-7.84737658020566e-08
4,-0.00690590573881118,-2.27448242226905e-09
4,-0.0101701389666857,-1.06981220678085e-08
4,-0.00435706649341902,-3.6039333535795e-10
4,-0.00400797053935027,-2.58046565011297e-10
4,-0.0245617582972287,-3.63946722989254e-07
4,-0.00962448069668374,-8.58043336980727e-09
4,-0.00934496735738677,-7.62625205080213e-09
4,-0.0171554099437361,-8.66172520381886e-08
4,-0.00262387934981941,-4.73996840060982e-11
4,0.00170444477624072,8.43979190985002e-12
4,0.00262727656053807,4.76456400000001e-11
4,0.0042535555497279,3.27347053072201e-10
4,0.00591428270436444,1.22351224549165e-09
4,0.00508940673748785,6.70916760918067e-10
4,0.00528936937529345,7.82736499222017e-10
4,0.00535817678470129,8.24267456553358e-10
4,0.0021516539168156,2.14333311384961e-11
4,0.00445320600334516,3.93270294557705e-10
4,0.00507757869205105,6.64701488341313e-10
4,0.00100965831888727,1.0391965868258e-12
4,0.000458569879656546,4.42203424893142e-14
4,-0.00371375318728272,-1.90218236112662e-10
4,-0.00674778549206597,-2.07321848662112e-09
4,-0.00221243747780197,-2.39598462317569e-11
4,-0.010198448905684,-1.08177389669152e-08
4,-0.00818089600768297,-4.47923129178033e-09
4,-0.00307911429572139,-8.98883151750908e-11
4,-0.00655463273204812,-1.8458374351607e-09
4,-0.00232144296623301,-2.90423712768007e-11
4,-0.000739412267446772,-2.98914240997925e-13
4,-0.00594413960124433,-1.24840644484645e-09
4,-0.00477965078908783,-5.21896842506343e-10
4,-0.00331012790418079,-1.2005468190782e-10
4,-0.00444476169751561,-3.90295843521528e-10
4,-0.0144575925085741,-4.36901886013536e-08
4,-0.00461589942925604,-4.53968115855657e-10
4,-0.00566691391434213,-1.03130342824691e-09
4,-0.0252324807771755,-4.05358985409772e-07
4,-0.0169882269276282,-8.32898758122791e-08
4,-0.00889152242391019,-6.25035252156285e-09
4,-0.00313224554373555,-9.62549782351747e-11
4,0.0378057223702781,2.04282029071109e-06
4,0.026065254046287,4.61580920200783e-07
4,0.0183039037285818,1.12247038524343e-07
4,-0.0169034559702144,-8.16398178028221e-08
4,-0.0117064203543574,-1.87800376608162e-08
4,-0.0157191052165527,-6.10536009401306e-08
4,-0.0126474031355396,-2.55861798090296e-08
4,-0.0190403307485736,-1.3143104255523e-07
4,-0.014093457135064,-3.94521027638908e-08
4,0.0207629597523321,1.85847639097325e-07
4,0.0102406971383389,1.09981107699062e-08
4,0.0144627985413642,4.37531521795198e-08
4,-0.0222299134722445,-2.44203052926585e-07
4,-0.0383664052786268,-2.16672822334627e-06
4,-0.0201333516541037,-1.64310121348117e-07
4,-0.00487501853653162,-5.64813522068678e-10
4,-0.00476169831721514,-5.14099885200864e-10
4,0.00952140767976527,8.21872867413889e-09
4,0.00763863803620019,3.40458141677301e-09
4,0.0107879455427274,1.35442506401401e-08
4,-0.00122638161997581,-2.26205172860708e-12
4,0.00453752327455757,4.23911758076168e-10
4,0.0189188925390258,1.28109944051716e-07
4,0.00514110472223704,6.98595528375638e-10
4,0.0108305074372077,1.37592645101144e-08
4,-0.0094592364740694,-8.00616120826233e-09
4,0.0307187231535605,8.9045635935989e-07
4,0.0212764806074684,2.0492699305134e-07
4,0.0110576252241276,1.49502159277114e-08
4,0.0142090521230562,4.07624641188404e-08
4,0.0145891269259832,4.53019827880631e-08
4,0.00824110803086187,4.61256425365604e-09
4,0.0134784310741851,3.30033000914551e-08
4,-0.00607506168121934,-1.36208047361309e-09
4,-0.00378125760212597,-2.04430203306029e-10
4,-0.00183665398189217,-1.13791383794197e-11
4,0.0298508206077602,7.94008401995761e-07
4,0.0304098584380895,8.55180114760539e-07
4,0.026320286850632,4.79912953667081e-07
4,0.0159932373256111,6.54252705700837e-08
4,0.0386250405101291,2.22574697444493e-06
4,0.0269780524678253,5.29715132685573e-07
4,-0.00268035568679152,-5.16142614336663e-11
4,0.0202614166782048,1.68530780393522e-07
4,0.0164888537903811,7.39199846838374e-08
4,0.0233956116160841,2.9959710509395e-07
4,0.0201045864041211,1.63373108529678e-07
4,0.034423072180388,1.40410152177138e-06
4,0.0303487954188901,8.48331966620334e-07
4,0.0372702239871328,1.92951434267343e-06
4,0.0178543083618839,1.01618346707403e-07
4,-0.00395606987090362,-2.44937800413603e-10
4,-0.00444197832273043,-3.89319125589918e-10
4,0.0398937357442894,2.53290456275788e-06
4,0.0316768205362463,1.00685362153355e-06
4,0.0733804834119949,2.89949439668439e-05
4,0.0377175826178829,2.02383639310221e-06
4,0.0616111005823049,1.44090672172234e-05
4,0.0435162128929534,3.58595116692301e-06
4,0.0543398378028195,8.71913397834537e-06
4,0.0378308011740961,2.04824618774675e-06
4,0.0681201124316675,2.15328455025865e-05
4,0.0329704610519204,1.18168053312815e-06
4,0.00996371576463132,9.85565107690614e-09
4,0.0151782583610415,5.30747264029303e-08
4,0.0265436328746565,4.96411058827332e-07
4,0.0319095608272944,1.03677211541224e-06
4,0.0368961010722595,1.85319833459896e-06
4,0.0219621870639129,2.32649618862312e-07
4,0.0294028249549762,7.47405404092715e-07
4,0.0439346900630892,3.72589205107163e-06
4,0.0458617329509785,4.4238647873481e-06
4,0.0245653490872854,3.64159597469765e-07
4,0.00794587573435351,3.98627334229765e-09
4,0.00508940673748785,6.70916760918062e-10
4,0.018249315103495,1.10913977569649e-07
4,0.0184867135543583,1.16798925664535e-07
4,0.00742360904213815,3.03710892682383e-09
4,0.0153643948474127,5.57265090777509e-08
4,0.0175185975755173,9.41883840113217e-08
4,0.00348351032058836,1.47254442633267e-10
4,0.00158215198014221,6.26603471264835e-12
4,0.0356059582710424,1.60727694105825e-06
4,0.0323817801912458,1.09951936282891e-06
4,0.0227395822088714,2.67380619250969e-07
4,-0.0209997567922366,-1.94471990768121e-07
4,-0.0145432969910043,-4.4735417212959e-08
4,-0.0195283962712032,-1.4543412317585e-07
4,-0.0157123129357512,-6.09481434124546e-08
4,-0.0236544713500216,-3.13078313773033e-07
4,-0.017508796586903,-9.39777815650282e-08
4,0.00682150542506676,2.16531415736951e-09
4,0.00963392016957606,8.61414490414926e-09
4,-0.00138676525361564,-3.69838233666573e-12
4,0.019554845990883,1.46223642984899e-07
4,0.00620335472183633,1.48083429317881e-09
4,0.00876091426301974,5.89111798722652e-09
4,-0.01346588389845,-3.28805794775361e-08
4,-0.0232406464257238,-2.91737874281922e-07
4,-0.0121958808431409,-2.21234416982271e-08
4,-0.0029530674376079,-7.60489915248905e-11
4,-0.00288442313458046,-6.92206830838475e-11
4,0.00896739496753625,6.46643913947002e-09
4,0.00750989279521058,3.18078965121941e-09
4,0.0106061203741438,1.2653952717193e-08
4,-0.00120571160046962,-2.11336133523756e-12
4,0.00427350290480885,3.33530852859367e-10
4,0.0302543642556002,8.37822705053441e-07
4,0.00822145665354865,4.5687257117655e-09
4,0.017319730338462,8.99838361240425e-08
4,-0.0151268466310075,-5.23592738272718e-08
4,0.0289313232539969,7.00604933251195e-07
4,0.0855671607341233,5.36078619270012e-05
4,0.0444702116081407,3.91090065441413e-06
4,0.0571442368370977,1.06632538532378e-05
4,0.0586727754310994,1.18507689112163e-05
4,0.0331430854808058,1.20662341235576e-06
4,0.0542059140064626,8.63349590063454e-06
4,-0.0244319438415083,-3.56313342989527e-07
4,-0.0152070017117712,-5.34779042495042e-08
4,-0.00738643149592936,-2.97672488142812e-09
4,0.0281139204934721,6.24720344387248e-07
4,0.0702222572553125,2.43163923405384e-05
4,0.0607786438079461,1.36459576985639e-05
4,0.0369314848377469,1.86031751757173e-06
4,0.089192704948664,6.32874124961665e-05
4,0.0622975521079726,1.50620445597119e-05
4,-0.00618946079465666,-1.46761203835941e-09
4,0.0190824857065429,1.32598857773618e-07
4,0.02501152831872,3.91346018456231e-07
4,0.0354882158522638,1.58612227425375e-06
4,0.0304961423380544,8.6492733757136e-07
4,0.0522154939089443,7.4335721578377e-06
4,0.0375724784802388,1.99287187234901e-06
4,0.0755588286824002,3.25942406244726e-05
4,0.175034718791119,0.00093863513060515
4,0.0899678791966475,6.55163858683506e-05
4,0.146961169556323,0.000466455693268549
4,0.103799371882136,0.000116085747424014
4,0.129617001506654,0.000282259054195332
4,0.0902379398071432,6.63065888365101e-05
4,0.162487137847709,0.000697069298486416
4,0.0786445538418613,3.8253802553116e-05
4,0.00938396691022888,7.75435841667359e-09
4,0.0151055689530224,5.20652970679131e-08
4,0.0264165141424252,4.86969806484304e-07
4,0.0317567444084728,1.01705372479672e-06
4,0.0367194038727945,1.8179523165913e-06
4,0.0218570090956305,2.28224850879953e-07
4,0.0292620134145988,7.33190485030976e-07
4,0.0437242847230152,3.65502923197942e-06
4,0.0456420989099945,4.3397272101405e-06
4,0.0244477044510919,3.57233638445062e-07
4,0.00790782255396982,3.91045832596456e-09
4,0.00528936937529344,7.82736499222014e-10
4,0.018249315103495,1.1091397756965e-07
4,0.0192130559744791,1.36265461698185e-07
4,0.00771528241836277,3.54329500709604e-09
4,0.0159680614593471,6.50142836939941e-08
4,0.0182069027479163,1.09886487062148e-07
4,0.00362037733642284,1.71796910788056e-10
4,0.00164431468390653,7.31037642921696e-12
4,0.0304025835902535,8.54362080947833e-07
4,0.0213567518245517,2.08037106115277e-07
4,0.0340954794480123,1.35141024618931e-06
4,0.0173422437135468,9.04526178492374e-08
4,0.00857836086003135,5.41523422408647e-09
4,0.0189132798688014,1.27957986117773e-07
4,0.0115073493006994,1.7534814847765e-08
4,-0.0109983414748036,-1.46321720086663e-08
4,0.0207417661512577,1.85089991023673e-07
4,0.00680072904552228,2.13905468843859e-09
4,0.0313486317186533,9.65771442423319e-07
4,0.0251469511143522,3.99890742311371e-07
4,0.00946477459159624,8.02492721160611e-09
4,0.0201480410862759,1.64790173592297e-07
4,0.00713579695082228,2.59280547304496e-09
4,0.00227285179097424,2.66860606058569e-11
4,0.0274751901923956,5.69852987902201e-07
4,0.0362421812465427,1.72527095787804e-06
4,0.0175469044065154,9.47986254857764e-08
4,-0.0162043753314734,-6.89491911266626e-08
4,-0.0112222748735092,-1.58607459067207e-08
4,-0.0150690060809328,-5.15630303139473e-08
4,-0.0121243411843038,-2.16088968512244e-08
4,-0.0182528748221046,-1.11000542590675e-07
4,-0.0135105903512885,-3.33194101484412e-08
4,0.00763473269627034,3.39762423171902e-09
4,0.00865030501064266,5.59919617741091e-09
4,-0.00124517768580019,-2.40394937309311e-12
4,0.0107946425950398,1.35779145307484e-08
4,0.00694288902085031,2.32359746069228e-09
4,0.00483618936805619,5.47032578920065e-10
4,-0.00743342105470117,-3.05319775074658e-09
4,-0.0128292737237788,-2.70899550956424e-08
4,-0.00673235549360899,-2.05432031628117e-09
4,-0.00163014873974918,-7.06169457959142e-12
4,-0.00159225579404599,-6.42763714189207e-12
4,0.00805183147199611,4.20318693428766e-09
4,0.00840518631831451,4.99102079862304e-09
4,0.00952324439075903,8.22507218901291e-09
4,-0.00108260945859501,-1.3736853560532e-12
4,0.0224273797706676,2.52996287717703e-07
4,0.0957680686411589,8.4116833612308e-05
4,0.0344730282628859,1.41227002585886e-06
4,0.0442978528841923,3.85062038792894e-06
4,0.0454827663857571,4.27944537476319e-06
4,0.0256923113514016,4.35725227601021e-07
4,0.0420200835117743,3.11765205927177e-06
4,-0.0189394891570828,-1.28668738631782e-07
4,-0.0117883720550517,-1.93114701423268e-08
4,-0.00572591522533773,-1.07492869207105e-09
4,0.0320548053292177,1.05577791945745e-06
4,0.0785938191154917,3.81551857327563e-05
4,0.0692983248597415,2.3061680250105e-05
4,0.0421083767832313,3.14393820511575e-06
4,0.101695343222573,0.000106955781564286
4,0.0710301469968066,2.54548682636957e-05
4,-0.00705707199078165,-2.48026560740486e-09
4,0.0173807779943683,9.12592403504165e-08
4,0.0279932831742569,6.14066421155693e-07
4,0.0323235038993337,1.09162564656776e-06
4,0.0277766056169841,5.95273693230676e-07
4,0.0475591032245069,5.11604820437034e-06
4,0.0333903006423115,1.24302916238709e-06
4,0.0845665910802622,5.1144071350239e-05
4,0.155551672918033,0.000585462044184488
4,0.0799535898625161,4.08650347162425e-05
4,0.130602979433795,0.000290945964835592
4,0.092245504524023,7.24070480333824e-05
4,0.115189383924683,0.000176055591220243
4,0.0801935901324169,4.13579140364114e-05
4,0.144400758286341,0.000434788346529276
4,0.0698906594102204,2.38603358326659e-05
4,0.0159992891117951,6.55243535838644e-08
4,0.0169063826816905,8.16963738714443e-08
4,0.0450391024535462,4.11489643245448e-06
4,0.0541439819535922,8.59410724865024e-06
4,0.062605118303777,1.53617029275819e-05
4,0.0372653282972413,1.92850072464122e-06
4,0.0498905651620604,6.19546195881198e-06
4,0.0745481606214343,3.08850087765631e-05
4,0.0778179572792569,3.66707088962165e-05
4,0.0416823604957915,3.01862539487384e-06
4,0.0134825218903773,3.30433854430196e-08
4,0.00535817678470128,8.24267456553356e-10
4,0.0184867135543584,1.16798925664536e-07
4,0.0192130559744791,1.36265461698185e-07
4,0.00781564761473894,3.73129752633249e-09
4,0.0161757839427522,6.84638550947232e-08
4,0.0184437494724571,1.15716917877633e-07
4,0.00366747345845994,1.80912226323599e-10
4,0.00166570495288251,7.69825527715573e-12
4,0.0304025835902535,8.54362080947834e-07
4,0.050492595347473,6.49996139093048e-06
4,0.0806100694098742,4.22237868405597e-05
4,0.0410013143121663,2.82612335225834e-06
4,0.0202813474262609,1.69194880839686e-07
4,0.0447156288069543,3.99795010110296e-06
4,0.0272061939257208,5.47861973452134e-07
4,-0.0199836783162127,-1.59478345124702e-07
4,0.0207417661512577,1.85089991023674e-07
4,0.0123567341378504,2.33138936339306e-08
4,0.0569595855297059,1.05260949170872e-05
4,0.0456913056258524,4.35847212407934e-06
4,0.0171972302557827,8.74649444180355e-08
4,0.036608426160651,1.79607403205393e-06
4,0.0129655431340924,2.82593948339711e-08
4,0.00412970802509732,2.90855573649552e-10
4,0.0136324176421784,3.45375503151823e-08
4,0.0179823523534021,1.0456492074279e-07
4,0.0123979798045008,2.36267343518397e-08
4,-0.0080401558861783,-4.17886052768564e-09
4,-0.0055681775776513,-9.61285316422176e-10
4,-0.0074768175546482,-3.12512313119057e-09
4,-0.00601575754356159,-1.30966824443997e-09
4,-0.00905656379456844,-6.72750148920149e-09
4,-0.00670357544284177,-2.01941698807321e-09
4,0.0140904502254763,3.94184443236049e-08
4,0.0239250058895157,3.27648522154828e-07
4,0.0271075107091614,5.39956224604464e-07
4,0.0571060330807677,1.0634766780558e-05
4,-0.0498757305822303,-6.18809655086077e-06
4,0.00823551999733297,4.60006643929582e-09
4,0.0351668296727086,1.52944150592267e-06
4,0.0243573395227791,3.51981144906364e-07
4,0.0162665392478802,7.00133182853051e-08
4,0.0167016493203466,7.78103632461734e-08
4,0.00943442997246189,7.9225075368635e-09
4,0.015430123429016,5.66862333697951e-08
4,-0.00695473761479819,-2.33949972826091e-09
4,-0.00432878806120513,-3.51127862375211e-10
4,-0.00210260359540424,-1.95447271010933e-11
4,0.0196028753281446,1.47665524205255e-07
4,0.04806345949883,5.33654417140271e-06
4,0.0489635785431071,5.74768030848774e-06
4,0.0257510614048196,4.39724372494851e-07
4,0.0621910229736413,1.49592838232393e-05
4,0.0434379526507069,3.56022454766429e-06
4,-0.00431569934667297,-3.46900341763081e-10
4,0.0174246299190609,9.21837246442924e-08
4,0.0280639105849548,6.20287103681377e-07
4,0.0228385668075925,2.72066699606119e-07
4,0.0278466863474398,6.01303999617581e-07
4,0.0476790954488899,5.16787535298007e-06
4,0.054652461654679,8.92152122056732e-06
4,0.138416614626834,0.000367073381433086
4,0.109906935987979,0.000145915155627519
4,0.130866162330325,0.000293298247082191
4,0.213767896310807,0.00208818962407484
4,0.150985280211202,0.000519682912593882
4,0.18853928436908,0.00126359359908709
4,0.13125898914816,0.000296835761283081
4,0.236351777412583,0.00312058121996688
4,0.114395393571181,0.000171251406565714
4,0.0249741290972948,3.89010576738347e-07
4,0.0454118556113407,4.25281991838292e-06
4,0.0183412802082687,1.13166682158066e-07
4,0.0429564314560208,3.4049660277049e-06
4,-0.00544470389840389,-8.78814199133137e-10
4,0.0197692194219166,1.52741864254564e-07
4,0.0208900524598203,1.90439977892969e-07
4,0.0318229284035176,1.02555880316558e-06
4,0.06690198871572,2.00334668098999e-05
4,0.0773568320463678,3.58092070344581e-05
4,0.0460461991023589,4.495470459254e-06
4,0.0616463345890209,1.44420563919947e-05
4,0.0921140267250326,7.19951218139525e-05
4,0.0961542892105633,8.54819946170949e-05
4,0.0515040215166333,7.03662752977908e-06
4,0.0166594235374598,7.70264492176812e-08
4,0.0021516539168156,2.1433331138496e-11
4,0.00742360904213816,3.03710892682384e-09
4,0.00771528241836278,3.54329500709604e-09
4,0.00781564761473894,3.73129752633249e-09
4,0.00649562160348282,1.78025768892918e-09
4,0.00740635618938252,3.00897360374789e-09
4,0.0014727273751481,4.7042396530006e-12
4,0.000668888080804265,2.00176839728565e-13
4,0.00794474223350802,3.98399921791199e-09
4,0.0111604508682239,1.55141133303623e-08
4,0.00219888480753957,2.33781378262405e-11
4,0.0213567518245517,2.08037106115277e-07
4,0.050492595347473,6.49996139093046e-06
4,0.056625754907832,1.02814891009597e-05
4,0.0288019895298008,6.88160835832472e-07
4,0.0142469373487397,4.11989414843384e-08
4,0.0314111655765679,9.73500566064475e-07
4,0.0191113998597314,1.33404351678555e-07
4,0.0146824678131567,4.64725207315507e-08
4,0.0165394923475545,7.4832232495623e-08
4,0.0136537319232435,3.47540552121119e-08
4,0.0109856286066465,1.45646365170502e-08
4,0.0349748222755986,1.49631167732695e-06
4,0.0139782672397871,3.81780160892365e-08
4,-0.00655217017540239,-1.84306509475053e-09
4,0.00680072904552228,2.1390546884386e-09
4,0.0123567341378504,2.33138936339305e-08
4,0.018675685807464,1.21648353640393e-07
4,0.0149810863275367,5.03701479473755e-08
4,0.00563856049914748,1.01081802639177e-09
4,0.0120030273837843,2.07569331966545e-08
4,0.00425109150011546,3.26589194141306e-10
4,0.00135403249226695,3.36137019096833e-12
4,-0.00989164620960116,-9.57357841728398e-09
4,0.00956137985149828,8.35761359608251e-09
4,0.00662169510818101,1.92254591341767e-09
4,0.00889145605289033,6.25016589992182e-09
4,0.028921471423864,6.99651127446022e-07
4,0.0092338059299629,7.2698084913535e-09
4,0.0100052809220741,1.00211404270711e-08
4,0.0109545490148975,1.44005145933474e-08
4,0.00325516049220201,1.12276695842084e-10
4,0.00171793948402917,8.7102665496821e-12
4,0.00146907431196371,4.65773803801389e-12
4,-0.0133467576647063,-3.17324131768278e-08
4,0.0149924850088111,5.05236238348629e-08
4,0.0100939634032788,1.03811843483329e-08
4,0.00528311178845978,7.79039002467158e-10
4,0.00186109898479935,1.19971444759533e-11
4,0.00773660864192584,3.58263458556071e-09
4,0.00620676637646785,1.48409463515551e-09
4,-0.00126179302248539,-2.53485128978577e-12
4,0.0109386835806424,1.43172707986707e-08
4,0.00703553317916195,2.45012398601402e-09
4,0.00347006232993539,1.44993690148923e-10
4,-0.00753261074863416,-3.21945309792148e-09
4,-0.0130004643135059,-2.85650806057006e-08
4,-0.00682219034568383,-2.16618393117747e-09
4,-0.00165190103298955,-7.44622404011719e-12
4,-0.00161350245338524,-6.77764036204977e-12
4,0.00815927307841529,4.43206248053427e-09
4,0.00851734300259598,5.26279615134278e-09
4,0.00683311779257803,2.18009605713178e-09
4,-0.00109705552589791,-1.44848645130616e-12
4,0.00388838423287564,2.28600246159549e-10
4,0.0066023167594778,1.90013923947662e-09
4,0.0275279075661268,5.74239159499986e-07
4,0.0157589143767637,6.16744355491759e-08
4,-0.013763648520503,-3.58867636473093e-08
4,0.0107467669352121,1.33386329473128e-08
4,0.0458902075965201,4.43486178538995e-06
4,0.031784592970196,1.02062597534996e-06
4,0.0165188088880874,7.44586083351657e-08
4,0.0217944626128691,2.25623670556521e-07
4,0.0123112590478151,2.2972585603072e-08
4,0.0201352119024534,1.64370856391622e-07
4,-0.00907543716316563,-6.78375596687847e-09
4,-0.00564876005653144,-1.01815174532881e-09
4,-0.00274374791200388,-5.66730816385316e-11
4,0.0120962040669121,2.14090018471091e-08
4,0.0296581702697916,7.73708586602328e-07
4,0.030213600198403,8.33316368213098e-07
4,0.0261504217663909,4.676433802723e-07
4,0.03837576337279,2.16884297622507e-06
4,0.0268039423154126,5.16172304451518e-07
4,-0.00266305728700139,-5.02946784467127e-11
4,0.0152057507103755,5.34603090182584e-08
4,0.0244902089912558,3.59724456467816e-07
4,0.0199302685377908,1.57780236051911e-07
4,0.0282785467105313,6.39482031339332e-07
4,0.0416075660062621,2.99701725444722e-06
4,0.0285270309548848,6.62256597498647e-07
4,0.0722495369939477,2.72483540205871e-05
4,0.0573682954099323,1.08314795313821e-05
4,0.132895700339811,0.000311920358008045
4,0.111580763438437,0.000155009142631826
4,0.0788100230421764,3.85767661101551e-05
4,0.0984121453740245,9.37982634198425e-05
4,0.0685134600193413,2.20345203943542e-05
4,0.123368907206645,0.000231644968370318
4,0.0597111426402132,1.2712223736868e-05
4,0.024134235714391,3.3926120504332e-07
4,0.0255025471360982,4.22994027889518e-07
4,0.0388493869596711,2.27791062458729e-06
4,0.067939538274681,2.13054329565602e-05
4,0.0944371135187997,7.95372950922525e-05
4,0.0562131361472021,9.98507339612749e-06
4,0.0752577599624522,3.20778424354299e-05
4,0.112452676362076,0.000159911311172257
4,0.117385023213652,0.000189867556251434
4,0.0628760381982237,1.56293413521207e-05
4,0.0203378012018619,1.71086598355551e-07
4,0.0146824678131567,4.64725207315507e-08
4,0.0114292831861649,1.70638087089196e-08
4,0.00943513654588097,7.92488116712801e-09
4,0.00759139746764728,3.32113800635877e-09
4,0.0241686467621667,3.4120024726408e-07
4,0.0096594001422928,8.70563848901461e-09
4,-0.0302028750758528,-8.32133766685782e-07
4,0.0313486317186533,9.6577144242332e-07
4,0.0569595855297059,1.05260949170871e-05
4,0.018675685807464,1.21648353640393e-07
4,0.0690567959528569,2.27418451249239e-05
4,0.0259915011064149,4.56378786691267e-07
4,0.0553291393385115,9.37164132453781e-06
4,0.0195958258221097,1.47453227264588e-07
4,0.00624154640642753,1.51764017787684e-09
4,-0.00795381969178527,-4.00223850821432e-09
4,0.00956137985149828,8.3576135960825e-09
4,0.00532446954009812,8.03721132591213e-10
4,0.0071495721484133,2.61288449909535e-09
4,0.0232556001349153,2.92489449872229e-07
4,0.00742485384935981,3.03914651588479e-09
4,-0.0392031625353119,-2.36202457936982e-06
4,-0.0517124035208933,-7.15119951126801e-06
4,-0.0356532516933434,-1.61583339756307e-06
4,-0.0250369202405229,-3.92937631707754e-07
4,0.0160125794508202,6.57423449102687e-08
4,0.0215013141128289,2.13727307874074e-07
4,0.0172996989194052,8.95682686223254e-08
4,0.0260442389434567,4.60094121622045e-07
4,0.0192776779989744,1.38108016298107e-07
4,0.0146312205820461,4.58270848014126e-08
4,0.0624773714688658,1.52367028858496e-05
4,0.0432732368405373,3.50652974016424e-06
4,0.0224895857564719,2.55814892864131e-07
4,0.028899125242768,6.97491289882353e-07
4,0.0167612034258505,7.8926126290309e-08
4,0.0274131493301264,5.64723326932628e-07
4,-0.0123557832614478,-2.33067182517274e-08
4,-0.00769052263814925,-3.49802911274272e-09
4,-0.00373548446375279,-1.94709767370095e-10
4,0.0304363600663681,8.5816510848843e-07
4,0.0921679507679792,7.21638552223197e-05
4,0.0441530755131109,3.80052715729705e-06
4,-0.00978322140543113,-9.16067612279588e-09
4,-0.0109848558866508,-1.45605390916267e-08
4,0.061788865604895,1.45760848562007e-05
4,0.156490766192775,0.000599728748488134
4,0.124258353442816,0.000238397873821029
4,0.287848903054487,0.00686528095586248
4,0.147954391652998,0.000479194078223922
4,0.170700621798774,0.000849063970707481
4,0.213158349146873,0.00206447387936317
4,0.148398512973764,0.000484973709959071
4,0.267214097368546,0.00509844179466189
4,0.129332904414263,0.000279792534494116
4,0.0336288834266552,1.27893888242744e-06
4,0.034010122205776,1.33792808350031e-06
4,0.0137362627643391,3.56019970470326e-08
4,0.0321711910617998,1.07119505628235e-06
4,-0.0040776806511456,-2.76473074281062e-10
4,0.037002556502833,1.87467903183877e-06
4,0.0391004485303398,2.33736726418881e-06
4,0.0595637936534476,1.25872077939807e-05
4,0.1041647489291,0.000117728899839314
4,0.125222173155753,0.000245880985850513
4,0.0861858552764522,5.51752085084446e-05
4,0.115385030139022,0.000177254745624834
4,0.172412193210714,0.000883632957591471
4,0.179974456429938,0.00104916424642653
4,0.0964014018772819,8.63641291096928e-05
4,0.031181871554629,9.45385012485643e-07
4,0.00445320600334516,3.93270294557704e-10
4,0.0153643948474127,5.57265090777511e-08
4,0.0159680614593471,6.50142836939942e-08
4,0.0161757839427522,6.84638550947232e-08
4,0.00649562160348282,1.78025768892918e-09
4,0.0153286871962585,5.52102670282975e-08
4,0.00304805449289283,8.63159208454889e-11
4,0.0013843752444222,3.6729523850023e-12
4,0.00794474223350802,3.983999217912e-09
4,0.0169526717358207,8.25947818470377e-08
4,0.00334009555413542,1.24461653246362e-10
4,0.0340954794480123,1.35141024618931e-06
4,0.0806100694098742,4.22237868405596e-05
4,0.056625754907832,1.02814891009597e-05
4,0.0459816010478833,4.47029677510934e-06
4,0.0227448520056617,2.67628562489411e-07
4,0.0501470803777748,6.32386531526558e-06
4,0.0305108354722335,8.66595441126461e-07
4,0.0165394923475545,7.4832232495623e-08
4,0.0114292831861649,1.70638087089196e-08
4,0.0106284836230933,1.27610153411818e-08
4,0.00855155018360652,5.34785218296027e-09
4,0.0272254741682735,5.49416640821363e-07
4,0.0108811118654222,1.40182273992833e-08
4,-0.0242278588061446,-3.44556253213871e-07
4,0.0251469511143522,3.99890742311371e-07
4,0.0456913056258524,4.35847212407933e-06
4,0.0149810863275367,5.03701479473755e-08
4,0.0690567959528569,2.27418451249239e-05
4,0.020849618368598,1.88969816012782e-07
4,0.0443834096056204,3.88045498274598e-06
4,0.0157191956068927,6.10550052702819e-08
4,0.00500678510529698,6.28399464546102e-10
4,-0.00550838579393907,-9.20656022204348e-10
4,0.00662169510818101,1.92254591341767e-09
4,0.00532446954009812,8.03721132591215e-10
4,0.00495140739684315,6.0105559538225e-10
4,0.0161055722126814,6.72828900385174e-08
4,0.00514205263015052,6.99110894182836e-10
4,0.0100052809220741,1.00211404270711e-08
4,0.0239312299827929,3.27989606441878e-07
4,0.00711120049431962,2.55724120434223e-09
4,0.00375299839663982,1.98387139509159e-10
4,0.00320932930909394,1.06085769094897e-10
4,-0.0271499923250745,-5.43348965617185e-07
4,-0.035813216789303,-1.64502812176758e-06
4,-0.0246915158685557,-3.71698674452335e-07
4,-0.0173392182776432,-9.03895148277568e-08
4,0.0160125794508202,6.57423449102688e-08
4,0.0148906484933837,4.91648193129754e-08
4,0.011980836812971,2.06038609983673e-08
4,0.0180368327884349,1.0583787622421e-07
4,0.0133506782583158,3.17697150378674e-08
4,0.0188308937070655,1.25742974003125e-07
4,0.00968710034416536,8.80592928647321e-09
4,0.0164482986049264,7.31954232700425e-08
4,0.0685800545644039,2.21203149035605e-05
4,0.0186362516540033,1.20624149766627e-07
4,-0.034289266784042,-1.38239703721938e-06
4,0.0345472864857327,1.42447806364475e-06
4,0.0847050280637912,5.14797895361676e-05
4,0.0862913601693298,5.5445877162926e-05
4,0.0746867453201685,3.11153103523377e-05
4,0.045382592133651,4.24186841200795e-06
4,0.0765532285165892,3.43442506102372e-05
4,-0.00760580778176648,-3.34642720277418e-09
4,0.0307889317558918,8.98624973933682e-07
4,0.0495883029836073,6.04667998096114e-06
4,0.0403552372766398,2.65215938914559e-06
4,0.0572590108446442,1.07491807341986e-05
4,0.049204472609267,5.86162897048903e-06
4,0.0333355017487489,1.23488917931099e-06
4,0.0822003506164745,4.56556657373209e-05
4,0.048358769667939,5.46891246894241e-06
4,-0.0107150984400896,-1.31821017975654e-08
4,-0.0120311917003451,-2.09524390951476e-08
4,0.0389220840607986,2.29500874683071e-06
4,0.0985767694044124,9.44274636903332e-05
4,0.0782729061394932,3.75358137005053e-05
4,0.181321975922598,0.00108094045819527
4,0.0931995305740988,7.5449245239921e-05
4,0.15224002319019,0.000537174472134265
4,0.134272851630058,0.00032505200521843
4,0.0934792917772027,7.63592499165187e-05
4,0.168323685152508,0.000802751124831626
4,0.0814694707235473,4.40534149119453e-05
4,0.054536226168815,8.84586543023646e-06
4,0.0303320617039822,8.46462500827866e-07
4,0.0222762059425527,2.46243568987429e-07
4,0.0521722749342255,7.40899150663351e-06
4,-0.00661280695566631,-1.91224431736111e-09
4,0.00891094059883286,6.30513216576383e-09
4,0.0196435772837903,1.4889575607188e-07
4,0.0207572869317229,1.85644614415779e-07
4,0.0316206796105467,9.9973477565401e-07
4,0.0552980250345334,9.35057855524834e-06
4,0.066476796970525,1.9529015191471e-05
4,0.0768651951451045,3.49075152496761e-05
4,0.0612545448516462,1.40783989786516e-05
4,0.0915286013209153,7.01822525755592e-05
4,0.0955431861503666,8.33295199136242e-05
4,0.051176690667228,6.85944211402644e-06
4,0.0165535455283929,7.5086888913995e-08
4,0.0173422437135468,9.04526178492376e-08
4,0.0410013143121663,2.82612335225834e-06
4,0.0288019895298008,6.88160835832474e-07
4,0.0459816010478833,4.47029677510935e-06
4,0.0115688875210621,1.79129203412924e-08
4,0.0255066918991482,4.23269080802601e-07
4,0.0155189589127261,5.8002983540442e-08
4,0.0136537319232435,3.47540552121119e-08
4,0.00943513654588097,7.92488116712802e-09
4,0.0106284836230933,1.27610153411818e-08
4,0.00705950166314454,2.48368308460777e-09
4,0.0224752560698612,2.55163525566012e-07
4,0.00898260849337772,6.51043317515789e-09
4,-0.00911884790304869,-6.91448578269929e-09
4,0.00946477459159624,8.02492721160612e-09
4,0.0171972302557827,8.74649444180353e-08
4,0.00563856049914748,1.01081802639177e-09
4,0.0259915011064149,4.56378786691267e-07
4,0.020849618368598,1.88969816012782e-07
4,0.0167049661652196,7.7872192300475e-08
4,0.00591636904624739,1.22523960011241e-09
4,0.00188444683551126,1.26105944179827e-11
4,-0.00739653055735888,-2.99303794795208e-09
4,0.00889145605289033,6.25016589992183e-09
4,0.00714957214841331,2.61288449909536e-09
4,0.00495140739684315,6.0105559538225e-10
4,0.0216261826007036,2.18735595354061e-07
4,0.00690462702309347,2.27279829344504e-09
4,-0.0364563695021928,-1.76641876428391e-06
4,-0.0480891430354901,-5.34796001454478e-06
4,-0.0331551852868103,-1.20838642338495e-06
4,-0.0232826934475829,-2.9385486158956e-07
4,0.0215013141128289,2.13727307874074e-07
4,0.0148906484933837,4.91648193129752e-08
4,0.0160875851664885,6.69828213308045e-08
4,0.0242194337630497,3.44077236481059e-07
4,0.0179269759586836,1.03282833556326e-07
4,0.00826488590110648,4.6660291712432e-09
4,0.0352922262155527,1.55137295874312e-06
4,0.0244441919970414,3.57028384597003e-07
4,0.012703920305082,2.60466001211951e-08
4,0.0163245418544473,7.1017275468912e-08
4,0.0167612034258505,7.89261262903091e-08
4,0.0154851435758892,5.74990865896827e-08
4,-0.00697953655349694,-2.37304702491471e-09
4,-0.00434422348892584,-3.56162866406296e-10
4,-0.00211010097928243,-1.98249890520384e-11
4,0.017905822967195,1.02796220062283e-07
4,0.0441530755131109,3.80052715729705e-06
4,0.0542227456273326,8.64422413426093e-06
4,-0.0057555052625393,-1.09732133050353e-09
4,-0.00646243126305575,-1.74414965824554e-09
4,0.0544966232262783,8.82019875575501e-06
4,0.138021927415409,0.000362904498251141
4,0.109593542525798,0.000144257984966133
4,0.253877346060471,0.00415428032576578
4,0.130493004810042,0.000289967234289105
4,0.213158349146873,0.00206447387936317
4,0.150554754154966,0.000513780830166116
4,0.130884711504244,0.0002934645726445
4,0.235677833578645,0.00308514051730676
4,0.114069201524004,0.000169306489977296
4,0.0246974287518319,3.72054845451175e-07
4,0.0137362627643391,3.56019970470326e-08
4,0.0249774147824507,3.89215335596568e-07
4,0.0236268831477346,3.11620294440305e-07
4,-0.00299469435475123,-8.04285086147482e-11
4,0.0294876602166893,7.56068691179142e-07
4,0.0311594886827491,9.42673480754112e-07
4,0.0474669070050709,5.07649232789483e-06
4,0.0830097975187983,4.74807333435443e-05
4,0.099790642663557,9.91651968153143e-05
4,0.115385030139022,0.000177254745624834
4,0.0686822602563205,2.22524746764777e-05
4,0.137396781495962,0.000356374185864578
4,0.143423215054966,0.000423133893938959
4,0.0768231184986411,3.48311433327044e-05
4,0.0248491055814738,3.81279140007936e-07
4,0.00857836086003135,5.41523422408648e-09
4,0.0202813474262609,1.69194880839686e-07
4,0.0142469373487397,4.11989414843385e-08
4,0.0227448520056617,2.67628562489412e-07
4,0.0115688875210621,1.79129203412924e-08
4,0.0126169145740706,2.53403524061652e-08
4,0.00767647092984704,3.47253345492834e-09
4,0.0109856286066465,1.45646365170502e-08
4,0.00759139746764729,3.32113800635878e-09
4,0.00855155018360652,5.34785218296028e-09
4,0.00705950166314454,2.48368308460777e-09
4,0.0180833209126109,1.06933247921608e-07
4,0.00722729883535857,2.72837492448001e-09
4,-0.0194116532234436,-1.41987495012362e-07
4,0.0201480410862759,1.64790173592298e-07
4,0.036608426160651,1.79607403205393e-06
4,0.0120030273837843,2.07569331966546e-08
4,0.0553291393385116,9.37164132453786e-06
4,0.0443834096056204,3.880454982746e-06
4,0.0167049661652196,7.78721923004754e-08
4,0.0125944094570624,2.51600346109896e-08
4,0.00401149672391513,2.58955874420388e-10
4,-0.0594277257962222,-1.24725841664545e-05
4,0.0149924850088111,5.0523623834863e-08
4,0.0449443456153707,4.08037657932092e-06
4,0.0235235647939883,3.06205187518416e-07
4,0.0082867227327243,4.71553781301171e-09
4,-0.029332356746801,-7.40266051880074e-07
4,-0.038691946521995,-2.24120878108112e-06
4,-0.0266762636027296,-5.06407350777488e-07
4,-0.0187329753224558,-1.23147909551818e-07
4,0.0172996989194052,8.95682686223256e-08
4,0.011980836812971,2.06038609983673e-08
4,0.0160875851664885,6.69828213308048e-08
4,0.0194866653219696,1.44194968113859e-07
4,0.0144238293991343,4.32834936820451e-08
4,-0.0435964471463283,-3.61247119713884e-06
4,-0.0280403257055875,-6.18204576371946e-07
4,-0.0138300361141454,-3.65841742323187e-08
4,-0.0195319735987349,-1.4554071840489e-07
4,0.051813735276563,7.20741630043231e-06
4,0.0271900415287752,5.46562062639072e-07
4,0.00658370045579697,1.87879870756259e-09
4,0.0064306617803593,1.71010459582449e-09
4,0.0129336407812962,2.79822852057466e-08
4,0.0552284667575498,9.30361963006476e-06
4,0.0382524819170754,2.14110750655219e-06
4,0.0198802432007136,1.56202065285658e-07
4,0.0255461191831323,4.25892248799786e-07
4,0.026229446693651,4.73321810684645e-07
4,0.0148164934672774,4.81927529453526e-08
4,-0.0109222098989618,-1.42312180701861e-08
4,-0.006798233726604,-2.13591697387992e-09
4,-0.00330207681084218,-1.18890919343982e-10
4,0.0258876153817412,4.49125992841101e-07
4,0.0634727473696264,1.62311461136325e-05
4,0.0646614472529834,1.74816202967905e-05
4,0.0559656613772274,9.8103965313416e-06
4,0.0340069281756058,1.33742555302662e-06
4,0.0821296496553824,4.54987935434767e-05
4,-0.00569932537547164,-1.05510044575263e-09
4,0.036301702339193,1.73663266516647e-06
4,0.0919402089283915,7.1453243112868e-05
4,0.0730032784334203,2.84033428090063e-05
4,0.169114695585532,0.000817947431091159
4,0.086924986127889,5.70924289620877e-05
4,0.141990649764007,0.000406479816902733
4,0.100288670151008,0.000101159690060346
4,0.125233096061737,0.000245966788109076
4,0.156991498849278,0.000607441617513173
4,0.0759846382151081,3.33352103576358e-05
4,0.0421588756128972,3.15904693560944e-06
4,0.0445491096236249,3.93872911998544e-06
4,0.0678640290023126,2.12108737197812e-05
4,0.118680142898083,0.000198386557887335
4,0.142671926509885,0.000414337367455282
4,0.164967416793152,0.000740615327047962
4,0.098195884165812,9.29764884548004e-05
4,0.131463974194567,0.000298694363930199
4,0.205053959489194,0.00176796083027282
4,0.1098349707362,0.000145533359458846
4,0.035527076194,1.59308104264363e-06
4,0.00507757869205105,6.6470148834131e-10
4,0.0175185975755174,9.41883840113219e-08
4,0.0182069027479163,1.09886487062148e-07
4,0.0184437494724571,1.15716917877633e-07
4,0.00740635618938251,3.00897360374789e-09
4,0.0153286871962585,5.52102670282974e-08
4,0.00347541446178266,1.45890299490008e-10
4,0.00157847497681465,6.20798710378968e-12
4,0.0111604508682239,1.55141133303623e-08
4,0.0169526717358207,8.25947818470376e-08
4,0.00469203043112976,4.84666810441871e-10
4,0.0189132798688014,1.27957986117772e-07
4,0.0447156288069543,3.99795010110294e-06
4,0.0314111655765678,9.73500566064472e-07
4,0.0501470803777748,6.32386531526556e-06
4,0.0255066918991482,4.23269080802598e-07
4,0.0126169145740705,2.53403524061651e-08
4,0.0169248234563526,8.20534014286664e-08
4,0.0349748222755986,1.49631167732695e-06
4,0.0241686467621667,3.41200247264081e-07
4,0.0272254741682735,5.49416640821363e-07
4,0.0224752560698612,2.55163525566013e-07
4,0.0180833209126109,1.06933247921608e-07
4,0.0230094700403739,2.80302172652662e-07
4,-0.0240588882043514,-3.35044286552392e-07
4,0.028921471423864,6.99651127446022e-07
4,0.0232556001349153,2.92489449872229e-07
4,0.0161055722126814,6.72828900385172e-08
4,0.0216261826007036,2.1873559535406e-07
4,0.0224588607257327,2.54419788838901e-07
4,0.0109545490148975,1.44005145933474e-08
4,0.0239312299827929,3.27989606441877e-07
4,0.00778588777031947,3.67479026462486e-09
4,0.00410907052076054,2.8508500788159e-10
4,0.00351381990123358,1.52446687791206e-10
4,-0.0400107980081099,-2.56276540960858e-06
4,0.0100939634032788,1.03811843483329e-08
4,0.0449443456153706,4.0803765793209e-06
4,0.0158376681387794,6.29165578152978e-08
4,0.00557918690251009,9.68910454610542e-10
4,-0.0441590868978351,-3.80259732765992e-06
4,-0.0582497016335896,-1.15126372471389e-05
4,-0.0401604089542162,-2.60131237125241e-06
4,-0.0282019986412971,-6.32585960924914e-07
4,0.0260442389434567,4.60094121622044e-07
4,0.0180368327884349,1.0583787622421e-07
4,0.0242194337630497,3.44077236481059e-07
4,0.0194866653219696,1.44194968113858e-07
4,0.0217146934811293,2.22338572718709e-07
4,-0.0752427112238952,-3.20521926530513e-05
4,-0.0483945428536411,-5.48511284922227e-06
4,-0.0238691334195182,-3.24598574370864e-07
4,-0.0337100554132225,-1.29133185861017e-06
4,0.051813735276563,7.20741630043228e-06
4,0.0469270451339439,4.84945389804954e-06
4,0.0113627486780624,1.66699233972565e-08
4,0.0110986206214023,1.51731595827387e-08
4,-0.0172915111701571,-8.93988224247652e-08
4,-0.0293602759290576,-7.43088484400579e-07
4,-0.122415659735023,-0.000224568019990914
4,-0.0332657804911818,-1.22459045426242e-06
4,-0.0700793511277654,-2.41190550073171e-05
4,-0.0141021954771204,-3.95500394806004e-08
4,-0.0602183598018994,-1.31496952795687e-05
4,-0.0417085944013321,-3.02623198190255e-06
4,-0.0216764235600689,-2.2077531565329e-07
4,-0.027854211547558,-6.01954241072992e-07
4,-0.0285992777119256,-6.68990976325356e-07
4,-0.0161551639398541,-6.81154261581211e-08
4,-0.0264219644785693,-4.87371823291562e-07
4,0.00741245427585738,3.01889570573339e-09
4,0.00360041951484414,1.68039905224528e-10
4,0.0520887443523105,7.36165658208083e-06
4,0.131923566388745,0.000302893207080407
4,0.104751261295354,0.000120402926731184
4,0.242660029060484,0.00346731246662986
4,0.124727301709907,0.000242017131133167
4,0.203740160361313,0.00172308449541814
4,0.143902642694777,0.00042882004531604
4,0.17969500890776,0.00104266323038608
4,0.125101701235004,0.00024493613609402
4,0.109029167770361,0.000141309314091944
4,0.0441029427388505,3.78329558633877e-06
4,0.0245292583381384,3.62024255132461e-07
4,0.0446029222306486,3.95779460824439e-06
4,0.018014562138607,1.05316118028436e-07
4,-0.00534771594950573,-8.17849371882239e-10
4,0.0350686456314026,1.51243240593097e-06
4,0.0370568929050727,1.88571479964438e-06
4,0.0564507366385567,1.01549655404907e-05
4,0.0987206564281301,9.49799940189941e-05
4,0.118677530166248,0.000198369088620901
4,0.137223391187339,0.000354578657357114
4,0.0816814161718218,4.45136324324914e-05
4,0.109354518053483,0.000143003584525666
4,0.163401199205696,0.00071288743156162
4,0.0913630548890857,6.96758780341121e-05
4,0.0295521744177183,7.62707057944899e-07
4,0.00100965831888726,1.03919658682579e-12
4,0.00348351032058836,1.47254442633267e-10
4,0.00362037733642284,1.71796910788056e-10
4,0.00366747345845994,1.80912226323599e-10
4,0.0014727273751481,4.7042396530006e-12
4,0.00304805449289283,8.6315920845489e-11
4,0.00347541446178266,1.45890299490009e-10
4,0.000313874090024693,9.70558833171163e-15
4,0.00219888480753957,2.33781378262405e-11
4,0.00334009555413542,1.24461653246362e-10
4,0.00469203043112976,4.84666810441871e-10
4,0.0115073493006994,1.7534814847765e-08
4,0.0272061939257207,5.47861973452133e-07
4,0.0191113998597314,1.33404351678555e-07
4,0.0305108354722335,8.66595441126463e-07
4,0.0155189589127261,5.8002983540442e-08
4,0.00767647092984704,3.47253345492834e-09
4,0.0169248234563526,8.20534014286668e-08
4,0.0139782672397871,3.81780160892365e-08
4,0.0096594001422928,8.70563848901463e-09
4,0.0108811118654222,1.40182273992833e-08
4,0.00898260849337772,6.51043317515790e-09
4,0.00722729883535857,2.72837492448001e-09
4,0.0230094700403739,2.80302172652662e-07
4,-0.00687499173190694,-2.23402855975389e-09
4,0.00713579695082228,2.59280547304496e-09
4,0.0129655431340924,2.82593948339709e-08
4,0.00425109150011546,3.26589194141306e-10
4,0.0195958258221097,1.47453227264588e-07
4,0.0157191956068927,6.10550052702817e-08
4,0.00591636904624738,1.22523960011241e-09
4,0.0125944094570624,2.51600346109894e-08
4,0.00142074487381533,4.07440682801553e-12
4,-0.00768132095749274,-3.48131762218302e-09
4,0.0092338059299629,7.2698084913535e-09
4,0.00742485384935982,3.03914651588479e-09
4,0.00514205263015051,6.99110894182835e-10
4,0.00690462702309346,2.27279829344504e-09
4,0.0224588607257327,2.54419788838901e-07
4,0.00325516049220201,1.12276695842084e-10
4,0.00711120049431962,2.55724120434223e-09
4,0.00778588777031947,3.67479026462487e-09
4,0.00122101640155716,2.22272631381148e-12
4,0.00104413679683697,1.18858324723851e-12
4,-0.0209413795332036,-1.92318539125011e-07
4,0.00528311178845979,7.79039002467159e-10
4,0.0235235647939883,3.06205187518415e-07
4,0.0158376681387795,6.2916557815298e-08
4,0.0029201084764283,7.2710300550728e-11
4,-0.0326861022813288,-1.14143856446618e-06
4,-0.0431158304938986,-3.45578745269908e-06
4,-0.0297263219634611,-7.80844776061976e-07
4,-0.0208748295511637,-1.89885477983003e-07
4,0.0192776779989744,1.38108016298107e-07
4,0.0133506782583158,3.17697150378674e-08
4,0.0179269759586836,1.03282833556327e-07
4,0.0144238293991343,4.3283493682045e-08
4,0.0217146934811293,2.2233857271871e-07
4,0.0188308937070655,1.25742974003125e-07
4,-0.0394847511378079,-2.43062309686563e-06
4,-0.025395768572427,-4.1595413220396e-07
4,-0.0125256889021499,-2.46153765708247e-08
4,-0.0176898616116069,-9.79259383353765e-08
4,0.0271900415287752,5.46562062639069e-07
4,0.0469270451339438,4.84945389804953e-06
4,0.00596277428732881,1.26413507091208e-09
4,0.00582416909333595,1.15063055228211e-09
4,-0.0087775296207075,-5.93593606869174e-09
4,-0.0374812870612347,-1.97359475559017e-06
4,-0.0259603849194781,-4.54197260218036e-07
4,-0.0134919027450865,-3.31354450330191e-08
4,-0.0173370995542368,-9.03453432212072e-08
4,-0.0178008458083384,-1.00406667557104e-07
4,-0.0100553442362587,-1.02232215258502e-08
4,-0.0164456361581566,-7.31480429029529e-08
4,0.00741245427585738,3.01889570573339e-09
4,0.00224098361065769,2.5220559764323e-11
4,0.0252112020313243,4.03993344659197e-07
4,0.0638516387038221,1.66221880141516e-05
4,0.050700112747795,6.60747761519979e-06
4,0.117448617616745,0.000190279340628572
4,0.0603686120932749,1.32814277847875e-05
4,0.0986112145461159,9.45595139725488e-05
4,0.0696495690754458,2.3532807111082e-05
4,0.0869732459464289,5.72193230015862e-05
4,0.0605498232586626,1.34416170796918e-05
4,0.109029167770361,0.000141309314091945
4,0.0187841467498522,1.24499007681971e-07
4,0.0198491302384124,1.552265214672e-07
4,0.0302372361995748,8.35927032426603e-07
4,0.0528786687994362,7.81847503308786e-06
4,0.0635683557894975,1.63291626066933e-05
4,0.0735022488369834,2.91878769676277e-05
4,0.0437517811276216,3.66423189851839e-06
4,0.0585745835886115,1.17716364041084e-05
4,0.0875241130565118,5.86828062334056e-05
4,0.0913630548890858,6.96758780341122e-05
4,0.0158293076634407,6.27838120195034e-08
4,0.0151137877712032,5.21787028127675e-08
4,0.0128200609462821,2.70122250441444e-08
4,0.000458569879656546,4.42203424893141e-14
4,0.00158215198014221,6.26603471264838e-12
4,0.00164431468390653,7.31037642921696e-12
4,0.00166570495288251,7.69825527715572e-12
4,0.000668888080804265,2.00176839728565e-13
4,0.0013843752444222,3.6729523850023e-12
4,0.00157847497681465,6.20798710378969e-12
4,0.000313874090024693,9.70558833171162e-15
4,0.00171793948402917,8.7102665496821e-12
4,0.00375299839663982,1.98387139509159e-10
4,0.00410907052076054,2.8508500788159e-10
4,0.00122101640155715,2.22272631381148e-12
4,0.000551052347283975,9.22085996767783e-14
4,-0.00737708792660346,-2.96169163800537e-09
4,0.00186109898479935,1.19971444759533e-11
4,0.00828672273272429,4.7155378130117e-09
4,0.00557918690251009,9.68910454610544e-10
4,0.0029201084764283,7.27103005507279e-11
4,-0.0025754011075463,-4.39925881073474e-11
4,-0.00206613953736936,-1.82237854398712e-11
4,-0.00291798102059362,-7.24986385679401e-11
4,-0.00956069794111587,-8.35522961640054e-09
4,-0.00614924155039103,-1.42983594985843e-09
4,-0.00303292599413584,-8.46149794300156e-11
4,-0.00428336050285422,-3.3661891111322e-10
4,0.00658370045579697,1.87879870756259e-09
4,0.0113627486780624,1.66699233972565e-08
4,0.00596277428732881,1.26413507091208e-09
4,0.00141024369800445,3.95527487596084e-12
4,-0.00214502667532792,-2.11704841267073e-11
4,-0.00223916123016125,-2.51386217756271e-11
4,-0.00179638796249046,-1.04135916799264e-11
4,-0.00253701450718279,-4.14277934673943e-11
4,-0.00614868460247757,-1.42931800893229e-09
4,-0.0150756992744814,-5.16547022786858e-08
4,-0.0153580327595084,-5.56342654707121e-08
4,-0.0132926573306686,-3.12210307586772e-08
4,-0.00807713930261753,-4.25628099690837e-09
4,-0.0195069845096316,-1.44797330889267e-07
4,-0.0136248517707545,-3.44609419782109e-08
4,-0.00796237807332266,-4.01949210935141e-09
4,-0.0196340308389873,-1.486065237698e-07
4,-0.0241118211460827,-3.38002610193983e-07
4,-0.011550772811491,-1.78009904726128e-08
4,0.00287371996716277,6.81989647537454e-11
4,0.00824124389385613,4.61286843231048e-09
4,0.0010027719749504,1.0111340881291e-12
4,0.0163500467572087,7.14621364609639e-08
4,0.0134225824821214,3.24596868394475e-08
4,-0.00218978165697347,-2.29934031536866e-11
4,0.00227285179097425,2.6686060605857e-11
4,0.00412970802509732,2.90855573649553e-10
4,0.00135403249226695,3.36137019096834e-12
4,0.00624154640642753,1.51764017787684e-09
4,0.00500678510529699,6.28399464546103e-10
4,0.00188444683551126,1.26105944179827e-11
4,0.00401149672391513,2.58955874420388e-10
4,0.00142074487381533,4.07440682801555e-12
4,0.00146907431196371,4.65773803801389e-12
4,0.00320932930909394,1.06085769094897e-10
4,0.00351381990123358,1.52446687791206e-10
4,0.00104413679683697,1.18858324723851e-12
4,0.000551052347283976,9.22085996767784e-14
4,-0.00933845870666229,-7.60502788758674e-09
4,-0.0060063019090546,-1.30145343366781e-09
4,-0.00296242537218935,-7.70175456350975e-11
4,-0.00418379342470721,-3.06394476757417e-10
4,0.0064306617803593,1.71010459582448e-09
4,0.0110986206214023,1.51731595827388e-08
4,0.00582416909333595,1.15063055228211e-09
4,0.00141024369800445,3.95527487596084e-12
4,-0.0042634716872992,-3.30410266412136e-10
4,-0.0182056242581187,-1.09855625370282e-07
4,-0.0126096260426704,-2.52818487287682e-08
4,-0.00655336385601783,-1.84440854725336e-09
4,-0.00842107475376632,-5.02886631145844e-09
4,-0.00864632822597209,-5.58890685364293e-09
4,-0.00488413908125102,-5.69052177930705e-10
4,-0.00798806807492984,-4.07161803351729e-09
4,0.00360041951484414,1.68039905224529e-10
4,0.00224098361065769,2.52205597643231e-11
4,-0.00894036555299886,-6.38882667634736e-09
4,-0.0220456013722229,-2.36204300819723e-07
4,-0.0270733809936447,-5.37242028080708e-07
4,-0.0129695086572643,-2.82939833448721e-08
4,0.00287371996716278,6.81989647537455e-11
4,-0.0155020528881934,-5.77506473716062e-08
4,-0.00862196117655006,-5.52617013949886e-09
4,-0.0156777941889669,-6.0414312224321e-08
4,-0.00633206488473902,-1.60761269004955e-09
4,-0.014830094088729,-4.83699485656069e-08
4,0.0057526297500389,1.09513003909276e-09
4,0.00607878008208098,1.36541832491429e-09
4,0.00926012913107142,7.35306104638624e-09
4,0.0161940495530085,6.87736153729297e-08
4,0.0194677575481888,1.43636136679101e-07
4,0.0225100042597208,2.56745185682485e-07
4,0.013398947585092,3.22316659143179e-08
4,0.0179384188504936,1.03546790255131e-07
4,0.0268041888364516,5.16191294059357e-07
4,0.0279798616678464,6.12889600134296e-07
4,0.0149871150752043,5.04512775156725e-08
4,0.000877632364218101,5.93267449667585e-13
4,0.0121379742410856,2.17062522676159e-08
4,0.0117475289417411,1.90452244211044e-08
4,0.00325893234743949,1.1279799496944e-10
4,0.00542162026293189,8.64005253401334e-10
4,0.000789779399936036,3.89065934455e-13
4,0.00408657024607225,2.78891882964351e-10
4,0.00236258160218927,3.11564e-11
4,-0.00143497897955516,-4.24015914544573e-12
4,-0.00326169549730352,-1.13181033766787e-10
4,-0.00134002065756779,-3.22437818162344e-12
4,0.00349255732443386,1.48790146787962e-10
4,0.00283305906502427,6.44202663353128e-11
4,0.00196038903356992,1.47696110180317e-11
4,0.00152764112271353,5.44609688001079e-12
4,0.00184424247994467,1.156836772256e-11
4,-0.00625338039586798,-1.52918275327665e-09
4,-0.00182139795845803,-1.10057433706929e-11
4,-0.00484719410119747,-5.5202868294806e-10
4,-0.00223664733538048,-2.50259197434967e-11
4,0.000788833883552425,3.87206133452514e-13
4,0.00424822860805125,3.2571031817752e-10
4,0.00321684371948886,1.07082832446141e-10
4,0.001376379277431,3.58882681564246e-12
4,0.00183640786549395,1.13730402690503e-11
4,-0.00100358181167724,-1.0144044069325e-12
4,-0.000346707617665592,-1.44495238223185e-14
4,0.00333563977173745,1.2379883950934e-10
4,0.0103146506417488,1.13192614646051e-08
4,0.0114878325968893,1.74161594945985e-08
4,0.00818578636899683,4.48995124655489e-09
4,0.00516456738037985,7.11435924717421e-10
4,0.0114081984138331,1.69382392792087e-08
4,-0.00311419319495948,-9.40550687999999e-11
4,0.00111613208488723,1.55189513272472e-12
4,0.00226715048597201,2.64193052325453e-11
4,0.000526735957033816,7.69789289036903e-14
4,0.00201709549131669,1.65541099173633e-11
4,0.00235622349964402,3.08223631022152e-11
4,0.00210234991131529,1.95352963381171e-11
4,0.00329238062446099,1.1750061747557e-10
4,0.00220944493627592,2.38304767143754e-11
4,0.00705735246251092,2.48065992723429e-09
4,0.00245359902966502,3.62421843303754e-11
4,0.00612638289901164,1.40869361753486e-09
4,0.0116839370759638,1.86361774744027e-08
4,0.0062356290135631,1.51189307000683e-09
4,0.0065801843887228,1.87478838403550e-09
4,0.0143949389749415,4.29377529010239e-08
4,0.00386709214822675,2.23634129692833e-10
4,-0.00112190429312771,-1.58424826311908e-12
4,-0.0016782247780337,-7.93232529257399e-12
4,-0.000571330810558586,-1.06549295074082e-13
4,-0.00193227111877692,-1.39403041875952e-11
4,-0.00042530230720658,-3.27183169221262e-14
4,-0.00102272884409085,-1.09406221227716e-12
4,0.000731932533346673,2.87001525670711e-13
4,-0.00153499031295848,-5.55165610737625e-12
4,-0.000781829342739394,-3.73635268178973e-13
4,-0.00477211248096198,-5.18612149308098e-10
4,-0.000845660524790632,-5.11427684245971e-13
4,0.0025553166315992,4.26362388531073e-11
4,-0.00146340068477931,-4.58620027124999e-12
4,-0.00560741559859777,-9.88669147316805e-10
4,-0.00162898036112617,-7.04147098480423e-12
4,-0.00291023456534006,-7.17318412025668e-11
4,0.00344981055372916,1.4163839141049e-10
4,0.0104465974933179,1.19096622885986e-08
4,0.00152177893314575,5.36298114984349e-12
4,0.00787416905251855,3.84431475163027e-09
4,0.00455231791350921,4.29467530049999e-10
4,-0.00276497561315335,-5.84474032691034e-11
4,-0.00628476697991217,-1.5601153862554e-09
4,-0.00258200607262222,-4.44456270175286e-11
4,0.00369711912761937,1.86833082046247e-10
4,0.00573728710109493,1.08349355488928e-09
4,0.00397002478849917,2.48412173010327e-10
4,0.00309365795321724,9.15986723507178e-11
4,0.00373481397620888,1.94570010045303e-10
4,-0.0126638512858347,-2.57195406302575e-08
4,-0.00368855105847656,-1.85107151635207e-10
4,-0.00981615404233213,-9.28464835856122e-09
4,-0.00452948124710801,-4.2091447753595e-10
4,0.00263098566471226,4.79152686096261e-11
4,0.000830043511322217,4.74682734659357e-13
4,0.0023075902932397,2.83553370402171e-11
4,0.00278583495941847,6.02312028238667e-11
4,-0.00292894595141335,-7.35945120961095e-11
4,-0.00113945670315963,-1.68574278820147e-12
4,0.00125382286844307,2.47140969854764e-12
4,0.00104656829784749,1.19969348565836e-12
4,0.00470527023558793,4.90160470779835e-10
4,0.00132761786834329,3.10665020010321e-12
4,0.00255809103342241,4.28217076042844e-11
4,-0.00312227228783123,-9.50348946718762e-11
4,0.000835036498611711,4.86207701664804e-13
4,0.00848829532076867,5.19136929025695e-09
4,0.0064275070884914,1.70675135803234e-09
4,0.00275011419067201,5.72009060782122e-11
4,0.00366928753837606,1.81270437853996e-10
4,-0.00200523549507759,-1.61681948410996e-11
4,-0.000692749124453474,-2.30305305185747e-13
4,0.00353101079162315,1.55451951883887e-10
4,0.00824847372787325,4.62907675485625e-09
4,0.00918665000461734,7.12243809610836e-09
4,0.006546052421142,1.83619125778274e-09
4,0.00413002823192779,2.90945792883843e-10
4,0.00912296772495574,6.92698988893911e-09
4,-0.0024903742884102,-3.846435865272e-11
4,0.00118150481056318,1.94868650188729e-12
4,0.00559869912307261,9.82536099160324e-10
4,0.0013007677077385,2.86285259422339e-12
4,0.00498119151254608,6.15648687204722e-10
4,0.00581866379088827,1.14628617758076e-09
4,0.00519172621213378,7.26519251397641e-10
4,0.008130491835035,4.36985747078457e-09
4,0.00127259239157895,2.62275237881799e-12
4,0.0088029694220597,6.00505200982922e-09
4,-0.00367566690428537,-1.82534344985743e-10
4,0.00233885384734568,2.99234963288464e-11
4,0.0110235639923394,1.47668583912471e-08
4,0.00383251453838132,2.15742269998617e-10
4,0.00956939224554485,8.38566340287654e-09
4,0.0182502756839113,1.10937331916138e-07
4,0.00974003435830168,8.99998852014754e-09
4,0.0102782288508049,1.11602296939884e-08
4,0.0224848527544891,2.55599612734783e-07
4,0.00604038667286343,1.33124798299366e-09
4,0.00275320564203158,5.74585422388562e-11
4,0.00458526788365099,4.42037234902976e-10
4,0.00660160024969017,1.89931453093834e-09
4,0.00824019455236258,4.6105194908648e-09
4,0.00518731685733701,7.24054250563084e-10
4,0.0151378833013945,5.25122481513832e-08
4,0.00450051963202479,4.10251938682681e-10
4,0.00540522945900764,8.53604193895884e-10
4,0.0098387516783406,9.37044029731686e-09
4,0.00238435247136832,3.23207793854678e-11
4,0.0123373993629509,2.31683173041485e-08
4,0.00713265917349268,2.58824801060001e-09
4,-0.00433221691594011,-3.52241705486749e-10
4,-0.00984709365738891,-9.40226038581288e-09
4,-0.00404553672432469,-2.67857981474399e-10
4,0.00287942595844981,6.87422372327351e-11
4,0.00259898116127466,4.56260136538477e-11
4,0.00313761615272874,9.69168406826447e-11
4,-0.00521442621827901,-7.39309193993891e-10
4,-0.00162500715079702,-6.97302312816215e-12
4,0.00282449407644361,6.3644762921563e-11
4,0.00540345726262797,8.52485269740778e-10
4,0.00303298625534705,8.46217044910655e-11
4,0.00236346686752053,3.12031237821592e-11
4,0.00285329187085552,6.62803504890753e-11
4,-0.00967482293837667,-8.76137163684457e-09
4,-0.00281794831481001,-6.30568240478542e-11
4,-0.00749926307186053,-3.16281911703643e-09
4,-0.00346039511041045,-1.43384682410784e-10
4,0.00247789910934498,3.76994034722738e-11
4,0.00102919767291484,1.12200600758838e-12
4,0.0028612554973895,6.70234162385281e-11
4,0.00345424645605751,1.42368294606606e-10
4,-0.00363169438248615,-1.73955104469151e-10
4,-0.00141284905102265,-3.98458464466408e-12
4,0.00118086791983005,1.9444881365461e-12
4,0.00211076569127883,1.98499814790984e-11
4,0.00948979918644712,8.11013511624304e-09
4,0.00267759901899505,5.14022537183695e-11
4,0.00515927226118106,7.0852272935528e-10
4,-0.00629713821595731,-1.57243572767221e-09
4,0.004235385236741,3.2178935544313e-10
4,0.00799439529348029,4.08453361790504e-09
4,0.0326009326261836,1.12958807012388e-06
4,0.0139488430288846,3.78575712286035e-08
4,0.0186109784365511,1.19971150514899e-07
4,-0.010170746819044,-1.07006799332505e-08
4,-0.00351369002355408,-1.52424150125756e-10
4,0.010283467082588,1.1182998043072e-08
4,0.00776852796192938,3.64212572212084e-09
4,0.0267545523071916,5.12378328643789e-07
4,0.0190642619256242,1.3209305507999e-07
4,0.0120280032771198,2.09302372407025e-08
4,0.0265690885220914,4.98318055409471e-07
4,-0.00725279063970733,-2.76707266990561e-09
4,0.00226029636906964,2.61012646133076e-11
4,0.0052729331659317,7.7305263860876e-10
4,0.00248845413113717,3.83458668381748e-11
4,0.00952934680315158,8.24617468125476e-09
4,0.011131486323033,1.53536850666515e-08
4,0.00993211352300473,9.73120674311971e-09
4,0.0155541653399788,5.85311213768464e-08
4,0.00703601646426179,2.45079727140624e-09
4,0.0103821467995009,1.16184625206862e-08
4,0.0115294230215267,1.76697455681303e-08
4,0.0287877763157559,6.86803465773121e-07
4,0.0549026354661047,9.0860007590444e-06
4,0.0293011220796292,7.37117984658828e-07
4,0.0309201823362267,9.14046279275416e-07
4,0.0676415904981108,2.09341457488383e-05
4,0.0181714048224977,1.09032009108533e-07
4,0.00259300759397324,4.52079854636595e-11
4,0.00575519429992339,1.0970842022287e-09
4,0.00828599180930245,4.71387431290313e-09
4,0.0103426717743383,1.14427647675552e-08
4,0.00651085545420116,1.79701712237806e-09
4,0.0190002987611099,1.30329197003146e-07
4,0.00564882261847231,1.01819685158708e-09
4,0.00113082435980498,1.63523668414131e-12
4,0.00220106940416659,2.3471181283905e-11
4,0.00160541096371984,6.64270396255938e-12
4,0.00234422005661012,3.01990658703906e-11
4,0.00181725522344716,1.09059550508636e-11
4,0.0006136905016126,1.41839635385823e-13
4,0.00147574796587161,4.74295247622459e-12
4,0.000433526060150211,3.53232646979338e-14
4,-0.000614241969527017,-1.42350156599392e-13
4,-0.000312856955033598,-9.58039149176857e-15
4,-0.00190960929483718,-1.32977474181564e-11
4,-0.000338399651068482,-1.31135303652814e-14
4,0.00151352249184531,5.2475370896132e-12
4,-0.000450041786017536,-4.10214831249999e-14
4,-0.00172445684711163,-8.84319749338170e-12
4,-0.000500962749801683,-6.29827670171926e-14
4,-0.000894988758128893,-6.41608813261499e-13
4,0.000495187713782071,6.01283716885e-14
4,0.000901354694933055,6.60059218442277e-13
4,0.0014995103785991,5.05589334672672e-12
4,0.00113026257828427,1.63198963198963e-12
4,0.000653442229621276,1.823176825e-13
4,-0.00039688612786593,-2.48121088710135e-14
4,-0.000902118926232517,-6.62300643826467e-13
4,-0.000370622578880775,-1.88680706877929e-14
4,0.00181086024862143,1.07532499671206e-11
4,0.00158827301424671,6.36356710383029e-12
4,0.00191744024108262,1.35172190113792e-11
4,-0.0031866073408594,-1.03113186748062e-10
4,-0.00099306414529878,-9.72543885364799e-13
4,0.00122915406977638,2.28257624824127e-12
4,0.00235145881190327,3.05738059089633e-11
4,0.00190743374675278,1.3237252345388e-11
4,0.00102852576085142,1.11907886755531e-12
4,0.00124168619951147,2.37709980847792e-12
4,-0.00421025771951517,-3.14220650407995e-10
4,-0.0012263055066943,-2.2614902193688e-12
4,-0.00326350471115429,-1.13432362108538e-10
4,-0.00150588339641725,-5.14239436850173e-12
4,0.00049163751687798,5.84224904196134e-14
4,0.000647258578879571,1.75513796901324e-13
4,0.000567698879500344,1.03865698988181e-13
4,0.000685353630394419,2.20627107106039e-13
4,-0.000720560898356019,-2.69576955820167e-13
4,-0.000280321985890622,-6.1748817431616e-15
4,0.000619885864028175,1.4765458285026e-13
4,0.00132745267273639,3.10510424565894e-12
4,0.00498158368887797,6.15842593709605e-10
4,0.00140558122846594,3.90322686351299e-12
4,0.00270831300408185,5.38016283445713e-11
4,-0.00330562537804001,-1.19402806869621e-10
4,0.00033026079732076,1.18967435578431e-14
4,0.000770449015195503,3.52351088519803e-13
4,0.0015649795242591,5.9983891696859e-12
4,0.00139237036179033,3.75853917308087e-12
4,0.00162646527186309,6.99808444579003e-12
4,0.00145122019221665,4.43540467660804e-12
4,0.00227268030738585,2.66780078087982e-11
4,0.000753760682252731,3.22800292777598e-13
4,0.00246065483686753,3.66608721908803e-11
4,-0.00102744279948066,-1.11437307803745e-12
4,0.00153839425811326,5.60106485105802e-12
4,0.00227001103598425,2.65528947690605e-11
4,0.00725081114794966,2.76405305672895e-09
4,0.00629432151174681,1.56962421845663e-09
4,0.0120042213638001,2.07651934666017e-08
4,0.00640656232010486,1.68461328202243e-09
4,0.00676056277120392,2.08896612821521e-09
4,0.0147895382224435,4.78430057470502e-08
4,0.0039730982698482,2.4918232159922e-10
4,0.00164721886313352,7.36215959698798e-12
4,0.00260392048853454,4.59738500694029e-11
4,0.00127347572712062,2.63004201439999e-12
4,0.00113082435980498,1.63523668414131e-12
4,0.0104256930317391,1.18146193710063e-08
4,0.00760426811887336,3.34371832259381e-09
4,0.0111037474160508,1.52012148133027e-08
4,0.00860770000442503,5.48969846232720e-09
4,0.00290683645604058,7.13973993697093e-11
4,0.0069901000192297,2.3874460140526e-09
4,-0.00332253811592014,-1.2186525100916e-10
4,0.00711279310151967,2.55953282816771e-09
4,0.00242146219101119,3.43803876544939e-11
4,0.00818951362403622,4.4981345175288e-09
4,0.00180255193246742,1.05572582005652e-11
4,0.00433461522091084,3.53022354113836e-10
4,0.00455992411556334,4.32345020588676e-10
4,0.00830010296238955,4.74606759460529e-09
4,0.013808205144445,3.63537253995319e-08
4,0.0020114717453996,1.63702663702664e-11
4,0.00601720700665214,1.31093092962e-09
4,-0.00365471633325878,-1.7840815274794e-10
4,-0.00830714036787295,-4.76218426426826e-09
4,-0.00341286907605807,-1.35668340600393e-10
4,0.00290881927265785,7.15924056836993e-11
4,0.00282656999667066,6.38320774303966e-11
4,0.00308002074244927,8.99942092053126e-11
4,-0.00511870800330467,-6.86501394422896e-10
4,-0.00159517783165744,-6.47495004757911e-12
4,0.00170459020056804,8.44267263245218e-12
4,0.00326100181122037,1.13084780679899e-10
4,0.00264522809051845,4.89612507759076e-11
4,0.0018304158229398,1.12253281467739e-11
4,0.00172196975132083,8.7922913914079e-12
4,-0.0058387831330674,-1.16222276815284e-09
4,-0.00170063981482323,-8.36468074104185e-12
4,-0.00452582657205316,-4.19557637974219e-10
4,-0.00208835828139751,-1.90204170544916e-11
4,0.00243241374437777,3.50065889385397e-11
4,0.00320236070150001,1.05167364435124e-10
4,0.00101030528476256,1.04186272133206e-12
4,0.00339083884589779,1.32199130706133e-10
4,-0.00356502946307366,-1.6152973986421e-10
4,-0.00138691419577089,-3.69997145575949e-12
4,0.00358945579525867,1.66002426842011e-10
4,0.00677518735883675,2.10710044201523e-09
4,0.0364874599872644,1.77245218013815e-06
4,0.0118215351493527,1.95296972755307e-08
4,0.015772658370013,6.18898723641002e-08
4,-0.00861962822060014,-5.52019141631649e-09
4,-0.00297782475803629,-7.86314972891584e-11
4,0.0128184863442536,2.6998956567805e-08
4,0.00968357936046238,8.79313345198562e-09
4,0.0299441021512919,8.03979884065732e-07
4,0.0237638706084511,3.18910424850047e-07
4,0.0149930752457463,5.05315805331529e-08
4,0.0331187425081912,1.20308234725019e-06
4,-0.00904070553502671,-6.6805050440856e-09
4,0.00225073883976163,2.56625862215017e-11
4,0.00525063688038161,7.60060107660154e-10
4,0.0106653899804541,1.29391861317969e-08
4,0.00247793185024717,3.77013960262742e-11
4,0.0110844174924894,1.50956389538245e-08
4,0.00989011616930118,9.56765642524639e-09
4,0.0154883954731893,5.75474012936785e-08
4,0.00683601148156652,2.18379131225593e-09
4,0.0100870251064917,1.03526708677488e-08
4,0.0322197174077111,1.07767276623461e-06
4,0.0112016889885523,1.5744687376494e-08
4,0.0533419795591582,8.09611213144808e-06
4,0.0284682118037287,6.56811507743319e-07
4,0.030041248842466,8.14464071333071e-07
4,0.0657188185424492,1.86534423508564e-05
4,0.0176548665901708,9.7153345577377e-08
4,0.00483329673145236,5.457249813617e-10
4,0.00644130105556338,1.72144991388068e-09
4,0.0154448668880975,5.69031985204991e-08
4,0.0192784632785421,1.38130521089467e-07
4,0.012136060248682,2.16925643900842e-08
4,0.0354160481874927,1.57325963269476e-06
4,0.0105292541224614,1.22910908804278e-08
4,0.00220106940416659,2.34711812839051e-11
4,0.0104256930317391,1.18146193710063e-08
4,0.014801168503673,4.7993675577995e-08
4,0.0216126567288294,2.18188884874466e-07
4,0.0167542774929716,7.87957541882798e-08
4,0.0056579509725192,1.02479434326401e-09
4,0.0136057338621926,3.42679312082524e-08
4,-0.00497009043129125,-6.1017886865954e-10
4,0.00711279310151968,2.55953282816772e-09
4,0.00362219653933009,1.72142475967318e-10
4,0.0122504609065951,2.25221431725262e-08
4,0.00269638625619825,5.28601534204637e-11
4,0.00648402783689728,1.76758164333914e-09
4,0.0018626698242737,1.20377e-11
4,0.00339048434460575,1.321438554e-10
4,0.00564047260395276,1.0121898470025e-09
4,0.000821660103892345,4.5579420625e-13
4,0.00425153116582053,3.267243239976e-10
4,-0.00149290419263925,-4.96738419100953e-12
4,-0.003393359033417,-1.32592588761466e-10
