"V1","V2","V3"
3,-0.0105153513431775,-1.16270988378144e-06
3,-0.00447969786015884,-8.98972010244853e-08
3,-0.00359076871417277,-4.62980071600688e-08
3,-0.00252478377370898,-1.60943177459099e-08
3,-0.00076984210859049,-4.56252216133568e-10
3,-0.000431452139860801,-8.03152252790542e-11
3,-0.000268432630940803,-1.93422024193548e-11
3,-0.0067735209331442,-3.10773108556228e-07
3,-0.000876977838874833,-6.74474999999998e-10
3,-0.00913182126254483,-7.61504032258066e-07
3,-0.00522514067829868,-1.42657287751651e-07
3,-0.00424313678002087,-7.63943245174002e-08
3,-0.00381595855139587,-5.55662318098533e-08
3,-0.00196739125111973,-7.61504032258064e-09
3,-0.00315956601608745,-3.15414970161292e-08
3,0.0479986050235436,0.000110582358202949
3,-0.0397538814150873,-6.28258848068847e-05
3,-0.0455230077158684,-9.43393424404652e-05
3,-0.0307660322901139,-2.91215491875e-05
3,-0.0469571330359667,-0.000103539179648881
3,-0.0175702111071757,-5.42414060480783e-06
3,-0.0349746991397596,-4.27820865364412e-05
3,-0.0458061230475393,-9.61104489999115e-05
3,-0.00801641150677622,-5.15157477822581e-07
3,0.02044812780831,8.54989247429567e-06
3,0.0855113761404682,0.000625275895489397
3,-0.0147046027696051,-3.17950777182942e-06
3,-0.0169935393558634,-4.90740074999999e-06
3,-0.0163390672237213,-4.36196100516352e-06
3,-0.0386367772928808,-5.76770027631675e-05
3,-0.0193181857409013,-7.20939817465529e-06
3,-0.00507504475520078,-1.30713255e-07
3,-0.00545091260315496,-1.61959958403399e-07
3,-0.0373458862157598,-5.20868758064516e-05
3,0.097920879603965,0.00093891422310504
3,0.0300498886137302,2.71349233798782e-05
3,-0.0156913922084437,-3.86353128557101e-06
3,-0.024143008728955,-1.4072594516129e-05
3,0.0661783369538168,0.00028983281019
3,0.0347274913030821,4.1881307706e-05
3,-0.0301893973054303,-2.75146079391341e-05
3,-0.00355501290822005,-4.49286682800001e-08
3,-0.0331042498414736,-3.62786613e-05
3,0.0163905021922354,4.40328484626506e-06
3,0.101005711205665,0.00103047578991036
3,0.0333900315308049,3.72263526794355e-05
3,-0.00902438289005091,-7.34941108962452e-07
3,-0.038209122154996,-5.57829117774194e-05
3,0.0115246837855529,1.53068932743745e-06
3,0.00650203469932299,2.74882978877638e-07
3,0.0168885245704266,4.81698318262153e-06
3,0.0221603831287968,1.08825781298759e-05
3,0.0124822534585471,1.94481811334487e-06
3,0.0377938676016408,5.39838696161102e-05
3,0.0789569682524479,0.000492233755371217
3,0.0287510268926828,2.37662183389017e-05
3,0.0537246471183149,0.000155067474825912
3,0.0242452191526613,1.42520829765869e-05
3,-0.00373666422729526,-5.21737704492257e-08
3,-0.00750301163857315,-4.22383418110789e-07
3,-0.0719379668426382,-0.000372284091290323
3,0.0036440157704654,4.83883422222587e-08
3,0.017995599066582,5.82772333851608e-06
3,0.0752312616298307,0.000425789585808535
3,0.0394780694745028,6.15272806745633e-05
3,0.00649047317396215,2.73419243763123e-07
3,-0.0708667454012145,-0.000355899570532258
3,0.0021865824178803,1.04543625e-08
3,0.0103712104293433,1.11554819604e-06
3,0.00632645335920045,2.5321004583756e-07
3,0.0985298662174947,0.000956541197136029
3,0.0111393227776655,1.38221743026462e-06
3,0.0130325051441227,2.21352134920602e-06
3,0.00226716395651993,1.16532962056452e-08
3,0.0227685112790585,1.18033125e-05
3,0.00643546724049754,2.66526411290323e-07
3,0.01250867301149,1.95719329558065e-06
3,0.017243457877614,5.12711526870969e-06
3,0.0763189416639212,0.000444525846619356
3,0.0442367563066164,8.65664929682905e-05
3,0.058911879652854,0.0002044601329701
3,0.102653948925416,0.00108175019417511
3,0.124954080853952,0.00195097333064516
3,0.148633561542964,0.00328360307212452
3,-0.03690254727554,-5.025381490585e-05
3,-0.0311250263873428,-3.0152906767642e-05
3,-0.0215069810557832,-9.94805912286406e-06
3,0.0793781006606945,0.000500152114269473
3,-0.00775162149134593,-4.65776608605853e-07
3,-0.0338501432600087,-3.87865840787082e-05
3,0.0669505402755457,0.000300097417468916
3,0.0158409829929053,3.97508466519243e-06
3,-0.00564557885163841,-1.79939053901934e-07
3,0.0462619367277438,9.90082606166281e-05
3,0.0691751453922063,0.000331016956922667
3,0.0151676073776199,3.48940383884543e-06
3,-0.00173422923160609,-5.21578290788325e-09
3,-0.00668658043750228,-2.98959404803393e-07
3,-0.0155996185126218,-3.7961374905058e-06
3,-0.011268235292229,-1.43076306633045e-06
3,0.00301230392150804,2.73335702217249e-08
3,-0.00109500737369077,-1.31295889889734e-09
3,-0.00441704321532159,-8.6177709116129e-08
3,-0.00172571027378674,-5.13929626139817e-09
3,0.0116143887476244,1.56671165747483e-06
3,0.00229663215018588,1.21136304478957e-08
3,0.0270960673267405,1.98938476736129e-05
3,0.00926415995070064,7.95093374176257e-07
3,-0.0107489633732949,-1.24193752413374e-06
3,0.0195725851811536,7.49798514142249e-06
3,0.00361944749588868,4.74162106103343e-08
3,0.0175242974288292,5.3817292712462e-06
3,-0.264369189047871,-0.018477045
3,0.459201315709161,0.0968298750000001
3,-0.00704977631794913,-3.50369273386801e-07
3,0.0122452490485619,1.83612763544629e-06
3,-0.000505217861174237,-1.28954377055409e-10
3,-0.0287612192243741,-2.37915029032257e-05
3,0.00087754820221871,6.75791838520615e-10
3,-0.00174730768805619,-5.33467741935484e-09
3,0.0499573711929066,0.000124680556451613
3,0.00430923131785464,8.00201612903226e-08
3,-0.0485127857229206,-0.000114174374437881
3,-0.0283304098522099,-2.27383303797794e-05
3,-0.0624296780875551,-0.000243317466960414
3,-0.145076709582953,-0.00305346601709281
3,-0.0740529773557013,-0.000406094935213395
3,-0.0176236485105452,-5.47378162961325e-06
3,-0.0246419846085565,-1.49632883789516e-05
3,0.0991392851719092,0.000974400166518486
3,-0.0535318231629343,-0.000153403795117102
3,-0.0144736497266943,-3.03203475047176e-06
3,0.0578951824662649,0.000194056091986421
3,-0.0520440516218568,-0.000140965649567067
3,-0.0100285124252545,-1.00857813950758e-06
3,0.127579432244156,0.00207654810013499
3,-0.0356557018548246,-4.53301304490177e-05
3,-0.0265286192177294,-1.86699836756323e-05
3,0.296474446247915,0.0260592432422964
3,0.0980852984188146,0.000943651757754656
3,0.0926168972405648,0.00079445752466889
3,0.095793841644866,0.000879048365400272
3,-0.0148118021235185,-3.24955359753168e-06
3,-0.0250847550225729,-1.57844550321935e-05
3,-0.0490838603556018,-0.000118254080517361
3,0.151332460721322,0.00346574241761696
3,0.0257276539964413,1.70294475472021e-05
3,-0.0493630999414397,-0.000120283837460274
3,0.0360151636196589,4.67149809897393e-05
3,0.04357146364935,8.27192231068558e-05
3,0.050357626405182,0.000127701428274935
3,0.0265197814827122,1.86513307553557e-05
3,0.0178466064001722,5.68416840988717e-06
3,0.0712727058002437,0.000362050990578386
3,0.0852571864995042,0.000619716401336686
3,0.103532528713696,0.00110976357071969
3,-0.0606925966229369,-0.000223566719974228
3,-0.017382974594234,-5.25257529043961e-06
3,-0.0125179639420641,-1.96155770501009e-06
3,-0.0347648687288473,-4.20166846839191e-05
3,-0.100898517258101,-0.00102719844312483
3,-0.0107029224040891,-1.22604703230573e-06
3,-0.0130296506946255,-2.21206721562692e-06
3,-0.00177924261764507,-5.63255599197919e-09
3,-0.0116665802243876,-1.58792766596055e-06
3,-0.0411897403284672,-6.98822954786224e-05
3,-0.0435467763647894,-8.25786983688595e-05
3,-0.00343364168921363,-4.04822758415385e-08
3,-0.0132368570497156,-2.3192877614032e-06
3,-0.0589181171286326,-0.00020452508337572
3,-0.0686405128061583,-0.000323401148779259
3,0.111205841681391,0.00137525364426662
3,0.179557649979241,0.00578910915513809
3,0.116994275311638,0.00160137791572583
3,-0.0287158440899665,-2.36790764735005e-05
3,-0.0104774810155761,-1.15019280827909e-06
3,-0.0132672364339772,-2.3352931539538e-06
3,-0.0510984394758357,-0.000133420606804408
3,-0.163155787555144,-0.00434317623035254
3,-0.802606761051072,-0.517021307419154
3,0.0498785559516316,0.000124091380144633
3,-0.00363531068407401,-4.80423893433519e-08
3,-0.0238369086462514,-1.35440889155459e-05
3,-0.202747245271971,-0.00833421858102679
3,0.0190467773661371,6.90978471283409e-06
3,-0.00228279575959259,-1.18960059151493e-08
3,-0.0212099498287391,-9.54154985041277e-06
3,-0.0830381088748929,-0.000572574957792057
3,0.0181990688287019,6.02764272379936e-06
3,-0.0102116412368662,-1.06484561129119e-06
3,0.0318504797658876,3.23108167029267e-05
3,0.0231873918701168,1.24668204624706e-05
3,0.00922494050407352,7.85038076301377e-07
3,0.0230447899327771,1.22382201366995e-05
3,0.00594460731087697,2.10072649910703e-07
3,-0.0860252510403848,-0.000636616434604839
3,0.00316631633297477,3.17440915903256e-08
3,0.0355625979053504,4.49759595959539e-05
3,0.0887564497303797,0.000699197338064338
3,0.00762458006544557,4.43249023886458e-07
3,0.0552326340564775,0.000168495096222062
3,0.0229364171871409,1.2066372770354e-05
3,0.0207616899168767,8.9492801028244e-06
3,0.158291450977852,0.003966179634691
3,0.283396686961579,0.0227606314477238
3,0.0499947416550315,0.000124960566560119
3,0.216238770825115,0.0101111532319188
3,0.0262493615403527,1.80865708412985e-05
3,0.0636989798270304,0.000258462434561916
3,0.073300710234579,0.000393844285147726
3,0.184411975423948,0.00627144127729148
3,1.394103760726,2.70947592376017
3,0.425235348218507,0.0768932249496387
3,0.212156512813107,0.00954924651907258
3,-0.0192909029192963,-7.1788960760964e-06
3,-0.0494044283269551,-0.000120586207042205
3,-0.149905192472674,-0.00336860453586355
3,0.0335077171196168,3.76213625980998e-05
3,-0.199106791473881,-0.00789329295712744
3,0.085814003406761,0.000631938026595747
3,0.260380802554952,0.0176533399216217
3,0.491039573214083,0.118399394356911
3,-0.0233803441285999,-1.27806428075747e-05
3,-0.0251535053995059,-1.59145935343364e-05
3,-0.0200938843226841,-8.11319087070503e-06
3,-0.0744501230478118,-0.000412663692217537
3,-0.287180404304909,-0.0236845101943036
3,-0.00360649425483049,-4.69089523954414e-08
3,-0.00747728025928944,-4.18052646226371e-07
3,-0.0339694208813636,-3.91980469663897e-05
3,0.040610953281859,6.69775954692491e-05
3,0.00939163831184236,8.28369454801315e-07
3,-0.171982323508671,-0.00508687933726452
3,0.0436908809825756,8.34012204119002e-05
3,-0.06562353839593,-0.000282604407625807
3,0.0349024716227933,4.25175810234542e-05
3,0.0194715163229412,7.38242968449749e-06
3,0.12931762048895,0.0021625846413462
3,0.0884594545390472,0.000692201874838288
3,0.498823709289449,0.124119855829254
3,0.424144882808492,0.0763031900589677
3,0.187029440840533,0.00654229203653742
3,-0.00289189302537635,-2.4185032287857e-08
3,-0.0701653552682582,-0.000345436468861194
3,-0.176473635289255,-0.00549590853285515
3,-0.224623604744771,-0.0113335555468238
3,0.00502313104989894,1.26742866800625e-07
3,-0.0821363453874375,-0.000554122934845969
3,0.121875107959538,0.00181027702753718
3,0.306529387197729,0.0288015825175399
3,0.390164433342705,0.0593940625735615
3,0.202565646735876,0.00831184402268953
3,-0.00436305361655702,-8.30561220818096e-08
3,-0.0161656090679376,-4.22450877167293e-06
3,-0.150224581428275,-0.00339018195430382
3,-0.0586917743179049,-0.00020217698546308
3,-0.0492817762686126,-0.000119690328321487
3,-0.0457040236889196,-9.5469205521939e-05
3,-0.163366129331383,-0.00435999567048248
3,-0.069010305020829,-0.00032865620859564
3,-0.129663782778305,-0.00217999783524125
3,-0.096264420463627,-0.000892066851902453
3,0.00915092395679093,7.66292966352032e-07
3,0.0339052123344387,3.89761919637519e-05
3,0.126680435849563,0.00203295912501336
3,0.315076054961638,0.0312785201273629
3,0.402895520693689,0.0653999350572373
3,0.369546436889461,0.0504669498858348
3,-11.3122069487524,-1447.57816910292
3,0.123098180969893,0.0018653266976035
3,0.117483704512465,0.00162155952987522
3,0.170194047495597,0.00492984312893461
3,0.274357054987251,0.0206513476215418
3,18.4425671817729,6272.83873277932
3,-3.67700986101641,-49.7146497066311
3,5.99471895246004,215.430148728734
3,-4.66873936971371,-101.765106382979
3,7.61155978406396,440.982127659574
3,-2.66931366539002,-19.0194883404256
3,4.35184724132093,82.4177828085107
4,-0.0128943015502308,-2.76433893150293e-08
4,-0.0142736939417628,-4.15093106738048e-08
4,-0.0106393914447603,-1.28134816425e-08
4,-0.0146096344341344,-4.55572390455078e-08
4,-0.00698949669434041,-2.38662186611545e-09
4,-0.0117132836298317,-1.88241180760341e-08
4,-0.0143402202166975,-4.22885975599611e-08
4,-0.00388014692818825,-2.26669290241936e-10
4,0.0178216926016799,1.00877844472289e-07
4,-0.00475905801919155,-5.12960587188481e-10
4,-0.00530449333383509,-7.91727321e-10
4,-0.00515052466677249,-7.03729708833048e-10
4,-0.00982158767131306,-9.30522311245770e-09
4,-0.0058399049658391,-1.16311623884439e-09
4,-0.00214294455275881,-2.108840514e-11
4,-0.00226090826190735,-2.61295399557483e-11
4,-0.00957443387308123,-8.40334929677421e-09
4,0.0156851611749569,6.05279468830843e-08
4,0.00683820567947698,2.18659644379208e-09
4,-0.00256326007210753,-4.31688709633285e-11
4,-0.00756579957910636,-3.27656908983871e-09
4,0.0031755008846086,1.01683140786537e-10
4,0.00649709262735301,1.78187089329717e-09
4,0.0079654116397355,4.02562111564296e-09
4,0.00517898941738469,7.19416003242173e-10
4,0.0118875205006407,1.99694045691365e-08
4,0.0206570415965779,1.82084298022604e-07
4,0.00968311961218717,8.79146368096459e-09
4,0.0154758836010621,5.73616741877452e-08
4,0.00852108429230865,5.27204909422486e-09
4,-0.00209598577897048,-1.92998230287464e-11
4,-0.00353550935723768,-1.56245660408011e-10
4,-0.0192638858184738,-1.37713203712452e-07
4,0.00200161314000749,1.60516829671247e-11
4,0.00266595099700681,5.05136382147878e-11
4,0.00326844610666634,1.14120932885953e-10
4,0.0021250939139511,2.03944740611705e-11
4,0.00487780441934894,5.66105704720025e-10
4,0.00847620063284281,5.16184443525421e-09
4,0.00397327294912891,2.49226146197916e-10
4,0.00635021688656789,1.62612615101012e-09
4,0.00349645517889352,1.49455486139905e-10
4,-0.000860045515379234,-5.47123970513693e-13
4,-0.00145072499908236,-4.42935388426293e-12
4,-0.00790454724129565,-3.90398371503676e-09
4,0.00109757224888031,1.45121738037557e-12
4,0.00320890710596762,1.06029955681733e-10
4,0.0019784510812166,1.53214993052344e-11
4,0.00051081736873523,6.80867528586599e-14
4,-0.00306824653331261,-8.86259714854837e-11
4,0.00103772715308663,1.15966546069251e-12
4,0.000990452222656035,9.62352377744029e-13
4,0.00102557941734592,1.10631088417688e-12
4,0.00357259880594741,1.62905968052139e-10
4,0.00140552583891605,3.90261164414177e-12
4,0.00106172034377501,1.27069276176565e-12
4,0.00124099430980268,2.37180598551739e-12
4,0.0023529794728949,3.0652969553856e-11
4,0.000739961979516662,2.99804137499999e-13
4,0.000286842495440371,6.76977084677418e-15
4,0.000472190080041191,4.97127097077483e-14
4,0.000600726374128819,1.30228727825226e-13
4,0.00183308533753085,1.12909565041316e-11
4,0.00121771564279351,2.19878892139457e-12
4,0.0015095954872198,5.19328737744053e-12
4,0.00228949750512645,2.74764549320478e-11
4,0.00265320778139119,4.9554722598387e-11
4,0.00302201135950047,8.34035180319625e-11
4,0.00207887180518572,1.86771598851064e-11
4,0.00149339010600222,4.97385452462552e-12
4,0.00118916866415203,1.99974134708489e-12
4,0.0086252556767798,5.53462130553191e-09
4,0.0102256224719299,1.09334951959818e-08
4,0.00665663820462271,1.96344984912599e-09
4,0.0166974802915683,7.77327009276852e-08
4,0.0108564475557842,1.38915579524634e-08
4,0.0249191941675538,3.85599068686501e-07
4,0.0433022875076948,3.51595539550869e-06
4,0.0202982226403509,1.69758702420726e-07
4,0.0324412940737762,1.10762482018509e-06
4,0.0178623081227652,1.01800592689906e-07
4,-0.00439370654256973,-3.7266978892304e-10
4,-0.00741130533902849,-3.01702441507707e-09
4,-0.0403818871316573,-2.65917208064516e-06
4,0.00864200644068531,5.57774098019998e-09
4,0.00596503139868146,1.2660502291878e-09
4,0.00184761805012513,1.16532962056452e-11
4,0.00404049955171546,2.66526411290323e-10
4,0.00665132899433839,1.95719329558065e-09
4,0.00846190743684879,5.12711526870969e-09
4,0.0258210711532777,4.44525846619355e-07
4,0.0171528960563199,8.65664929682904e-08
4,0.0212643523408869,2.044601329701e-07
4,0.0322501504838571,1.08175019417511e-06
4,0.0373734192866398,1.95097333064516e-06
4,0.0425684329812943,3.28360307212452e-06
4,0.00841690426230013,5.01891163476348e-09
4,0.00547920545970483,9.01302018742794e-10
4,0.0112104851138747,1.57941997153614e-08
4,0.00893614838182775,6.3767807624988e-09
4,0.0205114624735782,1.77005396489852e-07
4,0.0356429360942439,1.61396416475431e-06
4,0.0167078529573801,7.79260347592104e-08
4,0.0267030459136992,5.08444097457763e-07
4,0.0147028054072727,4.67305440683746e-08
4,-0.00361654338667087,-1.71070339907233e-10
4,-0.00610038632547945,-1.38493488749698e-09
4,-0.0332390990231835,-1.22066635189936e-06
4,0.00183996420997112,1.14613955695076e-11
4,0.0178206256926248,1.00853690128767e-07
4,0.0109873034666419,1.45735205989947e-08
4,0.00283681790245438,6.47628326403636e-11
4,-0.0170394689522712,-8.42993492554844e-08
4,0.00664938735572778,1.95490894104153e-09
4,0.00432859378790648,3.51064833023725e-10
4,0.00885632717739884,6.15197566466233e-09
4,0.0108578245117154,1.38986069258701e-08
4,0.0162041357450374,6.89451134811462e-08
4,0.0281580592103957,6.28652824716952e-07
4,0.0131992693196919,3.03528559928258e-08
4,0.0210955109295074,1.98043317849093e-07
4,0.0116152738966914,1.82019459729551e-08
4,-0.00285708344984769,-6.66333582594394e-11
4,-0.00481932910647277,-5.39443965415777e-10
4,-0.02625901850286,-4.75459968019353e-07
4,0.00109034396463379,1.41336423027692e-12
4,0.00337575091135986,1.29861846654249e-10
4,0.00296862445323797,7.76642302228152e-11
4,0.00112903627935874,1.62491852304923e-12
4,0.000570251433718688,1.05746388333858e-13
4,0.000223231798827363,2.48327167846153e-15
4,0.00125905327534757,2.51290707230769e-12
4,-0.00321329102307569,-1.06610564516129e-10
4,0.000584268128443455,1.16532962056452e-13
4,0.00329610453200781,1.18033125e-10
4,0.00210333490892265,1.95719329558064e-11
4,0.00267589008499596,5.12711526870967e-11
4,0.00816533964696282,4.44525846619354e-09
4,0.00542422200060905,8.65664929682902e-10
4,0.00672437863655358,2.044601329701e-09
4,0.010198393041217,1.08175019417511e-08
4,0.0118185128894247,1.95097333064516e-08
4,0.0134613204645122,3.28360307212451e-08
4,0.00240651446651821,3.35392932631842e-11
4,0.00212725516065801,2.04775664388608e-11
4,0.00990872675255854,9.63987514786798e-09
4,0.00500120075412112,6.25600593366754e-10
4,0.00220221861151997,2.35202381397483e-11
4,0.00378964058424273,2.06249113654991e-10
4,0.0271610740420779,5.442366162514e-07
4,0.000833517495400745,4.82679528837825e-13
4,0.00470222601636242,4.88893203750002e-10
4,0.00182279398400855,1.10395239556452e-11
4,0.00381742746700135,2.12365114429956e-10
4,0.0116486816930517,1.84122605669738e-08
4,0.00773820052189075,3.5855841387466e-09
4,0.00959300527687237,8.46873870762158e-09
4,0.0145490376951996,4.48060930427334e-08
4,0.0168603022882636,8.08093153553229e-08
4,0.0192039332151469,1.36006839247398e-07
4,0.0329433524958555,1.17779897780195e-06
4,0.0279075573051312,6.06578902190115e-07
4,0.0214288760883824,2.10861637220379e-07
4,0.0313342497662174,9.64000376476838e-07
4,-0.0244691627954468,-3.58489501273768e-07
4,-0.0272735718727427,-5.533094345625e-07
4,-0.0264819268949846,-4.91811103332187e-07
4,-0.0504986547064494,-6.50308206154714e-06
4,-0.0300264432042647,-8.12859644192385e-07
4,-0.0110181592474006,-1.473791950125e-08
4,-0.0116246812085682,-1.82609853099832e-08
4,-0.0492278892524331,-5.87279524717743e-06
4,0.0389203380166991,2.29459695831095e-06
4,-0.0239078521722218,-3.26709864336099e-07
4,-0.0330284350922429,-1.19001377377016e-06
4,0.0260000442003524,4.569791074695e-07
4,-0.0234077602205634,-3.00219875335875e-07
4,-0.00470543647154095,-4.90229743410002e-10
4,-0.0250831364747917,-3.95847005958871e-07
4,0.0275777822490973,5.78412077378313e-07
4,0.0470248874576544,4.89002477429866e-06
4,-0.0176269948675739,-9.65412932452618e-08
4,-0.052028396104321,-7.32759996454839e-06
4,0.0209007384872632,1.90829945102107e-07
4,0.0136058860671869,3.42694646316902e-08
4,0.0278377192348415,6.00529852675152e-07
4,0.0341289412872715,1.35672324218154e-06
4,0.0221901181944681,2.4245908503491e-07
4,0.0885080384673932,6.136643068659e-05
4,0.0414887058784744,2.96291746444063e-06
4,0.0663086286908876,1.93321513240644e-05
4,0.0365097999537598,1.77679700463181e-06
4,-0.0089805497599889,-6.50446669492607e-09
4,-0.0151483936714375,-5.26582390334306e-08
4,-0.0825388640034209,-4.64123917439564e-05
4,0.0089507533985566,6.41857127712901e-09
4,0.0296516686096608,7.73030360491398e-07
4,0.0534492156489072,8.1614128188906e-06
4,0.0138000822754473,3.62682585109319e-08
4,-0.0828907887488393,-4.72090312676613e-05
4,0.0182119441635734,1.10008246067532e-07
4,0.0204872254947425,1.76170257969162e-07
4,0.00167563393307228,7.88345488311896e-12
4,0.00945296231629058,7.98494090625001e-09
4,0.00366439273255597,1.80305117237903e-10
4,0.00603219510774216,1.32404126446031e-09
4,0.0234175364382133,3.00721735237994e-07
4,0.015556231809104,5.85622324930485e-08
4,0.0192849763211514,1.38317279954273e-07
4,0.0292481698226419,7.31804006359465e-07
4,0.033894543056337,1.31983345818145e-06
4,0.0386059828633625,2.22135747829224e-06
4,0.0329433524958555,1.17779897780195e-06
4,0.0147160253282726,4.68988406033423e-08
4,0.0112997307440831,1.63031821213242e-08
4,-0.0715211866632945,-2.61660909283345e-05
4,0.068736349086987,2.23226548296803e-05
4,0.0512350150846678,6.89076554702891e-06
4,0.0703541029109319,2.4499528074502e-05
4,0.0336585950830042,1.28346472782752e-06
4,0.0564064464195432,1.01231334238859e-05
4,0.0690567127767245,2.27417355585719e-05
4,0.0186852215588286,1.21896997189898e-07
4,0.0404452658582227,2.67590553584936e-06
4,-0.0102437111386388,-1.10110641638774e-08
4,-0.0141515743869005,-4.01068943709675e-08
4,0.0270187453037434,5.32918392929999e-07
4,-0.0149975087044567,-5.05913758880853e-08
4,-0.0030148046534674,-8.26107771600001e-11
4,-0.0160709334883434,-6.67059256161289e-08
4,0.0124940604512871,2.43676928385542e-08
4,0.0488673575846591,5.70263301212531e-06
4,-0.00798587563933665,-4.06714982629707e-09
4,-0.0235713633619751,-3.08701550612904e-07
4,0.0377424047403232,2.02916924041265e-06
4,0.0245694121818437,3.6440058439899e-07
4,0.0502691551807673,6.38566816306497e-06
4,0.0616297991675221,1.4426567430571e-05
4,0.0400707574347958,2.57816202351359e-06
4,0.0919758493584412,7.15641023556653e-05
4,0.0749200096624266,3.15058570996675e-05
4,0.119739649551253,0.000205566305627791
4,0.0659291367949876,1.88933755985051e-05
4,-0.0162170128121868,-6.9164531465805e-08
4,-0.0273548614304494,-5.59935595242984e-07
4,-0.149048092914133,-0.000493521064791097
4,0.00573480763393891,1.08162176732108e-09
4,0.018998022616636,1.30266756978595e-07
4,0.0555433957409621,9.51764956513198e-06
4,0.00884180511497304,6.11172427235217e-09
4,-0.0531086833625333,-7.95540216483872e-06
4,0.0100324114000398,1.01302772625e-08
4,0.022256208295731,2.45360534416596e-07
4,0.0189255017049132,1.28289054674715e-07
4,0.00415090133164485,2.96872275069985e-10
4,0.00155163067883613,5.79633438461539e-12
4,0.0293318265033652,7.40212525929221e-07
4,0.0257943135327324,4.42686112270048e-07
4,0.00981017176081129,9.26203558138062e-09
4,0.00495490234805087,6.02754413502993e-10
4,0.00193965626172361,1.41546485672308e-11
4,0.0109398866209924,1.43235703121538e-08
4,-0.0279202160551916,-6.07680217741936e-07
4,0.00395170170129147,2.43857779968516e-10
4,0.00579429729121351,1.12720549204739e-09
4,0.0269897610985065,5.3063532924044e-07
4,0.013622457953495,3.44367299100966e-08
4,0.00599848554671884,1.29469200769257e-09
4,0.0103223649790833,1.13531622195408e-08
4,0.00300799229051819,8.1866622848517e-11
4,0.0229295909948,2.76430037323639e-07
4,0.0237428076130372,3.17781268147815e-07
4,0.0827079060807293,4.67937772798586e-05
4,0.0325388058926698,1.12100214786057e-06
4,0.0245794927576976,3.6499899172607e-07
4,0.0287297976618621,6.81287262611611e-07
4,0.0544729525549026,8.80488448287141e-06
4,0.00531344539530847,7.97085460466129e-10
4,0.0299754010110227,8.07346575e-07
4,0.0116198116468685,1.82304065322581e-08
4,0.0191281273828514,1.33872021417716e-07
4,0.0243350529633577,3.50694684379742e-07
4,0.0493289057013083,5.92114811903106e-06
4,0.0611527772324211,1.39850730951548e-05
4,0.0927461244356487,7.39917132815777e-05
4,0.1074798022254,0.000133446575816129
4,0.122419806515009,0.000224598450133317
4,-0.0791723014082354,-3.9290999561792e-05
4,0.068736349086987,2.23226548296804e-05
4,0.0567159781063951,1.0347172866985e-05
4,0.0778803666554508,3.67884889445594e-05
4,0.0372592872016339,1.92725050894166e-06
4,0.0624406331276306,1.52008961526291e-05
4,0.0764441857482029,3.41489878757031e-05
4,0.020684108613853,1.83040518978923e-07
4,-0.0254019348226294,-4.16358264340851e-07
4,-0.074283875908686,-3.04493638209857e-05
4,0.0221100393422741,2.38978076605964e-07
4,0.0214682714915131,2.12416532569547e-07
4,0.0409380644200612,2.80872500268877e-06
4,0.0243417269895015,3.5107956269226e-07
4,0.00893216097899282,6.36540683309896e-09
4,0.0094238539807727,7.88704271735423e-09
4,0.039907884936633,2.53649987656695e-06
4,0.0192010511692319,1.35925212276445e-07
4,0.0124994298521077,2.44096085243342e-08
4,0.0255739036105653,4.27748106616791e-07
4,0.0313535116669659,9.6637293793298e-07
4,0.0203855760964107,1.72699848465024e-07
4,0.0467917453065251,4.79376762191058e-06
4,0.0813103985075165,4.3710357476964e-05
4,0.0609162864379748,1.3769991764541e-05
4,0.0335407544340007,1.26558496832091e-06
4,-0.00825023458259436,-4.63303081589123e-09
4,-0.013916497840217,-3.7507647528238e-08
4,-0.0758266485246797,-3.30588273065806e-05
4,0.0052136694402763,7.38880098923077e-10
4,0.0318337185578082,1.02695044971921e-06
4,0.0866720580050583,5.64308296798977e-05
4,0.0329633806619296,1.18066579884757e-06
4,0.0166490797739083,7.68353257633816e-08
4,0.00651748300309098,1.80434520157015e-09
4,0.0367593611894416,1.82587827873877e-06
4,-0.0938153512935523,-7.74632361774194e-05
4,0.00311584133218622,9.42543355163844e-11
4,0.0248853969694104,3.83511412197521e-07
4,0.0245940860739714,3.65866591617549e-07
4,0.0856733287107318,5.3874414631416e-05
4,0.0337054574973326,1.29062747286578e-06
4,0.0254607698630147,4.20229102316198e-07
4,0.0297598804698916,7.84376782612051e-07
4,0.0564260345984946,1.01372025296217e-05
4,0.00383078420531083,2.15352913880322e-10
4,0.0216110798545653,2.18125214999999e-07
4,0.00837742511945518,4.92540808064514e-09
4,0.013790624124998,3.61689321023302e-08
4,0.0175446117522435,9.47490901657544e-08
4,0.0535364717461405,8.21483764552564e-06
4,0.0440887363479248,3.77842325728743e-06
4,0.066866291484915,1.9990743588356e-05
4,0.0774886910701173,3.60539871503224e-05
4,0.0882598439101258,6.06809847728608e-05
4,-0.0590138130817128,-1.21287126533328e-05
4,0.0512350150846679,6.89076554702892e-06
4,0.0567159781063951,1.0347172866985e-05
4,0.0580508248312959,1.13562143069725e-05
4,0.027772498353147,5.94921684218836e-07
4,0.0465422854528073,4.6923545739385e-06
4,0.0569803177207998,1.05414284687559e-05
4,0.0154176157290887,5.65026566738485e-08
4,-0.0283132488382734,-6.42626785440864e-07
4,-0.0827975458546722,-4.69969698379289e-05
4,0.0221100393422741,2.38978076605964e-07
4,0.0239287486213581,3.27853594345647e-07
4,0.0456299731881007,4.33511731182461e-06
4,0.027131530657779,5.41872589377051e-07
4,0.00995587533893066,9.82466611453869e-09
4,0.010503921242073,1.21732299852679e-08
4,0.0444817249044148,3.91495234165678e-06
4,0.0313667649023167,9.68007930671441e-07
4,0.0204190215487951,1.73835995842218e-07
4,0.0417774326580893,3.04626016468985e-06
4,0.0512189786200704,6.88214240933353e-06
4,0.03330180036388,1.2299029748793e-06
4,0.0764388189720955,3.4139399145228e-05
4,0.132828360886087,0.000311288626896757
4,0.0622641388573194,1.50297564775214e-05
4,0.0547920501698098,9.01301727439352e-06
4,-0.013477552153805,-3.29946924320903e-08
4,-0.0227339384792207,-2.67115273613263e-07
4,-0.123870127559239,-0.000235432459332
4,0.00768168177863307,3.48197179170001e-09
4,0.0246890288934401,3.71548944365868e-07
4,0.00468633062396141,4.82316034846154e-10
4,0.0286138835346107,6.70358654420345e-07
4,0.0885897905180314,6.15934738681104e-05
4,0.0296292854840278,7.7069885548225e-07
4,0.0149651015084508,5.01555119867491e-08
4,0.00585826940860189,1.17781575709431e-09
4,0.0330413199441753,1.19187182439554e-06
4,-0.0843263576260355,-5.056539075e-05
4,0.0158084896933458,6.24541815926952e-08
4,0.0185093280572605,1.17371488282759e-07
4,-0.0409397527654893,-2.809188375e-06
4,0.00387496776291351,2.25461491304225e-10
4,0.00642767048812136,1.70692492029918e-09
4,0.0264656753193871,4.9060494475388e-07
4,0.0133579377725263,3.18388713379313e-08
4,0.0058820072659436,1.19702225974383e-09
4,0.0101219258320796,1.04966955959614e-08
4,0.00329773432889869,1.18266749564606e-10
4,0.0263381280126724,4.8121551006689e-07
4,0.0251382623584224,3.99338348874884e-07
4,0.0906746676224901,6.75995631208482e-05
4,0.0356730758758503,1.61943018619111e-06
4,0.0269470893623908,5.27287468858658e-07
4,0.0314971684969028,9.84206105801312e-07
4,0.0597200086592727,1.27197755550253e-05
4,0.00485408031475359,5.55172353873899e-10
4,0.0273839275929932,5.62319250149999e-07
4,0.0106152401652628,1.2697531455e-08
4,0.0174744369574552,9.32422543560983e-08
4,0.0222312064507559,2.44259873093544e-07
4,0.0678373721140518,2.11775669536233e-05
4,0.0450642572377759,4.12409697820372e-06
4,0.0847279125687964,5.15354446506577e-05
4,0.0981878147607533,9.29459302505999e-05
4,0.11183620583833,0.00015643347723847
4,0.0279075573051312,6.06578902190116e-07
4,0.0147160253282726,4.68988406033423e-08
4,0.00957242840760436,8.3963108304049e-09
4,-0.0810356720273471,-4.31226014192307e-05
4,0.070354102910932,2.44995280745021e-05
4,0.0778803666554509,3.67884889445594e-05
4,0.0580508248312959,1.13562143069725e-05
4,0.0381362082943097,2.11519321114238e-06
4,0.0639102132603189,1.6683265717739e-05
4,0.0782433484249404,3.74791481371751e-05
4,0.0211709223048538,2.00890367553103e-07
4,-0.0274914261099774,-5.71201155513258e-07
4,-0.0803942573652734,-4.17734275713862e-05
4,0.021468271491513,2.12416532569547e-07
4,0.0239287486213581,3.27853594345646e-07
4,0.044305513770825,3.85328478971036e-06
4,0.0263440085802036,4.81645421892573e-07
4,0.00966689526884575,8.73269020883796e-09
4,0.0101990335457766,1.08202197472105e-08
4,0.0431905946378364,3.47981962781019e-06
4,0.0126806650668541,2.58564041190734e-08
4,0.0082548128268728,4.64332327920106e-09
4,0.0168893933607784,8.13684799208429e-08
4,0.0207063340758965,1.83828509769864e-07
4,0.0134629432730059,3.28518675706216e-08
4,0.03090197744363,9.11895525555334e-07
4,0.0536986189369913,8.3148125957306e-06
4,0.0251715691109557,4.01458960180728e-07
4,0.0402300383780191,2.61939978475931e-06
4,-0.00544857990027644,-8.8131933042832e-10
4,-0.00919066599323326,-7.13490069872745e-09
4,-0.0500770673755774,-6.28862287007613e-06
4,0.00130863477842757,2.93274181846154e-12
4,0.00799028624822355,4.07614244011865e-09
4,0.0247382632998076,3.74521565750855e-07
4,0.0217547488812985,2.239836399626e-07
4,0.00417893099486507,3.04972583954848e-10
4,0.0016358929202085,7.16175552068309e-12
4,0.00922662609057445,7.2472239965354e-09
4,-0.0235477206331356,-3.07464868064517e-07
4,0.0132525440424467,3.08458700626842e-08
4,0.0219828890060535,2.33528058355923e-07
4,0.0194319272686349,1.4258160697652e-07
4,0.0456846790677722,4.35594425704905e-06
4,0.0201166990590133,1.63767182025674e-07
4,0.0346173893800747,1.43607543162963e-06
4,0.00843458100839658,5.06120647233515e-09
4,0.0673647577931463,2.05935401379078e-05
4,0.064295873810808,1.70896202306896e-05
4,0.0665761793373605,1.96460603256181e-05
4,0.0912406574589109,6.93032536196317e-05
4,0.0689222919432359,2.25651821834404e-05
4,0.0805599823170002,4.2118941554847e-05
4,0.152745248895474,0.000544340743300607
4,0.00540529547940379,8.5364589892985e-10
4,0.0304935663253937,8.64635132550001e-07
4,0.0118206757938642,1.95240191220968e-08
4,0.0194587829138657,1.43371454797147e-07
4,0.0247557172395206,3.75579651047952e-07
4,0.0755407856990373,3.25631185579156e-05
4,0.050181622498021,6.34130724930196e-06
4,0.0622098856269893,1.49774407965385e-05
4,0.109337735851983,0.000142915819973749
4,0.124535998305229,0.000240535746004181
4,0.0214288760883824,2.10861637220379e-07
4,0.0112997307440831,1.63031821213242e-08
4,0.00957242840760436,8.3963108304049e-09
4,0.00611999083948856,1.40282368025512e-09
4,0.00428723986750324,3.37840048233484e-10
4,0.00617765770087688,1.45644927228835e-09
4,0.0358096790295781,1.64437821064814e-06
4,0.0175207381268899,9.42344269731611e-08
4,0.00678340533310311,2.11734230081901e-09
4,-0.0387688387626898,-2.25907771469889e-06
4,0.0336585950830042,1.28346472782752e-06
4,0.0372592872016339,1.92725050894166e-06
4,0.027772498353147,5.94921684218836e-07
4,0.0381362082943097,2.11519321114239e-06
4,0.0305757290732687,8.73991655209761e-07
4,0.0374329438314005,1.96343229619799e-06
4,0.0101285280020547,1.05241088779607e-08
4,-0.0524236789875944,-7.55283474241595e-06
4,-0.153304623910855,-0.000552358467810626
4,0.0409380644200611,2.80872500268877e-06
4,0.0456299731881006,4.3351173118246e-06
4,0.044305513770825,3.85328478971036e-06
4,0.0502356568746286,6.36866407023817e-06
4,0.0184339005315095,1.15469944987771e-07
4,0.0194486404033239,1.43072770141498e-07
4,0.0823605825146883,4.60126915511041e-05
4,-0.0668756078465732,-2.00018870162031e-05
4,-0.0275735962981397,-5.78060975413439e-07
4,0.0233994045787081,2.99791438461318e-07
4,-0.064059342212665,-1.68395274178369e-05
4,-0.0394957755638906,-2.43333882367464e-06
4,0.00714786718737993,2.61039300847956e-09
4,0.0381029324801449,2.10782040598951e-06
4,-0.0167978130598109,-7.96179470361949e-08
4,-0.0657003974516124,-1.86325367827965e-05
4,-0.0286431759282668,-6.73107890918304e-07
4,0.0316908467717989,1.00863811233709e-06
4,0.00167265802067787,7.82760009004412e-12
4,0.0055411091243369,9.42728881262165e-10
4,0.0162002132088944,6.88783795259181e-08
4,0.00998823845024072,9.95303673633275e-09
4,-0.0154900863052958,-5.75725346726898e-08
4,0.024050394370766,3.34571396250561e-07
4,0.00468910949119204,4.83461054212946e-10
4,0.000916725228198529,7.06247190282195e-13
4,0.00559735772350154,9.81594809131188e-10
4,0.0173296556400565,9.01902792283243e-08
4,0.0152396432231255,5.39385415371296e-08
4,0.00579598745291779,1.12852126388803e-09
4,0.0011459762000124,1.72465563866912e-12
4,0.00646343888135668,1.74523769964306e-09
4,-0.0164956563334689,-7.40420441424883e-08
4,0.0160985037546856,6.71648505730542e-08
4,0.00627129944792607,1.54678571822396e-09
4,-0.0138711382780712,-3.70210220712442e-08
4,0.00927722156196078,7.40750093204364e-09
4,0.0153887533765554,5.60807429459587e-08
4,0.0136029953244925,3.42403499860604e-08
4,0.0633625745418495,1.61187463300589e-05
4,0.0140823583508196,3.93279732757771e-08
4,0.0242333238166949,3.44867240789893e-07
4,0.00460235734261316,4.48664122968316e-10
4,0.0367578054385871,1.82556919487306e-06
4,0.0350832586275859,1.514954885673e-06
4,0.036327514966233,1.74157732429146e-06
4,0.126546647091714,0.000256449921996786
4,0.0376076791578507,2.00035065340506e-06
4,0.0439578238407262,3.73374571386342e-06
4,0.0833459560236057,4.82545344719372e-05
4,0.00868785900341849,5.69706344901581e-09
4,0.0490119005993049,5.770403415e-06
4,0.0189992138290174,1.30299431951613e-07
4,0.0312758410669606,9.56832658343466e-07
4,0.0397895326397909,2.50654411256679e-06
4,0.12141569275193,0.00021731979589527
4,0.0806562495032496,4.23206270823378e-05
4,0.0999891156747065,9.99564698064225e-05
4,0.151646472724059,0.000528846034928329
4,0.200165041531667,0.00160528786990023
4,0.00680721097545006,2.14722148230383e-09
4,0.0989157408860063,9.57329921259422e-05
4,0.0787654203548377,3.84895098331836e-05
4,0.571299858068455,0.106526207238128
4,0.00611999083948855,1.40282368025512e-09
4,0.00277700080941424,5.94708335054211e-11
4,0.0175207381268899,9.42344269731607e-08
4,-0.0649704012013204,-1.78181329217623e-05
4,0.0564064464195432,1.01231334238859e-05
4,0.0624406331276306,1.52008961526291e-05
4,0.0465422854528073,4.69235457393851e-06
4,0.0639102132603189,1.6683265717739e-05
4,0.0305757290732687,8.7399165520976e-07
4,0.0627316539904494,1.54862745132253e-05
4,0.0169738003219637,8.30073129624918e-08
4,-0.0311710604733907,-9.44074594670499e-07
4,-0.09115475668746,-6.90426329180256e-05
4,0.0243417269895015,3.51079562692259e-07
4,0.027131530657779,5.4187258937705e-07
4,0.0263440085802036,4.81645421892573e-07
4,0.0502356568746286,6.36866407023817e-06
4,0.0109607764911754,1.44332883253427e-08
4,0.0115641396759029,1.78835327511105e-08
4,0.0489715095881873,5.75140521503217e-06
4,-0.00990344208266371,-9.61932646637669e-09
4,-0.00644690639671989,-1.72744989233106e-09
4,-0.0131904066606886,-3.02714162737743e-08
4,-0.0161713900007455,-6.83894961248467e-08
4,-0.0105143916556009,-1.22218401962116e-08
4,-0.0241340609691454,-3.39251379393248e-07
4,-0.0419379551275739,-3.0933495816641e-06
4,-0.0196586831610055,-1.49354286970702e-07
4,-0.0314191608215776,-9.74492104916079e-07
4,-0.0172995174075806,-8.95645096103154e-08
4,0.00717779610810847,2.65438839871822e-09
4,0.0391095682922815,2.33954869101701e-06
4,0.00354643893023898,1.58186691479577e-10
4,0.00588271754619255,1.19760054891959e-09
4,0.00520006899311811,7.31200404709684e-10
4,0.0242218534476707,3.44214759625705e-07
4,0.0122254205564224,2.23385629548389e-08
4,0.00926376527914356,7.36461707136e-09
4,0.00301814469723445,8.29774775171028e-11
4,0.0241051199000243,3.37627011095318e-07
4,0.023006981663104,2.80180938323508e-07
4,0.0238229430044187,3.22093267263307e-07
4,0.0829870571622757,4.74287257380145e-05
4,0.0326486290436549,1.13621311450505e-06
4,0.0288267648620968,6.90531703263824e-07
4,0.0546568066063628,8.92435865554194e-06
4,0.0085906497065214,5.44633112785515e-09
4,0.0484635016905549,5.51644334325e-06
4,0.0187866297830298,1.2456484968629e-07
4,0.030925892648278,9.14721687395753e-07
4,0.0393443237004819,2.39622910044523e-06
4,0.120057160791404,0.000207755377779408
4,0.0797537789058928,4.04580624196321e-05
4,0.0988703277629465,9.55573055854379e-05
4,0.149949685634785,0.000505571097750458
4,0.173770738711245,0.000911814699703646
4,0.00424524918992051,3.24797554852659e-10
4,0.0858724442210456,5.4377006830851e-05
4,0.0491212683375097,5.82208159909165e-06
4,0.356285454999647,0.0161135923442553
4,0.00617765770087689,1.45644927228835e-09
4,0.00772913752104569,3.56881584375e-09
4,-0.0114381748737191,-1.71169715200378e-08
4,-0.0334491041282519,-1.2518086896923e-06
4,0.00893216097899282,6.36540683309895e-09
4,0.00995587533893065,9.82466611453867e-09
4,0.00966689526884575,8.73269020883796e-09
4,0.0184339005315095,1.15469944987771e-07
4,0.0109607764911754,1.44332883253427e-08
4,0.00424344407499405,3.24245480713586e-10
4,0.0179700235408374,1.0427845407731e-07
4,-0.0128772322661438,-2.74973040873999e-08
4,-0.00793945516610618,-3.97340471154697e-09
4,0.00714786718737992,2.61039300847955e-09
4,0.00765946534291784,3.44186491859196e-09
4,0.00026486891003637,4.92179972307693e-15
4,0.0016172414521862,6.84068287454032e-12
4,0.00500704776032776,6.28531337806567e-10
4,0.00440318163577172,3.75894874278427e-10
4,0.00167463142937128,7.86460565155829e-12
4,0.000845819564001734,5.11812519535876e-13
4,0.00186747779916109,1.21624702299692e-11
4,-0.00476608080478641,-5.15995132258066e-10
4,0.00518852354093706,7.24728209239766e-10
4,0.00860655408806003,5.48677574001294e-09
4,0.00760782320407025,3.34997562022503e-09
4,0.0354371411126761,1.57701096093562e-06
4,0.0178860777254605,1.02343544680182e-07
4,0.00787591924232285,3.84773379128282e-09
4,0.00144422812873839,4.35054031413613e-12
4,0.00299925519667678,8.09195911916618e-11
4,0.0239542544772328,3.29253678595672e-07
4,0.0228629890992771,2.73232299501529e-07
4,0.0236738436270497,3.1410518001299e-07
4,0.0824676705125956,4.62524676852286e-05
4,0.0324442928177966,1.10803441468082e-06
4,0.024508098513944,3.60776689793273e-07
4,0.0543147289784023,8.70302973364521e-06
4,0.037187133959464,1.91236520394637e-06
4,0.00141566647134208,4.01646313723846e-12
4,0.00864380232323304,5.58237883396707e-09
4,0.0267615766370283,5.12916634348755e-07
4,0.023534044098023,3.06751186753356e-07
4,0.00895053921613924,6.41795693967278e-09
4,0.00452072082524905,4.17667567466124e-10
4,0.00176969067001855,9.80820298113632e-12
4,-0.0254736608917851,-4.21080812775e-07
4,0.0131834727989168,3.02078147874695e-08
4,0.00438633280766188,3.70174348430631e-10
4,-0.0113594267495661,-1.6650437966129e-08
4,0.00136860371028497,3.5084141356021e-12
4,-0.0795413045767344,-4.00286403514233e-05
4,0.0690567127767245,2.27417355585719e-05
4,0.0764441857482028,3.4148987875703e-05
4,0.0569803177207997,1.05414284687559e-05
4,0.0782433484249404,3.74791481371751e-05
4,0.0374329438314005,1.96343229619799e-06
4,0.0627316539904494,1.54862745132253e-05
4,0.0207805122989844,1.86476882381737e-07
4,-0.012067817638977,-2.12087442499804e-08
4,-0.03529039320201,-1.55105068198001e-06
4,0.00942385398077269,7.88704271735421e-09
4,0.010503921242073,1.21732299852678e-08
4,0.0101990335457766,1.08202197472105e-08
4,0.0194486404033239,1.43072770141498e-07
4,0.0115641396759029,1.78835327511105e-08
4,0.00424344407499405,3.24245480713586e-10
4,0.0189592281507442,1.29205979031979e-07
4,-0.0167051286814156,-7.78752226992266e-08
4,-0.0108746433871485,-1.39849235325629e-08
4,-0.0222495813867311,-2.45068435090667e-07
4,-0.0272779048602413,-5.53661138295519e-07
4,-0.0177356785799845,-9.89444043095092e-08
4,-0.0407093403212257,-2.74647885313121e-06
4,-0.0707409536193423,-2.50428435297081e-05
4,-0.0331602718701866,-1.20912814421909e-06
4,-0.0529978486475255,-7.88919993039417e-06
4,-0.0291808304635729,-7.25087786159477e-07
4,0.00717779610810847,2.65438839871823e-09
4,0.0659700299697667,1.89402944130724e-05
4,0.00574230765268116,1.08729108470686e-09
4,0.0458622857272353,4.4240780764214e-06
4,0.0437729731746108,3.67133643320457e-06
4,0.045325417316476,4.22053246758815e-06
4,0.157890777686398,0.00062147985449812
4,0.0621171253249441,1.48883097762731e-05
4,0.0469226632682736,4.84764285886185e-06
4,0.0548456648289052,9.04834645656043e-06
4,0.00290209600175032,7.09327993356382e-11
4,0.0587032859286853,1.18754382734042e-05
4,0.0421704244470652,3.16250986506702e-06
4,0.243560400857324,0.00351906039702127
4,0.00428723986750324,3.37840048233484e-10
4,0.00277700080941424,5.94708335054211e-11
4,0.0358096790295781,1.64437821064814e-06
4,0.00772913752104569,3.56881584375e-09
4,0.00678340533310311,2.11734230081901e-09
4,-0.0215221205779069,-2.14555790953858e-07
4,0.0186852215588286,1.21896997189898e-07
4,0.020684108613853,1.83040518978923e-07
4,0.0154176157290888,5.65026566738485e-08
4,0.0211709223048538,2.00890367553104e-07
4,0.0101285280020547,1.05241088779607e-08
4,0.0169738003219637,8.30073129624919e-08
4,0.0207805122989844,1.86476882381738e-07
4,-0.0511044715628199,-6.82080459052739e-06
4,-0.149446813813946,-0.000498823197031088
4,0.039907884936633,2.53649987656695e-06
4,0.0444817249044148,3.91495234165678e-06
4,0.0431905946378364,3.4798196278102e-06
4,0.0823605825146884,4.60126915511042e-05
4,0.0489715095881874,5.75140521503219e-06
4,0.0179700235408374,1.0427845407731e-07
4,0.0189592281507442,1.2920597903198e-07
4,-0.092387917455053,-7.28552261470429e-05
4,-0.0380926203254244,-2.10553949516914e-06
4,0.0233994045787081,2.99791438461319e-07
4,-0.068644296082378,-2.22033151624472e-05
4,-0.0423226280221597,-3.20841478851946e-06
4,0.0381029324801449,2.10782040598952e-06
4,0.00765946534291785,3.44186491859198e-09
4,-0.0495809568294535,-6.04309768668312e-06
4,-0.193923373127656,-0.00141423189269082
4,-0.0845441048844378,-5.10896963551116e-05
4,0.0316908467717989,1.00863811233709e-06
4,-0.0910210266712833,-6.86383633294259e-05
4,-0.0592525340366585,-1.23261575285591e-05
4,-0.12123101709953,-0.00021600061875
4,-0.148628780608133,-0.000487990827563807
4,-0.0966361710734979,-8.72085078798389e-05
4,-0.221812475786007,-0.00242071620296859
4,-0.385445353276532,-0.0220724863880375
4,-0.180679960501058,-0.00106571222525144
4,-0.288768718114314,-0.00695345390269111
4,-0.158997227652004,-0.000639084386369755
4,0.0391095682922815,2.33954869101703e-06
4,0.0659700299697668,1.89402944130725e-05
4,-0.0264930381549665,-4.92637037379623e-07
4,-0.0877649905940709,-5.93314882945919e-05
4,-0.256593315164264,-0.00433492263769524
4,-0.158202560889219,-0.0006264033004131
4,-0.040846405881773,-2.78365490579013e-06
4,-0.0153811882177298,-5.59705463709678e-08
4,-0.0939147413192993,-7.77920231583872e-05
4,-0.290764000977647,-0.00714763793076816
4,-0.255696923762613,-0.00427466428444126
4,-0.097247431595307,-8.94360396758953e-05
4,-0.0491175423735552,-5.82031532563375e-06
4,-0.0192276541358718,-1.36680074237903e-07
4,-0.108446202755107,-0.000138311215875
4,-0.138363745855566,-0.000366512882165982
4,-0.0460356271139063,-4.49134332628071e-06
4,-0.0539006914070782,-8.4406782244355e-06
4,0.029617757207163,7.69500089387236e-07
4,0.599104808679604,0.128828283931915
4,0.430376318303354,0.0343078469572597
4,0.342703510263317,0.0137934914964281
4,-0.0194538560796917,-1.432263071463e-07
4,-0.058766748630873,-1.19268746042028e-05
4,0.0368073210175915,1.83542581502726e-06
4,-0.0278222607528115,-5.99197049493439e-07
4,0.0245884805251007,3.65533148529509e-07
4,-0.0272402892490899,-5.50613504939918e-07
4,0.0444718678375136,3.91148331054935e-06
4,-0.0205130450013376,-1.77060029039503e-07
4,0.0837028646336248,4.90864117335698e-05
4,0.0268204197003994,5.17442716924864e-07
4,0.0505474139942903,6.52823482600304e-06
4,0.0160595558610594,6.65172247987571e-08
4,0.0172232028122543,8.79945273033246e-08
4,0.0238415783111897,3.23102269954805e-07
4,0.0221461792226122,2.40544394516193e-07
4,0.0214859624294115,2.1311756622733e-07
4,0.0394440624869887,2.42061963930015e-06
4,0.0402173456394405,2.61609562430228e-06
4,0.0304800515236984,8.63103320093613e-07
4,0.0382494592787634,2.14043084180132e-06
4,-0.00927634806294253,-7.40471150593517e-09
4,0.0255518755119942,4.26276245221976e-07
4,-0.0135812215843132,-3.40216474597022e-08
4,0.0462143087536457,4.56148074552753e-06
4,-0.0072317308654317,-2.7350736193094e-09
4,0.0869824052337177,5.72434302316551e-05
4,0.0376878500682577,2.01746242136761e-06
4,0.0525278993354979,7.61307542353104e-06
4,0.00800683079024178,4.11000738593946e-09
4,0.0178980207307767,1.02617168510822e-07
4,0.00375891168797503,1.99640426963944e-10
4,0.00560790418984251,9.89013775404094e-10
4,0.00448698700855,4.05339799540971e-10
4,0.0154284754678593,5.66620205378927e-08
4,0.0123360235113201,2.31579842235958e-08
4,0.0472792958524985,4.99670832899918e-06
4,0.0294660094303519,7.53850615971545e-07
4,0.0230138830248105,2.80517271049301e-07
4,0.0530175610066298,7.90094391867174e-06
4,0.0973299658380965,8.97400451642982e-05
4,0.0402173456394405,2.61609562430228e-06
4,0.0268259884992706,5.17872603112475e-07
4,-0.0590583275386176,-1.21653491093549e-05
4,0.0311656364392096,9.43417657578082e-07
4,0.022700864032674,2.65564213055816e-07
4,0.0306963748920749,8.87867912493509e-07
4,0.00456758156961649,4.35256482051397e-10
4,0.00293956740382664,7.46678578101788e-11
4,0.0125663381200265,2.49364693784679e-08
4,0.0321357767349878,1.06648611556033e-06
4,0.0385085110318873,2.19900849027961e-06
4,0.0641810221081639,1.69678382887674e-05
4,0.0181857673060183,1.09377128931065e-07
4,0.0431822702960089,3.4771376703235e-06
4,0.0769109719001409,3.49907456802899e-05
4,0.0304800515236984,8.63103320093614e-07
4,0.0268259884992706,5.17872603112475e-07
4,-0.178405035731955,-0.00101304429496613
4,0.0311656364392096,9.43417657578083e-07
4,-0.0778250838304902,-3.66841439231247e-05
4,-0.0249696885383471,-3.88733976305222e-07
4,-0.0745477138580083,-3.08842684139208e-05
4,-0.0357659988834081,-1.63636972025032e-06
4,-0.076457457420034,-3.41727088268882e-05
4,-0.025938262602552,-4.52651049021171e-07
4,0.0188526578172796,1.26325300491575e-07
4,0.00904500089333942,6.69321007884913e-09
4,0.0279881412421005,6.1361536752377e-07
4,0.00424629425379569,3.2511749795685e-10
4,0.00506877222261264,6.60102081793743e-10
4,0.0040770464529136,2.76301115906963e-10
4,0.0139355191340039,3.77131325703859e-08
4,0.0445708624944094,3.94642771964502e-06
4,0.0332865884896054,1.22765729278951e-06
4,0.0890161621025685,6.27878285410811e-05
4,0.0463042327835295,4.59708750982215e-06
4,0.109949822972054,0.000146143040235135
4,0.106672024178596,0.000129479837260885
4,0.0113793457238261,1.67675329675698e-08
4,0.00985188240752852,9.42056342313058e-09
4,0.00215558241687863,2.15902926727662e-11
4,0.0171926824756306,8.73724612506574e-08
4,0.0032185717641768,1.07313111681251e-10
4,0.0282474277401716,6.36671816462355e-07
4,0.0148161979081147,4.81889076675095e-08
4,0.0261719615435879,4.69186053131694e-07
4,0.00604796565534492,1.33794193210998e-09
4,0.00743569676267873,3.05693835836829e-09
4,0.00822591035741636,4.5786335868739e-09
4,0.0121080795341683,2.14931990209326e-08
4,0.0157142906515672,6.09788354863367e-08
4,0.0100704924330439,1.02849652783306e-08
4,-0.00172935736536094,-8.94414830301599e-12
4,-0.00492232972024885,-5.87060426184062e-10
4,-0.00243247216116203,-3.50099519289483e-11
4,-0.00398983980166753,-2.53408882500703e-10
4,-0.00201641897933443,-1.65319128107602e-11
4,-0.00524187262904308,-7.54998094785071e-10
4,-0.00274663158315079,-5.69117104883579e-11
4,-0.00440787190297889,-3.77499047392536e-10
4,-0.00352544789137206,-1.54474642754115e-10
4,0.00791848708017756,3.93159568586502e-09
4,0.0211467365130338,1.99973945872989e-07
4,0.112552475642651,0.000160479738419638
4,-0.125827467470893,-0.000250669689221096
4,0.0556201594022385,9.57037415068441e-06
4,0.181543615388566,0.00108623531995808
4,0.00985188240752851,9.42056342313055e-09
4,0.0171926824756306,8.73724612506574e-08
4,0.00211736611746156,2.0099434400258e-11
4,0.0282474277401716,6.36671816462356e-07
4,0.00345828562118371,1.43035367417342e-10
4,0.00610886266812024,1.39264828246008e-09
4,0.00258444600964946,4.46138657300498e-11
4,0.00487865258220766,5.66499550016204e-10
4,0.00382257785145273,2.13513508212794e-10
4,0.00687433399393175,2.23317375461508e-09
4,0.0183582707404008,1.13586595166925e-07
4,0.0977110023136014,9.11536100404943e-05
4,-0.0488414679649368,-5.69055773558079e-06
4,0.048285935009461,5.4360392275313e-06
4,0.0444441867025186,3.90175372165349e-06
4,0.0148161979081147,4.81889076675097e-08
4,0.00345828562118372,1.43035367417343e-10
4,0.00320418974488235,1.05407837698361e-10
4,0.00604796565534492,1.33794193210998e-09
4,0.00185356064883638,1.18039457042218e-11
4,0.00822591035741637,4.57863358687391e-09
4,0.00195549181636564,1.46225801718193e-11
4,0.0157142906515672,6.09788354863367e-08
4,0.0102898013561783,1.12105769304492e-08
4,0.00258444600964946,4.46138657300501e-11
4,0.0134237257444188,3.24707472081056e-08
4,0.0105179116261997,1.2238214753207e-08
4,-0.00456020912136666,-4.32453120977759e-10
4,0.00607658258697173,1.36344498591563e-09
4,0.00300287035161542,8.131044315991e-11
4,-0.0122551059210298,-2.25563215423883e-08
4,0.00327049748927656,1.1440770669864e-10
4,0.0113793457238261,1.67675329675698e-08
4,0.00215558241687863,2.15902926727661e-11
4,0.0032185717641768,1.07313111681251e-10
4,0.00211736611746155,2.00994344002579e-11
4,0.0261719615435879,4.69186053131695e-07
4,0.00610886266812024,1.39264828246008e-09
4,0.00320418974488235,1.05407837698361e-10
4,0.00743569676267874,3.0569383583683e-09
4,0.00185356064883639,1.18039457042218e-11
4,0.0121080795341683,2.14931990209326e-08
4,0.00195549181636564,1.46225801718193e-11
4,0.0100704924330439,1.02849652783306e-08
4,0.0102898013561783,1.12105769304492e-08
4,0.00487865258220767,5.66499550016206e-10
4,0.0134237257444187,3.24707472081056e-08
4,0.0198546367472969,1.55398843772996e-07
4,-0.0129798810461411,-2.83846046493015e-08
4,0.00607658258697173,1.36344498591562e-09
4,0.00854717380795707,5.33691323058401e-09
4,-0.0156082241148182,-5.93490770385172e-08
4,0.0102235367461761,1.09245774811256e-08
4,-0.0146288749505291,-4.57977044480558e-08
4,0.00672204084324092,2.04175951277831e-09
4,0.190379275311036,0.00131364699677722
4,0.0536865178597757,8.30732009893057e-06
4,0.00382257785145274,2.13513508212795e-10
4,0.0105179116261997,1.2238214753207e-08
4,0.0198546367472969,1.55398843772995e-07
4,-0.00641427963877576,-1.69274507354151e-09
4,0.00300287035161542,8.13104431599099e-11
4,0.00854717380795708,5.33691323058402e-09
4,-0.00619358906655606,-1.47153145300343e-09
4,0.00327049748927656,1.1440770669864e-10
4,-0.00817838286896367,-4.4737298193168e-09
4,0.0102235367461762,1.09245774811256e-08
4,-0.0117002801993031,-1.87406672478714e-08
4,0.00672204084324093,2.04175951277831e-09
4,-0.274678833085597,-0.00569247031936795
4,-0.122814609089903,-0.000227509806442712
4,0.018004757572657,1.05087028664159e-07
4,0.0268835020597893,5.2232807652083e-07
4,0.0731643048172248,2.86547749366859e-05
4,0.218604410160084,0.00228368225301861
4,0.0621075383374492,1.48791206195936e-05
4,0.0283699444291013,6.47789553915543e-07
4,0.101134169111857,0.000104614442047201
4,0.0841149813964368,5.00602959577821e-05
4,-0.0411143422825364,-2.85741544911136e-06
4,0.00454838908714273,4.27986859910463e-10
4,-0.0437833622939506,-3.674823108264e-06
4,-0.0368172724007377,-1.837411554132e-06
4,0.0961822641620815,8.55815179345314e-05
4,0.174468969119549,0.00092655836211668
4,1.51636456038083,5.28706321561095
4,0.0731643048172248,2.86547749366858e-05
4,0.0436277349142341,3.62285258359326e-06
4,0.0283699444291013,6.47789553915539e-07
4,0.0185956975963989,1.1957761862729e-07
4,0.00335706489764419,1.27010301759751e-10
4,-0.0115711206197647,-1.7926755e-08
4,0.0709899915350695,2.53973554706711e-05
4,0.128771668548555,0.00027496745389585
4,0.018004757572657,1.05087028664159e-07
4,0.0268835020597893,5.2232807652083e-07
4,0.218604410160084,0.00228368225301862
4,0.0436277349142341,3.62285258359328e-06
4,0.0621075383374493,1.48791206195936e-05
4,0.101134169111857,0.000104614442047202
4,0.0185956975963989,1.19577618627291e-07
4,0.0841149813964368,5.00602959577821e-05
4,-0.10841599454875,-0.000138157171262644
4,-0.130369541487508,-0.000288871404129
4,-0.046681018294498,-4.74855294375001e-06
4,-0.122189411540288,-0.000222912433519545
4,1.59016545690553,6.39395035987843
4,0.0492204147448475,5.8692292802564e-06
4,0.0808687132340793,4.27683141072871e-05
4,0.0226695990454369,2.64104229036298e-07
4,0.0605403573960527,1.34332136419852e-05
4,0.322223105064786,0.0107801974001658
4,0.159233285313861,0.000642888152447271
4,0.0492204147448475,5.86922928025642e-06
4,0.0808687132340794,4.27683141072872e-05
4,0.0196803245075643,1.50013043021475e-07
4,0.0525573424113146,7.63015898437142e-06
4,0.279733896431063,0.00612322726626542
4,0.138236354383742,0.000365164951818375
4,0.00509252515483972,6.72562628330539e-10
4,0.00552962307702217,9.34936501513847e-10
4,0.041410098104899,2.94052609347097e-06
4,0.007321913501681,2.87407684587845e-09
4,0.011764992543948,1.91587259444628e-08
4,0.00845762356945331,5.11674067702441e-09
4,0.019157783054846,1.34704158683671e-07
4,0.00176399295070884,9.68249722221206e-12
4,0.0159338488604482,6.44588827172263e-08
4,-0.00778826440963132,-3.67927923286732e-09
4,-0.00829385521832391,-4.73179367421057e-09
4,-0.00697427312172189,-2.36589683710529e-09
4,0.0472781302709532,4.99621560967741e-06
4,0.0247727510727828,3.7661442893617e-07
4,0.287244000073827,0.0068077541535319
4,0.00552962307702217,9.3493650151385e-10
4,0.00160349298956301,6.6110168208964e-12
4,0.007321913501681,2.87407684587845e-09
4,0.00300893052035259,8.19688114778613e-11
4,0.00845762356945331,5.11674067702442e-09
4,0.00269594149373711,5.28252854254391e-11
4,0.00176399295070884,9.68249722221207e-12
4,0.00154881353580386,5.75435355416967e-12
4,0.002593994903931,4.52768781165488e-11
4,0.0363480981323943,1.74552779032258e-06
4,0.0190456429186688,1.31577778723404e-07
4,0.0235060706109004,3.05295319148936e-07
4,0.00509252515483972,6.7256262833054e-10
4,0.041410098104899,2.94052609347098e-06
4,0.00160349298956301,6.6110168208964e-12
4,0.0117649925439481,1.91587259444629e-08
4,0.00300893052035259,8.19688114778618e-11
4,0.019157783054846,1.34704158683672e-07
4,0.00269594149373712,5.28252854254392e-11
4,0.0159338488604482,6.44588827172264e-08
4,0.00154881353580386,5.75435355416967e-12
4,0.002593994903931,4.52768781165489e-11
4,-0.0205371747400534,-1.77894611459606e-07
4,-0.024695821547859,-3.71958007895419e-07
4,-0.0231462645952927,-2.87027596092632e-07
4,0.301224058221233,0.00823300958297873
4,0.0320624958897338,1.0567914893617e-06
4,0.00311392171251002,9.40222757648912e-11
4,0.00169977117407724,8.34760402082944e-12
4,0.0119598232613324,2.04596899151991e-08
4,0.0200167097649691,1.6053538297133e-07
4,0.00528194484466355,7.78350928008142e-10
4,0.0764265123320944,3.41174186987674e-05
4,0.0764265123320944,3.41174186987675e-05
4,0.00311392171251002,9.40222757648916e-11
4,0.00169977117407724,8.34760402082948e-12
4,0.0119598232613324,2.04596899151991e-08
4,0.0200167097649692,1.60535382971331e-07
4,0.00528194484466355,7.78350928008143e-10
4,-0.0276315294913631,-5.82934421444988e-07
4,-0.010360469648458,-1.15217320517927e-08
4,-0.0404544894380181,-2.67834734177427e-06
4,-0.0117656462861471,-1.9162984650644e-08
4,-0.0215412124821016,-2.15318119632835e-07
4,-0.0172567650784194,-8.86824224592535e-08
4,0.183400287520776,0.00113135799111888
4,0.175676934513224,0.000952486827637914
4,0.180177379628444,0.00105390403250238
4,-0.0444276150315596,-3.89593766972288e-06
4,-0.0659560246944738,-1.89242156223182e-05
4,-0.109119183532458,-0.000141776558859032
4,0.0238500086037889,3.2355950339684e-07
4,-0.0388812500294257,-2.28539291174522e-06
4,0.0326533647119806,1.13687248666696e-06
4,0.0111966992244106,1.57166523903026e-08
4,0.0718027859108053,2.65806244752235e-05
4,0.0378443226306902,2.05117608855084e-06
4,0.0268101650877722,5.16651807269944e-07
4,0.0133654227949252,3.19102940532727e-08
4,-0.020440591492489,-1.74571697754436e-07
4,0.0085011471938788,5.22288115232393e-09
4,0.0737601714193279,2.95997245362006e-05
4,0.0367454083381024,1.82310764226176e-06
4,0.0164332611516302,7.29281216334473e-08
4,0.056130446327066,9.92645052385165e-06
4,0.0348344401693796,1.47243231840202e-06
4,0.226031987018435,0.00261023501671999
4,0.0877706294592489,5.93467378607645e-05
4,0.0673372004176608,2.0559863432018e-05
4,0.131341166286911,0.000297579817927373
4,0.120754595861222,0.000212625170611055
4,0.0897207606788873,6.47995198727138e-05
4,0.253465379403833,0.00412738129259361
4,0.289917519610151,0.00706476697523823
4,0.335377427339739,0.0126513047062045
4,0.0301878089673036,8.30474634569631e-07
4,0.054599073307013,8.88671160473824e-06
4,0.102763815966444,0.000111522087697828
4,0.062058152633431,1.48318516482561e-05
4,0.0211452983347506,1.99919550936313e-07
4,0.0271893428731968,5.465058885555e-07
4,0.1990436270884,0.0015696148836639
4,0.0831716845691505,4.78522090440098e-05
4,0.0853023547255997,5.29473317764349e-05
4,-0.0210336069092005,-1.95728925990862e-07
4,-0.0312259187384154,-9.50738105427466e-07
4,-0.0516608872892286,-7.12274577999917e-06
4,0.0779272875519324,3.68772255297641e-05
4,0.118337172058177,0.000196103229729084
4,0.0838339517887671,4.93946319950449e-05
4,0.0417929619813227,3.05079206040894e-06
4,-0.063916635951517,-1.66899731037333e-05
4,0.06091815764337,1.37716837698578e-05
4,0.0335793872020359,1.27142593283068e-06
4,0.217888261594897,0.00225390359174012
4,0.0846083340868296,5.12451272646402e-05
4,0.0649111027744701,1.77531715490287e-05
4,0.12660906438772,0.000256956257256366
4,0.131054498729119,0.000294990299315098
4,0.060196290466848,1.31304290268393e-05
4,0.170057358925997,0.000836337788236067
4,0.194514169182556,0.00143154488708774
4,0.225014554930293,0.00256355384836247
4,0.0301878089673036,8.30474634569631e-07
4,0.0364739463123763,1.76982782216423e-06
4,0.068649551711962,2.22101157742328e-05
4,0.0414568524756679,2.95382869038982e-06
4,0.0141257429752349,3.98148605669856e-08
4,0.018163360148063,1.08839058761218e-07
4,0.194880136565756,0.00144234881201548
4,0.0850119667469165,5.22300275222345e-05
4,0.0835180446692848,4.86543048756429e-05
4,-0.0205936369171717,-1.79859013072684e-07
4,-0.0305727512965335,-8.73651232014429e-07
4,-0.0505802718595041,-6.54522585189114e-06
4,0.0362226958936559,1.72156363004374e-06
4,0.0419810761324065,3.10609166311803e-06
4,0.120955536587332,0.000214043976037326
4,0.0451631209437297,4.16040665854218e-06
4,0.0225147515569233,2.5696184158688e-07
4,-0.0344332421197099,-1.40576156612782e-06
4,0.0237836153490086,3.19971641822744e-07
4,-0.0167170557223252,-7.80978647848792e-08
4,0.00943040548094255,7.9089980110635e-09
4,0.0403409152728741,2.64839640587058e-06
4,0.0200967998841462,1.63120157465526e-07
4,0.00898767970597765,6.5251477250979e-09
4,0.0386421841672638,2.22970118178651e-06
4,0.0343223750124708,1.38774390547268e-06
4,0.138212950918934,0.000364917724376972
4,0.0536695618243879,8.2968301285608e-06
4,0.0411750270353794,2.87432301269988e-06
4,0.080311863860967,4.16024416510307e-05
4,0.099528114731356,9.81257774864599e-05
4,0.0615282120347185,1.43316825524153e-05
4,0.129148472537993,0.000278199981160432
4,0.147721968608578,0.000476190082787109
4,0.170885201626056,0.000852742327741008
4,0.054599073307013,8.88671160473821e-06
4,0.0364739463123763,1.76982782216422e-06
4,0.124162767509052,0.00023766516805867
4,0.0749807887630606,3.16082184917052e-05
4,0.0255484747851762,4.26049356251588e-07
4,0.0328510967225175,1.1646608894242e-06
4,0.146752663846025,0.000463814127785369
4,0.0640174663193041,1.67955382620519e-05
4,0.0613215627429425,1.41401122220137e-05
4,-0.0155078456385064,-5.78370159684709e-08
4,-0.0230225243728441,-2.80938827549738e-07
4,-0.0380890005736103,-2.10473929354931e-06
4,0.0218366098613255,2.2737403024132e-07
4,0.0629154634982303,1.56685786380265e-05
4,0.0331601771280038,1.2091143258826e-06
4,0.0117111301368878,1.88102785998239e-08
4,-0.0179105764715795,-1.02905421834194e-07
4,0.060076917889736,1.30265849593987e-05
4,0.0296195627760314,7.69687748763524e-07
4,0.12802777133244,0.000268668494649101
4,0.057256508938712,1.07473021354554e-05
4,0.184100780451848,0.00114874204885641
4,0.163520157126882,0.000714965660099525
4,0.101480275013905,0.00010605387514385
4,0.255694868996277,0.00427452688223453
4,0.196167860996871,0.00148085121614298
4,0.382625287233952,0.0214335779386111
4,0.206445002679925,0.00181642511578267
4,0.12762415858759,0.000265296528664179
4,0.0948248512432699,8.08516114622351e-05
4,0.306410528196954,0.00881484609261302
4,0.354456587496642,0.0157852770299169
4,0.102763815966444,0.000111522087697827
4,0.0686495517119619,2.22101157742327e-05
4,0.124162767509052,0.00023766516805867
4,0.141125325225552,0.000396661292881898
4,0.0480861414310846,5.34662491423251e-06
4,0.0618307940668843,1.46156890901403e-05
4,-0.0743774037537172,-3.06030039646866e-05
4,0.0175667014683363,9.52271712157948e-08
4,-0.10653645661302,-0.00012882287654011
4,0.0286051227370092,6.69538048596437e-07
4,-0.0772625027860143,-3.56348626365962e-05
4,0.0237913594188437,3.20388583180616e-07
4,0.0269424138936885,5.26921614946957e-07
4,-0.0116289164935204,-1.82876123639232e-08
4,0.0126484694307107,2.55948095238023e-08
4,0.0150983908973437,5.19664033955459e-08
4,0.0435013615857208,3.58105838768981e-06
4,0.0229277950965492,2.76343444954825e-07
4,0.0162428054965001,6.9605598982963e-08
4,-0.0123838309372194,-2.35190652905651e-08
4,0.0242199367822706,3.44105822261755e-07
4,-0.0104135190422158,-1.17595326452826e-08
4,0.041509838280749,2.96895876337312e-06
4,0.0204654849810398,1.7542365814792e-07
4,0.177568702900252,0.000994181526799756
4,0.0395610911819471,2.4494752045245e-06
4,0.0991510177579132,9.66470730333462e-05
4,0.0880669270563185,6.015217988822e-05
4,0.0546541547802582,8.92262682183602e-06
4,0.354637167806531,0.0158174692856222
4,0.10564997617878,0.000124588401530673
4,0.206070210870632,0.00180327043348074
4,0.327508385348228,0.0115050813984307
4,0.202465458441016,0.00168036553254071
4,0.150431996504748,0.00051210719505301
4,0.424977483249588,0.0326184771247728
4,0.562316855046628,0.0999825952349912
4,0.277880632422153,0.00596256483452874
4,0.194744982914807,0.00143835177027168
4,0.428893565297102,0.0338374885810601
4,0.062058152633431,1.4831851648256e-05
4,0.0414568524756679,2.95382869038981e-06
4,0.0749807887630606,3.16082184917052e-05
4,0.141125325225552,0.000396661292881898
4,0.0290387922676735,7.11073018661855e-07
4,0.0373390655024128,1.94380984786943e-06
4,-0.11489189453057,-0.000174243892142679
4,-0.0501189402339495,-6.3096826553879e-06
4,-0.0480083313956329,-5.31210250248799e-06
4,-0.0492381960965282,-5.877715141029e-06
4,0.0180242141624602,1.05542008821516e-07
4,0.0298196797386216,7.9070029238819e-07
4,0.0161161068014474,6.74591006826003e-08
4,0.00794568120133625,3.98588298466824e-09
4,0.0689406728395307,2.25892634618372e-05
4,0.0343444588840567,1.39131899014713e-06
4,0.0660376235506872,1.90180394917085e-05
4,0.0586552786619968,1.18366391937375e-05
4,0.0364013459516065,1.75577866914714e-06
4,0.236199247514234,0.00311253353145064
4,0.0917186850657314,7.07670805083127e-05
4,0.137249090510717,0.000354844355258791
4,0.328904797893126,0.011702558887115
4,0.203328719715304,0.00170920795042079
4,0.151073400317509,0.00052089719308206
4,0.426789479263914,0.0331783527766033
4,0.48816823628904,0.0567908110184939
4,0.241238541955419,0.00338677838785216
4,0.12334876152957,0.000231493698430735
4,0.271655214504511,0.00544593161362595
4,0.0211452983347506,1.99919550936313e-07
4,0.0141257429752349,3.98148605669855e-08
4,0.0255484747851763,4.26049356251589e-07
4,0.0480861414310846,5.34662491423252e-06
4,0.0290387922676735,7.11073018661856e-07
4,0.0127226745574115,2.62007469537582e-08
4,-0.17056537082781,-0.000846376216797785
4,-0.0744052107542355,-3.06487950274255e-05
4,-0.0712718584785958,-2.58031266634945e-05
4,-0.0730976820463361,-2.85505462676742e-05
4,0.0180242141624602,1.05542008821517e-07
4,0.0442694826590332,3.84076545733047e-06
4,0.110579761394933,0.000149521138072742
4,0.098218051623534,9.30604736611089e-05
4,0.0609539219213949,1.38040529850188e-05
4,0.395514784261417,0.0244709532817498
4,0.153582605864684,0.000556375667444665
4,0.117827828916032,0.000192748719675168
4,0.145141997131775,0.000443784754270283
4,0.105894448673055,0.000125745593311896
4,0.16344229261563,0.000713604832130298
4,0.0271893428731968,5.46505888555499e-07
4,0.018163360148063,1.08839058761218e-07
4,0.0328510967225176,1.1646608894242e-06
4,0.0618307940668843,1.46156890901403e-05
4,0.0373390655024128,1.94380984786943e-06
4,0.0127226745574115,2.62007469537583e-08
4,-0.0278878820067619,-6.04870116928486e-07
4,0.0175667014683363,9.52271712157952e-08
4,-0.0309847011419768,-9.21699276000024e-07
4,0.0286051227370092,6.69538048596438e-07
4,-0.0618953487904547,-1.46768230560666e-05
4,0.0237913594188437,3.20388583180616e-07
4,-0.28218732238423,-0.00634088671956362
4,-0.123097713752038,-0.00022961483735366
4,-0.117913822763744,-0.000193312028311472
4,-0.120934507802132,-0.000213895163961388
4,0.0298196797386217,7.90700292388194e-07
4,0.0442694826590332,3.84076545733048e-06
4,-0.115821235545233,-0.000179950382519339
4,-0.030664738316996,-8.84213317364521e-07
4,-0.0687556592913121,-2.23477499481136e-05
4,-0.198098248762536,-0.00154000646895925
4,-0.104409514807084,-0.000118839361666889
4,-0.0739671404883875,-2.99333496147485e-05
4,-0.0368741521106791,-1.84879250351092e-06
4,-0.056498495793725,-1.01893748984758e-05
4,-0.0345604571132335,-1.42665154854259e-06
4,0.449767654852883,0.0409216257621862
4,0.328146909804318,0.0115950673411811
4,0.229972718092512,0.0027970824803493
4,0.0324234771114663,1.1051935659809e-06
4,0.023514194767679,3.05717602093112e-07
4,-0.00819969771833862,-4.52055096312281e-09
4,-0.00384945559595052,-2.19582263398735e-10
4,-0.00459506864826745,-4.45828693027542e-10
4,-0.0126331711621057,-2.54712067535687e-08
4,-0.0301757807332537,-8.29151825794571e-07
4,-0.0996744304602091,-9.87040677800199e-05
4,0.0461323178620229,4.52919587401555e-06
4,0.0231094191578476,2.8520433312029e-07
4,0.0459193693276431,4.44614537566291e-06
4,0.0166210604079578,7.63193937125584e-08
4,-0.123320651651454,-0.000231282750691938
4,0.0130905187023964,2.93648253373924e-08
4,0.0600624336481045,1.30140269263298e-05
4,0.0929620959353401,7.46833219378433e-05
4,0.0253048097557556,4.1002685902539e-07
4,0.0758944474100025,3.31772215422335e-05
4,0.0156080586607619,5.93465605730106e-08
4,0.0234667970987684,3.03260099563747e-07
4,0.046877508508718,4.82900978351441e-06
4,0.213719429078637,0.00208629646129532
4,0.0877192076765417,5.92077832112214e-05
4,0.0520732828303902,7.35291981968584e-06
4,0.0331408889010499,1.20630356511838e-06
4,0.0344264237768636,1.40464844204944e-06
4,-0.0120049302679809,-2.07700990197535e-08
4,-0.00563587190485336,-1.00889148048067e-09
4,-0.00672750149992271,-2.04840210309952e-09
4,-0.0184958450999185,-1.17029868867748e-07
4,-0.044179450990541,-3.80961649689398e-06
4,-0.14593032917535,-0.000453505176286578
4,-0.00165588267560769,-7.51827573837433e-12
4,-0.00881219300422581,-6.03025950546087e-09
4,-0.0245266004914281,-3.6186737332458e-07
4,0.0471530556626374,4.94355495554778e-06
4,0.0186163929825142,1.2011082567411e-07
4,0.0369915409415352,1.87244768091502e-06
4,0.0133895270247663,3.21411154363376e-08
4,-0.0993441547934189,-9.74023144945402e-05
4,0.0390762731134841,2.3315919398367e-06
4,-0.0482307697194235,-5.41123969414113e-06
4,0.0166286633053954,7.64591313131215e-08
4,0.0330188673780694,1.18863547470937e-06
4,0.00523931098596968,7.53523340606976e-10
4,0.023134442958924,2.86441663577505e-07
4,0.013380163530327,3.20513026712527e-08
4,0.0569718512763024,1.05351646546479e-05
4,0.0881786231805259,6.04579272830161e-05
4,0.0240027213420369,3.31926504925316e-07
4,0.0719892103585495,2.68577507722843e-05
4,0.0148049278512841,4.8042453797199e-08
4,0.0239860306419367,3.31004224528959e-07
4,0.0532354422727848,8.0316257957846e-06
4,0.242705909320509,0.00346993549969552
4,0.0996164464587639,9.84745900855038e-05
4,0.0591359125145503,1.22294017087589e-05
4,0.0176468653931976,9.69773454310857e-08
4,0.0252769579796503,4.08224650497453e-07
4,-0.00639238703362209,-1.66975305845077e-09
4,-0.00300098990027695,-8.11069621562898e-11
4,-0.0035822609875111,-1.64675463190354e-10
4,-0.00984867031739014,-9.40828357564255e-09
4,-0.0235246805570971,-3.06263287005203e-07
4,-0.0777050031286526,-3.64582592700976e-05
4,0.0173430905554148,9.04702867681949e-08
4,0.0136687384725658,3.49070972949177e-08
4,0.013605643055742,3.42670163827586e-08
4,0.0049247238894996,5.88203419749971e-10
4,-0.0365391945128724,-1.78252601689355e-06
4,0.0122092851221657,2.22208641132279e-08
4,0.14873886103312,0.000489438136645037
4,0.0236013288926147,3.1027431672052e-07
4,0.10421286281405,0.000117946567355443
4,0.045075482798707,4.12820778405737e-06
4,0.0418305165842347,3.0617724551788e-06
4,0.29705870211366,0.00778698103405251
4,0.0808610635081454,4.27521338343809e-05
4,0.242519338859679,0.00345927829947023
4,0.0498752701477892,6.18786804907927e-06
4,0.0351804980266171,1.53182069550362e-06
4,0.039087128133873,2.3341837966422e-06
4,0.355978648212426,0.0160581606414853
4,0.146108218169865,0.000455720513201526
4,0.0867351036349862,5.65952010363703e-05
4,0.0849377834858379,5.20479578543748e-05
4,0.0663984779506211,1.94371459929601e-05
4,0.142844425715198,0.000416344842803033
4,0.0846548577167478,5.13579330070009e-05
4,0.098112576634785,9.2661371769318e-05
4,0.0220394869709367,2.35942362464048e-07
4,0.0903093632828421,6.65167652948806e-05
4,0.232603846387777,0.00292730226084146
4,0.0204631823748605,1.75344722626149e-07
4,0.0562983418719449,1.0045751153056e-05
4,0.172521644598895,0.00088587890055844
4,0.193460512737367,0.00140077808252793
4,-0.00463342626723408,-4.60902459391432e-10
4,-0.0189860034656751,-1.29937415201752e-07
4,-0.0945610592404652,-7.99556785914222e-05
4,-0.0438030414183005,-3.68143439327841e-06
4,0.047796446918569,5.21894179450295e-06
4,0.0376701678838791,2.01367891608444e-06
4,0.0188704088526125,1.26801747673383e-07
4,0.0135722236599627,3.39315759976333e-08
4,-0.100699680106122,-0.000102828230811192
4,0.0397931454325668,2.50745458899403e-06
4,-0.0846780000184337,-5.14141154055959e-05
4,0.0336246137848994,1.27828949173236e-06
4,0.206294043469144,0.00181111802706644
4,0.0649985286512655,1.78490087782937e-05
4,0.28700429455771,0.0067850582618258
4,0.0967621713640912,8.76642298623934e-05
4,0.0897963008415803,6.50180267896635e-05
4,0.412006925298944,0.0288149628548974
4,0.173581991762543,0.000907859556400879
4,0.520608906856113,0.0734592307039101
4,0.107065729244039,0.000131401982503773
4,0.222455784933321,0.00244892122897677
4,0.247158461578099,0.00373165884800331
4,0.493726213972211,0.0594216552446858
4,0.923881700980901,0.72856023066883
4,0.548449471800988,0.090478728798352
4,0.456555461654335,0.0434484382107917
4,0.101181599826098,0.000104810831832189
4,0.28737604814445,0.00682028107659311
4,3.48756738071957,147.941639809985
4,-0.0195382637726344,-1.45728291617688e-07
4,-0.0279861528589989,-6.13441011906191e-07
4,-0.0202961529037185,-1.69689474276919e-07
4,0.0033226372471354,1.21879795541896e-10
4,0.00396620921148918,2.47458556587684e-10
4,0.0109042549021232,1.41378698956803e-08
4,0.0260460656128031,4.60223214010347e-07
4,0.0860334577134721,5.47859896058053e-05
4,0.00463188455430672,4.60289328059721e-10
4,0.0284175812309055,6.52151414141331e-07
4,0.0564276471677873,1.01383614019329e-05
4,0.0395356439626546,2.44317889521989e-06
4,0.0228660522510246,2.73378758078333e-07
4,0.0212199341751676,2.02757127329615e-07
4,0.09736213800144,8.98587573484681e-05
4,0.150693001658705,0.000515670556237492
4,0.123026078256636,0.000229080815410661
4,0.0253009055571564,4.0977387062317e-07
4,0.0792652466274347,3.947582917209e-05
4,0.0880672823092354,6.01531504848962e-05
4,0.175924083649554,0.000957858131084987
4,0.802056165416145,0.413827289422304
4,0.195423026009515,0.00145848825167969
4,0.396352825784395,0.0246790157594771
4,0.0227384775697889,2.67328667977972e-07
4,0.0645818393468585,1.73956892009043e-05
4,0.783758833581571,0.377337349752186
4,0.0846548577167477,5.13579330070007e-05
4,0.0182363481954235,1.10599077157425e-07
4,0.00409651618820093,2.81616892266933e-10
4,0.0167859519199397,7.93933083078611e-08
4,0.0432344647324082,3.49397944826358e-06
4,0.0127691078366401,2.65853399831681e-08
4,0.0100638115789882,1.02576998765208e-08
4,0.0050413430515247,6.45929329180774e-10
4,0.0100173566418565,1.00696075284763e-08
4,-0.0269025242939279,-5.23808002392863e-07
4,0.0173882672997201,9.14166349618197e-08
4,0.106680659386264,0.000129521768444428
4,0.211831491166048,0.00201354849415768
4,0.03361263262403,1.27646853898822e-06
4,0.0583058095809907,1.15570587172003e-05
4,0.0541083973637399,8.57153658298424e-06
4,0.248262280536673,0.00379876967117297
4,0.384249863660076,0.02179991941971
4,0.104594992192908,0.000119686059145971
4,0.0645144061356761,1.73231479901941e-05
4,-0.00917249408432633,-7.07863894814663e-09
4,-0.0131384663719077,-2.97974222511409e-08
4,-0.0095282950732136,-8.24253484600195e-09
4,0.0033226372471354,1.21879795541897e-10
4,0.00186198891329021,1.20201078134448e-11
4,0.00511914542395523,6.86736085192984e-10
4,0.0122276669786816,2.23549863336177e-08
4,0.0403895346646023,2.661187031917e-06
4,0.0121080834038178,2.1493226497193e-08
4,0.0112364272588828,1.59409051831559e-08
4,0.0515554182398332,7.06475747429334e-06
4,0.0797952970816594,4.05423747662579e-05
4,0.0217207324312035,2.22586009185212e-07
4,0.0651450455908589,1.80104916943554e-05
4,0.0754098988941461,3.23380206503493e-05
4,0.0195208976244175,1.45210872658924e-07
4,0.0122873098379114,2.27943513667021e-08
4,0.14911758048101,0.000494442044502864
4,0.0849377834858378,5.20479578543746e-05
4,0.0259955737340472,4.566648952539e-07
4,0.0559248180950558,9.7817896771991e-06
4,0.098112576634785,9.26613717693178e-05
4,0.0182363481954235,1.10599077157425e-07
4,0.00474774595682756,5.0810081370115e-10
4,0.0194544417007163,1.43243554138131e-07
4,0.0501075171434978,6.30393221950299e-06
4,0.0204631823748605,1.75344722626149e-07
4,0.00837712171676186,4.92469459129697e-09
4,0.025671001445623,4.34281415461609e-07
4,0.0287866784118502,6.86698698935429e-07
4,-0.0109491430522396,-1.43721095766984e-08
4,-0.0156832968732977,-6.04991751710511e-08
4,-0.0113738602436207,-1.67352247888715e-08
4,0.00396620921148918,2.47458556587685e-10
4,0.00186198891329021,1.20201078134448e-11
4,0.0061106886564125,1.39431412436294e-09
4,0.0145960819068289,4.53884306751469e-08
4,0.0482127095194088,5.40313920613424e-06
4,-0.00523011206432069,-7.48245266215657e-10
4,0.00566956314085058,1.03323327782868e-09
4,0.0157798529889082,6.20028726692143e-08
4,0.0416712046201338,3.01539506988902e-06
4,0.0462985974004029,4.59484999339015e-06
4,0.0924865410666971,7.3166814901734e-05
4,0.421655744578584,0.0316105524438687
4,0.173064788663114,0.000897087624412452
4,0.220938787955235,0.00238280152160469
4,0.0571930678091898,1.06997485117102e-05
4,0.0126750999296503,2.58110438047697e-08
4,0.436890354945815,0.0364325717002111
4,0.0220394869709367,2.35942362464048e-07
4,0.00409651618820094,2.81616892266934e-10
4,0.00474774595682756,5.0810081370115e-10
4,0.00437014222942922,3.64739070075889e-10
4,0.0112558859333694,1.60516149532686e-08
4,0.0562983418719449,1.0045751153056e-05
4,0.00837712171676186,4.92469459129698e-09
4,0.070626102485231,2.4880606412238e-05
4,0.0791979582109904,3.93419553398289e-05
4,-0.0301023572976385,-8.21111292831067e-07
4,-0.0431179137794147,-3.4564554128126e-06
4,-0.0312700275513201,-9.56121437070587e-07
4,0.0109042549021233,1.41378698956804e-08
4,0.00511914542395523,6.86736085192985e-10
4,0.00611068865641249,1.39431412436294e-09
4,0.040128845756115,2.59314422787783e-06
4,0.132550666414358,0.000308693626027467
4,-0.0122180603906647,-2.22848168743958e-08
4,0.00702270317584146,2.43230062282879e-09
4,0.0349770425481871,1.49669166909819e-06
4,-0.0278333469052146,-6.00152652819399e-07
4,0.00566956314085058,1.03323327782868e-09
4,0.0839764266906992,4.97312715428894e-05
4,0.0663984779506211,1.943714599296e-05
4,0.0259955737340472,4.56664895253901e-07
4,0.0437181504953706,3.65297855796984e-06
4,0.0903093632828421,6.65167652948806e-05
4,0.0167859519199398,7.93933083078614e-08
4,0.0194544417007163,1.43243554138131e-07
4,0.00437014222942922,3.64739070075889e-10
4,0.0461223028089247,4.52526410814869e-06
4,0.172521644598895,0.000885878900558438
4,0.025671001445623,4.34281415461609e-07
4,0.070626102485231,2.48806064122379e-05
4,0.242695638008541,0.00346934814642153
4,-0.0719029388355245,-2.67292372213983e-05
4,-0.102992090836683,-0.000112516314756448
4,-0.0746920533889256,-3.11241568920692e-05
4,0.0260460656128032,4.60223214010349e-07
4,0.0122276669786816,2.23549863336177e-08
4,0.0145960819068289,4.53884306751469e-08
4,0.040128845756115,2.59314422787784e-06
4,0.316612495345914,0.01004875372055
4,-0.0500649246458092,-6.28252560580108e-06
4,0.00702270317584145,2.43230062282878e-09
4,0.143322503205682,0.000421946645920261
4,-0.0774673659049639,-3.60143147857675e-05
4,0.0157798529889082,6.20028726692145e-08
4,0.0839764266906992,4.97312715428894e-05
4,-0.134544477705639,-0.000327690241527995
4,0.142844425715198,0.000416344842803034
4,0.0559248180950559,9.78178967719915e-06
4,0.0437181504953706,3.65297855796985e-06
4,0.232603846387777,0.00292730226084146
4,0.0432344647324082,3.49397944826359e-06
4,0.0501075171434978,6.303932219503e-06
4,0.0112558859333694,1.60516149532686e-08
4,0.0461223028089247,4.52526410814869e-06
4,0.193460512737367,0.00140077808252793
4,0.0287866784118502,6.86698698935429e-07
4,0.0791979582109903,3.93419553398288e-05
4,0.242695638008541,0.00346934814642153
4,-0.237504525241604,-0.00318190753530679
4,-0.340195936827567,-0.0133941910426789
4,-0.246717324309042,-0.00370508849634
4,0.0860334577134722,5.47859896058055e-05
4,0.0403895346646023,2.661187031917e-06
4,0.0482127095194088,5.40313920613424e-06
4,0.132550666414358,0.000308693626027467
4,0.316612495345914,0.01004875372055
4,-0.249351703419878,-0.00386588879961834
4,0.0349770425481871,1.49669166909819e-06
4,0.143322503205682,0.000421946645920261
4,-0.382210433398567,-0.0213407732900782
4,-0.301234341071922,-0.00823413383771242
4,-0.150899650726195,-0.000518504987492603
4,-0.299843831892912,-0.00808314700964263
4,-0.108532031598385,-0.000138749596997473
4,-0.163005135915283,-0.000706000734603861
4,-0.281029916612007,-0.00623749510910756
4,3.65730598191899,178.914354250775
4,0.94674434923228,0.80339825967927
4,0.209817023181657,0.001938040660541
4,0.59592245091014,0.126112748193038
4,0.129913339397774,0.000284849187809346
4,0.0368642435041688,1.84680611750704e-06
4,0.0660849078771461,1.90725672853553e-05
4,0.0270958163388125,5.39025063767209e-07
4,0.0704232616092605,2.45960032131576e-05
4,0.0549639241167173,9.12664011101648e-06
4,-0.00775007850224337,-3.60765007474162e-09
4,-0.0268656730562125,-5.20943832886866e-07
4,-0.0178803827905429,-1.02213262003446e-07
4,-0.0286097121196223,-6.69967832572487e-07
4,-0.0240578043628312,-3.34983916286244e-07
4,0.726215790232851,0.278139551790734
4,0.380521879639889,0.0209661425058061
4,0.990850205830062,0.963900078692474
4,0.129913339397774,0.000284849187809346
4,0.0524506669420693,7.56839969484955e-06
4,0.0940260036143031,7.81613245993217e-05
4,0.0270958163388125,5.39025063767209e-07
4,0.0692109888120908,2.29456421409998e-05
4,0.0540177698416981,8.51425396728894e-06
4,0.0393521563112273,2.39813782154711e-06
4,0.0904704255560093,6.69925536380967e-05
4,0.0425436939413977,3.27597653809235e-06
4,0.558325015337915,0.0971736120231089
4,0.292550626334126,0.00732494096709148
4,0.81981819166069,0.451720920132731
4,0.0368642435041688,1.84680611750704e-06
4,0.0524506669420693,7.56839969484954e-06
4,0.0266808436225981,5.06755218551282e-07
4,0.0704232616092605,2.45960032131576e-05
4,0.0692109888120908,2.29456421409997e-05
4,0.140394645783809,0.000388509982213962
4,0.0393521563112273,2.3981378215471e-06
4,0.183154091682741,0.0011252952902032
4,-0.0204364808483997,-1.74431313229855e-07
4,0.0829092448282998,4.72510906899927e-05
4,0.0425436939413977,3.27597653809235e-06
4,-0.0549209983105285,-9.09816254621506e-06
4,0.066084907877146,1.90725672853552e-05
4,0.094026003614303,7.81613245993214e-05
4,0.0266808436225981,5.0675521855128e-07
4,0.0549639241167173,9.12664011101645e-06
4,0.0540177698416981,8.51425396728891e-06
4,0.140394645783809,0.000388509982213961
4,0.0904704255560092,6.69925536380964e-05
4,0.183154091682741,0.0011252952902032
4,-0.0708431292320107,-2.51878411173117e-05
4,0.0829092448282997,4.72510906899925e-05
4,-0.0851884107502655,-5.26649971480949e-05
4,-0.0798432031044971,-4.06398227992799e-05
4,1.03907451509087,1.16569993656306
4,1.11823953205776,1.56364933892098
4,0.0312986782550908,9.59630384855062e-07
4,0.0279568218771839,6.10873376283098e-07
4,0.0957835196307213,8.41711315804436e-05
4,0.0895017085763261,6.41690048350233e-05
4,-0.00230088255758523,-2.80270770414193e-11
4,-0.0105409743797161,-1.2345907849566e-08
4,-0.0437473066056551,-3.66273315531994e-06
4,-0.0243193222933255,-3.49788778721417e-07
4,0.00526271973709544,7.67080548624973e-10
4,-0.0465872507782647,-4.71051433656957e-06
4,-0.0391750521759686,-2.35525716828479e-06
4,0.11128781866863,0.000153387694526678
4,0.201869556386818,0.00166066990209515
4,0.838859921326904,0.495173941009223
4,0.453927248145749,0.0424565804976426
4,0.439545047506519,0.0373261815715159
4,0.363054302628498,0.0173734613378109
4,1.61347261481321,6.77713901914862
4,0.00388429647443396,2.27640474698864e-10
4,-0.0114668159447911,-1.72890594079686e-08
4,0.082139065596638,4.55196623843584e-05
4,0.148995433034713,0.000492823974625221
4,0.0312986782550908,9.59630384855062e-07
4,0.0151178985648105,5.22354942427026e-08
4,0.0517957849543535,7.19743375595149e-06
4,0.0483988400962845,5.4870613334218e-06
4,0.0130508176781968,2.90102111773273e-08
4,0.0110277460913498,1.47892800386832e-08
4,0.0294501763487355,7.5223164390705e-07
4,0.0810596896680482,4.31737474718332e-05
4,0.0102316623021802,1.09593498510077e-08
4,0.0318386438392788,1.02758615226724e-06
4,0.0452127183843701,4.17871236240684e-06
4,0.644927423419193,0.172998914098297
4,0.309017454147971,0.00911868137835969
4,0.337928476206906,0.0130406476280783
4,0.165282108326374,0.000746282703514213
4,0.734540683232389,0.291114219035594
4,0.0130508176781968,2.90102111773272e-08
4,0.0116492367477422,1.84157701631112e-08
4,0.0311098998568969,9.36686912911077e-07
4,0.0856279703775829,5.37604135185662e-05
4,0.0452127183843701,4.17871236240685e-06
4,0.313106957418423,0.00961105078323872
4,0.277247779272507,0.00590843285854839
4,0.250425213595412,0.00393289372910298
4,0.148289673841603,0.000483552507676596
4,0.544338581813873,0.0877963517726394
4,0.0279568218771839,6.10873376283099e-07
4,0.0151178985648105,5.22354942427027e-08
4,0.0462653892971425,4.58168137280906e-06
4,0.0432311467150869,3.49290699369224e-06
4,0.0110277460913498,1.47892800386831e-08
4,0.0116492367477422,1.84157701631112e-08
4,0.0262874009129964,4.77518932176482e-07
4,0.0723543565564608,2.74068260193456e-05
4,-0.00606728593896131,-1.35512030076232e-09
4,0.00460039680678297,4.47900114331825e-10
4,0.0190926343584787,1.32881163461173e-07
4,0.0102316623021802,1.09593498510077e-08
4,0.0550108520209026,9.15784915765123e-06
4,0.0957835196307212,8.41711315804434e-05
4,0.0517957849543535,7.19743375595148e-06
4,0.0462653892971424,4.58168137280905e-06
4,0.148115240288544,0.000481281302441425
4,0.0294501763487355,7.52231643907048e-07
4,0.0311098998568969,9.36686912911077e-07
4,0.0262874009129964,4.77518932176481e-07
4,0.193226117334937,0.00139400171860175
4,-0.0277959018056634,-5.96929545437915e-07
4,0.00460039680678297,4.47900114331823e-10
4,0.0874685971913437,5.85340596384818e-05
4,0.0318386438392788,1.02758615226724e-06
4,0.0550108520209026,9.15784915765122e-06
4,-0.0746987060753171,-3.11352470635581e-05
4,0.0895017085763261,6.41690048350232e-05
4,0.0483988400962845,5.4870613334218e-06
4,0.0432311467150869,3.49290699369223e-06
4,0.148115240288544,0.000481281302441425
4,0.0810596896680482,4.31737474718331e-05
4,0.0856279703775829,5.37604135185662e-05
4,0.0723543565564608,2.74068260193456e-05
4,0.193226117334937,0.00139400171860175
4,-0.11535895970044,-0.000177094602041952
4,0.0190926343584787,1.32881163461172e-07
4,0.0874685971913437,5.85340596384817e-05
4,-0.138718412769434,-0.000370285276457144
4,-0.0462602251318782,-4.57963607726984e-06
4,-0.130014426933641,-0.000285736804999429
4,1.69199972406019,8.19598493592517
4,1.00192022847321,1.00770306589244
4,0.827563527108862,0.469035125431523
4,-0.00587744501516511,-1.19331280133524e-09
4,-0.0201368514798171,-1.6442440073091e-07
4,-0.0363853672165826,-1.7526978319778e-06
4,-0.0464581891075319,-4.658532286525e-06
4,-0.0387473963244874,-2.25408401734487e-06
4,-0.0325825466696764,-1.12704200867244e-06
4,0.174959665170873,0.000937026245997247
4,0.0916752039096251,7.06329814611907e-05
4,1.34195218263539,3.24300907605603
4,0.0194578168479999,1.43342985194504e-07
4,0.0388608180719164,2.28059283390823e-06
4,0.0465686458172729,4.70299412886327e-06
4,0.0180531732846634,1.06221933679353e-07
4,0.0420125072000758,3.11540418974128e-06
4,0.134511475864113,0.000327368848830654
4,0.0704811990008318,2.46770439240128e-05
4,0.421992300438206,0.0317115965864726
4,0.0194578168479999,1.43342985194503e-07
4,0.424832093209498,0.0325738632919231
4,0.509095182810396,0.067173186523515
4,-0.0154984613968975,-5.76971476497234e-08
4,0.0743472590344088,3.05534212563733e-05
4,0.134338395663527,0.000325687154446065
4,0.0180531732846633,1.06221933679353e-07
4,0.889033324010505,0.62470094148882
4,0.0388608180719164,2.28059283390823e-06
4,0.424832093209499,0.0325738632919232
4,1.01675616720164,1.06872818093217
4,-0.0530996401514164,-7.94998504631266e-06
4,0.0743472590344089,3.05534212563733e-05
4,0.460259911327704,0.0448758407147143
4,0.0420125072000759,3.11540418974129e-06
4,0.889033324010505,0.624700941488822
4,-0.142699972107672,-0.000414663255421458
4,0.0465686458172729,4.70299412886327e-06
4,0.509095182810396,0.0671731865235151
4,1.01675616720164,1.06872818093217
4,-0.0959459778463454,-8.47436359383891e-05
4,0.134338395663527,0.000325687154446065
4,0.460259911327704,0.0448758407147142
4,-0.115374425991859,-0.000177189594146955
4,-0.10813517527094,-0.0001367313034834
4,1.40726449390894,3.92195784376325
4,0.575601367930251,0.109770911260867
4,0.0157041290168953,6.08212607328643e-08
4,0.0563935646436629,1.01138891420911e-05
4,0.0528551101725599,7.80455112131365e-06
4,-0.6878531401195,-0.223863297631792
4,0.0141136444542295,3.96786320019162e-08
4,0.0186364944110342,1.20630434921636e-07
4,0.0266620198681743,5.05326636193159e-07
4,0.625924540297021,0.15349276736357
4,0.0134819358014875,3.30376401978814e-08
4,0.0121165107757476,2.15531271767131e-08
4,0.0154488843238055,5.69624270406269e-08
4,0.0221017135357042,2.38618319369712e-07
4,0.518865598068409,0.0724802208322561
4,0.0131688812616995,3.00742999795362e-08
4,0.0238875759289127,3.25602943291583e-07
4,0.00823531762913015,4.59961431344741e-09
4,0.0499416089613717,6.22085558358136e-06
4,0.0562863056854695,1.00371630660675e-05
4,-0.732506506657067,-0.287902838729781
4,0.0165043036766297,7.41974233738686e-08
4,0.015936454373574,6.45010544901649e-08
4,0.0301054815795046,8.21452233908987e-07
4,0.706764146574098,0.24951579356581
4,0.00823531762913016,4.59961431344742e-09
4,0.0419957199476203,3.11042779179068e-06
4,0.0504995852023214,6.50356138190118e-06
4,-0.615962095597949,-0.143951419364891
4,0.021184152600689,2.01393006300501e-07
4,0.0204552877830135,1.75074290759019e-07
4,0.0270103769214612,5.32258466895673e-07
4,0.907169416357883,0.677257153964342
4,0.0422431591889926,3.18438492455369e-06
4,0.224837158336808,0.00255547920249764
4,0.111107983319211,0.000152398628905057
4,0.0131688812616995,3.00742999795363e-08
4,0.505137334156647,0.0651085272493515
4,0.0422431591889926,3.18438492455368e-06
4,0.60043946495662,0.129980115085862
4,0.296719717283825,0.00775149776396006
4,0.0238875759289127,3.25602943291584e-07
4,0.505137334156647,0.0651085272493515
4,0.323164498218697,0.0109067304049765
4,0.224837158336808,0.00255547920249764
4,0.60043946495662,0.129980115085862
4,1.57927625057881,6.22060202938036
4,1.88902076205876,12.7334745597459
4,1.24204324115512,2.37983508817616
4,0.756087837458922,0.326805237420133
4,0.730073777128834,0.284097229634138
4,0.964032777729978,0.863708516189343
4,1.37917896501983,3.61811610329412
4,0.111107983319211,0.000152398628905057
4,0.296719717283825,0.00775149776396007
4,1.57927625057881,6.22060202938037
4,0.323164498218697,0.0109067304049765
4,1.88902076205876,12.7334745597459
4,1.24204324115512,2.37983508817616
4,-1.72964527961538,-8.95010610214605
4,-2.07988740939967,-18.7136845174358
4,-1.94938338913273,-14.4407265526213
4,0.0884009867210647,6.10700745749353e-05
4,0.0884009867210647,6.10700745749354e-05
4,0.0922636664847347,7.24640889654199e-05
4,0.813199908195447,0.437309874380303
4,0.5346841442766,0.0817314534672397
4,0.0922636664847346,7.24640889654198e-05
4,0.813199908195447,0.437309874380302
4,0.5346841442766,0.0817314534672397
4,0.00314624249041337,9.79870691493614e-11
4,0.00314624249041337,9.79870691493613e-11
4,0.194995972712518,0.00144578118136725
4,0.104296197682233,0.000118324288781632
4,0.174948695214286,0.000936791262225
4,0.0935736438373453,7.66680056900425e-05
4,0.639552104523791,0.167303000343171
4,0.639552104523791,0.167303000343171
5,-0.0109543300918578,-1.57735380560458e-10
5,-0.0119476956317862,-2.434561512075e-10
5,-0.0116694449923701,-2.16396885466163e-10
5,-0.0195575469804789,-2.86135610708075e-09
5,-0.0129030876628615,-3.5765824344465e-10
5,-0.00578599123362237,-6.48468458055002e-12
5,-0.00603942200075779,-8.03483353639263e-12
5,-0.0191628238391167,-2.58402990875807e-09
5,0.0158793169764936,1.00962266165682e-09
5,-0.0107528350758107,-1.43752340307884e-10
5,-0.013925183695581,-5.23606060458869e-10
5,0.0114992576373646,2.0107080728658e-10
5,-0.0105725177598678,-1.32096745147785e-10
5,-0.00292934461948069,-2.15701087100401e-13
5,-0.0111736743044169,-1.74172682621903e-10
5,0.0184736515276152,2.15161090069141e-09
5,-0.00842622705885771,-4.24781690279153e-11
5,-0.020030089307547,-3.2241439844013e-09
5,0.00684970707181812,1.50785644379437e-11
5,0.0121449982218679,2.64233135177067e-10
5,0.014295152353473,5.96958226559878e-10
5,0.0101302048514302,1.0668199741536e-10
5,0.0306391496640753,2.70012295020996e-08
5,0.0167122316213133,1.30368368435388e-09
5,0.0243190481435725,8.50614658258836e-09
5,0.0150875283088568,7.81790682037999e-10
5,-0.00491284287073474,-2.86196534576747e-12
5,-0.00746420917763343,-2.31696251747095e-11
5,-0.0289745917265234,-2.04214523673409e-08
5,0.00489979837087502,2.82417136193677e-12
5,0.0127740862892157,3.40133358616216e-10
5,0.020466501161706,3.59102164031187e-09
5,0.00692780852404194,1.59580337448101e-11
5,-0.0290733818966949,-2.0771973757771e-08
5,0.0086491929051633,4.8403628269714e-11
5,0.0095033572017213,7.75149135064314e-11
5,0.00128243054228232,3.46872014857235e-15
5,0.00511852556294675,3.51337399875001e-12
5,0.00239823725858897,7.93342515846776e-14
5,0.00357331118986945,5.82578156362536e-13
5,0.0105760500899221,1.32317563504717e-10
5,0.00762454725092302,2.57673822969414e-11
5,0.00905452814997923,6.08596031798801e-11
5,0.012634832587223,3.21993762798165e-10
5,0.014216554753907,5.8072672159984e-10
5,0.0157766294822459,9.77397290448586e-10
5,0.0204783042057733,3.60138831252176e-09
5,0.0161881908598773,1.11171017492067e-09
5,0.0208629811248014,3.952590529353e-09
5,0.0115670232616653,2.07065642756173e-10
5,0.0174826721575015,1.63319885905359e-09
5,0.0205546242684284,3.66900000344961e-09
5,0.00722342924025089,1.96660488799702e-11
5,0.0133979692589632,4.31712759783697e-10
5,-0.00446591733628914,-1.77645168510555e-12
5,-0.00578347187868662,-6.4705789585161e-12
5,0.0097023505831124,8.597750072604e-11
5,-0.00605843035112624,-8.16207530994443e-12
5,-0.00167861910990936,-1.332787204848e-14
5,-0.00640291452585135,-1.07618893327355e-11
5,0.0155869056354363,9.20024792622884e-10
5,-0.00365934078118903,-6.56166838642594e-13
5,-0.00869866455555751,-4.98038501655486e-11
5,0.0089920897791043,5.87899609497038e-11
5,0.0159435890079765,1.03022113030782e-09
5,0.0187662467928404,2.32748621213212e-09
5,0.0132986287661204,4.15943473126859e-10
5,0.0258513880620766,1.15456751800473e-08
5,0.0219393158820363,5.08294494541303e-09
5,0.0319253162152114,3.31646973079503e-08
5,0.0198064541557115,3.04813126322549e-09
5,-0.00644943261092674,-1.11585444098166e-11
5,-0.00979878969298445,-9.03362760325348e-11
5,-0.038036974046634,-7.96213984529638e-08
5,0.00280775949861156,1.74501645127801e-13
5,0.00732000776354885,2.101637012588e-11
5,0.0172683468570461,1.53551412984129e-09
5,0.00396988176157689,9.86024849272818e-13
5,-0.0166600863950711,-1.28347154926065e-09
5,0.00439206832716778,1.63435139835e-12
5,0.00830817743730398,3.95848328858775e-11
5,0.00729764515877872,2.0697300820854e-11
5,0.00216799736250583,4.78953937112909e-14
5,0.000986678142817012,9.35141947384617e-16
5,0.0103613443512096,1.19420954183248e-10
5,0.00934897505358607,7.14200261129011e-11
5,0.00431405929885421,1.49427507379607e-12
5,0.00249788765240945,9.72443787118164e-14
5,0.00117957250149994,2.28361663551323e-15
5,0.00470711792113233,2.31086934369416e-12
5,-0.00996047021474432,-9.80390751290325e-11
5,0.0020843571890228,3.93423885015874e-14
5,0.00283103631702683,1.81855819383645e-13
5,0.00969402317641626,8.5609166450791e-11
5,0.00560982356275583,5.55579242549558e-12
5,0.00291057044331586,2.08876977241068e-13
5,0.00449332870407221,1.83164350475258e-12
5,0.00167558396826412,1.32078151528941e-14
5,0.00850867367434047,4.45973793548805e-11
5,0.00874924302877041,5.12687112611808e-11
5,0.0237455614191829,7.54939606781719e-09
5,0.0112581261396878,1.80855013188171e-10
5,0.00899504114721859,5.88865039984727e-11
5,0.0101908609360077,1.09914345034673e-10
5,0.0170015905914129,1.42052136323659e-09
5,0.00264147070681679,1.28596454288536e-13
5,0.0105428207539058,1.302519141e-10
5,0.00493974001530351,2.94117225387097e-12
5,0.00736008424875996,2.15980194553916e-11
5,0.00892340610089149,5.65787424132651e-11
5,0.0157045684362841,9.55278563203679e-10
5,0.0186499541952993,2.25625845935165e-09
5,0.0260244427002553,1.19373297427612e-08
5,0.0292823756891118,2.15293808983355e-08
5,0.0324957206302098,3.62352166215085e-08
5,0.0170457130717907,1.43904995000716e-09
5,0.0184895363158324,2.16087726324839e-09
5,0.0146160609679265,6.6703977239984e-10
5,0.0104436819823365,1.24241931334091e-10
5,0.0157848276158915,9.79939394100202e-10
5,0.0185584444908409,2.20144510902825e-09
5,0.00652191978009643,1.17998711038473e-11
5,-0.0189654718528869,-2.45368191074647e-09
5,0.00659509860290386,1.247689341792e-11
5,0.00719315833176155,1.92574198620501e-11
5,0.0117747000214148,2.2633371823056e-10
5,0.00776835595649389,2.82908233247579e-11
5,0.00348347935303136,5.12939570519123e-13
5,0.00363605836829309,6.3555659680217e-13
5,0.0115370553625172,2.04397172313123e-10
5,0.00307007803341523,2.72738891642392e-13
5,0.00544345792686967,4.77941071379708e-12
5,0.00640716935258262,1.07976940204629e-11
5,0.00454041597141136,1.92964853206078e-12
5,0.00882617729274714,5.35627954331045e-11
5,0.0137326427772672,4.88394332079321e-10
5,0.00749051815676007,2.35808418358583e-11
5,0.0108999369923905,1.5385794852227e-10
5,-0.00220196437904897,-5.17668150397217e-14
5,-0.00334550140506756,-4.19088827449525e-13
5,-0.0129865783535124,-3.69380275378258e-10
5,0.000703458361860222,1.72262990307693e-16
5,0.00299111768342589,2.39423900608911e-13
5,0.00738718535221806,2.19985968232298e-11
5,0.00666541032062512,1.31563205997449e-11
5,0.00178088464700156,1.79134381837556e-14
5,0.00084098360305363,4.20666222331385e-16
5,0.00335596920433328,4.25686458048924e-13
5,-0.00710137962579865,-1.80598296290323e-11
5,0.00448356050576559,1.81182052309941e-12
5,0.00672127157691601,1.37169393500323e-11
5,0.00608970606777833,8.37493905056258e-12
5,0.0120670216711163,2.55858861700454e-10
5,0.0062607881017829,9.61933447820704e-12
5,0.00966538327648439,8.43520035083425e-11
5,0.00312344915682065,2.97284457841045e-13
5,0.0164637905377558,1.20962056149847e-09
5,0.0158609834643581,1.00380779024924e-09
5,0.0163094278046496,1.15396762106786e-09
5,0.0209862264526307,4.07072509125021e-09
5,0.016767619062358,1.32543060397878e-09
5,0.0189967417931467,2.47397666414392e-09
5,0.031692594822552,3.19734125919288e-08
5,0.00218795901063759,5.01413367818018e-14
5,0.00873273347552789,5.07868208925001e-11
5,0.00409164055796589,1.14679918144355e-12
