"V1","V2","V3"
3,-0.00542879657847934,-1.59996582300232e-07
3,-0.00398259474011324,-6.31681775694934e-08
3,-0.0327340101964065,-3.50749967997141e-05
3,-0.0186699220195968,-6.5076998187105e-06
3,-0.0170282715045378,-4.9375521802075e-06
3,-0.0127134824744683,-2.05491369307998e-06
3,-0.0184538112659147,-6.28431902239204e-06
3,0.00942257827673933,8.36583436863953e-07
3,-0.0159479533902374,-4.05615808749609e-06
3,-0.00614784277334345,-2.32363685733724e-07
3,-0.0103974369819296,-1.1240325568344e-06
3,-0.00297683392011526,-2.63793334159504e-08
3,0.00691245474770744,3.3029112454637e-07
3,-0.0226691879204668,-1.16495161544266e-05
3,-0.0220957798042272,-1.07876786232791e-05
3,-0.0347324829694973,-4.18993701309185e-05
3,-0.00690300271130818,-3.28938063920117e-07
3,-0.0069126862663852,-3.30324312955587e-07
3,0.0568153123677403,0.000183398676076936
3,0.0396067194375117,6.21307528236084e-05
3,-0.0321743856417594,-3.33066373884106e-05
3,-0.0586688965579268,-0.000201940654875343
3,0.032404751054339,3.40271885945646e-05
3,0.0386048831801754,5.75342859908218e-05
3,-0.00449007880719291,-9.05236153663261e-08
3,-0.00962454145329851,-8.91538581537254e-07
3,-0.016942937404203,-4.86369260677199e-06
3,-0.0337647759809484,-3.84938737814966e-05
3,-0.00966717501985542,-9.03438812134607e-07
3,-0.0175229141879196,-5.38045498783284e-06
3,-0.0115536598887644,-1.54226405411101e-06
3,-0.0127342870360469,-2.06501829883192e-06
3,0.0295553938795809,2.58172663017385e-05
3,0.00918252747730198,7.74259797680111e-07
3,-0.0191613958535126,-7.03528068492087e-06
3,-0.0434414839944472,-8.19811409131513e-05
3,-0.0088706585849897,-6.9801956081808e-07
3,-0.0104252265802419,-1.13306939187752e-06
3,-0.0233373791856848,-1.27103130751019e-05
3,-0.0109960603693494,-1.32957042619546e-06
3,-0.030461368584062,-2.82649508716642e-05
3,-0.0656221726652465,-0.000282586763645257
3,-0.0139763841659092,-2.73013730010393e-06
3,-0.0186310953392829,-6.46718321494462e-06
3,-0.0648897974184767,-0.000273230549139575
3,-0.0173008447338814,-5.17847549824523e-06
3,-0.0152663111538356,-3.55797038943988e-06
3,-0.0173251144162016,-5.20029923180493e-06
3,0.0196828653006643,7.62544093021084e-06
3,0.0345135253897907,4.11119397219627e-05
3,-0.0415319150912269,-7.16383991424486e-05
3,-0.0341349465229606,-3.97738544766137e-05
3,-0.0231484096923423,-1.24040492056734e-05
3,-0.00679003680169984,-3.13051929155337e-07
3,-0.0196184105199635,-7.55077369238574e-06
3,-0.0191811062918925,-7.05701362518426e-06
3,-0.018232399325423,-6.06082120617873e-06
3,-0.012100291265671,-1.77168893570023e-06
3,0.022066360758573,1.07446467612025e-05
3,0.0313061835718497,3.06824745411658e-05
3,0.0480621481775138,0.000111022124628035
3,-0.050458576601869,-0.000128470964824205
3,0.0346495005858406,4.15997708272968e-05
3,0.0656270291833505,0.000282649508716642
3,0.0642365979567672,0.00026506207682706
3,-0.00830453856415768,-5.72725498052215e-07
3,-0.0127353304452408,-2.06552594459731e-06
3,-0.0168126943182828,-4.75238865696617e-06
3,-0.0175552706692802,-5.41031547570591e-06
3,-0.0086564690884684,-6.48667811370796e-07
3,-0.0161973009240757,-4.24940331757518e-06
3,-0.00940888311216025,-8.32940961325426e-07
3,0.032029654941678,3.2859184430808e-05
3,0.012068350698277,1.75769600642404e-06
3,0.0606832372278781,0.000223463307364899
3,0.0876396905033215,0.000673135516251145
3,0.0690513455383733,0.000329242914187364
3,0.0782468444509324,0.000479071678090001
3,0.141378685225269,0.00282586763645257
3,0.0527958518468212,0.000147163261563471
3,0.0833052745110741,0.000578119341708921
3,0.0136538355191125,2.54544665800985e-06
3,-0.0281358733488727,-2.22731273966059e-05
3,-0.0238887035859709,-1.3632570274149e-05
3,-0.0416495113322163,-7.22486490458393e-05
3,-0.0360091264164364,-4.66914925033443e-05
3,-0.0573609614609577,-0.000188733618523916
3,-0.0542747277370767,-0.000159879565982496
3,0.0197700539477181,7.72722509003884e-06
3,0.0159778391218343,4.07900400770245e-06
3,0.0301112068882472,2.73013730010393e-05
3,0.0358031909551803,4.58949820609919e-05
3,0.0209386838097609,9.18011530932135e-06
3,0.0384612477042936,5.68944766218902e-05
3,0.0358355939666836,4.6019704067808e-05
3,0.0401394781122425,6.46718321494466e-05
3,0.010502016658379,1.15829213787475e-06
3,0.0276424464865176,2.11217273642942e-05
3,0.0326554407805965,3.48230375082863e-05
3,0.0204103976772522,8.50265190965544e-06
3,0.0187779285508336,6.62129666546396e-06
3,0.139800830587508,0.00273230549139574
3,0.0303434105158304,2.79378626618273e-05
3,0.0288633469951455,2.4045846558693e-05
3,0.0569341549220236,0.000184551949122692
3,0.0120606566332411,1.7543363409073e-06
3,0.0236280484035216,1.31911772378183e-05
3,0.0420353107473981,7.42750216222171e-05
3,0.0372735400615295,5.17847549824523e-05
3,0.0296670406489054,2.61109504131817e-05
3,0.0142324590580328,2.88296805053687e-06
3,0.0492238472054847,0.000119268748450543
3,0.0328902703386441,3.55797038943989e-05
3,0.0281996942034062,2.24250384628613e-05
3,0.0266306527403465,1.88862369670008e-05
3,0.0784114329756437,0.000482101155157494
3,0.00584359051507424,1.99544299923346e-07
3,0.01207757536233,1.76172966909646e-06
3,0.0260425140924096,1.76623596371968e-05
3,0.0198061149431158,7.76958612824226e-06
3,0.0373258275070363,5.20029923180494e-05
3,0.0187152830175385,6.55524906209084e-06
3,0.0154695340914491,3.70195982811301e-06
3,0.074192605351006,0.000408396363345687
3,-0.00381629041829908,-5.55807305499334e-08
3,-0.00170821649604719,-4.98458188054857e-09
3,-0.00382544115557194,-5.5981506003549e-08
3,-0.00271812672803874,-2.00820989822383e-08
3,-0.00083542505321997,-5.83072400849624e-10
3,-0.00297039124159751,-2.6208427672936e-08
3,-0.00381248384359384,-5.54145786984467e-08
3,-0.00270892004714133,-1.98787266353765e-08
3,-0.0027106813133039,-1.99175256732687e-08
3,-0.0035787008580629,-4.58327791562868e-08
3,-0.00237513058367359,-1.33986942170999e-08
3,-0.00144812499052947,-3.03681366429596e-09
3,-0.00207165577916191,-8.89104457429682e-09
3,0.0104225597150062,1.1322000667579e-06
3,0.00898412444692142,7.25149041496748e-07
3,0.00940239368826097,8.312186804767e-07
3,0.00882583526657153,6.874916873443e-07
3,-0.000980157348626526,-9.41645425656898e-10
3,-0.00361459416030641,-4.7225724347879e-08
3,-0.00217453689300231,-1.02825384176821e-08
3,-0.00230540717329389,-1.22530137371753e-08
3,0.00466526036667455,1.01537779048212e-07
3,0.00638357454581011,2.60130815832102e-07
3,0.00668077132865581,2.98180899530648e-07
3,0.00170122589922898,4.92363621258510e-09
3,-0.00358220493534705,-4.59675422259517e-08
3,-0.00314223334606815,-3.10252506932226e-08
3,0.00585757572356738,2.00980413256498e-07
3,0.00627372861034192,2.46931892015054e-07
3,0.00625868850440227,2.45160225205076e-07
3,-0.00142483422278852,-2.89263084843117e-09
3,-0.00151058510367973,-3.44695483572956e-09
3,0.00196201231151392,7.55275130634228e-09
3,0.00668511498453205,2.9876288509903e-07
3,0.00357138333678347,4.55522049644392e-08
3,0.00377427000510511,5.37649067591222e-08
3,0.00548998733353622,1.65468003697187e-07
3,0.00258633978262583,1.73004237346362e-08
3,0.00697602276058738,3.39487405089845e-07
3,0.00510914249642559,1.33365668614452e-07
3,0.00400141711631474,6.4068045684577e-08
3,0.00274199362017199,2.06157585868993e-08
3,-0.0311964509807067,-3.03609649068751e-05
3,-0.0163322733645968,-4.35652209711016e-06
3,-0.0331215663129085,-3.63356219992989e-05
3,-0.0386262849133022,-5.76300264322653e-05
3,0.0566273752817586,0.000181584718342555
3,-0.00826847149370018,-5.65295724025274e-07
3,-0.022667921481952,-1.16475638253282e-05
3,-0.0279310952101111,-2.17903344281162e-05
3,-0.0140401875952937,-2.76769820273563e-06
3,-0.0438573448290554,-8.4358142129759e-05
3,-0.0150308096597867,-3.39583926518277e-06
3,0.0296461213999394,2.60557541693192e-05
3,0.0143513058100625,2.95579463542627e-06
3,-0.0190646948328595,-6.92930334378165e-06
3,-0.0152004993310281,-3.5121541076918e-06
3,-0.0586601840562896,-0.00020185070191261
3,0.0393439432564818,6.09022945115198e-05
3,0.0333090899442902,3.69562845001689e-05
3,-0.0030607846147853,-2.86746621088889e-08
3,-0.0129016237251257,-2.1474997143307e-06
3,-0.00412661288945452,-7.02718182880477e-08
3,-0.0333489020797835,-3.70889571008978e-05
3,0.0484790555637381,0.000113936389166621
3,0.00625952016306374,2.45257969350091e-07
3,-0.0347008146591852,-4.17848658380233e-05
3,-0.0579656251504759,-0.000194765294581653
3,0.026384729410093,1.83678334941348e-05
3,0.0625031420958125,0.000244177448286477
3,-0.0895675337906815,-0.000718541487526688
3,0.0243690778838902,1.44716245894673e-05
3,0.0265577185396466,1.87314885743562e-05
3,0.00843921407011879,6.01043645794959e-07
3,-0.0302649308706322,-2.77216488987312e-05
3,0.0601218185581646,0.000217318313392936
3,0.0761217073964262,0.000441088324861485
3,0.102488781698821,0.00107653707686725
3,0.0682008541130508,0.000317226486203617
3,0.104407742038235,0.00113814635255897
3,0.138532346641211,0.00265860350384874
3,0.0549364925948686,0.000165799335518728
3,0.0701139092032751,0.000344677191580535
3,0.0260884670358715,1.77560223016092e-05
3,-0.00391409772287346,-5.99646072223245e-08
3,-0.0181364269709734,-5.96561462020247e-06
3,-0.011627109128676,-1.57186500767558e-06
3,-0.0255921011871001,-1.67616910930885e-05
3,0.00679356679577652,3.13540429920651e-07
3,-0.0385069834244185,-5.70976841756026e-05
3,-0.0124780686704932,-1.94286271561559e-06
3,0.0314787817749164,3.11927561840652e-05
3,0.0672778969509929,0.00030452098226988
3,-0.018033640536401,-5.86475975047952e-06
3,0.0201807793519918,8.21890200091808e-06
3,-0.0213577360547062,-9.74239301202297e-06
3,0.0444193428903963,8.7642829244907e-05
3,0.0218011940563617,1.03619344832832e-05
3,0.0246516718027698,1.49809423066249e-05
3,0.0389726493870774,5.91942866553294e-05
3,-0.0126042307663793,-2.00239170608358e-06
3,-0.0137567284005528,-2.60342750743731e-06
3,-0.00882289365601567,-6.86804502918996e-07
3,-0.0152292758664604,-3.53213879633456e-06
3,-0.0103529246372784,-1.10965802398186e-06
3,-0.0090654798538359,-7.45027650738259e-07
3,-0.0146043789318454,-3.11493707928739e-06
3,-0.0202978893414157,-8.36281792740478e-06
3,0.0218767362706308,1.04700219925939e-05
3,0.0238770873640583,1.36126928493454e-05
3,-0.0357298650712303,-4.56135767554318e-05
3,-0.021092085029535,-9.38336349304179e-06
3,-0.00481909708990249,-1.11917249482082e-07
3,-0.0285245567866017,-2.32090153241184e-05
3,-0.00505730102411684,-1.2934701606184e-07
3,0.0153135975716448,3.5911346557856e-06
3,0.0624258242677814,0.000243272409362304
3,0.0264329381061421,1.84686995886775e-05
3,0.0368512668847175,5.0044605296223e-05
3,0.0179692205036101,5.80213345872867e-06
3,0.00841973815081273,5.96891997237773e-07
3,0.0157346462156258,3.89556941562488e-06
3,0.049836991148073,0.000123781415061966
3,-0.00056439192099789,-1.79780409460134e-10
3,-0.00200029846890255,-8.00358216135933e-09
3,0.0253483256701842,1.62872527021563e-05
3,0.00883591875791871,6.89850752329815e-07
3,0.00115422123866248,1.53768431466371e-09
3,0.0352303587742196,4.37271525615936e-05
3,0.00409075128571872,6.84556386738768e-08
3,-0.014336779533903,-2.94682822270991e-06
3,-0.0402999854257866,-6.5450755990523e-05
3,-0.010038712085498,-1.01165864243123e-06
3,-0.0563196931833708,-0.00017864087636988
3,-0.0356835328263088,-4.5436360293014e-05
3,-0.0283296239972801,-2.27364382221877e-05
3,-0.0434601314153184,-8.20867583788155e-05
3,-0.0217989010557804,-1.03586652922281e-05
3,0.0248838624622763,1.54082521448884e-05
3,-0.0314832565304112,-3.12060603646943e-05
3,-0.0169663963172725,-4.88392315871189e-06
3,-0.00827508994869777,-5.66654274955747e-07
3,-0.0922738840848373,-0.000785663188674687
3,-0.0206545124181568,-8.81139847640709e-06
3,-0.0106285991262188,-1.20068222639599e-06
3,0.0699473192145827,0.000342226175113845
3,0.0550063157424974,0.000166432321945035
3,-0.00980126039165571,-9.41555190750305e-07
3,-0.0276595263645582,-2.11609040138554e-05
3,-0.0533053838592523,-0.000151465326490742
3,-0.0224378096620294,-1.12964342492517e-05
3,-0.0126243657112251,-2.01200335680989e-06
3,0.0174238524239842,5.28971839179727e-06
3,0.0296430247594863,2.60475901797968e-05
3,0.0146411382804695,3.13851730250102e-06
3,-0.0198156920559192,-7.78086237136443e-06
3,-0.020570697566828,-8.70456469671138e-06
3,-0.00609205435546453,-2.26095182537659e-07
3,0.0977521831718555,0.000934069941803293
3,0.0144579138462361,3.02215613309731e-06
3,-0.00936206526888926,-8.20568787923273e-07
3,-0.0759630901685464,-0.000438336737002818
3,-0.0328334315720089,-3.53955630833842e-05
3,-0.00807570127061619,-5.26672614155195e-07
3,0.0619346988574537,0.000237575740094191
3,-0.018015248897624,-5.84683448859576e-06
3,-0.0671830027466195,-0.000303234235608548
3,-0.0406481489865992,-6.71617990742509e-05
3,0.0258747022984109,1.7323118856158e-05
3,0.0324490843456774,3.41670386477473e-05
3,-0.0360678315163766,-4.69202261681509e-05
3,-0.0228259252343807,-1.18928289118021e-05
3,0.0491707684762315,0.000118883337109478
3,0.0413178442458847,7.05363467128511e-05
3,-0.082979106901902,-0.000571355311026353
3,-0.0464153982071997,-9.99968321811549e-05
3,-0.019372960851859,-7.27089716977219e-06
3,0.0754322775330299,0.000429211808516682
3,0.161217325083711,0.00419020367293166
3,0.0796276667479683,0.000504884421635806
3,0.0296007121452371,2.59362079045482e-05
3,0.209945379286132,0.00925377555894837
3,0.121010091789987,0.00177200429866208
3,0.055785407130896,0.000173604836822158
3,0.136995487084165,0.00257109889961859
3,-0.0704869888658047,-0.000350208655033347
3,-0.0463783818822901,-9.97577802159304e-05
3,-0.0100491985244841,-1.01483229127434e-06
3,0.0360867571143102,4.69941252075046e-05
3,0.0907444290293617,0.000747239665093667
3,0.0732154866389763,0.000392472164056982
3,0.0353044105732044,4.40034669736679e-05
3,0.0963544832990271,0.000894572988417183
3,-0.0476874574644537,-0.000108445741792722
3,-0.0126243646635153,-2.01200285587491e-06
3,0.0335176355739216,3.76547808308389e-05
3,0.0307285405719916,2.90152156557047e-05
3,0.0766301340543237,0.000449985744815197
3,0.0633984384128084,0.000254821273783573
3,0.0708376268644647,0.000355461042542812
3,-0.0283102912370932,-2.26899224394383e-05
3,0.0378356139478931,5.41629557763562e-05
3,0.0185698731283561,6.40363854077862e-06
3,0.0188582974735192,6.70667785603298e-06
3,0.00910032043495434,7.53650608458863e-07
3,0.0223194733455306,1.11186440766097e-05
3,0.031984053664261,3.27190372639748e-05
3,0.0137370789556561,2.59228760483117e-06
3,0.0187529401017369,6.59489824981221e-06
3,0.0367306567123859,4.95548401625734e-05
3,-0.0186995354791522,-6.53871569721936e-06
3,-0.0426286609529436,-7.74649192577736e-05
3,-0.0552041618921128,-0.000168234655223717
3,-0.136550499496295,-0.00254612592715484
3,0.0324561501326932,3.41893631227157e-05
3,-0.0720465683289294,-0.000373972699172099
3,-0.00811118419470704,-5.33645426038108e-07
3,-0.0665786094407821,-0.000295123750083372
3,0.0739891224242934,0.000405045329452411
3,0.125876949286883,0.00199452106225119
3,-0.124241573605109,-0.00191778903045826
3,0.0958159933072917,0.000879658327967149
3,0.0141715441167478,2.84610893886991e-06
3,-0.0380164244397314,-5.49431814302404e-05
3,0.237006075219731,0.0133130767432933
3,0.11632354515355,0.00157399333377798
3,0.185592259224556,0.00639263010152754
3,0.105069088558575,0.00115991160797174
3,-0.0650572779827299,-0.000275351638368642
3,-0.0202677805445322,-8.32565824022458e-06
3,-0.0230130611692314,-1.21877398487941e-05
3,-0.087746946797635,-0.000675609957281892
3,0.112917713051531,0.00143974712872493
3,-0.0175408539698816,-5.39699727797578e-06
3,-0.0199167710782393,-7.90054034056105e-06
3,-0.0698477276968874,-0.000340766462852931
3,0.0351780999556486,4.3532853543658e-05
3,0.0318399205451064,3.22786918539222e-05
3,-0.0454376503312841,-9.38096671938221e-05
3,0.0399429905172857,6.37267443074202e-05
3,0.0361526530997336,4.72520355296713e-05
3,-0.0581371158969028,-0.000196499047543265
3,0.152299402416952,0.00353260108382688
3,0.126786649267119,0.00203807693093858
3,0.0678748339556738,0.000312698890646074
3,0.0959822635760641,0.000884245713944691
3,-0.00893250493807001,-7.12721393223022e-07
3,-0.00947009003101674,-8.49302345418106e-07
3,-0.00716681527640189,-3.6811086172116e-07
3,-0.0104394576307699,-1.13771584888831e-06
3,-0.00749427713039417,-4.20910002469406e-07
3,-0.00325050715388992,-3.43441979467666e-08
3,-0.00413402075104289,-7.06509420125702e-08
3,-0.0100787051013713,-1.02379785273905e-06
3,-0.00223035266315128,-1.10948291078428e-08
3,-0.00887168397730432,-6.98261648806791e-07
3,-0.0033589961230402,-3.78990660493232e-08
3,-0.0010125999728461,-1.03827819684853e-09
3,-0.00417749670378537,-7.29034947877804e-08
3,-0.0101181013580532,-1.03585049260874e-06
3,-0.0102328191371398,-1.07148450356375e-06
3,0.0130937081968647,2.2448533465035e-06
3,-0.0436847386118718,-8.33660499700584e-05
3,-0.00679097695373957,-3.1318198316156e-07
3,-0.00571438855876062,-1.86598996024926e-07
3,-0.0659574659938212,-0.000286940523740359
3,-0.00883531621341794,-6.89709633751027e-07
3,0.00567915910024764,1.83169055716088e-07
3,-0.0122113046697352,-1.82090043989224e-06
3,-0.0126960788249736,-2.04648624679056e-06
3,0.0072227995378511,3.76805024067041e-07
3,-0.0175837515095482,-5.4366905384129e-06
3,-0.0393869556710901,-6.11022556267644e-05
3,-0.0132928372232802,-2.34883797599491e-06
3,0.0176091197727921,5.46025521460825e-06
3,-0.0226485395929492,-1.16177121048913e-05
3,-0.0190580171901949,-6.92202467394503e-06
3,-0.0682228220204218,-0.000317533126659495
3,-0.141862372524394,-0.00285497070514198
3,-0.0196793912661211,-7.62140396160064e-06
3,0.00389678503200307,5.91724219084948e-08
3,0.0792959458430022,0.000498600777332884
3,-0.0382687339363706,-5.60444076636211e-05
3,-0.0540005654238984,-0.000157468946380055
3,-0.0252727881581615,-1.61420790990839e-05
3,0.0155002596237742,3.72406212696956e-06
3,-0.00289792518520567,-2.43366898660582e-08
3,-0.00485698852592949,-1.14577998759493e-07
3,-0.00699082504918034,-3.41653049231338e-07
3,-0.0354579470321822,-4.45800715077031e-05
3,-0.0498814458762379,-0.000124112950667536
3,0.0175347038271919,5.39132241169845e-06
3,0.00586870678842577,2.02128352263057e-07
3,0.0123268893864565,1.87309798541603e-06
3,0.0338324242781435,3.87257070163043e-05
3,-0.0156842102123427,-3.85822866463364e-06
3,-0.0423366242793783,-7.58837316354438e-05
3,-0.00822107073792773,-5.55629320419204e-07
3,0.00176917510974172,5.53748371652551e-09
3,0.00592646115646967,2.08154750510629e-07
3,-0.0371621923153937,-5.13220481105453e-05
3,-0.0346878989605376,-4.17382260203089e-05
3,0.00993288370013498,9.7999994563979e-07
3,-0.0340944925476183,-3.96326117406878e-05
3,0.00729875902385436,3.88818638868162e-07
3,0.0142967297144705,2.92220123670678e-06
3,-0.0190043836300748,-6.86374856677932e-06
3,0.0185899951986592,6.42447780114253e-06
3,0.0103726807136763,1.11602270349836e-06
3,0.0284688962320358,2.30734155798167e-05
3,-0.0195837954956249,-7.5108760685973e-06
3,-0.00292600556396174,-2.50510216834464e-08
3,-0.0401442322873992,-6.46948143343009e-05
3,-0.00416228895814468,-7.21101967810292e-08
3,0.0140686161527109,2.7845443642603e-06
3,0.0176779513732341,5.52453596057993e-06
3,0.0253331615549134,1.6258039641895e-05
3,0.0319177875780863,3.25160917369193e-05
3,0.101911359475281,0.00105844375553165
3,0.0765374678727412,0.000448355261308969
3,0.0725139996184798,0.000381298924114323
3,0.023429098030531,1.28607622154455e-05
3,0.102708177661657,0.00108346546011151
3,0.0614110341015967,0.000231600360792917
3,0.0344964997616013,4.10511277917425e-05
3,0.0323321339918919,3.37989423086878e-05
3,-0.0386797992621339,-5.78698870393777e-05
3,-0.00646708764309814,-2.70474445964377e-07
3,0.00483072875103128,1.12729597575509e-07
3,-0.0134624463137548,-2.43989958539794e-06
3,-0.00882720200993589,-6.87811125739112e-07
3,0.0204928851359381,8.60615804798318e-06
3,0.0178783817947701,5.71458401900668e-06
3,0.119725098915125,0.00171615145777727
3,0.0263388576966811,1.82721986320586e-05
3,0.0714946684599533,0.000365444112600267
3,0.21191423652956,0.00951656901713994
3,0.108001130847797,0.00125975157104045
3,0.10201107085968,0.00106155358117827
3,0.0632425163329378,0.000252945772118147
3,0.0958697715923692,0.000881140327095411
3,0.0662766672378594,0.000291126664504354
3,0.052874610364028,0.000147822839453387
3,0.0245656748793235,1.48247063416584e-05
3,-0.0756432885594693,-0.000432823870185244
3,0.0160377463211968,4.12505761812815e-06
3,0.0241289780836784,1.40480740191083e-05
3,0.0293971058097835,2.54046798720021e-05
3,0.050545576316323,0.000129136632792672
3,0.0122806484755772,1.85209773473068e-06
3,0.00687178766433558,3.24495885514631e-07
3,0.00884039591316043,6.90899924771407e-07
3,0.0161074866793445,4.17910557411107e-06
3,0.140442017406153,0.00277007276918556
3,-0.0264488085753201,-1.85019856665811e-05
3,-0.0507522353188198,-0.000130727069245734
3,-0.0236139586724903,-1.31675930644036e-05
3,-0.0416086529647956,-7.20362287691678e-05
3,-0.0430215712279762,-7.96267156376274e-05
3,-0.0282110376911602,-2.24521111487703e-05
3,0.0395092720967404,6.16732855552706e-05
3,0.0686943725071292,0.000324163029461254
3,-0.0212304287288735,-9.56921457960856e-06
3,-0.0212061416132757,-9.53641125919823e-06
3,-0.00721898873908248,-3.76208923908696e-07
3,-0.0399012768592357,-6.35272975131727e-05
3,0.0290216254560398,2.44436017221522e-05
3,-0.0262762200429107,-1.81421465278692e-05
3,-0.010928665325879,-1.30527307527704e-06
3,0.075813769418715,0.000435756897485781
3,0.0710270491639576,0.000358320220369321
3,0.028988425392994,2.43598089204959e-05
3,0.0388994090866202,5.88611865126424e-05
3,-0.0375922709697815,-5.3124601756689e-05
3,0.0352745688266343,4.38919768813454e-05
3,0.0465753970360175,0.000101034500169466
3,0.00986823158554918,9.60988075232373e-07
3,0.0161788348015004,4.23488597756552e-06
3,0.0487733873334681,0.000116024246260855
3,0.0545443489161195,0.000162274128767648
3,-0.0121137478603689,-1.77760633614124e-06
3,-0.0161143688185773,-4.18446459951726e-06
3,-0.0451517745229253,-9.20501435162582e-05
3,-0.0539616833055478,-0.000157129043344067
3,-0.0128838806349982,-2.13865178079483e-06
3,-0.0265738750040349,-1.87656954404642e-05
3,-0.0136693991429969,-2.55416103334391e-06
3,-0.0362213942980856,-4.75220855496989e-05
3,-0.137066334321338,-0.00257508989542303
3,-0.065451860738797,-0.000280392241859148
3,0.0219887110422253,1.063161684295e-05
3,-0.0194379207996942,-7.34428336189461e-06
3,-0.00660605131280973,-2.88287510823622e-07
3,-0.00629879800961985,-2.49903906310057e-07
3,-0.000688561988204519,-3.26459365286184e-10
3,-0.0194286887196167,-7.33382378423808e-06
3,-0.121743220268101,-0.00180440638699429
3,-0.029279899064455,-2.51020231511951e-05
3,-0.0393299951145958,-6.08375445660566e-05
3,-0.0322719071413767,-3.3610416456733e-05
3,0.0292505840193997,2.50267021502228e-05
3,0.0541075761114531,0.000158406951832329
3,-0.0681711503471479,-0.000316812178287078
3,-0.0422578945632634,-7.54611753915813e-05
3,0.00140815777361968,2.79224775871341e-09
3,-0.0140423608416114,-2.76898361739941e-06
3,-0.00378781649874106,-5.43459011067853e-08
3,-0.00301002746528016,-2.72716475213661e-08
3,0.0397330371418049,6.27271115545616e-05
3,-0.083994678613971,-0.000592591364036308
3,-0.0157094198906214,-3.87686290674103e-06
3,-0.0269004132760719,-1.94660061658784e-05
3,0.111947091480125,0.0014029378870006
3,0.0482365379791012,0.000112235020576939
3,0.204749907073612,0.00858363298474341
3,0.0388758415993884,5.87542668951569e-05
3,0.248973462001651,0.0154333133787606
3,0.10183417224799,0.00105604059429026
3,0.0388100163701021,5.84563208117653e-05
3,0.152466002959298,0.0035442067227052
3,-0.105296024315909,-0.00116744363376404
3,-0.0485011457341101,-0.000114092210350182
3,-0.158707350615815,-0.00399752441971852
3,0.0132121026256195,2.30630008658897e-06
3,0.059879456294014,0.000214700741765066
3,0.0104686969649339,1.1473023566988e-06
3,0.02851552621018,2.31869791073027e-05
3,0.14393782710334,0.00298211801808686
3,-0.0380246525096333,-5.49788639697843e-05
3,0.0819588895585685,0.000550539135862789
3,0.0267284650091127,1.90951051856682e-05
3,0.0248125081800282,1.52760827353105e-05
3,0.0977720931286143,0.000934640806197156
3,0.0125975960192397,1.99923125048046e-06
3,0.0804326107246457,0.000520351123366555
3,0.0631249097584403,0.000251537251305272
3,0.00831905806435428,5.75734781006617e-07
3,0.0663002195414841,0.000291437142118505
3,0.0564839538391439,0.000180208498567627
3,0.0659983235919845,0.000287474093256496
3,0.0488292658277251,0.00011642348185334
3,0.216950177762,0.010211276377729
3,-0.0845791335167369,-0.00060504781221995
3,-0.050247017596112,-0.000126861799697202
3,-0.0383922859021299,-5.65889861543164e-05
3,-0.0329825254120448,-3.58799407465754e-05
3,-0.0347958151199345,-4.21289896568434e-05
3,-0.0110310792612996,-1.3423136772478e-06
3,-0.0221907339428933,-1.09273536667147e-05
3,-0.0329939221319645,-3.59171472620111e-05
3,-0.00558498288962538,-1.7420697549794e-07
3,0.169158267033474,0.00484038249775961
3,0.0492693486449933,0.000119599802488585
3,0.0366360945395051,4.91730915002158e-05
3,-0.203027247956275,-0.00836879603526341
3,-0.0977240249007554,-0.000933262976124768
3,0.100494035192224,0.00101489439757762
3,0.0519780436796001,0.000140429965522812
3,0.0544717652677206,0.00016162716267905
3,0.26341389728169,0.0182774688184841
3,-0.093354605874522,-0.000813593086162277
3,0.0767845718042597,0.000452711889234531
3,0.0164782436537455,4.47437892415934e-06
3,0.00922060359393215,7.83931389740733e-07
3,0.126790204350821,0.00203824837810487
3,0.173325478477401,0.00520699575143858
3,-0.0544186711667297,-0.000161155005011983
3,-0.0391977629251635,-6.0225975852488e-05
3,-0.0179253655129052,-5.75975565936674e-06
3,0.0743893735065434,0.000411654344802611
3,-0.035786221456245,-4.58297549886336e-05
3,-0.074283384821523,-0.000409897296750222
3,-0.0199945720246384,-7.99348819718118e-06
3,-0.0379494637545799,-5.46533680017544e-05
3,0.0535826576493773,0.000153841232717595
3,0.0529780488143854,0.000148692093963122
3,-0.0495968397886659,-0.000122000613609477
3,0.109969385619103,0.00132988900723405
3,0.0245036617357915,1.47127198562864e-05
3,0.029600035143112,2.59344283730766e-05
3,0.0643484901317369,0.000266449606572705
3,0.0561805203639077,0.00017731981618347
3,-0.0359905753346279,-4.66193664932222e-05
3,-0.0188405082232104,-6.68771629337582e-06
3,-0.0129569599956497,-2.17525088330227e-06
3,0.0491984882004959,0.000119084509770287
3,-0.0981103546592391,-0.000944375120162253
3,-0.0695221726261347,-0.000336023775496947
3,-0.118978640116363,-0.00168425173093302
3,0.0257546458452732,1.70831024997992e-05
3,0.127291440654531,0.00206251732495168
3,-0.0450419679926342,-9.13801934063462e-05
3,-0.0770837860329032,-0.000458024924398376
3,0.0902002397376955,0.000733876659561992
3,0.0836265182714221,0.000584833237800618
3,-0.0601662569606616,-0.000217800555218571
3,0.0177119381263945,5.55646085630732e-06
3,0.154366606461988,0.00367840945876718
3,0.143116496201168,0.00293135951614961
3,0.0774249281039354,0.000464132983170774
3,-0.0807663246313331,-0.000526854823774113
3,-0.067694336142637,-0.00031021086221268
3,-0.102938733170781,-0.00109077822026642
3,-0.0337952852324636,-3.85983152368463e-05
3,-0.100847359420658,-0.00102563679643539
3,-0.0455449358111755,-9.44757358044965e-05
3,-0.097608075422095,-0.000929944968693055
3,-0.0171103919482745,-5.00933266992687e-06
3,0.120648863521611,0.00175618274591372
3,0.166495322025071,0.00461536558395925
3,-0.106192867151433,-0.00119752900199545
3,-0.118147059054161,-0.00164918260972411
3,-0.0333973946840169,-3.72509855212127e-05
3,0.101121906434883,0.0010340362073756
3,0.0751930323020385,0.000425140811120233
3,0.145163795603454,0.00305896808269719
3,-0.268731183912928,-0.0194068118934505
3,-0.133952674725462,-0.00240355558235722
3,0.153770042478707,0.00363592740088806
3,0.161147381974188,0.00418475235911874
3,0.161504967251992,0.00421267205827926
3,0.34866023742228,0.0423845195598154
3,-0.184445970004879,-0.00627491015701755
3,0.0504834505506719,0.000128661050789488
3,0.0282486347066373,2.25419970146709e-05
3,0.0456536555198667,9.51539174153859e-05
3,0.173794386989571,0.00524937064123879
3,0.342448941911809,0.0401594250049123
3,-0.146071055435421,-0.00311668206475029
3,-0.117010310789676,-0.00160203647051636
3,-0.0385870247491768,-5.7454477679422e-05
3,-0.0367994540157732,-4.9833813851872e-05
3,0.199676582840263,0.00796125266619813
3,-0.182670617799257,-0.00609545448515856
3,-0.0735995887547626,-0.000398681572940338
3,0.15995105221848,0.00409224196028697
3,0.271349192235934,0.0199795452569086
3,-0.200938671002659,-0.00811317000933587
3,-0.337914834752238,-0.0385852904983495
3,0.0527477892243661,0.000146761717784316
3,0.109328961592766,0.00130678960019333
3,0.260704112261882,0.0177191810195706
3,-0.1379159930192,-0.00262327543424962
3,0.0503042112371508,0.000127295494103222
3,0.438421268412973,0.0842703587187542
3,0.256059733269814,0.0167889627791976
3,-0.000539390791308203,-1.5693166524939e-10
3,-0.00435391802622126,-8.25354919432903e-08
3,-0.00975475583582002,-9.2821634161124e-07
3,-0.00687077070019576,-3.24351839222568e-07
3,-0.00453021380989677,-9.29728403358038e-08
3,-0.00290854580150097,-2.46052465632681e-08
3,-0.00274564556467525,-2.06982400951376e-08
3,-0.0228215708409948,-1.1886023994586e-05
3,-0.00341571638963555,-3.98515677245986e-08
3,-0.0148359561738491,-3.26547696982736e-06
3,-0.00769390514380336,-4.55449765803881e-07
3,0.00149075826185303,3.31300182193157e-09
3,0.00494545953918145,1.20953923127174e-07
3,-0.0129562874872474,-2.17491219307637e-06
3,-0.0236292473937927,-1.31931854733899e-05
3,-0.0329494036068358,-3.57719548935111e-05
3,-0.0163777617527326,-4.39302472339755e-06
3,-0.00777087803769885,-4.69256480018093e-07
3,-0.0224049800131901,-1.12469219809739e-05
3,-0.0155565391520108,-3.76477441996962e-06
3,-0.0126687822872199,-2.03331478508104e-06
3,-0.0341185925355243,-3.97167151284333e-05
3,-0.00919248603360673,-7.76781611516655e-07
3,-0.00974427759259991,-9.25228373571134e-07
3,-0.0109863385059617,-1.3260470341162e-06
3,-0.0207060869597944,-8.87756990530447e-06
3,-0.0153413567808514,-3.61069920381897e-06
3,-0.00791585634055735,-4.96013745367009e-07
3,-0.00780233992099137,-4.74979210512544e-07
3,0.0120332778638624,1.74241594102502e-06
3,0.0200392355734738,8.04717511438259e-06
3,0.0229962020162156,1.21609735949823e-05
3,-0.153457116033706,-0.00361377489359209
3,-0.0596946345098106,-0.000212718808886076
3,-0.0906583871671677,-0.000745116131444382
3,-0.104179519211177,-0.0011306991000196
3,0.0365468931909831,4.88147862515426e-05
3,-0.0173223571725316,-5.19781678753626e-06
3,-0.0194709328389641,-7.38176603813068e-06
3,-0.0415794205957747,-7.18845071642383e-05
3,-0.0218501711446786,-1.0431926751881e-05
3,-0.0169097521103727,-4.83516972341348e-06
3,-0.0261395668574174,-1.78605636602521e-05
3,0.0269600132018172,1.95956783229039e-05
3,0.0411062362406753,6.94581387557987e-05
3,0.0509621958861863,0.00013235623310599
3,0.0619316070532962,0.000237540162251396
3,0.0311030769424327,3.00891600318248e-05
3,0.252221065188352,0.0160451605275488
3,0.0284804042765084,2.31014079446056e-05
3,-0.0729822654986068,-0.000388733547398895
3,-0.100233777417802,-0.00100702973087476
3,-0.154208050005231,-0.00366708634835737
3,-0.0573882194260296,-0.000189002805404928
3,-0.255822280837104,-0.0167422992417977
3,0.00615239177976693,2.32879869829649e-07
3,0.0253311626692658,1.62541914765709e-05
3,0.0166860761411387,4.64582303538669e-06
3,0.0981136925496948,0.000944471511454176
3,0.0320129664439539,3.28078490583585e-05
3,0.099765482896407,0.000992980973475737
3,0.0189893085897383,6.84742771692088e-06
3,0.012019064547885,1.73624897606694e-06
3,0.0176876807053161,5.53366252135848e-06
3,0.0683624460779764,0.000319486698507726
3,0.137017823964493,0.00257235674454649
3,0.012520520880019,1.96275996264474e-06
3,0.0267225391094928,1.90824074204667e-05
3,0.0346533428611557,4.16136113296034e-05
3,0.0199422528522324,7.93090331409211e-06
3,0.149005504407751,0.00330831562361304
3,0.0359247706021291,4.63641188972488e-05
3,0.21079971237093,0.00936720536824406
3,-0.0774621415972712,-0.000464802547084208
3,-0.060600070733106,-0.000222545795273197
3,0.00803858492476192,5.19444094113439e-07
3,0.0160486124104034,4.13344787805842e-06
3,0.0278020232190242,2.1489643215171e-05
3,0.0784486941380589,0.000482788766126349
3,0.115066614458949,0.00152351945988713
3,-0.095127745773939,-0.000860838369824166
3,0.0138582696457691,2.66150337942371e-06
3,0.0240609937902313,1.39296653538876e-05
3,0.0375854085970917,5.30955137877062e-05
3,0.171228744455762,0.00502030400408699
3,0.0429771436010209,7.93802829344542e-05
3,0.349704592054095,0.0427665291832479
3,0.0158184691458652,3.95816008760453e-06
3,0.0900187476288029,0.000729455662284368
3,0.176617553020428,0.00550936556687467
3,-0.0898511771370225,-0.000725389581159507
3,-0.0526183206402665,-0.000145683695415057
3,-0.0208206543068661,-9.02574626664319e-06
3,0.122824990628124,0.00185293514611385
3,-0.295163412769531,-0.0257150616259728
3,-0.284408488257259,-0.0230052873217772
3,-0.205950838513376,-0.00873555884295645
3,0.0719283257653105,0.000372134431568222
3,0.382954237301836,0.0561617507528753
3,-0.206132259246521,-0.00875866447283974
3,-0.14926809434277,-0.00332583703471645
3,0.369000462085626,0.0502435977543591
3,0.382712477106411,0.0560554526261745
3,-0.158426740110671,-0.00397635781685662
3,0.0284614709745247,2.30553662635134e-05
3,0.267207055049694,0.0190784795914965
3,0.277136447966425,0.0212853570221853
3,0.203871398728186,0.00847361850772146
3,-0.0125834099130665,-1.9924848725604e-06
3,-0.0335419817220016,-3.77368941642708e-05
3,-0.00905541189378334,-7.42548163235612e-07
3,-0.00326342043113605,-3.47551433814761e-08
3,-0.0255805414792513,-1.67389880632522e-05
3,-0.0190909858466901,-6.95801029536981e-06
3,0.0194625131476684,7.37219402847352e-06
3,-0.209560921548543,-0.00920303129385083
3,-0.0221230640490443,-1.08276904171589e-05
3,-0.138853000418999,-0.00267710747101155
3,-0.105875661651307,-0.00118682971730792
3,0.0518787248268402,0.000139626508407802
3,0.344432895788403,0.0408614589446977
3,-0.164231974124116,-0.00442968801611088
3,-0.0357147957491301,-4.55558875518753e-05
3,-0.247558428466969,-0.015171661736349
3,-0.309620711298296,-0.0296817848024593
3,-0.0545030280921356,-0.000161905609071212
3,0.0140058278525366,2.74742820397177e-06
3,0.224502241655344,0.0113151950683536
3,0.00504746833220481,1.28594030511462e-07
3,0.0363613165938459,4.80749454521857e-05
3,0.0488215023213622,0.00011636795916251
3,-0.0117809815708768,-1.63510041911055e-06
3,0.0395649214564195,6.19342558340332e-05
3,0.228217840758759,0.0118863571712913
3,0.338408050124921,0.0387544927393299
3,-0.0825109132032854,-0.000561738488447641
3,0.0295276531250353,2.57446380928683e-05
3,0.17401651255683,0.00526952394484715
3,0.423246107343615,0.075819151099402
3,0.0745046879509672,0.000413571687811504
3,0.0174406067851114,5.304992470892e-06
3,0.122566343280041,0.00184125393435615
3,-0.0609103566273632,-0.000225981780886856
3,-0.0215930323933234,-1.00679467258294e-05
3,-0.00588955761984445,-2.04290431168152e-07
3,-0.0650249263235191,-0.000274941062323805
3,-0.0642995025739041,-0.000265841537238072
3,-0.0193009315768746,-7.19009805945853e-06
3,0.0942088531549979,0.000836132589281364
3,-0.0621827768355285,-0.000240442002344526
3,-0.0296241571396013,-2.5997884393181e-05
3,-0.289225138541861,-0.0241940243458197
3,-0.158613218042893,-0.00399041559749912
3,-0.205114959601074,-0.00862962666088622
3,0.0333975194129771,3.72514028855688e-05
3,0.0850027704189922,0.000614185050788858
3,0.00910926318081295,7.55874595322163e-07
3,0.0404957056654783,6.64089958939419e-05
3,0.10057277735056,0.00101728193059808
3,0.395365715427946,0.061801215788962
3,0.0994507786743619,0.000983613687780863
3,0.216821500178073,0.0101931176022518
3,0.0298523720654689,2.66033628199966e-05
3,0.280388569114353,0.0220435183425678
3,-0.110473869876069,-0.00134827568528768
3,-0.0319680649179315,-3.26699933008654e-05
3,-0.0477580658732429,-0.00010892816578046
3,-0.0502853550827059,-0.000127152400484535
3,-0.0167014437890124,-4.65867107939083e-06
3,-0.0525012481424466,-0.00014471344582322
3,-0.0265675500671544,-1.87522991716293e-05
3,-0.0222146662515281,-1.0962746674953e-05
3,-0.0348873733765371,-4.24624276295453e-05
3,-0.0389327818236374,-5.90128117966849e-05
3,-0.0258202449934169,-1.72139713636971e-05
3,-0.0165227489297095,-4.51073081704632e-06
3,-0.0668255771765356,-0.000298420157617474
3,-0.0280645219878426,-2.21041056833172e-05
3,0.181574096111005,0.00598634404267726
3,0.0436808085073303,8.3343551873908e-05
3,-0.0900111689655461,-0.000729271439545526
3,-0.0909138322589793,-0.000751432361162166
3,-0.169404227183153,-0.00486152730738973
3,-0.196987463669302,-0.00764391352550514
3,-0.107315511944304,-0.00123591187499916
3,-0.229596729326326,-0.0121031130912982
3,-0.296909201145978,-0.0261740525166968
3,0.0525424926129859,0.000145054770255842
3,0.0365240520911602,4.87233185553468e-05
3,0.123043696664763,0.0018628509651751
3,0.057359774308594,0.000188721900575756
3,0.124277621629232,0.00191945882335263
3,0.078494830068611,0.000483641056065244
3,0.0640109977471523,0.000262279163540823
3,0.23157262129582,0.0124182853539964
3,0.0826486653088729,0.000564556658151336
3,0.0424521333099571,7.65065393942091e-05
3,0.269278424056067,0.0195256127095504
3,0.0274503786564247,2.06844995924953e-05
3,0.0271657352743869,2.00476925202059e-05
3,0.146698431437471,0.00315701329349788
3,0.10987069687125,0.00132631181163322
3,0.313854720954283,0.0309161920804122
3,0.0862906919695884,0.000642527699455094
3,0.0461420419911536,9.82404697036323e-05
3,0.405869694868274,0.0668589997486504
3,-0.0700291720188661,-0.00034342900741356
3,-0.0645228410029033,-0.00026862129881006
3,-0.0175956345087062,-5.44772024240407e-06
3,-0.0679389244203534,-0.000313585520297507
3,-0.0243071775360087,-1.43616255456741e-05
3,-0.0446848334569102,-8.92237414884868e-05
3,-0.0228040016593994,-1.18585937632389e-05
3,-0.0607123520510497,-0.000223785103811174
3,-0.0209803605734592,-9.2350413306572e-06
3,-0.0194228864123481,-7.32725508689567e-06
3,-0.0472364919292348,-0.000105398131150658
3,-0.0325613912454517,-3.45230262066909e-05
3,-0.135091889209188,-0.00246540246295707
3,-0.0323435955077961,-3.38348995199103e-05
3,0.115099467638746,0.00152482479291621
3,0.037493002823642,5.27048611699507e-05
3,-0.093853342218827,-0.000826702457780624
3,-0.0208588670093407,-9.07553310902359e-06
3,-0.0322432383204347,-3.35209223400721e-05
3,-0.137490262857808,-0.0025990571355753
3,-0.0806861933292028,-0.000525288241730975
3,-0.177079517348629,-0.00555270995506603
3,-0.130548047205804,-0.00222490329668193
3,0.106049299682893,0.00119267856671667
3,0.099819690459534,0.000994600461382994
3,0.12829588042977,0.00211172875815482
3,0.0344946790467147,4.10446281362542e-05
3,0.0285137070717342,2.31825417736898e-05
3,0.0289200644007676,2.41878778762742e-05
3,0.0319339713256548,3.25655781639808e-05
3,0.0440759439187799,8.56258440254804e-05
3,0.111663950997807,0.00139231971012094
3,0.0776634711632618,0.000468436138447368
3,0.187946789180243,0.00663903154711355
3,0.0399511105663419,6.37656174227933e-05
3,0.053535530831021,0.000153435672029737
3,0.110296617754548,0.00134179628467761
3,0.222110165541209,0.0109573442798092
3,0.242064608965666,0.0141838423092207
3,0.0734436863116245,0.000396153412208881
3,0.0531774438457251,0.000150377331199602
3,0.178456901573145,0.0056832929810443
3,-0.0848972586973661,-0.00061190077290359
3,-0.0423997247902833,-7.6223539726573e-05
3,-0.0345441731755307,-4.12215584091067e-05
3,-0.0390030175952038,-5.93327703523305e-05
3,-0.0696331941924166,-0.000337636160041187
3,0.139536553101373,0.00271683943169193
3,-0.0653113335362613,-0.000278590083820533
3,-0.0324287828577431,-3.41029498277004e-05
3,-0.0670344075446902,-0.000301226604404782
3,-0.0835873845667387,-0.000584012589637262
3,-0.215434774249543,-0.00999878932471811
3,0.0696878973533516,0.000338432516385984
3,0.0892794528141608,0.000711630510111173
3,0.0443295800622581,8.71125750398779e-05
3,0.0567765665064994,0.000183023719336434
3,0.0916348649042451,0.000769453238291582
3,0.0641050926648567,0.000263437500364347
3,0.11426249553061,0.00149180175896943
3,0.114448641194463,0.00149910455058287
3,0.294495575587392,0.02554090745106
3,-0.031275031672691,-3.05909718615812e-05
3,-0.0118062508155873,-1.64564447410478e-06
3,-0.00491796014434051,-1.18947416721928e-07
3,0.0427524223331489,7.8141578523223e-05
3,-0.061480053562792,-0.00023238212116091
3,-0.0691559244280209,-0.000330741105068765
3,-0.0451596833143395,-9.20985225390579e-05
3,-0.059093967053601,-0.000206361861646334
3,0.0161389387650024,4.20363424465325e-06
3,0.0797661431018847,0.000507523060138486
3,-0.0323097676989389,-3.37288478738394e-05
3,-0.0210986829854016,-9.3921720655853e-06
3,-0.0297927674231904,-2.64443282236206e-05
3,0.0897250578780747,0.000722339295809479
3,0.0599874627872071,0.000215864626392572
3,-0.0261415881043377,-1.78647071949614e-05
3,-0.0391580720920607,-6.00432103597824e-05
3,0.00672276566523933,3.03839281274494e-07
3,0.0585915846349796,0.000201143374368677
3,0.0391725645395905,6.0109901219746e-05
3,0.0336402941074496,3.80696910324626e-05
3,-0.0254648371480961,-1.6512875609773e-05
3,0.0766703598857688,0.00045069475653035
3,0.0553143106375613,0.000169243700631172
3,0.050390552272494,0.000127952081276696
3,0.0261825310569278,1.79487778367098e-05
3,-0.28136437045691,-0.0222744661369148
3,-0.134019318170239,-0.00240714478122472
3,-0.457587318553249,-0.0958124487971405
3,-0.274361716021128,-0.0206524001725634
3,-0.181716594085255,-0.00600044921880334
3,-0.719081891848349,-0.371821978141427
3,0.384620182680038,0.056897896300135
3,0.183202068384084,0.00614881062916043
3,-0.083024741959277,-0.000572298494516497
3,0.625513876430821,0.244743319207416
3,-0.286427347554535,-0.0234986787328069
3,0.375047676310586,0.0527544910007961
3,0.248403411915898,0.0153275474845113
3,0.122910121642719,0.00185679067109797
3,0.425475264328583,0.0770234469575337
3,0.982972393254659,0.949782060964461
3,-0.0991408918387228,-0.000974447541132275
3,-0.0818248472043391,-0.000547842359343952
3,-0.0172877910483866,-5.16676268293119e-06
3,-0.0323023249550891,-3.3705544330982e-05
3,-0.0225847493225385,-1.15198234575307e-05
3,-0.0112562736894478,-1.42621149508145e-06
3,-0.0187130303631889,-6.55288229056245e-06
3,0.135523868456227,0.00248912879906829
3,0.0589438497431345,0.000204793180745208
3,-0.247322878740252,-0.015128395810607
3,-0.0978363699626923,-0.000936485358771929
3,-0.0921429782800395,-0.000782324149619281
3,0.111853137724554,0.00139940852270819
3,0.0412116487715642,6.99938640457561e-05
3,0.320884433157106,0.0330404494908151
3,-0.0999362179467627,-0.000998087758588501
3,-0.0941206329640707,-0.000833785844119064
3,0.020539948933734,8.66558883087462e-06
3,0.126935964345615,0.00204528606884395
3,0.185545133318074,0.00638776165496638
3,-0.0410111874150832,-6.89774335301302e-05
3,0.023632108572834,1.31979785972794e-05
3,0.034146707752463,3.98149810059492e-05
3,0.119549180024912,0.00170859765136615
3,0.174747711591439,0.005336229402362
3,0.0527752331202178,0.000146990910852708
3,-0.0163918570836265,-4.40437690540531e-06
3,-0.0163962775720896,-4.40794112905434e-06
3,-0.00915949907452097,-7.68449211536711e-07
3,-0.0196982856412516,-7.64337719723136e-06
3,-0.0227555538939595,-1.17831724421202e-05
3,-0.0312432111164279,-3.0497693138185e-05
3,-0.0170660764477855,-4.97051123967075e-06
3,-0.00522753002472741,-1.42853079746234e-07
3,-0.032225672319659,-3.34661659466341e-05
3,-0.00313878036824996,-3.09230827668428e-08
3,0.0224073824831884,1.12505403671673e-05
3,0.0224134252137496,1.12596448200564e-05
3,0.012520875338903,1.96292666594938e-06
3,-0.0264315966684241,-1.8465887942896e-05
3,-0.00989181025536839,-9.67892960872605e-07
3,0.0269272126016469,1.95242427126078e-05
3,-0.0574355093867513,-0.000189470425895882
3,-0.0214947726352412,-9.93112771426241e-06
3,0.0311064449328368,3.00989356861519e-05
3,0.0427089241882238,7.79033073521797e-05
3,-0.0549350813323609,-0.000165786558199092
3,-0.0205590077557484,-8.68973337130697e-06
3,-0.0217675821954244,-1.03140819833712e-05
3,0.02332902858425,1.2696673910615e-05
3,0.0391294291925743,5.99115475480627e-05
3,0.0853179305217076,0.000621041951547612
3,0.0921503745372155,0.000782512554699719
3,-0.0634696763674753,-0.000255681232739446
3,-0.0672007819472565,-0.000303475041569364
3,0.0071459422876144,3.64903906903781e-07
3,0.0146438708879139,3.14027493972001e-06
3,0.0319295421570063,3.25520297300822e-05
3,0.034486528805587,4.10155415125688e-05
3,0.0823475419159741,0.00055840837071132
3,-0.0254757740063303,-1.65341610263865e-05
3,0.0440519315023666,8.54859742940819e-05
3,0.00429065797019136,7.89899226196233e-08
3,0.0365138414912359,4.86824669615121e-05
3,0.0871883949139485,0.000662790153577642
3,0.0472992272621702,0.000105818630568874
3,-0.0634758439357912,-0.000255755776275878
3,-0.0332286202298317,-3.66890886939409e-05
3,-0.241843814832213,-0.0141450652215948
3,-0.12660148774268,-0.00202916063149586
3,-0.104171526542767,-0.00113043887776895
3,-0.0545321791665011,-0.000162165534845268
3,-0.0327616880503293,-3.51640437920244e-05
3,0.0939698638671958,0.00082978540747285
3,0.359248381554688,0.0463643804485608
3,0.174741621459558,0.00533567150306947
3,-0.128515082141961,-0.00212257133298931
3,-0.0772089268254257,-0.000460259273810237
3,0.0491917669129469,0.000119035709984786
3,0.188060958290489,0.00665113762545863
3,0.091474529802205,0.000765421324469663
3,0.16673948441532,0.00463570042694907
3,-0.0409422799049376,-6.86303271562524e-05
3,0.0549558087671537,0.000165974286698355
3,0.100173274891665,0.00100520725920882
3,0.0760148916917628,0.000439234093800015
3,-0.130199722273961,-0.00220714148396134
3,-0.227406417498141,-0.0117600224132147
3,0.168925189177385,0.00482040182137337
3,-0.158986406950362,-0.00401864815046956
3,0.295044193836254,0.0256839146343756
3,0.295179812478807,0.0257193481630052
3,-0.50294054870295,-0.127218407193639
3,-0.449022882218144,-0.0905326889394756
3,-0.55337896420551,-0.169460287304002
3,-0.520722530901805,-0.141194931844152
3,0.652530787706719,0.277845279156187
3,-0.290912575439668,-0.0246199680741372
3,-0.386883247046738,-0.0579081609051208
3,-0.337956160565126,-0.0385994487715252
3,0.582576321968426,0.197723590367405
3,0.540118624687318,0.157567795674478
3,-0.403596180502704,-0.0657417321660032
3,-0.513138105010792,-0.135114761228727
3,0.717971164473801,0.370101637573576
3,0.718301183761596,0.370612229792773
3,0.519367612960798,0.140095631245752
3,0.675601687201957,0.308370039517667
3,0.627461416451895,0.247036472137761
3,0.66033160270925,0.287929556178417
3,-0.147523176233934,-0.00321055979651452
3,-0.165941651573152,-0.00456947414751108
3,-0.156285009373196,-0.00381726200327014
3,0.191401179803822,0.00701186960745735
3,-0.107510140671194,-0.00124264847255922
3,-0.101253806657158,-0.00103808778007789
3,0.215297885393483,0.00997974151790573
3,0.199607147375822,0.00795295022437901
3,-0.125455001596977,-0.00197453092897561
3,0.202769055976984,0.00833690855205056
3,0.18799141533626,0.00664376179249851
3,0.161441727798954,0.00420772540964703
3,-0.130208188224136,-0.00220757205549835
3,-0.146464863039539,-0.003141957812877
3,-0.306779446689113,-0.0288721270031837
3,0.168936173165753,0.0048213421905506
3,-0.0657941155932296,-0.000284813886746228
3,-0.137809728788401,-0.00261721640634796
3,0.190028091186967,0.00686204272536609
3,0.122155692901985,0.00182280887517586
3,-0.17074834335629,-0.00497816739714313
3,0.398025242777774,0.0630567884317416
3,0.255862439322979,0.0167501850006269
3,0.219727449837382,0.010608474723312
3,-0.879084204901799,-0.679346638176748
3,-1.04312352091796,-1.13502967106359
3,-2.3381797854967,-12.7830269528961
3,-1.62111943739713,-4.26034764617869
3,1.63213897171102,4.34781848433119
3,-1.02581495700137,-1.0794613104163
3,-2.43918659688332,-14.5122608121678
3,-2.46143805963205,-14.9130589499364
3,1.93670019470866,7.26418989480695
3,1.3200696421202,2.30033205249714
3,-2.88236102460176,-23.9466700236691
3,-2.22166001486943,-10.9656100090468
3,4.34114767333625,81.8113724985348
3,3.13886647492884,30.9256277907296
3,2.96359668844598,26.0289891561621
3,3.00982795143006,27.2662249355437
3,3.16750076249394,31.7797286223144
3,2.28427466466647,11.9191413141813
3,-0.963398650039466,-0.89416589325394
3,-2.47198182265413,-15.1055248169475
3,-2.31571911026997,-12.4181710879771
3,1.23974923790762,1.90546751852415
3,-2.92111489406852,-24.925616988325
3,-2.09013617262475,-9.13111356319356
3,3.18106900049258,32.1898733849151
3,3.00344278622341,27.0930619438315
3,2.97998238013692,26.4631225884791
3,2.14904399092327,9.92512343825388
3,-2.32647498892149,-12.5920130139315
3,-2.42287553849942,-14.2230689657003
3,2.39204371488222,13.6869706673169
3,2.49116119081777,15.4598575714134
4,0.00611087414001426,1.39448342389422e-09
4,0.00539634022623412,8.48002811880734e-10
4,0.00935929663222212,7.67313515314702e-09
4,0.0302482611516933,8.37146865765961e-07
4,0.0246334575402364,3.68215014849493e-07
4,0.0358414172802491,1.65021563942594e-06
4,0.0668095103415579,1.99229275197607e-05
4,0.0514041878671187,6.98222771450304e-06
4,0.0172625614329321,8.88016322423333e-08
4,0.0265082189534479,4.93767153752052e-07
4,0.0146669073974534,4.62758281851186e-08
4,0.0443116438037602,3.85541776714834e-06
4,0.0123882424569629,2.35525961989859e-08
4,0.0282102776877798,6.33329101900712e-07
4,0.0457056820279073,4.36396014642768e-06
4,0.0351351030293151,1.52392967339215e-06
4,0.0798932363854773,4.07417854293905e-05
4,0.0430695252316232,3.44096565389913e-06
4,0.0363315223172325,1.74234591708284e-06
4,0.0614275352301565,1.42381104862975e-05
4,0.0510546175139713,6.79422785846406e-06
4,0.0216438902538446,2.19452884010512e-07
4,0.055783351379383,9.68318902730133e-06
4,0.0525609584187491,7.63225905700742e-06
4,-0.0178586416841359,-1.01717035577482e-07
4,-0.00873698860986649,-5.82702764015849e-09
4,-0.0129572974314435,-2.81875748201796e-08
4,-0.00507149100636488,-6.61519481662236e-10
4,-0.00821706039675902,-4.55896141440727e-09
4,-0.00806067678184716,-4.22168697331413e-09
4,-0.0113159594028231,-1.63970425194219e-08
4,-0.00336835642247643,-1.28727744677346e-10
4,-0.00337189965758578,-1.2927024410648e-10
4,0.0282376690122871,6.35792460208798e-07
4,-0.0122267256816649,-2.23481034990502e-08
4,0.0150919332739433,5.18775557206194e-08
4,-0.0130298273650031,-2.88240263914466e-08
4,-0.0153676095590827,-5.5773162627774e-08
4,0.0180742806249855,1.06719574195688e-07
4,-0.017127767727841,-8.60603403284449e-08
4,0.0352642852095393,1.54646587567554e-06
4,-0.0301745726842648,-8.29019057613999e-07
4,-0.0473493881519428,-5.02640508095734e-06
4,0.0113778888289277,1.67589476436457e-08
4,-0.0306902327695496,-8.87157501969082e-07
4,-0.0177957981195354,-1.00292828904083e-07
4,0.0320469039813091,1.05473732854945e-06
4,-0.00638255946672657,-1.6595084930288e-09
4,-0.0113067927748004,-1.63439765627643e-08
4,-0.0172800870894964,-8.91628019468382e-08
4,-0.0289835982824812,-7.05682270990418e-07
4,-0.011344336055269,-1.65621354781522e-08
4,-0.017721853733579,-9.86362587545218e-08
4,-0.0129671364639469,-2.82732885328652e-08
4,-0.0139487526563131,-3.78565901428439e-08
4,0.0124244015058758,2.38287856310918e-08
4,0.0154681601061314,5.72472507228344e-08
4,0.0203780566109914,1.72445179056233e-07
4,-0.0157204184604712,-6.10740062538602e-08
4,0.00629303236451324,1.56833870728331e-09
4,0.00595612140378594,1.25850274057845e-09
4,-0.009070393177078,-6.76868731305191e-09
4,-0.0300222409629534,-8.12404696485763e-07
4,-0.0203152733373755,-1.70329817126163e-07
4,-0.0103418522038635,-1.14391382239672e-08
4,-0.0146387129712082,-4.59210258858635e-08
4,-0.0248570322981097,-3.81765875941222e-07
4,0.00877351196318231,5.92507552351745e-09
4,-0.0152325338689857,-5.38379617696771e-08
4,-0.0281436411541159,-6.27366231425121e-07
4,-0.00854906646362099,-5.34164194903523e-09
4,-0.00964974689156291,-8.6708902365534e-09
4,-0.0176600064224322,-9.72665313673493e-08
4,-0.0100433739151222,-1.01746277059036e-08
4,0.018216654380402,1.101220974484e-07
4,0.011529075673024,1.76676163089991e-08
4,-0.018155468193688,-1.0865002034093e-07
4,-0.00857087306629323,-5.39635178322979e-09
4,-0.0062425802374177,-1.51864593716227e-09
4,-0.0172037170854434,-8.75969869127335e-08
4,-0.00672646553840431,-2.04714066858862e-09
4,-0.0100689926705301,-1.02788398341032e-08
4,0.0129810884679137,2.83951677575346e-08
4,0.0179036219014883,1.02745684653999e-07
4,-0.0185690532012168,-1.18893754584926e-07
4,0.0105327114576262,1.23072422068931e-08
4,0.0353676171684423,1.56467161445534e-06
4,0.0465939867453698,4.71323926679403e-06
4,0.0389657782493531,2.30533168135881e-06
4,0.0427961173406395,3.35442030656463e-06
4,0.0666948345167418,1.97864917023951e-05
4,0.0318606107354074,1.03042499806479e-06
4,0.0448547685719819,4.04794386338543e-06
4,0.0115543427270661,1.78230071811951e-08
4,-0.0198723645578384,-1.55954597708111e-07
4,-0.017577159015391,-9.54541306649393e-08
4,-0.0266693037682192,-5.05879071055614e-07
4,-0.023911877905549,-3.26929972611748e-07
4,-0.0339052196351846,-1.32149720274032e-06
4,-0.0325276348171721,-1.11946351091886e-06
4,0.0107793440060027,1.35011054062007e-08
4,0.01396541934179,3.8037846667768e-08
4,0.0356679381875015,1.61849745693776e-06
4,0.0806831835341905,4.23771849399874e-05
4,0.0503329563308867,6.41814845880974e-06
4,0.0768428278952887,3.48669015818684e-05
4,0.026705813292843,5.08654901325169e-07
4,0.0391113220680344,2.33996836527489e-06
4,0.0498736553922078,6.18706673739072e-06
4,0.0451812535107469,4.16709213953823e-06
4,0.0183396632602554,1.13126780811238e-07
4,0.0140405830090105,3.88633797018297e-08
4,0.0106805883869715,1.30130983908004e-08
4,0.0102263557766423,1.09366318054369e-08
4,0.0146669073974534,4.62758281851184e-08
4,0.0221844462562662,2.42211283602835e-07
4,0.00620212376262078,1.47965924890032e-09
4,0.0141233620673261,3.97880240168795e-08
4,0.0030901595719326,9.11850468731943e-11
4,0.0150004998021765,5.06317476666237e-08
4,0.00984494280805687,9.39404832999924e-09
4,0.00918828048412631,7.12749590560452e-09
4,0.0073799720337958,2.96632590385764e-09
4,0.00975934959778795,9.07159184689963e-09
4,0.0113287303385517,1.6471189246561e-08
4,0.0154174121167704,5.64996719298474e-08
4,0.0203112002174063,1.70193256785949e-07
4,-0.0156688428610911,-6.02764547330161e-08
4,0.0118363247263322,1.96276129662244e-08
4,0.0212212625925657,2.02807904374805e-07
4,-0.0220100020122513,-2.34682296310755e-07
4,0.0096038628324101,8.50714420077269e-09
4,0.0155089826155209,5.78539794052958e-08
4,0.0204318353419222,1.74272764300293e-07
4,0.0170868049886234,8.52400020448607e-08
4,0.0187664392737207,1.24030219210087e-07
4,0.0292462176385504,7.31608647385031e-07
4,0.0139711322835797,3.8100126611867e-08
4,0.019669174281461,1.49673361964591e-07
4,0.00506667157231423,6.5900849793344e-10
4,-0.00871419058255954,-5.7664458156014e-09
4,-0.00770772462000025,-3.52943151688872e-09
4,-0.0116947027146182,-1.87049583363277e-08
4,-0.0104855494498091,-1.208828723402e-08
4,-0.0148677096167702,-4.8862567228273e-08
4,-0.0142636276710681,-4.13923396496362e-08
4,0.00731104980450582,2.85705742628012e-09
4,0.0329515838694677,1.17897657958378e-06
4,0.0104783349086276,1.2055052359865e-08
4,0.0100926217842638,1.03756662709346e-08
4,0.016798621305014,7.96332717616592e-08
4,0.0169266643961918,8.20891075673126e-08
4,0.0201680118111836,1.65444505290137e-07
4,0.0147406863624609,4.72140029940777e-08
4,0.0167842063196192,7.93602884664064e-08
4,0.0184173595251549,1.15056051067342e-07
4,0.0166845478471707,7.74921600750708e-08
4,0.0127338503760612,2.62929290940861e-08
4,0.0068216172559916,2.1654561524421e-09
4,0.0154309395225439,5.66982267770107e-08
4,0.00962635299093804,8.58711208216052e-09
4,0.0146964581472045,4.66499012546509e-08
4,0.00510757969345098,6.8055089047123e-10
4,0.00748017640160203,3.130742573233e-09
4,0.00953851008865101,8.2779380805464e-09
4,0.00864107190541904,5.57532869308869e-09
4,0.00691049269422541,2.28053136004903e-09
4,0.0122966376580782,2.2863646875942e-08
4,0.0100143707663191,1.0057607095387e-08
4,0.0161076164087061,6.73170560035604e-08
4,0.00959779554787956,8.48566685415322e-09
4,0.00832016847718089,4.79212879804841e-09
4,0.0269646421830359,5.28662671848788e-07
4,0.00611087414001426,1.39448342389422e-09
4,0.00381537251856402,2.11908212901459e-10
4,0.00661730018245884,1.91744689389478e-09
4,0.0302482611516933,8.37146865765959e-07
4,0.0138508987324515,3.68054232355781e-08
4,0.0201529095282458,1.64949506645914e-07
4,0.0375656466654786,1.99142280973051e-06
4,0.0289035430535238,6.97917889808239e-07
4,0.0172625614329321,8.88016322423331e-08
4,0.0210789095469399,1.97420642460913e-07
4,0.0443116438037602,3.85541776714835e-06
4,0.0221844462562662,2.42211283602837e-07
4,0.0187378491967439,1.23276120196379e-07
4,0.0426694852759182,3.31489377349995e-06
4,0.0457056820279072,4.36396014642767e-06
4,0.0279388690721908,6.09305768721513e-07
4,0.0635298171536613,1.62896000541055e-05
4,0.0342481940480934,1.37578541812003e-06
4,0.0288902424554616,6.96634127494784e-07
4,0.0488461884625982,5.69275801007578e-06
4,0.0405978110570358,2.71650477082435e-06
4,0.0172108735673976,8.77428338884835e-08
4,0.0557833513793829,9.6831890273013e-06
4,0.0030901595719326,9.11850468731944e-11
4,0.011890569070356,1.99898971670375e-08
4,0.00780387147073058,3.70885992984699e-09
4,0.00728334956668949,2.81400340256151e-09
4,0.0058499428927303,1.17113377504687e-09
4,0.00773602359952108,3.58155103305663e-09
4,0.0280982194717201,6.23325941381173e-07
4,-0.0124782818843098,-2.42448314059616e-08
4,0.0150174029307905,5.08603487457052e-08
4,-0.0178652028321374,-1.01866598665975e-07
4,-0.0210705371703934,-1.97107173598118e-07
4,0.0179850221905114,1.04627033525184e-07
4,-0.0105023140452991,-1.21657812294818e-08
4,0.0350901352693033,1.51614301536818e-06
4,-0.0229070250390738,-2.753434578811e-07
4,-0.03594528516876,-1.66942815486677e-06
4,0.011321700006503,1.64303408271036e-08
4,-0.00830675097122701,-4.76129141878064e-09
4,-0.00481668758993189,-5.38262241559547e-10
4,0.0318886428289865,1.03405620446024e-06
4,-0.00724219129072539,-2.75093270957666e-09
4,-0.0128296424947675,-2.70930699782097e-08
4,-0.0196074469615104,-1.47803322118223e-07
4,-0.0328872396958524,-1.16979482177449e-06
4,-0.0128722422731562,-2.74547074743402e-08
4,-0.0201087127247182,-1.63507274411625e-07
4,-0.0147136087418247,-4.6868042290283e-08
4,-0.0158274334192523,-6.27540820275751e-08
4,0.0153917717959179,5.61247556106218e-08
4,0.0168250233988518,8.01350860304749e-08
4,0.0275957984085518,5.79925031562705e-07
4,-0.02128846273296,-2.05389012312609e-07
4,0.00626195471176425,1.53758696792481e-09
4,0.00129135118782271,2.78084937184558e-12
4,-0.00196655880717834,-1.49564234195215e-11
4,-0.00650914477733215,-1.7951292572223e-09
4,-0.00440456978235658,-3.76369116799978e-10
4,-0.00224222480073309,-2.5276480788554e-11
4,-0.00317383043460959,-1.01469350738571e-10
4,-0.00538927197882633,-8.43568601062609e-10
4,0.0181266928441679,1.07962840635686e-07
4,0.0158095570107483,6.24710497912854e-08
4,-0.0248961770748489,-3.84176377380641e-07
4,-0.0117530416328605,-1.90809985368387e-08
4,-0.00856030708416189,-5.36979093820789e-09
4,-0.0235910626118532,-3.09734807190974e-07
4,-0.00922384789780322,-7.23849920671103e-09
4,-0.0138073786815383,-3.63450226585367e-08
4,0.0351929569313333,1.53399177887778e-06
4,0.0169249542933789,8.20559387071335e-08
4,0.0748716129919897,3.14245275981889e-05
4,0.0626138880315316,1.53703122084688e-05
4,0.0687688381893303,2.2364889099141e-05
4,0.107171551251697,0.000131922255454726
4,0.0511966346581601,6.87014109758453e-06
4,0.0720768731750652,2.69888109748775e-05
4,0.0185666077849342,1.18831137004668e-07
4,-0.0319327898799745,-1.03979434998566e-06
4,-0.0282446371136034,-6.36420260811807e-07
4,-0.042854752940804,-3.37284188853551e-06
4,-0.0384238609638589,-2.17973656024494e-06
4,-0.0544821051009595,-8.81080356157891e-06
4,-0.0522684718713857,-7.4637865813173e-06
4,0.0215037530930826,2.13824300157114e-07
4,0.0331248616177991,1.20397173286346e-06
4,0.0302687061583328,8.39412494677529e-07
4,0.0255063929383215,4.23249236810277e-07
4,0.0147029111670257,4.67318886455445e-08
4,0.0372885109914317,1.93330407197759e-06
4,0.0354917948383087,1.58676221268408e-06
4,0.00744443159985477,3.07132783508250e-09
4,0.0430091232048764,3.42170335811649e-06
4,0.0268305764011335,5.1822696966539e-07
4,0.0409619763077281,2.81529304975659e-06
4,0.014235848957442,4.10708306002749e-08
4,0.0208487518197254,1.88938402224833e-07
4,0.0265857406151065,4.99568507492914e-07
4,0.0240844004125223,3.3646768155155e-07
4,0.00754142137456803,3.23454226353097e-09
4,0.023131593772596,2.8630057958129e-07
4,0.0188383493842704,1.25942232935732e-07
4,0.0303005463583956,8.42950044413309e-07
4,0.0180547165736913,1.06258260183076e-07
4,0.0156513319075701,6.0007454617973e-08
4,0.0507240407130021,6.6199600691246e-06
4,0.0351351030293151,1.52392967339215e-06
4,0.0279388690721908,6.09305768721514e-07
4,0.0488369623226394,5.68845820245695e-06
4,0.026327444927154,4.80435236011402e-07
4,0.0222086532828622,2.43270191011252e-07
4,0.0375492890178257,1.98795648078889e-06
4,0.03120855462528,9.48625122426785e-07
4,0.0132304297668243,3.06404970951983e-08
4,0.0150004998021765,5.06317476666238e-08
4,0.011890569070356,1.99898971670375e-08
4,0.0378821771911585,2.05939533441275e-06
4,0.0353554181235956,1.56251397676694e-06
4,0.0283972607764926,6.50288087963521e-07
4,0.0375528246270061,1.98870532372526e-06
4,-0.0188827742117398,-1.27134435957326e-07
4,0.0451412493042593,4.15235328815789e-06
4,0.0633714213265671,1.61277503168685e-05
4,0.0188634057818862,1.26613620874054e-07
4,0.018883248539975,1.27147210716842e-07
4,0.0228056637700852,2.70502241656835e-07
4,0.0249292824533556,3.86223871636857e-07
4,0.0310365156935015,9.27880050500328e-07
4,-0.0315426664134039,-9.8990521451339e-07
4,0.020036453384463,1.61169701418038e-07
4,0.0260462623342923,4.60237118117487e-07
4,-0.0372583880137485,-1.92706447236307e-06
4,0.0521446581343567,7.3933164969318e-06
4,0.025077345938559,3.95481601445409e-07
4,0.0842068041381089,5.02792441571022e-05
4,0.0927736703749435,7.40796556921568e-05
4,0.101893329528297,0.00010779112757025
4,0.158793815269693,0.000635820218201828
4,0.0758569681168923,3.31117338517809e-05
4,0.106794774830669,0.000130076851884507
4,0.0275097491111384,5.72725498052215e-07
4,-0.0473141377354685,-5.01145366423633e-06
4,-0.0418494799766747,-3.06732831168352e-06
4,-0.0634969788384268,-1.62559460353138e-05
4,-0.0569318201386656,-1.05055858132525e-05
4,-0.0807249800144029,-4.24650641678811e-05
4,-0.077445086590949,-3.59729023460615e-05
4,0.0207752172795877,1.86286892574933e-07
4,0.0588344471374813,1.19819280427849e-05
4,0.0430017663953113,3.419362797784e-06
4,0.0489631555505453,5.74748169600181e-06
4,0.0537274162440668,8.33266310270179e-06
4,0.0486724302582374,5.61218690382716e-06
4,0.0902948495387122,6.64740155921368e-05
4,0.0189394149907735,1.28666723196342e-07
4,0.0483716146766104,5.47472537298638e-06
4,0.0682598011798017,2.17100126196802e-05
4,0.104211565077638,0.000117940692430148
4,0.0362174932410185,1.72057477288076e-06
4,0.0530414118871247,7.91517102880968e-06
4,0.0676369132542484,2.09283561777358e-05
4,0.0612732413614512,1.40955952510831e-05
4,0.0205244396928595,1.77453773821549e-07
4,0.0282323204330864,6.3531088784152e-07
4,0.0214761590427812,2.12728876275246e-07
4,0.0205628037641762,1.78784277528513e-07
4,0.0246334575402364,3.68215014849492e-07
4,0.0138508987324515,3.68054232355781e-08
4,0.016412045594511,7.25522456366956e-08
4,0.0305925605926537,8.75917726557597e-07
4,0.0235383514113675,3.06975820693464e-07
4,0.0123882424569629,2.35525961989859e-08
4,0.00620212376262078,1.47965924890032e-09
4,0.0187378491967438,1.23276120196379e-07
4,0.0119291428558339,2.02505562834309e-08
4,0.00984494280805687,9.39404832999925e-09
4,0.00780387147073058,3.70885992984699e-09
4,0.0378821771911585,2.05939533441275e-06
4,0.0232040314637538,2.89903716353916e-07
4,0.0186373395511449,1.20652318126064e-07
4,0.0246462061670919,3.68977860456454e-07
4,-0.0185234052466582,-1.17728961347322e-07
4,0.0451412493042594,4.15235328815792e-06
4,0.0621653632631434,1.49346105905656e-05
4,0.0185044054285623,1.17246676446729e-07
4,0.0185238705476793,1.17740791023192e-07
4,0.0052666198986071,7.69356987847682e-10
4,0.00114752681709956,1.7340091077639e-12
4,-0.00165397519183726,-7.48369302748945e-12
4,-0.00547451921726747,-8.98222518104311e-10
4,-0.00370446544702446,-1.88322492360174e-10
4,-0.00188582420286527,-1.26475038671261e-11
4,-0.00266935155093293,-5.07718624517533e-11
4,-0.00453264968355156,-4.22093456497186e-10
4,0.00775785944467024,3.62215997674201e-09
4,-0.00560511723396795,-9.87049202817824e-10
4,-0.0103560188617555,-1.1501946177906e-08
4,-0.0031458009666497,-9.79320771854155e-11
4,-0.00355081846989713,-1.58969526601419e-10
4,-0.00649835458773549,-1.78325570083284e-09
4,-0.00369566145088007,-1.86538602799348e-10
4,0.0137534585395686,3.57806058848928e-08
4,-0.0158017941049125,-6.23484404597737e-08
4,-0.0136401564213587,-3.46160414997527e-08
4,-0.0101932059884571,-1.07955109636415e-08
4,-0.00406278674345968,-2.72455830942674e-10
4,-0.0090036332040631,-6.57160084005816e-09
4,-0.00885268822778394,-6.1418708276648e-09
4,-0.0085222211278911,-5.27486312695753e-09
4,-0.00626638103060643,-1.54193900817212e-09
4,0.0101944294341448,1.08006948476667e-08
4,0.0140487659804505,3.89540585715967e-08
4,-0.0140015789174239,-3.84333331296104e-08
4,-0.00660989594697699,-1.90887940120621e-09
4,-0.00481430602119878,-5.37198474751682e-10
4,-0.0132675841721678,-3.09861348263268e-08
4,-0.00518748054671726,-7.24145647024793e-10
4,-0.00776525253941979,-3.63598712904405e-09
4,-0.00768832103723259,-3.49402524560362e-09
4,0.0317480800914131,1.01594423194302e-06
4,0.0248892728356606,3.83750393515471e-07
4,-0.043243810563437,-3.49700154939087e-06
4,-0.0268887963542821,-5.22739656180757e-07
4,-0.0303466251178154,-8.48089329208461e-07
4,-0.0252564752125841,-4.06903065450481e-07
4,-0.0247082538317876,-3.72707572859799e-07
4,-0.0260866805951161,-4.63100535208e-07
4,0.0396930391990259,2.48231797545121e-06
4,0.0390606254833584,2.32785954911338e-06
4,-0.00842148974151533,-5.02985766813949e-09
4,-0.0116053958357307,-1.81401064672463e-08
4,-0.0142932267003395,-4.17369902501549e-08
4,-0.0147641327587504,-4.75151130429541e-08
4,-0.00868776132475398,-5.69680724220384e-09
4,-0.0138990232841466,-3.7319612859238e-08
4,-0.00924817095626799,-7.31515271395899e-09
4,0.0344549630842498,1.40931201909407e-06
4,0.0165700391847946,7.53865974057633e-08
4,0.0556402598430226,9.58421611342835e-06
4,0.0733015605006028,2.88704053361224e-05
4,0.0673267604590096,2.05471159931404e-05
4,0.104924171312567,0.000121199880441574
4,0.0501230448077014,6.31174987703076e-06
4,0.0705654261823044,2.47952148190642e-05
4,0.0181772673173733,1.09172781711913e-07
4,-0.0312631615080927,-9.55281961089084e-07
4,-0.0276523490474537,-5.84693304818895e-07
4,-0.0419560917669132,-3.09870409833257e-06
4,-0.0376181152850331,-2.00257196623263e-06
4,-0.0533396191649491,-8.09467920766436e-06
4,-0.0511724056694804,-6.85714505243227e-06
4,0.0162009290544848,6.88905545638128e-08
4,0.0260583857822349,4.6109460124176e-07
4,0.0296717176925903,7.75123231040621e-07
4,0.0198432782045725,1.55043543331823e-07
4,0.031308979616564,9.60894384682794e-07
4,0.0463690939761674,4.62289937615977e-06
4,0.0169630657752101,8.27975306037122e-08
4,0.0350535637204748,1.50983228726492e-06
4,0.0397206623308015,2.48923515884067e-06
4,0.0191087703912714,1.33330948338135e-07
4,0.0487433331671624,5.64496034187151e-06
4,0.0445404918468179,3.93568230348433e-06
4,0.0375327336678477,1.98445286654613e-06
4,0.0216353778563842,2.19107850212935e-07
4,0.0548701557016049,9.06451913878104e-06
4,0.0445062367599612,3.92358888591652e-06
4,0.00933521781121232,7.59447613663017e-09
4,0.0238423182081482,3.23142380305297e-07
4,0.0539328661431479,8.46085012580399e-06
4,0.0513657712722917,6.96137860627404e-06
4,0.0178515644831546,1.01555893624423e-07
4,0.026144056361918,4.67188220872874e-07
4,0.0333381636979853,1.23528366637715e-06
4,0.030201516487536,8.3198405233803e-07
4,0.0119247435650632,2.02207003861527e-08
4,0.0205553101484824,1.7852380556037e-07
4,0.0297878177652363,7.87326289370064e-07
4,0.0479122206887524,5.26969162862894e-06
4,0.0285487117862443,6.64272180623885e-07
4,0.0247484008888385,3.75135849806797e-07
4,0.0802065218270639,4.13845973309175e-05
4,0.0232046327225829,2.89933765260613e-07
4,0.0251227093491344,3.9835098525964e-07
4,0.0798932363854773,4.07417854293906e-05
4,0.0635298171536613,1.62896000541056e-05
4,0.0488369623226394,5.68845820245695e-06
4,0.0598656215476522,1.28442864786046e-05
4,0.0504999568394719,6.50375282836089e-06
4,0.0853828213085002,5.31473976768123e-05
4,0.0709647109856556,2.53611973476522e-05
4,0.0300844956100006,8.19164151665678e-07
4,0.0386685821747742,2.23580021695694e-06
4,0.107620736986533,0.000134147890305649
4,0.122280776783234,0.000223579898983927
4,0.102249589978217,0.000109306578586873
4,0.118434873936135,0.000196751661477812
4,0.163263782763603,0.000710492370861129
4,0.0673606911662416,2.05885678845137e-05
4,0.0358414172802491,1.65021563942594e-06
4,0.0201529095282458,1.64949506645914e-07
4,0.016412045594511,7.25522456366956e-08
4,0.0445118484923039,3.925568140687e-06
4,0.034248049574281,1.37576220361636e-06
4,0.0282102776877797,6.33329101900711e-07
4,0.0141233620673262,3.97880240168796e-08
4,0.0426694852759182,3.31489377349994e-06
4,0.0119291428558339,2.02505562834309e-08
4,0.0430695252316232,3.44096565389913e-06
4,0.0342481940480934,1.37578541812003e-06
4,0.0263274449271539,4.80435236011402e-07
4,0.0598656215476521,1.28442864786046e-05
4,0.0272239461523289,5.49293308282339e-07
4,0.0460288973518424,4.48871761687949e-06
4,0.0382562598366227,2.14195347835875e-06
4,0.0162182057127317,6.9184884292126e-08
4,0.00918828048412632,7.12749590560454e-09
4,0.0072833495666895,2.81400340256151e-09
4,0.0353554181235956,1.56251397676694e-06
4,0.0232040314637538,2.89903716353917e-07
4,0.0173942202217445,9.15418862280103e-08
4,0.0230022926032153,2.79952593097028e-07
4,-0.0165053870767975,-7.42169076048991e-08
4,-0.0188213546674896,-1.25488380435189e-07
4,0.00664055276885542,1.94454021225611e-09
4,0.0101487072818706,1.06082294695686e-08
4,0.017022255352117,8.39592217810298e-08
4,0.00666260218110108,1.97049587745208e-09
4,0.0104081596986593,1.1735343035895e-08
4,0.00761568339181923,3.36384149070129e-09
4,0.00819219295151492,4.50402394723013e-09
4,0.0151276508610867,5.2370409594616e-08
4,-0.026484496470459,-4.9200201537577e-07
4,-0.0228614973843809,-2.73160997398129e-07
4,-0.0170842580425743,-8.51891901698762e-08
4,-0.00680940787185262,-2.14999472218014e-09
4,-0.0150904821459599,-5.1857605959523e-08
4,-0.0148374917788562,-4.84665342565924e-08
4,-0.0142836144986812,-4.16248308723753e-08
4,-0.0105027280564333,-1.21676996892434e-08
4,0.0416229036744938,3.00143882332481e-06
4,0.0200172365062429,1.60552281642687e-07
4,0.0672155465732772,2.04116887844827e-05
4,0.0885510683742793,6.14858556848635e-05
4,0.0740537896632842,3.00738585593146e-05
4,0.126752382958304,0.000258121708756522
4,0.0605505413197491,1.34422547082324e-05
4,0.0852457142256612,5.28068443200089e-05
4,0.0219588291174925,2.32507366034625e-07
4,-0.0377670861765145,-2.03448230511632e-06
4,-0.0334050876200702,-1.24523253973922e-06
4,-0.0506845519440055,-6.59936951982403e-06
4,-0.0454441116391935,-4.26491590543322e-06
4,-0.0644362852779182,-1.72393934821202e-05
4,-0.0618182090854294,-1.46037932684132e-05
4,0.0178196631528267,1.00831902380681e-07
4,0.024430914373928,3.56253292122684e-07
4,0.0278185763436367,5.98879713870708e-07
4,0.0186039701294331,1.19790543167448e-07
4,0.0293535833930588,7.42411182008095e-07
4,0.00779833674951054,3.6983494143188e-09
4,0.0330176149757043,1.18845514566678e-06
4,0.0104993322618436,1.21519708334003e-08
4,0.0101128462136533,1.04590830580933e-08
4,0.0168322837702969,8.02734958694742e-08
4,0.0323766656152407,1.09882486819339e-06
4,0.0536135782746605,8.26226604994396e-06
4,0.0754665308826722,3.24352720975907e-05
4,0.0635930383121284,1.63545387376117e-05
4,0.0366575860179629,1.80574095985413e-06
4,0.0929684457466993,7.47037291195707e-05
4,0.0694341679694872,2.32430407088813e-05
4,0.0630602057283999,1.58132644213977e-05
4,0.0424945079291813,3.26085298036588e-06
4,0.0592465511655066,1.23211798752112e-05
4,0.0106818360780526,1.30191801426627e-08
4,0.0184128448835501,1.14943277926011e-07
4,0.032764101172788,1.15237289138048e-06
4,0.0429183642180922,3.39291237688208e-06
4,0.0255730999896444,4.27694343823231e-07
4,0.0221688927771172,2.41532741860421e-07
4,0.0718466534624306,2.664564122377e-05
4,0.00539634022623411,8.48002811880732e-10
4,0.00381537251856402,2.1190821290146e-10
4,0.00584355074993996,1.16602343906964e-09
4,0.0305315372933526,8.68949800883766e-07
4,0.0219143578959141,2.30629575870802e-07
4,-0.0380750513575668,-2.10165773842533e-06
4,-0.0236748863893616,-3.1416052526069e-07
4,-0.0267194147517284,-5.09691939346546e-07
4,-0.0222376700457413,-2.44544065598699e-07
4,-0.0217549753674237,-2.23992967577312e-07
4,-0.0229686443092342,-2.7831809901781e-07
4,0.0381720564866329,2.12315759337812e-06
4,0.0606470558212002,1.35281649379345e-05
4,-0.013075534560217,-2.92306055040314e-08
4,-0.0180189917690014,-1.05419741656694e-07
4,-0.0221922231616561,-2.4255109735126e-07
4,-0.0229233703375546,-2.76130184286465e-07
4,-0.0134889582412882,-3.31065282789532e-08
4,-0.0215801675099373,-2.16879870768802e-07
4,-0.0143590721676422,-4.25114103203983e-08
4,0.0567142036535403,1.03458780143242e-05
4,0.0272749262443172,5.53419349376127e-07
4,0.0915860226103562,7.03585362425207e-05
4,0.12065720750268,0.000211940072733943
4,0.100903621264021,0.000103663772740184
4,0.110822455234348,0.000150838105920539
4,0.0825044729842991,4.63350864818866e-05
4,0.116153424446173,0.000182023756543212
4,0.0299204859973746,8.01446568803092e-07
4,-0.0514603746429206,-7.01280518778599e-06
4,-0.0455168374884422,-4.29228270637816e-06
4,-0.0690613519787247,-2.27478472967563e-05
4,-0.0619208746827244,-1.47010491621765e-05
4,-0.0877990789520265,-5.94237205905727e-05
4,-0.0842317616038069,-5.03388783163819e-05
4,0.0250598642508169,3.94379976124594e-07
4,0.0213604971468622,2.0818307793875e-07
4,0.0391213762484582,2.3423753958954e-06
4,0.0261628383191906,4.6853218514086e-07
4,0.0412800628606944,2.90376455588012e-06
4,0.0445922940195441,3.95402362267164e-06
4,0.0177614487335369,9.95207285201857e-08
4,0.0367033933134219,1.81478370280244e-06
4,0.0415901533956012,2.99200344091877e-06
4,0.0307305385872699,8.91827145475997e-07
4,0.0288680423372682,6.94495337131796e-07
4,0.0413742244759313,2.93034979829105e-06
4,0.0398512170964284,2.52212355919696e-06
4,0.0663301884145295,1.93573063706417e-05
4,0.0258668496837626,4.47686663828018e-07
4,0.0428337614107632,3.36623827019896e-06
4,0.0659820829024392,1.89541400132013e-05
4,0.0508067008042746,6.6632173131696e-06
4,0.0292870266062818,7.35700628421181e-07
4,0.074275740437301,3.04360269166812e-05
4,0.0218732683432145,2.28904707305512e-07
4,0.0209539903914276,1.92782213158454e-07
4,0.0470993512128254,4.92107177411256e-06
4,0.0607078525226939,1.35824927444157e-05
4,0.0886818266808684,6.18498314965029e-05
4,0.0597602012796362,1.27540526735006e-05
4,0.0833186685836075,4.81913714216233e-05
4,0.0150219100106851,5.0921433841118e-08
4,0.0258940594912983,4.4957335702043e-07
4,0.0460762902372051,4.50723312111169e-06
4,0.0375244897672308,1.98270993535841e-06
4,0.0359635556969457,1.67282493940212e-06
4,0.0311762050925511,9.44698007119963e-07
4,0.101038244267671,0.00010421810297287
4,0.0668095103415578,1.99229275197607e-05
4,0.0375656466654786,1.99142280973051e-06
4,0.0305925605926537,8.75917726557597e-07
4,0.0445118484923039,3.925568140687e-06
4,0.0638394236567202,1.66094721272971e-05
4,0.0363315223172325,1.74234591708284e-06
4,0.0288902424554616,6.96634127494785e-07
4,0.0222086532828622,2.43270191011252e-07
4,0.0504999568394719,6.50375282836089e-06
4,0.0272239461523289,5.49293308282339e-07
4,0.0388279160817915,2.27287906923615e-06
4,0.0322712672255691,1.08458621008635e-06
4,0.0136809518941469,3.50320267026322e-08
4,-0.0292395225329456,-7.30938951834734e-07
4,-0.0333422912979876,-1.23589554217267e-06
4,0.00664055276885542,1.9445402122561e-09
4,0.0179785759563114,1.04477111476913e-07
4,0.0301551618640593,8.26887936266357e-07
4,0.0118028923342376,1.94067933809251e-08
4,0.0184381995174931,1.15577698059625e-07
4,0.013491288941167,3.31294155563696e-08
4,0.0145125836362109,4.43587135232459e-08
4,-0.0294004193439959,-7.47160836299121e-07
4,-0.00640596251119825,-1.6839824887165e-09
4,-0.00606300559328991,-1.3513003073213e-09
4,0.0305609980961406,8.72308562098078e-07
4,0.0206798363437368,1.82889338900266e-07
4,0.0105274395040279,1.22826200524861e-08
4,0.0149014085855579,4.93070808598756e-08
4,0.0253030983821503,4.09915949207264e-07
4,-0.0358132245853103,-1.64502955416115e-06
4,-0.0149034748835538,-4.93344351371877e-08
4,0.0478073148851078,5.22369015021945e-06
4,0.0145222116129871,4.44765450186726e-08
4,0.0163919261790002,7.21971340717979e-08
4,0.0299988719756246,8.09878180238454e-07
4,0.0170605763710466,8.47178248799675e-08
4,0.0306897239631104,8.87098671496489e-07
4,0.0280981883301478,6.23323178029193e-07
4,-0.0382723216593286,-2.14555292584365e-06
4,-0.0237975481275782,-3.20722076594015e-07
4,-0.0268578504681105,-5.20337356435243e-07
4,-0.0223528854354516,-2.49651608751532e-07
4,-0.0218676898721331,-2.28671280849938e-07
4,-0.0230876469430426,-2.84131046052399e-07
4,0.0481637138146181,5.38120910973255e-06
4,0.0777605442161183,3.65626079403635e-05
4,-0.0164980973648085,-7.40858809124108e-08
4,-0.0227355202383202,-2.67189621683265e-07
4,-0.0280011082358751,-6.1475331775326e-07
4,-0.0289236355130909,-6.99860560416639e-07
4,-0.0170197360107712,-8.39095280171194e-08
4,-0.0272288450684891,-5.49688793681011e-07
4,-0.0181176050278545,-1.07746494747818e-07
4,0.0347378795173633,1.45617381814491e-06
4,0.0167060990137154,7.78933180828683e-08
4,0.056097132886648,9.90290608660835e-06
4,0.0739034539342942,2.98303908574603e-05
4,0.0618042326706708,1.45905907208051e-05
4,0.0678795936423039,2.12303393018892e-05
4,0.105785724181527,0.000125229963464559
4,0.0711448526825686,2.56196939681318e-05
4,0.0183265244104838,1.12802945145625e-07
4,-0.0315198694349042,-9.87046560192005e-07
4,-0.0278794078877313,-6.04135259322632e-07
4,-0.0423006014330839,-3.20174079056729e-06
4,-0.0379270049788306,-2.06916057386174e-06
4,-0.0537776011985064,-8.36383978053342e-06
4,-0.0515925922896329,-7.08515570525855e-06
4,0.0365867187647296,1.79181780689036e-06
4,0.0311857436243527,9.45854680071401e-07
4,0.0501607121132534,6.33074431323081e-06
4,0.0381970308414625,2.12871941594574e-06
4,0.0602677666310722,1.31929036797733e-05
4,0.0209163124068211,1.91399359174291e-07
4,0.0227734042631582,2.68974941946449e-07
4,0.0172159710060552,8.78468291804587e-08
4,0.0195081383588101,1.44831593305502e-07
4,0.0125295571560898,2.46457980976926e-08
4,0.0117701740053153,1.91924992926781e-08
4,0.0530492728493442,7.91986431970553e-06
4,0.0162482704600655,6.96993227137366e-08
4,0.027044364502558,5.3494252439623e-07
4,0.0279478431282402,6.100889899968e-07
4,0.0462797464374621,4.58737119572363e-06
4,0.0712903552143609,2.58299231834036e-05
4,0.0651434212406539,1.8008695440999e-05
4,0.0316431739965136,1.00258258643576e-06
4,0.0802512392252641,4.1476966864143e-05
4,0.0280455040582363,6.18661371095978e-07
4,0.0239386153354333,3.28394673871574e-07
4,0.0538080446812444,8.38279493674041e-06
4,0.0706930284444501,2.49750489351433e-05
4,0.113706213952322,0.000167161706747306
4,0.0695895083313667,2.34517400918941e-05
4,0.0970228522897075,8.86127371576586e-05
4,0.0114766448045676,1.73484134094697e-08
4,0.019782898653939,1.53165059723352e-07
4,0.0352019960569885,1.53556837699964e-06
4,0.0286684742635801,6.75489062954978e-07
4,0.0461118124379519,4.5211484848706e-06
4,0.0238184246841487,3.21848980642519e-07
4,0.0771925833873588,3.55060452689787e-05
4,0.00935929663222212,7.67313515314701e-09
4,0.00661730018245885,1.91744689389478e-09
4,0.00584355074993996,1.16602343906964e-09
4,0.0614275352301565,1.42381104862975e-05
4,0.0488461884625982,5.69275801007579e-06
4,0.0375492890178257,1.98795648078889e-06
4,0.0853828213085002,5.31473976768123e-05
4,0.0460288973518425,4.48871761687949e-06
4,0.0388279160817915,2.27287906923615e-06
4,0.0545626573836184,8.86302664684345e-06
4,0.0231310746387629,2.86274879092959e-07
4,0.0525609584187491,7.63225905700741e-06
4,0.0073799720337958,2.96632590385764e-09
4,0.0058499428927303,1.17113377504687e-09
4,0.0283972607764927,6.50288087963522e-07
4,0.018637339551145,1.20652318126065e-07
4,0.0173942202217445,9.15418862280102e-08
4,0.018475304102676,1.16510853145892e-07
4,-0.0447859653814646,-4.02316422016216e-06
4,0.0325129734003525,1.11744653947882e-06
4,0.0482180171613406,5.4055188827375e-06
4,0.0188725497483037,1.26859301384948e-07
4,-0.028913504843856,-6.98880554744041e-07
4,-0.029654827753069,-7.73359853459702e-07
4,-0.0616538858401355,-1.4449133901769e-05
4,-0.0470368314765628,-4.8949948067751e-06
4,0.0631563968413806,1.59099706983746e-05
4,0.0465698812889671,4.70349323269185e-06
4,0.0223963309988908,2.51598188285943e-07
4,0.0752042685241283,3.19867389331883e-05
4,0.0990755660501514,9.63532236181536e-05
4,0.0828552524972113,4.7128127055402e-05
4,0.090999930386809,6.85747511663131e-05
4,0.14181719453367,0.000404497236762694
4,0.0677471121019215,2.10650817071306e-05
4,0.0245686863473919,3.64357525529522e-07
4,-0.0422557910333453,-3.18819550136483e-06
4,-0.0373753589389179,-1.95137837835494e-06
4,-0.0567085272492232,-1.03417366482056e-05
4,-0.0508452485888599,-6.68346225927196e-06
4,-0.0720946856461995,-2.701550001577e-05
4,-0.069165445090491,-2.28853049663438e-05
4,0.0111915140065186,1.56875589324045e-08
4,0.0229643330039809,2.78109192220259e-07
4,0.054581847872577,8.87550225391479e-06
4,0.0475329268508581,5.10479407571412e-06
4,0.0541224764995937,8.58046140381469e-06
4,0.0593887544697067,1.24398994073283e-05
4,0.0538011170483114,8.37847872621882e-06
4,0.0797810687006296,4.05134658903336e-05
4,0.0167341412743682,7.8417632137942e-08
4,0.0427393049923684,3.33664361452634e-06
4,0.0966790726925547,8.73634758741842e-05
4,0.0603117444155248,1.32314536426195e-05
4,0.032000389071887,1.04862699736044e-06
4,0.0468653588478579,4.82400541979248e-06
4,0.0597613845153174,1.2755062810554e-05
4,0.0541386879045894,8.59074650932109e-06
4,0.027246001439396,5.51075496887707e-07
4,0.0270044138097665,5.31788593292855e-07
4,0.0145774530729815,4.51571586949364e-08
4,0.0261916665141377,4.70600657660386e-07
4,0.0152534103400126,5.41337127866155e-08
4,0.0146047010981493,4.54957356986578e-08
4,-0.0446865442648492,-3.98755864262248e-06
4,-0.050956775176483,-6.74229487729298e-06
4,0.0101487072818706,1.06082294695685e-08
4,0.0179785759563114,1.04477111476913e-07
4,0.0460859090271959,4.51099798206498e-06
4,0.0180382723470561,1.05871668868447e-07
4,0.0281789628395676,6.30521670291656e-07
4,0.0206186362920268,1.80733954587089e-07
4,0.0221794733592571,2.41994178913627e-07
4,0.0635150357853525,1.62744450564589e-05
4,0.0199129092869751,1.57231247897043e-07
4,0.0247040060131101,3.72451336870804e-07
4,0.0629826467055406,1.57356116130769e-05
4,0.02336894328845,2.98233412935813e-07
4,0.0212759605097818,2.04906956251272e-07
4,0.0233935255030207,2.99490262860992e-07
4,-0.0374790034344558,-1.97311381778776e-06
4,-0.0571102138213095,-1.06378814135302e-05
4,0.0566397352010586,1.02916464205456e-05
4,0.0423265298579726,3.20959812137143e-06
4,0.0168704198265349,8.10034583907571e-08
4,0.037386917332345,1.95379336667718e-06
4,0.0367601295432406,1.82603094346999e-06
4,0.0353878894858404,1.56826210818496e-06
4,0.0260206812354964,4.58431709306435e-07
4,0.0120334598727895,2.09682437425825e-08
4,0.00578711697160179,1.12162851654674e-09
4,0.0194324641270232,1.42597364405602e-07
4,0.0256007061955051,4.29544123539161e-07
4,0.0214094459461557,2.10097900930435e-07
4,0.0235139961800961,3.05707274552466e-07
4,0.0366449617748284,1.80325477980696e-06
4,0.0175055665252249,9.39084518337325e-08
4,0.0246451062012373,3.6891199459864e-07
4,-0.0109187172421073,-1.4213023611254e-08
4,-0.00965763428151841,-8.69927423025853e-09
4,-0.0146532430019353,-4.61036178927525e-08
4,-0.0131381966558932,-2.97949755136698e-08
4,-0.0186289610957295,-1.20435506363897e-07
4,-0.0178720577558618,-1.02023034565524e-07
4,0.0233716974448233,2.98374031476001e-07
4,0.0199215395419072,1.5750400124281e-07
4,0.0320428020524761,1.05419741656693e-06
4,0.0364859506082223,1.77215891377484e-06
4,0.0384992165171839,2.19688622507891e-06
4,0.0412865897051723,2.90560146345288e-06
4,0.0449522927232819,4.08326333130551e-06
4,0.0164447616467005,7.31324852927319e-08
4,0.0385070029872601,2.19866404609783e-06
4,0.0115277222890911,1.76593218511544e-08
4,0.010829057686337,1.37518988346004e-08
4,0.0488075737575635,5.67477800819314e-06
4,0.0155204103673805,5.80246861591856e-08
4,0.024881958682707,3.83299504959691e-07
4,0.0153885834787697,5.60782663746537e-08
4,0.025482458097439,4.21662787054317e-07
4,0.0392537476832622,2.37423939206533e-06
4,0.0358691356343527,1.65532641394766e-06
4,0.0302256813707872,8.34650003207767e-07
4,0.0441877710714935,3.8124870868958e-06
4,0.0256632922670896,4.33759979606521e-07
4,0.0228662573377237,2.73388565998085e-07
4,0.0492375381846579,5.87740099945899e-06
4,0.0455040517768705,4.28746191720861e-06
4,0.0731910000305635,2.86966185153764e-05
4,0.0664721657127499,1.95235736265018e-05
4,0.0624521680748154,1.52121317932023e-05
4,0.0168367092683476,8.03579503216506e-08
4,0.0400176527574501,2.564522098338e-06
4,0.0476807759979971,5.16860400166054e-06
4,0.0396808564633108,2.47927184901713e-06
4,0.0435419218421192,3.59443285782772e-06
4,0.0394452460647446,2.42091018954624e-06
4,0.0278132075723215,5.98417530970784e-07
4,0.00583384194256704,1.15829353962429e-09
4,0.0148997397579373,4.92849967203298e-08
4,0.0337041751945893,1.29043107966057e-06
4,0.0210258284803417,1.95439556847689e-07
4,0.0320999249209468,1.06173483482744e-06
4,0.0163381611053365,7.12545655934777e-08
4,0.0208339624851469,1.88402868693842e-07
4,0.0188737828272736,1.2689245914481e-07
4,0.00950323847000153,8.15617451324403e-09
4,0.0163812339527517,7.20089455415674e-08
4,0.0291490212380253,7.2193135846022e-07
4,0.0237389369573826,3.17574094484118e-07
4,0.0381828972965543,2.12557051601992e-06
4,0.0227514507658584,2.67939276384897e-07
4,0.0639193371004729,1.6692794588977e-05
4,0.0111234740744996,1.53095275185886e-08
4,0.0199858179600616,1.59546657206434e-07
4,0.0153008554240658,5.48103841964481e-08
4,0.0111442659576919,1.54243145004413e-08
4,0.0514041878671187,6.98222771450303e-06
4,0.0289035430535238,6.9791788980824e-07
4,0.0235383514113675,3.06975820693465e-07
4,0.034248049574281,1.37576220361636e-06
4,0.0638394236567202,1.66094721272971e-05
4,0.0265082189534479,4.93767153752052e-07
4,0.0210789095469399,1.97420642460914e-07
4,0.0510546175139713,6.79422785846407e-06
4,0.0405978110570359,2.71650477082436e-06
4,0.0312085546252801,9.48625122426786e-07
4,0.0709647109856556,2.53611973476522e-05
4,0.0382562598366227,2.14195347835875e-06
4,0.0322712672255691,1.08458621008635e-06
4,0.0545626573836184,8.86302664684345e-06
4,0.0192250619196161,1.36606381906059e-07
4,0.00975934959778796,9.07159184689966e-09
4,0.00773602359952109,3.58155103305664e-09
4,0.0375528246270061,1.98870532372527e-06
4,0.0246462061670919,3.68977860456455e-07
4,0.0230022926032153,2.79952593097028e-07
4,0.018475304102676,1.16510853145892e-07
4,-0.0219106512320769,-2.30473577790458e-07
4,0.0325129734003525,1.11744653947882e-06
4,0.0235897149503375,3.0966403769324e-07
4,0.00923302315520124,7.26734367930139e-09
4,-0.0260040325950385,-4.57259573526362e-07
4,0.0633714213265671,1.61277503168685e-05
4,0.0621653632631433,1.49346105905656e-05
4,0.0259773597515474,4.55386377794066e-07
4,0.0260046858066245,4.57305520016344e-07
4,-0.0340591492008399,-1.345659495399e-06
4,-0.0469302780856362,-4.85079041266548e-06
4,0.0477875284119112,5.21504760200774e-06
4,-0.0405033864386116,-2.69132002152938e-06
4,-0.0249589099612817,-3.88063197112658e-07
4,-0.0967461512136827,-8.76061887748554e-05
4,-0.0738093365670989,-2.96787227531869e-05
4,0.0631563968413806,1.59099706983747e-05
4,-0.0780498940995549,-3.71098562915172e-05
4,-0.0212301650070261,-2.03148433867974e-07
4,0.0332054334674906,1.21572855010251e-06
4,-0.0749519861153922,-3.15596793415159e-05
4,-0.0854689385439282,-5.33621404532801e-05
4,0.017022255352117,8.39592217810297e-08
4,0.0301551618640593,8.26887936266358e-07
4,0.0460859090271959,4.51099798206499e-06
4,0.0302552896122181,8.37925211964256e-07
4,0.0472640985389152,4.99028691881375e-06
4,0.0345832904849155,1.43042552200345e-06
4,0.0372012561413796,1.91527181754617e-06
4,-0.0321205836206083,-1.06447069723504e-06
4,-0.0351115893717213,-1.51985429552064e-06
4,-0.0437133076974111,-3.65136021889085e-06
4,-0.0575887663949397,-1.09989468279266e-05
4,-0.0973129231253093,-8.96772068742453e-05
4,-0.0212031988422354,-2.02118257109474e-07
4,-0.020068040197142,-1.62188422253398e-07
4,0.0305609980961406,8.72308562098077e-07
4,0.0684485245198724,2.19511038090426e-05
4,0.0348449421477732,1.4742087725856e-06
4,0.0493224130982118,5.91803140075987e-06
4,0.08375113425711,4.91997379843873e-05
4,-0.0661685409643438,-1.9169299097766e-05
4,-0.0275356715225244,-5.74887266050566e-07
4,0.0478073148851078,5.22369015021947e-06
4,0.026831249214039,5.18278952582676e-07
4,0.0302857352673169,8.41303096058679e-07
4,0.0554259386633789,9.43739705494951e-06
4,0.0315211338703622,9.87204953204852e-07
4,0.0635150357853525,1.6274445056459e-05
4,0.0354087512183202,1.57196344295342e-06
4,0.0439281870071222,3.72368656784695e-06
4,0.111994527576468,0.000157321184809698
4,0.0415542042205254,2.98167208409688e-06
4,0.0378325026124853,2.04861469168504e-06
4,0.0415979158403387,2.99423779328056e-06
4,-0.0323519890189993,-1.09547872082452e-06
4,-0.0492977091466929,-5.90618372752711e-06
4,0.0566397352010586,1.02916464205456e-05
4,0.0365363884760763,1.78197852179806e-06
4,0.0145625973734456,4.49733635131909e-08
4,0.0322725000173907,1.08475194831015e-06
4,0.031731454903803,1.01381786702062e-06
4,0.0305469331396083,8.70703835077405e-07
4,0.0224611306720004,2.54522662589975e-07
4,-0.042933670978475,-3.39775527225601e-06
4,-0.0591661456047788,-1.2254429900499e-05
4,-0.0374454581897601,-1.96605922502512e-06
4,0.0278374674740463,6.00508128507164e-07
4,0.0202753701949754,1.68995511453574e-07
4,0.0558762113374578,9.74782682576499e-06
4,0.0218469885380772,2.27806611034036e-07
4,0.0327032326571972,1.14383330070966e-06
4,-0.0223391890222694,-2.4904028899003e-07
4,-0.107349716905009,-0.000132801693714474
4,-0.0982847733140475,-9.33136035860843e-05
4,-0.0770514793827175,-3.52471434657596e-05
4,0.0832415455283858,4.80131876552777e-05
4,0.0939461901936418,7.7896275192185e-05
4,0.0781882537096184,3.73736964624435e-05
4,0.0764910860704302,3.42328698897732e-05
4,0.0807583791342524,4.25353857073983e-05
4,-0.0408971013718292,-2.79750010788062e-06
4,-0.0531639312907951,-7.98855725521769e-06
4,-0.0733241227790567,-2.89059670854461e-05
4,-0.0209109854193234,-1.91204450523581e-07
4,-0.0337608850629866,-1.2991380224014e-06
4,-0.0332229860459864,-1.21830115278187e-06
4,0.00987096082403745,9.49374829295404e-09
4,0.0121570933732184,2.18433381665041e-08
4,0.012557622172078,2.48673580916166e-08
4,0.00738936895381087,2.9814628777739e-09
4,0.0118218039498312,1.95314736170829e-08
4,0.00786602495041693,3.82843500484641e-09
4,0.0423523869860486,3.21744823989589e-06
4,0.0361002770136237,1.69840843409993e-06
4,0.0580654937814286,1.13676971338871e-05
4,0.0661170248058107,1.91096710049958e-05
4,0.0442164666998011,3.82240008539324e-06
4,0.0537310663898566,8.33492775914467e-06
4,0.0585016743194059,1.17131359259269e-05
4,0.0214014910437986,2.09785818677715e-07
4,0.0442254094842519,3.82549334672691e-06
4,0.0220366356298593,2.35820286735702e-07
4,0.020701053726317,1.8364106808121e-07
4,0.0933015813445412,7.57802473012904e-05
4,0.0296691418751052,7.7485411065849e-07
4,0.0285770048600516,6.66909393742719e-07
4,0.0448231627140046,4.03654676266332e-06
4,0.0742241394232364,3.03515366657089e-05
4,0.114336522394588,0.000170899154902561
4,0.104477979091928,0.000119151373773415
4,0.0880399834132601,6.00786006096652e-05
4,0.0507497888235998,6.63341178079792e-06
4,0.0662510397376762,1.92650789778912e-05
4,0.0590303577486111,1.21423196312008e-05
4,0.056549461637755,1.02261909723683e-05
4,0.0728639117254208,2.81870698142216e-05
4,0.117197971544876,0.000188660238888284
4,0.1064393570586,0.000128353870765478
4,0.0717265040647754,2.64678494505382e-05
4,0.0220177258767917,2.35011893490813e-07
4,0.0523319429351081,7.50010660820781e-06
4,0.0623531735794853,1.51159083609325e-05
4,0.0455735837545276,4.31372768385206e-06
4,0.0569407052167122,1.05121455756705e-05
4,0.0515833944242821,7.08010452405949e-06
4,0.0467821211393879,4.78982489325074e-06
4,0.00981258633171139,9.2711575825388e-09
4,0.0250615262007696,3.94484606378187e-07
4,0.0566907934928565,1.03288065414053e-05
4,0.0353656748314857,1.56432792501304e-06
4,0.0539924268825225,8.49828702985677e-06
4,0.0187644274819892,1.23977042825413e-07
4,0.0350429541166457,1.50800520326614e-06
4,0.031745910366077,1.01566653401952e-06
4,0.0353725453945283,1.56554390023026e-06
4,0.0609735242824022,1.38218187057618e-05
4,0.108497232833088,0.000138571732714533
4,0.0883600498707388,6.09570314714873e-05
4,0.142122737652058,0.000407994452602844
4,0.0846844712512589,5.14298338142896e-05
4,0.0734115521315851,2.9044080086608e-05
4,0.0122320236049592,2.2386863022332e-08
4,0.0219775760175798,2.33302376981565e-07
4,0.0168257168102099,8.01482973081585e-08
4,0.0127992231839854,2.683702978815e-08
4,-0.0293366099756084,-7.40695503328472e-07
4,-0.0334530016487121,-1.25239223928783e-06
4,0.00666260218110108,1.97049587745208e-09
4,0.0118028923342376,1.94067933809252e-08
4,0.0180382723470561,1.05871668868447e-07
4,0.0302552896122181,8.37925211964256e-07
4,0.0184994220506737,1.17120425752295e-07
4,0.0135360856624556,3.35716260146053e-08
4,0.0145607714829886,4.4950812318363e-08
4,-0.0200997181355219,-1.63214924656734e-07
4,-0.00836438628098662,-4.89481547217831e-09
4,0.0145222116129871,4.44765450186727e-08
4,0.026831249214039,5.18278952582677e-07
4,0.00919976069486153,7.16318425292329e-09
4,0.0168364864676549,8.03536968891458e-08
4,0.00957503213570544,8.40544984124443e-09
4,0.0199129092869751,1.57231247897043e-07
4,0.0354087512183202,1.57196344295342e-06
4,0.0137721405994363,3.59754132204754e-08
4,0.0351119516928958,1.51991703080856e-06
4,0.0130278616536116,2.88066364767547e-08
4,0.0118610527933514,1.97921491833615e-08
4,0.0130415658971716,2.89280367536185e-08
4,-0.0241764447576704,-3.41640812430319e-07
4,-0.0368398784125698,-1.84192843610544e-06
4,0.0423265298579726,3.20959812137144e-06
4,0.0365363884760763,1.78197852179807e-06
4,0.0108825405053317,1.4025590964292e-08
4,0.0241170431099045,3.38295513971389e-07
4,0.0237127233850067,3.16173699370997e-07
4,0.022827537470178,2.71541527870252e-07
4,0.0167850664318515,7.93765570943446e-08
4,-0.0202682211387112,-1.6875728752634e-07
4,-0.0279312832029682,-6.08644291446212e-07
4,-0.0176773336622188,-9.76488285193896e-08
4,0.0278374674740462,6.00508128507162e-07
4,0.00957164103174466,8.39354863191655e-09
4,0.0263781638506697,4.84148116206249e-07
4,0.0103135740506941,1.13145364154336e-08
4,0.0154386134784308,5.68110972518324e-08
4,-0.0667495449392516,-1.98514958406635e-05
4,-0.0611130059986591,-1.39487273215747e-05
4,-0.0479102445164673,-5.26882227428651e-06
4,0.0832415455283859,4.80131876552778e-05
4,0.0584152955871406,1.16441104004708e-05
4,0.0486170854025629,5.58670419873986e-06
4,0.0475617946121673,5.11720637909862e-06
4,0.0502151772045462,6.35828511545108e-06
4,-0.028816785456628,-6.89575991678515e-07
4,-0.0465248366911941,-4.6853218514086e-06
4,-0.0457835746100727,-4.39378488990258e-06
4,0.00987096082403744,9.49374829295403e-09
4,0.0167533162348483,7.87776724678203e-08
4,0.0173052726460117,8.96837551087047e-08
4,0.0101830619424116,1.07526012860253e-08
4,0.0162912641992376,7.04399675403042e-08
4,0.0108399269019232,1.38071935972961e-08
4,-0.0379901852343197,-2.08298261116653e-06
4,-0.0182701939465448,-1.11422431217295e-07
4,-0.0613491813284911,-1.4165603667218e-05
4,-0.0808226047020658,-4.26708574664177e-05
4,-0.0675906036881202,-2.08710982022754e-05
4,-0.0742347653895371,-3.03689209653127e-05
4,-0.11568982657085,-0.000179135095716806
4,-0.0552658771421854,-9.32885341341149e-06
4,-0.0778057316517607,-3.66476696490885e-05
4,-0.0200423303531685,-1.61358877833721e-07
4,0.0304895947764648,8.6418477264257e-07
4,0.0462609608385204,4.57992741602125e-06
4,0.0414778899733515,2.95982899936774e-06
4,0.0588124853725585,1.19640475665387e-05
4,0.0564229067816934,1.01349550085045e-05
4,0.0489528353788478,5.74263754355377e-06
4,0.0365704837785583,1.78863951910243e-06
4,0.0415520957112601,2.98106695594258e-06
4,0.129443777460857,0.000280753198425187
4,0.0919700639042924,7.15460979872393e-05
4,0.126781749623189,0.000258361003932609
4,0.0523086390461074,7.48675606710679e-06
4,-0.045828958917813,-4.41123268318834e-06
4,-0.052259488724534,-7.45865683441033e-06
4,0.0104081596986593,1.1735343035895e-08
4,0.0184381995174931,1.15577698059625e-07
4,0.0281789628395676,6.30521670291658e-07
4,0.0472640985389152,4.99028691881376e-06
4,0.0184994220506737,1.17120425752295e-07
4,0.0211457531817226,1.99936753008381e-07
4,0.0227464931585609,2.67705813716402e-07
4,-0.0658491361450715,-1.88018389275068e-05
4,-0.0143476558141768,-4.2376374632294e-08
4,-0.0135795233424931,-3.4004633924327e-08
4,0.0206798363437368,1.82889338900266e-07
4,0.0684485245198725,2.19511038090427e-05
4,0.0235786703940774,3.09084513822344e-07
4,0.0333752002385684,1.24078210108672e-06
4,0.0566722246633065,1.03152805612599e-05
4,0.0247040060131102,3.72451336870806e-07
4,0.0439281870071223,3.72368656784697e-06
4,0.0137721405994363,3.59754132204756e-08
4,0.0435599767594329,3.60039837900441e-06
4,0.0161623983713571,6.82375190047726e-08
4,0.0147148523254926,4.68838893126157e-08
4,0.0161793998908454,6.85250934915187e-08
4,-0.00963619683313359,-8.62229048241681e-09
4,-0.0146835617581697,-4.64863723714626e-08
4,0.0168704198265349,8.10034583907573e-08
4,0.0145625973734456,4.49733635131911e-08
4,0.0108825405053317,1.40255909642921e-08
