"V1","V2","V3"
3,-0.00164879936933494,-4.48232598280667e-09
3,-0.00560591584600203,-1.76173150952439e-07
3,-0.0153140524330842,-3.59145466887016e-06
3,-0.00137952866536952,-2.62538009061168e-09
3,-0.00359765773792443,-4.65649920885215e-08
3,-0.00144760784437574,-3.03356135718822e-09
3,-0.00169114430239027,-4.83662036646871e-09
3,-0.000473807050660688,-1.06366423675813e-10
3,-0.00156431488326523,-3.82800531333657e-09
3,-0.0083384461611734,-5.79769529829252e-07
3,-0.00676687749168902,-3.09859590159737e-07
3,-0.0117492776420559,-1.62193520176215e-06
3,-0.0112932782086065,-1.44032361475323e-06
3,-0.0151137296164578,-3.45235101129097e-06
3,-0.00602603917225717,-2.18824452952189e-07
3,-0.00285120638264149,-2.31785339740923e-08
3,-0.00600619547071746,-2.16669801984725e-07
3,-0.0017511839094826,-5.37025952864953e-09
3,-0.000216729031169644,-1.01800818254401e-11
3,-0.00526196949768135,-1.4569511103916e-07
3,-0.00620237324501549,-2.38601787389183e-07
3,-0.0123452726984877,-1.88149064333006e-06
3,-0.000532892039791966,-1.51327444713116e-10
3,-0.00189180480850351,-6.77062834432727e-09
3,0.00246405470958563,1.49606698403906e-08
3,0.00291641092846031,2.4805395216406e-08
3,0.000388287122591675,5.85408417334347e-11
3,-0.000845370157821377,-6.04144378203563e-10
3,-0.000827904257094722,-5.67466655357297e-10
3,-0.00651234748403292,-2.76193018460733e-07
3,-0.0025401458000663,-1.63898860931097e-08
3,-0.00185089441289241,-6.34081282494640e-09
3,-0.00193547874884388,-7.25045433578828e-09
3,-0.0010161765056759,-1.04931878809261e-09
3,-0.00362983369524828,-4.78255731579341e-08
3,-0.00167967411174817,-4.7388731742234e-09
3,0.0083777830091321,5.88013534992911e-07
3,0.0155456780287507,3.7568945559559e-06
3,0.00942723263419462,8.37823760449973e-07
3,0.00162772250415602,4.31261911643106e-09
3,-0.00894951906374152,-7.1680180862035e-07
3,-0.0229201677521,-1.20407454637553e-05
3,-0.008330493020811,-5.78112173589684e-07
3,-0.00503092514467544,-1.27333760894969e-07
3,-0.0133876541402281,-2.39945965767053e-06
3,-0.00262108005803221,-1.80069790212181e-08
3,0.012615743594487,2.00788373222148e-06
3,0.00159409269193105,4.05079917007271e-09
3,0.0152190848026364,3.52505267422853e-06
3,-0.00688873909627576,-3.26903228617715e-07
3,-0.00662138128749959,-2.90299168182315e-07
3,-0.00502236142898696,-1.26684618858081e-07
3,-0.00333083180900907,-3.69537154534808e-08
3,-0.00195633304656899,-7.48735411148958e-09
3,-0.00381922100670221,-5.57088728084094e-08
3,-0.00263891901464356,-1.83771511468686e-08
3,0.0228861459571051,1.19872065873379e-05
3,0.0219046191296747,1.05101065442471e-05
3,0.0125392343893029,1.97157390552961e-06
3,0.0389768404565004,5.92133857452306e-05
3,0.0102904513860907,1.08969077911973e-06
3,-0.0311493926247534,-3.02237778598709e-05
3,-0.0329863186958763,-3.58923217074972e-05
3,-0.0278983189925271,-2.17137136974326e-05
3,0.00206164204580165,8.76273722434214e-09
3,0.0210544822772349,9.33326721857009e-06
3,0.0111120399862885,1.37208616908745e-06
3,0.00489093735371596,1.16997424177729e-07
3,0.0141664014377203,2.84301160935789e-06
3,0.00989107023731264,9.67675749462621e-07
3,0.0465303815088582,0.000100741831044162
3,-0.0101919518762459,-1.05869800112484e-06
3,-0.0155910308244498,-3.78987154847073e-06
3,0.0281770931765522,2.23711631126731e-05
3,0.0221175279926078,1.08195639153777e-05
3,0.00356381457377895,4.52632046066334e-08
3,0.00750244208788634,4.22287236530731e-07
3,-0.00215660004712872,-1.00301824070722e-08
3,-0.0110051363532403,-1.33286536697184e-06
3,-0.0164664526895793,-4.46478090484984e-06
3,0.0053765337720778,1.55420082213779e-07
3,0.0112345709200294,1.41797792693285e-06
3,0.00372667793706837,5.17565818692356e-08
3,0.00497562214605905,1.23180560663605e-07
3,-0.00981676344501569,-9.46030150273478e-07
3,0.0021633832429266,1.01251247855566e-08
3,0.00531561103367803,1.50196420512047e-07
3,0.000954718044306989,8.702126508195e-10
3,0.00195660250267882,7.4904483564253e-09
3,0.00855532860114625,6.26195705653029e-07
3,0.00292238533487277,2.49581528141943e-08
3,0.00331720992687495,3.65021856059401e-08
3,-0.00274030816238489,-2.05777654603961e-08
3,-0.00238558012692963,-1.35763187107037e-08
3,0.00252733726152169,1.61431990273806e-08
3,0.0111975755627323,1.40401583325049e-06
3,0.00338931725775097,3.89346853136945e-08
3,0.00698908275556595,3.41397666677755e-07
3,0.0227663455675481,1.17999446726492e-05
3,0.00570518168171777,1.85698517788173e-07
3,0.049274347400026,0.000119636209146452
3,0.0198713257204814,7.84658215832112e-06
3,0.0169277319668917,4.85060959396221e-06
3,0.00409349212505054,6.85933285256416e-08
3,-0.0155449416031629,-3.75636066951819e-06
3,0.000708082812456594,3.55019459276479e-10
3,0.00326479786518338,3.47991706173239e-08
3,0.00323413752667441,3.38279321612956e-08
3,0.00445727188171544,8.85538356490693e-08
3,0.00394203749808163,6.12579209936477e-08
3,0.0416739883764712,7.23761035695166e-05
3,0.0303979508137967,2.80887830551902e-05
3,0.0253281457519272,1.62483845920662e-05
3,0.014762190574944,3.21701008869311e-06
3,0.0035635968236378,4.52549083273587e-08
3,0.0305503289618123,2.85133124475635e-05
3,-0.0174035920978215,-5.27128730420096e-06
3,-0.008581175916109,-6.31888447726288e-07
3,-0.0223357597973609,-1.1143001563869e-05
3,-0.0184065278705993,-6.23613658013124e-06
3,-0.0158258449237667,-3.96369945887871e-06
3,-0.0066701575557003,-2.96761991936112e-07
3,-0.00167865205474671,-4.73022783296247e-09
3,-0.00583140296847957,-1.98298377494753e-07
3,-0.00594231215013755,-2.09829422220542e-07
3,-0.00631205614765729,-2.51485274382084e-07
3,-0.00670621189252252,-3.01600331416645e-07
3,-0.0107857599921601,-1.25473570357057e-06
3,-0.00340925008607907,-3.96256665304405e-08
3,-0.0118055178287544,-1.64533798539906e-06
3,-0.00229421796224799,-1.20754695480987e-08
3,-0.0189012792506826,-6.75263997619968e-06
3,-0.00640763834828497,-2.6308372089471e-07
3,-0.00803424040141904,-5.1860233493822e-07
3,-0.0150810272536149,-3.42998937187995e-06
3,-0.0134774211881274,-2.44805067010912e-06
3,0.0260088667365525,1.75939878747088e-05
3,0.00361652436060228,4.73014206407951e-08
3,0.0220094698198143,1.06617560979338e-05
3,-0.0105378739232188,-1.17019703910517e-06
3,-0.00858557411309221,-6.32860550351079e-07
3,-0.0036414275500878,-4.8285309659699e-08
3,-0.0178239329310638,-5.66253133007231e-06
3,-0.00390615104296081,-5.96001149963835e-08
3,-0.0096325035870551,-8.93753052803824e-07
3,0.0128241721358736,2.10905553916685e-06
3,0.0125633009129917,1.98294781932144e-06
3,0.00427719662386895,7.82487927905151e-08
3,0.015741492739378,3.90065679701722e-06
3,-0.00494491308574675,-1.20913832787841e-07
3,-0.00523463681171096,-1.43436495176196e-07
3,-0.0154596632016819,-3.69487784514636e-06
3,-0.0131269801474696,-2.26200981654585e-06
3,-0.0066043024738783,-2.88058613889434e-07
3,-0.00235047817792968,-1.2985798824971e-08
3,0.0333797641753466,3.71920221928202e-05
3,0.0128022460571902,2.09825617576075e-06
3,0.0352383640648548,4.37569673114526e-05
3,0.0128251441941099,2.10953516783694e-06
3,0.0106533550443337,1.20909159722508e-06
3,0.0118321278440083,1.65648901598342e-06
3,-0.00973007330732756,-9.21188137808741e-07
3,-0.0179952624485394,-5.82739631187125e-06
3,-0.0344920144909034,-4.10351173429089e-05
3,0.013598830537241,2.51480714430255e-06
3,0.0119460005811319,1.70477706733062e-06
3,0.00543957023573584,1.60951032198997e-07
3,0.0112775378487515,1.43430951657331e-06
3,0.0165464545910669,4.53017370994132e-06
3,-0.00225935116793661,-1.15332369300511e-08
3,-0.00399817706053783,-6.39125387770572e-08
3,-0.0041104793849647,-6.94508272899533e-08
3,0.0275077080512006,2.08143675432787e-05
3,0.0144480082147387,3.01594862774449e-06
3,0.0149785358173333,3.36053239881238e-06
3,0.0266254192131953,1.88751044335743e-05
3,0.0333064056126816,3.69473504588865e-05
3,0.0306018036611145,2.86576829270126e-05
3,0.00337503613256719,3.84445941057884e-08
3,-0.0256374905235003,-1.68510333665601e-05
3,0.0236509962599685,1.32296488872699e-05
3,0.0232370750382467,1.25471295259884e-05
3,0.028116124934543,2.22262601520255e-05
3,0.00583501460823126,1.98667049987945e-07
3,0.005972507609802,2.13044406046339e-07
3,0.00996824322260079,9.90503189541075e-07
3,0.00734496225875157,3.96249480345722e-07
3,0.0251264619808984,1.58633176840905e-05
3,0.0143890490987526,2.97917684267942e-06
3,0.0282808570637991,2.26192239462386e-05
3,0.00421106671080192,7.46751948393094e-08
3,0.0586553187732261,0.000201800481510108
3,0.00614026568481525,2.3150559393404e-07
3,0.038296804992603,5.61678279996731e-05
3,-0.00870328113472855,-6.59248328286692e-07
3,-0.00637749455696384,-2.59388244464175e-07
3,-0.0149950299286801,-3.37164631330872e-06
3,-0.00427542242637131,-7.81514594814768e-08
3,-0.000655974913240051,-2.82268030030748e-10
3,-0.000220919973956657,-1.07821395895019e-11
3,-0.000442466136274502,-8.66243749599719e-11
3,-0.000172767639530746,-5.15688205953186e-12
3,-0.000293481253743922,-2.52779061503877e-11
3,0.0130066527606241,2.20037467604061e-06
3,0.00141324656707049,2.82262911923443e-09
3,-0.00176488460509441,-5.49729375222226e-09
3,-0.00386260334456125,-5.76289008778437e-08
3,-0.00417813077940816,-7.29366964984418e-08
3,-0.00411148777403464,-6.95019531787092e-08
3,0.00953087185178996,8.65760745825345e-07
3,0.00047595477889456,1.07819440868535e-10
3,0.00380227963248619,5.49708129338052e-08
3,-0.00164502722246002,-4.45163212262932e-09
3,-0.00132267114783918,-2.31395889776558e-09
3,-0.00118701708354125,-1.67251841457936e-09
3,0.0224093815192598,1.12535517286043e-05
3,0.000953258631563022,8.66228042796288e-10
3,0.00832161943223063,5.76266736420288e-07
3,0.00316742648788088,3.17774930695477e-08
3,-0.0032192194687521,-3.33619753041047e-08
3,-0.000644152822472428,-2.6728017206764e-10
3,0.00638942187939918,2.60846307772316e-07
3,0.000372214346218982,5.15678855451912e-11
3,0.00900139392601112,7.29338776485213e-07
3,0.00254674425518416,1.6517944612533e-08
3,0.00547443653053168,1.6406588104128e-07
3,0.000962224251049313,8.90899868508224e-10
3,0.000632282372361641,2.52774478092993e-10
3,0.00885781777307288,6.94992670743942e-07
3,0.00228554840955954,1.19390912959346e-08
3,-0.00349320869359636,-4.26259034557868e-08
3,-0.00281541306595972,-2.23165144987998e-08
3,-0.0290602363112403,-2.45412921037692e-05
3,-0.0097149775134445,-9.16907233963774e-07
3,-0.00523120612937107,-1.43154663234973e-07
3,-0.00284347485475633,-2.29904872832502e-08
3,-0.00159725167975086,-4.07492913539596e-09
3,-0.00200197300914662,-8.02369947403045e-09
3,-0.000631508641821727,-2.51847644891075e-10
3,-0.00102758390812376,-1.08505532815641e-09
3,-0.0166286313296335,-4.59800579475322e-06
3,-0.0170140659153949,-4.92520524177912e-06
3,-0.00286735618545414,-2.35746326552157e-08
3,-0.0164744126256772,-4.47125890359881e-06
3,-0.0107199706541864,-1.23191513090587e-06
3,-0.00183223133516135,-6.15093189999777e-09
3,-0.00119833113199652,-1.72080051201047e-09
3,-0.00151689232137253,-3.49031206684338e-09
3,0.00522043948651768,1.42272576938074e-07
3,0.00117734525454473,1.63196752733842e-09
3,-0.000136067548814602,-2.51920601057253e-12
3,-0.00130730866019929,-2.23426362201781e-09
3,-0.00417686889162253,-7.28706309754091e-08
3,-0.00165802479033254,-4.55798675825198e-09
3,-0.0017296188486082,-5.17429550992753e-09
3,-0.00150175280855757,-3.38684528866911e-09
3,-0.000528137151163327,-1.4731268844807e-10
3,-0.000144294005553329,-3.00431086463775e-12
3,-0.0106354968805026,-1.203021402114e-06
3,-0.00917034959595809,-7.71183407780923e-07
3,-0.00887484380231564,-6.99008013499887e-07
3,-0.00021156943947395,-9.4701924865185e-12
3,-0.000287344847338817,-2.37252196222128e-11
3,0.00420750514200232,7.44858822596778e-08
3,0.00191576323387442,7.03113607309156e-09
3,0.000293144870778908,2.51910864855858e-11
3,0.000258514071332114,1.72763726127707e-11
3,-0.000612380876972348,-2.2964915995295e-10
3,-0.000756141795946164,-4.32324386067124e-10
3,-0.000577313050924828,-1.92412873864261e-10
3,-0.00134602116586563,-2.43868477742127e-09
3,-0.000476877601227608,-1.08447806625784e-10
3,-0.000213766720593163,-9.76832913333739e-12
3,-0.000196380598726433,-7.57348447212531e-12
3,0.0434291845788769,8.19115276375274e-05
3,0.0310013812780799,2.97949824021445e-05
3,0.00281647484356787,2.23417727242789e-08
3,0.0190543300026596,6.91800780295263e-06
3,0.00117911204380757,1.63932561986321e-09
3,-0.024814246073275,-1.52792928171372e-05
3,-0.00616836210269783,-2.34698103806703e-07
3,-0.0134011542896303,-2.40672584630145e-06
3,-0.00142140296153206,-2.8717831826237e-09
3,-0.0029515866952859,-2.57138219319484e-08
3,0.0317199614374498,3.191522804804e-05
3,0.00899867530621472,7.2867814678782e-07
3,0.0014559172762455,3.08610073869493e-09
3,0.0421978111463762,7.51397546122782e-05
3,-0.00233743867849445,-1.27708757208717e-08
3,-0.0134297683252895,-2.42217525120452e-06
3,-0.00495290413860083,-1.21500976237906e-07
3,-0.00140809212826644,-2.79185727076727e-09
3,-0.00208562157280822,-9.07207289243033e-09
3,-0.00144710119074016,-3.03037728969837e-09
3,0.0145185863973111,3.06036340378089e-06
3,0.00534571971698673,1.52763131769144e-07
3,0.00357206010650278,4.55781060165005e-08
3,0.00111159051007319,1.37351843038231e-09
3,0.0104895944983975,1.15418678986393e-06
3,0.00349168385576093,4.25701072857616e-08
3,-0.00613225474215546,-2.30600669165192e-07
3,0.0078177965977081,4.77807651872226e-07
3,0.0307138655621569,2.89736651702737e-05
3,0.00372630284214838,5.17409553428856e-08
3,0.0164294032901718,4.43471148822542e-06
3,0.00259170367262095,1.74082867762988e-08
3,0.0227893032166839,1.18356779776671e-05
3,0.020061491101117,8.07401642317875e-06
3,0.00916024771652371,7.68637652096939e-07
3,0.019985643493582,7.98278455589594e-06
3,0.00323538666523864,3.38671439422186e-08
3,0.0158999813954521,4.01966488976926e-06
3,0.000918206534811384,7.74142905012331e-10
3,0.00739868625388844,4.05008216102145e-07
3,-0.000450015913052891,-9.11346675214896e-11
3,0.00424944219276161,7.67354027872449e-08
3,0.00341589762169769,3.98579114289827e-08
3,0.000411598278611871,6.97301580150215e-11
3,0.00210341883914524,9.30630491915743e-09
3,0.00238701906191969,1.36009004368473e-08
3,0.00223409368961193,1.11507517088079e-08
3,0.000379043307850028,5.44586034812619e-11
3,0.00241716365496305,1.41227140695928e-08
3,0.0031155175286531,3.02406134689602e-08
3,-0.000100077333497613,-1.00232179953184e-12
3,0.00299185644620958,2.67807203648138e-08
3,0.00282799926707487,2.26171499671136e-08
3,0.00113782234103639,1.47306995122487e-09
3,0.000514800916898856,1.36432530780262e-10
3,0.000378122077020596,5.40624974606258e-11
3,0.00501931421095935,1.26454168608075e-07
3,0.00216169087636317,1.01013813898417e-08
3,0.000692199397852302,3.31660423908091e-10
3,0.00016579815260444,4.55762996098086e-12
3,-0.000529947766980454,-1.48832987572265e-10
3,-0.00117468383927647,-1.62092522912219e-09
3,-0.00250176567706752,-1.5658129832637e-08
3,-0.00386465200048651,-5.77206455440575e-08
3,-0.00452777254389424,-9.28226162045559e-08
3,-0.00334063625513892,-3.72810014800432e-08
3,-0.000539846207519531,-1.57329500650894e-10
3,-0.00363369684924014,-4.79784349190817e-08
3,-0.000229790017208984,-1.21337061458201e-11
3,-0.00019828241648004,-7.79565496646224e-12
3,-0.000849088220719744,-6.12150837572756e-10
3,-0.000570321266611936,-1.85506315092736e-10
3,-0.00129732520799974,-2.1834666880196e-09
3,-0.00294165106362265,-2.54550214485048e-08
3,-0.00159629509669862,-4.06761217807144e-09
3,-0.00177765650346114,-5.61750591098042e-09
3,-0.00519787357515359,-1.40435574945093e-07
3,-0.00286340977801016,-2.34774276563884e-08
3,-0.000538761983085937,-1.56383463857212e-10
3,-0.00366242404515581,-4.91253751505352e-08
3,-0.000251843840880262,-1.59732762455395e-11
3,-0.000177807656744305,-5.62148913756934e-12
3,0.000791982527012545,4.9676020819739e-10
3,0.00158298702686071,3.96672476005812e-09
3,-0.000239642799876402,-1.37623676392547e-11
3,-0.000904156649345882,-7.39147379609193e-10
3,-0.000998323200559866,-9.949780319341e-10
3,-0.000740241584978396,-4.05621005383138e-10
3,-0.00159626034594692,-4.06734653263291e-09
3,-0.000642389779006264,-2.65091539294931e-10
3,-0.000457309040336142,-9.56377522636327e-11
3,-0.000659752384902806,-2.87172537976012e-10
3,-5.83814216030987e-05,-1.98986676253057e-13
3,-0.000187771060332286,-6.62042661829489e-12
3,-0.000596836567190601,-2.12601474061257e-10
3,-0.00441134001343439,-8.58443269044907e-08
3,-0.0100895298977153,-1.02710015502821e-06
3,-0.00022302376017588,-1.10931120870537e-11
3,-0.00162665474807906,-4.30413768565191e-09
3,-0.000766661879343753,-4.5062118803627e-10
3,0.0017555108888784,5.41016590089062e-09
3,0.00106327133524968,1.20207708306539e-09
3,0.000516293237303421,1.37622457709198e-10
3,0.00033640663795217,3.80709461392434e-11
3,-0.000381741820503872,-5.5630020616935e-11
3,-0.000249989508110749,-1.56230328533241e-11
3,-0.0012612205708958,-2.00619496829962e-09
3,-0.000814802792749775,-5.40950500122748e-10
3,-0.00117721763976698,-1.63143690830568e-09
3,-0.00167080560079006,-4.66420647210615e-09
3,-1.56487494448933e-05,-3.83211833117323e-15
3,0.00373877356669806,5.22621762992282e-08
3,0.00241865205966719,1.41488189552629e-08
3,0.00194794070074695,7.39140834321145e-09
3,0.00106927969954581,1.22257064910939e-09
3,-0.00153214473638343,-3.59665996357962e-09
3,-0.000361857747460371,-4.73820259477743e-11
3,-0.00031807186558956,-3.21792389350955e-11
3,-0.000887753397214649,-6.99643862550343e-10
3,0.00577554439904316,1.92654332654793e-07
3,0.0054842304458286,1.6494801223823e-07
3,0.00215081578648724,9.94969221217861e-09
3,0.0079032629424215,4.93650173073316e-07
3,0.00073502683559707,3.97108868369229e-10
3,-0.00261488143449182,-1.78795261524151e-08
3,-0.00429518535232996,-7.92402304148703e-08
3,-0.000717766467078258,-3.69785173983464e-10
3,-0.00800415087105211,-5.12797380827055e-07
3,-0.000106924990428641,-1.22246845191639e-12
3,-0.000238755998034562,-1.36101487646692e-11
3,0.00297603284023102,2.63580427416343e-08
3,0.00159479744224415,4.05617413533405e-09
3,0.000481343639102933,1.11523325500804e-10
3,0.00444673082619627,8.79270542004051e-08
3,-0.000863222384089469,-6.43232649376961e-10
3,-0.00143056733444443,-2.92768880761415e-09
3,-0.00131084256158917,-2.25243155037411e-09
3,-0.000558562630705615,-1.74267190929414e-10
3,-0.00208127295366901,-9.0154440336884e-09
3,-0.000234906718495935,-1.29624267205168e-11
3,-0.00091482807858638,-7.65629145412254e-10
3,0.00676654750615003,3.09814261632105e-07
3,0.00331415171536382,3.64013220584875e-08
3,0.00242842391224481,1.43210051830715e-08
3,0.002288713145627,1.19887551954967e-08
3,0.00730416792841855,3.89683707227316e-07
3,0.00128948822922621,2.14413510022105e-09
3,0.00969059072537301,9.10019619570459e-07
3,0.00343902851249056,4.06731051551999e-08
3,0.0180761871685757,5.9063678122542e-06
3,0.00156886640714401,3.86151647195541e-09
3,0.00213699247480405,9.75908225586827e-09
3,-0.00334491478333724,-3.74244282237622e-08
3,-0.000220780876936095,-1.07617862546764e-11
3,0.00499242700511695,1.2443288520323e-07
3,0.0053383622815235,1.52133245388233e-07
3,0.00138398273924704,2.65089191859856e-09
3,0.00226668001798927,1.16458354192275e-08
3,0.00195814668930408,7.50819715491798e-09
3,-0.00112407188844949,-1.42030710785198e-09
3,0.000806775290450891,5.25119039628107e-10
3,0.00100443417889822,1.01336160970674e-09
3,0.000985239552388143,9.56369053734804e-10
3,0.000399564625195435,6.37912474727472e-11
3,0.000540542002196501,1.57938619582258e-10
3,0.00122059617429161,1.81851133850985e-09
3,0.000834385149013774,5.80897753325492e-10
3,-0.000689732828233335,-3.28127546304759e-10
3,-0.000128930892149234,-2.14324077670751e-12
3,-0.000470405410078374,-1.04091897069408e-10
3,0.00543039256388614,1.60137733631233e-07
3,0.00682799455800946,3.1833141440995e-07
3,0.00142138922928543,2.87169995009571e-09
3,0.00291428004902266,2.47510626510871e-08
3,0.00321706160468768,3.32949320068139e-08
3,0.013611441018453,2.52180973441042e-06
3,0.00310902152797383,3.00518482938222e-08
3,0.00514503583481318,1.36196269397527e-07
3,0.00114268061223323,1.49201976526921e-09
3,-0.000879136102716826,-6.79466963467869e-10
3,0.000343410596007171,4.04986991763295e-11
3,0.000469521921491611,1.03506499531496e-10
3,0.000125778588688605,1.98984914188887e-12
3,3.01309685439997e-05,2.73551610636276e-14
3,0.000475134785077349,1.07263133539679e-10
3,0.000181831055419223,6.01179521837712e-12
3,0.000350905460805645,4.32086184406592e-11
3,0.000339597746745694,3.91646635501533e-11
3,0.000213599853082567,9.74547134670775e-12
3,0.000296323938037855,2.60195756824038e-11
3,0.00033149348564057,3.64271332843578e-11
3,0.00137353511675185,2.59130958895051e-09
3,0.00132612332375088,2.33212454807647e-09
3,0.000406015983132279,6.69313200979321e-11
3,0.00136657721213645,2.5521284188866e-09
3,0.0016903497298444,4.82980621038512e-09
3,0.000779320803626212,4.73313409925295e-10
3,0.00131325985986444,2.2649155340589e-09
3,-0.000432141816283872,-8.07009930343046e-11
3,-0.000562748702349879,-1.78214692950756e-10
3,-0.00232598999227609,-1.25841395430534e-08
3,-0.00176452777675532,-5.49396006067986e-09
3,-0.00379091816582788,-5.44795144633128e-08
3,-0.0113741629853688,-1.47149347774337e-06
3,-0.00623603745589236,-2.42508042002313e-07
3,-0.00116183297582311,-1.56830705506646e-09
3,-0.00017036073528223,-4.94434216218315e-12
3,-8.46559003109134e-05,-6.0669679166805e-13
3,0.00093101857188471,8.07002784119442e-10
3,-0.00116702126603605,-1.58941135052503e-09
3,-0.00133783080366093,-2.39443787871302e-09
3,-0.000706095324193619,-3.52038374275812e-10
3,-0.00138897520570122,-2.67968336307773e-09
3,-0.00796083682464465,-5.04517420368378e-07
3,-0.00223304981851631,-1.11351285821859e-08
3,-0.000858924177162808,-6.33671949122211e-10
3,-0.000401036027194549,-6.44985821882233e-11
3,-0.000126223812522605,-2.01105468883097e-12
3,-0.00273938197525939,-2.05569074918028e-08
3,-8.31009908460051e-05,-5.73876718433e-13
3,0.0012124017474106,1.78213114826377e-09
3,0.00174329821364904,5.29803783508342e-09
3,-0.000627618897991638,-2.47222523971039e-10
3,-0.000493880035998088,-1.2046597872076e-10
3,-0.0024248126501362,-1.42572106774672e-08
3,-0.00838540466255551,-5.89619824062249e-07
3,-0.00408862411400683,-6.8348904349822e-08
3,-0.00343705835072344,-4.06032423739686e-08
3,-6.31689216844452e-05,-2.52063748343995e-13
3,-8.30475077296682e-05,-5.72769404345387e-13
3,-0.000226634651587428,-1.16406957356933e-11
3,-0.00115089206575593,-1.52441701704208e-09
3,-0.00620935009936655,-2.39407880369438e-07
3,-0.00581811966042874,-1.96946354883989e-07
3,-0.00136416994109705,-2.53866518637564e-09
3,0.00501117873629817,1.25840281081482e-07
3,0.0019984537712055,7.98145959571009e-09
3,0.00135214650629772,2.47212969340442e-09
3,0.000406033821447613,6.69401423697133e-11
3,-0.00376335436392621,-5.32997709238947e-08
3,-0.00163425616071079,-4.36476023915794e-09
3,-0.000337660266373614,-3.84981514103516e-11
3,-0.00389323020836949,-5.90106303095606e-08
3,-9.08491432075969e-05,-7.49829474144869e-13
3,0.00380154863255928,5.49391141063779e-08
3,0.00105476631245437,1.17346124758604e-09
3,0.00106401857455526,1.20461322964044e-09
3,0.00206191374646144,8.76620216424999e-09
3,-0.00334715611441241,-3.74997097402158e-08
3,-0.00724853774170168,-3.80847591647292e-07
3,-0.00736065600908664,-3.98794872751822e-07
3,-7.79878767432987e-05,-4.7433076070867e-13
3,-0.000719391341371281,-3.72302214080234e-10
3,-0.000323034824107632,-3.37091676681418e-11
3,0.00816726149584752,5.44790320370408e-07
3,0.00207485335989322,8.93227787692578e-09
3,0.00522403318924898,1.42566596662601e-07
3,0.00569199890967199,1.84414227911853e-07
3,-0.00422089727935673,-7.51993955225072e-08
3,-0.0113351389496949,-1.45639957872944e-06
3,-0.00404743540099405,-6.63040073901386e-08
3,-0.00171696816272106,-5.06158724082559e-09
3,-0.000496428732452313,-1.22340634719306e-10
3,-0.00798663793293718,-5.09438765814278e-07
3,-0.000630126222850497,-2.50197323661971e-10
3,0.0118919106441765,1.68172473456126e-06
3,0.0180655739568221,5.89597036496128e-06
3,0.00562168729874823,1.77664252960588e-07
3,0.012326484786541,1.87291355192553e-06
3,0.00630520878376495,2.50667722808209e-07
3,-0.0450904090704717,-9.16753393051044e-05
3,-0.00563294963244319,-1.78734176588028e-07
3,0.0245048189737458,1.47148044739389e-05
3,0.00333573335199921,3.71170952739532e-08
3,0.00880856014535212,6.83462628084192e-07
3,0.0111245395701518,1.37672162903647e-06
3,0.00244124688061106,1.4549065667643e-08
3,0.0125171472575747,1.96117380809652e-06
3,0.0169325176474574,4.85472474030295e-06
3,0.0673552117601245,0.000305572042846882
3,-0.00288598060660274,-2.40369978766717e-08
3,-0.00879520298249967,-6.80358164284288e-07
3,0.0134350957663181,2.42505894548326e-06
3,0.00128306229482337,2.11223983040738e-09
3,0.00740482234640113,4.06016731440471e-07
3,0.010423619436907,1.13254545385171e-06
3,0.00604609009721226,2.2101606575508e-07
3,-0.000355923763764617,-4.50890365801513e-11
3,-0.00437285220557575,-8.36169645280364e-08
3,0.00250308587866175,1.56829316741468e-08
3,0.000599068251936694,2.14995273960744e-10
3,0.00256482023241358,1.68721641794725e-08
3,-0.00346571418199514,-4.16272988165693e-08
3,-0.00166751845968776,-4.63673153318018e-09
3,0.000367029994531936,4.94429837911017e-11
3,0.000188553330855781,6.70351562943657e-12
3,0.000136091562946142,2.52054006610258e-12
3,0.000504395878570448,1.28325979495297e-10
3,0.0001326221108956,2.33264048220411e-12
3,0.00074156905444727,4.07807111997605e-10
3,0.000547470006755596,1.64089576365153e-10
3,0.00409209312885353,6.85230249726761e-08
3,0.00244401785167403,1.4598664277767e-08
3,0.00581569544002762,1.96700274109085e-07
3,0.00122335935066824,1.83088951448201e-09
3,0.0119305011031162,1.69815002433987e-06
3,0.0056268182339494,1.78151161595e-07
3,0.00521164979878119,1.41555150456077e-07
3,0.000182385069991252,6.06691419254688e-12
3,0.000124136391606963,1.91292239477666e-12
3,0.000178918126577668,5.72747268012548e-12
3,0.000135710173713081,2.49940836635108e-12
3,0.0005493361539635,1.65773286570399e-10
3,0.000941287392760974,8.34001296676428e-10
3,0.00841439505980862,5.95756371130422e-07
3,0.0171480738297378,5.0425014758403e-06
3,0.00672617473249415,3.04301740001816e-07
3,0.00250757038478363,1.57673749790006e-08
3,-0.00304784666911302,-2.83125733353172e-08
3,-0.00182502928880218,-6.07868327974692e-09
3,-0.0143244379700779,-2.93922459659536e-06
3,-0.0165554531043306,-4.53756870829855e-06
3,-0.0187003420536532,-6.53956184478975e-06
3,-0.0040267371203619,-6.52919793742956e-08
3,-0.0056946324561199,-1.84670318003382e-07
3,-0.00798311521452017,-5.08764958677625e-07
3,-0.00741089442843457,-4.0701637288255e-07
3,-0.00128962743165988,-2.14482956420764e-09
3,-0.00222232796532083,-1.09755035388318e-08
3,-0.00761323485326865,-4.41273331371201e-07
3,-0.00289796602291767,-2.43377187422442e-08
3,-0.000215038506663279,-9.94371586796954e-12
3,0.00656636721158492,2.83123226221942e-07
3,-0.00991878039083168,-9.75831480221609e-07
3,-0.00614660026888871,-2.32222829219102e-07
3,-0.0249550583318354,-1.55408857629356e-05
3,-0.019611398071248,-7.54267968969516e-06
3,-0.104318903943443,-0.00113524355790352
3,-0.00207184094490301,-8.89342884685904e-09
3,-0.00515145081965483,-1.36706345616299e-07
3,-0.00229673129232908,-1.2115199297042e-08
3,-0.022694837565407,-1.16891043620129e-05
3,-0.0116582657317916,-1.58453505077914e-06
3,-0.00431523158172511,-8.03548921859909e-08
3,-0.00798744631574846,-5.09593472925024e-07
3,-0.0147263419250776,-3.19363029890708e-06
3,-0.00984107116329714,-9.53075085959037e-07
3,-0.000553209173480562,-1.69304350995035e-10
3,0.00393189480416358,6.07862945187156e-08
3,0.0148166898411771,3.2527716007387e-06
3,-0.00657255257063196,-2.83924065807653e-07
3,-0.00538321746718411,-1.56000422087613e-07
3,-0.00630747016796965,-2.50937528001446e-07
3,-0.0505262228638669,-0.000128988353771008
3,-0.00174431011695236,-5.30726898282894e-09
3,-0.0208551961834371,-9.07074250757319e-06
3,-0.000993012674739963,-9.79184151222571e-10
3,-0.00748902620637053,-4.20025880546816e-07
3,-0.000254213312249558,-1.64283848415958e-11
3,0.0308609749841761,2.93919856921278e-05
3,0.00918180120672914,7.74076097397004e-07
3,0.0141599528380621,2.83913092739654e-06
3,-0.022460239384834,-1.13303452140489e-05
3,-0.133737402039496,-0.00239198607594636
3,-0.0103190774673478,-1.09881003852363e-06
3,-0.032778576696376,-3.52184530107161e-05
3,-0.0589497318934722,-0.000204854497294717
3,-0.00187102407824369,-6.54995218211546e-09
3,-0.0426991710961076,-7.78499490914808e-05
3,-0.00682897727701069,-3.1846888172333e-07
3,0.035667537195644,4.53752852728044e-05
3,0.0372779056196327,5.18029525431186e-05
3,0.0115976410432926,1.55994392999397e-06
3,-0.0497674988557322,-0.000123264337367041
3,-0.00153018710582785,-3.5828911487932e-09
3,-0.00607786325323686,-2.24518831761735e-07
3,-0.00221633854674722,-1.08870019178385e-08
3,-0.0116495508234645,-1.5809842419644e-06
3,-0.0264895013006151,-1.85875156266174e-05
3,-0.0211212092115895,-9.42228714309634e-06
3,-0.00310893795644998,-3.00494249481893e-08
3,-0.000610338006210203,-2.27358525445269e-10
3,0.0402885467142828,6.53950393574865e-05
3,0.0292955374677043,2.51422656323173e-05
3,0.0135888574714506,2.50927829793756e-06
3,0.0432461883793521,8.08804403860665e-05
3,-0.142727916795863,-0.00290754725009053
3,-0.0102619229797658,-1.08065297222134e-06
3,-0.0123332407621868,-1.87599479405424e-06
3,-0.0884985914024919,-0.00069312102806329
3,-0.0025852416868695,-1.72783970961281e-08
3,-0.00400630620636774,-6.43031753753033e-08
3,-0.0178972372651124,-5.73268378619909e-06
3,-0.00581114512890087,-1.96238929114884e-07
3,-0.04775435887574,-0.000108902802624155
3,-0.00323137040711535,-3.37411771617267e-08
3,0.155831743762595,0.00378414519301172
3,0.108854044931432,0.00128983368642421
3,0.257505397999922,0.0170749331609065
3,0.0743425383720318,0.000410877308389695
3,0.242715642477413,0.0142985928413106
3,-0.0296589299190479,-2.60895406971669e-05
3,-0.0909473887617873,-0.000752264734511728
3,-0.026584735393773,-1.8788712716152e-05
3,0.00867531653241305,6.52914012016279e-07
3,0.00309491928153328,2.96447628228635e-08
3,0.00375795381255129,5.30706386804492e-08
3,0.0198689230514338,7.84373627965246e-06
3,0.00228578884305921,1.19428595724804e-08
3,0.0174508903724136,5.31438202837943e-06
3,0.0443039561285415,8.69616006681775e-05
3,-0.000778758327560346,-4.72289305244841e-10
3,-0.00555879500838383,-1.71767888331213e-07
3,-0.00293897605138121,-2.53856414395944e-08
3,0.0122686774964224,1.84668682713237e-06
3,0.00769524538495231,4.55687818720997e-07
3,0.06311368629382,0.000251403106914234
3,-0.0129476278505307,-2.17055414741011e-06
3,-0.00771452160800509,-4.59120832739128e-07
3,0.0171990495854521,5.08760453468926e-06
3,0.00343086083833663,4.03839976568064e-08
3,0.00907909363565856,7.48389154945694e-07
3,0.0209732652351691,9.22567491612209e-06
3,-0.00710699832484996,-3.58970400210343e-07
3,-0.00126382624416229,-2.0186550314587e-09
3,-0.00450200664341922,-9.12469579551382e-08
3,-0.0137416550572277,-2.5948790997606e-06
3,-0.0106699887815765,-1.21476393138849e-06
3,-0.00250371976512894,-1.56948494225314e-08
3,-0.00141459797159279,-2.83073420705809e-09
3,0.0159662409124905,4.07012768676576e-06
3,0.0339015842626529,3.89636812067095e-05
3,0.0449305792859727,9.07039194245268e-05
3,0.113505077425792,0.00146233160978352
3,0.15049608340689,0.00340859649648653
3,0.0117741665534192,1.63226446024432e-06
3,-0.0179132162719837,-5.74805225919803e-06
3,-0.0128314228659283,-2.11263491411362e-06
3,-0.021342886541771,-9.72208619271178e-06
3,-0.00642163596268292,-2.64811625028313e-07
3,0.00277840987482362,2.14481057134139e-08
3,0.0174151357956919,5.28178350259714e-06
3,0.00331075977787439,3.62896693397633e-08
3,0.00439632701908887,8.49708512975421e-08
3,0.00209378137058491,9.17897092187183e-09
3,0.00478784632860735,1.09754063486988e-07
3,0.00644609976427875,2.67849640619969e-07
3,0.00213935339288794,9.7914630781453e-09
3,0.00360257334588637,4.67561232238806e-08
3,0.0174020635760881,5.2698985271838e-06
3,0.00681291513720163,3.16226992722551e-07
3,0.00745847594460163,4.14906539615265e-07
3,0.0164021688562001,4.41269423813463e-06
3,0.0119316599440885,1.69864490975007e-06
3,0.0395699364479944,6.19578099671674e-05
3,0.0304351071527609,2.81919103272669e-05
3,0.0227658046291786,1.17991035770307e-05
3,0.0267588918466292,1.91603912366749e-05
3,0.0219982328674889,1.06454343296903e-05
3,0.0315507980585495,3.14073321037089e-05
3,0.00988212996556215,9.65054152410141e-07
3,0.00151835100600857,3.50039088782888e-09
3,0.0194703020902509,7.38104867826304e-06
3,0.0176769740606415,5.52361975146213e-06
3,0.0191676721530319,7.04219615086169e-06
3,0.00624346010119714,2.43375032272008e-07
3,0.0147006076741355,3.17691695319678e-06
3,0.0161344099945361,4.20009647429924e-06
3,0.0822153479856198,0.000555723417742341
3,0.00464412206033592,1.00163819520693e-07
3,0.0812085691140565,0.000535556845706262
3,0.135855512410779,0.00250744718731155
3,0.0108380247048093,1.27306450613885e-06
3,0.00414791339047319,7.13656192997329e-08
3,0.0318821580666867,3.24073210696631e-05
3,-0.0084851749406625,-6.10917269581112e-07
3,0.000463285050948074,9.943627814509e-11
3,0.000826384738624919,5.64347836650116e-10
3,0.000547678922850395,1.64277499190736e-10
3,0.0131488909222996,2.27335557005827e-06
3,0.000911721056710593,7.57854712642786e-10
3,0.00549509978182653,1.65930701283372e-07
3,0.0397117817058592,6.26264966201014e-05
3,0.00573014385377979,1.88146686766031e-07
3,0.011600894613562,1.56125716545503e-06
3,0.00234356494294152,1.28715538659215e-08
3,0.00959268618180023,8.82715415720673e-07
3,0.0166758352879899,4.63727435135056e-06
3,-0.000156485689554025,-3.83198573608413e-12
3,-0.000660170037571756,-2.87718262350983e-10
3,-0.00238146514990723,-1.35061849157314e-08
3,-0.00181463594859976,-5.97542129492438e-09
3,-0.0026482806306682,-1.85734256835552e-08
3,-0.00789729857475262,-4.9253338508667e-07
3,-0.000697501586163159,-3.39340424415136e-10
3,-0.00262555572858486,-1.80993810090815e-08
3,-0.00206589986779829,-8.81714135849111e-09
3,-0.00363238514272453,-4.79264953272538e-08
3,-7.78787279788844e-05,-4.72341982702389e-13
3,-0.000448232951794672,-9.0055728017863e-11
3,-0.00078845294477961,-4.90148117118429e-10
3,-2.52769593852949e-05,-1.61500730795959e-14
3,0.000337137202925251,3.831951803135e-11
3,-0.000862448981454771,-6.41505288315864e-10
3,-0.00024563529936099,-1.48208234387198e-11
3,-0.0006575006643237,-2.84242220949733e-10
3,-0.000667593618524498,-2.97533951382706e-10
3,-0.00182281241500335,-6.05655873945933e-09
3,-0.00486314596116449,-1.15014319363403e-07
3,-8.62655708921402e-05,-6.41966701882841e-13
3,-0.000227814146856644,-1.1823391450479e-11
3,-0.000449223321573707,-9.06539817471719e-11
3,-0.00267385289637776,-1.91166827030899e-08
3,-0.000169230136597254,-4.84655465841789e-12
3,-0.000113039876266047,-1.4444250792364e-12
3,-0.000277396759853824,-2.13453928376045e-11
3,-0.000643597028703632,-2.66588917553344e-10
3,-1.56310134274005e-05,-3.8191033266757e-15
3,0.00142228903202782,2.87715714552052e-09
3,0.0012883276530516,2.13835096105287e-09
3,-0.00185052234496307,-6.33698969133649e-09
3,-0.00099927262221957,-9.97819453509176e-10
3,-0.00151273649531565,-3.4617033918816e-09
3,-0.0103090499988834,-1.09560987467247e-06
3,-0.0165949359432113,-4.57011092250865e-06
3,-0.000511692730008736,-1.33976226038425e-10
3,-0.00295328758366627,-2.57583012787263e-08
3,-0.017311279538313,-5.18785116363253e-06
3,-0.00345065441195699,-4.10869968476737e-08
3,-5.06058250962763e-05,-1.29598964181543e-13
3,0.00513069598754908,1.35060653159423e-07
3,0.00036693039882611,4.94027447957325e-11
3,0.00398677817314708,6.33674478001277e-08
3,-0.00247572914018315,-1.5174325140858e-08
3,-0.00652029745777195,-2.77205744877323e-07
3,-0.0201879535957566,-8.22767054791032e-06
3,-0.0013912561212235,-2.69290643702476e-09
3,-0.00327650302065698,-3.51748065815708e-08
3,-0.00925567197621783,-7.92909943331859e-07
3,-0.0224893753195649,-1.13744963850487e-05
3,-0.00904224413621175,-7.39313583797144e-07
3,-0.000624796455171644,-2.43902173578019e-10
3,0.00390950309758084,5.9753683814532e-08
3,0.000982175532654906,9.47474069832444e-10
3,0.00215283986715002,9.97780889885898e-09
3,-0.00495298519571291,-1.21506941634661e-07
3,-0.00013601679986769,-2.51638830621525e-12
3,-6.86826083928039e-05,-3.23996516349693e-13
3,-0.000800321398583134,-5.12617333225734e-10
3,-0.000849360789351531,-6.12740552563413e-10
3,-0.000434060872260199,-8.17809057910241e-11
3,-3.68158730070355e-05,-4.99005474026821e-14
3,0.00570553081837146,1.8573261212403e-07
3,0.000997252403608987,9.91779837942352e-10
3,0.00325904999616085,3.46156960432609e-08
3,0.00476690595047293,1.08320274163595e-07
3,-0.0182058358680937,-6.03436907857251e-06
3,-0.0183525390473842,-6.18142309305909e-06
3,-0.00117853580264753,-1.63692334099377e-09
3,-0.0287593940053415,-2.3786973684782e-05
3,-0.000103508936307936,-1.10900508369055e-12
3,-0.000698622642910435,-3.40979266401697e-10
3,-0.000301926453898724,-2.752348980432e-11
3,-0.00861425289428257,-6.39223676219703e-07
3,-0.000251835787941717,-1.59717440139179e-11
3,0.017014163785491,4.92529023611588e-06
3,0.00272292006955978,2.01885291315311e-08
3,0.0222098888096651,1.09556753165509e-05
3,0.012554541708875,1.97880314321099e-06
3,0.0309598938228934,2.96755234178968e-05
3,-0.0148336893235712,-3.26398035923268e-06
3,-0.00251913678813585,-1.5986568410709e-08
3,-0.00617577693576537,-2.35545495696654e-07
3,-0.0110643768905257,-1.35450584273651e-06
3,-0.030075007463265,-2.72030269235756e-05
3,-0.000822442231767972,-5.56309157149216e-10
3,-0.00309035031823253,-2.95136647582321e-08
3,-0.00465263089240389,-1.00715380987467e-07
3,-0.00660874509608479,-2.88640324063926e-07
3,-0.000681858565777001,-3.17017255570003e-10
3,0.00726457513118762,3.83381064544676e-07
3,0.0357522450800177,4.56993429733329e-05
3,0.0388710035203466,5.87323338075644e-05
3,0.0073987542157944,4.05019377022688e-07
3,0.0312093695891929,3.03986984166036e-05
3,0.0221586790742454,1.08800678284003e-05
3,-0.00466466194373316,-1.01498710654714e-07
3,-0.0224670214831391,-1.13406122534744e-05
3,-0.00283735523909363,-2.28423688261587e-08
3,0.00150271717794226,3.39337419492322e-09
3,0.000128863646286834,2.13988900627614e-12
3,0.00110239436606078,1.33971048139065e-09
3,0.00267880156001298,1.92230205197079e-08
3,0.000203181481808384,8.3878831153112e-12
3,0.00200415644636186,8.04998108442745e-09
3,0.00376310588787422,5.32892142441582e-08
3,0.00696798497699356,3.38315282999541e-07
3,-4.94902463804091e-05,-1.21215692707129e-13
3,-0.00122648636678055,-1.8449651848608e-09
3,-0.000280158767633287,-2.19893633253668e-11
3,0.00565657164551058,1.80992207356835e-07
3,0.000340309133018745,3.94113048349300e-11
3,0.00636258325095877,2.57573057745564e-07
3,0.00630876031323718,2.51091541613808e-07
3,0.00922542303325022,7.85161271759682e-07
3,-0.00745202319759106,-4.13830594067066e-07
3,-0.00428036962709942,-7.84230666854791e-08
3,-0.000956334721788532,-8.74640880241995e-10
3,0.00445083320358636,8.8170632810582e-08
3,0.000671050508521528,3.02179939157239e-10
3,0.0178213832454201,5.66010162900012e-06
3,0.0165280512032884,4.51507479242375e-06
3,-0.00172329158683511,-5.11771743338828e-09
3,-0.00154017056294075,-3.65347765561953e-09
3,0.00782571345952119,4.79260709291897e-07
3,0.00399420568714098,6.37222756769663e-08
3,0.0372955406890648,5.18765066409606e-05
3,0.0433022883211378,8.1195608731476e-05
3,0.0489067237158039,0.000116978409081772
3,0.0449262772057023,9.06778673557582e-05
3,0.0114624523723179,1.50602656472145e-06
3,-0.00242012078396033,-1.41746101834721e-08
3,-0.00230739035260978,-1.22846621590091e-08
3,-0.0133249186001963,-2.3658853444108e-06
3,-0.00173214081825772,-5.19696256100581e-09
3,0.000167784137917052,4.72337800025943e-12
3,0.000252796245802484,1.61551821947263e-11
3,0.000102597871448891,1.07997835715454e-12
3,0.000176021892157697,5.45381064749372e-12
3,0.00122857052438693,1.85438657626192e-09
3,0.000965685770102407,9.00549305575779e-10
3,0.000168859146016299,4.81475026412131e-12
3,0.00119551767020881,1.70870857385561e-09
3,0.00118804118654515,1.67685106319592e-09
3,0.00461638904759136,9.83800878353692e-08
3,0.00361519390658273,4.7249235827333e-08
3,0.000414375718762834,7.11513094586815e-11
3,0.00126877256293527,2.04244953857828e-09
3,0.000513440361802293,1.35353664251435e-10
3,0.00695013577181199,3.35722049738197e-07
3,9.64915079813168e-05,8.98394906473552e-13
3,0.00259144054591375,1.7402985105212e-08
3,0.00344679637402733,4.09493377170219e-08
3,0.00169866536166174,4.9014377676534e-09
3,0.000961406259767514,8.8862972517781e-10
3,0.00743411379500978,4.10854089216591e-07
3,0.0174104374662521,5.27750982968914e-06
3,0.00064839881034296,2.72600487430778e-10
3,0.0146489486614528,3.14354275085529e-06
3,0.00987219419749722,9.62146201322489e-07
3,0.0335608174956012,3.7800504254426e-05
3,0.00239128975312657,1.36740325256789e-08
3,0.00658392112928519,2.8539992791377e-07
3,0.0199048596451912,7.88637381427549e-06
3,-0.00127045574312636,-2.05058899570403e-09
3,5.44573974137835e-05,1.61499300676836e-13
3,2.33496325890172e-05,1.27303444222523e-14
3,0.000109025540532967,1.29593955454147e-12
3,0.00120301768543701,1.74106921169965e-09
3,5.49954390848423e-05,1.6633361312717e-13
3,0.000428258790860814,7.85450570454333e-11
3,0.00101856556406834,1.05673713189431e-09
3,0.00423838831599785,7.61381344053843e-08
3,0.000546227669899504,1.62975037034492e-10
3,0.00147100202318727,3.18302324458477e-09
3,0.00231606796836835,1.24237842457191e-08
3,0.00258748446482958,1.73234047675684e-08
3,0.00249681484014304,1.55653543096926e-08
3,-0.00181173786679409,-5.94683768104384e-09
3,-0.000427576482559504,-7.81702373748322e-11
3,-0.00677550967803753,-3.11046923276406e-07
3,-0.00836390526220076,-5.85096250195785e-07
3,-0.013867434383792,-2.66678718099818e-06
3,-0.0131978161689917,-2.29882665670199e-06
3,-0.0164342765315089,-4.43865889214085e-06
3,-0.012381940039893,-1.89830542894368e-06
3,-0.00475538648525345,-1.07536886329561e-07
3,-0.00776184725166584,-4.67622366631288e-07
3,-0.00727706690000993,-3.85362191046395e-07
3,-0.00192505174655103,-7.13390340040334e-09
3,-0.00237287103194969,-1.3360490528222e-08
3,-0.00873074724991016,-6.65509481872487e-07
3,-0.00513121366153459,-1.35101539098581e-07
3,-0.000396236508947952,-6.22104676273167e-11
3,0.00390325938803399,5.94678502068587e-08
3,-0.000884950414693212,-6.93037622172006e-10
3,-0.00110717441180762,-1.35721334235412e-09
3,-0.00480112832012388,-1.1067000782113e-07
3,-0.00553824054744596,-1.69869514202621e-07
3,-0.00482606334197926,-1.12403297790627e-07
3,-0.0151952817469439,-3.50853869947993e-06
3,-0.00322010782589458,-3.33896020583285e-08
3,-0.00170206314544399,-4.93090918828385e-09
3,-0.00163819791503672,-4.39641930874629e-09
3,-0.000850392796907352,-6.14976780795285e-10
3,-0.00848651748416154,-6.11207297586135e-07
3,-0.0066271803039493,-2.91062569824729e-07
3,-0.00175463497298025,-5.40207169944527e-09
3,-0.00348824380505377,-4.24444093961804e-08
3,-0.00489940829129582,-1.17606384368583e-07
3,-0.0066356866949839,-2.92184798844874e-07
3,-0.000388189976273723,-5.84969133812165e-11
3,0.000921182887569803,7.81695451627854e-10
3,0.00132194032962463,2.31012540724002e-09
3,-0.000466613030831224,-1.01594591577843e-10
3,-0.00040819565120468,-6.8015065507875e-11
3,-0.000702037304238851,-3.46003561965143e-10
3,-0.00152688719472118,-3.559761147272e-09
3,-0.00290070991843312,-2.44069156270879e-08
3,-0.00106851205773244,-1.21993946825009e-09
3,-0.00123434904448049,-1.88067588379559e-09
3,-0.0030736784772808,-2.90385755136525e-08
3,-0.00015913994019673,-4.03030182829542e-12
3,-0.00199026348636243,-7.88372971151754e-09
3,-7.03064157596291e-05,-3.4752405746584e-13
3,0.0145973500053366,3.11044168897828e-06
3,0.00165389888811378,4.52404447451374e-09
3,0.00100527434953024,1.01590665160551e-09
3,-0.00504707516537396,-1.28563982792889e-07
3,-0.00424224214862552,-7.63460133110337e-08
3,-0.0155010371171305,-3.72462255218887e-06
3,-0.0127619490855692,-2.07850475773433e-06
3,-0.00601564995532122,-2.17694607587524e-07
3,-0.00829447752546294,-5.70646429412355e-07
3,-0.0175406788796063,-5.39683566344298e-06
3,-0.000605374582227638,-2.21856699098171e-10
3,-0.022909999336759,-1.20247271266579e-05
3,-0.00381305213727642,-5.54393628948315e-08
3,0.0180194344522261,5.85091069059247e-06
3,0.00717193308087772,3.68900026070431e-07
3,0.000879419541745039,6.80124368686413e-10
3,-0.00616108703004737,-2.33868661859983e-07
3,-0.00202126998784872,-8.25796395128902e-09
3,-0.00191260856671276,-6.99645894489908e-09
3,-0.00107077130162531,-1.22769409980021e-09
3,-0.0040258504780202,-6.52488591860457e-08
3,-0.00983192253982653,-9.50419514732776e-07
3,-0.00597218590225774,-2.13009981158779e-07
3,-0.00178164569220431,-5.65540910033458e-09
3,-0.000363991418893756,-4.82251331936503e-11
3,0.0298763935106477,2.6667635660998e-05
3,0.00827303249229992,5.6623171400874e-07
3,0.00151247403679977,3.45990189655183e-09
3,0.00971791794498384,9.1774004671829e-07
3,-0.0218008308274521,-1.03614165724595e-05
3,-0.0259357607421523,-1.74460444012053e-05
3,-0.0198969759937137,-7.87700693571753e-06
3,-0.00569679927351361,-1.84881200340096e-07
3,-0.0412841276564548,-7.03638083173033e-05
3,-0.00183332858112289,-6.16198911903928e-09
3,-0.00203222194146809,-8.39292627323283e-09
3,-0.00975055187981722,-9.27016773134253e-07
3,-0.00241187500609301,-1.40302170933922e-08
3,-0.0401699084083801,-6.48190295293563e-05
3,-0.00282869426326749,-2.26338289280348e-08
3,0.028433749057925,2.29880630016274e-05
3,0.00720918105597713,3.74677659302089e-07
3,0.00328953636109358,3.55962356999049e-08
3,0.00816824789651021,5.44987735295164e-07
3,0.037073354530876,5.09548647314993e-05
3,-0.00669026645502869,-2.99454086888682e-07
3,-0.0135733624810814,-2.50070430454408e-06
3,-0.00666023208886738,-2.95439180399137e-07
3,-0.00582416698967788,-1.9756110906785e-07
3,-0.00569014416198807,-1.84234011563589e-07
3,-0.0137784551509307,-2.61578220390262e-06
3,-0.00464899702056792,-1.0047957826393e-07
3,-0.00573047990917144,-1.88179791388692e-07
3,-0.0137652991787114,-2.60829653668223e-06
3,-0.0118616097702965,-1.66890223714277e-06
3,-0.00983543622633268,-9.51438848377585e-07
3,-0.00244429863321053,-1.46036963682493e-08
3,0.0226987359153427,1.16951289982664e-05
3,0.00624930956436045,2.44059723511311e-07
3,0.0298465550503172,2.65878141046736e-05
3,0.00920341306024801,7.79554965809788e-07
3,0.0441050004301219,8.57952989677101e-05
3,0.00999397142979127,9.98192519028043e-07
3,-0.0296617168519128,-2.60968959825124e-05
3,-0.0394603141856378,-6.14443021951382e-05
3,-0.0120036711790271,-1.72958643458119e-06
3,0.035406470954139,4.43861958698764e-05
3,0.00481020216512995,1.11298673527762e-07
3,0.00230200978718643,1.2198923201554e-08
3,0.0245725633100283,1.48371807720069e-05
3,0.00301936695809201,2.75262908442164e-08
3,0.0338357584142351,3.87371572305481e-05
3,0.0202759931542288,8.335783141357e-06
3,0.0443081191968556,8.69861172893952e-05
3,-0.00177887946583538,-5.62910780213853e-09
3,-0.0257347067888384,-1.7043456374354e-05
3,-0.0141594393109175,-2.83882204545165e-06
3,0.0266760024110481,1.89828861909469e-05
3,0.00254254461964424,1.64363639609462e-08
3,0.00265929014149678,1.88060319962809e-08
3,0.0115828654688217,1.55398934443048e-06
3,0.00994910586287466,9.84809333431545e-07
3,-0.00963413926773801,-8.94208430633695e-07
3,-0.00234322172870333,-1.28658995908455e-08
3,-0.0179762805774765,-5.80897508895665e-06
3,-0.00967417250101198,-9.05402066069552e-07
3,0.0102451393672863,1.07535934070355e-06
3,0.00244714263741521,1.46547310291543e-08
3,0.0159706462352615,4.07349764227655e-06
3,0.00870018539447314,6.58545098420108e-07
3,-0.00605141356391473,-2.21600381189049e-07
3,-0.0076046952892155,-4.39790102461663e-07
3,0.0167223436176012,4.67618225747923e-06
3,0.00127031810549954,2.04992260265095e-09
3,0.00285704885780377,2.33213132114544e-08
3,0.00968767937468969,9.09199672539629e-07
3,0.00849998106481374,6.1412089580752e-07
3,-0.00434689442666093,-8.21367051973664e-08
3,-0.00117509412169296,-1.62262424651547e-09
3,-0.00299418929435734,-2.68434146301543e-08
3,-0.00981586032485137,-9.45769076353027e-07
3,-0.00580634936494276,-1.95753479637166e-07
3,-0.00276133861340856,-2.10551819037167e-08
3,-0.00162359768263907,-4.27991622605685e-09
3,0.0156779190938241,3.85358778592246e-06
3,0.0126771732450873,2.03735765862045e-06
3,0.00662195422705885,2.90374532337823e-07
3,0.0337737942206168,3.85247260259351e-05
3,0.0702056317586945,0.000346031675276067
3,0.0205823621601139,8.71938083888269e-06
3,0.0148189101907818,3.25423414856074e-06
3,0.00720150148209241,3.73481559194484e-07
3,-0.0129227797610363,-2.15808143403073e-06
3,-0.00705191493028057,-3.50688233029993e-07
3,-0.023772789786879,-1.34350859847458e-05
3,-0.00744361873270912,-4.12432005981504e-07
3,0.00414738602084455,7.1338402283568e-08
3,0.00989969242346952,9.70208566082433e-07
3,0.00159951491252371,4.09227565755529e-09
3,0.00311766285411337,3.03031269751458e-08
3,0.00694470746614551,3.34936031029801e-07
3,0.00194677883296798,7.37819020277436e-09
3,0.00511218057634393,1.33603722185839e-07
3,0.00262107649879629,1.80069056648176e-08
3,0.000342852190776932,4.03014606560624e-11
3,0.00116562173601612,1.58369998324587e-09
3,0.0060138031953319,2.17494177233368e-07
3,0.00345589051709902,4.12743199699877e-08
3,0.00856023491384345,6.2727365636615e-07
3,0.00360426514395779,4.68220253423603e-08
3,0.00496047442715166,1.22058954350357e-07
3,0.0188097692234397,6.65503588661771e-06
3,0.00521074411503886,1.41481364653934e-07
3,0.0146868959761619,3.16803562486727e-06
3,0.0165812793821129,4.55883748602866e-06
3,0.0205627096677394,8.69442830910767e-06
3,0.0162619391545078,4.30048062465477e-06
3,0.0193041417427763,7.19368626658978e-06
3,0.00731874385731155,3.92021281228611e-07
3,0.00892123313029153,7.1002667590749e-07
3,0.00410150869445076,6.89971114613409e-08
3,0.0177189638039862,5.56307561340563e-06
3,0.00346829475966001,4.17203553804745e-08
3,0.00909995649570916,7.53560192280694e-07
3,0.00961938097707643,8.90105277743464e-07
3,0.0105342014558344,1.16897401832084e-06
3,0.0110548320833156,1.35100342749228e-06
3,0.00991239928385569,9.73949329482913e-07
3,0.00428783745726655,7.88342502194514e-08
3,0.0441121810908798,8.58372103544075e-05
3,0.00266141691432035,1.88511885807564e-08
3,0.0683108486866206,0.000318763834905967
3,0.0146922501975418,3.17150168371623e-06
3,0.0589450810690302,0.000204806015285991
3,0.0501751526235082,0.000126318251815949
3,0.0276505124161928,2.11402224079065e-05
3,0.00457471062445288,9.57394400910998e-08
3,0.0355119650843864,4.47841272413924e-05
3,-0.017735372208905,-5.57854476059794e-06
3,0.000853663160537498,6.22099167420109e-10
3,0.000579878800746325,1.94989711270721e-10
3,0.000151468629679415,3.47510626391927e-12
3,0.00734186168738225,3.95747878899321e-07
3,0.000543729274091952,1.60748950966574e-10
3,0.00481032975814469,1.11307530521394e-07
3,0.00365131207708813,4.86795842942105e-08
3,0.0179308600394079,5.76505376583649e-06
3,0.0276067660035172,2.10400420033124e-05
3,0.0148804879687282,3.29497041253902e-06
3,0.0114357406850603,1.49552231090897e-06
3,0.00268981483565234,1.9461089673472e-08
3,0.0111193314250121,1.37478892619442e-06
3,0.0348551618316782,4.23449193929639e-05
3,-0.000497467456134677,-1.23110196525477e-10
3,-0.000394926103586098,-6.15952924065651e-11
3,-0.00284048904525481,-2.29181393680266e-08
3,-0.0015955367238826,-4.06181757050796e-09
3,-0.00189980181651433,-6.85685389671955e-09
3,-0.000930560495922094,-8.05812195439484e-10
3,-0.000964627133985442,-8.97590860974083e-10
3,-0.000443719650711361,-8.73626878553738e-11
3,-0.000311986979119193,-3.03675256448264e-11
3,-0.000612755754394574,-2.30071166911942e-10
3,-0.00129776732070767,-2.18569974579991e-09
3,-0.0013942896665303,-2.71056000621115e-09
3,-0.000345290869604467,-4.11675748549304e-11
3,-0.00145758035293932,-3.09668847036059e-09
3,-0.000928934343450513,-8.01595108131488e-10
3,-4.00162319222839e-05,-6.40779448482753e-14
3,0.000743117673059886,4.10367321751589e-10
3,-0.000918388472281649,-7.7460317241197e-10
3,-0.00133256357938666,-2.36626738561657e-09
3,-0.00111600191592733,-1.38993605462187e-09
3,-0.00331659158387209,-3.64817768909314e-08
3,-0.00176619335956358,-5.50953241798566e-09
3,-0.00177558202622173,-5.5978624181595e-09
3,-0.00259355534647898,-1.74456261206846e-08
3,-0.00017280140303552,-5.15990603626888e-12
3,-0.00153737382598546,-3.63361114217879e-09
3,-3.99904778035246e-05,-6.39543043367216e-14
3,0.000589941238383356,2.05317641355217e-10
3,0.00197858249360152,7.74573235628489e-09
3,-0.00509094711373478,-1.31945856450469e-07
3,-0.00584701971965616,-1.99895802921672e-07
3,-0.0133853548944718,-2.39822359347343e-06
3,-0.00549084740652609,-1.6554578357999e-07
3,-0.00553073637263264,-1.69179942809762e-07
3,-0.00939155583079738,-8.28347629798284e-07
3,-0.000417105886239156,-7.25669643839903e-11
3,-0.0112291800793852,-1.41593768194871e-06
3,-0.00137622182583253,-2.60654557825863e-09
3,0.00424312702998285,7.6393797893422e-08
3,0.00287088421660507,2.36617593435881e-08
3,-0.00351631048126711,-4.34772078595643e-08
3,-0.00800327518839364,-5.12629093651327e-07
3,-0.00130826213883566,-2.23915583335339e-09
3,-0.00460076215491494,-9.73843896105885e-08
3,-0.0238582151348578,-1.35804403149954e-05
3,-0.00144841934610086,-3.03866588991233e-09
3,-0.000217899808063993,-1.03459539994232e-11
3,0.00238341528257126,1.35393919016932e-08
3,0.00240432226701818,1.38988233651664e-08
3,0.00980239142324349,9.41881185014402e-07
3,-0.0242687461083221,-1.42936128471191e-05
3,-0.0168552480480073,-4.78856563412411e-06
3,-0.0116080095144104,-1.56413151379178e-06
3,-0.017852927791601,-5.6902106648919e-06
3,-0.00109074578593803,-1.29768902399681e-09
3,-0.00113091108721261,-1.4463899165125e-09
3,-0.0115216289290472,-1.52947242718246e-06
3,-0.0159022655300161,-4.02139749076801e-06
3,-0.000824587784190029,-5.60674352329608e-10
3,0.00283792695934841,2.28561796557319e-08
3,0.00714528790847344,3.64803669469825e-07
3,0.0112581754771847,1.42693450783692e-06
3,0.0412701623903567,7.02924261423163e-05
3,-0.00918043888711231,-7.7373159551574e-07
3,-0.0157114334640142,-3.87835386223429e-06
3,-0.00670905977573781,-3.01984730540914e-07
3,-0.00428591172980164,-7.8728081239574e-08
3,-0.0158427437866952,-3.97641035610965e-06
3,-0.00814155112239835,-5.39661533006777e-07
3,-0.00377939943461167,-5.39844127343967e-08
3,-0.00435741186061141,-8.27343451150278e-08
3,-0.0222254535709117,-1.09787247792478e-05
3,-0.00532025045177793,-1.50590034160323e-07
3,-0.000973610935228114,-9.22903577013726e-10
3,0.00139007274112795,2.68604065146495e-09
3,0.0137138101400704,2.57913691679401e-06
3,-0.00313527785029709,-3.08196784268032e-08
3,-0.000455866578006263,-9.473561064291e-11
3,0.00144096153896673,2.99196953658028e-09
3,0.00380509922219065,5.50931948614526e-08
3,0.0257729033681483,1.71194590032329e-05
3,0.00525265389846829,1.44922680178327e-07
3,0.0286631546997176,2.35489725211177e-05
3,0.0234698600146788,1.29280045954587e-05
3,-0.0105933044432422,-1.18876048703718e-06
3,-0.00429191402171476,-7.90593136971102e-08
3,0.000662829116279526,2.91208959517912e-10
3,0.00382532623074829,5.59764607255036e-08
3,0.0105723815866916,1.18173062047607e-06
3,0.0100220450366499,1.00662810121771e-06
3,-0.0037699645012606,-5.35811193941525e-08
3,-0.00117996388830118,-1.64288115882799e-09
3,-0.00643955715282707,-2.67034888389294e-07
3,-0.00255189451651303,-1.66183597450028e-08
3,0.000466046643029594,1.01225085482755e-10
3,0.0106491860104087,1.2076726719656e-06
3,0.00640232786932568,2.62430152639686e-07
3,-0.00146543923338216,-3.14704855399121e-09
3,0.00091533551540802,7.66903889706475e-10
3,0.0119552681262895,1.70874777491016e-06
3,0.0197399748446107,7.69200901731696e-06
3,0.0236660123835166,1.32548635795703e-05
3,-0.00470151974650618,-1.03923746170249e-07
3,-0.00174859295486831,-5.34645816389094e-09
3,-0.00416744056528587,-7.23782776696651e-08
3,-0.0290098773290062,-2.44139289899078e-05
3,-0.00273407649390513,-2.0437698271822e-08
3,-0.00118375586986423,-1.65877100979611e-09
3,0.00193860687698204,7.28566581933303e-09
3,0.00558757362446097,1.74449518839264e-07
3,0.0180830215419749,5.9130697101592e-06
3,0.0303597567758159,2.79830381005982e-05
3,0.012161911615684,1.79889381591515e-06
3,0.00579883306791071,1.94994256906071e-07
3,0.00778900937066442,4.72548815584106e-07
3,-0.00810537221593359,-5.32499114732362e-07
3,-0.0049954043002233,-1.24655639226531e-07
3,-0.00115177418687771,-1.5279249517218e-09
3,0.00208279210988817,9.03520002070388e-09
3,0.00195427800257766,7.46378345533805e-09
3,0.00185486532807822,6.38171124757835e-09
3,0.00564569591139197,1.79950247116276e-07
3,0.00289689454586856,2.43107332637698e-08
3,0.000515796047329437,1.37225249516435e-10
3,0.000372284541057488,5.15970661675281e-11
3,0.000803118765627013,5.18011404416846e-10
3,0.0068726045090964,3.24611617091051e-07
3,0.00192316834211367,7.11298518204498e-09
3,0.00650913531404293,2.75784529169591e-07
3,0.00181498091351614,5.97882975146672e-09
3,0.00690420020862845,3.29109281056778e-07
3,0.00217733583738358,1.0322294901202e-08
3,0.0356393291793298,4.5267713943548e-05
3,0.0195930805316784,7.52156426610511e-06
3,0.0332005532955849,3.65961976240678e-05
3,0.0480606736843698,0.000111011906836343
3,0.0121078635578167,1.77501715561623e-06
3,0.00138764359199303,2.67198369377163e-09
3,0.00331212883221293,3.63347071075029e-08
3,0.0216212850067247,1.01075175655936e-05
3,0.00216364441235917,1.01287922249975e-08
3,0.0270425623915233,1.97762307634965e-05
3,0.00794743099872167,5.0197293047762e-07
3,0.0046834233680048,1.02728336507342e-07
3,0.0206538458583679,8.81054542295591e-06
3,0.00990511102903707,9.71802571843031e-07
3,0.00452954546175539,9.29316972060768e-08
3,0.00746217102335354,4.1552350426462e-07
3,-0.0025122065955863,-1.58549929933564e-08
3,5.97763105586184e-05,2.13593149494251e-13
3,8.61557627092563e-05,6.39518326373666e-13
3,0.00264985369532245,1.86065428963728e-08
3,0.000325498070321248,3.44861930287976e-11
3,0.00140225092828168,2.75725674974912e-09
3,0.00145438749499857,3.07638294715202e-09
3,0.000680965543109555,3.15773304139658e-10
3,0.00836797725552144,5.85951234106189e-07
3,0.00392523863373983,6.04781077012778e-08
3,0.00220368896127075,1.0701653583525e-08
3,0.00196112875412324,7.5425521585826e-09
3,0.00172052859913285,5.09314086496351e-09
3,0.00493721622598956,1.20350096502179e-07
3,-0.000359813490915323,-4.65835228298794e-11
3,-0.00183399900952354,-6.16875170943631e-09
3,-0.00106860594108379,-1.22026106144611e-09
3,-0.00290776889241803,-2.45855347191015e-08
3,-0.0215646427645284,-1.00282881491435e-05
3,-0.000829726613818705,-5.71222178861294e-10
3,-0.000585200462249039,-2.00407505112461e-10
3,-0.00725179655872948,-3.81361490061259e-07
3,-0.000306363385504412,-2.87548151642628e-11
3,-0.00476674813624573,-1.08309516295951e-07
3,-9.39341198211431e-05,-8.28838871868753e-13
3,0.000775184680092956,4.65817224746956e-10
3,-0.000384875417482159,-5.70112441934735e-11
3,-0.00040473558845015,-6.63000996129849e-11
3,-0.00577326815833881,-1.92426637326849e-07
3,-0.000496472967593388,-1.22373341755303e-10
3,-0.000142880262133258,-2.91686759001249e-12
3,-0.000360669485083974,-4.6916780167819e-11
3,-0.00207327341850268,-8.91188838972051e-09
3,-5.83854803742003e-05,-1.99028180767619e-13
3,-0.00274890488113156,-2.07720393834629e-08
3,-0.000255225557829645,-1.66254146254895e-11
3,0.00395118018468875,6.16851330015676e-08
3,-0.0133699092949236,-2.38993111085517e-06
3,-0.000458155674442462,-9.61699099832656e-11
3,-0.000583080156747004,-1.98237031427769e-10
3,-0.00299493348910922,-2.68634351016873e-08
3,-0.00226229095789501,-1.15783154864069e-08
3,-0.00633868830909272,-2.54681964113183e-07
3,-0.0249719969642793,-1.55725530988152e-05
3,-0.00124556421148308,-1.93240593987151e-09
3,-0.00014195565786396,-2.86060649303132e-12
3,0.00230221205012964,1.22021390092251e-08
3,0.000741060436704609,4.0696858305855e-10
3,-0.00410568663066384,-6.92081747228207e-08
3,-0.0190676327970843,-6.93250735773671e-06
3,-0.00152792659226632,-3.56703580309515e-09
3,-0.000588382508932798,-2.03694480657629e-10
3,-0.00963230240046992,-8.93697052605896e-07
3,-0.00173723047591803,-5.2429089842015e-09
3,-0.00038689099902909,-5.79116418935552e-11
3,-0.00212969208653606,-9.65940668802757e-09
3,-0.00341665732893658,-3.98845109487675e-08
3,-0.00951420033550752,-8.61225490713715e-07
3,-0.000373744011222325,-5.22062774493722e-11
3,0.00626451746686669,2.45845845398925e-07
3,0.000779300309406406,4.73276069972635e-10
3,0.00698191629741058,3.40348557231904e-07
3,-0.00521964370470614,-1.42207524557879e-07
3,-0.00615370598128868,-2.33029136880558e-07
3,-0.00130406247930133,-2.21766120168232e-09
3,-0.000390671201096158,-5.96257964603265e-11
3,-0.000625441272812493,-2.44658106766243e-10
3,-0.00073527135135542,-3.9750530973551e-10
3,-0.00402200922096886,-6.50622661375916e-08
3,-0.00551152697185905,-1.67423266600634e-07
3,-0.00136491002310697,-2.5427992165622e-09
3,-0.00376156710085271,-5.32238688403757e-08
3,-0.0210225695402496,-9.29089160444809e-06
3,-0.00291447688925391,-2.47560782987528e-08
3,-0.000404052721534446,-6.59650823628718e-11
3,0.00779714386701499,4.74030889469674e-07
3,-0.00704777910106696,-3.5007157662148e-07
3,-0.00630417528567977,-2.50544480822576e-07
3,-0.00069440694122139,-3.34843721475316e-10
3,0.0464590159202058,0.000100279005768979
3,0.0111161701379115,1.37361667936716e-06
3,0.0199719298265269,7.9663630457931e-06
3,0.0324254206798726,3.4092343666842e-05
3,0.00919245327188856,7.76773306273837e-07
3,0.0105278494954905,1.16686067345698e-06
3,-0.0111248015375499,-1.37681889095201e-06
3,-0.0456470339142874,-9.5112520051554e-05
3,-0.00774609638251243,-4.64781346153309e-07
3,0.00178756877086921,5.71200102325466e-09
3,0.000955936538071686,8.73548827127628e-10
3,0.000684391552533883,3.20563389265977e-10
3,0.00259831217904381,1.75417932063691e-08
3,0.00194801855029321,7.39229457262649e-09
3,0.0166180209671625,4.58920975179809e-06
3,-0.00128555702911155,-2.12458466249193e-09
3,-0.00310948791638838,-3.00653746747684e-08
3,-0.000954404520543328,-8.6935561425135e-10
3,0.00126075993416692,2.00399759783883e-09
3,0.000275109567001248,2.08217429187888e-11
3,0.000583587641604702,1.98755089924392e-10
3,-0.000700114701113634,-3.43168638266876e-10
3,-0.000138944114948313,-2.6823810369235e-12
3,-0.00132611311219185,-2.33207067425413e-09
3,-0.000398117566316149,-6.31006774291302e-11
3,0.00069445299435043,3.34910346488328e-10
3,0.000934288978401165,8.15537014141375e-10
3,-0.00488813763556471,-1.16796620741148e-07
3,-0.000572941148800175,-1.88074555286728e-10
3,0.000871003364115046,6.60783967496378e-10
3,0.0010005725711134,1.00171869704095e-09
3,0.00109835399351947,1.32503393282928e-09
3,-0.000695885376751776,-3.36986987425423e-10
3,-0.000764014156544233,-4.45968533814065e-10
3,-0.000391118505474377,-5.983083918103e-11
3,-0.00147105059917109,-3.18333858798151e-09
3,-0.00564366740513845,-1.79756347692441e-07
3,-0.000448748218911645,-9.03666564177945e-11
3,-0.000147189990407106,-3.18885543347186e-12
3,0.015623320796498,3.8134675124174e-06
3,0.00399199542276528,6.36165486589347e-08
3,0.0163801904921697,4.39497940344503e-06
3,0.00600810827414907,2.16876877535145e-07
3,0.00107689297307458,1.2488711391054e-09
3,0.00115287354146622,1.53230428697466e-09
3,-0.00437495251843958,-8.37375079243631e-08
3,-0.0154840110549358,-3.71236285131342e-06
3,-0.00872732967694587,-6.64728264540357e-07
3,-0.00152441121157021,-3.54247180754333e-09
3,0.00447382253388327,8.95439520014312e-08
3,0.00295424343435809,2.57833198985203e-08
3,0.00823316133393781,5.58084392730679e-07
3,0.0012657425142297,2.02785128719645e-09
3,0.000660031402325385,2.87537038511334e-10
3,0.000112418636311889,1.4207410811952e-12
3,0.00337940334983579,3.85940264991325e-08
3,0.000657926630656151,2.84795023771996e-10
3,0.00203891307870313,8.47610123386394e-09
3,0.000213719181728224,9.76181354454710e-12
3,0.000647966161674439,2.72055167681135e-10
3,0.00946871331053033,8.48931995623626e-07
3,0.00362164315620169,4.75025550544155e-08
3,0.00561905783422248,1.77415069743036e-07
3,0.00243709003034176,1.44748715744861e-08
3,0.00653533567046577,2.79128188239336e-07
3,0.0373030930874149,5.19080282153666e-05
3,0.0058101890459459,1.9614208598449e-07
3,0.0314036758891921,3.09700181120187e-05
3,0.00250646027060515,1.57464433566887e-08
3,0.00735065276217902,3.97171175930197e-07
3,0.00934986571867609,8.17365157878662e-07
3,0.0231301275482874,1.23746830119439e-05
3,0.0102695152415754,1.08305330360941e-06
3,0.00529289364594251,1.48278950138964e-07
3,0.00186062002945814,6.44129330713432e-09
3,0.0161793522874318,4.23529235368058e-06
3,0.00435366796820137,8.25212720087989e-08
3,0.00941706708582566,8.35116362330863e-07
3,0.068186687566156,0.000317028846282658
3,0.00606259212766356,2.22830714949521e-07
3,0.00203978275238314,8.48695199578547e-09
3,0.000743441327619486,4.10903744641466e-10
3,0.013036948105211,2.2157859811188e-06
3,-0.00368708182338239,-5.01243006906255e-08
3,0.000202372319164938,8.28806838989557e-12
3,0.00049142541911548,1.18678719059967e-10
3,0.000212052929814111,9.53526641463998e-12
3,0.000635569549688414,2.56737463161031e-10
3,0.000603577059641543,2.19886301822839e-10
3,0.00103729297711615,1.11610309558493e-09
3,0.0115709742473845,1.5492081785323e-06
3,0.00186080971801075,6.44326356031021e-09
3,0.000612371099966132,2.29638160693331e-10
3,0.000861573824630552,6.39554396452348e-10
3,0.000243849707405977,1.44999570712882e-11
3,0.0022771764780172,1.18083731178344e-08
3,0.00724618756950052,3.80477268438324e-07
3,-0.000693322837714821,-3.33277901184854e-10
3,-0.00181975234090453,-6.02610729691054e-09
3,-0.0156618922204722,-3.8417817836871e-06
3,-0.00234116259930167,-1.28320112762728e-08
3,-0.00147252105504762,-3.19289428829916e-09
3,-0.010671180435505,-1.21517098145655e-06
3,-7.52530704978463e-05,-4.26159990911271e-13
3,-0.0117168635750695,-1.6085483509132e-06
3,-0.000656903779635667,-2.83468810975201e-10
3,-0.00731703612035734,-3.91746925529701e-07
3,-0.000435846214172537,-8.27941847186961e-11
3,-0.0005882366287593,-2.03543009706467e-10
3,-0.00107103094582825,-1.22858740247829e-09
3,-7.37079856989343e-05,-4.00445694623496e-13
3,0.00133496217621652,2.37906814925212e-09
3,-0.00555231687602548,-1.71168061109538e-07
3,-0.0155584680624993,-3.76617501683673e-06
3,-0.00216713523148079,-1.01778966779592e-08
3,-0.0149119192903417,-3.31589395714553e-06
3,-0.000149987665409315,-3.37416748359082e-12
3,-0.0121975190452788,-1.81474042936062e-06
3,-0.000289333948306849,-2.42213408159673e-11
3,0.00350385190425279,4.30167133286882e-08
3,0.00944198015396077,8.41761870994753e-07
3,-0.0125323453870278,-1.96832616741213e-06
3,-0.00461644305506431,-9.83835407432839e-08
3,-0.0030225520274694,-2.76134935569852e-08
3,-0.0155407530024218,-3.75332502171348e-06
3,-0.00132067665914027,-2.30350684612352e-09
3,-0.00932578479010482,-8.11065946097335e-07
3,-0.000780708212250122,-4.7584580301528e-10
3,0.0301562743717237,2.74241425712698e-05
3,0.0109301662943536,1.30581095692175e-06
3,0.0264579183703413,1.85211102358483e-05
3,0.0187209138213159,6.5611676091377e-06
3,-0.0237619984420646,-1.34167982477445e-05
3,-0.0881290206147047,-0.000684473803696758
3,-0.00903057108509066,-7.36454036212076e-07
3,0.00450780408264298,9.15999206958881e-08
3,0.00065106574865967,2.75978052486032e-10
3,0.00368531701332547,5.00523596218549e-08
3,0.00689607810237406,3.2794915369428e-07
3,0.0354952299148051,4.47208429235613e-05
3,-0.0104353909606266,-1.13638678185895e-06
3,-0.00193409711408032,-7.23493828241949e-09
3,0.00283527356267411,2.27921295657954e-08
3,0.00451511143997587,9.20461062301615e-08
3,-0.00620078359836608,-2.38418375984948e-07
3,-0.000308163372342765,-2.92646311281754e-11
3,-0.00972643579614376,-9.20155387225537e-07
3,-0.00176323595784959,-5.48190243210429e-09
3,0.0205468815998247,8.67436624991001e-06
3,0.0253584312892565,1.6306740190279e-05
3,0.0232148962298663,1.25112366876725e-05
3,0.00953783754864011,8.67660373348057e-07
3,-0.0319684180371741,-3.26710759310545e-05
3,-0.00337184681539131,-3.83357097819026e-08
3,0.00014489642817752,3.04209687248431e-12
3,0.000878706086318338,6.78470397489781e-10
3,0.000255061191887053,1.65933148720979e-11
3,0.00197283693977828,7.67845022661227e-09
3,0.000474006573075841,1.06500854498601e-10
3,0.0225602978089704,1.14824479348454e-05
3,0.00159990276824408,4.0952533054929e-09
3,0.0207424639703782,8.92444121459586e-06
3,0.0139309289666087,2.70358627676274e-06
3,0.131645486658561,0.00228148660322601
3,0.0203459607459958,8.42237563310076e-06
3,0.0149608776180066,3.34866120751002e-06
3,0.0477546537582132,0.000108904820056291
3,-0.00675373871139172,-3.08058193219363e-07
3,0.00126483890552008,2.02351136123909e-09
3,0.000110104764778973,1.33480658459401e-12
3,0.000492026204335792,1.19114518392556e-10
3,0.00116622792540147,1.58617210977425e-09
3,0.0134896985920109,2.45474700190857e-06
3,0.00377092378335379,5.36220315737545e-08
3,0.00271215046600267,1.99499283192731e-08
3,0.00503688912624653,1.27787146782023e-07
3,0.0132730597915634,2.33836957845218e-06
3,-0.000785509430886036,-4.84679008444643e-10
3,-0.00172863503899607,-5.16547109167618e-09
3,-0.00121188114893498,-1.77983642268233e-09
3,-0.000808547260368164,-5.28586697916143e-10
3,-0.00177971464060164,-5.63704003665957e-09
3,-0.000382567529274566,-5.59917857229217e-11
3,-0.000114818010000586,-1.51366596726983e-12
3,-0.000140164391390305,-2.75367756849482e-12
3,-0.000473201296939538,-1.05958982395644e-10
3,-0.00373436235751167,-5.20774091620135e-08
3,-0.00019339449740573,-7.23323107172262e-12
3,0.00151246334644114,3.45982853199195e-09
3,-0.0122756264722722,-1.84982649363134e-06
3,-0.00111477609369787,-1.38536094494971e-09
3,-0.00866787040051543,-6.51234241998649e-07
3,-0.000782265347170406,-4.78698731687587e-10
3,-0.00152971133879325,-3.57955020138238e-09
3,-0.00491598723183537,-1.18804321591556e-07
3,-0.0142133490974829,-2.87137072968016e-06
3,0.00332840960662473,3.68731551248975e-08
3,0.0005714782112606,1.86637552281347e-10
3,0.0208752893821865,9.09698573554742e-06
3,-0.00315556510149926,-3.14218270010844e-08
3,-0.00792482132242064,-4.97700913012892e-07
3,0.0023334230576196,1.27051692567332e-08
3,-0.00261823159258123,-1.79483354071148e-08
3,-0.00823305963971199,-5.58063712973433e-07
3,0.000171514794002667,5.04550636232284e-12
3,0.00189573001466368,6.8128599077702e-09
3,-0.000251931923782858,-1.5990042166989e-11
3,-0.000138408018270843,-2.65145189004472e-12
3,-0.00042509252856551,-7.68157748331858e-11
3,-0.0032668855972809,-3.48659721314237e-08
3,-0.000269705660182953,-1.96186980316131e-11
3,0.00155682165877098,3.77325881091992e-09
3,0.0147401277928063,3.20260772043112e-06
3,0.00402727610125554,6.53182009816917e-08
3,0.00041737570422254,7.27078821309238e-11
3,-0.000600459350809063,-2.16496478776411e-10
3,-0.00425706611315497,-7.71491569663232e-08
3,-0.00249128327628123,-1.54621306275081e-08
3,0.000209377141405732,9.17883997662051e-12
3,0.00133027960183739,2.35412107501932e-09
3,0.00022930061116681,1.20563441599409e-11
3,0.000706866657643393,3.53193327578576e-10
3,0.00260134722579337,1.76033358986701e-08
3,0.000704250937339299,3.49286902688549e-10
3,0.000896970515101005,7.21663103894134e-10
3,0.005578379127775,1.73589751597678e-07
3,0.00835987118828502,5.84250048618431e-07
3,0.00615242916425271,2.32884115079658e-07
3,0.00541225048539231,1.58538105505759e-07
3,0.00635923610680827,2.57166769611215e-07
3,0.00342676109947961,4.02393988908295e-08
3,0.000288892111817857,2.41105463039204e-11
3,0.0241704792965304,1.4120685728796e-05
3,0.0154510841187803,3.68873002506649e-06
3,0.0126638164557992,2.0309247034763e-06
3,0.000446821459390312,8.9207643678986e-11
3,0.00372149695158809,5.15410192559671e-08
3,-0.00396893464571146,-6.25204136891809e-08
3,-0.0213911676374259,-9.78821440130008e-06
3,-0.00665939529774391,-2.95327837511592e-07
3,-0.0218943828767879,-1.04953789874027e-05
3,-0.000146795160918518,-3.16326239221064e-12
3,-0.0361241143456571,-4.71402221598643e-05
3,-0.00403727545392572,-6.58059470947512e-08
3,0.00674936301258086,3.07459814998385e-07
3,-0.00665899874080659,-2.95275081672507e-07
3,-0.00548233013371267,-1.64776605816346e-07
3,-0.00146466558881711,-3.14206695153611e-09
3,-0.00335914997604758,-3.79042739913567e-08
3,-0.0088182039889105,-6.85709905305822e-07
3,-0.000499530045881144,-1.24647865592376e-10
3,-0.0106738233590243,-1.21607408663812e-06
3,-0.00421004419051596,-7.46208107360358e-08
3,0.0363767027013061,4.81359992905652e-05
3,0.00994726347806603,9.84262330974488e-07
3,-0.0542760981403065,-0.000159891676868072
3,-0.194008840758296,-0.00730238223782691
3,-0.0936658064787679,-0.000821756656071989
3,0.0113246199096057,1.45234871184003e-06
3,0.00818954687280438,5.49262082029466e-07
3,0.081076622703512,0.000532950591785483
3,-0.0513443222401507,-0.000135355926606159
3,-0.0448358349952536,-9.01313314419798e-05
3,0.00218792870915241,1.0473684823926e-08
3,-0.00617178414484483,-2.35088933221258e-07
3,-0.000204457102292746,-8.54686027536652e-12
3,-0.0195273997538318,-7.44617520842471e-06
3,-0.016678785017857,-4.63973560012298e-06
3,0.00501792404154098,1.26349127943031e-07
3,-0.0343857785253125,-4.06571174965005e-05
3,0.0372324442609679,5.1613658505961e-05
3,0.0131727008661967,2.28572768804502e-06
3,0.00949323156097785,8.55543750460032e-07
3,-0.0751545412450359,-0.000424488260875083
3,-0.0373478153576239,-5.20949480339592e-05
3,0.000249632185453055,1.55561361883429e-11
3,0.000746201820273699,4.15497975799459e-10
3,0.000314489063583473,3.11040285667677e-11
3,0.0614307825628392,0.000231823865662661
3,0.0159446393374284,4.05362995201755e-06
3,0.289806786454036,0.024340284693523
3,0.10010641371937,0.00100319580995003
3,0.0300363919567326,2.70983775250809e-05
3,0.112266396521112,0.00141497689773564
3,-0.15089267608161,-0.00343561493861998
3,0.0068655798224771,3.23617249561594e-07
3,0.00628899635627365,2.48739083224493e-07
3,0.139916234075413,0.0027390775100732
3,0.0874167668723929,0.000668011932058958
3,0.0256547482242293,1.68850857506601e-05
3,0.0517084290053065,0.000138256013432145
3,0.0557904363285994,0.000173651793820708
3,0.296547971031516,0.0260786358959917
3,-0.00356166863509098,-4.51814885824972e-08
3,-0.00625108434745704,-2.44267719015324e-07
3,-0.00370456356726495,-5.08406569728357e-08
3,0.00532035415249864,1.50598840098844e-07
3,-0.00123735319970052,-1.89444088168905e-09
3,-0.000659230050693667,-2.86491003577471e-10
3,-0.000706629833626812,-3.52838451700951e-10
3,-0.00034924854537703,-4.25994329199769e-11
3,-0.0025388935256803,-1.63656577385374e-08
3,-0.0117307152186682,-1.61425996203347e-06
3,-0.01946329480259,-7.37308231198643e-06
3,-0.000340881530586792,-3.96105081306325e-11
3,-0.000390472424524674,-5.95348285424165e-11
3,0.000578600184473145,1.93702712928688e-10
3,0.00420618577159839,7.44158333931829e-08
3,0.0194342799114484,7.34015719423841e-06
3,0.00241247689952648,1.40407236118911e-08
3,0.0322448471505487,3.35259403373079e-05
3,0.00933775316376753,8.14192633120745e-07
3,0.00128530581983953,2.12333941766404e-09
3,0.000564738548210939,1.80111855005218e-10
3,-0.00116767992399598,-1.59210402484774e-09
3,0.00553380793600689,1.69461967947164e-07
3,0.00137772153541408,2.61507615669887e-09
3,0.000646895799144284,2.70709185825862e-10
3,0.00229483047996287,1.2085143974029e-08
3,-0.0199554342203614,-7.94664014244412e-06
3,-0.0153090861522852,-3.58796172233513e-06
3,-0.0093582188033978,-8.19557795317158e-07
3,-0.0371732788829773,-5.13679944135981e-05
3,-0.00289679435562537,-2.43082109620423e-08
3,-0.00300346505701537,-2.70936646405997e-08
3,-0.0199767753225855,-7.972162737714e-06
3,-0.0196621573782508,-7.60139855156665e-06
3,-0.0335204461830204,-3.76642542088947e-05
3,-0.00559389016764409,-1.75041813888739e-07
3,0.0298095809498691,2.64891250074819e-05
3,-0.0493461581849351,-0.000120160033231544
3,-0.198368150775527,-0.00780577150669478
3,-0.0405199594562945,-6.652838890567e-05
3,0.0228688305093067,1.19600189364764e-05
3,0.0737123703823637,0.000400517163082565
3,-0.00164464947960921,-4.44856618047196e-09
3,-0.0489186747213611,-0.000117064185708833
3,-0.018073614752734,-5.90384657170376e-06
3,0.0139793791448463,2.73189278762727e-06
3,-0.00953798940491973,-8.67701817262387e-07
3,-0.000595495455624031,-2.11171524328666e-10
3,-0.00127631608556009,-2.07909688725604e-09
3,-0.011585519174901,-1.55505767484899e-06
3,-0.0078277707722226,-4.7963878921281e-07
3,-0.00765390786649886,-4.4838356989032e-07
3,-0.00302193760467008,-2.75966572102387e-08
3,0.0555297295863152,0.000171228745861761
3,0.0158015903065016,3.94550313222733e-06
3,-0.025020932458962,-1.56642812323135e-05
3,-0.0155956118497755,-3.79321320037394e-06
3,-0.108094633067076,-0.00126302630268582
3,-0.0227274969292343,-1.17396411879093e-05
3,0.00432725366361756,8.10283625959859e-08
3,0.000986557524828119,9.60212245843468e-10
3,0.00448659917687229,9.03133219462611e-08
3,0.00211447329509674,9.45380442644881e-09
3,0.0298414604523285,2.65742013673649e-05
3,0.0191937335761221,7.07096009809962e-06
3,0.0373764496227474,5.2214862238275e-05
3,0.029371481749968,2.53383056052429e-05
3,0.00320658553946905,3.29707244036686e-08
3,0.0129682705132875,2.18095238194554e-06
3,0.0232968376216639,1.26441872282882e-05
3,0.050073100035524,0.000125549052199327
3,0.296318642420562,0.0260181807166096
3,0.0953771103911937,0.000867625847961722
3,0.0126802317779617,2.03883263149438e-06
3,0.161472543597143,0.00421013536593137
3,-0.0684059086424378,-0.000320096442978651
3,0.00835619610857272,5.83479861491387e-07
3,0.060527959403182,0.00022175228212202
3,0.0352382634905416,4.37565926503844e-05
3,0.00500644506232907,1.25484003024827e-07
3,0.0339504990639311,3.91325805673711e-05
3,0.134437495187048,0.00242974801809291
3,-0.00420243334284013,-7.42168471240908e-08
3,-0.0126546438372857,-2.02651479885658e-06
3,-0.00592158399006346,-2.0764127201233e-07
3,0.00627752162969384,2.47380038827627e-07
3,-0.0109516190044957,-1.31351482916949e-06
3,-0.0158011733959971,-3.94519084499485e-06
3,-0.0113910003774354,-1.47803799639325e-06
3,0.0163593241305738,4.37820478987466e-06
3,-0.00695893441761433,-3.36998704160236e-07
3,-0.0103050006736536,-1.09431933723695e-06
3,-0.0134367374888394,-2.42594805572256e-06
3,-0.00235932773433157,-1.31330264468387e-08
3,-0.000941873176396338,-8.35559317351262e-10
3,-0.00407977659935278,-6.79061561612594e-08
3,-0.00520318596009797,-1.40866603460817e-07
3,-0.0223174843538004,-1.11156718397549e-05
3,-0.00680333374268322,-3.14894683544408e-07
3,-0.00401002229884096,-6.44822767087594e-08
3,-0.00190226031511439,-6.88350834567604e-09
3,-0.00453367765257767,-9.31862670785803e-08
3,-0.0206036657212004,-8.74648358683327e-06
3,-0.0484952800814403,-0.000114050820955994
3,-0.00236074214158561,-1.31566601952153e-08
3,-0.00328947269338174,-3.55941688855291e-08
3,0.0036290388621182,4.77941626058777e-08
3,0.00664340531281538,2.93205591674619e-07
3,-0.0148681710196722,-3.28679519684112e-06
3,-0.0322841125583697,-3.36485658276609e-05
3,-0.0111402392175,-1.38255860630067e-06
3,-0.00826641991748073,-5.6487504426646e-07
3,0.00315147531410025,3.12998119841038e-08
3,0.00144875775865764,3.04079627357755e-09
3,0.00751094531629721,4.23724718935251e-07
3,0.0341341000411039,3.97708956017898e-05
3,0.0222101812556599,1.09561080947942e-05
3,0.0135678871092568,2.49767924056865e-06
3,0.0335604457649846,3.77992481960078e-05
3,0.0803421470829801,0.000518597359556872
3,0.0482262405141024,0.000112163156620456
3,0.0189032862448557,6.7547912509365e-06
3,0.0236034979962691,1.31501015983562e-05
3,0.0200917378165031,8.11059110147189e-06
3,0.00627537565568708,2.47126424563975e-07
3,0.0039110423126899,5.98242886866924e-08
3,0.0166413698043098,4.60858089137292e-06
3,-0.0182530247077311,-6.08141337608363e-06
3,0.00884555888150022,6.92111130061122e-07
3,0.0170156638273717,4.92659305530438e-06
3,0.0261977087905637,1.79800100791933e-05
3,0.00800336629000507,5.12646599684922e-07
3,0.0102306742764011,1.07081087589581e-06
3,0.00544967053522115,1.61849268991927e-07
3,0.0123484377775668,1.88293814320497e-06
3,0.0358724994666954,4.61620315435009e-05
3,-0.0217723455991871,-1.03208545622128e-05
3,-0.0124705641154316,-1.939359396277e-06
3,0.0325231236216089,3.44014501217704e-05
3,-0.0377408083530818,-5.37568229282962e-05
3,0.0186282959963912,6.46426854840845e-06
3,0.0741716591741177,0.000408050563616262
3,-0.112017380254372,-0.00140558215523438
3,-0.178782140550484,-0.00571442317328522
3,0.218401134190748,0.0104175278026392
3,-0.445885363302538,-0.0886481443619803
3,0.348572892711902,0.0423526736320993
3,0.87629435194392,0.672899239575436
3,-0.220674567026389,-0.0107462477660314
3,-0.035463312288133,-4.4600311231721e-05
3,0.433689671422758,0.0815712726092107
3,-0.104683192521504,-0.00114717817644995
3,0.0696957173681181,0.000338546460601653
3,0.166174221435917,0.00458871365880067
3,-0.010347915414343,-1.10804809183751e-06
3,-0.0166275846332666,-4.59713757903551e-06
3,0.0154577907845361,3.69353547798467e-06
3,-0.0959710760198286,-0.000883936550711852
3,0.0248384060191432,1.53239655123508e-05
3,0.188611061917936,0.00670967494117156
3,-0.0115456298310058,-1.53905056226757e-06
3,-0.0172094008475069,-5.09679600120834e-06
3,-0.00340594728719112,-3.95106129064391e-08
3,-0.00597941899872499,-2.1378486754169e-07
3,0.0172469452307287,5.1302266535387e-06
3,0.0257075272821864,1.69895124527447e-05
3,0.00508782865731429,1.31703534893368e-07
3,-0.0117496204960589,-1.62207719428817e-06
3,0.00893209928709488,7.12624297391307e-07
3,0.023091419736052,1.23126605573629e-05
3,-0.12495468539214,-0.00195100164769364
3,-0.0946561500734676,-0.00084809891892482
3,-0.190045533214746,-0.00686393242901741
3,0.186026850201529,0.00643764313101649
3,-0.319251147554768,-0.0325384904576687
3,0.192392701902633,0.00712140657709224
3,0.373494716522588,0.0521018792353185
3,0.506779642553781,0.130153988861533
3,-3.36451129564315,-38.0860534077184
3,5.34082913979718,152.344245270286
4,0.00465060375272755,4.67775369911089e-10
4,0.00187999041586852,1.24917286283075e-11
4,0.0043182998621172,3.47737226205894e-10
4,0.00215154796405537,2.14291097293852e-11
4,0.00453085606958074,4.2142574686131e-10
4,0.00467478632918829,4.77581022826571e-10
4,0.0032139593642095,1.06699289076776e-10
4,0.000689257792262985,2.25697494807812e-13
4,0.00320274787125637,1.05218233167887e-10
4,0.0015159526444142,5.28132069544725e-12
4,0.00343374834066053,1.39018900781565e-10
4,0.00583951806244105,1.16280803594826e-09
4,0.00371490272071727,1.90453861645465e-10
4,0.000373293736971283,1.94179247622649e-14
4,0.00526061603847033,7.65854764962466e-10
4,0.00600182668496145,1.29757897669703e-09
4,0.00280564495400642,6.19627730904491e-11
4,0.00594569399241564,1.2497127891682e-09
4,0.00597184303092567,1.27184309160999e-09
4,0.00129010075693433,2.77009408657889e-12
4,0.000393819303241305,2.40540382868195e-14
4,0.00117869396136829,1.93020854683578e-12
4,0.00142079058791194,4.07493124818572e-12
4,0.000193791559508271,1.410390683816e-15
4,0.00115849734657088,1.80127563127928e-12
4,0.000821428377343242,4.55280247031249e-13
4,0.00158257686592129,6.27276838102903e-12
4,0.00280149544761798,6.15970175004438e-11
4,0.00145582267218185,4.49193966483895e-12
4,0.000615835691330244,1.43833292139188e-13
4,0.00463914272288115,4.63181212255051e-10
4,-0.00093560041394271,-7.66234356694776e-13
4,-0.00279632413520773,-6.1143464711851e-11
4,-0.00302169146777918,-8.33682092845326e-11
4,-0.00361496616792852,-1.70772111611104e-10
4,-0.0040527601692944,-2.69776189933788e-10
4,-0.00160684490493037,-6.66646863490294e-12
4,-0.00077757878979868,-3.65575954765671e-13
4,-0.00127246656230554,-2.62171522007028e-12
4,-0.000401342495312561,-2.59454128764949e-14
4,0.0065120390624577,1.79832419754177e-09
4,-0.000496030566975532,-6.05387932458963e-14
4,-0.00289788912184224,-7.05223959013571e-11
4,-0.00293110116072233,-7.3811363800537e-11
4,-0.0123129388614337,-2.29851261761481e-08
4,-0.00219612262987506,-2.32608911262251e-11
4,-0.0018873550818136,-1.268862198726e-11
4,-0.00149046524766134,-4.93500295606016e-12
4,-0.00180005901960696,-1.04989768771084e-11
4,-0.00318315796474398,-1.02667447396846e-10
4,-0.000815257869773313,-4.41753500067591e-13
4,0.00123125276683461,2.29820559581679e-12
4,-0.000521594211802231,-7.40169275142477e-14
4,-0.00123763263346002,-2.34621068695296e-12
4,-0.00248576440686875,-3.81803460758273e-11
4,-0.00714870023919094,-2.61161013955052e-09
4,-0.00193022107538883,-1.38812383966816e-11
4,-0.0029817351086035,-7.90453334590036e-11
4,-0.00168947646185506,-8.14720383151886e-12
4,-0.00259355477509607,-4.52461570254577e-11
4,-0.000455016019529826,-4.28653868703298e-14
4,0.00812105565776388,4.34960628742519e-09
4,0.00178994913533589,1.02650899553699e-11
4,-0.0032081977792333,-1.05936235364185e-10
4,-0.00315835567479552,-9.95048258861754e-11
4,-0.014834712134657,-4.84302257294896e-08
4,-0.0073218349217863,-2.87395346773683e-09
4,-0.0057744707068391,-1.11185647679308e-09
4,-0.00597127750335678,-1.27136139095966e-09
4,-0.00368300926581137,-1.83997213444208e-10
4,-0.00956953852340065,-8.38617614807767e-09
4,-0.00536901627818319,-8.30957635388934e-10
4,0.00619366331388603,1.47160201580301e-09
4,0.00175448194077637,9.47535759922162e-12
4,-0.00706803713928881,-2.49571673644459e-09
4,-0.00174963590307785,-9.37110335780426e-12
4,-0.00134132942904562,-3.23699339183681e-12
4,-0.000877618523153266,-5.93230025072416e-13
4,0.0116416641010002,1.8367931767308e-08
4,0.00800011041499033,4.09622613458176e-09
4,0.00214285650009923,2.10849393000435e-11
4,-0.00769409573842103,-3.50453453386092e-09
4,-0.0155765458138487,-5.88687246372578e-08
4,-0.00729139861660198,-2.82646339954133e-09
4,-0.0049950944495246,-6.22550832065714e-10
4,-0.0104072545243085,-1.17312611823588e-08
4,-0.00306314832932392,-8.80383936974576e-11
4,0.0124113916222855,2.37291355548758e-08
4,0.00816811728369142,4.45131019974063e-09
4,0.0191215755268372,1.33688697740255e-07
4,0.00704278642814755,2.46024339541866e-09
4,-0.0161624013391244,-6.82375691243484e-08
4,-0.0168720979339985,-8.10356929866329e-08
4,-0.0148799758538313,-4.90240183157962e-08
4,0.00357377583384589,1.63120758079026e-10
4,0.00221291243574644,2.39804273048105e-11
4,0.00119581213922767,2.04480468395808e-12
4,0.00265499398194598,4.96883029367482e-11
4,0.00202792246879538,1.69124057128642e-11
4,0.0064777076365843,1.76070002769198e-09
4,-0.00207401506193915,-1.85032332704058e-11
4,-0.00285282417020588,-6.6236903490629e-11
4,0.006509548138822,1.7955742639597e-09
4,0.00284527908895586,6.55389513685456e-11
4,0.00353402013464636,1.55982572328272e-10
4,-0.00588314726756394,-1.19795051706855e-09
4,0.00309141687020666,9.1333539904913e-11
4,0.000809039264394688,4.28428543497017e-13
4,0.00304754330203281,8.62580310523932e-11
4,0.00309835857085589,9.21566560353805e-11
4,-0.000753539626558101,-3.22421788244326e-13
4,-0.00114029100955187,-1.69068539428636e-12
4,-0.0016485523516877,-7.38602839430652e-12
4,0.00935043081250396,7.64410218881556e-09
4,0.00257972298704807,4.42886348834842e-11
4,0.00441869147399983,3.81219156098117e-10
4,0.0133611625203719,3.18696274377942e-08
4,0.00596993819814216,1.27022115377559e-09
4,0.00656517704992377,1.85774358626967e-09
4,-0.00568874253509435,-1.04728555754183e-09
4,-0.00512698718083905,-6.90953667329401e-10
4,0.00198316648331424,1.54680902006257e-11
4,0.000931298688109477,7.52239206031994e-13
4,0.000944099658730801,7.94458768210371e-13
4,0.00193049902849972,1.38892357539346e-11
4,0.00313607559227005,9.67266372697886e-11
4,0.000332270538712185,1.21889793796265e-14
4,0.00131129402646701,2.95665282007708e-12
4,0.00290353793235612,7.10738786488591e-11
4,0.0021353133260906,2.07896147562591e-11
4,0.00448938456003469,4.06206842152464e-10
4,0.000995443246930495,9.81897193678684e-13
4,0.00402931735714984,2.63588160058196e-10
4,0.00531020571054342,7.95143259361735e-10
4,0.00203677252977778,1.72095738321871e-11
4,0.00174776383716828,9.3310603138426e-12
4,0.00265197356587831,4.9462579729365e-11
4,0.00173315845139266,9.02304403771745e-12
4,0.00582428238703049,1.15072008470328e-09
4,0.00173947589405499,9.15532273806568e-12
4,0.00404021245519554,2.66450667537331e-10
4,0.00158587321913713,6.32519415193473e-12
4,0.00494054376377141,5.9579794737796e-10
4,0.00201611785838357,1.65220398818447e-11
4,0.00346934018436517,1.44873030794335e-10
4,0.00841204799832913,5.00733869849714e-09
4,0.00297943461194532,7.8801672395089e-11
4,0.015010577811735,5.07679515810842e-08
4,0.00759629602886661,3.32971853532238e-09
4,0.00673567043428199,2.05836940807414e-09
4,0.00232274866290178,2.91077660034537e-11
4,-0.00631863938939193,-1.59402189313555e-09
4,0.000883633992817035,6.0966274642319e-13
4,0.000877402876655755,5.92647171223267e-13
4,0.00111604584637957,1.55141555647429e-12
4,0.00101781947060735,1.07320581757112e-12
4,0.00596731537241982,1.26799039445021e-09
4,0.00470991882491072,4.92100366684811e-10
4,0.00410754886546931,2.84662956030563e-10
4,0.00273995415922936,5.63602859249574e-11
4,0.000943618862350861,7.92841645664167e-13
4,0.00472761508214836,4.9953789323215e-10
4,0.00465060375272755,4.67775369911089e-10
4,0.00576704340808291,1.1061470903607e-09
4,0.0132467817621524,3.07922572145937e-08
4,0.00660007114852629,1.8975554209899e-09
4,0.013898817466565,3.7317402383955e-08
4,0.01434033676788,4.22899723913289e-08
4,0.0098591157746131,9.44826065852681e-09
4,0.00583951806244105,1.16280803594826e-09
4,0.00849757883111598,5.21411743935636e-09
4,0.000853883182293098,5.31610854536044e-13
4,0.0120332893881279,2.09670554931488e-08
4,0.013728756637888,3.5524242527215e-08
4,0.0064177156068811,1.69637503262189e-09
4,0.013600357049589,3.42137943116037e-08
4,0.0136601711370099,3.48196628138384e-08
4,0.00295101479266061,7.58377685844777e-11
4,0.000900833972272095,6.5853524541143e-13
4,0.00117869396136829,1.93020854683578e-12
4,0.00402550506524056,2.62592011386753e-10
4,0.000549066773836035,9.0886766904172e-14
4,0.00328235348429679,1.16075723066534e-10
4,0.00232734093388611,2.93386436558462e-11
4,0.00448389174597596,4.04222492556411e-10
4,0.00793743582663255,3.96936383357832e-09
4,0.00412476095409166,2.89464385968025e-10
4,0.00174483820198243,9.26873882940333e-12
4,0.00393012378406518,2.38574991436987e-10
4,-0.00220215843752275,-2.35176675525597e-11
4,-0.0065818149464535,-1.87664735148097e-09
4,-0.0071122706469515,-2.55878089161024e-09
4,-0.00850868397387277,-5.24142739493261e-09
4,-0.00953913644015797,-8.28011259613399e-09
4,-0.00378209223986034,-2.04610758752059e-10
4,-0.00183021690379323,-1.12204493237223e-11
4,-0.00299505316039577,-8.04670613166713e-11
4,-0.000944655163911791,-7.96330247021758e-13
4,0.00551677780377317,9.26279323681217e-10
4,-0.000565983948144795,-1.02616325045655e-13
4,-0.00330656785219253,-1.19539037909424e-10
4,-0.00334446366374685,-1.25114005313154e-10
4,-0.0140493877071965,-3.8960954661363e-08
4,-0.00250583379215041,-3.94283902383882e-11
4,-0.00215352188327679,-2.15078578282427e-11
4,-0.00170066012380561,-8.36508031112206e-12
4,-0.00205391477590343,-1.77962983089558e-11
4,-0.00363206711924916,-1.74026530573379e-10
4,-0.00093023071280439,-7.4879458810594e-13
4,0.0010430754284118,1.18375781623998e-12
4,-0.000296046363950288,-7.68137425922267e-15
4,-0.000702455343160486,-2.43486496707182e-13
4,-0.00141086978658721,-3.96230345414729e-12
4,-0.00405745820198148,-2.71029284445868e-10
4,-0.00109555458641812,-1.44057570190114e-12
4,-0.00169237276256371,-8.20321526622116e-12
4,-0.000958912795031994,-8.45505533636515e-13
4,-0.00147204942750443,-4.69558353171572e-12
4,-0.000258257923636648,-4.44851050124975e-15
4,0.00687988188741755,2.24039156883013e-09
4,0.00172071111229875,8.76661337032631e-12
4,-0.00308409968763889,-9.04718829921083e-11
4,-0.00303618555350326,-8.49793173579938e-11
4,-0.014260882342373,-4.13604816181822e-08
4,-0.00703861493246876,-2.45441968901376e-09
4,-0.00555110517765472,-9.49549969626824e-10
4,-0.00574029918046663,-1.08577068656598e-09
4,-0.00354054472569784,-1.57137681062303e-10
4,-0.00919937385466347,-7.16197951165444e-09
4,-0.00516133435839173,-7.09656159687579e-10
4,0.00524706070807796,7.57991535558072e-10
4,0.00177202121395631,9.8599716709289e-12
4,-0.00713869516736581,-2.59702033008531e-09
4,-0.00176712673119999,-9.75148564745325e-12
4,-0.00135473848315644,-3.36838613300641e-12
4,-0.000886391934077377,-6.17309814464308e-13
4,0.00986242150813236,9.46093893309227e-09
4,0.0107751890178937,1.34803009838991e-08
4,0.00288617064378595,6.93885832113244e-11
4,-0.0103630239587583,-1.15330987042143e-08
4,-0.0209797386140581,-1.93731522766513e-07
4,-0.00982063924411346,-9.30162937639722e-09
4,-0.00672779300083251,-2.04875715312029e-09
4,-0.0140173233667661,-3.86064944813099e-08
4,-0.00412569333749006,-2.89726203141347e-10
4,0.00253360417748168,4.12054883677619e-11
4,0.0137608414526669,3.58574964754583e-08
4,-0.00759378664123101,-3.32532091042895e-09
4,-0.00737165558658482,-2.95297754726572e-09
4,-0.00599148616260504,-1.28865968653719e-09
4,-0.00440319699626303,-3.75900119540277e-10
4,-0.00295417134822182,-7.61627693186182e-11
4,-0.00487904339888578,-5.6668109528788e-10
4,-0.00369762730503664,-1.86935825752453e-10
4,0.0105145084602609,1.22223832962686e-08
4,0.00669595833530218,2.01025416511619e-09
4,0.0156752490918167,6.03750916925462e-08
4,0.00577344850097395,1.111069395507e-09
4,-0.0132494138130569,-3.0816737408599e-08
4,-0.0138312001249981,-3.65964922774754e-08
4,-0.0121981228827959,-2.21397145082821e-08
4,0.00302758122405689,8.4020103648913e-11
4,0.0107097961066272,1.31560286689553e-08
4,0.00578735244381149,1.12181107962034e-09
4,0.0128493309322348,2.72597618732366e-08
4,0.00981450319046204,9.27840407476020e-09
4,0.0313500556576514,9.65946926104162e-07
4,-0.0100375767593125,-1.01511563693027e-08
4,-0.0138067664573709,-3.63385768814359e-08
4,0.0129455411028722,2.80854141144567e-08
4,0.00329233556465989,1.17494185113865e-10
4,0.00575399867534782,1.09617282230373e-09
4,-0.00225888944718492,-2.60363383172757e-11
4,-0.00766945210433684,-3.45985070036112e-09
4,-0.01037570957066,-1.15896741886985e-08
4,0.00551466757806774,9.24862890191609e-10
4,0.00418922755582753,3.07989425897859e-10
4,0.0052032908084046,7.33014213659088e-10
4,-0.0086620123642474,-5.62956965745808e-09
4,0.00261894313105202,4.70440033494400e-11
4,0.00133515937546358,3.17784301153945e-12
4,0.00502936778338525,6.39813769016325e-10
4,0.00511322833944442,6.83566465853174e-10
4,-0.00124356819435101,-2.39154426588157e-12
4,-0.00188182489918966,-1.25405574546695e-11
4,-0.00272060977157293,-5.47854223817428e-11
4,0.0079213666667826,3.93731776243962e-09
4,0.00428900318349141,3.38396197551943e-10
4,0.00734644064265901,2.91278142116930e-09
4,0.0222140395975599,2.43506280352035e-07
4,0.00992551683480486,9.70537948660034e-09
4,0.0109151507385406,1.41944624681714e-08
4,-0.00945800574929251,-8.00199535062622e-09
4,-0.00852404093413949,-5.27937007595672e-09
4,0.00168007113154597,7.96729096414375e-12
4,0.00211978390225776,2.01913965914033e-11
4,0.00214892094690606,2.13246423954285e-11
4,0.00439412276231715,3.72811022358843e-10
4,0.00265677648006316,4.98218754297428e-11
4,0.000588247800884993,1.19740550128746e-13
4,0.00232149931309741,2.90451910852757e-11
4,0.00514038894364369,6.98206557262951e-10
4,0.0037803332583791,2.04230381424719e-10
4,0.00380325376673249,2.09228680533799e-10
4,0.00185929000890875,1.19505678592472e-11
4,0.00752596346197767,3.20810387681015e-09
4,0.00991840815968986,9.67760529310058e-09
4,0.0038042860069752,2.09455919860362e-10
4,0.00148064602356492,4.80623474262850e-12
4,0.00403912437869612,2.66163750335735e-10
4,0.0026397105322748,4.8554023135546e-11
4,0.00887075243907043,6.19215526175735e-09
4,0.002649332399173,4.92658298218705e-11
4,0.00615350048464279,1.43380125620688e-09
4,0.00241538575774477,3.4036586977309e-11
4,0.00418546048528424,3.06883108453027e-10
4,0.00521590908706745,7.4015052626442e-10
4,0.00897554818956211,6.48998856986031e-09
4,0.0217628535022801,2.24317602389364e-07
4,0.00770811091333144,3.5301391178599e-09
4,0.0388339445954482,2.27429096823549e-06
4,0.0196524173030174,1.49163961826491e-07
4,0.0174258883128145,9.22103572880707e-08
4,0.00600919524988315,1.30396297793178e-09
4,-0.016346985109023,-7.14086245716989e-08
4,0.000748584637081812,3.14024577549726e-13
4,0.00233881964582681,2.99217460585982e-11
4,0.00297495030003197,7.83283285000180e-11
4,0.00271311644524673,5.4184333446984e-11
4,0.0159065747300206,6.40186749042756e-08
4,0.0125548376589978,2.48453091860601e-08
4,0.0109491503143572,1.43721477064599e-08
4,0.00730366720553249,2.84553482260906e-09
4,0.00251532607443778,4.00292240276417e-11
4,0.0126020090955023,2.52208172310815e-08
4,0.00187999041586852,1.24917286283075e-11
4,0.00576704340808291,1.1061470903607e-09
4,0.00535496552234587,8.22293232435173e-10
4,0.00266805584027719,5.06733549923438e-11
4,0.00561854869138726,9.9654426820789e-10
4,0.00579703133558298,1.12933448999572e-09
4,0.00398551331197376,2.52311506222023e-10
4,0.00371490272071728,1.90453861645466e-10
4,0.00849757883111598,5.21411743935635e-09
4,0.00054321142997704,8.70714142050702e-14
4,0.00765516931519655,3.43414954365059e-09
4,0.00873376789673563,5.81844032907869e-09
4,0.00408273232719931,2.77845668221859e-10
4,0.00865208444703817,5.60380479558236e-09
4,0.00869013613447553,5.70303871238779e-09
4,0.0018773352124112,1.24213072484576e-11
4,0.000573079925213767,1.07860090952993e-13
4,0.00142079058791194,4.0749312481857e-12
4,0.00402550506524056,2.62592011386753e-10
4,0.000661841775702166,1.91874254785326e-13
4,0.00395652908179418,2.45051547334078e-10
4,0.00280536271678952,6.1937843974724e-11
4,0.00540485605144125,8.53368341383568e-10
4,0.00956773724499536,8.37986379626298e-09
4,0.00497196196216785,6.11098460605019e-10
4,0.00210321743901021,1.9567561002216e-11
4,0.00144431662203343,4.35160670808426e-12
4,0.00227429744978813,2.67540206232735e-11
4,0.00539107993014176,8.44701146310512e-10
4,0.00645826618155306,1.73965753746557e-09
4,0.00633130197687472,1.60683806834103e-09
4,0.00184657371951061,1.16269713282147e-11
4,0.00066092191808839,1.90809774505092e-13
4,0.00156234041242128,5.9580297373823e-12
4,0.00177286001328824,9.87865409260371e-12
4,-0.000700362834243764,-2.40598195763352e-13
4,-0.000689482096854482,-2.25991432446676e-13
4,-0.00323847896880649,-1.09992816819187e-10
4,-0.00159838682355572,-6.5272096621916e-12
4,-0.00126059082039073,-2.52520453784838e-12
4,-0.00130355455744577,-2.88746580220175e-12
4,-0.000804016144093876,-4.1788720760156e-13
4,-0.00208906980923584,-1.90463522103155e-11
4,-0.00117207844292814,-1.88723817816497e-12
